word,0,1,2,3,4,5,6,7,8,9,10,11,12,13,14,15,16,17,18,19,20,21,22,23,24,25,26,27,28,29,30,31,32,33,34,35,36,37,38,39,40,41,42,43,44,45,46,47,48,49,50,51,52,53,54,55,56,57,58,59,60,61,62,63,64,65,66,67,68,69,70,71,72,73,74,75,76,77,78,79,80,81,82,83,84,85,86,87,88,89,90,91,92,93,94,95,96,97,98,99
照片,-0.0003636133624240756,-0.002151154913008213,-0.001515926094725728,0.007564214523881674,-0.0002152295783162117,0.0028381310403347015,-0.0014611256774514914,0.00023999455152079463,0.0036853926721960306,0.0005594263784587383,-0.005954861640930176,-0.004997639451175928,-0.00287048751488328,-0.004603356122970581,-0.004026024602353573,-0.002935129450634122,-0.002985736820846796,0.0041714743711054325,0.005700996611267328,-0.0022499251645058393,0.002412161324173212,-0.006122935097664595,-1.3216515071690083e-05,0.0014820840442553163,0.002558356849476695,0.0009064568439498544,0.001078023575246334,-0.005039947107434273,-0.00043059722520411015,-0.0013985562836751342,0.005127758719027042,0.006902328226715326,-0.0012686089612543583,-0.0005784374661743641,0.0024242992512881756,0.0025121327489614487,-0.0019361048471182585,0.0009739118977449834,-0.004004698246717453,-0.0029277342837303877,0.0005036923103034496,-0.005079595372080803,-0.004260917194187641,-0.0022354451939463615,-0.0027397675439715385,-0.002080887323245406,0.0004398419405333698,-0.001832642825320363,0.003674434032291174,0.003139340318739414,0.003957889974117279,0.0006733972113579512,-5.7460740208625793e-05,-0.003281621029600501,-0.0006178349140100181,-0.0011924918508157134,-0.00012235529720783234,0.0011250956449657679,-0.008156453259289265,0.0006580402841791511,0.0010556064080446959,0.0018250237917527556,-0.001439228537492454,0.0036625652574002743,-0.0005049515748396516,-0.003406256902962923,-0.0010667878668755293,-0.004855393432080746,-0.0036013731732964516,0.005640821065753698,-0.004877110943198204,-0.004682853817939758,-0.001016662223264575,-0.0033800231758505106,-0.002657167613506317,-0.0019188981968909502,0.00024074545945040882,0.0023704434279352427,-0.0006313646445050836,0.001788803143426776,9.369687177240849e-05,-0.0013539557112380862,0.0030295480974018574,0.0006499160081148148,-0.0017446557758376002,-0.0026884896215051413,-0.0009190547280013561,-0.0023854889441281557,-0.00451741274446249,-0.0016992774326354265,-0.0014201666926965117,-0.0014198754215613008,-0.004072519484907389,0.005113452207297087,0.0008493262575939298,-0.0030395546928048134,0.004115583375096321,-0.0012510874075815082,-0.005890245549380779,0.0021098561119288206
说,-0.01249745488166809,0.008274272084236145,0.008440760895609856,0.006399810779839754,0.0035519872326403856,-0.004851578269153833,0.0022841559257358313,0.0019614892080426216,-0.005982816684991121,0.0008097874233499169,-0.0058086588978767395,-0.006751800421625376,0.005922301672399044,-0.006899314466863871,0.0041262428276240826,-0.003131483681499958,-0.0043065957725048065,0.0003414832171984017,-0.0018192279385402799,-0.010598523542284966,0.0036975706461817026,0.0024077293928712606,0.005227116402238607,-0.006813567131757736,0.004956078249961138,-0.0017652895767241716,-0.00023043120745569468,-0.006741426419466734,-0.000613110139966011,0.0006742984987795353,0.0008159114513546228,-0.008078893646597862,0.005486616399139166,0.0017580990679562092,0.001021060743369162,0.007162702735513449,0.0007034818409010768,-0.00030225072987377644,0.0008971965871751308,-0.012100104242563248,-0.0023358443286269903,-0.004367725923657417,-0.011036123149096966,0.00041959318332374096,-0.0016525719547644258,0.00044146692380309105,-0.007315407507121563,0.008423902094364166,0.004193189553916454,0.004666058346629143,-0.0029152068309485912,-0.0043119704350829124,0.0030266474932432175,0.006207730621099472,0.0038538118824362755,0.0016478560864925385,0.000500635476782918,-0.002479149028658867,0.0010499258060008287,-9.092269465327263e-05,-0.004380497615784407,-0.003161855973303318,0.0056738946586847305,0.0019698364194482565,-0.0038873578887432814,-0.0038176709786057472,0.0007557562785223126,-0.0036185882054269314,-0.003693247679620981,0.009004015475511551,-0.012772373855113983,-0.0026347471866756678,0.0021845914889127016,0.0021354216150939465,0.0003796254750341177,-0.006451761350035667,0.003937063738703728,-0.002079407451674342,-0.011235319077968597,-0.0018791928887367249,0.002405097708106041,-0.0038100441452115774,0.0021881836000829935,0.0020307383965700865,0.005198334343731403,-0.0023513566702604294,0.004141090903431177,-0.0005135757382959127,-0.002663049614056945,0.005810970440506935,-0.004628967493772507,2.1448824554681778e-05,-0.0017562658758834004,0.0012422176077961922,0.011381678283214569,0.006929125636816025,0.0018498500576242805,-0.002150003332644701,-0.003356131026521325,-0.006689995061606169
死亡,-0.0022621259558945894,0.0002611960517242551,0.005302278324961662,0.003167439717799425,0.0003482728498056531,-0.003744574962183833,-0.002739926101639867,0.003247962798923254,0.003504419233649969,0.0022444084752351046,-0.003737680148333311,-0.0008305892115458846,0.003996828570961952,-0.0011501684784889221,-0.0014321859925985336,0.0007378680165857077,0.006986442022025585,0.0003824866143986583,0.0038384876679629087,-0.006493771448731422,0.00041829608380794525,-0.0014544662553817034,0.00014449461014010012,-0.0009000072022899985,-0.0024291924200952053,-0.0028093624860048294,0.002866411115974188,-0.006056332960724831,-0.003998343367129564,0.00040270457975566387,0.0005045428406447172,0.002315879100933671,-0.0017026741988956928,0.005065577104687691,-0.0027269264683127403,0.0051275924779474735,-0.00044412596616894007,0.0019944063387811184,-0.00271855597384274,-0.002901473781093955,-0.003380571026355028,0.0008437730721198022,0.005021586082875729,0.0019912770949304104,0.0025252089835703373,0.0004962054081261158,-0.0022392922546714544,-0.00223485566675663,-0.001241239719092846,-0.0008665742352604866,0.0018028980121016502,-0.00043133727740496397,-0.0015064431354403496,0.006398610770702362,0.0029758443124592304,-0.0022801458835601807,0.0030977893620729446,-0.0012967480579391122,0.001967799384146929,-0.003868109080940485,0.0008221025345847011,0.0030025166925042868,0.0017984152073040605,0.002707510255277157,-0.00015777512453496456,-0.004210891202092171,-0.002236492931842804,0.00023699714802205563,-0.0031224668491631746,-0.004960083402693272,0.002668410772457719,0.0032911847811192274,-0.0013989841099828482,-0.0002743188524618745,0.003066462930291891,0.0002819162327796221,-0.0023926394060254097,0.0016820314340293407,0.0017330370610579848,0.0008998058037832379,0.0016945339739322662,0.0031682844273746014,-0.001988451462239027,0.0027064273599535227,0.006300707813352346,5.634501576423645e-06,-0.001016298308968544,0.001899132737889886,0.006980905309319496,-0.0015492113307118416,-0.004422455094754696,0.005230965558439493,0.0017255230341106653,0.003016771748661995,0.0015589632093906403,0.00448836013674736,0.0058103869669139385,-0.0032788915559649467,0.004704030696302652,7.916911272332072e-05
狗,0.0008748872205615044,0.0023142576683312654,0.003357736859470606,0.005826120264828205,0.0011416857596486807,-0.0068655614741146564,0.0010936488397419453,0.005306045990437269,-0.004250063095241785,-0.007599581032991409,-0.007062217220664024,-0.003179299645125866,-0.006845069117844105,0.004891831427812576,-0.0028494102880358696,-0.006429706700146198,-0.0013512647710740566,-0.001767964567989111,0.0066994838416576385,-0.0011612761300057173,-0.0016380371525883675,0.006425140891224146,-0.0001554305199533701,0.006141607649624348,0.005102522671222687,-0.0015866316389292479,-0.001997441053390503,0.0004317972343415022,-0.004208543803542852,-0.00431835139170289,0.002959122648462653,-0.0014164544409140944,-0.004563692957162857,-1.3624696293845773e-05,-0.0018946873024106026,0.001177897211164236,0.0018004279118031263,0.009017914533615112,0.0038062836974859238,-0.0003952048718929291,0.005208917893469334,0.003506327047944069,0.0027368783485144377,-0.0060165030881762505,0.0040754941292107105,0.0038884177338331938,0.0034261413384228945,0.006194590590894222,0.008042334578931332,0.0010291761718690395,0.006465492770075798,-0.001952237682417035,-0.007263305131345987,-0.0036785234697163105,-0.004416783805936575,-0.004373881034553051,-0.006097846664488316,0.0011197986314073205,-0.0021877512335777283,0.001063974341377616,0.0031969239935278893,0.0016016564331948757,0.004449984058737755,-0.0010384316556155682,0.000303125474601984,-0.0031503289937973022,0.0020662089809775352,-0.004703359212726355,-0.0037016235291957855,0.005779800936579704,0.004155240952968597,-0.007347998209297657,-0.005829886067658663,-0.003341884585097432,-0.0019041176419705153,0.008409729227423668,0.000694742426276207,-0.0032404582016170025,-0.003023701487109065,-0.0009283309336751699,0.0005521997809410095,0.0006005311151966453,-0.0024400069378316402,0.008616943843662739,0.00034097384195774794,0.004570538643747568,0.0005816186894662678,0.0016009383834898472,-0.004464313387870789,-0.005261425860226154,-0.007334941532462835,0.002978874836117029,0.00407447898760438,0.0028544028755277395,-0.001492014853283763,0.004445808939635754,0.001514487899839878,0.0023389612324535847,0.00036978116258978844,-0.0015920324949547648
新闻,-0.0032650877255946398,-0.0005800031358376145,0.0005996893160045147,0.0002960021374747157,-0.0057208240032196045,-0.006513326428830624,-0.000891258823685348,-4.7306413762271404e-05,0.0028741182759404182,-0.0003430691722314805,-0.0018127548974007368,0.0014115055091679096,-0.002223926829174161,-0.001728707691654563,-0.0029500459786504507,-0.0012482190504670143,0.0040582590736448765,0.0016209220048040152,0.006596357561647892,-0.0029290434904396534,0.0001554706832394004,0.0020390665158629417,-9.629048872739077e-05,-0.00013206037692725658,3.4565688110888004e-05,0.00599731644615531,0.002132970606908202,-0.0022096503525972366,-0.0016947987023741007,-0.0018168734386563301,-0.0006697179051116109,0.0002773379092104733,0.003392081009224057,0.004303854424506426,-0.0027672480791807175,0.006704642437398434,0.002367065055295825,0.0011605003383010626,-0.000668079243041575,0.004089312627911568,-0.0005666685756295919,0.0023583676666021347,-0.004029375035315752,-0.0032937226351350546,0.0017318986356258392,-0.0034980634227395058,4.808884114027023e-06,-0.0019944566302001476,0.00017766973178368062,-0.00047413515858352184,-0.003866146318614483,-0.0007314379326999187,0.0007099849171936512,-0.003993472084403038,0.0006595829618163407,0.0022758624982088804,-0.0002794782631099224,-0.00774076022207737,-0.004978632554411888,-0.004180870950222015,-0.0007579281227663159,-0.0012272339081391692,0.0011053582420572639,0.001261992729268968,-0.0031641931273043156,0.0007262984872795641,-0.0017198523273691535,-0.006135052070021629,-0.004165996331721544,0.0036642742343246937,-0.002677499083802104,-0.0019325162284076214,-0.0018746030982583761,-0.0007017272291705012,0.0016463760985061526,-0.002878326689824462,0.000621477491222322,0.0029086328577250242,-0.0017376076430082321,0.004922005347907543,-0.0043299198150634766,-0.0015203291550278664,0.003125034738332033,-0.0024037889670580626,0.003186711110174656,-0.0009639456402510405,0.004900508560240269,0.0011330037377774715,0.0005589042557403445,-0.004333564545959234,0.0005077084060758352,-0.004523795563727617,0.006582815200090408,-0.0020428388379514217,0.0030866828747093678,-0.002872974844649434,-0.0028924881480634212,-0.0005733369034714997,0.0015338093508034945,-0.0019521376816555858
使用,-0.009332043118774891,0.005167270079255104,0.001678795088082552,0.004885759670287371,-0.0052563524805009365,-0.002116624265909195,0.00011357280891388655,0.004471855238080025,-0.00020839390344917774,-0.001078654546290636,-0.0016791936941444874,-0.006416905205696821,0.004418846685439348,0.0011996397515758872,0.002463600132614374,-0.007142290472984314,-0.003095940686762333,-0.0004935835022479296,0.004119547549635172,-0.002872705226764083,0.002183150965720415,-0.0013017606688663363,-0.002731532324105501,-0.006024042144417763,0.006124294828623533,0.0017514161299914122,0.00010766834020614624,0.0009412762010470033,-0.00040088454261422157,-0.003080962225794792,0.0011577022960409522,-0.002679090015590191,0.0003811961505562067,0.001901667332276702,0.0007226665038615465,-0.0037460834719240665,-0.00042605132330209017,-0.0006329523166641593,-0.002554225968196988,-0.0030709686689078808,-0.003708459669724107,-0.0017995290691033006,-0.004039777908474207,-0.00895055290311575,-0.005462531466037035,-0.004468486178666353,0.0026008416898548603,0.001786917680874467,0.002377114724367857,0.006188231520354748,-0.0006348140304908156,0.0019353250972926617,-0.004182998090982437,0.006640338804572821,-0.00274476851336658,-0.003948015160858631,0.007774634286761284,9.869423229247332e-05,-0.0059181759133934975,-0.0013467564713209867,0.0022529978305101395,0.0044829100370407104,-0.004448791034519672,0.006559193599969149,-0.002086755819618702,-0.0021515581756830215,0.005255981348454952,-0.00019707053434103727,-0.0024635291192680597,0.005250891204923391,-0.002155154477804899,0.0013602294493466616,0.0024009528569877148,-0.0032473215833306313,0.003210094291716814,0.0009037733543664217,0.0020648573990911245,0.0016585617559030652,0.00309067964553833,0.0014012802857905626,-0.004511963110417128,-0.001228122040629387,0.005515574477612972,0.0034394068643450737,-0.005308675114065409,0.002175655448809266,0.0007460697670467198,-0.001941557158716023,-0.0030502560548484325,-0.0013343142345547676,0.005350199062377214,0.0008836073102429509,-0.0011241452302783728,0.0008427010616287589,0.004116598982363939,0.0054774233140051365,-0.004538209177553654,0.0002864488633349538,-0.006600521504878998,0.0030525452457368374
方式,0.0002978511620312929,-0.004654116928577423,-0.004873068071901798,0.005215984769165516,-0.00020612741354852915,-0.005310511216521263,-0.0020504649728536606,0.0025347687769681215,-0.007457004860043526,-0.007268588524311781,-0.002010679803788662,-0.0024366937577724457,-0.001104459399357438,0.0012733510229736567,8.70975200086832e-05,-0.0008249898091889918,0.00222836434841156,-0.0030040270648896694,-0.002881529973819852,-0.001831719884648919,-0.0004422754282131791,-0.00499655632302165,-0.0019692222122102976,0.0021992961410433054,0.0044769346714019775,-0.003176993690431118,0.0007749113719910383,-0.0030652210116386414,-0.0003690000157803297,0.005069584585726261,0.0009844652377068996,-0.002407738473266363,-0.006035575643181801,-0.0025535165332257748,-0.0037375057581812143,0.00047876627650111914,-0.005399773363023996,0.0018876715330407023,-0.009660168550908566,0.0001513642491772771,-0.00555612426251173,-0.0022821153979748487,0.002530889119952917,-0.007354664150625467,-0.005806864704936743,-0.0006595792365260422,-0.003420216031372547,0.0023799510672688484,0.0018806473817676306,0.0021361620165407658,0.0003788341418839991,-0.006205180659890175,0.00032279553124681115,0.0007156009087339044,-0.0030486062169075012,-0.0006973117706365883,-0.001732651493512094,-0.0016931076534092426,-0.0004150135791860521,0.0019399331649765372,0.0005367854610085487,-0.004214761778712273,-0.0042714886367321014,-0.004656398668885231,0.004061466548591852,-0.0020209727808833122,0.000292852520942688,-0.0030005478765815496,0.00013387540820986032,0.00047811935655772686,-0.004948758520185947,0.0020038243383169174,9.985803626477718e-05,0.004524900112301111,0.0028115352615714073,-0.003974325954914093,0.00046801898861303926,0.0022061311174184084,-0.003935389686375856,-0.000269748386926949,-0.0042498186230659485,0.00407424895092845,0.0007003737846389413,0.0021041445434093475,-0.0012820479460060596,0.0013712674845010042,0.004236099310219288,0.0012806892627850175,0.005650978535413742,-0.004006330389529467,0.0020464970730245113,0.002419880358502269,-0.0018058442510664463,0.0026405127719044685,-0.0027517732232809067,0.004949747119098902,0.001650425372645259,-0.004718204494565725,0.0030353048350661993,-0.0026005220133811235
特,0.0005889676976948977,0.006832748185843229,0.002670419868081808,0.00013556075282394886,-0.0025757134426385164,-0.012083182111382484,0.006238581147044897,0.000263405148871243,-0.007946361787617207,-0.006988381035625935,-0.0023793946020305157,-0.007493676617741585,0.0033557144924998283,0.0009164662333205342,-0.00297427992336452,-0.00935426726937294,-0.008680025115609169,0.004929080605506897,0.006521154195070267,0.005794971249997616,-0.0006515891291201115,-0.0037337320391088724,0.006769875530153513,-0.001696622697636485,0.0003447390627115965,0.006362146232277155,0.003873085603117943,-0.007002732716500759,-0.007017318159341812,-0.0018240229692310095,-0.003417348023504019,-0.002735423156991601,7.840048056095839e-06,-0.0011628945358097553,0.0005390063161030412,-0.007878882810473442,-0.0017735387664288282,0.008274465799331665,0.001489077229052782,-0.003185226581990719,0.006847754120826721,-0.0026615590322762728,0.006755054462701082,0.002556249499320984,-0.008722723461687565,-0.004596089944243431,-0.0005690153921023011,-0.0025944875087589025,0.00846179947257042,0.00019738217815756798,0.0003994526341557503,-0.001973177772015333,0.003518188837915659,-0.0055889529176056385,0.007484661415219307,-0.008236832916736603,0.007126290816813707,0.004426874220371246,-0.00232477649115026,0.0019368736539036036,0.0019101293291896582,0.005461405962705612,0.0032275072298943996,-0.0010986903216689825,0.00046257302165031433,0.0016352576203644276,0.0010847083758562803,-0.006200931500643492,-0.00037286197766661644,-0.000879777071531862,-0.010357257910072803,0.0029349527321755886,-0.00030225375667214394,-0.003446627175435424,-0.00019984599202871323,0.002860814332962036,-0.00022292748326435685,-0.0045501794666051865,-0.001302821096032858,-0.007395636290311813,0.006161059252917767,0.003400262910872698,-0.006051302887499332,-0.004030432552099228,-0.002290659351274371,-0.0019718564581125975,0.004387884400784969,0.00718478299677372,0.00536751002073288,-0.005845359526574612,-0.003393173683434725,-0.000827662879601121,-0.006053823512047529,-0.005428370088338852,0.008404717780649662,-0.007676289416849613,-0.005478934850543737,-0.0020397985354065895,0.005806168541312218,-0.005934793967753649
作者,0.0015941313467919827,-0.0006039378931745887,-0.003980305511504412,0.0018989609088748693,8.833245374262333e-06,-0.0017488899175077677,0.001365302479825914,0.001210138900205493,0.002119933720678091,-0.003919658716768026,2.071727067232132e-05,-0.000682578538544476,0.0020911952015012503,0.0038844586815685034,0.001946707023307681,0.0024590601678937674,0.0009523683693259954,0.00046825886238366365,-0.002677507931366563,0.002579829189926386,-0.0029030439909547567,0.0037652228493243456,-0.002028157003223896,-0.0004787099314853549,0.0019171994645148516,0.00023928354494273663,0.0009367032907903194,0.0013792684767395258,-0.0008517065434716642,0.005191021598875523,-0.0029584611766040325,-0.0013699248665943742,-0.007015318609774113,-0.004682725295424461,-0.005054697394371033,0.0009780141990631819,0.0001285349135287106,0.00017562194261699915,0.003335041692480445,-0.005924751982092857,0.004936208017170429,-0.00454671261832118,-0.0063356370665133,-0.000545138493180275,-0.0069337692111730576,-0.0013633023481816053,-0.005445600487291813,0.0038730581291019917,0.0010741526493802667,-0.0009220571955665946,-0.0005657864967361093,-0.0007441791240125895,0.0011377464979887009,0.0021881922148168087,0.0016000340692698956,-0.0019060177728533745,0.0036306483671069145,0.003381070913746953,0.0006573674036189914,-0.00034298590617254376,-0.0013445103541016579,-0.0023666038177907467,-0.0014798956690356135,-0.005579107441008091,-0.001500390935689211,-0.0001107865828089416,0.0003312298795208335,0.0011579848360270262,0.002820558613166213,0.0054087527096271515,-0.0007606321014463902,-0.0017907413421198726,-0.0008721183985471725,0.0029106209985911846,-0.0016069969860836864,-0.0012314991327002645,0.0005556279793381691,0.0033504613675177097,-0.004454878158867359,-0.005033906549215317,0.00044946291018277407,0.0019654580391943455,0.0006586879026144743,0.0006826448952779174,0.005791833624243736,0.0016422078479081392,0.0024372602347284555,0.006924264598637819,0.001976010389626026,-0.0005862339166924357,-0.0045466916635632515,-0.003216165117919445,0.00013306632172316313,-0.004287268500775099,-0.0001805551873985678,-0.0012618503533303738,0.0003090516838710755,-0.001007710350677371,0.0011838746722787619,0.0017473428742960095
越来越,0.000339600199367851,7.496192120015621e-05,0.0005739257903769612,0.0001366999204037711,0.0008225981146097183,-0.0022990754805505276,-0.0005783293745480478,-0.0013875436270609498,-5.1471935876179487e-05,0.0014140732819214463,-0.002482218435034156,0.00025180127704516053,-0.0007153578335419297,-0.00016435189172625542,0.00022893592540640384,-0.0019435278372839093,0.0015079311560839415,-0.0004511023871600628,-0.00120492372661829,-0.0001409806136507541,-0.0011250980896875262,0.002522328170016408,0.002898657927289605,-0.0017290773103013635,-0.0009905381593853235,-0.0021581421606242657,0.0015735623892396688,-0.0028337170369923115,-0.0009740372188389301,0.001731054624542594,-0.0007109981379471719,-0.002379786456003785,0.0037245277781039476,-0.0019856763537973166,0.0015017135301604867,-0.0011596683179959655,-0.000631714123301208,0.00345843774266541,0.0015479555586352944,-0.0036879663821309805,0.0016937680775299668,0.0009745830320753157,-0.0007434017607010901,0.0010900575434789062,-0.0004447336832527071,-0.00284016621299088,0.00253196875564754,0.0016224754508584738,0.0012582254130393267,-0.0011473252670839429,0.0019661805126816034,-0.0026159733533859253,4.950711172568845e-06,-0.0034704769495874643,0.0027461738791316748,-0.00024742475943639874,0.0012678994098678231,0.0016955782193690538,0.0007155562634579837,0.0008589287172071636,-0.003096343483775854,0.0025916509330272675,-0.002097215037792921,-0.0010942037915810943,1.257505027751904e-05,-0.0030749153811484575,0.0031764584127813578,0.002987802028656006,0.0007959903450682759,-0.001524570630863309,-0.002862429479137063,-0.001203211024403572,0.0012467749183997512,-0.0015208834083750844,0.0021358265075832605,-0.0021654553711414337,0.002671045484021306,-0.0015908873174339533,0.00036321565858088434,0.002234427956864238,-0.00043209880823269486,-0.000319671758916229,-0.0031295923981815577,-0.0006840602727606893,-0.0011643795296549797,0.0038555392529815435,0.0005476973601616919,0.002079583937302232,0.0010484035592526197,0.004694428760558367,-0.0006705493433400989,0.0014132811920717359,-5.65491100132931e-05,-2.3107442757464014e-05,-0.0013091920409351587,0.005043394863605499,0.0044006602838635445,0.0007112150196917355,-0.0014242117758840322,-0.00045797150232829154
发现,-0.004292934201657772,-0.0012190869310870767,0.005193473305553198,0.0008942980202846229,-0.001191670075058937,-0.003039289265871048,-0.003618023358285427,-0.00017190806102007627,0.003565859282389283,-0.002225923351943493,0.0011925715953111649,0.0029210615903139114,0.00011431187158450484,7.163023110479116e-05,-0.0056355674751102924,0.0023414280731230974,0.0004305703332647681,0.0007236903766170144,0.004574557766318321,-0.0021703720558434725,0.002284248825162649,7.011799607425928e-05,-0.007404061034321785,0.0018734651384875178,-0.0011026397114619613,-0.0025455025024712086,0.0010295836254954338,-0.007524474523961544,-0.00655179750174284,-0.0014430382288992405,0.0042147221975028515,-0.0021586152724921703,0.002187189878895879,0.004252634942531586,8.108036126941442e-05,0.003759176004678011,-0.0016621596878394485,-0.00458182767033577,0.0024685009848326445,-0.003581555560231209,-0.003086694283410907,-0.0027755601331591606,-0.0008639891166239977,-0.0014094349462538958,0.001555516035296023,-0.0034533021971583366,-0.0022507975809276104,0.0011635731207206845,-0.0022620249073952436,0.0022145346738398075,0.0017649898072704673,0.001092881546355784,-0.0008806218975223601,0.003122972324490547,0.0053338478319346905,-0.0056998273357748985,-0.0009144488722085953,-0.001365075702778995,0.004194299224764109,0.0021344961132854223,0.005510540679097176,-0.0011040584649890661,0.0030081714503467083,0.0009740770328789949,0.0008617222774773836,-0.0022788960486650467,0.002769559621810913,-0.0021749199368059635,0.0007589319138787687,0.0017414335161447525,0.0006203631055541337,0.0015452794032171369,0.0037028840743005276,-0.0004941511433571577,-0.0013160128146409988,0.003731199773028493,0.0047546871937811375,-0.005625384859740734,-0.0034779501147568226,-0.00023560586851090193,0.0011164196766912937,0.0015123789198696613,0.0027282615192234516,0.0011268537491559982,-0.003418871434405446,-0.004005335737019777,-0.001029559294693172,0.001072955783456564,-0.004755758214741945,0.0013843474444001913,0.0005786478286609054,0.003378540277481079,0.0014390697469934821,0.0039378078654408455,0.005196750164031982,5.319644697010517e-05,-0.0017627859488129616,-0.007028079591691494,-0.003388061188161373,0.0031415235716849566
做到,0.00011553906369954348,0.004435999784618616,0.0024246247485280037,0.004093056079000235,-0.0002671715337783098,-0.006164076738059521,0.00029689492657780647,0.005648942198604345,-0.0017834714381024241,-0.0005609474610537291,0.00010588811710476875,-0.007160442415624857,0.00024683051742613316,0.005346707999706268,-0.0035783026833087206,0.004398819990456104,0.0018427722388878465,-0.00209403270855546,0.00038790906546637416,-0.0004508915590122342,0.005645555444061756,-0.0004363661864772439,0.0033104827161878347,0.001551179913803935,0.0032812170684337616,0.001550476998090744,-0.0023354715667665005,0.0007334061665460467,0.0032741324976086617,-0.0037482231855392456,-0.000983875012025237,0.0015000575222074986,-0.0032177839893847704,0.004939001984894276,-0.004344375804066658,0.0013108218554407358,0.005602529272437096,0.002616873010993004,-0.002987120533362031,-0.00025146896950900555,-0.00015402352437376976,0.0002070879563689232,-0.005959967151284218,-0.0011781384237110615,-0.0020600357092916965,-0.0007089601713232696,0.002080325037240982,0.0026124101132154465,0.005926755256950855,-0.0010556296911090612,0.002218336332589388,0.000564884627237916,-0.0046661850064992905,-0.001685518422164023,-0.002509899903088808,-0.0048750960268080235,0.002566540613770485,-0.003724507987499237,-0.005129363387823105,0.0019944049417972565,0.0033162960316985846,-0.0015921394806355238,0.0013531403383240104,-5.231320392340422e-05,0.002263620961457491,-0.0031580408103764057,0.004263905808329582,0.0020376185420900583,0.0002152038214262575,0.003586159786209464,-0.007684964686632156,-0.0015219649067148566,-0.0035232692025601864,-0.00265682814642787,-0.00177433667704463,-0.002029364462941885,-0.002235430758446455,0.0005584299797192216,0.0010628548916429281,8.44696769490838e-05,-0.0038582193665206432,0.002647915855050087,0.005639281123876572,0.005300093907862902,0.0004128984874114394,-0.0012278887443244457,0.0026256719138473272,0.0018204869702458382,-0.0009382768766954541,-0.0030720490030944347,0.006102042272686958,-0.002031567972153425,-0.0003649251302704215,-0.0062914700247347355,0.005511582363396883,0.00339878024533391,-9.325903374701738e-05,0.0035770745016634464,-0.0015306576387956738,0.007504602894186974
认识,-0.0035467722918838263,-0.004143420606851578,0.000838453765027225,0.0008795817848294973,-0.004126629792153835,-0.001996865961700678,0.001311328960582614,0.0011526343878358603,0.00413538096472621,-0.006620285101234913,-0.0011203999165445566,-0.0018343143165111542,0.0029455814510583878,-0.002644803375005722,-0.0006195730529725552,0.0008166120969690382,0.0016481403727084398,-0.0020437026396393776,0.004960780031979084,0.0042074560187757015,-0.001799236168153584,0.0022152382880449295,-0.0001636161468923092,0.0028321356512606144,-0.002077847719192505,0.003289635293185711,-0.002537496853619814,-0.0024155096616595984,0.0014209888176992536,0.002019751351326704,0.0019205422140657902,-0.005005246493965387,-0.0028172919992357492,-0.003626844845712185,-0.0044534774497151375,-0.0006372708012349904,-0.0025482585188001394,0.0006919688312336802,0.00029661107691936195,0.0022292123176157475,-0.0013302620500326157,-0.003373045241460204,-0.007033159956336021,0.0015030191279947758,-0.002855351660400629,-0.003923775628209114,-0.0019990294240415096,0.001792308408766985,0.00015869876369833946,-0.003784124506637454,0.006127693224698305,0.0018987394869327545,-0.004594235680997372,0.003887861967086792,0.0022032519336789846,0.0006076899589970708,0.004451551474630833,-0.0021612830460071564,-0.0034316398669034243,0.0002348769921809435,-0.00437974464148283,-0.000794072519056499,0.005140434484928846,0.0069071329198777676,-0.002292302204295993,0.0031123855151236057,0.001031337771564722,0.000912913354113698,-0.0037304707802832127,0.0023781831841915846,0.0021175271831452847,0.0013198910746723413,0.0009130722028203309,-0.002284228801727295,-0.0025847244542092085,0.00010691478382796049,0.001853729598224163,0.0005285420920699835,0.00048580009024590254,0.0002607860369607806,-0.0011374267050996423,-0.000861352018546313,-0.0020239134319126606,-0.002808423014357686,-0.004088898655027151,0.0020873339381068945,0.001161895110271871,-0.0018046549521386623,-0.002515835454687476,0.0017845677211880684,-5.406886339187622e-05,-0.0014725133078172803,0.0022536932956427336,0.003057582303881645,0.004010245203971863,-0.0044564553536474705,-0.002098642522469163,0.0014841188676655293,-0.006462709978222847,0.0021372190676629543
相信,-0.0032687056809663773,-0.006708153057843447,0.0016425016801804304,0.00266881356947124,0.003425871953368187,-0.0044951969757676125,-0.0014077835949137807,0.0008480779360979795,0.000590572482906282,-0.0029368512332439423,-0.0053239855915308,-0.0008606991032138467,-0.0016280235722661018,-0.004705833736807108,-0.001564272679388523,-0.0005981974536553025,0.0055303387343883514,-0.002746282145380974,-0.0023637805134058,-0.004993926268070936,0.0008253855630755424,-0.008211130276322365,-0.0011313052382320166,-0.002284187590703368,-0.003358088433742523,0.0004198686801828444,0.0024222577922046185,-0.0012216144241392612,0.00022540282225236297,0.0018523435574024916,-0.0010746887419372797,-0.006328289397060871,0.0001912314910441637,-0.006006645504385233,-0.0013281257124617696,0.0006458598654717207,-0.0030227629467844963,-0.004484707489609718,-0.0036747525446116924,-0.0022874451242387295,-0.0013584401458501816,-0.005046001169830561,-0.00444914773106575,0.0017491449834778905,0.0013042236678302288,0.005385650787502527,-0.004129619803279638,0.0031522144563496113,-0.0004144090926274657,0.006564775016158819,-0.006384456995874643,0.0033100603614002466,-0.0012737975921481848,0.0038982154801487923,0.0026679704897105694,0.0014442597748711705,-0.0028458419255912304,-0.006306282244622707,-0.0004421875928528607,0.0012052255915477872,0.0006936248391866684,0.002953612245619297,-0.0005068955942988396,0.002534204628318548,0.0002844157861545682,-0.006134348921477795,0.0021545621566474438,0.0008111621718853712,-0.00026247958885505795,-0.003343732561916113,-0.004787977784872055,-0.0018766780849546194,0.006884483620524406,-0.002438873518258333,-0.004381672944873571,0.003259755205363035,-0.0021605463698506355,-0.00033567415084689856,-0.004002807196229696,0.003419579239562154,0.0001165885478258133,0.00014537677634507418,-0.00032967072911560535,-4.4869258999824524e-05,-3.368966281414032e-05,0.0009449697099626064,2.252473495900631e-05,-0.0033456478267908096,-0.004141279496252537,0.005135909654200077,-0.0040398696437478065,0.0019942987710237503,0.0006570113473571837,0.0028747329488396645,0.004919634200632572,0.0005662220064550638,-0.0006152121350169182,-0.0006063822656869888,-0.001549487467855215,0.004138777032494545
提出,0.0019376534037292004,-0.00012879897258244455,0.0004386866930872202,0.00040019722655415535,0.000610804941970855,-0.0018507182830944657,-0.0016143141547217965,-0.0011972312349826097,-0.0016806070925667882,-0.00029074528720229864,-0.0015625149244442582,0.00042004056740552187,0.0007644135039299726,0.0011274092830717564,0.005015421658754349,-0.0002346554392715916,0.0033375248312950134,0.0034032808616757393,-0.003079633926972747,-0.00048728694673627615,-0.0025604318361729383,-0.0029976824298501015,0.0002898883540183306,-0.0008948230533860624,-0.004495268687605858,0.0008965068263933063,1.0018819011747837e-05,-0.005711787845939398,0.0006986113730818033,-0.0028993594460189342,-0.0007051556603983045,-0.0018782839179039001,-0.0031351123470813036,-0.0016215926734730601,0.001051338971592486,0.005058219190686941,-0.0034662876278162003,0.0017715462017804384,0.0033689693082123995,-0.0031265150755643845,-0.003027193248271942,-0.004258228000253439,0.0018809004686772823,0.002703471342101693,0.0008602411253377795,0.0011311036068946123,0.0013898329343646765,-0.0024382402189075947,-0.0027064154855906963,-0.0038783494383096695,2.36674677580595e-05,0.0019257996464148164,0.00641248794272542,0.00047723460011184216,0.0019908633548766375,-0.0028652623295783997,-0.0021077136043459177,0.005450140684843063,-0.00241891504265368,-0.004455742426216602,0.004874826408922672,-0.0028370562940835953,-0.0028486240189522505,-0.002728985622525215,-0.0026805526576936245,-0.00391058623790741,0.003147419076412916,-0.005271442700177431,0.0010204745922237635,-0.0034564887173473835,-3.5025645047426224e-05,0.0026151591446250677,-0.00605930807068944,-0.002835113788023591,-0.004896641243249178,0.0017524783033877611,-0.002191264182329178,0.0017660694429650903,-0.0060236649587750435,-0.0025641699321568012,0.0010760367149487138,-0.0013861785409972072,-0.0013650881592184305,-0.000612990465015173,-0.004590774420648813,0.00029313418781384826,8.888260344974697e-05,0.0015335814096033573,-0.001465196255594492,-0.0022476809099316597,0.00034780334681272507,0.0004182815318927169,-0.0027255064342170954,-0.004067718517035246,0.0044883908703923225,-0.0014748123940080404,-0.001102783135138452,-0.002288167830556631,-0.0008581951260566711,0.001132854842580855
反,-0.0031044073402881622,0.00865725614130497,0.00030983088072389364,0.0016213981434702873,-0.004391761031001806,-0.0020725612994283438,-0.0010611191391944885,-0.0012429310008883476,0.006915227044373751,0.0037871231324970722,-0.003118407679721713,0.0036423681303858757,0.0014751689741387963,0.0013650341425091028,-0.0020838771015405655,-0.0006534559652209282,0.005328168161213398,0.001878154813311994,-0.0010687136091291904,-0.005290293134748936,-0.004766352474689484,-0.007438585162162781,-0.006848415359854698,0.0006163078360259533,-0.0028028092347085476,0.0008884461130946875,0.002725836355239153,-0.00015039509162306786,-0.006090862676501274,0.0015988275408744812,-0.0035905693657696247,-0.0003662307281047106,-0.0026831203140318394,0.0038942925166338682,-0.0036339175421744585,0.008169896900653839,0.00029000407084822655,0.0030216246377676725,0.0022787279449403286,-0.003858463140204549,-0.004737264476716518,0.001026954734697938,0.006142819300293922,-0.005741696804761887,-0.003801876213401556,-0.005489397328346968,-0.001887985155917704,0.0012615188024938107,-0.0025971659924834967,-0.000421229749917984,0.0037190611474215984,0.003588221501559019,0.006436262745410204,0.00804345216602087,-0.0005254992283880711,-0.0041676792316138744,-0.0034175682812929153,-0.0014650786761194468,-0.004963801242411137,-0.001967059914022684,0.0030579748563468456,-0.0007426023948937654,0.00148324528709054,-0.007823055610060692,-0.0030527908820658922,-0.0001607683952897787,-0.0020498347003012896,0.00013494491577148438,0.001594136469066143,-0.0003641578368842602,0.004173634573817253,-0.0022109735291451216,0.0006221666117198765,-0.0020074297208338976,0.00048169377259910107,-0.004873851779848337,0.002073627430945635,0.006183892022818327,-0.0031619875226169825,-0.0033123712055385113,-0.0011677921283990145,-0.0016375581035390496,0.0015820986591279507,0.0007989128353074193,-0.0010949489660561085,-0.0003621612268034369,-0.0004103458486497402,0.00263393996283412,-0.00456380657851696,0.005112426355481148,0.00015668990090489388,0.005287261679768562,0.0018461595755070448,-0.003859562799334526,-0.0021606802474707365,-0.0008783293887972832,0.0012178299948573112,0.008679235354065895,0.003167005954310298,0.0003790761111304164
真正,-0.004543357528746128,-0.0006623003864660859,-0.0023332973942160606,0.0027217543683946133,-0.0011726698139682412,-0.0006231851875782013,-7.506006659241393e-05,0.0031813401728868484,0.00034790707286447287,-0.001587296836078167,-0.0030834986828267574,0.0029382091015577316,-0.005099141504615545,0.00043892074609175324,0.0006047439528629184,-0.0053613027557730675,0.0012578883906826377,-0.00010660852422006428,0.002262271475046873,0.0003045140765607357,0.0015259759966284037,-0.0033134841360151768,0.004017234314233065,-0.0010416521690785885,0.0003813936491496861,0.0032576736994087696,-0.001465835957787931,0.0024314657784998417,0.0006605291273444891,0.002652624389156699,0.0016612291801720858,-0.000853889505378902,-0.0004992269678041339,-0.0018058462301269174,0.000517052598297596,0.0015823416179046035,-0.0015633723232895136,0.0002724017249420285,-0.003757377853617072,-0.00207520741969347,0.0016257440438494086,-0.0040125478990375996,-0.002592948731034994,0.0015857117250561714,-0.002740368712693453,0.0010084542445838451,0.0007105190306901932,0.003657607128843665,-0.0027773266192525625,0.003106007119640708,0.002771735191345215,-0.0014846171252429485,-0.0007685889722779393,0.004429856315255165,-0.0032866080291569233,-0.005295976996421814,0.003713335143402219,-0.00408040639013052,-0.0020829958375543356,0.0037242036778479815,0.006014575250446796,-0.0005776160396635532,-0.0002635223791003227,0.0010129722068086267,-0.00015415062080137432,0.0010795330163091421,0.0007049757987260818,-0.003641013288870454,-0.004253271035850048,-0.0038522756658494473,-0.0010520284995436668,-0.002941043581813574,-0.00013843789929524064,-0.0012852237559854984,0.003466374007984996,0.0045344033278524876,-0.00047179899411275983,-0.0026480969972908497,-0.0025388142094016075,-0.003303139703348279,-0.0049784742295742035,0.002887554932385683,0.0029806955717504025,0.003603291232138872,0.0029092226177453995,0.002047950169071555,-0.001879206974990666,-0.005519510246813297,-0.0012192687718197703,-0.003963085822761059,-0.00145561876706779,0.0028136391192674637,0.003667388577014208,0.00011447747237980366,0.0014116549864411354,0.0004164218553341925,0.0013984370743855834,-0.005543903447687626,-0.0006867505144327879,-0.005228257738053799
犹太人,-0.006315819453448057,0.00011350154818501323,0.001153644290752709,-0.0001471073628636077,-0.0006894115940667689,-0.002368632471188903,0.0013044722145423293,-0.0009342675330117345,-0.0005070701590739191,0.001348121091723442,-0.003807812463492155,0.002049926668405533,0.0014674777630716562,0.0015961179742589593,-0.002516756299883127,0.0007515403558500111,0.0018667973345145583,-0.0029080775566399097,-0.004425466060638428,-0.0011354900198057294,-0.0022141425870358944,0.0004655647207982838,-8.323635847773403e-05,-0.0029631571378558874,-0.0015334071358665824,-0.001475882949307561,0.0006872444064356387,0.002346476772800088,-0.001768580754287541,0.006072047166526318,-0.0035466081462800503,0.0005066678859293461,0.003116502659395337,-0.004248705692589283,0.002819336950778961,0.001413447898812592,-0.00045310359564609826,-0.0007846193620935082,0.0034958194009959698,-0.0027006224263459444,0.0009044399484992027,-0.000268696021521464,-0.0012759693199768662,-0.00387430633418262,0.0005405903211794794,0.0010972183663398027,0.0006782098789699376,0.0013759593712165952,-0.000238162130699493,-0.0006610722630284727,-0.0006605557282455266,-0.0007716676336713135,0.004581592511385679,0.0010605186689645052,0.001027423539198935,-0.0009725686395540833,-0.0009532522526569664,-0.0031960192136466503,-0.00030684765079058707,0.0014102457789704204,0.00045860037789680064,-0.0022853000555187464,-0.002673772629350424,0.0008270116522908211,-9.884566679829732e-05,-0.0034678864758461714,0.0004562718386296183,0.00030949339270591736,-0.0008501145639456809,-0.0008630402153357863,-0.0012698573991656303,-0.002802397822961211,-0.0005382639355957508,0.0010922850342467427,5.731106284656562e-05,0.001498855766840279,-0.001379545545205474,-0.002293803496286273,0.0011189902434125543,0.002172938548028469,-0.0017236040439456701,-0.0010613977210596204,-0.0009611650602892041,-5.822768434882164e-05,-0.001971159828826785,-0.002147094113752246,-0.00015366861771326512,-0.0025707778986543417,0.00046839332208037376,-0.0033143891487270594,0.0018103107577189803,0.0017312830314040184,0.000536286155693233,0.0022362859454005957,-0.00017882850079331547,0.0026036787312477827,-0.0005659340531565249,0.0015535244019702077,-0.0028634367045015097,0.0037666969001293182
意义,-0.00033015385270118713,0.004748028703033924,-0.0017727618105709553,-0.0004355883866082877,0.00407148152589798,-0.005426536314189434,0.00027319241780787706,0.003151656361296773,0.006938245613127947,0.004315461032092571,-0.003672949271276593,-0.0037207945715636015,-0.0015468993224203587,0.0026395772583782673,0.003534891875460744,0.0016260772245004773,-0.00504683144390583,0.003971978556364775,-0.005798318423330784,-0.0008568684570491314,-0.0007066152757033706,-0.001351202023215592,0.00014907948207110167,0.00371267506852746,0.0005606390186585486,0.0037512867711484432,0.0016676533268764615,3.11434268951416e-06,-0.00017565791495144367,0.0010872706770896912,0.0031549015548080206,0.00031118112383410335,-0.002848354633897543,-0.00306094903498888,-0.0017389277927577496,-0.0015939802397042513,-0.002308423398062587,-0.002352591138333082,-0.00401304941624403,0.0012534515699371696,-0.0027600014582276344,0.001107746735215187,-0.0010285850148648024,-0.0049985130317509174,0.002423093421384692,0.0034302063286304474,0.002589147537946701,-0.001443187240511179,0.0009047931525856256,0.0027270971331745386,0.0016857710434123874,-0.001987190917134285,-0.003543909639120102,0.003475385485216975,0.002031923271715641,-0.0028403322212398052,-0.003027632599696517,-0.0054124873131513596,-0.004416908603161573,-0.0011945824371650815,-0.0027778497897088528,0.0020031151361763477,0.001546478713862598,0.000617283396422863,0.0013650264590978622,0.0035460577346384525,0.0019238676177337766,-0.00047296867705881596,-0.0008682578918524086,-0.007116916589438915,-0.0023101472761482,0.0002499701804481447,-0.005667173303663731,0.0011094093788415194,0.002619749866425991,0.0010745086474344134,-0.004992648959159851,0.0005690801190212369,-0.0036160643212497234,0.0019475150620564818,-0.0009737309301272035,-0.0015673711895942688,-0.00207222206518054,0.0010068821720778942,0.002160469302907586,-0.00010361371096223593,-0.0004607090668287128,-0.0005005374550819397,0.0012613647850230336,-0.0007957236375659704,0.002742443000897765,0.00048738025361672044,-0.0030877571552991867,-6.787886377424002e-05,0.00465791393071413,-0.0009675275650806725,0.0056658172979950905,0.0012735470663756132,-0.004919494967907667,0.0017540137050673366
家园,0.0007729031494818628,-0.0017056112410500646,0.0008235103450715542,0.005577879957854748,-0.004161841701716185,0.001085436437278986,0.0015100922901183367,0.0021541055757552385,-0.00105875707231462,-0.000526371062733233,0.0017629392677918077,0.0029793239664286375,-0.004146920517086983,0.0009239468490704894,0.0005485872970893979,0.002264878246933222,-0.00014997791731730103,-0.003748159622773528,-0.0002309952978976071,0.005613444373011589,-0.0014103890862315893,0.002032557036727667,0.0010923041263595223,3.271026071161032e-05,-0.0019617541693150997,0.0002748393453657627,0.002573302946984768,-0.00012091263488400728,0.0031244871206581593,-0.0020722176413983107,-0.0028927912935614586,-0.0013834077399224043,0.00035179301630705595,0.0024204400833696127,-0.0037646284326910973,-0.004448968451470137,0.0004301125300116837,-0.0010131761664524674,-0.0021409448236227036,0.0018354709027335048,0.001292071072384715,-9.170708653982729e-05,-0.004296997562050819,0.0010344099719077349,0.000732758198864758,-0.0037605685647577047,-0.0003457176499068737,-0.0005223699263297021,-0.0006456070113927126,0.0040768347680568695,-0.0003836315590888262,0.0027831534389406443,-0.001276265480555594,-0.001931487233377993,-0.0032182466238737106,0.00041940249502658844,0.004560881294310093,-0.00028805946931242943,0.0009114891290664673,0.0030323523096740246,0.004703023005276918,0.00040394847746938467,0.003822909900918603,0.0004075617762282491,0.003810340305790305,0.004156028386205435,-0.005716309882700443,-0.0023342175409197807,-0.003694472834467888,-0.0028336355462670326,-0.0002554446691647172,-0.0035435748286545277,0.005702930502593517,-0.0012533125700429082,0.004176737274974585,-0.002050685230642557,0.002641925821080804,-0.0008181229350157082,0.002520429203286767,0.001897099195048213,-0.0023426548577845097,-0.006821722257882357,-0.002381974598392844,0.004134169314056635,-0.0023917495273053646,0.0036604495253413916,0.005301299504935741,-0.0002494395594112575,-0.0003701561945490539,0.0023445491679012775,0.0015920039732009172,0.0005202773027122021,0.003169997362419963,-0.0011597187258303165,-0.00021087261848151684,0.006297382526099682,-0.00031265721190720797,-0.00024025276070460677,-0.0005976897664368153,0.0026719593442976475
赐予,-0.0005640099989250302,0.00116743054240942,0.0015571810072287917,-0.005173498298972845,-0.0007093842141330242,-0.0015195226296782494,0.0014960271073505282,-0.0017986067105084658,-0.004391809925436974,0.0043137697502970695,-0.004865496419370174,-0.0001828014210332185,0.002346739871427417,-0.0018156840233132243,0.0014356569154188037,0.0031333495862782,0.004309796262532473,0.003129737451672554,0.0007731225341558456,-0.0031798859126865864,1.0020798072218895e-05,-0.0027765112463384867,0.004537413828074932,-0.003899708390235901,-0.0016355423722416162,-0.0020768027752637863,0.0016820544842630625,0.003650413826107979,0.0008720267796888947,0.0006594863953068852,-0.002216195221990347,0.000778086599893868,-0.003724327776581049,0.00012384145520627499,0.0005808681016787887,-0.0018881743308156729,-0.001577044720761478,-0.001173400436528027,-0.0008987304172478616,0.004056750331073999,0.00297724106349051,0.001934387139044702,0.00022319750860333443,-0.00045202847104519606,0.0008425973355770111,-0.004309643059968948,-0.003804408945143223,0.0010802194010466337,0.0013535835314542055,-0.0005461467080749571,-0.0058108484372496605,0.005624536890536547,0.0025885216891765594,0.00666510034352541,-0.0025413385592401028,-0.003933330066502094,-0.00017729075625538826,0.0004306915798224509,-0.0026940819807350636,0.002522631548345089,-0.00557049410417676,0.004045668989419937,0.000214171945117414,-0.0025383373722434044,-0.0042946673929691315,0.0050769224762916565,-0.0021534638945013285,-0.0009603253565728664,0.00480908527970314,-0.003007996128872037,-0.0031701778061687946,0.00013940437929704785,-0.00029081443790346384,-0.0013652972411364317,-0.0011816393816843629,0.00013462919741868973,0.003751946846023202,0.004358664155006409,-0.001740371691994369,-0.0022678631357848644,-0.0005518218968063593,0.0036093799863010645,-0.0010915747843682766,-0.0030940717551857233,0.0008831080049276352,0.0017999927513301373,-0.0015673970337957144,-0.0014406214468181133,0.0038653824012726545,0.001007445389404893,0.0007836411241441965,1.7093843780457973e-05,0.0005003631231375039,-0.002079589292407036,-0.002254221588373184,0.0005016869399696589,-0.0023041144013404846,0.003357206704095006,-0.0038234994281083345,0.002851987723261118
遗憾,0.002011670731008053,0.002105663064867258,-0.0016870783874765038,-0.00079038564581424,-0.0026000600773841143,-0.004055422730743885,0.0036935778334736824,-0.0004572938196361065,0.004471268504858017,0.0018913991516456008,-0.0014711745316162705,-0.003906723577529192,-0.00024909130297601223,-0.0016987635754048824,-0.006044772919267416,-0.0019726604223251343,-0.004006275907158852,0.0005513479700312018,0.0025480648037046194,0.0005280000623315573,0.002472253981977701,0.0008888058364391327,0.002024685265496373,-0.004380513448268175,0.0007858264725655317,-0.0023252354003489017,-0.001647040480747819,0.0006747905863448977,-0.002535624895244837,-0.0023596910759806633,-0.000889343791641295,-0.0022708456963300705,-0.0032364600338041782,0.004209978971630335,0.0012926192721351981,0.002796091604977846,0.0033061951398849487,0.0017593534430488944,-0.005151321180164814,-0.0006326745497062802,0.0030293900053948164,-0.002690218621864915,0.004807004705071449,0.005184052512049675,-0.002638961188495159,-0.002707680920138955,0.0021769136656075716,0.004477210342884064,-0.0016362778842449188,0.0017229835502803326,0.0041737728752195835,-0.00048212072579190135,0.004762995056807995,0.001286868005990982,-0.007364464458078146,-2.189958468079567e-05,-0.0021533069666475058,0.0014572461368516088,-0.005270141642540693,-0.0006481982418335974,-0.0017283138586208224,0.003335867077112198,-0.0023855657782405615,0.0011422006646171212,0.002958134515210986,-0.0005612327950075269,0.003465950023382902,0.0031413480173796415,0.002283591777086258,-0.0007509945426136255,-0.006182815879583359,-0.002427780767902732,0.0011321105994284153,-0.003497860860079527,-0.0004738627467304468,-0.0025351294316351414,-0.003660369897261262,-1.708825584501028e-05,-0.0003820920828729868,-0.001560300588607788,-0.004338796250522137,-0.0039861793629825115,0.0030330284498631954,0.003405227791517973,0.004533246159553528,0.003317704889923334,0.004897375591099262,-0.0009864111198112369,0.0002982963342219591,0.004414998926222324,-0.0030814954079687595,0.0030508588533848524,-0.0019330760696902871,0.0015174997970461845,-0.003959939815104008,0.0034336040262132883,0.005646396428346634,0.001571946544572711,-0.0019105032552033663,-0.0029840702190995216
人,-0.005027902778238058,0.004814477637410164,0.010817157104611397,0.01548239216208458,-0.004437664058059454,-0.010467158630490303,-0.0003612574655562639,0.007953496649861336,-0.0028662425465881824,-2.3242086172103882e-05,-0.0019291460048407316,-0.007813513278961182,-0.0032043957617133856,-0.0011987630277872086,-0.00834660790860653,-0.008736643008887768,0.004061485640704632,0.005758731160312891,-0.0004105446860194206,-0.013418097048997879,0.005402694921940565,0.0021338658407330513,0.005591127555817366,0.0022200485691428185,0.008287809789180756,0.004982843063771725,-0.004493202548474073,0.001329248072579503,-0.009160813875496387,-0.0030457344837486744,-0.007197293918579817,-0.006157713010907173,-0.0008577245753258467,-0.0037312787026166916,0.000230519101023674,0.007576064206659794,0.0065050735138356686,-0.0103627759963274,-0.005129779689013958,-0.0026060992386192083,-0.006630382500588894,0.001731139374896884,-0.013637492433190346,-0.011394103989005089,0.004631634335964918,0.0020302552729845047,-0.008761060424149036,0.01210845448076725,0.005574529059231281,0.00983363762497902,-0.008094368502497673,0.00260948040522635,-0.00026200804859399796,0.002041973639279604,0.005476344842463732,-0.008363477885723114,0.002458085073158145,-0.00957646407186985,-0.005620839074254036,0.009573376737535,-0.004013432189822197,0.008661733940243721,-0.004666825756430626,-0.008187984116375446,0.0046729883179068565,-0.0004895448801107705,-0.0014020402450114489,-0.0030137000139802694,-0.006934914737939835,0.0039961389265954494,0.0016943844966590405,0.0031769087072461843,-0.0016318329144269228,-0.0023294659331440926,0.009170353412628174,-0.0028239390812814236,0.004135372117161751,0.00013901235070079565,-0.00797114148736,-0.007831363007426262,-0.0005443871486932039,-0.0017277259612455964,0.005625111982226372,0.007911677472293377,0.0014684016350656748,0.004821337293833494,0.004663519561290741,0.0006692071910947561,0.0024142537731677294,0.0011217574356123805,-0.0012917235726490617,-0.0024685042444616556,0.00035231205401942134,0.001257699215784669,0.013137965463101864,0.0025611938908696175,-0.002267988631501794,-0.008419136516749859,-0.005454676691442728,-2.02166847884655e-05
不好,-0.0002490570768713951,-0.003488172311335802,-0.0009926825296133757,-0.002170783234760165,0.0006164326914586127,-0.003259108867496252,0.0029815074522048235,0.007013223599642515,-0.003595427144318819,-0.0023198435083031654,-0.002113611437380314,0.0014637601561844349,-0.002279153559356928,-0.005425442010164261,0.0038447235710918903,0.0026354913134127855,-0.0006748505402356386,0.0031436828430742025,-0.0009560152539052069,0.0063593448139727116,0.0042116958647966385,0.005341131705790758,-0.00227961502969265,-0.00014412251766771078,-0.00031076138839125633,-0.0003542974591255188,0.0049291267059743404,0.005173817276954651,0.0004567474825307727,0.0022351848892867565,-0.0005095423548482358,0.0006267216522246599,-0.00015070114750415087,0.004184912424534559,-0.002608329989016056,-0.002522895811125636,-0.004888154566287994,-0.0030220430344343185,0.0036961170844733715,-0.00018279821961186826,-0.0011443363036960363,0.00024394015781581402,0.004484771750867367,-0.0022269412875175476,0.0017817249754443765,-0.0006034893449395895,-0.0050487760454416275,0.005278507247567177,-0.0026597490068525076,-0.0003580540360417217,0.00013191148173063993,-0.0020378532353788614,0.0016689823241904378,0.00213537085801363,0.0011615153634920716,-0.0034795193932950497,0.0002473588101565838,-0.0025235803332179785,0.0006186924874782562,-0.0022888286039233208,4.7831679694354534e-05,0.004019294399768114,-0.0045484574511647224,-0.000441021315054968,0.0026551156770437956,-0.003541506128385663,0.0005232039839029312,-1.2867152690887451e-05,-0.00015607260866090655,0.002034128177911043,0.0034864251501858234,-0.002315608784556389,-0.003568908665329218,0.0028256443329155445,-0.004744070582091808,4.830991383641958e-05,-0.0013106679543852806,-0.0034088946413248777,0.0019262359710410237,-0.0012222474906593561,0.0036806983407586813,-0.0017933910712599754,-0.0005691588157787919,0.001383699243888259,0.0033364049158990383,-0.0018206500681117177,2.928811591118574e-05,-0.0006420983118005097,0.0024122255854308605,-0.0026784553192555904,-0.0034296114463359118,-0.0013392685214057565,0.0033320230431854725,0.0008514756336808205,0.0025365448091179132,0.0004346632631495595,-0.0009358894312754273,0.002431647153571248,0.0017994955414906144,0.0010029568802565336
资源,0.0006405157037079334,-0.0002865097194444388,0.0013716809917241335,0.0006993517163209617,-0.005597436334937811,-0.0019563818350434303,0.00020276126451790333,0.0035811166744679213,0.0028031570836901665,-0.0007992819882929325,0.001349590951576829,0.000649531721137464,-0.004164222162216902,-0.00019771745428442955,0.00305784959346056,-0.0017604962922632694,0.0019823149777948856,-0.0021722824312746525,-0.0022375229746103287,0.001520687248557806,-0.0007257175166159868,-0.0009439364075660706,0.0007694436935707927,9.135410073213279e-05,-0.0030784509144723415,0.0006187721155583858,-0.00019202649127691984,-0.00260555581189692,-0.001933349878527224,-0.0023744276259094477,0.003140328684821725,-0.0008283844799734652,-0.0015248025301843882,-0.0033130068331956863,-0.0006208526901900768,0.0031649968586862087,0.002410135231912136,-0.0015046761836856604,0.0007478322368115187,5.1588634960353374e-05,-0.0017159858252853155,-0.0023908973671495914,-0.0009223168017342687,0.0012252215528860688,0.00597110902890563,-0.00012421025894582272,-0.00144721451215446,0.006255458574742079,0.0018610809929668903,0.0037712962366640568,0.0008901596302166581,-0.00011790276039391756,0.0030855583027005196,-0.0029576201923191547,0.0017592309741303325,-0.0044376906007528305,0.007220054045319557,0.00386635260656476,0.0032305424101650715,0.001380329136736691,-0.0025406312197446823,-0.0002093606162816286,0.0010487749241292477,-0.00010277202818542719,-0.0012756169307976961,0.0016749860951676965,0.00023697305005043745,-0.003018205054104328,0.004476663190871477,-0.002509712241590023,0.0006486475467681885,-0.0034745302982628345,-0.003566649742424488,-0.002557604108005762,-0.0024962956085801125,0.0024024592712521553,0.0009734118939377367,-0.0037916942965239286,0.002557150088250637,0.004383903928101063,-0.0008085226290859282,-0.0024755748454481363,4.304829053580761e-05,0.004027326591312885,-0.0030303301755338907,-0.0014441177481785417,4.6588946133852005e-05,-0.0029927657451480627,-0.004772117827087641,0.004826522432267666,-0.001256335061043501,0.0049010151997208595,-0.0020471313036978245,0.00025167991407215595,-0.0018180289771407843,-0.00024888315238058567,3.5243312595412135e-05,-0.001291578053496778,-0.0019947439432144165,-0.0021530576050281525
推,-0.0051191276870667934,0.004031491465866566,-0.004600458778440952,0.004329514689743519,-0.0018300649244338274,-0.005545731633901596,0.0007680656854063272,0.001173071563243866,-0.006221163552254438,-0.0013244168367236853,0.0005062143318355083,0.0063085174188017845,-0.009680621325969696,0.009117321111261845,0.003493968164548278,-0.005694419611245394,0.004007736220955849,-0.007618469651788473,0.0021442559082061052,0.004687698557972908,-0.007117212750017643,-0.004263320006430149,-0.0028450284153223038,0.003847999032586813,0.007156100124120712,0.0027457033284008503,0.004915446508675814,-0.0017729495884850621,-0.005950510501861572,0.0031197501812130213,-0.0010031831916421652,-0.008408624678850174,-0.0012095384299755096,-0.00375958951190114,0.0007369936211034656,0.004799753427505493,-5.7426514104008675e-05,0.00035292014945298433,-0.003344782395288348,-0.00652625598013401,-0.0013348748907446861,0.001714352983981371,0.00035898410715162754,0.0039159515872597694,0.0007213086355477571,0.004357083700597286,-0.0029824061784893274,0.007270782254636288,0.0012820959091186523,0.005131665151566267,-0.006185647565871477,0.001616754336282611,-0.008152283728122711,0.003661259775981307,0.00590126309543848,0.0015924839535728097,-0.0052659958600997925,-0.005040269810706377,-0.003961917944252491,-0.005462998989969492,-0.007468690630048513,-0.005610436666756868,-0.0008442725520581007,0.0018797882366925478,-0.004015903454273939,0.00481337308883667,0.002002725610509515,-0.009080985561013222,0.005066815763711929,0.0048042722046375275,-0.003262273035943508,-0.0019904428627341986,-0.007843291386961937,-0.0007747025229036808,0.007292988710105419,-0.006452297791838646,-0.0024265414103865623,-0.0070673320442438126,0.007263749372214079,-0.0025559361092746258,0.005075177643448114,-0.00042663002386689186,0.011161783710122108,-0.0024513709358870983,0.005596171133220196,0.00467714574187994,0.0064522335305809975,0.0028980327770113945,0.004873400088399649,-0.002234542043879628,-0.0026832164730876684,-0.0034250770695507526,0.0017149837221950293,0.000780035275965929,-0.006410821340978146,-6.799621041864157e-05,-0.003132263198494911,-0.010458765551447868,-0.001934839179739356,-0.0018392265774309635
异端,-0.0017112013883888721,0.0017126105958595872,-0.0014206216437742114,-0.0018461344297975302,-0.0005788956768810749,-0.0007164259441196918,0.0011353373993188143,-0.000943399965763092,0.002726184669882059,-0.0034535801969468594,0.0026844677049666643,-0.0028169269207865,-0.0013809236697852612,-0.0005785285611636937,0.0009382623247802258,0.0037619525101035833,-0.005227970890700817,-0.0025450868997722864,-0.0005597492563538253,0.0019066676031798124,0.0007003626669757068,-0.0014201862504705787,0.000749981205444783,-0.0035922934766858816,-0.0015705230180174112,0.0010463532526046038,-0.0019353305688127875,0.0009682946838438511,-0.0050329347141087055,0.0012861177092418075,0.002634617732837796,0.0031234107445925474,-0.0005687570665031672,0.003683981020003557,-0.002960893791168928,-0.0027705507818609476,0.0038802102208137512,-0.003954143263399601,-0.00703978817909956,-0.005440388806164265,0.004386596847325563,-0.002136054215952754,-0.00474622892215848,-6.656155164819211e-05,0.0009719443041831255,-0.004157905001193285,-0.001815623720176518,0.000768269703257829,0.0008037937222979963,0.003807604778558016,0.0008242307230830193,0.002433421090245247,0.00279310904443264,0.00214001233689487,-0.0030371963512152433,0.00028764503076672554,0.001715290592983365,0.001534695504233241,0.0019775480031967163,0.0050399829633533955,-0.0011802241206169128,-0.006263289600610733,0.0014052859041839838,-0.0005786403780803084,-0.0008246826473623514,-0.002541416557505727,0.002396161202341318,-0.0005016032955609262,-0.0006445068866014481,0.0005509895272552967,-0.0026313867419958115,-0.0026307483203709126,0.0013767082709819078,0.0030894435476511717,-0.0003117223968729377,-0.0014601163566112518,0.006242692470550537,-0.0018564537167549133,0.004365363158285618,0.002386706881225109,-0.0003371171769686043,-0.004807750694453716,-0.003813707735389471,-0.003235866315662861,-0.004826274700462818,-0.0006409076740965247,0.00520426407456398,0.00024719571229070425,0.003426448442041874,-0.0009166074451059103,-8.206634083762765e-05,-0.0006741629913449287,0.0005988101474940777,0.0013607643777504563,0.0030428869649767876,-0.0043831877410411835,0.002289152704179287,0.00038184114964678884,0.00033705984242260456,-0.004339808598160744
电车,-0.0009287087596021593,0.00032363919308409095,0.003549970220774412,0.0014899398665875196,-0.002053285948932171,-0.002851161640137434,-0.0052019087597727776,0.0035587502643465996,0.003798619145527482,0.004430952947586775,-0.0013102678349241614,-0.001757280551828444,-0.0028364420868456364,-0.003970033023506403,0.0027167515363544226,-0.0036024844739586115,0.0013496659230440855,-0.0010450566187500954,-0.0036089972127228975,0.00030923582380637527,0.0018818231765180826,-0.005372379440814257,-0.0034379172138869762,-0.0004856247687712312,-0.003801154438406229,-0.0005133115337230265,0.0005649772356264293,0.003622861113399267,0.00301249697804451,0.0005557463737204671,-0.0010809610830619931,-0.0017002616077661514,-0.0015619624173268676,0.0038696390110999346,0.0017434816109016538,0.0013454584404826164,0.005147925112396479,-0.0030915646348148584,0.006356419064104557,0.0020725755020976067,-0.0005903811543248594,0.003828930202871561,-0.002678496763110161,-0.00042823434341698885,-0.0006334413774311543,0.0011642500758171082,-0.0008304559160023928,0.0006981492042541504,-0.001282507204450667,-0.00023240596055984497,-0.001578905270434916,-1.8069054931402206e-05,0.004007492680102587,-0.0037096391897648573,-0.002898670267313719,0.003391981590539217,-5.38496533408761e-05,-0.0047065261751413345,-0.006499391049146652,-0.0014477648073807359,-0.004452819004654884,0.0002448642044328153,-0.0013248971663415432,0.0026249103248119354,-0.001756987301632762,0.004069449380040169,0.0011552368523553014,-0.0023989856708794832,0.0012843124568462372,-0.0037427651695907116,-0.003915660548955202,-0.0004458699841052294,0.00022726587485522032,-0.0003340711409691721,-0.0015099527081474662,0.000963144120760262,0.001632311032153666,0.004370926879346371,0.003610260784626007,0.0003447572235018015,0.006665003951638937,-0.002130980370566249,0.00015550304669886827,0.00030736258486285806,0.001193318166770041,8.20501591078937e-05,0.005087640136480331,6.0605816543102264e-05,-0.0014795775059610605,-0.0026635059621185064,-0.0025651627220213413,-0.002712666057050228,0.0012202945072203875,0.0018800207180902362,-0.0027428921312093735,-0.000604241737164557,0.00256536528468132,0.003767535788938403,-0.0024291365407407284,-0.0009961387841030955
滚动,0.001143386005423963,-0.0043287333101034164,-0.0009011385263875127,-6.483285687863827e-06,0.0003905552439391613,-0.0030933315865695477,-0.0009310522582381964,0.0012973385164514184,-0.0008978714467957616,0.0007599692326039076,0.003052319400012493,0.004620103165507317,0.004287534859031439,9.112386032938957e-05,-0.0038772188127040863,0.0006658937782049179,0.0009083201875910163,-0.0003980838228017092,-0.00329501461237669,-0.001641630893573165,0.00048302821232937276,-0.0031204628758132458,-0.001335009466856718,-0.0001184138236567378,0.00389143661595881,0.003800372825935483,0.001348220626823604,-0.002770364284515381,0.0019891122356057167,-0.004754272289574146,-0.002956715412437916,-0.0023067547008395195,0.0017627888591960073,-0.003847623011097312,0.0017521942500025034,-0.001598654082044959,0.0007145811105147004,0.0001507038250565529,-0.0013873522402718663,0.0046046022325754166,-0.00368840666487813,0.0015555827412754297,0.001211007940582931,0.001856314716860652,0.0015483228489756584,-0.0007320907898247242,-0.004456145688891411,-0.0019333461532369256,-1.5139463357627392e-05,0.002312915399670601,-0.0030746296979486942,-0.00017370760906487703,0.002357799094170332,-0.0008747474639676511,-0.00019252403581049293,-0.0013086195103824139,3.205682151019573e-05,-0.0011633246904239058,-0.0047120600938797,0.0007524564862251282,0.002210660371929407,-0.006682614795863628,0.0010708231711760163,-0.0012702303938567638,-0.00017222255701199174,0.00012395787052810192,0.006815840490162373,-0.004734738264232874,0.003227084409445524,0.000924802734516561,-0.0026564502622932196,-0.0016770903021097183,-0.0009685391560196877,0.00473810127004981,0.0010223425924777985,0.005414379760622978,-0.004971825517714024,0.00016594375483691692,0.0016793408431112766,-0.004192766733467579,-0.0022018973249942064,0.0034508979879319668,-0.0047179292887449265,0.0011213731486350298,0.005407731514424086,-0.0022014316637068987,0.006926348432898521,0.0002810360165312886,-0.00257843523286283,-0.005168648436665535,0.0006940378807485104,0.0008220274467021227,0.0013067636173218489,0.00046543602366000414,0.0010103157255798578,-0.002072414383292198,-0.001987073803320527,-0.0007774784462526441,0.0036497749388217926,0.0026059532538056374
犹太主义,-0.0025677126832306385,0.0004615034267771989,0.0012780001852661371,0.0037592642474919558,0.000279316765954718,0.0012703915126621723,0.00012582568160723895,-0.00037602343945764005,-0.0004684116574935615,-0.00030202732887119055,0.00044658445403911173,0.0004381042090244591,0.003456661943346262,0.00024883271544240415,-0.0020076436921954155,0.000981877907179296,-0.0008439793600700796,0.00041601862176321447,-0.0019982876256108284,0.0004957069177180529,-0.004019447602331638,0.0012525635538622737,-0.0022530800197273493,-0.0011957262177020311,-0.0030415132641792297,-0.0013032321585342288,-0.001269967993721366,0.0021152885165065527,-0.003433393547311425,-0.00019430565589573234,-0.002417037496343255,7.139633089536801e-05,0.0021476363763213158,0.0011697645531967282,-0.0012029586359858513,-0.0011872290633618832,-0.0015996511792764068,-0.0007175523787736893,-0.0038312673568725586,0.001118490006774664,0.00010881992056965828,-0.001491071772761643,0.0007159642991609871,-0.0004432285204529762,0.0004963703104294837,-0.0003573205613065511,-0.0023213899694383144,0.001158020575530827,0.0021128233056515455,0.004721453879028559,-0.0008578028064221144,0.0033793961629271507,0.00023002900707069784,-0.0002558231062721461,-0.0011681931791827083,-0.0011487207375466824,-6.348216265905648e-05,-0.0021342821419239044,-0.001140669803135097,0.001565015991218388,-0.0032416165340691805,0.004090812522917986,0.002895687473937869,-0.0013167246943339705,-0.002880929270759225,-0.002423112979158759,-0.0021575225982815027,-0.004033320117741823,-0.0004241180431563407,0.0015541230095550418,-0.002248369390144944,-0.002164045348763466,0.00024565926287323236,-0.00443316251039505,0.0012762255501002073,6.802794814575464e-05,0.003820944344624877,-0.001254391041584313,0.0018111021490767598,0.00042012197081930935,0.0015825832961127162,0.0007341239834204316,0.00038400571793317795,0.001520215766504407,-0.002469622530043125,-0.0029017580673098564,-0.0022187421564012766,-0.0031190833542495966,0.0032889554277062416,-0.0009827692992985249,-0.00013939289783593267,0.0015479668509215117,-0.0025364821776747704,0.0024634716100990772,-0.0014810030115768313,0.00050890858983621,-0.0010271251667290926,0.003574633738026023,-0.002132082125172019,0.0018710162257775664
历史,0.0033899531699717045,-0.003015562891960144,-0.0018630019621923566,0.0010882926872000098,0.0011367934057489038,-0.0005461067194119096,0.00028065365040674806,-0.0004626939771696925,-0.004231422208249569,-0.0035474556498229504,0.0037192367017269135,-0.001227742526680231,0.003887494094669819,0.0007347243372350931,0.0011425231350585818,-0.0026740978937596083,-0.003670737612992525,0.001930209924466908,0.0013686846941709518,0.0028019051533192396,0.005511467810720205,-0.002546807285398245,-0.0022685930598527193,0.00031814008252695203,0.00541303725913167,-0.0034901031758636236,0.0034044738858938217,-0.0033588099759072065,-0.0029051564633846283,-0.0031040797475725412,0.0020525255240499973,-0.005939071998000145,-0.0007039669435471296,-0.0010818606242537498,-0.004243343137204647,-0.0016798318829387426,0.002988009247928858,-0.002412677276879549,0.0022584288381040096,-0.0014719595201313496,-0.002935557160526514,-0.0035412292927503586,0.00583714060485363,0.0010615738574415445,-0.006157321855425835,0.0017772249411791563,-0.0013169387821108103,0.0023060867097228765,0.0007159855449572206,0.0040509626269340515,0.001403111033141613,0.0020323230419307947,0.004081618972122669,-0.0018888688646256924,0.0018862392753362656,-0.001850636093877256,-0.0017343433573842049,-0.0011977668618783355,-0.0007861650083214045,0.0004883051733486354,0.0009383023134432733,-0.00584034901112318,-0.00019090669229626656,0.0003268744330853224,-0.0005265747895464301,0.004805781878530979,-0.0027465266175568104,-0.002829435281455517,-0.002907597692683339,-0.0021852338686585426,0.002021597931161523,-0.0019139735959470272,0.0004300957079976797,-0.0023868398275226355,0.0028806941118091345,-0.00023427876294590533,0.001531476154923439,-0.004179567098617554,0.002801398513838649,-0.00221240590326488,-0.0005652241525240242,-0.0032493837643414736,0.00017824184033088386,-0.0011155660031363368,0.0010862291092053056,-0.004030213691294193,0.0020882044918835163,-0.0003867940977215767,0.0034125233069062233,0.004807033576071262,-0.004380058962851763,0.0016808410873636603,0.0025624833069741726,-0.003677431959658861,0.0008311336860060692,0.005795647390186787,-5.972106009721756e-07,-0.0035362166818231344,-0.0008310016710311174,-0.0021214517764747143
雕塑,0.0016583260148763657,-0.00045748730190098286,0.0037568211555480957,-0.007656106725335121,0.003277275711297989,0.0032548282761126757,-0.0027967526111751795,-0.004340501967817545,0.001934487372636795,0.002167350146919489,-0.002621652791276574,-0.0004930323921144009,0.0012224460951983929,0.002832230646163225,-0.0010570415761321783,8.393544703722e-08,0.003782264655455947,0.0017322797793895006,-0.00321904756128788,-0.00019679288379848003,0.001889035222120583,-0.003576429793611169,-0.0005269997054710984,-0.0028344732709228992,0.003020824398845434,0.004605316556990147,0.0011075459187850356,-0.003672683145850897,-0.002422322053462267,0.0040632025338709354,-0.0004928504349663854,-0.006785973906517029,-0.0013118907809257507,0.002399457385763526,-0.0016128208953887224,0.00010775262489914894,0.0017709998646751046,0.0017478206427767873,0.006032885983586311,0.002810198813676834,-0.0034812295343726873,0.003522407729178667,-0.0011114862281829119,0.001996493199840188,-0.0002626884379424155,-0.003411696059629321,-0.0022520136553794146,-0.0007065664976835251,0.005043553188443184,-0.0017897854559123516,0.0018634888110682368,-0.0009340703254565597,0.0012864441378042102,0.005100695416331291,-0.0020150826312601566,-0.0034367237240076065,0.0001386862713843584,-0.003098786808550358,0.0015543134650215507,0.0031144898384809494,-0.0006278981454670429,0.006574570666998625,0.0025621321983635426,0.0012330799363553524,0.00045784306712448597,-0.0058317650109529495,0.001508313580416143,0.005154575686901808,0.004078226629644632,0.0012417483376339078,-0.0011514320503920317,0.0015116079011932015,0.00010578660294413567,-0.004127098247408867,0.0015195651212707162,0.0038031700532883406,-0.001955812331289053,0.001506659435108304,1.6930251149460673e-05,0.005445912946015596,-0.0012053536484017968,-0.001962177222594619,-0.0014224969781935215,0.005162909626960754,0.0008923086570575833,-0.0028220885433256626,0.0001407975796610117,0.00239926646463573,0.001630403334274888,0.002013915218412876,0.001455581863410771,0.004080557264387608,-1.796642754925415e-05,0.002743067219853401,0.002278617350384593,-0.0038016862235963345,0.004861763678491116,0.004975292831659317,-0.003074487904086709,-0.0012752409093081951
认为,-0.007917296141386032,0.00014886212011333555,0.0030803969129920006,0.0036467614118009806,-0.0026127537712454796,-0.003009833861142397,-0.0035752784460783005,0.001707973424345255,0.0020600182469934225,-0.0021065366454422474,-0.0018436014652252197,-0.005744145251810551,0.0007507141563110054,-0.0051118675619363785,-0.0023512407205998898,-0.0071201506070792675,0.0026043960824608803,0.0040464578196406364,0.0062479241751134396,-0.005745577625930309,0.006084945052862167,-0.003215635195374489,0.004871027078479528,-0.005143827758729458,0.0024196093436330557,0.008334667421877384,-0.0006469161598943174,-0.004352660849690437,-0.001160261919721961,0.0010136980563402176,0.0007143476977944374,-0.0005447933217510581,-0.005978460889309645,0.0030348855070769787,-0.00418191310018301,0.006189234554767609,0.0017527085728943348,0.0019800453446805477,-0.006044261157512665,-0.0006629995768889785,-0.0045225913636386395,-0.0017998970579355955,-0.008831883780658245,-0.007977563887834549,-0.0029306220822036266,-0.004104469902813435,-0.008035827428102493,0.0006299492088146508,0.003699201624840498,0.002737014554440975,0.00020046113058924675,-0.006319061852991581,-0.0016035947483032942,0.00044314347906038165,-0.002323526656255126,0.0017399501521140337,0.0014489981113001704,0.0016001416370272636,-0.0022865140344947577,-0.0004030235577374697,0.001219774130731821,0.004379996098577976,-0.005228923633694649,0.0022949620615690947,0.005904789082705975,-0.002490351442247629,0.0023605606984347105,-0.01163873914629221,-0.005942015442997217,0.0018275977345183492,-0.0021244995296001434,0.0018260658252984285,0.001971044111996889,-0.000758196460083127,0.0019554533064365387,-0.0013529644347727299,0.001138291321694851,0.0005924204597249627,-0.0009930006926879287,0.004504773300141096,-0.00018986838404089212,-0.003081957343965769,-9.604435763321817e-05,0.0034304966684430838,0.002170122927054763,-0.00047642202116549015,-0.0026214844547212124,0.0028813451062887907,-0.0019114601891487837,0.004556949250400066,0.005780074279755354,-0.00204454199410975,-0.00632106140255928,0.0007081683725118637,0.004822711460292339,0.00029671424999833107,0.006665111519396305,-0.004610851407051086,-0.00645572692155838,0.003082110546529293
