word,0,1,2,3,4,5,6,7,8,9,10,11,12,13,14,15,16,17,18,19,20,21,22,23,24,25,26,27,28,29,30,31,32,33,34,35,36,37,38,39,40,41,42,43,44,45,46,47,48,49,50,51,52,53,54,55,56,57,58,59,60,61,62,63,64,65,66,67,68,69,70,71,72,73,74,75,76,77,78,79,80,81,82,83,84,85,86,87,88,89,90,91,92,93,94,95,96,97,98,99
好,-0.013448690995573997,-0.00022407807409763336,0.006977139972150326,0.005250172223895788,0.006296612322330475,-0.003319100709632039,-0.000429116771556437,0.006580363493412733,0.001018709153868258,-0.007422334514558315,-0.006911874748766422,-0.0073459576815366745,-0.005192463286221027,0.0015013567171990871,0.0028865779750049114,0.0023692059330642223,0.007638235576450825,0.005393823608756065,-0.004568982869386673,-0.010529929772019386,-0.0008901373948901892,-0.00730143254622817,0.0014748212415724993,-0.004742773249745369,0.0038474902976304293,0.006331176497042179,-0.0016275501111522317,-0.0006630230927839875,0.002344150096178055,0.007967863231897354,0.005653825588524342,-0.004520599730312824,-0.002234468935057521,-0.003945932723581791,0.0033012060448527336,0.0100395567715168,0.005015757866203785,-0.0021351471077650785,-0.002129832748323679,0.003440405707806349,0.00035423366352915764,-0.011110549792647362,-0.014480163343250751,-0.005086120218038559,-0.005984023213386536,0.0030290097929537296,-0.005685597658157349,-0.0006963965715840459,0.002089208457618952,0.003458705497905612,0.000895017059519887,-0.008036637678742409,-0.0006246201228350401,0.010409167036414146,0.0022310209460556507,0.0029626404866576195,0.0014898956287652254,0.0004052695585414767,-0.0032504601404070854,0.005604071076959372,-0.006708474829792976,0.008754006586968899,-0.005865208804607391,-0.004845974966883659,0.0022314521484076977,0.00403020391240716,0.007307743653655052,-0.004082930274307728,0.0016037332825362682,0.007410695310682058,-0.0045457687228918076,-0.010851708240807056,0.001622611191123724,0.0028923440258949995,-4.46474296040833e-05,0.0021899847779423,-0.0046746693551540375,-0.003062245436012745,0.0022140436340123415,-0.0065354835242033005,-0.007716106716543436,0.002141220960766077,0.008122664876282215,-0.0075967321172356606,-0.004447514191269875,-0.005474080331623554,0.006028409115970135,-0.007680646143853664,0.0023393144365400076,-0.005534944124519825,-0.003141972701996565,0.0035208631306886673,-0.003334709210321307,-0.0017422803211957216,0.007433063816279173,-0.0017992579378187656,0.002588738454505801,-0.006335307843983173,-0.012032740749418736,0.00475096981972456
干,-0.0038059083744883537,0.00481113838031888,0.0005141913425177336,-0.001060668844729662,0.007116321008652449,-0.006751211825758219,0.002111428417265415,0.002720268676057458,0.007329023443162441,-0.0008779279887676239,-0.00558952521532774,0.007879342883825302,-0.00013624524581246078,0.007001957856118679,-0.001940775429829955,-0.0006376472301781178,0.001636337023228407,0.003455396043136716,0.008353356271982193,0.0018011771608144045,-0.0022964482195675373,0.001463089371100068,0.0030598039738833904,-0.0027987791690975428,0.0027229387778788805,0.006043585948646069,0.007194601930677891,-0.008647024631500244,-0.0008285813964903355,-0.00018325471319258213,0.005540983751416206,-0.0009810483315959573,-0.005453513003885746,0.0003816616954281926,-0.0007416682783514261,-0.008183769881725311,0.0011667062062770128,-0.005947083234786987,0.007057408802211285,-0.005466827191412449,0.002001734683290124,-0.0014551480999216437,0.002192460000514984,0.0034707074519246817,-0.0016952920705080032,0.0020334101282060146,0.0018811653135344386,0.0028052881825715303,-0.0008156031835824251,0.006109328009188175,-0.0026383008807897568,-0.008344328962266445,0.005465848371386528,0.0017518787644803524,-0.0069161467254161835,-0.000568610499612987,0.0046797399409115314,-0.0007444529328495264,0.0025027492083609104,0.003024963429197669,-0.0022773980163037777,-0.0005694078281521797,0.003520722035318613,-0.004300324711948633,0.009217949584126472,-0.003748772433027625,0.007502972148358822,-0.002799605019390583,9.674625471234322e-05,0.0018045124597847462,0.006462698336690664,0.0028628013096749783,0.0016707602189853787,0.0006602892535738647,0.0018445674795657396,-0.001045629265718162,-0.003108477219939232,0.0039405967108905315,0.006578966975212097,0.006872416473925114,0.000554174417629838,-0.0015404976438730955,0.00724183302372694,0.007018504664301872,-0.0016078026965260506,-0.00365147041156888,-0.007123822346329689,0.004747441038489342,4.413188435137272e-05,-0.001654255436733365,-5.729414988309145e-05,0.007427752949297428,-0.0003461930900812149,7.259426638484001e-06,-0.005503524094820023,0.007717952597886324,0.002281531458720565,-0.008328545838594437,0.004446502309292555,0.002310327487066388
天气,-0.0030000023543834686,-0.002616381971165538,0.00485891243442893,-0.0013191868783906102,0.007460073567926884,-0.011466754600405693,-0.001395302009768784,0.010142517276108265,0.001693287747912109,-0.009186476469039917,0.004584674257785082,-0.011197248473763466,0.00435218121856451,-0.00346543500199914,-7.772492244839668e-05,-0.003994266968220472,0.0038074916228652,0.0029427320696413517,0.0023700944148004055,-0.0072389449924230576,0.009060772135853767,-0.0007843902567401528,-0.005852146074175835,-0.0030781771056354046,0.0007957718335092068,-0.006685907952487469,-0.0005634390981867909,-0.0011095162481069565,0.0014755453448742628,0.002385547384619713,-0.001492928946390748,-0.0034081563353538513,0.0014155665412545204,0.0009556259610690176,-0.007218398153781891,0.007144121453166008,-0.006491619162261486,-0.007978818379342556,0.0009043668396770954,-0.005048396997153759,0.002700823126360774,-0.007054293993860483,-0.003577958093956113,-0.004373238421976566,0.003068084828555584,0.007365419529378414,-0.0022470832336694,-0.00018365297000855207,0.006429916247725487,-0.0024469501804560423,-0.002247854834422469,-0.005238043610006571,0.002962971804663539,-0.0014644439797848463,0.0073075913824141026,-0.005472958087921143,0.010181641206145287,0.002935119904577732,-0.0009812406497076154,-0.001508477609604597,-0.0005059402901679277,-0.005179560277611017,0.0033177766017615795,-0.004334181547164917,0.006423732731491327,5.084369331598282e-05,-0.0064426627941429615,-0.008648203685879707,-0.003713089507073164,0.015505529008805752,0.007070762570947409,-0.0025238581001758575,0.002223778050392866,-0.001825863728299737,0.0049505275674164295,0.004901452921330929,-0.0004811788094229996,-0.0038796551525592804,-0.005711794830858707,0.007403274066746235,0.007394656538963318,0.0039870827458798885,-0.004164092242717743,0.0019987388513982296,0.009114508517086506,0.006036538165062666,0.0052054813131690025,0.005971097387373447,0.0001440015621483326,-0.0015327035216614604,-0.0028714051004499197,0.006529831327497959,0.0024437152314931154,0.003191225929185748,0.002021626103669405,0.0024042350705713034,-0.0013263365253806114,0.0007895743474364281,-0.002743421122431755,0.009157167747616768
