word,0,1,2,3,4,5,6,7,8,9,10,11,12,13,14,15,16,17,18,19,20,21,22,23,24,25,26,27,28,29,30,31,32,33,34,35,36,37,38,39,40,41,42,43,44,45,46,47,48,49,50,51,52,53,54,55,56,57,58,59,60,61,62,63,64,65,66,67,68,69,70,71,72,73,74,75,76,77,78,79,80,81,82,83,84,85,86,87,88,89,90,91,92,93,94,95,96,97,98,99
汽车新闻,-0.0005785569082945585,0.0025274078361690044,-0.00417455704882741,-0.0013372617540881038,-0.0003428068303037435,-0.0005820387741550803,-0.0018990376265719533,-0.00173080712556839,-0.0015351782785728574,0.0006679754587821662,0.001130174263380468,0.0002940559643320739,0.0011883870465680957,-0.0016958984779193997,0.00018505439220461994,-0.0017117294482886791,-0.0009443126618862152,-0.003357023699209094,0.00031570435385219753,0.0010328368516638875,0.0005437511135824025,0.0014216781128197908,0.0016203061677515507,0.00018630422709975392,-0.00011138245463371277,-0.0020795792806893587,0.002191535895690322,-0.0016008962411433458,-0.0010068595875054598,0.004535256419330835,0.0018221124773845077,0.0013905545929446816,0.0006527313962578773,0.0002911885385401547,-0.0027219965122640133,0.001154380850493908,-0.0006037941784597933,0.0006173605215735734,-0.002740493742749095,0.003524503670632839,-0.001740907784551382,0.00043304116115905344,0.00044697828707285225,-0.0015011228388175368,-0.001442836131900549,-0.00011034487397409976,-0.0005202041938900948,0.0009712869068607688,-0.0003757692757062614,0.0007384594064205885,-0.0007108725258149207,0.001987132476642728,0.0023186272010207176,0.0002505379670765251,0.0005588614731095731,7.435929001076147e-05,0.002603627508506179,-0.0016200444661080837,-0.0031607476994395256,0.0005848763394169509,-0.0007748996722511947,-0.0004409007669892162,-0.0024130246601998806,-0.0029811004642397165,-0.001687962212599814,-0.0017229608492925763,-0.0002501325507182628,-0.001616206020116806,-0.0008670379756949842,-0.0009258095524273813,0.0021588229574263096,0.0004919864004477859,0.0005697272717952728,-0.004080762155354023,0.000974336639046669,0.0038868484552949667,0.004327495116740465,0.002572585130110383,-0.0024116006679832935,-0.0024198901373893023,-0.0028301975689828396,0.0005747774266637862,0.00013710690836887807,0.0013934833696112037,-0.0018189403926953673,0.0020423440728336573,0.004321340937167406,0.0020607588812708855,0.002294122939929366,-0.00027052330551669,-0.001154417055658996,-0.0041513703763484955,0.000825221708510071,-0.0009768173331394792,0.00019301095744594932,0.0007726274779997766,0.00027606289950199425,-0.0021444824524223804,0.000368590495781973,0.0004273146332707256
寻找,-0.004888575989753008,0.005190512631088495,0.002980603603646159,0.0014147948240861297,0.0008388184942305088,0.00024243455845862627,-0.000866916379891336,-0.0050514452159404755,-0.0023158604744821787,-0.00014535209629684687,-0.0017601818544790149,-0.0015217396430671215,-0.003774686250835657,0.0011940102558583021,-0.0010282860603183508,-0.0021637501195073128,0.00546909449622035,-0.0014450910966843367,0.0025106219109147787,-0.0003216973855160177,-0.0016166054410859942,-0.00591267878189683,-0.0010981301311403513,0.005839737597852945,0.0011892858892679214,0.002734680427238345,0.00021049281349405646,-0.005455969367176294,0.0018928688950836658,-0.00136295345146209,-0.0013758746208623052,0.004002050030976534,-0.002859801519662142,-0.0009032299276441336,0.00471136812120676,-0.00032694218680262566,-0.0007360434392467141,-0.002143197925761342,-0.004245547577738762,0.0015254332683980465,-0.0035590899642556906,-0.0009318640222772956,-0.002991700079292059,-0.0032281987369060516,-0.00463454145938158,-0.0027108865324407816,0.0012760614044964314,-4.204059951007366e-05,-0.0051136137917637825,-0.0020714360289275646,0.0018445888999849558,-4.010496195405722e-05,-0.000986050465144217,0.005250836722552776,-0.004622265696525574,-0.0014238995499908924,0.0011055758222937584,-0.0029020574875175953,0.004270642995834351,-0.005930510349571705,-0.004299403168261051,-0.0006755018839612603,0.0021338374353945255,0.0018126626964658499,-0.0020685652270913124,-0.0007086592959240079,0.0015005874447524548,0.001984819769859314,0.001648604404181242,-0.002652317751199007,0.003619253868237138,-0.00415376853197813,0.005000199191272259,0.006930781062692404,0.0030181631445884705,0.0009875863324850798,0.001589532708749175,-0.0003442371962592006,-0.0012240351643413305,-0.0009422903531230986,-0.0003919200971722603,-0.0027500013820827007,0.00018263538368046284,-0.004389358218759298,0.001254346570931375,0.0059033543802797794,-0.0024984802585095167,0.0017203758470714092,0.002207702724263072,-0.003534572431817651,-0.003208782058209181,-0.00026581878773868084,-0.00012878805864602327,0.0033762732055038214,0.003235730342566967,0.000829228840302676,-0.004655540455132723,-0.0006821520510129631,-0.0024851677007973194,-0.004420507699251175
