word,0,1,2,3,4,5,6,7,8,9,10,11,12,13,14,15,16,17,18,19,20,21,22,23,24,25,26,27,28,29,30,31,32,33,34,35,36,37,38,39,40,41,42,43,44,45,46,47,48,49,50,51,52,53,54,55,56,57,58,59,60,61,62,63,64,65,66,67,68,69,70,71,72,73,74,75,76,77,78,79,80,81,82,83,84,85,86,87,88,89,90,91,92,93,94,95,96,97,98,99
试图,-0.0038075060583651066,-0.00033073825761675835,5.144093302078545e-05,0.000954597897361964,-0.002534272149205208,-0.0029103050474077463,-0.00533378915861249,0.006908280774950981,0.0024910534266382456,-0.00277840718626976,-0.004145192913711071,-0.004508002195507288,0.00395649578422308,-0.001648126868531108,0.0009839547565206885,-0.0037847922649234533,-0.0058583104982972145,-0.0003124293580185622,0.00037162823718972504,-0.005234740674495697,0.004069326911121607,0.00033535168040543795,0.001676372718065977,0.0034072422422468662,0.0026961462572216988,-0.0013204431161284447,0.0011706597870215774,0.0003459411673247814,-0.00036397375515662134,0.003107478842139244,0.0036060872953385115,-0.002486651763319969,0.0019027155358344316,0.005278041586279869,-0.0005963859148323536,0.0075001586228609085,0.0061372919008135796,0.004278562031686306,-2.1061801817268133e-05,0.0015847785398364067,-0.0012951826211065054,-0.0001549308653920889,-0.005074608139693737,-0.004806263372302055,-0.001804122468456626,-0.0018708710558712482,-7.15884380042553e-05,0.005183698609471321,0.0031301877461373806,-0.0029710091184824705,-0.0010578098008409142,-0.00021740526426583529,-0.0017310172552242875,0.002480409573763609,-0.0026735826395452023,-0.005594811402261257,0.0042382460087537766,-0.002533530816435814,-0.003271879628300667,-0.0008113750955089927,-0.004098190926015377,0.000207593257073313,-0.005886979401111603,-0.002421880606561899,0.0015853666700422764,0.002443572273477912,-0.0010746021289378405,-0.002407501684501767,-0.0016325840260833502,-0.0010090216528624296,-0.0003277445212006569,0.0023575755767524242,0.0017868602881208062,-0.00025362754240632057,0.0023190458305180073,0.0029995276127010584,-0.0003771415213122964,0.0016839317977428436,-0.00487835006788373,-0.0046217720955610275,-0.00019099214114248753,0.0021079983562231064,0.005313307046890259,0.003884945996105671,0.0025922853965312243,-0.0002756405156105757,-0.002642389852553606,-0.0076282150112092495,0.0016692287754267454,0.0008629361400380731,-0.001985227921977639,0.0024648639373481274,0.0005584490718320012,0.0012771672336384654,0.0018441076390445232,-0.0001051879080478102,-0.002017583465203643,-0.003490796545520425,-0.004670191556215286,-0.0003210795111954212
成本,0.00013144337572157383,0.005339089781045914,-0.0007243371801450849,-0.0005220312159508467,-0.001462058862671256,0.0005796380573883653,0.001881203381344676,-0.0006366175366565585,-0.0036463565193116665,0.0031489876564592123,-0.0035327174700796604,-0.0019816034473478794,0.0006913169054314494,-0.0019566542468965054,0.0034917043522000313,0.002743619494140148,0.0028100614435970783,0.003685534466058016,0.00027779187075793743,-0.001066765864379704,-0.0011470055906102061,0.0007886785897426307,0.0013535036705434322,-0.001172160031273961,-0.0025840727612376213,-0.0013395968126133084,-2.3070606403052807e-05,-0.0010838188463822007,-0.0007222162093967199,0.002162905875593424,-0.002777199260890484,-0.003005928359925747,0.001968163764104247,-0.0012821111595258117,0.004605908878147602,0.008444932289421558,0.004884944763034582,-0.00040660996455699205,0.005529649555683136,0.0016894320724532008,-0.0019852123223245144,-0.0012115720892325044,-0.006337567698210478,-0.007625490427017212,0.0018543264595791698,0.003244495252147317,-0.004469174891710281,-0.0024951533414423466,0.0005424132104963064,0.00030452688224613667,-0.0003704508126247674,-0.0026250940281897783,-0.0007366591598838568,-0.0015312430914491415,-0.0025406901258975267,-0.002632356248795986,-0.004636190831661224,-0.002971157431602478,-0.0003198216436430812,0.0016679021064192057,0.004200305324047804,-0.0009339833632111549,0.005748475436121225,-4.1626859456300735e-05,-0.0028111496940255165,-0.0019880610052496195,0.0036537391133606434,-0.004210000857710838,0.002318083541467786,-0.0010940474458038807,-0.0016871561529114842,0.0018093202961608768,0.00578635698184371,0.0016574374167248607,-0.002683136146515608,0.00491337850689888,-0.001042026560753584,-7.3069240897893906e-06,0.003737330436706543,-0.0029636556282639503,-0.005547467153519392,-0.001468847505748272,0.005783189088106155,-0.0022433139383792877,-0.00207613711245358,0.002919018268585205,0.0028417897410690784,0.003295430215075612,0.0012639793567359447,-1.3242126442492008e-05,0.005420192144811153,-0.0008771936409175396,0.0010302929440513253,0.002163088880479336,-0.0014834406320005655,0.004259279929101467,-0.003207441419363022,0.004302870482206345,-0.006923605687916279,-0.0025720386765897274
失误,-0.0007493502926081419,-0.0031921607442200184,-0.0005938648246228695,0.004633952397853136,-0.0030256258323788643,-0.004577920772135258,-0.004322919994592667,-0.003311216365545988,0.0022905883379280567,-0.0023894296027719975,0.004191030748188496,0.000448710226919502,0.0004090267466381192,0.0010373196564614773,-0.0038712946698069572,0.0011565748136490583,-0.0037929387763142586,-0.00016588467406108975,0.00023549911566078663,0.0010775758419185877,-0.0012071775272488594,0.0009612600551918149,-0.0031432968098670244,0.0016272838693112135,-0.003030452411621809,0.0035046208649873734,5.2172341383993626e-05,-0.003304210491478443,-0.0012015559477731586,0.0009381694253534079,0.003759329905733466,0.0009203697554767132,-0.0013029639376327395,0.00024341855896636844,0.0002308620314579457,0.0003127122763544321,0.002122770994901657,-0.004271158017218113,-0.0002547097101341933,0.0006625054520554841,0.00032187788747251034,-0.002926243469119072,-0.00243928050622344,-0.0037295608781278133,0.0003704599803313613,-0.0037806108593940735,0.0021875870879739523,-0.00029685295885428786,0.0011983509175479412,0.0030835834331810474,4.9328955356031656e-05,-0.005924249067902565,-0.0019978382624685764,0.0029613333754241467,-0.00010994411422871053,0.0029954896308481693,-0.0011366474209353328,-0.000612607691437006,-1.2260512448847294e-05,-0.0005862406687811017,0.0005376116023398936,0.001091875252313912,-0.008405709639191628,0.002045534085482359,-0.0050408486276865005,0.004751939792186022,0.004531746730208397,-0.007777098100632429,0.00619911216199398,-0.003275768831372261,0.0014419250655919313,-7.77889508754015e-05,0.0010077484184876084,-0.004729033913463354,-0.0017142870929092169,0.004718600306659937,-0.0024685850366950035,-0.003642377909272909,0.0030816637445241213,0.0040204450488090515,0.002357385354116559,0.006985615938901901,-0.004223614931106567,0.0020587982144206762,0.00045076734386384487,0.005825727246701717,0.0023666606284677982,0.003965722396969795,-0.000545194954611361,-0.0027914862148463726,-0.00022186740534380078,-0.0019832071848213673,0.004526287317276001,-0.0023877802304923534,-0.0019913851283490658,-0.004772759508341551,0.003358377143740654,-1.89351849257946e-05,-0.0028322383295744658,0.0013528669951483607
高,0.0015680014621466398,0.0008649132214486599,0.0002905321307480335,-0.0005893358029425144,0.007245888002216816,0.002517082029953599,0.0025910413824021816,-0.005699807778000832,0.004792528692632914,0.0016126250848174095,-0.0016818809090182185,-0.0008774199523031712,-0.007118798326700926,0.0042712027207016945,0.004078736528754234,-0.004954749718308449,0.0011371327564120293,0.008505251258611679,-0.003060425166040659,-0.0026551871560513973,0.01008731871843338,-0.004759716801345348,-0.004188475199043751,-0.0017970516346395016,-0.007974719628691673,0.0015052712988108397,0.0031954296864569187,-0.003729524090886116,-0.0034775426611304283,-0.0027113049291074276,-0.005944190546870232,0.005435527767986059,-0.009665173478424549,-0.0009611165733076632,-0.001291243708692491,0.004375699441879988,0.006593362428247929,0.0086034145206213,-0.004613165277987719,-0.001691723009571433,0.0014385648537427187,-0.00181974982842803,0.0023925246205180883,0.004048340022563934,0.006015940569341183,-0.005844052881002426,-0.0010857362067326903,0.008259613066911697,0.004782510921359062,0.0014328238321468234,-0.0035751392133533955,-0.0013830566313117743,-0.0007229772745631635,0.003040882758796215,0.00011057988740503788,-0.005623944103717804,0.003708300646394491,-0.0043320367112755775,0.0005161840235814452,-0.0068241022527217865,-0.0037310943007469177,0.000466405414044857,0.0010630274191498756,-0.0026330335531383753,-0.0038821520283818245,0.0010272149229422212,0.007625211961567402,0.0034613385796546936,-0.0021450358908623457,-0.002956886077299714,0.0003383269067853689,-0.005242652725428343,-0.0031477895099669695,0.002586703049018979,0.000981621677055955,0.009675024077296257,0.009123195894062519,0.006470303982496262,-0.008373668417334557,0.0012773685157299042,6.901845335960388e-05,0.008551418781280518,0.004635800141841173,-0.0034289350733160973,0.001723243622109294,0.004554105922579765,-0.0055738696828484535,-0.003844223218038678,-0.0010014853905886412,-0.0013403247576206923,0.006574575789272785,0.009787834249436855,-0.0015948504442349076,0.001928238314576447,-0.0023299022577703,0.004515042994171381,0.003684528172016144,-0.0018617615569382906,-0.00619107112288475,0.006760570220649242
广告,-0.004747531842440367,0.0013869036920368671,0.00021952102542854846,0.0018536397255957127,-0.0031538468319922686,0.005476434715092182,-0.0009710949379950762,0.0024003437720239162,0.00039000785909593105,-0.0010207832092419267,-0.0044408258982002735,-0.003071334445849061,0.0008808595594018698,0.0020018962677568197,0.00014880584785714746,0.0028344516176730394,0.0035684083122760057,-0.002725719939917326,7.929513230919838e-06,8.735375013202429e-05,0.0030777554493397474,0.0032172882929444313,0.003432729048654437,-0.0033354125916957855,-0.0027929830830544233,-0.00044945627450942993,-0.0020393873564898968,0.0038144737482070923,0.002312879776582122,0.0007436440791934729,-0.00046231941087171435,-0.002079190220683813,0.0012338226661086082,-0.001447303919121623,0.002455913694575429,0.006814540363848209,0.0027026981115341187,0.00590633787214756,0.003974709659814835,-0.0015532104298472404,-0.001893959240987897,-0.0015981693286448717,-0.0004588874289765954,-0.0025781881995499134,-0.002235243795439601,-0.0034505529329180717,-0.0003763459390029311,0.004558579530566931,-0.00041555031202733517,-0.0016680979169905186,0.0021466598846018314,0.00124556350056082,-0.0019872491247951984,-0.003375094151124358,-0.0035793210845440626,0.0008306691888719797,-0.0017697041621431708,0.0018467470072209835,-0.00023200595751404762,-0.003905773628503084,0.0003407717449590564,-0.005321112461388111,-0.000660898454952985,0.0014308341778814793,0.002606587018817663,0.003055721754208207,0.002494577784091234,-0.001840668497607112,0.0009051661472767591,0.005063686519861221,-0.0001114188926294446,-0.0008674893761053681,0.0005255650030449033,-0.0005163511959835887,-0.0008244042983278632,0.004287540912628174,-0.0018025028984993696,0.0028944765217602253,0.004661438055336475,-0.0015404775040224195,0.00043311400804668665,-0.0005227344227023423,-0.004000017885118723,0.002833436941727996,-0.0032395971938967705,0.000608531292527914,0.00193983712233603,-0.00043663429096341133,-0.0009172969730570912,0.0001917826011776924,-0.0032444249372929335,0.0005707289674319327,0.00042278243927285075,0.002883807523176074,-0.0033185440115630627,0.001831808127462864,0.003126741386950016,0.003927155397832394,-0.0011165590258315206,0.004156268667429686
极好,0.0002575840335339308,-0.0008519674884155393,-0.00037391349906101823,-0.0020391102880239487,-0.00212163501419127,-0.0015545092755928636,0.000497291621286422,0.0024465203750878572,0.003585680155083537,-0.0012606693198904395,-0.003539689816534519,0.0012306466232985258,0.006671225652098656,-0.004291534423828125,-0.0008399020880460739,-0.0006546902004629374,0.0035996597725898027,0.0004085460677742958,-0.0038762721233069897,0.002046736190095544,-0.003928010817617178,-0.002543825190514326,0.003179155522957444,-0.00116532645188272,-0.002756360452622175,0.0022141237277537584,0.004035083577036858,0.0019828667864203453,-0.0007984299445524812,-0.0034956259187310934,0.001844346639700234,0.0012694646138697863,0.002889259485527873,-0.0017212169477716088,-0.001134615857154131,-0.004465425852686167,0.005425329320132732,-0.0016940622590482235,0.0003604262019507587,-0.0014245393685996532,0.0016705605667084455,-0.0018306787824258208,-0.004101341590285301,0.002972823102027178,-0.0005510724149644375,0.0009311179164797068,-0.002648999448865652,0.004292577505111694,0.00044779625022783875,0.0006791565683670342,-0.0014557975810021162,-0.002586292801424861,0.007969459518790245,-0.002109841676428914,-0.004798674024641514,0.00016844714991748333,-0.009075574576854706,0.003285179613158107,0.0018340437673032284,0.003578606527298689,-0.000804130919277668,0.001504126121290028,-0.00012680547661148012,0.0024826519656926394,0.0038637369871139526,0.0005838500801473856,0.00399665255099535,-0.005059330724179745,0.0013309618225321174,0.0013546299887821078,-0.0003765221918001771,-0.0007303598104044795,-0.0015221156645566225,-0.0031722397543489933,-0.004084387328475714,0.000395537237636745,-0.002397082978859544,0.001503332401625812,2.6174820959568024e-06,-0.0002773720188997686,0.0021467155311256647,-0.002803209936246276,0.002214679028838873,0.0015746046556159854,0.0007214715587906539,0.004762700758874416,0.00509555172175169,0.002210392151027918,0.0017129627522081137,0.001133333775214851,0.0018432545475661755,-0.002474212786182761,0.004631480667740107,-0.001050028600730002,-0.00020230491645634174,0.0022618668153882027,-9.452199446968734e-05,0.0009602606878615916,0.0019933327566832304,-0.0036397711373865604
收到,-0.0061693694442510605,0.0009824770968407393,-0.0005408294382505119,0.0009931913809850812,0.005540681537240744,-0.003749486058950424,-0.0008107607718557119,0.0017947795568034053,0.005950045306235552,-0.00024661142379045486,-0.0028789942152798176,0.0006011329824104905,0.0038967481814324856,-0.0020747182425111532,-0.0007650319021195173,-0.0021026073954999447,-0.002679998055100441,0.003028859617188573,0.001567161176353693,-0.0009814249351620674,-0.0018169624963775277,-0.002636281307786703,0.0016319270944222808,0.0015341050457209349,-0.0020547567401081324,0.0028045864310115576,-0.0008751885034143925,-0.0026415097527205944,0.0006468459032475948,-0.00048147019697353244,0.001994400518015027,0.004166864324361086,0.0005676982691511512,-0.001208414905704558,-0.00014718555030412972,0.00010184146231040359,0.001586918835528195,0.001840495504438877,0.00032828518305905163,-0.003197016194462776,-0.004460461437702179,-0.0044242688454687595,0.004871036391705275,-0.00382572365924716,0.002650750568136573,0.0007620616815984249,-0.0025626274291425943,-0.00046471739187836647,0.0033967129420489073,0.0016174186021089554,0.0021558862645179033,0.002285019028931856,-0.0016065179370343685,0.00037896118010394275,0.004504724405705929,0.005145474337041378,-0.0025465558283030987,-0.004848199430853128,0.0005120888818055391,-0.001743427012115717,0.003457752987742424,-0.0011685867793858051,0.0006989588146097958,-0.0008768598199822009,0.001076946035027504,-0.005383610259741545,0.0009865305619314313,0.00021713902242481709,0.0003794650547206402,-0.0018157963640987873,-7.358868606388569e-05,0.0002581671578809619,-0.004170073661953211,-0.0008477530209347606,0.0048940349370241165,0.0007474328158423305,-0.0002068269532173872,-0.00020778924226760864,-0.0012233189772814512,-0.003920756746083498,1.8711434677243233e-06,0.0014422301901504397,0.004956889897584915,0.0010827165096998215,0.00034664804115891457,-0.0017627921188250184,0.0024843639694154263,0.002200802555307746,0.0019014573190361261,-0.002011429751291871,0.0028966653626412153,-0.0012015964603051543,0.0036352979950606823,-0.0020674390252679586,-0.0027769997250288725,0.0012735666241496801,0.0037768129259347916,-0.0067981332540512085,-0.004079967271536589,-0.0010868653189390898
促销,0.0020726718939840794,-0.005543970502912998,-0.003908681683242321,-0.0022895867004990578,-0.00168118835426867,0.00028940202901139855,0.0019404900958761573,1.2969831004738808e-06,-1.2893746315967292e-05,0.006399950943887234,0.005142517853528261,0.0022460774052888155,0.002194502856582403,-0.0006851500365883112,-0.002063391264528036,-0.0035137871745973825,-0.0022058580070734024,-0.0031507122330367565,-0.0008690479444339871,0.00025528750848025084,-0.0015669106505811214,0.0018456220859661698,-0.00042914433288387954,-0.0037719313986599445,-0.0019656093791127205,0.0053679184056818485,-0.001310640829615295,-0.0010459870100021362,0.0007980648661032319,-0.001166458590887487,-0.0027494218666106462,0.0019690345507115126,-0.0007674099178984761,0.0023025707341730595,-0.0017285265494138002,-0.0025977101176977158,0.0005359961651265621,0.005108817480504513,0.0010395707795396447,0.0033521028235554695,-0.002327208872884512,-0.001980373403057456,-0.004083613399416208,0.003886626334860921,-0.002710913307964802,0.002169369487091899,-0.0016156077617779374,0.0012639607302844524,-0.003120127134025097,-0.002343890257179737,0.0024098108988255262,-0.0005495678051374853,-0.004597189836204052,-0.004400092177093029,0.001972917700186372,-0.003145001595839858,-0.003194075310602784,0.0026369132101535797,0.0018304171971976757,0.006651704199612141,0.0029545228462666273,-0.006317960098385811,-0.0011439204681664705,0.005053094122558832,-0.0020199078135192394,-0.0001723901368677616,0.000558958388864994,0.0012672970769926906,-0.003257547505199909,-0.0006915511330589652,0.004878481850028038,-0.006582099944353104,0.0013255919329822063,0.003397209569811821,0.0032244278118014336,-0.002245871117338538,0.0013694367371499538,-0.002973501803353429,0.0008269298123195767,-0.0014965510927140713,0.0003842618316411972,-0.0038863616064190865,0.004219354595988989,0.0012491382658481598,0.001747263129800558,-0.004680462647229433,0.0037437297869473696,0.0014671634417027235,-0.0007369716186076403,-0.0013689242769032717,-0.002817190485075116,0.0021145441569387913,-0.0015418239636346698,-0.003453531302511692,-0.001150432275608182,0.0005630499217659235,0.005170010030269623,-0.00116618606261909,0.0021072495728731155,-0.001043630763888359
出色,-0.002576899016276002,-0.0022662924602627754,7.122545503079891e-05,0.0027807315345853567,0.0006846899632364511,-0.0015449532074853778,0.004536842927336693,-0.00047497241757810116,-0.0053690699860453606,-0.0018693460151553154,-0.0035681785084307194,0.002369961468502879,0.001788450637832284,-0.000695273105520755,-0.0027450374327600002,0.0008012533653527498,0.002697898540645838,5.169142968952656e-05,-0.0008812629384920001,6.150128319859505e-05,-0.004319553729146719,0.0026828134432435036,0.0015391719061881304,0.00019405860803090036,-0.004784014541655779,0.0008204487385228276,0.0009660302894189954,0.001812000758945942,-0.0033531642984598875,0.0004973869072273374,0.0033534541726112366,-0.0036873125936836004,0.0012198510812595487,-0.000904313987120986,-0.0025952188298106194,-0.0009301089448854327,0.0006992099806666374,0.0018904964672401547,0.0007683528237976134,0.0007731360383331776,-0.0029216138646006584,0.0037425041664391756,0.0048635294660925865,-0.0003437558771111071,-0.004776022396981716,0.0008931962074711919,0.002705922583118081,0.00369150098413229,0.00456604640930891,-0.001081972848623991,0.0012511597014963627,0.001915728789754212,0.0006299910601228476,0.002494474407285452,-0.0013272784417495131,0.00010576588101685047,0.0014695009449496865,0.00015093921683728695,-0.00010278609988745302,0.0019011276308447123,0.0005452604964375496,0.0010849934769794345,-0.0019647921435534954,-0.00311629893258214,-0.0008598670247010887,0.0012977470178157091,0.003285164013504982,-0.003984474111348391,0.001217016950249672,0.003980178385972977,-0.003896432463079691,-0.005854789167642593,-0.0009385328739881516,-0.0018798691453412175,0.0023898736108094454,0.004570952150970697,0.002792511833831668,0.0018300889059901237,-0.002061491599306464,-0.0042053572833538055,0.0007905191741883755,0.0032497935462743044,-0.0012820936972275376,-0.0029773269779980183,-0.0009288012515753508,-0.005957424640655518,-0.0006669365684501827,0.0032508610747754574,0.0007542466628365219,0.0014730188995599747,-0.002824928378686309,0.00020322599448263645,0.002828835044056177,2.278579631820321e-05,-0.0008414756157435477,-0.004675479605793953,0.0005438763182610273,-0.002448543906211853,-0.001828017528168857,0.0033444480504840612
上帝,-0.00802102591842413,-0.00028348492924124,0.002243220806121826,0.006075301673263311,-0.001608538907021284,-0.005635465495288372,-0.0040666693821549416,0.004736374132335186,-0.00027331244200468063,-0.0033049772027879953,-0.005738493986427784,-0.011497093364596367,-0.0035419294144958258,0.0003699507797136903,-0.00381613802164793,-0.008878190070390701,-0.003992042969912291,0.0016459447797387838,0.0021019072737544775,-0.007573835086077452,0.0004608500748872757,-0.0037676638457924128,-0.0025677515659481287,-0.0022254963405430317,0.0003017591079697013,0.0015608443645760417,0.0028738167602568865,-0.0062208017334342,-0.0011944876750931144,0.006581669673323631,0.004123486578464508,-0.0026627650950104,0.0001884610392153263,-0.00023844768293201923,-0.004820371512323618,0.002031339332461357,-0.0019352588569745421,-0.00514295045286417,-0.00782022625207901,-0.004055148921906948,0.004205179400742054,-0.005998650565743446,-0.009128388948738575,-0.0016073628794401884,-0.002233636798337102,0.0028863106854259968,-0.003876009024679661,-0.0017959701362997293,-0.003718217369168997,0.0017147734761238098,0.0028154710307717323,-0.003318922594189644,0.002392464317381382,0.002324850996956229,0.00120070471893996,-0.004518246743828058,0.0028464088682085276,-0.0005995238316245377,-0.0014888631412759423,0.007654181681573391,-0.00197734497487545,-0.0007774431724101305,-0.004504464566707611,-0.0016651274636387825,0.0016176553908735514,-0.0014987204922363162,0.00046676647616550326,-0.0047395420260727406,-0.0017275589052587748,0.006241127382963896,-0.0034431428648531437,0.003592724446207285,0.004284185357391834,-0.007150326389819384,0.0064005241729319096,0.003580979537218809,0.0006813108921051025,-0.004309439100325108,-0.0038782309275120497,0.0016207245644181967,0.001599554205313325,-0.0014051912585273385,-0.0004177694790996611,0.002798800589516759,-0.004704621620476246,-0.00489032594487071,0.0013371161185204983,0.0015375514049082994,0.0016275212401524186,0.0022491617128252983,0.002252948936074972,-8.800758223515004e-05,0.002418873365968466,-0.0010354167316108942,0.003783253952860832,-0.0006332012126222253,0.0014372272416949272,-0.006426979787647724,-0.0023092273622751236,0.0035835453309118748
欺骗,0.0011744246585294604,-0.001540830242447555,0.0011308728717267513,-0.001278552575968206,0.001648001023568213,0.00033719255588948727,-0.0006790829356759787,0.005446842405945063,-0.004102918319404125,-0.00187068828381598,-0.0003657536581158638,0.0005127746844664216,0.002228022553026676,-0.0042477939277887344,0.0030939222779124975,-0.002325536450371146,-0.0008836855413392186,0.003363613970577717,-0.0017300413455814123,0.0052928198128938675,0.0004085235996171832,-0.0035734199918806553,-0.002303612418472767,0.002684300299733877,-0.0016658840468153358,-0.0008482986595481634,-0.0018829682376235723,0.002273744437843561,-0.0009474618127569556,-0.0017416097689419985,0.0012540118768811226,0.0038625779561698437,0.0009253084426745772,0.0011989919003099203,3.637738700490445e-06,0.0007426469819620252,-0.0037845654878765345,-0.005239058751612902,-0.0037524208892136812,-0.005755792371928692,-0.0006257966160774231,-0.003610557410866022,0.002404159167781472,-0.002020015846937895,-0.002090014284476638,-0.006606189534068108,-0.003465198213234544,0.0013803537003695965,-0.006144178099930286,0.0059892721474170685,0.0003966114018112421,0.001386188669130206,0.0025214815977960825,-0.0011160598369315267,-0.0044759586453437805,0.004361878149211407,0.0016017801826819777,-0.00015916326083242893,-0.0019252157071605325,-7.90830235928297e-05,0.0017942962003871799,0.0018888898193836212,-0.000490322127006948,0.0008074670913629234,0.004963587038218975,-0.0045953188091516495,-0.003817947581410408,0.0018795522628352046,0.00016407330986112356,-0.004777825437486172,-0.0002391637535765767,-0.0038004813250154257,-0.001075869076885283,0.0015213318401947618,-0.004170908126980066,0.002422524616122246,-0.001691141165792942,0.00035743729677051306,-0.0031583064701408148,0.0016857872251421213,0.0057332077994942665,-0.0009628043044358492,-0.0007246002787724137,0.0005838533397763968,-0.000946651678532362,0.0003588175750337541,-0.0033094582613557577,-0.002478053094819188,-0.0012522832257673144,0.006568795070052147,0.00013911823043599725,-0.0030712028965353966,-0.0032774459104985,0.003310860600322485,0.0028251642361283302,0.0014567954931408167,0.00010710139758884907,-0.0027827606536448,-0.0013325285399332643,-0.00031066464725881815
翻新,0.0012648656265810132,-0.0009443338494747877,0.002894989214837551,0.002672347007319331,0.002387150889262557,-0.003856186755001545,-0.0016915174201130867,-0.004902529995888472,-0.0008439717348664999,-0.0019936144817620516,-0.005497622769325972,0.005139772314578295,-0.003617844544351101,0.0018923513125628233,-0.005164884962141514,-0.0018950500525534153,0.0003249828005209565,0.005834465380758047,-0.0039575486443936825,-0.0010958750499412417,-0.001491509610787034,-0.0038236621767282486,0.0030322098173201084,-0.0022693295031785965,0.004375708755105734,-0.001364140654914081,-0.0052335262298583984,-0.0005418770597316325,0.002449978142976761,-0.002029373776167631,-0.0020145198795944452,-0.0021807211451232433,-0.0006725399289280176,0.0015959369484335184,-0.0022082084324210882,-0.00025905983056873083,0.0008223582990467548,0.0008646529167890549,0.0007299843127839267,0.001478786813095212,-0.004795539192855358,0.002944293199107051,0.0001747780479490757,0.0012695190962404013,-0.001091725891456008,-0.0033432268537580967,0.0015723874093964696,0.0005743139190599322,0.006570604629814625,0.0015132593689486384,-0.0007544950349256396,0.004252040758728981,-0.002337703015655279,-9.455275721848011e-05,0.00012958317529410124,0.0006628398550674319,-0.0018939899746328592,-0.001316572306677699,-0.0046037668362259865,-0.0007253885269165039,-0.003257016185671091,0.0006764899007976055,0.00010582595132291317,0.0035037538036704063,0.0046586403623223305,-0.0031272312626242638,-0.006075831595808268,-0.003828569781035185,-0.0003635822795331478,-0.001579179777763784,0.002731048036366701,-0.0016839958261698484,0.004390231333673,0.0031142020598053932,0.0025100833736360073,0.0014665736816823483,-0.0013272594660520554,0.0037385383620858192,-0.00142300920560956,-0.0012393489014357328,0.0046845367178320885,0.003099266439676285,-0.0018416863167658448,0.0021359603852033615,0.004631485790014267,-0.0006957616424188018,-0.000660128309391439,0.0036025613080710173,0.001987109426409006,0.0007221102714538574,-0.003043459728360176,0.0008956613019108772,-0.00017921044491231441,-0.002677603391930461,-0.006075635086745024,0.000944591942243278,0.0018082121387124062,-0.0037805940955877304,-0.001565178157761693,-0.00532167125493288
接受,-0.00033525482285767794,-0.0033963664900511503,0.0004457423056010157,0.00039622222539037466,-0.001012453343719244,-0.0003534983843564987,0.0025484461802989244,-0.0018569543026387691,0.0029893796890974045,-0.0019372499082237482,-0.003450495656579733,0.0019116445910185575,-0.00294488319195807,-0.006110756658017635,0.004045817069709301,0.0036181118339300156,0.0048124659806489944,0.003247225424274802,-0.0043202899396419525,-0.0021925182081758976,-0.0028620390221476555,-0.006449954118579626,0.0031226868741214275,0.0027173198759555817,0.0009946702048182487,0.007130514830350876,0.0006254696054384112,-0.00010391778778284788,-0.001396653358824551,-0.0012796593364328146,0.004267795477062464,-0.0012761821271851659,0.0015565865905955434,-0.0029641715809702873,-0.0002595747646410018,0.002244997536763549,0.0012542089680209756,0.0032670143991708755,-0.0028320904821157455,-0.0028507469687610865,-0.0011694004060700536,0.0005392233142629266,-0.0014367394614964724,-0.002825771924108267,0.005212161689996719,0.0004045938258059323,0.00013471441343426704,0.0034122648648917675,0.0005418411456048489,0.0013455954613164067,-0.00263092084787786,0.001111143734306097,0.0065646483562886715,-0.0019336382392793894,0.0038877015467733145,-6.640446372330189e-05,-0.0010994442272931337,0.001043772790580988,-0.004203011281788349,0.001890546060167253,0.00021552341058850288,0.0018945210613310337,0.002504923613741994,-0.0044509246945381165,-0.0012529974337667227,-0.0045563047751784325,0.0028148575220257044,-0.002827681601047516,0.002735246904194355,0.007432612590491772,0.0002822090173140168,0.0020186579786241055,-0.00033166102366521955,0.002180673647671938,0.003908950835466385,0.005202082917094231,-0.0008639887091703713,-0.0010673144133761525,-0.0008633779361844063,0.0007879853947088122,0.002250689547508955,-0.0011534634977579117,-0.0025552939623594284,0.0008425461128354073,-0.0037881964817643166,-0.003127885051071644,-0.002753310138359666,-0.0021818666718900204,-0.0006601326167583466,-0.0024954057298600674,0.0027320783119648695,-0.0005281596095301211,0.004514559172093868,0.001741474261507392,0.0044852434657514095,0.002180692972615361,0.001272476394660771,-0.0009210054413415492,-0.00358420517295599,0.006674199365079403
好处,-8.563674055039883e-05,0.004301745910197496,0.0008300394401885569,0.0010243692668154836,0.002886930713430047,-0.0008636284619569778,0.003720430191606283,-0.002924895379692316,-0.00366087444126606,-0.0010213288478553295,-0.00418369984254241,-0.007430244702845812,-0.0031519397161900997,0.001081999158486724,-0.001307062804698944,-0.0002046391600742936,0.004168916027992964,0.0006614795420318842,-0.0018808487802743912,-0.0023684860207140446,0.0010007659438997507,0.0017600810388103127,-0.0035060206428170204,0.004276120103895664,0.00040347594767808914,-0.0032471404410898685,0.0025120344944298267,-0.0012749372981488705,0.0005437745130620897,0.0014921188121661544,0.002564897295087576,4.156597424298525e-05,-0.0017642895691096783,0.0008798844646662474,-0.003898133523762226,0.0020139438565820456,0.004001038148999214,0.0006269622826948762,0.00434845918789506,-0.0012094732373952866,0.0009596762247383595,-0.004295061342418194,-0.0013084658421576023,-0.004899467341601849,0.00010767695493996143,-0.00277336104772985,0.0037158417981117964,-0.00121939682867378,-0.0008148872293531895,-0.005012219771742821,0.002478472888469696,-0.0005254987627267838,-0.004521636292338371,0.0018245321698486805,0.0018860847922042012,1.0773306712508202e-05,-0.003782742889598012,0.00026199501007795334,0.0005760220228694379,-0.003375707659870386,-0.003909262828528881,-0.0006534041021950543,0.002328132279217243,4.820758476853371e-06,-0.0023901662789285183,0.002183483447879553,0.0009495343547314405,-0.003021062584593892,0.004891308024525642,-0.005816786549985409,0.0008448574226349592,-0.004379250109195709,0.00219758041203022,0.0036888744216412306,0.0018621607450768352,0.0014044027775526047,-0.002654376905411482,0.0003802573774009943,-0.005484215449541807,-0.0025626500137150288,-0.0018377724336460233,-0.004005261231213808,0.0001640885602682829,0.005806249566376209,-0.002734332112595439,-0.004560621455311775,0.005054602865129709,-0.0022501861676573753,-0.0027079908177256584,-0.0019258505199104548,0.0004609375027939677,0.001114559592679143,0.00024361044052056968,0.0019961975049227476,0.002354768570512533,-0.00015577091835439205,0.004441055469214916,-0.001749955932609737,-0.006770365871489048,-0.0012848019832745194
电子邮件,-0.00033074739621952176,0.0015088517684489489,-0.0015934295952320099,0.0018035880057141185,-0.0013158621732145548,-0.0008114915108308196,-0.0021419264376163483,0.00013698983821086586,-0.001714589074254036,0.00030823840643279254,-0.0016090776771306992,-0.0014266478829085827,0.00010889197437791154,-0.0025712198112159967,-0.0015207409160211682,-0.0006720604142174125,0.0005867925356142223,0.001408176845870912,0.00025009040837176144,-6.719915836583823e-05,0.0015832037897780538,-0.0010263447184115648,0.0006563192582689226,0.0009260758524760604,-0.0015010555507615209,0.0005589419160969555,0.0012491027591750026,-0.003043697215616703,-0.00039872416527941823,8.531126513844356e-05,0.00010052553989225999,-0.0025302236899733543,-0.0010478030890226364,0.003435047809034586,-0.0014773710863664746,0.002499812049791217,-0.0016114349709823728,0.003331413259729743,-0.0010520226787775755,0.0006261852104216814,-0.0019348078640177846,0.0016494691371917725,-0.0005918787210248411,-0.002550531178712845,0.0016954505117610097,-0.0016733353259041905,-0.0027479378040879965,0.0016114405589178205,0.00023145126760937274,-0.001060364069417119,-0.0041175726801157,-0.00017554567602928728,0.0024641917552798986,-0.0005109672201797366,0.0035676665138453245,0.00014256304712034762,0.0005458749947138131,-0.002089902525767684,0.0018519366858527064,-0.001789902918972075,-0.0018143978668376803,-0.0009327966254204512,-0.0018601319752633572,0.0009167982498183846,-0.004564837086945772,-0.0030405453871935606,0.002053670585155487,-0.0012281149392947555,9.361605771118775e-05,0.003598898882046342,0.0010900917695835233,0.0024254536256194115,0.00012438070552889258,-0.0022811226081103086,-0.0001796340075088665,-0.0012012276565656066,-0.000428773375460878,0.0005647080251947045,0.0007150350720621645,-0.0014364580856636167,0.0021153041161596775,-0.00021256877516862005,0.00012183532089693472,0.0032125255092978477,-0.0016331820515915751,0.0025037333834916353,0.0016495789168402553,-0.0019221901893615723,0.00217308197170496,-0.00031555091845802963,0.0023842640221118927,-0.0010461319470778108,0.0011386263649910688,-0.0026795275043696165,0.001409929827786982,-0.003423450281843543,0.001275507383979857,-0.0027244759257882833,0.0006729254964739084,0.0010688165202736855
好消息,-0.0029405164532363415,0.0014260379830375314,-0.0006504912744276226,0.0017203425522893667,0.0012448111083358526,-0.0022879864554852247,-0.0019889117684215307,0.003167350310832262,0.003928556572645903,-0.0015449983766302466,-0.0017170237842947245,-0.0023997793905436993,0.0020039991941303015,-0.00245496048592031,0.00015070858353283256,0.0020355829037725925,0.0007886661333031952,0.002893447410315275,0.004625364672392607,-0.006034054793417454,-0.0024932273663580418,0.003929282072931528,0.0035607065074145794,-0.0005850512534379959,0.0012568107340484858,0.001231502857990563,0.001242403988726437,0.0022387392818927765,-0.0011270608520135283,0.0013243332505226135,-0.00252804858610034,-0.0007072454318404198,0.0026893503963947296,0.0004081731603946537,-0.0020307782106101513,-0.0016684031579643488,0.0013104297686368227,0.0017386262770742178,-0.003507558722048998,-0.002669254317879677,0.0028200014494359493,-0.0021908229682594538,0.0001492814189987257,-0.00023466534912586212,-0.0033834490459412336,-0.0019339846912771463,0.00202481378801167,0.002292959252372384,0.000923250918276608,0.0012130570830777287,0.0033068431075662374,0.0033489970955997705,-0.0030786783900111914,0.004135538823902607,0.003310942789539695,-0.0002024156419793144,0.0009043101454153657,0.004353712312877178,-0.0021070949733257294,-0.0015220431378111243,0.0005399006768129766,-0.0007120439549908042,-0.0009657378541305661,-0.0033097637351602316,0.0014345141826197505,0.0038005877286195755,-0.0004725722537841648,-0.004030178301036358,0.0006507000070996583,0.002025835681706667,0.0011304967338219285,0.0019087333930656314,0.0009080914896912873,0.00026013582828454673,-0.0008994536474347115,0.001550233573652804,-0.0012075981358066201,0.0013807684881612659,0.004498093388974667,0.002301528351381421,0.0009056883282028139,-0.004654408432543278,0.0005204966873861849,-0.0022259990219026804,0.0007795413257554173,0.0005825260886922479,0.0010648696916177869,-0.00036243494832888246,-0.003193915355950594,0.004022893030196428,0.0007560121593996882,0.0014991838252171874,-0.0008102777064777911,-0.0012747759465128183,-0.0009407689212821424,-0.0017586039612069726,0.0024602634366601706,-0.000592486176174134,-0.001963261282071471,-0.0011854979675263166
处理,-0.0042276992462575436,0.006137244403362274,0.00032030639704316854,-0.0008050778415054083,0.0017814496532082558,-0.0013288555201143026,-0.0016445028595626354,-0.00031246780417859554,-0.0015322534600272775,-0.002017185091972351,-0.00779915414750576,0.0016287253238260746,0.0021465783938765526,-0.003939383197575808,-0.0026085900608450174,-0.002174265682697296,-0.005162777844816446,0.004494900815188885,0.00045388517901301384,0.0013609034940600395,-0.0007224890869110823,0.0028912327252328396,-0.0010312872473150492,0.004211669322103262,0.002556002466008067,0.0016361369052901864,0.001997388433665037,0.0020413503516465425,-0.0010213014902547002,0.0008142531150951982,-5.4106436436995864e-05,0.005667305085808039,0.0015868220943957567,-0.0011369828134775162,0.0033202888444066048,0.004298318177461624,0.0008224286139011383,0.006896285805851221,-0.0033942211885005236,-0.0001229256158694625,0.007869882509112358,0.00044679571874439716,-0.000510144280269742,0.003158413805067539,-0.0009457643609493971,0.0021988325752317905,0.00029175373492762446,-0.002564354334026575,-0.0027943721506744623,-0.0013868719106540084,0.00046147964894771576,0.002518661320209503,-0.004815141670405865,0.0014348897384479642,-0.00011351075954735279,0.0004413425922393799,0.001095806946977973,-0.007003085222095251,-0.002681414596736431,0.0018608458340168,-0.005093908868730068,0.0021267891861498356,-0.00286717526614666,0.00692463293671608,0.002315858379006386,-0.0024538268335163593,8.895789505913854e-05,-0.001472744275815785,-0.00573410140350461,0.004265518393367529,-0.000990131520666182,-0.004695701878517866,0.001889046048745513,-0.001935140579007566,0.00322292884811759,-0.0011386731639504433,-0.00036286842077970505,0.0008642820175737143,-0.0026646340265870094,-0.0030798877123743296,0.0015557222068309784,-0.0004446564707905054,0.0022600109223276377,-0.003254750743508339,-0.0038603106513619423,-0.0005583459278568625,-0.0030362866818904877,-0.00030052661895751953,-0.002449735999107361,0.0008199716103263199,0.0017575363162904978,0.0016680891858413815,0.002014698926359415,-0.0014030408347025514,0.0004765258636325598,0.00310274725779891,0.002559213899075985,0.002979199169203639,-0.0020362043287605047,-0.003128503914922476
更新,-0.008742374368011951,0.007068024016916752,0.0022554786410182714,0.0067973691038787365,-0.005337269511073828,-0.0007399556925520301,-0.003186261747032404,0.005015319213271141,-0.0020410330034792423,-0.0032214191742241383,-0.004540351685136557,0.00322441547177732,0.005352818872779608,-0.002876523183658719,0.00041653402149677277,-0.004950582515448332,-0.0005085236625745893,-0.006309501361101866,0.005505680106580257,-0.006251867860555649,-0.0037966063246130943,-0.003939662594348192,-0.0015892592491582036,-0.0005457780207507312,-0.00010349901276640594,0.0018204657826572657,-0.0014697671867907047,-0.0015011319192126393,-0.00029013492166996,0.00177989702206105,-0.007188345305621624,-0.004962843377143145,0.0016328028868883848,-0.005355539731681347,0.0015838627004995942,0.00044381857151165605,-0.0011184129398316145,-0.001973615027964115,-0.001925182994455099,-0.00285572768189013,0.002963306615129113,-0.007781637832522392,-0.001335775712504983,-0.007393375504761934,0.002070252550765872,0.0013707836624234915,-0.004260630812495947,0.0004798324953299016,-0.0007340093143284321,0.0010752198286354542,0.0015727243153378367,0.00113770947791636,-0.0010568622965365648,0.005505476612597704,-0.000528385047800839,-0.004217411391437054,-0.0010344232432544231,-0.0007631535409018397,-0.005198514088988304,0.0005479115643538535,-0.0005468414165079594,-0.0017635857220739126,-0.0005205045454204082,-0.001260743010789156,-0.001738058403134346,-0.0065939356572926044,0.0017352504655718803,-0.003628414124250412,-0.0028117825277149677,0.0035283053293824196,-0.0008974089287221432,0.0009527843212708831,0.00026059639640152454,0.00047519360668957233,0.004040432162582874,-0.001280378783121705,0.0016789957880973816,0.00038630806375294924,-0.0005226919893175364,0.0008747216779738665,-0.004368793684989214,-0.0019517146283760667,-0.004876153543591499,-0.003563384059816599,-0.0036058637779206038,-0.002840361325070262,0.0004360632156021893,-0.001635184045881033,0.004177228081971407,0.002929847687482834,0.0061911470256745815,0.0006382018327713013,0.0021218282636255026,0.0014728270471096039,-0.00010954096796922386,0.00030946533661335707,-0.0010124380933120847,0.0027750860899686813,0.00214610667899251,0.002163579920306802
奖励,-0.0023646894842386246,-0.0023115607909858227,-0.0017943200655281544,0.0027276091277599335,-0.0063181109726428986,0.0020635859109461308,-0.0031591816805303097,0.001490377471782267,0.00036290381103754044,0.004010195843875408,0.0019902773201465607,0.0037898693699389696,0.002065373584628105,-0.004450676031410694,-0.0013097092742100358,0.0035596101079136133,-0.00237316288985312,0.004641697742044926,0.001322493888437748,0.0019350795773789287,0.0018617924069985747,-0.0038162339478731155,0.0015737443463876843,-0.006256154738366604,-0.004929231945425272,0.004230221267789602,-0.0023104744032025337,0.005016631446778774,-0.0034560360945761204,0.0044247801415622234,-0.0018673038575798273,0.0035610725171864033,0.0003141447086818516,0.0013301621656864882,0.002623768988996744,-4.4779153540730476e-05,0.0007252554059959948,0.00016453023999929428,-0.0004083852400071919,-0.004139740951359272,-0.0012450411450117826,-0.002281698165461421,0.0030212262645363808,-0.0015972570981830359,0.0008979464182630181,-0.000526248593814671,-0.0019808108918368816,-0.002406694460660219,0.006468663923442364,0.002089911140501499,-0.002788179786875844,0.0034102564677596092,0.00476105185225606,0.0003473127435427159,-0.0014085120055824518,-0.0006181639619171619,0.002391207730397582,0.0038082655519247055,-0.0016299564158543944,-0.002936212345957756,-0.0002653293777257204,-0.002557288622483611,0.0023727421648800373,-0.004768265411257744,0.0014428375288844109,-4.163768608123064e-05,-2.3645581677556038e-05,0.0007719255518168211,0.003202009480446577,-0.00022003304911777377,0.0021784708369523287,0.0009676802437752485,-0.0007817552541382611,-0.0033680908381938934,0.00147529027890414,0.0007184846326708794,-0.0005279898177832365,0.002812396502122283,0.004292180761694908,-0.0011614522663876414,0.006617357023060322,-0.0040212650783360004,0.0010115368058905005,-0.004213755484670401,0.0038345158100128174,-0.0003772324416786432,-0.0003985026269219816,0.0011071504559367895,0.00010004173964262009,0.004831825383007526,0.0020521660335361958,0.0038233718369156122,-0.0015999528113752604,-7.795915007591248e-05,0.0006286116549745202,0.0027109484653919935,0.0030429339967668056,0.0018206394743174314,-0.00015548017108812928,-0.0017018542857840657
