word,0,1,2,3,4,5,6,7,8,9,10,11,12,13,14,15,16,17,18,19,20,21,22,23,24,25,26,27,28,29,30,31,32,33,34,35,36,37,38,39,40,41,42,43,44,45,46,47,48,49,50,51,52,53,54,55,56,57,58,59,60,61,62,63,64,65,66,67,68,69,70,71,72,73,74,75,76,77,78,79,80,81,82,83,84,85,86,87,88,89,90,91,92,93,94,95,96,97,98,99
儿子,-0.0013113179011270404,-0.00024474915699101985,0.002546609379351139,0.0037014286499470472,0.0010852294508367777,-0.0022904309444129467,-0.0019270222401246428,0.0029909005388617516,0.0020809355191886425,-0.005644446238875389,-0.001027198857627809,-0.0012984040658921003,-0.007210414856672287,-0.003527894848957658,-0.00036553258541971445,-0.0072096046060323715,0.001237649703398347,0.0049666413106024265,0.001284331432543695,-0.0026206052862107754,-0.00019801966845989227,-0.0029154629446566105,-0.0020646711345762014,0.0014160822611302137,0.001779286889359355,-0.0038187848404049873,6.979971658438444e-05,-0.0012785138096660376,-0.003732789773494005,-0.000505938776768744,-0.00044271722435951233,-0.005603502504527569,-0.0013639726676046848,0.0014935529325157404,-0.0005375788896344602,0.0011028401786461473,-0.00357495853677392,-0.003070819890126586,-0.0052833566442132,-0.00635096151381731,0.0004364941269159317,0.00038738339208066463,-0.009117688052356243,-0.004655914381146431,-0.0004113934701308608,-0.002760625444352627,-0.0006387652829289436,0.005518765654414892,0.0004503572126850486,-0.0003550902474671602,-0.0031195904593914747,0.0019102049991488457,-0.0012015332467854023,-0.0017511043697595596,0.0008022676920518279,-0.0007604827405884862,0.0067696706391870975,-0.001727547263726592,0.0033607538789510727,-2.6402994990348816e-07,-0.0019247852033004165,-0.0002475200453773141,-0.004569836426526308,0.0014303972711786628,0.005690986290574074,-0.004335744306445122,-0.002185217570513487,-0.0011550961062312126,-0.001712239347398281,0.004894985351711512,-0.002993679139763117,0.0009622329380363226,-0.0006850037025287747,-0.001401482499204576,0.0003254010225646198,0.0015796798979863524,-0.002234071958810091,0.00018685730174183846,0.002613754477351904,0.0004071530420333147,-0.0009182840003632009,0.002666968386620283,-0.0030629171524196863,0.0011086963349953294,0.0007441048510372639,0.0006257080822251737,0.0052198246121406555,-0.003426430281251669,0.007666745223104954,-0.002384064719080925,-0.0022170960437506437,-0.0015543666668236256,-0.0010990833397954702,0.0036999299190938473,0.0014517257222905755,0.00017546559683978558,0.0010298952693119645,-0.006052891258150339,-0.0046717026270926,0.004531145095825195
去,-0.014389068819582462,0.014291249215602875,0.009243832901120186,0.02602827362716198,-0.008435309864580631,-0.00999520905315876,0.000503084622323513,0.005595900118350983,0.0042101130820810795,-0.005346490535885096,-0.0008442114922218025,-0.02343013696372509,-0.00789885874837637,0.004896482918411493,0.0006186749669723213,-0.02619270794093609,-0.006190715357661247,0.0016257099341601133,-0.0005063055432401597,-0.028282947838306427,0.005039528477936983,0.001429705647751689,-0.0058629862032830715,0.003769855247810483,0.0033270998392254114,-0.003195519093424082,-0.009227782487869263,-0.013270312920212746,-0.004173693247139454,-0.0013626266736537218,0.007686195429414511,-0.017707761377096176,-4.344643093645573e-05,0.004427457228302956,-0.010163387283682823,0.010594633407890797,0.008061601780354977,-0.006187882274389267,-0.010821457952260971,-0.01887289434671402,0.006788461934775114,-0.010459037497639656,-0.017197631299495697,-0.009414128959178925,-0.0056489924900233746,-0.005377346649765968,-0.011448023840785027,0.014587917365133762,0.01028510183095932,0.01656998135149479,-0.005811172537505627,-0.001854772213846445,0.00015410235209856182,0.0033046440221369267,0.003762825159355998,0.0077813854441046715,0.008225317113101482,-0.0024728961288928986,-0.014330420643091202,-0.0008960423874668777,0.0021918718703091145,0.009985305368900299,0.0058043417520821095,-0.010003315284848213,-0.01022536214441061,-0.004592637065798044,0.004909483715891838,-0.010660395957529545,-0.00833126064389944,0.01686958409845829,-0.001156920799985528,-0.0032261500600725412,-0.004828594159334898,-0.008708741515874863,0.013638518750667572,0.005214213393628597,0.01071515865623951,0.006493765860795975,-0.013048851862549782,0.0010759461438283324,0.0030643863137811422,-0.0004966511623933911,-0.005695642903447151,0.0065070390701293945,-0.007122286595404148,0.00384834804572165,0.006175657268613577,0.006982964929193258,0.014287696219980717,0.009828334674239159,-0.010703574866056442,-0.00014937343075871468,0.0033180774189531803,0.018768930807709694,0.01287771575152874,0.0008406479028053582,0.0006205141544342041,-0.012242583557963371,-0.006288785953074694,-0.0019331707153469324
开始,-0.014118766412138939,0.008186498656868935,0.013335571624338627,0.013970177620649338,-0.010218600742518902,-0.014737674035131931,0.0052464911714196205,0.010885749012231827,-0.002473138039931655,-0.007857946678996086,-0.003287359606474638,-0.01376035250723362,-0.007173026911914349,0.0049499929882586,-0.0033729528076946735,-0.023171961307525635,-0.00457556638866663,-0.003175268182530999,0.005029274150729179,-0.03214145079255104,0.01463042851537466,-0.003855985589325428,-0.007940322160720825,-0.0037687888834625483,8.728334796614945e-05,0.005184580106288195,-0.015191636048257351,-0.0038405503146350384,-0.004486300982534885,0.00214117718860507,0.0050737918354570866,-0.008781343698501587,-0.00571815250441432,-0.003633467946201563,-0.005134937819093466,0.005816842429339886,0.011751670390367508,-0.0071053821593523026,-0.017885705456137657,-0.021379120647907257,0.0019298822153359652,-0.001296560512855649,-0.007669600658118725,-0.013760280795395374,-0.0040757800452411175,0.0017192866653203964,-0.01561425719410181,0.013121581636369228,0.006066526751965284,0.010065805166959763,-0.0059552183374762535,-0.001592471031472087,0.0013360892189666629,0.006082654464989901,0.0012546279467642307,0.005319281481206417,0.010841652750968933,0.0026819808408617973,-0.012041604146361351,0.005806902423501015,-0.0036313284654170275,0.0012727637076750398,0.003436831058934331,0.0029502692632377148,0.0038189557380974293,-0.00837722048163414,0.004683918319642544,-0.01157473772764206,-0.012382414191961288,0.02200792357325554,-0.0033748019486665726,-0.006772671826183796,0.0009360399562865496,-0.005545971915125847,0.01015686709433794,0.005942150019109249,0.006248063873499632,-4.486413672566414e-06,-0.009286356158554554,-0.005210957955569029,0.0035938371438533068,-0.003547234693542123,-0.0029425870161503553,0.008656853809952736,-0.0028599451761692762,-0.0044133421033620834,-0.000766684184782207,0.008343841880559921,0.012469027191400528,0.003477145917713642,-0.004431070759892464,-0.0009654008317738771,0.0008472881745547056,0.0064605362713336945,0.015608096495270729,0.0035359009634703398,0.004948179703205824,-0.005386590026319027,-0.00846688263118267,-0.0018302624812349677
我会,-0.016065377742052078,0.009390133433043957,0.010106511414051056,0.022084159776568413,-0.005924522876739502,-0.009456231258809566,-0.002563892398029566,0.012974229641258717,-0.0017795141320675611,-0.0051675476133823395,-0.0015324035193771124,-0.018656475469470024,-0.007396653760224581,0.008647022768855095,-0.0054626623168587685,-0.022974669933319092,0.0025681443512439728,0.003788056317716837,0.00023589050397276878,-0.029575195163488388,0.008980798535048962,-0.0021890534553676844,-0.008966224268078804,0.003493837546557188,0.0010179691016674042,-0.003358192276209593,-0.005305443424731493,-0.01151108555495739,-0.005088265053927898,0.00023133796639740467,-0.0012076656566932797,-0.011837687343358994,-0.0041650040075182915,-0.00527875917032361,-0.007789117284119129,0.011966720223426819,0.006749745458364487,-0.012460155412554741,-0.01199960708618164,-0.017816107720136642,0.005627440754324198,-0.009669918566942215,-0.006706068757921457,-0.011973376385867596,-0.003322055796161294,-0.0011410185834392905,-0.010563123039901257,0.014407234266400337,0.0066793011501431465,0.00883918721228838,-0.008036239072680473,-0.0004842577036470175,0.002616121433675289,0.006016391795128584,0.008445934392511845,-0.0018507777713239193,0.008971704170107841,-0.005802726373076439,-0.010303211398422718,0.00676912534981966,-0.004672995302826166,0.0053153932094573975,-0.0008157817646861076,-0.00042869511526077986,0.0016428700182586908,-0.003604377619922161,0.0028633596375584602,-0.006488515995442867,-0.014286549761891365,0.020562106743454933,0.0016003551427274942,-0.0006507001235149801,-0.0017987180035561323,-0.005093000829219818,0.00921628437936306,0.0040179770439863205,0.007312579080462456,0.002436203183606267,-0.014100356958806515,-0.003322482807561755,-0.002206874080002308,0.00288004451431334,-0.0049924892373383045,0.005353061016649008,-0.00138462136965245,-0.004149306565523148,0.0012543413322418928,0.003323853947222233,0.011690076440572739,0.0010139960795640945,-0.009108111262321472,0.0022075646556913853,-0.0008638370782136917,0.01168131735175848,0.011667391285300255,0.006661168299615383,-0.0016182743711397052,-0.011331037618219852,-0.00853380374610424,-0.0034473014529794455
学校,-0.0038436059840023518,0.006583636626601219,0.002870539901778102,0.0018534320406615734,-0.0073645408265292645,-0.006341076456010342,0.002304231747984886,-0.000653228722512722,0.0019310517236590385,-0.006276623345911503,-0.0015219654887914658,-0.0028149262070655823,0.0005993441445752978,-0.0025670258328318596,-0.005398545414209366,-0.00810365378856659,-0.005299640819430351,-0.0028491695411503315,0.0018121908651664853,-0.010093288496136665,0.0038434206508100033,-0.003563137259334326,0.0005265517393127084,0.0018111665267497301,0.004401013255119324,0.0004002657951787114,-0.0031477261800318956,-0.005922520067542791,-0.0024471806827932596,-0.001146711758337915,0.0014823650708422065,0.0002006493741646409,-0.003089331090450287,0.0032920939847826958,0.0019558891654014587,0.0043138787150382996,0.006309836637228727,-0.005953141488134861,-0.002072927774861455,-0.002242474351078272,0.005098072811961174,-0.006008586846292019,-0.0057440223172307014,-0.0024266126565635204,-0.0014091416960582137,0.0006173891015350819,-0.004868327174335718,0.0015486101619899273,0.0007053820881992579,0.004810512997210026,0.003229722147807479,0.002067791298031807,-0.00041760114254429936,0.00227591535076499,-0.007995983585715294,0.004040826577693224,0.0027959016151726246,-0.0027687400579452515,0.0022734729573130608,0.00424142275005579,0.004502495750784874,0.002357210498303175,0.000960682868026197,-0.002280245069414377,-0.004041920881718397,-0.004891977179795504,-0.0024358429946005344,-0.003354517510160804,-0.0034123328514397144,0.001429005991667509,-0.0030760574154555798,0.0019762814044952393,-0.001581775490194559,-0.0025794170796871185,0.0043858676217496395,0.006985760759562254,0.0002344741951674223,0.004801017232239246,-0.005747274961322546,0.0003842376172542572,-0.0033218408934772015,2.556084655225277e-05,-4.5625027269124985e-05,0.005938013084232807,-0.0005685286596417427,-0.008102412335574627,-0.0031868470832705498,0.00373718049377203,0.0018764653941616416,0.00520171457901597,0.002835547551512718,-0.00018816243391484022,-0.007717312313616276,-0.0033882998395711184,0.006330050993710756,0.002264157636091113,0.0024508696515113115,0.0015169513644650578,-0.004662905819714069,0.0004696566902566701
