word,0,1,2,3,4,5,6,7,8,9,10,11,12,13,14,15,16,17,18,19,20,21,22,23,24,25,26,27,28,29,30,31,32,33,34,35,36,37,38,39,40,41,42,43,44,45,46,47,48,49,50,51,52,53,54,55,56,57,58,59,60,61,62,63,64,65,66,67,68,69,70,71,72,73,74,75,76,77,78,79,80,81,82,83,84,85,86,87,88,89,90,91,92,93,94,95,96,97,98,99
太,-0.011671194806694984,0.004953320603817701,0.013529915362596512,0.006988640874624252,-0.009955491870641708,-0.008088123984634876,0.003505607135593891,0.007413777057081461,-0.00017418956849724054,-0.006315486039966345,-0.010044143535196781,-0.011447399854660034,-0.0018503343453630805,0.001542533515021205,-0.00458259042352438,-0.012120310217142105,-0.00391760328784585,0.004496399313211441,-0.003131538163870573,-0.015798138454556465,0.0067432415671646595,-0.0063765812665224075,1.0742805898189545e-05,0.0004228552570566535,-0.0011807202827185392,-0.00453539751470089,0.001485678250901401,-0.0059559280052781105,7.332209497690201e-05,0.00016154265904333442,-0.0038474109023809433,-0.00857030414044857,-0.0006040367297828197,0.0009383014403283596,-0.0018427649047225714,0.005628259386867285,-0.0016795685514807701,-0.009055206552147865,-0.0137814711779356,-0.010763087309896946,0.008250856772065163,-0.0026214923709630966,-0.010210305452346802,-0.013491861522197723,0.0043356651440262794,0.001827874919399619,-0.002729366533458233,0.014675041660666466,0.01237382460385561,0.0010099036153405905,0.00600985623896122,-0.007963031530380249,-0.0005595306865870953,0.013850169256329536,0.0011839838698506355,-0.00036266911774873734,0.003057657741010189,-0.00881054438650608,-0.0041931141167879105,0.003601173870265484,0.001964438706636429,0.005369284655898809,0.0008565736934542656,-0.0011015244526788592,0.006647907197475433,-0.004531770013272762,0.001741800457239151,0.00024442397989332676,-0.012244710698723793,0.01252371072769165,-0.0010874621802940965,-0.002995982998982072,0.0039037943352013826,-0.007601969875395298,0.009122227318584919,0.003752330085262656,0.009202475659549236,-0.002377350814640522,-0.006923365406692028,-0.0045402818359434605,0.0011779172345995903,-0.0002093687653541565,-0.007263591513037682,0.005848730448633432,-0.005524785257875919,-0.001038439804688096,-0.0057270340621471405,0.0014153961092233658,0.014531422406435013,0.0035688490606844425,0.0022873396519571543,-0.006568836979568005,0.003039911389350891,0.010494237765669823,0.012846650555729866,0.0019663090351969004,0.0021610273979604244,-0.005278528667986393,-0.008555041626095772,0.001230756752192974
是,-0.028076954185962677,0.016615670174360275,0.021980127319693565,0.02950151637196541,-0.012534169480204582,-0.0193827822804451,0.010964772664010525,0.02570955641567707,-0.005864021833986044,-0.012884932570159435,-0.004538504872471094,-0.038418322801589966,-0.01333694439381361,0.013074319809675217,-0.005113207269459963,-0.03511958569288254,-0.001720010070130229,-0.0004513000603765249,0.00024387333542108536,-0.056703824549913406,0.01380644179880619,0.004651338793337345,-0.005816437769681215,-0.001388854463584721,0.007736104540526867,0.003960461355745792,-0.021943092346191406,-0.010115544311702251,-0.00816083699464798,0.0023794653825461864,0.005417048931121826,-0.01398606225848198,-0.0028436831198632717,-0.003724911715835333,-0.007295824587345123,0.022474009543657303,0.016265656799077988,-0.017041059210896492,-0.027899693697690964,-0.03791835159063339,0.004974894691258669,-0.018176717683672905,-0.0223425030708313,-0.015817206352949142,-0.00683585274964571,0.0009950606618076563,-0.024634424597024918,0.030312538146972656,0.00700187124311924,0.01973893865942955,-0.009019818156957626,0.007613222114741802,-0.005968712270259857,0.015380465425550938,0.008798042312264442,0.005034524481743574,0.013793285936117172,-0.016428012400865555,-0.024561595171689987,0.01596706360578537,-0.00414288742467761,0.005121844355016947,-0.00836152397096157,-0.0007362202741205692,-0.0014131079660728574,-0.006654780823737383,0.009861789643764496,-0.014022601768374443,-0.022719379514455795,0.02707333117723465,-0.0032473367173224688,-0.0023224353790283203,-0.0023954398930072784,-0.015209725126624107,0.018751420080661774,0.0128676388412714,0.01680687628686428,-0.003122814930975437,-0.009422519244253635,-0.010476144030690193,0.0045979637652635574,-0.0015005753375589848,-0.004872691351920366,0.012046998366713524,-0.008206990547478199,-0.003967131953686476,0.004001247696578503,0.0074628666043281555,0.015880566090345383,0.012536093592643738,-0.007939169183373451,-0.003740077605471015,0.001500566373579204,0.019109167158603668,0.024292461574077606,0.012993212789297104,0.00028810068033635616,-0.01905503123998642,-0.010045601055026054,-0.00037196482298895717
时候,-0.006188632920384407,0.005819468759000301,0.0069318185560405254,0.008148213848471642,-0.0030766569543629885,-0.005296152085065842,0.0018186250235885382,0.0002303150249645114,-0.0009599381010048091,-0.0012956592254340649,0.0003166041860822588,-0.00633988669142127,-0.0015797154046595097,0.005068028345704079,-0.005183564033359289,-0.009736472740769386,-0.0006232603918761015,0.0016472471179440618,0.0031632164027541876,-0.0160380806773901,0.007723474409431219,-0.0025428985245525837,-0.009183386340737343,0.0031166214030236006,0.00027077074628323317,0.00037732080090790987,-0.0011224484769627452,-0.008638003841042519,-0.003105879295617342,0.0032391545828431845,0.0018837329698726535,-0.0050697410479187965,-0.004303302150219679,0.0002032837364822626,-0.0056036850437521935,0.008176714181900024,0.005913563072681427,-0.0033550893422216177,-0.00904351007193327,-0.013105731457471848,-0.004075710196048021,-0.003884640522301197,-0.008961542509496212,-0.0027992823161184788,-0.0028901519253849983,0.003854995360597968,-0.007490498013794422,0.008757058531045914,0.0023726553190499544,0.0030974149703979492,-0.0009810004848986864,0.003543504513800144,-0.00040572392754256725,0.001636651810258627,0.0019378098659217358,-0.002543102251365781,-0.0012937114806845784,-0.00246563833206892,-0.012777085416018963,0.004955882206559181,-0.001690286211669445,0.0022466506343334913,-0.0005112108774483204,0.0014155255630612373,-0.00450710067525506,-0.004546874202787876,0.003919376991689205,-0.0057669151574373245,-0.00939985178411007,0.014574447646737099,0.0005391461309045553,-0.004602557048201561,0.002670698333531618,-0.0029721471946686506,0.0019563566893339157,0.0019790660589933395,0.008905069902539253,-0.003921867348253727,-0.005959908943623304,0.0010655405931174755,0.0006793037755414844,-0.0038900296203792095,-0.0011024409905076027,-0.0004526475677266717,-0.0024990406818687916,-0.009432300925254822,0.005062446929514408,0.008037281222641468,0.005413000471889973,0.005367399659007788,0.0018021569121629,0.00404485734179616,-0.0034141179639846087,0.009469387121498585,0.005685846321284771,0.003828114364296198,0.0014634864637628198,-0.0051000905223190784,0.0009015887044370174,0.00037858192808926105
爱,-0.011036060750484467,0.005284815561026335,0.018291816115379333,0.015342919155955315,-0.004455470945686102,-0.01478938851505518,-0.003979930654168129,-0.0008493549539707601,0.0032525549177080393,-0.009618191979825497,0.0032411275897175074,-0.01803845912218094,-0.0045242332853376865,0.005102538503706455,0.00037462450563907623,-0.021956201642751694,0.0007442225469276309,-0.003745332360267639,0.005816809833049774,-0.018351616337895393,0.00840221531689167,0.0030493270605802536,-0.0021005391608923674,-0.004573257174342871,0.006266122218221426,0.004293142352253199,-0.014310380443930626,-0.0044956267811357975,-0.008755190297961235,0.0009397384710609913,-0.0012669034767895937,-0.004434823989868164,-0.0018964842893183231,0.0008359060157090425,-0.010888654738664627,0.010298400186002254,0.008094207383692265,-0.007569203153252602,-0.012772442772984505,-0.017034050077199936,-0.0006748936139047146,-0.009590915404260159,-0.0035336590372025967,-0.006029456853866577,-0.0023128807079046965,0.006184146273881197,-0.01761806011199951,0.01623060740530491,0.0046187941916286945,-0.0008875561761669815,-0.004579275380820036,0.004901420325040817,0.009353311732411385,0.0088117066770792,0.0005677200388163328,0.002567771589383483,0.003373909741640091,-0.0014254956040531397,-0.014483977109193802,0.007130111567676067,0.002603852888569236,0.0005796607001684606,-0.0004151121247559786,4.022230132250115e-05,0.002366053406149149,-0.009721985086798668,0.002632409567013383,-0.013392617926001549,-0.005234734155237675,0.016240961849689484,-0.002965204883366823,-0.0013528922572731972,-0.0006803786382079124,-0.004191179294139147,0.013843991793692112,0.003921056166291237,0.0035461478400975466,-0.0031615670304745436,-0.005065629258751869,0.0001460593193769455,0.010089660063385963,0.002821745816618204,-0.008088212460279465,-0.00034478382440283895,-0.0008135898970067501,0.002190942410379648,-0.0013678149553015828,0.006053134799003601,0.01026912685483694,0.0031500421464443207,-0.0019432648550719023,0.003245722968131304,-0.009169235825538635,0.0017817511688917875,0.01600937731564045,0.0009719918016344309,-0.0006745593855157495,-0.002493505133315921,-0.008269543759524822,-0.0056897965259850025
先生,-0.007155950181186199,0.0010400809114798903,0.003751241136342287,0.005713135935366154,0.0002668810775503516,-9.71999834291637e-05,0.0011897439835593104,-0.0013464723015204072,-0.0017720917239785194,0.003550924127921462,-0.003303368343040347,-0.004649344831705093,0.0005938211688771844,-0.0013533872552216053,-4.4762855395674706e-05,-0.00844697654247284,-0.0002627857029438019,0.004144189413636923,0.00489499606192112,-0.004877100232988596,0.0023221164010465145,0.003028427017852664,-0.002939317375421524,0.0015511965611949563,0.0024083456955850124,-0.004046810325235128,-0.007936464622616768,-0.004799156449735165,-0.0026210437063127756,-0.0004892258439213037,0.000973882619291544,-0.0034005274064838886,-0.0006527192890644073,0.00185291632078588,-0.0034642722457647324,0.0027785995043814182,0.0038991218898445368,-0.006842436268925667,-0.004495146218687296,-0.008752616122364998,0.00026472951867617667,-0.00133637769613415,3.672321327030659e-05,-0.0010928307892754674,-0.001990322256460786,8.810777217149734e-06,-0.0037511081900447607,0.0030000635888427496,0.0014110679039731622,-0.002732559572905302,-0.002610444091260433,-0.004178368020802736,9.36329597607255e-05,0.003457896178588271,0.0026020321529358625,4.916952457278967e-05,-0.0007429149700328708,0.004997980315238237,-0.008171568624675274,0.006951932795345783,-0.0032404367811977863,-0.001763933221809566,0.0010709380730986595,-0.0006177395116537809,0.0010128493886440992,-0.0027737950440496206,-0.0014113752404227853,-0.002093659248203039,-0.0070011247880756855,0.003789312671869993,-0.002210435923188925,-0.004773822613060474,-0.0026152068749070168,-0.006663667969405651,0.00550305750221014,0.0053862314671278,-0.0006338544772006571,-0.00368678430095315,-0.002381965285167098,0.002598957624286413,-0.0009176668245345354,-0.0013620757963508368,0.002871822565793991,0.005464035086333752,-0.004047904163599014,-0.003242368111386895,-0.002077690092846751,0.006937780883163214,0.0011498047970235348,0.0023250782396644354,0.0017686670180410147,-0.001147836446762085,0.0005848412401974201,0.0007574759656563401,0.005102132447063923,-0.002037830650806427,0.0016823656624183059,-0.0013539559440687299,-0.005857411306351423,-0.00019063730724155903
睡觉,-0.002947528613731265,0.0006147262174636126,0.0030413975473493338,0.005074659828096628,0.000649693829473108,-0.006003820803016424,-0.006224852986633778,0.0010815614368766546,-0.003061209572479129,9.535334538668394e-05,-0.0020528354216367006,-0.005070737563073635,-0.0013304556487128139,0.0022162580862641335,0.0008472054032608867,-0.006784922908991575,-0.0016485170926898718,0.0029847922269254923,-0.00039587216451764107,-0.012631962075829506,0.003248703433200717,-0.0004916485631838441,0.00046868008212186396,-0.0026972396299242973,0.002232316415756941,0.00795662496238947,-0.005292897112667561,-0.0007910254644230008,-0.003419088665395975,0.0009149094112217426,0.0013474978040903807,-0.0013720877468585968,-0.009559229016304016,-0.0021415690425783396,-0.0003447151684667915,0.008098095655441284,0.0010633941274136305,-0.002138453768566251,-0.0020448663271963596,-0.0063497889786958694,0.0035839909687638283,0.00036621594335883856,-0.0024883830919861794,-0.004064478445798159,-0.004681906197220087,0.003184586064890027,0.00047999474918469787,0.006581895053386688,0.005127125419676304,0.005240417551249266,0.0024748798459768295,0.004452092107385397,-0.0061644879169762135,0.002330153016373515,0.0017509299796074629,0.001859852927736938,0.005297244526445866,-0.0008771379943937063,-0.004131391178816557,0.00485845934599638,-0.0008269468089565635,0.0003063743934035301,0.0009474545950070024,-0.003924026153981686,0.0021379650570452213,-0.0027217743918299675,0.003978740889579058,0.0009171076817438006,-0.0020708783995360136,0.0067368862219154835,-0.005602163262665272,-0.004982770420610905,-0.0003577158786356449,-0.001292394008487463,0.0066964528523385525,-0.002455448266118765,-2.6052584871649742e-06,0.0004996550269424915,-0.0022230499889701605,0.002555142156779766,-0.0010786124039441347,-0.004555535037070513,0.004153839312493801,0.0020111207850277424,-0.004753053188323975,-0.0037439060397446156,0.0016872878186404705,-0.0017056339420378208,0.006559607572853565,-0.00018699083011597395,0.0024839122779667377,0.0028112968429923058,0.0020729133393615484,-0.0003416354302316904,0.0028018502052873373,-0.001054073916748166,0.005592428147792816,0.0005000511882826686,-0.007296379655599594,6.910250522196293e-05
