word,0,1,2,3,4,5,6,7,8,9,10,11,12,13,14,15,16,17,18,19,20,21,22,23,24,25,26,27,28,29,30,31,32,33,34,35,36,37,38,39,40,41,42,43,44,45,46,47,48,49,50,51,52,53,54,55,56,57,58,59,60,61,62,63,64,65,66,67,68,69,70,71,72,73,74,75,76,77,78,79,80,81,82,83,84,85,86,87,88,89,90,91,92,93,94,95,96,97,98,99
忍不住,0.0022212646435946226,0.000633429444860667,0.0004249296325724572,0.004096629563719034,-0.0016880923649296165,-0.0022292896173894405,-0.0005075022345408797,0.002558780601248145,0.000277131941402331,-0.001935087493620813,0.0024906457401812077,-3.4132124710595235e-05,-0.00043861655285581946,-0.0006884612957946956,-0.003169706091284752,-0.00014595208631362766,5.47769341210369e-05,0.0026505456771701574,0.0013469101395457983,0.0018306673737242818,0.0007447730749845505,0.0008229681989178061,0.001337890513241291,0.0009103566990233958,0.001592820743098855,0.00024127287906594574,-0.00502485828474164,0.00028268780442886055,-0.0038966487627476454,-0.0036685497034341097,-0.0007697510300204158,0.000433473993325606,-0.0004228945472277701,0.0011356787290424109,0.002489344449713826,-0.0003338847018312663,-5.983341907267459e-05,-0.0033297804184257984,-4.871904820902273e-05,-0.00462003517895937,-0.0012461983133107424,0.00038834314909763634,-0.00031273436616174877,-0.0002108658809447661,0.005298682022839785,0.002368183806538582,-0.0025741085410118103,-0.0009930350352078676,0.0030321681406348944,-0.0005318403127603233,-0.0007689003250561655,-0.0027637563180178404,0.0011026536813005805,-0.0028831197414547205,-0.002125257859006524,0.000808334385510534,0.002614423865452409,-0.0017272167606279254,0.0004936898476444185,0.0014736417215317488,-0.00016128152492456138,-0.0026561578270047903,0.0015662412624806166,0.0004731407971121371,0.0024961482267826796,0.001012303400784731,0.0002504177682567388,0.000910380796995014,0.0011815640609711409,0.0029738801531493664,-0.003124372335150838,0.0018605288350954652,0.002227422781288624,-0.0015379935503005981,-0.0010763605823740363,-0.0004904952947981656,0.0007223979919217527,-0.0031095307786017656,-0.00028677910449914634,-0.006496954243630171,0.001368772005662322,0.003176528960466385,0.0022563047241419554,-0.002162424148991704,-2.0078083252883516e-05,-0.00019245674775447696,-0.0013985622208565474,0.003242451697587967,0.001862480421550572,0.002338940743356943,-0.0015586154768243432,0.0007164875278249383,0.0002086594613501802,0.0012891982914879918,0.0017373098526149988,0.002779350383207202,0.001887864782474935,0.00115750334225595,-0.0006997267482802272,-0.0011329589178785682
姑姑,0.00014471373287960887,0.0016290949424728751,-0.002707329811528325,-0.0030027595348656178,0.0030266474932432175,-0.001637209439650178,0.003190902993083,0.00048242590855807066,0.005462814122438431,-0.0047946204431355,0.0011769620468840003,-0.005272270180284977,0.0009772853227332234,-0.0011537467362359166,-0.0005063196294941008,0.0015671667642891407,-0.0041502793319523335,-0.0028978888876736164,1.2062955647706985e-06,-0.004822304472327232,-0.002554249716922641,-0.002102931495755911,-0.001231011818163097,-0.0009331266046501696,0.0013237758539617062,0.00021227041725069284,-0.002138362266123295,0.0009973375126719475,0.0008130436181090772,0.0031154067255556583,0.0005455889040604234,-0.006167827174067497,-0.00011693770647980273,-0.003484894521534443,0.004608353599905968,0.003183753462508321,0.001052734674885869,0.0017235053237527609,0.0012058671563863754,0.001430047326721251,0.0008216496789827943,0.001955196727067232,-0.0003852369263768196,0.0005777032347396016,-0.0031117673497647047,-6.404973100870848e-05,-0.0008796458132565022,0.004699139855802059,-0.0006238750647753477,0.001966766081750393,0.0029769358225166798,0.003444025758653879,-0.0024705168325453997,-0.0008316866587847471,0.0031604410614818335,0.005538874305784702,0.005585965700447559,-0.003983492963016033,-0.0010440887417644262,0.00015460827853530645,0.005328072234988213,-0.0034266947768628597,-0.001774459145963192,-0.00217151059769094,-0.0002950236666947603,-0.002017003484070301,-0.004437173251062632,-0.0019409145461395383,-0.005788304843008518,-0.0019278284162282944,-0.0016712829237803817,0.0027029188349843025,0.0028878559824079275,-0.0011090782936662436,0.0030151414684951305,-0.0010158871300518513,-0.0012219008058309555,0.0032315668649971485,-0.0010388456284999847,-0.0010497277835384011,0.0018986379727721214,0.00317945284768939,0.000736017944291234,0.002026305301114917,0.005282328464090824,-0.002875187899917364,0.0010872420389205217,-0.001558553660288453,-0.004697560332715511,-0.0007540822261944413,0.0003779144026339054,-0.0005120123969390988,-0.001974943559616804,0.005324377678334713,-0.0015790107427164912,8.482462726533413e-05,-0.00015372084453701973,0.005450169090181589,0.0021056034602224827,0.006679020822048187
办不到,-0.0008873375481925905,-0.0028016939759254456,0.0004957448691129684,0.0019416771829128265,-0.0029738040175288916,-0.0010933263693004847,0.0013402003096416593,0.0022731705103069544,-0.00034458417212590575,0.0008434957708232105,0.0005927935126237571,-0.0015234483871608973,-0.0006008429336361587,-0.00017296223086304963,-0.001682327245362103,-0.0005918678943999112,-0.0010754980612546206,-0.00022066969540901482,0.0029196343384683132,-0.0013176689390093088,-0.0013885434018447995,-0.0025272725615650415,-0.003164054825901985,-0.00018323908443562686,-0.0015599020989611745,0.0013319987338036299,-0.0015896065160632133,0.00016722751024644822,-0.0041299848817288876,-0.00033245302620343864,-0.0008783630328252912,-0.0007014235598035157,-0.0020801217760890722,0.0009747300646267831,0.002807045355439186,0.0030654172878712416,0.00023442985548172146,-0.003760864259675145,-0.0009365655714645982,0.0028202838730067015,0.0016064078081399202,0.004903258290141821,-0.0023850444704294205,-0.004312209319323301,0.0008902401896193624,-0.003409639000892639,0.001390877179801464,0.0019150562584400177,0.004119845572859049,-0.00027098372811451554,0.002441846299916506,-0.0006119559402577579,-0.002300738589838147,-0.0020131829660385847,-0.0036210829857736826,0.0020601246505975723,0.003065737197175622,-0.00423822645097971,-0.0009214583551511168,0.0036329925060272217,-0.00010408507660031319,-0.005310457199811935,0.0013356414856389165,-0.001040443079546094,-0.0003230938164051622,-0.000983762787654996,0.0052779135294258595,-0.002949268091470003,0.001931070233695209,-0.00033772303140722215,-0.000241988935158588,-0.001295107533223927,0.0028107515536248684,-0.001598737551830709,0.0026527189183980227,0.0010805090423673391,0.001003882149234414,-0.0029906616546213627,0.002364321844652295,-0.0025503633078187704,0.0038367602974176407,0.0008470084285363555,0.0003963496128562838,0.0011640164302662015,0.0001718088606139645,0.0032101066317409277,-0.001745941466651857,-0.0004230867198202759,0.0009833428775891662,0.002580976812168956,0.0010435701115056872,0.0018314473563805223,-0.002997396979480982,-0.003446857910603285,0.0038755626883357763,-0.00019836006686091423,-0.0006079537561163306,-0.0026294763665646315,0.0017020998056977987,-0.0034543329384177923
还,-0.00932260975241661,0.011359009891748428,0.012001929804682732,0.0073977247811853886,-0.0012667321134358644,-0.006797855719923973,0.004116209223866463,0.007377752102911472,-0.00846831500530243,0.001060844399034977,-0.0017893773037940264,-0.004265315365046263,-0.006070241332054138,0.0007620593532919884,-0.0026694047264754772,-0.01669198088347912,-0.006394599564373493,0.0030707635451108217,-0.0068185157142579556,-0.00811055675148964,0.0044365874491631985,-0.001493686344474554,0.006522494368255138,0.002039972459897399,0.0007172906771302223,0.00872452836483717,0.0011980828130617738,-0.004338560625910759,-0.00889810174703598,-0.0035527015570551157,0.0009158679749816656,-0.009524194523692131,-0.003489650320261717,0.0037363278679549694,0.004216221626847982,0.010885562747716904,0.0006650409195572138,-0.002639656187966466,0.00018637184984982014,-0.0014590364880859852,0.0030411200132220984,-0.0038718166761100292,-0.005601678043603897,-0.00263504171743989,-0.0019234537612646818,0.0019194860942661762,-0.003947981633245945,0.00870809517800808,0.006991398986428976,0.012933554127812386,0.0011684922501444817,-0.001562702702358365,-0.00322700385004282,0.008947450667619705,-1.6982085071504116e-06,0.0029704305343329906,0.0057625314220786095,0.0008632618701085448,-0.011956993490457535,0.004143773578107357,0.006665979512035847,-0.005289159715175629,0.004935482982546091,-0.001195777440443635,0.0012590768747031689,-0.005745986942201853,0.0015115886926651,-0.005561089143157005,-0.005692111793905497,0.0089421970769763,0.0021563938353210688,-0.001184485387057066,0.0054902625270187855,7.446168456226587e-05,0.009606126695871353,0.0046970597468316555,0.0047882902435958385,-0.003912387881428003,0.0023115179501473904,-0.008746366947889328,0.0010606374125927687,0.004825844895094633,-0.006264656316488981,-0.0026906486600637436,-0.00581187941133976,-0.0025411800015717745,0.000631505623459816,0.0120177511125803,0.01545809581875801,0.0018043474992737174,0.002300034277141094,-0.002959218807518482,0.002506714779883623,0.006693363189697266,0.004568999633193016,0.009739449247717857,0.002411679131910205,-0.007380807772278786,0.003710950957611203,-0.004890213254839182
老,0.002750504296272993,0.0034580801147967577,-0.002285009017214179,-0.0008611103985458612,-0.0009438362903892994,0.0029662938322871923,-0.0050574252381920815,0.007472255267202854,0.004450784996151924,-0.006060495041310787,0.004843676462769508,0.0005884339916519821,0.0014734244905412197,-0.00031054578721523285,0.001500678714364767,-0.002573383739218116,-0.0037044743075966835,-0.004712812136858702,0.0015041641891002655,0.002987121930345893,0.002470595296472311,0.0037291753105819225,-0.0009247839916497469,0.0027652650605887175,-0.005942013114690781,0.0012180518824607134,-0.003412192687392235,-0.0005327450926415622,-0.004039211664348841,0.0030913371592760086,0.0028654253110289574,0.0014767401153221726,0.00662076473236084,0.007812912575900555,-0.0033917969558387995,-0.007334273308515549,0.0053688110783696175,-0.0017180931754410267,0.007089955732226372,-0.004847686737775803,0.0004907334223389626,0.004685783758759499,-0.0070106699131429195,0.0006056420970708132,-0.0014504280406981707,-0.005311097949743271,0.002731455024331808,0.0007730739889666438,0.005036327987909317,-0.007418972905725241,0.008115392178297043,0.005847805179655552,0.004213573876768351,0.003292901674285531,0.0031545632518827915,0.0002308418625034392,0.009088157676160336,0.005192681681364775,0.0008794679306447506,0.003749724943190813,0.0009778228122740984,-9.807205060496926e-05,0.0012759047094732523,-0.0006312145851552486,-0.0008801433723419905,-0.0050559574738144875,-0.004546235781162977,-0.0072102840058505535,0.0008033631020225585,-0.0028733378276228905,0.0019628608133643866,-0.0032814391888678074,0.005320517346262932,-0.006820332258939743,-0.0034753265790641308,0.0028979964554309845,0.006641840096563101,0.005361108109354973,0.003010908840224147,-0.0016570042353123426,0.0035749669186770916,-0.0008719274774193764,0.00329124229028821,-0.005281245801597834,-0.0002630590461194515,-0.0018233152804896235,-0.004811719059944153,-0.0018145947251468897,0.0014768377877771854,0.004428104497492313,-0.0030225422233343124,-0.00180467136669904,0.00031267572194337845,0.00421731173992157,-0.0018000248819589615,0.001568360486999154,0.0014277866575866938,-0.007047468796372414,-0.00536716915667057,-0.005679713562130928
能,-0.0032434165477752686,0.005178159102797508,0.007964828982949257,0.009337898343801498,0.002091712085530162,-0.0030781663954257965,0.008657122030854225,0.0004952405579388142,-0.005593717563897371,-0.003812490962445736,0.005537013523280621,-0.014446171000599861,-0.009289887733757496,-0.0013452768325805664,-0.0023671267554163933,-0.005737288389354944,0.00014880442176945508,-0.0014030389720574021,-0.0011657139984890819,-0.022354405373334885,-0.002084003994241357,0.005841733887791634,-0.012141825631260872,-0.0027614515274763107,-0.004122249782085419,0.0022574039176106453,-0.006078433245420456,-0.0100320503115654,-0.002593366429209709,0.0033754364121705294,0.0025158985517919064,-0.009197059087455273,-0.002794870175421238,0.0012423086445778608,0.0010916097089648247,0.011660457588732243,0.0038348555099219084,-0.002263373928144574,-0.011448867619037628,-0.017309628427028656,0.004802879877388477,-0.012827322818338871,-0.007133929058909416,0.002122297650203109,-0.005120115354657173,0.005380359943956137,-0.007444871589541435,0.008140160702168941,0.0062678055837750435,0.003399069420993328,-0.000638235011138022,-0.0016672010533511639,0.0031431089155375957,0.013123702257871628,-0.006106158718466759,0.005930383689701557,0.005294125061482191,-0.0012425497407093644,-0.00871947780251503,-0.003771852469071746,-0.01033090054988861,0.007252255920320749,-0.0040763672441244125,0.003054741770029068,0.0011377224000170827,0.00014660926535725594,0.0022610239684581757,-0.009668158367276192,-0.002048841677606106,0.016914743930101395,-0.005103427451103926,-0.008534464985132217,-0.004219219088554382,0.0040361941792070866,0.005534110125154257,0.0011744929943233728,0.008242307230830193,0.005318792071193457,-0.00301556009799242,0.0048233866691589355,0.0012674948666244745,0.0019015063298866153,-0.0009055818663910031,0.004686260130256414,-0.010724230669438839,-0.007013056427240372,0.0010464423103258014,0.003961216192692518,0.013045262545347214,0.008332486264407635,-0.00655296491459012,0.00012175273150205612,0.003109542652964592,0.0022445805370807648,0.007894248701632023,0.0054268185049295425,0.005418450105935335,-0.008211566135287285,0.006175708957016468,-0.0042180586606264114
哽咽,-0.002369921188801527,-0.0015982594341039658,0.0012522406177595258,0.0032510815653949976,0.0012890719808638096,0.003093383274972439,-0.00247733062133193,-0.0003561748890206218,-0.000828038202598691,0.002366261091083288,-0.0003359497059136629,3.2346579246222973e-06,-0.0025715099181979895,0.003298091236501932,-0.0031084991060197353,0.0002618647995404899,0.0023173566441982985,-8.873536717146635e-05,-0.00027817883528769016,0.0003076533321291208,0.00032426638063043356,0.0005139837739989161,0.0016930538695305586,0.0005809888243675232,0.001475358847528696,0.0040445514023303986,0.002745324280112982,0.004570312798023224,-0.004418620839715004,0.00555496197193861,-0.0029224769677966833,-0.004049544222652912,-0.0033423483837395906,-0.004687982611358166,-0.0012756244977936149,-0.004596371669322252,0.0005135902320034802,-6.650027353316545e-05,-0.004623746499419212,0.002127343323081732,0.0022369055077433586,-0.0023550663609057665,0.0008238409645855427,0.0014345108065754175,-0.0033473919611424208,-0.0022435239516198635,-0.0016101808287203312,0.001358003355562687,0.0025051431730389595,0.002020134823396802,-0.0017412384040653706,0.005133447702974081,0.001324157346971333,0.0025325699243694544,0.0014534748625010252,-0.0038340953178703785,0.001415539882145822,0.0016000409377738833,0.0006330562755465508,-0.003177792299538851,-0.00047866825480014086,-0.0018577172886580229,-0.0005129058845341206,0.0029910902958363295,-0.005025977734476328,0.0018469402566552162,0.0032607093453407288,0.0008150949142873287,-0.004003555979579687,0.004435540642589331,0.0017088113818317652,-0.005042781122028828,0.0008661570027470589,0.00037267047446221113,0.001782869454473257,0.0010314619867131114,-0.0038989721797406673,0.00173159409314394,0.0024696888867765665,0.0006760124233551323,-0.006981617771089077,-0.0019784700125455856,0.0016743735177442431,0.0034369013737887144,-0.0004972332390025258,-0.0015627896646037698,-0.0011143998708575964,-0.0017012209864333272,0.004602746106684208,0.002169583458453417,-0.0044282106682658195,-0.0009493454708717763,-0.002760510426014662,-0.001183985499665141,0.006453205365687609,-0.0001724946778267622,-0.0013525037793442607,-0.0015677688643336296,-0.0009191508870571852,-0.0007191220065578818
看,-0.005159520544111729,0.003655514447018504,0.009072137996554375,0.0075193424709141254,0.0023320852778851986,-0.002560489811003208,-0.0046067326329648495,0.011191053315997124,-0.00691434508189559,-0.008496442809700966,-0.006151743233203888,-0.013152871280908585,-0.0030115703120827675,-0.0034953842405229807,-0.009335688315331936,-0.004393271170556545,0.002401899080723524,-0.0017126431921496987,-0.0040504215285182,-0.018077675253152847,0.00721935648471117,-0.0036336255725473166,-0.0018833200447261333,-0.0004315483383834362,0.0010945157846435905,0.0002316911704838276,-0.0007534258766099811,-0.010428116656839848,0.0022800748702138662,0.006816452369093895,0.0026626414619386196,-0.004468140192329884,0.00519140437245369,-0.003005767008289695,-0.0010693566873669624,0.007382101379334927,-0.0006732112960889935,-0.004251115955412388,-0.00959832314401865,-0.007068679668009281,-0.0031404527835547924,-0.00760837784036994,-0.0020643228199332952,-0.006839083507657051,-0.006758510135114193,0.003266305662691593,-0.006088237278163433,0.005809394642710686,-0.0059565529227256775,0.004387606400996447,0.0008544069714844227,-0.0072267851792275906,0.0048867519944906235,0.0017117622774094343,0.0034757014364004135,0.00124752102419734,-9.048715583048761e-05,-0.002282405039295554,-0.006412581540644169,0.002044869586825371,-0.0011507592862471938,0.005045854486525059,-0.0016161317471414804,0.0015774219064041972,-0.0008574100211262703,-0.005574964918196201,0.0019457356538623571,-0.004498968366533518,-0.004748816601932049,0.010162013582885265,-0.0045823948457837105,-0.002972053363919258,-0.0018171018455177546,0.00043716965592466295,0.0026642526499927044,0.0036688395775854588,0.0012287835124880075,-0.001575630740262568,-0.0030098536517471075,0.0024269327986985445,0.004492082633078098,-0.0033815517090260983,-0.004267680924385786,-0.006232688203454018,0.0056389435194432735,-0.0010116470512002707,0.00043760344851762056,0.009211148135364056,0.0024994199629873037,-0.0051429071463644505,-0.004038785118609667,0.008572481572628021,0.002152420347556472,0.008983069099485874,0.00461280532181263,0.005442706868052483,-0.0068073756992816925,-0.00509439455345273,0.004885721020400524,0.0021092179231345654
是,-0.028076954185962677,0.016615670174360275,0.021980127319693565,0.02950151637196541,-0.012534169480204582,-0.0193827822804451,0.010964772664010525,0.02570955641567707,-0.005864021833986044,-0.012884932570159435,-0.004538504872471094,-0.038418322801589966,-0.01333694439381361,0.013074319809675217,-0.005113207269459963,-0.03511958569288254,-0.001720010070130229,-0.0004513000603765249,0.00024387333542108536,-0.056703824549913406,0.01380644179880619,0.004651338793337345,-0.005816437769681215,-0.001388854463584721,0.007736104540526867,0.003960461355745792,-0.021943092346191406,-0.010115544311702251,-0.00816083699464798,0.0023794653825461864,0.005417048931121826,-0.01398606225848198,-0.0028436831198632717,-0.003724911715835333,-0.007295824587345123,0.022474009543657303,0.016265656799077988,-0.017041059210896492,-0.027899693697690964,-0.03791835159063339,0.004974894691258669,-0.018176717683672905,-0.0223425030708313,-0.015817206352949142,-0.00683585274964571,0.0009950606618076563,-0.024634424597024918,0.030312538146972656,0.00700187124311924,0.01973893865942955,-0.009019818156957626,0.007613222114741802,-0.005968712270259857,0.015380465425550938,0.008798042312264442,0.005034524481743574,0.013793285936117172,-0.016428012400865555,-0.024561595171689987,0.01596706360578537,-0.00414288742467761,0.005121844355016947,-0.00836152397096157,-0.0007362202741205692,-0.0014131079660728574,-0.006654780823737383,0.009861789643764496,-0.014022601768374443,-0.022719379514455795,0.02707333117723465,-0.0032473367173224688,-0.0023224353790283203,-0.0023954398930072784,-0.015209725126624107,0.018751420080661774,0.0128676388412714,0.01680687628686428,-0.003122814930975437,-0.009422519244253635,-0.010476144030690193,0.0045979637652635574,-0.0015005753375589848,-0.004872691351920366,0.012046998366713524,-0.008206990547478199,-0.003967131953686476,0.004001247696578503,0.0074628666043281555,0.015880566090345383,0.012536093592643738,-0.007939169183373451,-0.003740077605471015,0.001500566373579204,0.019109167158603668,0.024292461574077606,0.012993212789297104,0.00028810068033635616,-0.01905503123998642,-0.010045601055026054,-0.00037196482298895717
挂,-0.005052877590060234,0.008447202853858471,0.0031090679112821817,-0.006783436052501202,0.002034857403486967,0.006009191274642944,0.002049296395853162,0.002816828666254878,0.0005818898789584637,-0.0018063585739582777,-0.002267662435770035,0.0004971567541360855,0.003668196965008974,-0.00023352692369371653,0.0064368052408099174,0.0027350191958248615,-0.00879751704633236,0.005344759672880173,-0.0011454550549387932,0.0011781819630414248,0.0014464992564171553,0.0010222764685750008,-0.0008180444128811359,0.0056577217765152454,6.485870108008385e-05,-0.004206960089504719,-0.0028232578188180923,0.0014200990553945303,-0.002041067462414503,0.0021180720068514347,-0.0037818970158696175,0.000976592069491744,0.004477434325963259,-0.0023193974047899246,-1.7957761883735657e-05,-0.003188369795680046,-0.0010391592513769865,-0.0017108127940446138,-0.0008073925273492932,0.002008086536079645,0.006455986760556698,0.0006988224340602756,0.006069923751056194,-0.0030570123344659805,-0.004165606573224068,0.0015018924605101347,-0.0025301354471594095,0.006332286633551121,0.0028906832449138165,0.0009945910423994064,-0.0023493326734751463,0.0012471897061914206,0.007228601723909378,-0.0060845473781228065,-8.777109906077385e-05,0.0016754483804106712,-0.0033190154936164618,-0.00011186324991285801,-0.005491375923156738,-0.002985461615025997,0.0034343982115387917,0.004506134893745184,0.0019409939413890243,-0.005804469808936119,0.0026084529235959053,-0.002923207823187113,0.0010029752738773823,-0.007323800586163998,0.0006857143016532063,0.005212931893765926,-0.0029131837654858828,-0.006147223059087992,0.0065402677282691,-0.003153009107336402,-0.00429596146568656,-0.0004068082198500633,-0.000495252781547606,0.0018412036588415504,-0.007100434973835945,-0.007247508503496647,0.0003906814381480217,0.005037704017013311,-0.007987392134964466,-0.0037680184468626976,-0.000602539861574769,0.0035342536866664886,0.0037682456895709038,0.00011616270785452798,-0.0010691065108403563,-0.004077190067619085,0.0015608082758262753,-0.0039356001652777195,-0.00695714820176363,-0.0063766478560864925,0.001314543653279543,-0.0021942374296486378,-0.005701120477169752,0.00659801485016942,-0.0018190027913078666,-0.006776397582143545
就算,-0.0009584553772583604,0.001012297929264605,0.00010387285146862268,0.003534618765115738,0.000996540067717433,0.002743576653301716,0.0013003959320485592,-0.0017852844903245568,-0.001251757494173944,-0.0008356187026947737,-0.0004714566748589277,9.514694102108479e-05,-0.0019510409329086542,-0.0007219217950478196,0.001643059658817947,-0.002535056322813034,-0.0025994328316301107,-0.0041487812995910645,0.0006158521864563227,0.0017825223039835691,0.00517064705491066,-0.004450402222573757,-0.0033985706977546215,0.0008357264450751245,0.0013615788193419576,0.00011904544226126745,0.00420285714790225,-0.0014130293857306242,0.004295079503208399,-0.0012624214868992567,0.002629087772220373,2.0531006157398224e-05,-0.0003038714057765901,-0.0013096875045448542,0.005970473401248455,0.0003841938450932503,0.0030937809497117996,0.003525073640048504,-0.0038509592413902283,-0.0003841878497041762,-0.002573214238509536,-0.002064004074782133,0.003983311355113983,-0.0018089129589498043,-0.0032076085917651653,-0.0018040963914245367,0.0049231210723519325,-0.0047950949519872665,-0.002572928788140416,-0.0015236760955303907,0.002469330094754696,-0.0019207559525966644,-0.004353868775069714,-0.0014574154047295451,-0.000994774280115962,-0.002600991167128086,6.007170304656029e-05,-0.0009548900416120887,0.004577177111059427,0.0013203378766775131,-8.968787733465433e-05,-0.00070752645842731,0.005854500457644463,-0.00029432796873152256,-0.0032128365710377693,-0.003083772026002407,0.003705530194565654,0.0021565393544733524,0.00042565440526232123,-0.0012597029563039541,0.0009988353122025728,-0.0016395743004977703,-0.0027355924248695374,0.00045776437036693096,-0.00025541684590280056,-0.002933195326477289,-0.0013114756438881159,-0.0015920684672892094,0.00246993126347661,-0.002772786421701312,-0.0024250242859125137,0.0037672503385692835,-0.0011711568804457784,-0.0029026675038039684,0.0014168472262099385,0.003036950249224901,0.003284053411334753,0.0033626481890678406,-0.0027178695891052485,0.00102199986577034,-0.002994451206177473,-0.0008175228140316904,0.0021285698749125004,0.0013246143935248256,-0.0005262341583147645,0.003306200262159109,-0.001069576246663928,-0.00032374286092817783,-0.004053904674947262,0.0016532640438526869
店,-0.0014383501838892698,-0.0006628672126680613,0.002739068353548646,0.0011301697231829166,-0.005396786145865917,0.0027138078585267067,-0.005495377816259861,-0.005303014535456896,-0.006628844421356916,-0.0016191962640732527,0.0020664725452661514,0.0049293553456664085,0.0018808196764439344,-0.0005772880977019668,-0.0047182380221784115,-0.007010322529822588,0.0014646328054368496,-0.0043433415703475475,0.0016055909218266606,-0.00020619132556021214,0.0028504659421741962,0.004397095181047916,-0.0009610734414309263,0.0002735760062932968,0.006173693574965,0.004588289186358452,-0.0027133445255458355,-0.002406405983492732,0.002499563852325082,0.005796403624117374,0.0010713627561926842,-0.0049561792984604836,-0.0009087333455681801,-0.00024424726143479347,0.004844742361456156,-0.004549421835690737,0.001601305790245533,8.529145270586014e-05,-0.0031887362711131573,0.002485364442691207,-1.1385651305317879e-05,-0.0022297368850558996,0.0026370715349912643,0.0004951406735926867,0.0019080315250903368,0.001495988923124969,0.0038824763614684343,0.0007715842220932245,0.004885182250291109,0.00561857782304287,-0.001991762313991785,0.0031866247300058603,-0.00027708569541573524,0.002980681834742427,-0.0065360465086996555,0.0033025091979652643,0.0014790556160733104,0.005605247803032398,0.0032756708096712828,0.005938263144344091,-0.0057836235500872135,0.0017671836540102959,0.002659580670297146,-0.0031979118939489126,-0.003246086649596691,0.0003830956993624568,0.004011610522866249,0.004531176295131445,-0.004009175579994917,-0.004735927563160658,0.0016580246156081557,0.0015712843742221594,-0.000998910516500473,-0.007967358455061913,0.00311853876337409,-0.006224176846444607,0.0032795844599604607,-0.0008770908461883664,0.001380639849230647,-0.00035842726356349885,-0.002526802010834217,0.004571364261209965,0.004793488420546055,0.001916161272674799,-0.0031494044233113527,-0.0010007752571254969,-0.0010465086670592427,-0.0018065469339489937,0.009563548490405083,-0.0011128392070531845,-0.005527213681489229,0.00229809433221817,-0.0026600537821650505,-0.0030101709999144077,0.005282608792185783,0.0036299172788858414,0.0031895304564386606,0.00402547512203455,0.003616216592490673,0.005608225241303444
命中,0.0048895240761339664,0.008073156699538231,0.0023109333124011755,0.0017029818845912814,-0.0023179210256785154,-0.0017573317745700479,0.00428189430385828,0.0028207204304635525,0.00011833454482257366,-0.0006752472836524248,-0.005796135403215885,8.032444748096168e-05,-0.003898672293871641,-0.003934882115572691,-0.001039610244333744,-0.0018635144224390388,0.0031645812559872866,-0.0006462263409048319,-0.001244303653948009,-0.0018143646884709597,0.000809509539976716,-0.0031721489503979683,0.004381234757602215,3.6661745980381966e-05,-0.00030541321029886603,-0.00011309533147141337,0.0019209783058613539,-0.0012687135022133589,0.0025805518962442875,0.00013218331150710583,0.0019750650972127914,-0.001025418285280466,-0.0014933401253074408,0.0017775906017050147,0.001174661098048091,-0.0032065431587398052,0.0010172086767852306,0.0007005243096500635,0.002408487256616354,-0.0011295584263280034,-0.0008563782903365791,-0.0005703279748558998,-0.002047425601631403,-0.001734048593789339,0.0023452523164451122,0.0020721880719065666,0.0015296622877940536,-0.0005106934113427997,-0.0015874013770371675,-0.0004205179284326732,-0.0009038902935571969,0.0016477582976222038,0.0011519601102918386,0.0002987646439578384,0.0033284053206443787,-0.00013679161202162504,-0.00030269892886281013,0.0015930818626657128,-0.005434764549136162,0.0026870700530707836,-0.002679587109014392,0.003223573789000511,0.005067940801382065,-0.00532934907823801,0.0005186581984162331,0.00027316866908222437,-0.0002958520781248808,-0.006861415226012468,0.0028064108919352293,0.001098658423870802,-0.0016163941472768784,0.0006707400898449123,0.0007978450739756227,-0.0034388829953968525,-0.0003108004166278988,-0.002512606792151928,-0.0006986558437347412,-0.002745546866208315,-0.0007981497328728437,0.003676358610391617,-0.00468757888302207,-0.0002879695384763181,-0.0018792516784742475,0.0019611301831901073,0.0012276701163500547,-0.0005879167001694441,0.0022119595669209957,0.001083381474018097,-0.00010631245095282793,-0.001021424657665193,-0.00271033588796854,0.00038905534893274307,0.0027814016211777925,0.002532153157517314,-0.0034960368648171425,0.0017242557369172573,0.002105086576193571,-0.005445034243166447,-0.000566838076338172,-0.005506274756044149
爹娘,0.002558344043791294,-0.00044623285066336393,-0.002210850827395916,-0.0004326352209318429,0.0004989681183360517,0.0010388025548309088,0.001722858753055334,0.002810865407809615,0.0010690178023651242,-0.0014549164334312081,0.003353009233251214,0.005220318213105202,-0.0005508542526513338,-0.0010880341287702322,0.000961391138844192,-0.0013726887991651893,-0.006188982166349888,-0.00027938239509239793,-0.0004604439891409129,0.00021276413463056087,-0.0005131760844960809,-0.0002564711030572653,-0.001147829694673419,0.005649267695844173,0.00525673758238554,5.28823584318161e-05,-0.0012069018557667732,-0.0064544957131147385,0.004585625603795052,0.0010910403216257691,0.0002776510955300182,-0.0005880697863176465,-0.0006378138205036521,0.004604667890816927,-0.005787800066173077,-0.004128548316657543,-0.0019159632502123713,0.003425194416195154,-0.0002653906121850014,0.0014867217978462577,-0.00138108991086483,0.000663680606521666,-0.0018613084685057402,-0.00154571991879493,0.004939849488437176,-0.0022771672811359167,-0.005856944248080254,0.0011638083960860968,-0.001491408096626401,-0.001007444690912962,-0.0007722801528871059,-0.00021594599820673466,-0.0014739504549652338,-0.002012485871091485,0.0016755751566961408,0.0042787035927176476,0.0013091970467939973,-0.00029175783856771886,-0.003256782190874219,0.0013301509898155928,-0.0043761245906353,-0.00518236355856061,0.0009629498235881329,0.004319385625422001,0.0024593151174485683,0.003720369655638933,0.002319838386029005,0.004710078705102205,0.0003977256128564477,-0.0018567085498943925,0.0011697510490193963,-0.0011597303673624992,-0.00253977975808084,-0.0030818984378129244,0.00223675393499434,-0.004019984044134617,-0.00027167442021891475,-0.0017301731277257204,-0.0038958885706961155,9.403715375810862e-05,0.002461011055856943,-0.0009459824068471789,-0.0009555637952871621,0.0007286452455446124,0.0011912020854651928,0.0016592174069955945,-0.0006169218104332685,-0.001007942366413772,-0.001554976450279355,0.0007739190477877855,-0.0011432335013523698,-0.002021925989538431,0.001285433187149465,-0.0021813069470226765,-0.004282826092094183,0.004664590582251549,-0.004156785551458597,0.0037743323482573032,-0.004095427691936493,0.002359453123062849
奖赏,-0.00024842689163051546,-0.00194975221529603,0.0010777194984257221,-0.0003674085601232946,8.459656964987516e-05,-0.002399710938334465,0.004912804812192917,-0.0005656937137246132,0.002556540071964264,0.0009477879502810538,0.002448061015456915,0.0027172674890607595,-0.004326891154050827,0.0035362797789275646,0.0030470394995063543,0.001527105225250125,0.0017816342879086733,0.002506762044504285,0.0004564038245007396,-0.0049780597910285,0.0018775610951706767,-0.0035076772328466177,0.001293099019676447,-0.0015483669703826308,0.000926563108805567,-0.00440819701179862,-0.00020392693113535643,0.007795455865561962,-0.0035754507407546043,0.00010113896860275418,0.0009758454980328679,0.004299459047615528,-0.001211316091939807,-0.00010595435742288828,-0.0013591988245025277,0.004742293618619442,-0.0010441089980304241,0.0003522968909237534,0.0010397371370345354,0.0016326392069458961,-0.002309071831405163,-5.197536665946245e-06,0.001976042054593563,-0.0025450121611356735,0.0026296498253941536,0.0017727757804095745,0.0012657390907406807,-0.0034996354952454567,-0.0006689497386105359,-0.0001767860958352685,0.0009154108120128512,0.003984180279076099,-0.001733279787003994,-0.0009482158347964287,0.0011080987751483917,0.004563875496387482,0.0017140016425400972,-0.002356722252443433,0.0026023704558610916,0.0007332910317927599,-0.001293426612392068,-0.004126776475459337,0.0036928141489624977,0.001796132535673678,-0.00033513782545924187,-0.00255783973261714,-0.0009505146881565452,-0.0013116057962179184,0.0012384692672640085,-0.00303729809820652,-0.003935089334845543,-0.00014050514437258244,0.004459621384739876,0.0015143855707719922,-4.9246009439229965e-05,-0.0027588270604610443,0.00023353222059085965,-0.001873573986813426,-0.006156272254884243,0.0008968501351773739,0.0020954336505383253,0.0026912051253020763,0.0026441775262355804,-0.0014141874853521585,0.0054194871336221695,-0.004603955429047346,-0.005244728177785873,0.0031721587292850018,0.004305520094931126,0.0014286092482507229,-0.004450001288205385,-0.0019094882300123572,-0.0038343751803040504,-0.00243434333242476,-0.0008314093574881554,-0.00017756083980202675,0.002108918968588114,-0.006198219954967499,-0.0009300641249865294,-0.0001159379244199954
根本,0.002591523341834545,-0.00022184051340445876,0.0009983866475522518,0.0032814417500048876,-0.004605887457728386,0.003821720601990819,-0.0005136466934345663,0.0007001168560236692,0.0036484648007899523,-0.00035658280830830336,-0.0017047865549102426,0.0017380396602675319,0.0008284932700917125,0.0002375830663368106,0.001071898965165019,0.0021349452435970306,0.0010103543754667044,-0.00457051070407033,-0.0004375375574454665,-0.004786286503076553,0.0019242559792473912,-0.0026666054036468267,-0.002886533737182617,-0.0016610686434432864,0.0052021644078195095,-0.0033733348827809095,-0.0001262468285858631,-0.0011187084019184113,0.0002629404771141708,-0.0016091763973236084,0.0012267548590898514,0.0053887381218373775,-0.0013888675021007657,0.00011447834549471736,-0.001610536826774478,0.005652823019772768,0.004837408661842346,-0.0019488895777612925,-0.0025531225837767124,-0.0012955174315720797,0.0016282318392768502,-0.002920397324487567,-0.003551849629729986,-0.0015006931498646736,-0.002515508094802499,0.0038318592123687267,-0.0048718880861997604,0.00012232415610924363,0.0027905628085136414,3.966936492361128e-05,-0.002509692683815956,0.0021120787132531404,0.000283906381810084,-0.0034269271418452263,-0.0005521470448002219,0.002243436872959137,0.0003830719506368041,0.0013349283253774047,-0.0018173368880525231,0.0037150890566408634,0.0032622776925563812,0.0038073365576565266,-0.0006230298895388842,0.005444888491183519,0.007646186742931604,-0.006244020536541939,0.0016794545808807015,-0.004765304271131754,0.002882036380469799,0.0019335044780746102,-0.0023894973564893007,-0.0014983097789809108,-0.00038630212657153606,-0.003281325101852417,-0.0020126057788729668,-0.001705148839391768,0.002671767957508564,-0.0015072901733219624,-0.0033789980225265026,-0.003004110883921385,-0.00022552104201167822,-0.000975338276475668,0.00022507761605083942,-0.0008441635873168707,0.0033850655891001225,-0.002100883051753044,0.0016649760073050857,0.002298222854733467,0.005025094375014305,-0.0031817408744245768,0.002948860405012965,-0.002906305715441704,-0.0009134356514550745,0.002284554298967123,-0.0003817358519881964,0.004631311632692814,-0.0007283835439011455,0.001309785759076476,-0.0009906379273161292,0.0007727493066340685
释出,-0.0027848617173731327,-0.004834408406168222,-0.0036499816924333572,0.0026291320100426674,-0.0013652383349835873,-0.007071889471262693,-0.0014586533652618527,-0.00015086401253938675,0.0019707120954990387,-0.0018713662866503,0.0038335141725838184,0.004160525277256966,-0.004257959313690662,-0.004027909133583307,0.00041529061854816973,-0.0023796537425369024,0.002188584767282009,0.0026433481834828854,-0.002033220138400793,-0.0007125572883524001,-0.004194146022200584,-2.5331974029541016e-05,9.959179442375898e-05,4.5018852688372135e-05,0.0029149367474019527,0.003186183050274849,-0.002473115688189864,0.0021036434918642044,0.002604878041893244,-0.0019523724913597107,-0.004986617714166641,-0.0004291405202820897,0.0005456338403746486,0.0030278232879936695,-0.0002994011156260967,0.004228455480188131,0.0012163888895884156,0.004952119663357735,-0.00538519024848938,0.0015634804731234908,-6.928539369255304e-05,0.000881354499142617,0.00036898982943966985,-0.002906288718804717,-0.004093167372047901,0.0012624352239072323,-0.004115254618227482,0.002350809518247843,-0.0006203577504493296,0.0016654961509630084,-0.005651063751429319,0.003067481331527233,0.0045992536470294,0.0005699262255802751,0.0036866320297122,-0.004610635340213776,0.0002916678786277771,0.0013183412374928594,-0.0020048560108989477,0.002748727798461914,-0.0006395017262548208,0.0023785745725035667,-0.0013735255924984813,-0.008007250726222992,0.0018166063819080591,-0.0020538480021059513,-0.00653540063649416,-0.004361174069344997,-0.001086410484276712,-0.0014147714246064425,0.0010280883871018887,-0.0019030722323805094,0.0027970080263912678,-0.0013015423901379108,-0.0038760597817599773,-0.0008395862532779574,-0.0014902196126058698,0.0005205519264563918,-0.003101728158071637,0.0015844362787902355,-0.0035887116100639105,-0.0005535787204280496,0.0014031588798388839,-0.0013584742555394769,0.0006702287355437875,-0.0030469573102891445,-0.0005715081351809204,0.00016246558516286314,-0.0007147856522351503,0.001083888579159975,0.005100857932120562,-0.003978358116000891,0.0015313789481297135,0.00033018295653164387,0.0006363131105899811,-7.0695532485842705e-06,0.002861945191398263,-0.006564412731677294,-0.003047242993488908,0.0026522527914494276
赚,-0.002538948319852352,-0.005348100792616606,-0.000896824523806572,0.0016579156508669257,-0.007181506138294935,-0.0009761994588188827,0.002392638474702835,-0.0028209048323333263,-0.0030698839109390974,0.0029298660811036825,-0.0010125699918717146,0.0022712063509970903,-0.0004674438387155533,-0.0004152832552790642,-0.00501034501940012,-0.0013387929648160934,0.007040585391223431,0.007604784332215786,0.005189003422856331,0.003100789152085781,0.004177707247436047,0.0007073386805132031,0.006998162716627121,-0.003136994084343314,-0.000607458408921957,0.00421891501173377,-0.0021429499611258507,0.00030902959406375885,-0.008377620950341225,-0.007998643442988396,0.005532653536647558,-3.7154415622353554e-05,0.000543251633644104,-0.004795544780790806,0.0048828283324837685,0.0037204634863883257,0.0014791428111493587,0.0033203421626240015,0.0017834273166954517,0.0031344881281256676,0.00011820823419839144,-0.00858513917773962,-0.0026541603729128838,-0.0034871476236730814,0.005217788275331259,-0.006999173201620579,-0.002082452643662691,-0.001172219985164702,0.002444955287501216,0.004643975757062435,0.0002820412628352642,0.0008809420396573842,0.0037771642673760653,0.0016749115893617272,-0.0026488942094147205,0.002572599332779646,0.0017394283786416054,-0.0025211095344275236,-0.010859647765755653,0.00884317047894001,-0.0032797683961689472,0.004359431564807892,-0.0005196143174543977,-0.0009566623484715819,-0.004454130306839943,-0.0035178926773369312,-0.001606939360499382,0.003797275712713599,0.001639742637053132,-0.0037055572029203176,-0.0026700496673583984,-0.0018977008294314146,0.00634232722222805,-0.002931855386123061,-0.0032859514467418194,-0.00488385371863842,0.005260561127215624,-0.007413001731038094,-0.0013465937227010727,-0.0028509730473160744,-0.0014274701243266463,0.00130840961355716,0.003480582730844617,-0.007342936471104622,0.0003023473545908928,-0.00021730666048824787,-0.002662439364939928,0.005302400328218937,0.0012840002309530973,0.005136416293680668,0.0011864104308187962,0.002504331525415182,0.0038245420437306166,-0.0022266944870352745,-0.0029522613622248173,-0.0017561654094606638,0.005066664889454842,-0.0017950560431927443,-0.0006286278367042542,-0.0032651489600539207
提到,0.002542999107390642,0.0005793331656605005,0.00033612234983593225,0.0030673339497298002,0.0005227818619459867,-0.003070551436394453,0.0033734310418367386,0.003194145392626524,0.003926197066903114,0.0028582876548171043,-0.000698355957865715,0.0014456696808338165,-0.005031828302890062,-6.046807538950816e-05,-0.0062523651868104935,-0.0015326942084357142,0.003929547965526581,-0.0016792442183941603,-0.004147491883486509,-0.0036569898948073387,0.0012166202068328857,0.0022379844449460506,-0.0030551329255104065,-0.004112170077860355,-0.0020928694866597652,-0.0015747121069580317,-0.0037853638641536236,-0.003951249644160271,8.677822188474238e-05,0.002338685793802142,-0.001732605160214007,0.0034985148813575506,0.0028119359631091356,0.0018184593645855784,0.0021543093025684357,-0.00011982466094195843,-0.00154273328371346,-0.004687515087425709,-0.0015889012720435858,-0.007291980553418398,0.003534013405442238,-0.005512868985533714,-0.002923206891864538,-0.0005549165653064847,0.0004646669840440154,0.0015707294223830104,-0.006367404945194721,0.003145712660625577,0.0021297766361385584,0.0028411322273314,-0.004712044261395931,-0.00201686704531312,0.0026854134630411863,-0.0006925202906131744,0.0038226209580898285,0.005448010750114918,0.00027687661349773407,-0.003707932773977518,-0.001221023267135024,0.0037200627848505974,-0.0008969950722530484,0.0008713920251466334,-0.0030986876226961613,-0.0022925587836652994,0.0005634956760331988,0.003317436669021845,0.005184279754757881,0.002102548722177744,-0.0037377425469458103,-0.00041303603211417794,-0.0008045528666116297,-0.0013279871782287955,0.004111234098672867,0.0022369390353560448,0.00029374484438449144,-0.0016874023713171482,0.0018039182759821415,0.004267696291208267,0.0016867020167410374,0.00014591566286981106,-0.0031948478426784277,-0.005487853195518255,0.00025826075579971075,-0.003349421313032508,0.00450366735458374,-0.0002720155753195286,0.0011928658932447433,0.0016134644392877817,0.0012317090295255184,0.0030344058759510517,-0.0010262510040774941,-0.004621631465852261,-0.00024409848265349865,0.00023950228933244944,-0.001913590356707573,-0.00350490165874362,-0.006199520081281662,-0.0015371207846328616,0.0029300544410943985,-0.005458674393594265
有,-0.03088180348277092,0.01402230467647314,0.02299429103732109,0.034090545028448105,-0.008125204592943192,-0.01830397918820381,0.003720223670825362,0.022442005574703217,-0.00988696701824665,-0.010572252795100212,-0.007512420415878296,-0.033600304275751114,-0.014352181926369667,0.011380443349480629,-0.008024410344660282,-0.03027544915676117,0.00027938629500567913,0.0009993952699005604,0.006578847765922546,-0.0470324382185936,0.015430789440870285,-0.003920419607311487,-0.005405190400779247,-0.0010228315368294716,0.0002694004215300083,0.0027771724853664637,-0.022334828972816467,-0.014111677184700966,-0.004503021948039532,0.009368890896439552,0.015252008102834225,-0.019822563976049423,-0.009297505021095276,-0.00806304533034563,-0.007753032259643078,0.01752316951751709,0.014516172930598259,-0.011382000520825386,-0.01966850273311138,-0.0259290412068367,0.008803525008261204,-0.01805581897497177,-0.017268862575292587,-0.01413276419043541,-0.0008508604951202869,0.0037734187208116055,-0.018503304570913315,0.02253088355064392,0.012308490462601185,0.015070189721882343,-0.008661129511892796,-0.0022659453097730875,-0.004070066846907139,0.011143090203404427,0.004109199624508619,0.010110128670930862,0.013824008405208588,-0.0036234732251614332,-0.022279582917690277,0.008953152224421501,-0.005908972583711147,0.006054752040654421,-0.001469254377298057,-0.005337859038263559,-0.00019761431030929089,-0.012986291199922562,0.006743698380887508,-0.018154185265302658,-0.012959029525518417,0.03402223438024521,-0.004753810819238424,-0.010902549140155315,-0.00303225452080369,-0.002116429852321744,0.014346428215503693,0.0032504438422620296,0.008150222711265087,0.003890434978529811,-0.007334611844271421,-0.0015872372314333916,0.006033776793628931,0.0013692401116713881,0.0005958721740171313,0.007291697431355715,-0.007761400192975998,-0.004130816552788019,0.003608046332374215,0.009429211728274822,0.02137637697160244,0.005066996905952692,-0.007755361497402191,-0.005386284552514553,0.00526275672018528,0.015162614174187183,0.011651738546788692,0.010668924078345299,0.010685588233172894,-0.01190266665071249,-0.013942272402346134,-0.004241043236106634
满,0.005394885316491127,0.00358081073500216,0.004501632414758205,0.0019235244253650308,0.0018130762036889791,0.005131648387759924,0.0031953928992152214,6.061885505914688e-05,-0.008110902272164822,0.0006558273453265429,-0.0055250790901482105,-0.0009417072287760675,-0.004464136902242899,-0.0008639281149953604,-0.0009573942515999079,-0.006278274580836296,0.0005795660545118153,-0.0016118200728669763,9.027421765495092e-05,-0.007854163646697998,-0.0027433442883193493,0.0035240999422967434,0.00010070577263832092,0.0017068046145141125,0.00513093825429678,-0.002426614286378026,-0.008204400539398193,-0.0023472390603274107,-0.007795048877596855,0.0018725574482232332,-0.001957644009962678,-0.003987693693488836,0.0006928904913365841,-0.005559050012379885,-0.0034930454567074776,-0.0017849821597337723,0.0033821314573287964,-0.007166823372244835,0.003050957340747118,-0.00013169145677238703,-0.001547986175864935,-0.003694710088893771,0.0015250432770699263,-0.0002654585987329483,0.006090536713600159,-0.00029213872039690614,-0.0036421348340809345,0.009520330466330051,-0.006404131650924683,0.007314210291951895,-0.004294956102967262,0.0019871799740940332,0.003998785279691219,0.0005981652066111565,0.0011520071420818567,0.0068761855363845825,0.004348992370069027,-0.004760044626891613,0.0037009366787970066,-0.006102715618908405,-0.00817196350544691,-0.0069901905953884125,-0.007829942740499973,-0.006287180818617344,-0.003886858467012644,-0.005424839910119772,0.0053326841443777084,0.0025631259195506573,0.00047517288476228714,-0.001139446860179305,-0.004354914650321007,0.005956107750535011,0.0021800571121275425,0.0023588542826473713,0.0011458955705165863,0.000628590234555304,0.0024392481427639723,-0.005193603225052357,0.007537843659520149,0.002249854849651456,0.005292527377605438,-0.006933949887752533,-0.0076569849625229836,0.0017755611333996058,0.002334826858714223,0.006015364546328783,-0.0022003818303346634,0.0063501400873064995,-0.0029949143063277006,-0.0008654193370603025,0.0027325961273163557,-0.0025426195934414864,0.005480318795889616,0.006679908372461796,-0.0011290742550045252,-0.006566798314452171,-0.00488810520619154,0.0048624062910676,-0.0010315439430996776,0.006178597919642925
转述,-0.004957112483680248,0.000335380551405251,-0.0014868685975670815,-0.003416706109419465,1.2832344509661198e-05,-0.0011643872130662203,-0.004441407509148121,0.0009149997495114803,-0.002510737394914031,-0.002740740543231368,0.0022939606569707394,-0.005053753033280373,0.004294682759791613,0.0040186867117881775,-0.004692655988037586,-0.0003844425664283335,-0.0026620756834745407,0.004501171875745058,0.0023978452663868666,0.0018077217973768711,0.003469681367278099,0.0002288027899339795,-0.008106237277388573,0.0022557293996214867,0.0007749815704301,-0.00046356196980923414,0.002005073707550764,0.001444149878807366,-0.0012145881773903966,0.0017869980074465275,0.0003879287978634238,0.0037219207733869553,-0.00010562257375568151,0.0015640247147530317,-0.0019479608163237572,0.004089763388037682,-0.002269272692501545,0.00272445660084486,-0.002074523363262415,-0.005234444513916969,-0.00138677260838449,0.0005229050293564796,-0.0068694110959768295,-4.1201128624379635e-05,0.0024437953252345324,0.0007260187994688749,0.0012215254828333855,-0.0033775658812373877,0.0012975761201232672,0.0030619753524661064,-0.003821947844699025,0.0028628138825297356,0.004713849630206823,0.00017341383500024676,0.0022841067984700203,0.0003167218528687954,-0.0015263338573276997,-0.004876147489994764,-0.0021260313224047422,0.006485557183623314,-0.0004993998445570469,-0.0035376364830881357,0.004000461660325527,-0.0016366944182664156,0.0038090855814516544,0.0018392608035355806,0.0029672496020793915,0.0027469738852232695,0.002237706445157528,-0.0019507104298099875,3.423319139983505e-05,-0.003945162519812584,-0.001075417036190629,0.006765588186681271,0.00546653289347887,-0.001499841921031475,-0.0003702252288348973,-0.002214397769421339,-0.0003753353375941515,0.0020017074421048164,-0.004301644396036863,-0.00012760498793795705,0.0029055606573820114,-0.003811882110312581,-0.0010613905033096671,0.0011054640635848045,-0.000613110838457942,-0.0019498409237712622,0.002259941538795829,-0.00041009532287716866,-0.0022322130389511585,0.0035233707167208195,0.0018706461414694786,0.006817290559411049,0.0005685182986781001,-0.0008985618478618562,0.0016657705418765545,-0.0024319931399077177,0.0006160413613542914,0.001501712016761303
痛除,0.00011713482672348619,0.0002520853013265878,0.0014707202790305018,-0.001747563132084906,5.883643461856991e-05,-0.0028719771653413773,-0.0019588349387049675,0.00024085165932774544,0.003716601524502039,0.00014645420014858246,0.0030555804260075092,-0.0020512074697762728,-0.006661498453468084,0.00043181830551475286,0.003930964972823858,-0.003895107191056013,-2.7636997401714325e-05,-0.0017869643634185195,0.0004998745862394571,-0.0006362871499732137,-0.002650824375450611,-0.0031043351627886295,-0.003313558641821146,-0.004898709245026112,-0.003640748094767332,-0.002436975482851267,-0.00036179949529469013,-0.0031466176733374596,-5.718859029002488e-06,0.0025951226707547903,-0.004323167726397514,-0.005005912855267525,0.0013855858705937862,0.0005387598648667336,0.0016439214814454317,-0.00013146549463272095,-0.006421765312552452,-0.003156561404466629,-0.0015250772703438997,-0.0014447803841903806,0.006178755778819323,-0.004648356698453426,-0.00025940476916730404,0.0037568206898868084,-0.007532533258199692,0.00418652081862092,0.00413540517911315,-0.0011757459724321961,0.0023575713858008385,0.0013969936408102512,-0.0002469245810061693,2.104579471051693e-05,-0.003886645194143057,0.0036996614653617144,-0.0015672228764742613,-0.001246078172698617,-0.0022304069716483355,-0.0014575100503861904,0.0005651316605508327,-0.0006855253595858812,-0.001367144868709147,0.0036821728572249413,-0.0010296107502654195,0.0008171697845682502,0.002244950272142887,0.0010820047464221716,0.001952462480403483,0.0014131668722257018,0.0016692096833139658,0.001137289684265852,0.002329896902665496,-0.003116799518465996,-0.00032568720052950084,0.0003725135466083884,0.0026692708488553762,-0.004398727789521217,0.004585193935781717,0.002070496091619134,0.00047070783330127597,-0.0034916731528937817,0.0021847328171133995,-0.005124283023178577,0.0032371534034609795,0.0022153507452458143,0.004927043337374926,0.0032078661024570465,-0.0025024611968547106,0.0016741094877943397,-0.0017590904608368874,0.005932200234383345,0.00215655448846519,0.0014363906811922789,0.00017378968186676502,0.002475237939506769,0.006656920071691275,0.0023341705091297626,-0.0004008059040643275,-0.0018729324219748378,-0.004841956775635481,0.0029259314760565758
听,-0.011120191775262356,0.0018592544365674257,0.008662164211273193,0.011837663128972054,-0.004909895826131105,-0.006094983778893948,0.0013794566038995981,0.0073190899565815926,-0.009126713499426842,-0.003690006211400032,-0.005509896203875542,-0.008756956085562706,0.0017466663848608732,-7.587578147649765e-05,-0.0002994632814079523,-0.008087432011961937,-0.00669733015820384,-0.0038130832836031914,0.0009188457624986768,-0.010386993177235126,0.01022113487124443,0.00617622397840023,-0.000924259889870882,-0.0009124961216002703,-0.003827084321528673,0.004539245739579201,-4.56717680208385e-05,-0.009706015698611736,-0.009032401256263256,-0.0001863453653641045,-0.0019722820725291967,-0.0011950988555327058,-0.0009503806359134614,0.004085068590939045,-0.002055236604064703,0.00838573556393385,0.000150016276165843,0.004635251592844725,-0.00019118073396384716,-0.005399102345108986,0.007865491323173046,-0.002923686522990465,-0.004812023602426052,-0.0030804737471044064,-0.0008868823060765862,-0.003624123753979802,-0.013838212937116623,0.012269491329789162,-0.0037239440716803074,-0.00027231546118855476,-0.005080017261207104,-0.0027135086711496115,-0.004382853861898184,0.001459288876503706,0.0011781801003962755,0.007125701755285263,0.0069292765110731125,-0.0030774849001318216,-0.0019662673585116863,0.006656721234321594,-0.0033565268386155367,0.0011657244758680463,-0.001870773732662201,0.004008390009403229,-0.005114689003676176,-0.0030925306491553783,-0.0003182697109878063,-0.00022633373737335205,-0.002277916995808482,0.010121827945113182,-0.0012004947056993842,-0.001025000587105751,-0.0009042159654200077,-0.01045739371329546,0.008255270309746265,-0.0006877034902572632,0.0033327399287372828,0.003104654373601079,-0.008535266853868961,-0.001928728073835373,-0.00047589349560439587,0.003779225517064333,-0.00425726780667901,0.0013392484979704022,-0.003433236386626959,0.0006893483805470169,0.0021484498865902424,0.004551734775304794,0.007875032722949982,-0.0020848505664616823,0.002602883381769061,0.00479102460667491,-0.00024064257740974426,0.009919283911585808,0.008315324783325195,0.006505659781396389,-0.004784195683896542,-0.0011217689607292414,0.004209770355373621,0.0024678711779415607
守成,-0.0032213209196925163,0.0002946809399873018,0.0002673191484063864,0.002584848552942276,-0.0019335995893925428,0.004843889735639095,-0.005097950343042612,0.0007269027410075068,0.0037621294613927603,-0.0014364745002239943,0.00012540817260742188,-0.006872011348605156,0.0013213410275056958,-0.00045268144458532333,-0.003370636608451605,-0.0037430054508149624,0.0030567171052098274,0.0035561262629926205,0.000860765459947288,0.003844266990199685,-0.0008954512886703014,-0.005618141498416662,-0.001093007274903357,-0.0067667970433831215,0.0018271481385454535,0.0038691346999257803,-0.00046431412920355797,-0.0025586518459022045,-0.0024599856697022915,-0.0006134869181551039,-0.000978579162620008,0.0002911054762080312,-0.003189441282302141,0.0016071206191554666,0.0027666082605719566,-0.0007770559750497341,0.0008356475154869258,-0.002623881446197629,0.0005078263347968459,0.0017280463362112641,0.003112976672127843,-0.0033371811732649803,-0.0037312032654881477,0.004529508762061596,0.001391899073496461,-2.69254669547081e-05,-0.0001772840041667223,-0.002534199506044388,-0.004588882438838482,-0.0017640336882323027,0.003559821518138051,0.0012471155496314168,-0.002385249827057123,0.0015049651265144348,-9.013072121888399e-05,0.0004612506600096822,-0.0018712326418608427,0.0002668830566108227,0.007824434898793697,0.002368288580328226,-0.0049018459394574165,0.0043304190039634705,-0.000495431711897254,0.0019053008873015642,0.00036106817424297333,-0.0024552824907004833,0.0017245713388547301,0.004213701467961073,-0.00036119413562119007,-0.0012429069029167295,0.0037208390422165394,0.00422679353505373,0.0012898716377094388,-0.0014084044378250837,0.003214561613276601,-0.0009110808023251593,-0.006596803665161133,-0.001961343688890338,-0.00894579105079174,-0.005822417791932821,0.003047281177714467,0.0037585091777145863,0.0013981459196656942,-0.0022133737802505493,-0.0014265051577240229,-0.005371262319386005,-0.00016593770124018192,-0.003600622992962599,-0.00041907094419002533,0.005122049245983362,-0.0001155491336248815,-0.0008570595527999103,-0.0035718283616006374,0.0025054956786334515,0.004924389533698559,0.001768068061210215,-0.0013291207142174244,-0.003504851832985878,0.004049420356750488,-0.0004991734167560935
运要,-0.00422833114862442,0.0003271225141361356,0.004334158729761839,0.000489471887703985,-0.0005094244843348861,0.004768043290823698,0.003113660030066967,9.35806892812252e-05,0.004115008283406496,-0.0014358590124174953,-0.0009190862765535712,0.004042012616991997,0.002059397753328085,-0.0009128008969128132,-0.0021284371614456177,0.0013726159231737256,0.004672680981457233,-0.0008350979769602418,-0.002179236151278019,-0.004016743041574955,0.001260504126548767,0.003973460756242275,-0.00620066374540329,0.004707223270088434,0.0015126231592148542,0.0018532242393121123,0.0017141987336799502,-0.0004446370876394212,0.0005143878515809774,0.0014567235484719276,-0.0028172917664051056,-0.0027218814939260483,0.0016484595835208893,-0.0008159832796081901,0.0019400219898670912,0.0009705297416076064,-0.0018234786111861467,-0.0005337789771147072,0.003091549500823021,0.00018961605383083224,0.0030053136870265007,0.0037492518313229084,0.001584847690537572,-0.0013286205939948559,-0.002306490670889616,0.0005254424177110195,-0.0006444933824241161,0.001292938133701682,0.001089839730411768,0.0025482759810984135,-0.0009268238209187984,3.81876016035676e-05,-0.0032579698599874973,0.002382284961640835,-0.001351427985355258,-0.0064718821085989475,0.0034666371066123247,-0.0017941412515938282,0.002377118216827512,-0.0024134661071002483,0.0036425706930458546,-0.0035360921174287796,0.0013381124008446932,-0.006024341098964214,0.003091986756771803,0.0007041376084089279,0.002982695121318102,-0.0031538205221295357,0.0007616790244355798,4.585809074342251e-05,0.004615555517375469,-0.0011440403759479523,-0.0011251738760620356,0.002075747586786747,0.0035202326253056526,-0.0014954839134588838,-0.0008770653512328863,0.002964981598779559,0.0023028524592518806,-0.0050835455767810345,-0.004452837631106377,0.004707700107246637,0.0033146459609270096,-0.0032381028868258,0.002054404467344284,0.0007490165298804641,0.001999653410166502,-0.0037737595848739147,-0.00010657403618097305,-0.0007044273661449552,-0.0017417240887880325,0.004952956922352314,-0.007287416607141495,0.0022663865238428116,0.0030508623458445072,-0.0036206578370183706,-0.0031608017161488533,0.0006315343198366463,-2.7383328415453434e-05,0.004299950785934925
娘家,0.002033465076237917,0.004616189748048782,0.0024168856907635927,0.003654476488009095,-0.0006016658153384924,0.0010012669954448938,-0.0016375614795833826,-0.002090170281007886,0.0009785934817045927,-0.003028864972293377,0.002288751071318984,0.00012792041525244713,-0.00045731919817626476,0.0030801985412836075,-0.004860892426222563,-0.004186311736702919,-0.0016685875598341227,-0.000118481635581702,-0.0006893477402627468,-0.00250345841050148,-0.002700086683034897,0.0003781347186304629,-0.00222560903057456,0.0016957493498921394,0.0007148016011342406,-0.002498266752809286,-0.00011204497423022985,-0.005556332878768444,0.0035908103454858065,-0.006632409058511257,-0.004834845662117004,-0.00020578940166160464,-0.003646516939625144,-0.0026292698457837105,0.0020330639090389013,0.004645039327442646,0.0011103375582024455,0.0010087820701301098,-0.004091550596058369,-0.005887181498110294,-0.0014155913377180696,-0.0020092488266527653,0.002879942301660776,0.001374526065774262,0.0049213538877666,-0.0010042776120826602,0.0037655478809028864,0.0013876303564757109,0.0004150857566855848,0.0005423602415248752,0.002647865330800414,0.0024855900555849075,0.0045673963613808155,-0.002094818279147148,0.004202646669000387,-0.0045016189105808735,0.0016243602149188519,0.00040319038089364767,-0.0035984686110168695,-0.0010093296878039837,-0.0012024824973195791,-0.001461900188587606,5.782884545624256e-05,0.00047348873340524733,0.0006831305800005794,-0.0005870896857231855,-0.0035426458343863487,-0.0012998082675039768,0.0022689946927130222,0.0007282145088538527,0.00493977777659893,-0.001820338424295187,-0.0011240494204685092,0.0008992902003228664,0.0048260437324643135,-0.0025163704995065928,-7.347672362811863e-05,-0.0026315501891076565,0.0007003619102761149,0.00484069436788559,0.002445944817736745,0.0043911440297961235,-0.0024407613091170788,-0.002299318090081215,0.0017680932069197297,0.0021387955639511347,-0.0010309222852811217,-0.0040593319572508335,3.7079211324453354e-05,-1.126178540289402e-05,0.0040050046518445015,-0.0037198702339082956,0.0012922175228595734,-0.0010250165360048413,-0.003232691204175353,-0.0014959071995690465,-0.0050591579638421535,0.003633914515376091,-0.0004901596112176776,0.0013020533369854093
很大,-0.002595219761133194,0.0013547862181439996,-0.0009807925671339035,-0.0006282947724685073,-0.002013237914070487,-0.004187185317277908,-0.0008607788477092981,0.0015100394375622272,0.0052609918639063835,-0.00591763760894537,0.0011489152675494552,-0.00677085667848587,0.0032880520448088646,-0.0010451208800077438,0.005440535023808479,-0.0007529875729233027,2.699147444218397e-05,0.0023396648466587067,-0.0009119416354224086,-0.006168716587126255,-0.0009739426895976067,-0.0007857719901949167,0.004167633131146431,0.0004441776545718312,2.4057109840214252e-05,0.004568907897919416,0.0027012566570192575,-0.005691893398761749,0.0015162390191107988,0.0034559068735688925,0.0008836037013679743,-0.006238868460059166,-0.00019824435003101826,0.00030172127299010754,0.0038424301892518997,-0.004734579473733902,-0.0019298916449770331,-0.004549744073301554,-0.004741881974041462,-0.006283068563789129,-0.0064355479553341866,-0.002047289628535509,0.001196620985865593,-0.0029069636948406696,-0.0018640948692336679,0.0038868924602866173,-0.0030275247991085052,-0.0016249892069026828,0.003767884336411953,0.0005267821252346039,0.001249163644388318,0.0006414863164536655,0.0034527312964200974,0.004009864293038845,0.002270630095154047,-0.001206969958730042,0.0019859487656503916,-0.005165356211364269,-0.0010480821365490556,-2.7141300961375237e-05,0.007902521640062332,0.0003347774036228657,0.004957869648933411,0.0036151474341750145,0.0030725642573088408,-0.001494696130976081,0.0059420280158519745,-0.002114958828315139,-0.0057393936440348625,0.0010060372296720743,-0.0023343751672655344,0.003877692623063922,-1.0723888408392668e-05,0.004284054506570101,0.00029395055025815964,0.0025688731111586094,0.00273864041082561,-0.0023406154941767454,0.002227610209956765,-0.00016137276543304324,-0.004800650291144848,0.004903264343738556,0.003296640468761325,-0.004097417928278446,0.0001247478649020195,0.004499679431319237,-0.0019482487114146352,-0.00013775235856883228,-0.0006461264565587044,-0.0022473661229014397,-0.0016562306554988027,0.0026860381476581097,0.0025104545056819916,0.0010496482718735933,-0.002203637734055519,0.0023786271922290325,0.00011832872405648232,-0.0022295680828392506,-9.604881051927805e-05,-0.0022031255066394806
衰小,0.003267709631472826,0.001023188466206193,0.00465801078826189,0.0003891297383233905,-0.00030168192461133003,6.496469723060727e-05,-0.003175577148795128,0.004410546272993088,0.006375034339725971,-0.0021609431132674217,-0.0004028948023915291,-0.004512803629040718,-0.0003147454699501395,-0.0018595741130411625,0.004645898472517729,-0.0035208624321967363,0.000912061077542603,0.004276098683476448,-0.0006861879955977201,-0.004981915932148695,-0.003170731710270047,0.0038178786635398865,0.006177320145070553,-0.003666779026389122,0.00611571641638875,-0.0023341025225818157,0.0028527670074254274,0.0036796797066926956,-0.0012244973331689835,-0.001999568659812212,-9.973767737392336e-05,-0.00011636049021035433,0.004527098033577204,0.00010349717922508717,0.00198795716278255,0.0008752075955271721,0.005861229728907347,-0.0006611311691813171,-0.0018838365795090795,0.0018006684258580208,0.0035784784704446793,0.0008663946064189076,-0.004764386918395758,-0.0007007133681327105,-0.0010532110463827848,0.0031835404224693775,-0.0016739789862185717,0.0026195766404271126,0.00013357389252632856,-0.0014877708163112402,0.00015409154002554715,-0.0033862777054309845,-0.003916492220014334,-0.0037094280123710632,0.004941798280924559,-0.0005353505257517099,-0.00032249512150883675,0.0027433421928435564,0.0018760892562568188,-0.003788591828197241,0.001328201498836279,-0.0003517145523801446,-0.006014840677380562,0.005625091027468443,0.0005303215002641082,0.005447922740131617,0.0013990608276799321,-0.00247321929782629,0.000778987945523113,0.0010160249657928944,0.0011710585094988346,0.003754704026505351,0.0023085824213922024,7.17769144102931e-05,-0.0040906877256929874,0.006678886245936155,0.0018057749839499593,-0.0014646445633843541,-0.0027525692712515593,-0.004516637418419123,-0.004260547924786806,-0.0019605206325650215,-0.004648049362003803,1.492438605055213e-05,0.0007870460976846516,0.0016797278076410294,-0.0009617431787773967,0.0009216854814440012,0.0032555407378822565,-0.0014070140896365047,-0.004742012359201908,0.004315588623285294,0.004164465703070164,0.0007278246339410543,-0.001139568630605936,0.003408270888030529,0.0027490146458148956,-0.0020354436710476875,0.000248604454100132,-0.0052188970148563385
财,0.00425597932189703,0.0004763184115290642,-0.006905514746904373,-0.004354339558631182,0.002175325760617852,0.0010152212344110012,-0.000760541413910687,0.0017233176622539759,-0.0017976230010390282,0.0017829833086580038,0.0022993511520326138,0.0031559655908495188,-0.00481938011944294,-0.007980789989233017,0.0020152046345174313,-0.003968244884163141,0.0033722873777151108,0.005717955529689789,0.0030671206768602133,-0.0022184269037097692,-0.0016733664087951183,-0.009166854433715343,-0.0036807688884437084,0.002339675324037671,0.0046738022938370705,-0.004045208916068077,0.0032154168002307415,-0.00031471741385757923,0.00441119447350502,0.004757829941809177,0.0003530068788677454,0.0039075505919754505,-0.0005628752987831831,-0.00605414854362607,-0.0016615609638392925,-0.004900852218270302,0.0021052376832813025,-0.0041386340744793415,0.0006357396487146616,-0.003819327801465988,-0.001710717100650072,0.001088765449821949,-0.007841820828616619,0.0001566044520586729,0.003093517618253827,0.0012909327633678913,0.009357629343867302,-0.0040855021215975285,-0.0027632073033601046,0.002179101575165987,0.0045314449816942215,0.008019006811082363,0.00424155592918396,0.006147676147520542,0.0018878672271966934,0.0007242326391860843,0.000502818962559104,-0.002323487773537636,-0.00047449558041989803,-0.003866340033710003,0.0014607670018449426,-0.003954521380364895,-0.004370239097625017,-0.00258010090328753,0.008440452627837658,-0.003054311964660883,8.891057223081589e-05,0.0015571913681924343,0.0021995105780661106,0.004980955272912979,0.0058511290699243546,-0.001817404292523861,-0.0017004284309223294,-0.00042571662925183773,-0.00014127243775874376,-0.00583624979481101,0.0033039343543350697,0.0024691512808203697,-0.00415429612621665,0.0021302427630871534,-0.003049040911719203,-0.0033257054165005684,0.0035882792435586452,-0.004917625803500414,0.002389925764873624,0.005511333700269461,-0.007504459470510483,0.0074365753680467606,0.00057800835929811,0.0007760671433061361,0.002618128200992942,-0.004383532330393791,0.0018428935436531901,0.0025524585507810116,0.0006406374741345644,0.00289361784234643,-0.005459040403366089,-0.0015565907815471292,-0.005008736625313759,0.004363380838185549
留,0.004686926957219839,-0.006000167690217495,0.006339057814329863,-0.0031023756600916386,-0.0022633823100477457,0.007068963721394539,-0.0062570879235863686,0.001495187752880156,-0.002460411749780178,0.00021974113769829273,-0.004149899818003178,0.002591246273368597,0.004277811851352453,-0.002630649134516716,0.0013685831800103188,-0.0003282662946730852,0.0013447606470435858,0.0067842984572052956,0.0022946102544665337,-4.823331255465746e-05,-0.00034036673605442047,0.004692492540925741,0.005567904096096754,0.007804042659699917,0.0034485566429793835,0.0032135676592588425,0.004204495344310999,-0.003074353327974677,-0.003138858126476407,-0.005156693514436483,0.003622335847467184,-0.004135947674512863,-0.005842301994562149,-0.00012185261584818363,-0.006511952728033066,-0.0007457388564944267,-0.006502318661659956,0.00309554859995842,-0.005153794772922993,0.0014362778747454286,0.002224421128630638,-0.00904729776084423,0.0035717354621738195,-0.0011097053065896034,-0.004425947554409504,-0.002254815772175789,0.0006694053299725056,0.006196715869009495,0.0004996807547286153,-0.002794711384922266,-0.008390949107706547,-0.006808531936258078,-0.005599529482424259,0.005766820162534714,0.0012661695946007967,0.0018036644905805588,-0.0004819701425731182,-0.0003227547276765108,0.002090941648930311,0.00034928927198052406,0.0020019724033772945,-0.0017361840000376105,-0.0014176942640915513,0.00036832550540566444,0.004655078519135714,-0.0019015014404430985,-0.005442986264824867,0.00024068844504654408,0.00727506959810853,0.0069067818112671375,0.0002921083942055702,0.0036059245467185974,0.0008296952582895756,0.0023584715090692043,0.001139672938734293,0.00032199593260884285,0.0019913821015506983,0.0006841002032160759,-0.008024116978049278,-0.002390745561569929,0.004187270998954773,0.004519046284258366,-0.001227394212037325,-0.00015131873078644276,-0.005875603761523962,-0.000137127295602113,0.007431393023580313,-0.002440094482153654,0.0008835009066388011,0.0018649848643690348,0.0021215835586190224,0.001565143116749823,-0.0016409531235694885,0.00041325308848172426,0.00470613082870841,-0.0036849905736744404,0.004119095858186483,0.0024995754938572645,0.005303812213242054,0.0032409364357590675
金,0.0028670495375990868,-0.001725684036500752,-0.004602416418492794,0.0004386953078210354,-0.0010778142604976892,0.003148402087390423,0.005085349082946777,-0.004695492330938578,-0.0045132408849895,0.000951071735471487,0.00042150821536779404,0.0059303962625563145,-0.002285708673298359,-0.0074546984396874905,0.000956239178776741,0.0017347335815429688,-0.005942571442574263,0.004101738333702087,0.0011804185342043638,-0.0031882068142294884,0.001400972018018365,0.0017358096083626151,0.002459539333358407,0.0019733442459255457,0.0006590852863155305,-0.0006764458958059549,0.0024160505272448063,-0.004183787386864424,-0.005404510535299778,-0.006668875925242901,0.0029671955853700638,-0.007126061711460352,-0.0058651636354625225,0.009364834986627102,0.0010631367331370711,0.0035012809094041586,0.0008787757251411676,-0.0022101211361587048,0.00015350249304901809,0.0003737034276127815,-0.0008703981293365359,-0.001890005893073976,-0.0021731078159064054,-0.005748636554926634,-0.002066662535071373,0.002983424812555313,-0.006399096921086311,-0.0030602412298321724,0.0006477239076048136,0.005752124823629856,-0.0031821278389543295,0.006335378624498844,-0.008267044089734554,-0.002021913882344961,0.004856005311012268,0.005403044167906046,0.0012760153040289879,0.0021532359533011913,-5.6183780543506145e-05,-0.000326317735016346,0.002604185603559017,-0.001239720731973648,0.0015364239225164056,0.0024100113660097122,-0.0039719888009130955,-0.002553235273808241,0.006088315509259701,-0.007565672975033522,-0.004921783227473497,-0.0036118756979703903,-0.0028731762431561947,0.005827723070979118,-0.003326450241729617,-0.0036462077405303717,0.0008124835439957678,0.0011659073643386364,0.001263918587937951,0.004723004065454006,-0.0011071900371462107,0.0012457447592169046,0.005445323418825865,-0.0050559863448143005,-0.004398954100906849,1.3087177649140358e-05,0.005484673660248518,0.0005357795162126422,0.008198835887014866,0.0012291776947677135,0.0017898103687912226,-0.003603188320994377,0.005633822176605463,0.0028331924695521593,-0.0005710322875529528,0.00549487117677927,0.003738870844244957,-0.0034907497465610504,0.00011717504821717739,0.0019386627245694399,0.0025386326014995575,-0.003588281571865082
也,-0.006989664398133755,0.016140036284923553,0.014821493998169899,0.020422320812940598,-0.009408924728631973,-0.010041890665888786,0.005311246961355209,0.010511945001780987,-0.00517171761021018,-0.0064178165048360825,-0.0031256957445293665,-0.018252654001116753,-0.011279819533228874,0.004007983021438122,-0.003476822515949607,-0.025389544665813446,-0.002417239360511303,-0.002694538328796625,-0.0034146271646022797,-0.03360455483198166,0.0036362172104418278,-0.009863576851785183,-0.007304521277546883,-0.008085009641945362,0.00038320012390613556,8.55955295264721e-06,-0.015346910804510117,-0.007260240148752928,-0.005379245150834322,-0.0009620303753763437,0.0048169405199587345,-0.012960748746991158,-0.004382734652608633,0.0034768301993608475,-0.005697007291018963,0.009181858971714973,0.0021338635124266148,-0.007740749046206474,-0.01774241216480732,-0.025837866589426994,-0.003991574048995972,-0.015869997441768646,-0.013124693185091019,-0.005362474359571934,-0.0057554421946406364,0.0032225269824266434,-0.006837829016149044,0.01800091192126274,0.008513673208653927,0.018254414200782776,-0.0012963978806510568,-0.0018244790844619274,0.007578639313578606,0.014712312258780003,-0.005569158121943474,0.003413951490074396,0.008523340336978436,0.0006664455868303776,-0.01710919477045536,0.0074900914914906025,0.0008839750662446022,0.0021265828981995583,0.0010369309457018971,-0.005754002369940281,-0.0016408551018685102,-0.0032164910808205605,0.00266647688113153,-0.009527204558253288,-0.013246288523077965,0.02392786368727684,-0.006013188976794481,-0.0008640906307846308,-0.0032810517586767673,-0.004815534222871065,0.00872426014393568,0.010466543026268482,-0.0005836297059431672,0.005908177234232426,-0.013113105669617653,-0.002907580928876996,0.00858926959335804,0.008863240480422974,-0.006752415560185909,0.003488701768219471,0.003900593612343073,-0.0035875055473297834,-0.0009440749417990446,0.007348416838794947,0.023215007036924362,0.003456645179539919,-0.0007356443675234914,-0.00010874145664274693,-0.003964811097830534,0.01318042166531086,0.014915674924850464,0.003001937409862876,0.0040793586522340775,-0.009569994173943996,-0.008308164775371552,0.00023416848853230476
戏里演,-0.0021846129093319178,-0.001564450329169631,0.004887099843472242,-0.0008556406828574836,0.002962262835353613,-0.002829269738867879,0.000825768627692014,-0.00042799979564733803,0.002024788176640868,0.0020617148838937283,0.001560457982122898,0.0001887168182292953,-0.002444213954731822,-0.001704032882116735,-0.0002289329277118668,0.0015749912708997726,-0.0006556118023581803,0.0002844202390406281,-0.00239793979562819,-0.0005958615220151842,0.00037806015461683273,0.00046795798698440194,0.0028927556704729795,0.004033468663692474,-0.0014801762299612164,0.001942061702720821,-0.0005742624634876847,-0.0005816275370307267,0.0025793504901230335,-0.001976998057216406,-0.0017723263008520007,0.001697862520813942,-0.000962365826126188,-0.0015836331294849515,0.0015185216907411814,-0.00010290677892044187,-0.00014142405416350812,0.00017192152154166251,-0.0005537172546610236,0.0009052351815626025,-0.0007913029403425753,-0.002021945547312498,0.0006833797669969499,0.0022515463642776012,0.003527473658323288,0.0030200888868421316,-0.002050291281193495,-0.0007163709378801286,-0.00043195480247959495,-0.002780072158202529,0.0025847021024674177,0.00027667239191941917,-0.0006061635795049369,5.162254637980368e-06,0.0004046829417347908,0.0021169644314795732,-0.0025661513209342957,-0.002469852101057768,0.0005687694065272808,9.474264516029507e-05,0.0012471189256757498,-0.0030123076867312193,-0.0012961358297616243,0.00036442658165469766,0.0013021893100813031,-0.0008938791579566896,-0.002814489882439375,-0.0011323671787977219,0.0023599215783178806,-0.0018856056267395616,0.0017728108214214444,-0.0025373995304107666,-0.0002308995753992349,-0.0028396344278007746,0.00046166489482857287,-0.0009242994710803032,-0.0017767585813999176,0.000511449936311692,0.0012442859588190913,0.002321723848581314,-0.0015005735913291574,-0.002154700690880418,0.0044805146753787994,0.0012571315746754408,0.0004021622589789331,0.003436572616919875,8.925203292164952e-05,-0.0011792381992563605,-0.0008613956160843372,0.001326465280726552,-0.0026115584187209606,-0.0017977068200707436,0.004246554337441921,0.0001537555071990937,0.003772629192098975,0.0007326240884140134,0.0035068001598119736,0.00016749314090702683,-0.0011994916712865233,0.0014014994958415627
惩罚,-0.006259174086153507,0.000977169955149293,0.00767575902864337,0.0016736966790631413,0.001215292140841484,-0.004182691685855389,0.0003835792886093259,0.0017130033811554313,-0.001269279746338725,-0.0016685512382537127,0.0006747457664459944,-0.0020134947262704372,6.025668699294329e-05,0.00446214247494936,-0.0003894777037203312,-4.8290821723639965e-06,-0.0021499006543308496,-0.0031921921763569117,0.0028567486442625523,0.002146577462553978,-0.0016634142957627773,0.0014101676642894745,0.0006903599132783711,-0.004259774927049875,-0.000935728196054697,0.004115108400583267,-0.0008443590486422181,-0.003298917319625616,-0.002165535232052207,-0.00016161450184881687,-0.002088087610900402,-0.0012459781719371676,-0.0012448718771338463,0.0021418703254312277,-0.0023339148610830307,-0.0009268750436604023,0.0016233795322477818,-0.0002267579548060894,0.002985742874443531,-0.0013172929175198078,0.0020259968005120754,0.0033231168054044247,-5.535810487344861e-05,0.002203023061156273,0.0015093564288690686,0.001813932554796338,-0.005013123620301485,0.004665344953536987,-0.006254862062633038,-0.006529686041176319,0.0018174991710111499,-0.0003671562299132347,0.0048247529193758965,0.002433217130601406,0.001193169504404068,0.0012647861149162054,-0.006469463463872671,-0.0006347638554871082,0.0004455654416233301,-0.002540246583521366,-0.0007041485514491796,0.0015961042372509837,-0.0004361902829259634,-0.007626811042428017,-0.0027818954549729824,0.0008808623533695936,-0.0016235006041824818,0.002930227667093277,0.0006319296080619097,0.0006146945524960756,-0.0013164222473278642,0.004975390620529652,0.0030020256526768208,0.0010758652351796627,0.0004316119011491537,0.0013407201040536165,-0.0010316901607438922,0.005265312269330025,0.0009788344614207745,-0.0014985956950113177,0.0042101601138710976,-0.003227551467716694,-0.001493306364864111,0.0008596015395596623,-0.004534010309726,-0.0027696467004716396,0.0046080355532467365,0.002350120572373271,-0.0026439386419951916,-0.0009801273699849844,-0.00401216559112072,0.000607306370511651,0.004134723916649818,0.001653446233831346,-0.002220750320702791,0.0009732040343806148,0.0021369410678744316,0.0012848568148911,-0.0008892338955774903,-0.0003125104121863842
链子,-0.0025850320234894753,0.0012642956571653485,-0.0074529629200696945,0.0039407918229699135,-0.0006734440685249865,0.004816537722945213,0.0021732435561716557,0.00140630011446774,-0.00022878905292600393,0.005716370418667793,0.0015896257245913148,0.002532751765102148,-0.0017905435524880886,-0.0027846023440361023,-0.0003451025113463402,0.003150438889861107,-0.004935836885124445,0.0019837936852127314,0.0023534405045211315,0.00305716460570693,0.002211908809840679,0.0032382463105022907,0.0009076077258214355,-0.0010035047307610512,0.00013160158414393663,0.004748412407934666,-0.001578856143169105,0.0016634399071335793,-0.003014750313013792,-0.003623644821345806,-0.0016761726001277566,0.0006839587586000562,-0.0002612976240925491,0.0005170676158741117,-0.008467906154692173,-0.0002703835198190063,0.004246819298714399,0.00199437839910388,-0.005897608585655689,0.00013814857811667025,-0.0037781191058456898,0.0030731603037565947,-0.0010448760585859418,0.001019661664031446,-0.00235249986872077,0.004975099116563797,0.005565665662288666,0.002684668404981494,-0.002980054821819067,0.0018509270157665014,-0.003543142694979906,0.00044044849346391857,-0.005177485756576061,-0.00400251941755414,-0.0028067450039088726,-0.0009804426226764917,0.0031317106913775206,0.0037702014669775963,-0.0003140917688142508,0.0006011740770190954,-0.0020055670756846666,0.0011720736511051655,-0.0013448174577206373,0.002988409949466586,-7.880345219746232e-05,0.0025322791188955307,0.0020991910714656115,0.0019359532743692398,0.00625050300732255,-0.0025709178298711777,-0.0005027678562328219,-1.4623859897255898e-05,-0.0058741457760334015,0.0063583822920918465,0.00039124529575929046,-0.0011779788183048368,0.005132107064127922,0.00020021323871333152,0.0023608533665537834,0.0015552097465842962,0.004428196232765913,0.002796269254758954,0.0038891411386430264,-0.0016647964948788285,0.003495096927508712,-0.0010430077090859413,-0.0028098735492676497,0.0030372682958841324,0.0005552612710744143,-0.0002070309710688889,-0.003434327896684408,0.00020291146938689053,-0.00048689532559365034,-0.0019560919608920813,-0.002830346580594778,-0.004317261278629303,-0.0010691056959331036,-0.002552510006353259,-0.0016612139297649264,0.0015153096755966544
说服,-0.0018924834439530969,0.0029878360219299793,-0.003316041547805071,0.0010436309967190027,-0.00040992192225530744,0.0009780440013855696,0.00206992169842124,0.001998026156798005,-0.00219134334474802,0.0026556607335805893,0.005178694613277912,-0.006037287414073944,0.0011576504912227392,0.0004715158138424158,-0.0012518581934273243,-0.002438907977193594,0.003603229532018304,-0.0005171360680833459,0.0010947533883154392,-0.0006420436548069119,-0.0043313708156347275,-0.0012480240548029542,-0.0005060954135842621,0.0023616335820406675,-0.0036215968430042267,-0.0004839587491005659,0.0008425447158515453,0.0009581873891875148,0.0001201240811496973,-0.0013940781354904175,-0.0008217829745262861,0.0028159909415990114,-0.0018595081055536866,0.0037418059073388577,-0.0012060939334332943,-0.0018827867461368442,0.004124713595956564,0.003465894144028425,0.0028501953929662704,0.0036086197942495346,-0.00236385315656662,-0.0020437058992683887,-0.00261824787594378,0.0002625389024615288,3.211968578398228e-05,-0.0029441919177770615,-0.002574318088591099,-0.00023994361981749535,0.0030762478709220886,-0.0016694851219654083,-0.003942928276956081,-0.0006214554887264967,-0.0009808035101741552,0.0031113435979932547,-0.0018222426297143102,-0.0010164009872823954,-0.002278224565088749,0.0020201399456709623,-0.0016761240549385548,0.0014042017282918096,0.0001418568572262302,-0.0023055511992424726,-0.007428898476064205,0.004780752118676901,0.0059351930394768715,-0.0037497428711503744,0.0028440458700060844,0.002165623940527439,0.001041787676513195,-0.006006639450788498,0.0024379645474255085,0.004512992687523365,0.005247764755040407,-0.0031285076402127743,0.0027942447923123837,-0.0005207753856666386,-0.0031888852827250957,-0.0026220811996608973,0.0009031426743604243,0.0029352514538913965,-0.0046464563347399235,0.00041186067392118275,-0.0052954889833927155,-0.0029924605041742325,0.0015801284462213516,0.003713150741532445,-0.0013143947580829263,0.0022070682607591152,-0.0008863118709996343,0.008641427382826805,0.0018090159865096211,-0.00464401300996542,0.001340143964625895,-0.0023213946260511875,0.0003478825092315674,-0.004887166433036327,0.004018854349851608,-0.0034040536265820265,0.002729106228798628,-0.00520784268155694
没来,0.0009614888112992048,-0.00014688924420624971,0.0028736658859997988,-0.0008872074540704489,-0.004027112852782011,-0.0007062425138428807,0.0006791695486754179,-0.0012756725773215294,-0.0025702831335365772,-0.002656103577464819,-0.0038861455395817757,0.0008661630563437939,0.00397889968007803,0.006598693318665028,-0.005501933395862579,-0.0027672266587615013,-0.0013005486689507961,-0.0008192597888410091,0.008625105023384094,0.0028096879832446575,-0.004409249871969223,-0.0024274634197354317,0.005820751655846834,-0.0023106250446289778,-0.0003924414049834013,-0.003074291627854109,0.0026392622385174036,-0.006467347498983145,-0.0012061427114531398,0.0015279724029824138,0.0020163427107036114,-0.0023756232112646103,-0.004488374572247267,-0.0038939937949180603,4.514819011092186e-05,-0.0014174552634358406,-0.0003676950582303107,-0.0015108617953956127,-0.0029934195335954428,-0.0021555968560278416,0.0007194186327978969,0.0022087986581027508,-0.0003751851909328252,-0.004894042853266001,-0.004462206270545721,-0.005716733634471893,-0.003465854562819004,0.002380790887400508,-0.004458483774214983,0.001529271830804646,-0.0027237017638981342,0.002052836585789919,-0.0010502811055630445,0.00346363359130919,0.003657760564237833,-0.001033667242154479,0.004220397211611271,-0.00274412683211267,-0.004443219862878323,-0.004767781589180231,-0.0010944115929305553,0.005961176939308643,0.0009201604989357293,-0.005682896822690964,-0.0008130052592605352,0.005600184202194214,0.00040692806942388415,0.0026365991216152906,0.00137320626527071,-0.0007642536656931043,-0.0005715119186788797,-0.003798543941229582,-0.005394486710429192,0.00309527269564569,0.0014483816921710968,-0.0007891838904470205,0.0035179834812879562,-0.0022064470686018467,-0.003165364731103182,-0.001745938672684133,-0.0035012003500014544,-0.0025498420000076294,-0.004171621520072222,-0.0023569015320390463,0.0012702974490821362,0.0026066056452691555,-0.001383387017995119,-0.0004233993822708726,-0.0009933938272297382,-0.0004589409800246358,0.004758051596581936,-0.0010575458873063326,0.0025632469914853573,-0.0010881978087127209,0.0012775164796039462,0.001499299774877727,0.004804688505828381,-0.0015693287132307887,0.001265145605430007,0.0006882851012051105
妈,-0.006786691956222057,0.004947710782289505,0.0008694855496287346,0.008517629466950893,0.007550290785729885,-0.0018169027753174305,-0.000537229934707284,-0.0006914122495800257,0.008127758279442787,-0.0024626615922898054,0.005052573513239622,-0.0028490377590060234,0.0059270551428198814,0.005866126157343388,0.0006299837841652334,-0.002807761775329709,-0.008185602724552155,-0.003910634201020002,-0.002603369764983654,-0.0003594192676246166,0.0003668474964797497,0.005303166341036558,-0.00011049606837332249,-0.0037501060869544744,0.002974280621856451,-0.00088708964176476,-0.004091794602572918,0.006177267991006374,-0.0033725008834153414,0.00015408964827656746,-0.0030294079333543777,-0.006654249504208565,0.0030514446552842855,0.0023697293363511562,0.006284788716584444,-0.0003742115804925561,-0.0008196112466976047,-0.0014682617038488388,-0.0010717713739722967,-0.007328299805521965,-0.005654790438711643,0.003554237773641944,-0.00575016625225544,0.0024040117859840393,-0.0005850449670106173,6.600393680855632e-05,-0.003211819101125002,0.005777943413704634,-0.007047194987535477,0.0043787406757473946,0.007184640038758516,0.0011666901409626007,-0.0011688779341056943,0.0025103918742388487,0.0021331103052943945,-0.0013744909083470702,0.005934818182140589,-0.0010869455290958285,0.002207899233326316,-0.0008199147414416075,0.0027782616671174765,-0.004333777818828821,0.001476201810874045,0.0006804633303545415,0.000446968711912632,0.002126897219568491,0.0003807125613093376,0.00047442875802516937,0.0012653482845053077,0.004932219162583351,0.00021820596884936094,-0.0014023076510056853,-0.001571345841512084,-0.0004290707875043154,-0.0018060007132589817,0.0014290442923083901,-0.005085122771561146,0.0028682632837444544,0.0029487612191587687,0.0068018194288015366,-0.0007662731222808361,0.004341197200119495,-0.0022467374801635742,0.004538138397037983,-0.005542657803744078,0.0014282719930633903,-0.0030467871110886335,0.001544869039207697,-0.002437612973153591,0.005506714340299368,0.0004458487965166569,0.0006419951096177101,-0.0005482558626681566,0.00023999507538974285,-0.0036161434836685658,0.005669420585036278,0.0001625114819034934,0.0017947736196219921,0.0005307425744831562,0.004404734820127487
竟然,0.0007363635813817382,0.004602872766554356,0.007281983271241188,-0.0020542284473776817,-0.00474147405475378,0.0005298566538840532,-0.0021767779253423214,-0.002866532886400819,-0.0039320578798651695,0.0015311832539737225,0.0025812515523284674,0.0021262543741613626,-0.0003619818016886711,-0.0021940558217465878,0.0004808316007256508,-0.0013714294182136655,-0.0013030387926846743,-0.004693875554949045,0.005164261441677809,-0.002139343647286296,0.00233353185467422,0.006563222035765648,-0.00014385185204446316,0.001997046172618866,0.005270094610750675,0.0016069449484348297,-0.0005021349643357098,0.0002680855104699731,-0.0030318163335323334,0.000120505690574646,-0.0026935155037790537,-0.0005506093148142099,-0.0014966870658099651,-0.006606669165194035,0.0029225959442555904,0.0011366067919880152,0.002246059477329254,0.0004023265792056918,0.001603977638296783,-0.0008368517737835646,0.0019198060035705566,-0.0012526712380349636,0.0021884869784116745,0.0013418998569250107,0.0038368762470781803,0.001076534274034202,0.002637553960084915,0.002161790616810322,0.0028656660579144955,0.0014319969341158867,0.0006960370810702443,-0.0018842443823814392,0.0027070902287960052,0.0010108354035764933,0.003227831097319722,-0.001566980965435505,-0.00212527671828866,-0.0023166988976299763,-0.0006129629909992218,0.003891044296324253,-0.0008864065748639405,0.0008542332798242569,0.00043731811456382275,-0.0008004239061847329,-0.003285378683358431,0.0020864736288785934,0.0031474893912672997,-0.00176239013671875,0.0018834949005395174,0.004314430523663759,0.0025871433317661285,0.0034119668416678905,-0.0005834370385855436,0.003116159699857235,-0.0028674553614109755,-0.000730149622540921,0.0014317432651296258,0.0035805916413664818,-0.004439433570951223,-0.0035764104686677456,-0.005291583947837353,-0.00048405828420072794,-0.0023070531897246838,0.0009172736899927258,-0.0018756259232759476,0.0030889934860169888,-0.00210496224462986,0.0031303786672651768,0.0024677386973053217,-0.00205281563103199,-0.002249779412522912,0.0067161861807107925,0.0015314469346776605,0.0008954416261985898,-0.002417616778984666,0.001682052738033235,-0.003803347237408161,-0.00013684481382369995,-0.0019012345001101494,-0.0019902121275663376
刺青,-0.0032052421011030674,-0.0024997154250741005,0.00034864002373069525,0.0028013454284518957,-0.0033396068029105663,-0.003738769795745611,-0.0001832073030527681,0.0021197395399212837,-0.004095746204257011,-0.0011255729477852583,-0.0052163247019052505,-0.0014363692607730627,0.0014869107399135828,-0.002710524946451187,-0.0019045814406126738,0.0003095074789598584,0.003324881661683321,0.0008233314729295671,-0.0063268039375543594,0.0006574850995093584,0.005587034393101931,-0.0046621584333479404,-0.00530878035351634,-0.0019995947368443012,-0.0003906343481503427,-0.0027724227402359247,0.00011151190847158432,-0.0008020190871320665,0.0008186736376956105,0.004918023012578487,0.002436473499983549,-0.0005357302143238485,-0.0005979884299449623,0.0021796051878482103,-0.0007489906856790185,-0.0036578981671482325,0.0035010818392038345,-0.003918214235454798,-0.0029990007169544697,-0.0008847727440297604,3.1847477657720447e-05,-0.0029993464704602957,0.00030038843397051096,0.0023090236354619265,-0.001271137036383152,0.002490362385287881,-0.0009135195286944509,0.0014524671714752913,-0.003280027536675334,-0.0011749591212719679,0.0009665671968832612,-0.0037191295996308327,0.002032146556302905,0.0021425983868539333,0.003093551844358444,0.001661414629779756,0.0005414504557847977,-0.003985371440649033,0.002912982366979122,0.00049407227197662,-0.0006915964186191559,0.0015711435116827488,-0.003202022984623909,-0.0022884593345224857,0.005068236030638218,-0.003011613618582487,-0.0010908117983490229,2.3047206923365593e-05,-0.004711874760687351,0.0020711442921310663,-0.0024520971346646547,0.0011773521546274424,-0.003280751407146454,-0.001951589249074459,-0.002243812894448638,0.0006791090127080679,0.0025442135520279408,-0.003652474842965603,0.0027120327576994896,-0.001411966746672988,0.004517239052802324,-0.0012230111751705408,-0.004703958984464407,0.006821389310061932,0.0011672403197735548,0.0017427275888621807,-0.004606925882399082,-0.00019258211250416934,-0.000639108126051724,-0.005870787426829338,-0.002744870027527213,0.0005389479920268059,-0.0009223080705851316,0.0028905379585921764,-0.0029962968546897173,0.0002587195485830307,0.005955067463219166,-0.0037798110861331224,-0.0014261651085689664,-0.003287200815975666
孝顺,0.0009985127253457904,8.541415445506573e-05,0.002282214816659689,-0.0002069392940029502,0.0019176393980160356,-0.0002931477501988411,-0.0005259950994513929,-0.0013887975364923477,-0.003562263213098049,-0.0008253417909145355,0.00040658755460754037,-0.001625864184461534,0.0016571421874687076,0.0006698537617921829,-0.0007951187435537577,4.1992636397480965e-05,-0.004204967059195042,-0.0022223563864827156,0.003414090722799301,0.0012704911641776562,0.005776532460004091,-0.000379985140170902,-0.002222243929281831,0.001644910778850317,0.0010284456657245755,-0.0019064706284552813,0.002361243823543191,-1.8445891328155994e-05,-0.0014074314385652542,0.0035280322190374136,0.005183327943086624,-0.006602576468139887,8.5506122559309e-05,0.0025845218915492296,0.003787469584494829,-0.002986466744914651,0.004943639039993286,0.002643871121108532,-0.0029881487134844065,-0.00733494246378541,-6.77589196129702e-05,0.0006692167371511459,0.0014691852265968919,0.001489582471549511,-0.002532925922423601,0.00014518562238663435,0.0016806165222078562,0.000783569470513612,0.0022001825273036957,0.0023641118314117193,-0.003778564278036356,0.0010348947253078222,-0.0014692905824631453,0.0015791840851306915,-0.0006342486012727022,0.0033139758743345737,-0.0018160538747906685,-0.0019192136824131012,0.0028016087599098682,-0.0022268439643085003,-0.00024525431217625737,0.0032697967253625393,-0.002292085438966751,-0.002339184284210205,-0.003844570368528366,-0.0018921834416687489,-0.003975166007876396,-0.00296017131768167,-0.0024537809658795595,-0.00042650196701288223,0.0006048616487532854,-0.000839643063955009,0.0006236682529561222,0.0022188748698681593,-0.004662187770009041,0.0037285126745700836,-0.00014384419773705304,-0.003659446258097887,-0.0008363047381862998,0.0012026543263345957,-0.0041264076717197895,0.0031662334222346544,-0.0029228616040199995,-0.0003222317900508642,-0.001042915042489767,-0.00746513856574893,-0.0025478852912783623,0.0009174480801448226,0.0006931967800483108,0.0022995176259428263,0.0018425993621349335,-0.004773340653628111,-0.0011015362106263638,0.0010966580593958497,0.003460889682173729,0.0012938930885866284,0.0029420144855976105,-0.0009429624769836664,0.0039209467358887196,-0.0014287796802818775
矫情,0.0014496458461508155,0.0038881043437868357,0.004214111715555191,0.0024700737558305264,0.0032593621872365475,0.002049943432211876,-0.004791362211108208,0.005600208416581154,0.0009906336199492216,-0.000349729903973639,-0.0007702828734181821,-0.004036056809127331,0.0015918237622827291,0.0010897611500695348,0.0005553367082029581,-0.0007027401588857174,-0.0011739640031009912,-0.00199340982362628,0.003918795380741358,-0.0007816128199920058,-0.004185386002063751,-0.001024845172651112,-0.0024870221968740225,0.0012043181341141462,-0.0020367829129099846,0.006951846182346344,0.0025502070784568787,-0.0005796690238639712,-0.0037660445086658,-0.0042937761172652245,0.0032841030042618513,0.0011380213545635343,-0.003426354844123125,-0.0019320235587656498,-0.002104423940181732,0.0005941215204074979,-0.005609356798231602,-0.0008864275296218693,-0.004712169989943504,0.003245358821004629,-0.003014901652932167,-0.0015250425785779953,-0.0014700132887810469,0.0036680614575743675,-0.006452691275626421,-0.003710392164066434,-0.0025399494916200638,-0.0004670938942581415,-0.002423466183245182,0.002238436369225383,-0.00040763814467936754,-0.00020908715669065714,0.0005924954893998802,0.002241807524114847,8.94651748239994e-06,-0.0008648383663967252,-0.0016321311704814434,0.003434774000197649,-0.0004928563139401376,-0.0020516773220151663,-0.0007634953362867236,0.0013313816161826253,-0.002084345556795597,-0.0025783777236938477,-0.0022086233366280794,-0.002086361637338996,0.0005033627967350185,-0.00124939507804811,-0.0012949083466082811,-0.002402195008471608,0.0012963132467120886,0.007383751217275858,0.0016017572488635778,0.0006583796348422766,0.00014849836588837206,0.0027033041696995497,0.004940346349030733,0.001770989503711462,-0.0022912679705768824,-0.0011370520805940032,0.0012491479283198714,-0.00017651496455073357,0.0004096425836905837,3.9909471524879336e-05,0.0028975445311516523,-0.00161936751101166,0.0019472925923764706,0.0016548989806324244,0.0012692181626334786,-0.0034338333643972874,-0.0009203668450936675,-0.0005087127210572362,0.0017336155287921429,4.0014972910284996e-05,0.0029826811514794827,0.0013890810078009963,0.0015434909146279097,-0.003086815122514963,-0.0030213631689548492,0.0009784719441086054
善意,-0.0024260112550109625,0.0025955240707844496,0.004766537807881832,0.0005540045094676316,0.0032362891361117363,0.001008985098451376,0.00176915992051363,-0.00516304699704051,-0.002069158712401986,-0.0014330712147057056,0.0006538659799844027,-0.0018689646385610104,-0.0005989145720377564,0.0013114805333316326,-0.0037564383819699287,-0.002853022888302803,-0.004118907265365124,-0.0020352003630250692,-0.0019432014087215066,-0.00490846810862422,-0.0007162214023992419,0.00285904249176383,-0.0007680393755435944,0.0015029890928417444,-0.0006225718534551561,-0.0022086664102971554,-0.0025265058502554893,0.0038471901789307594,-0.0019949241541326046,-0.0019217687658965588,-0.001869897241704166,0.001090793521143496,0.0025809232611209154,-0.002120156306773424,-0.0021637724712491035,-0.0045771244913339615,0.0033584185875952244,0.000853040546644479,0.002935989061370492,-0.003603700315579772,-0.002022717846557498,-0.001351859886199236,-0.0026212192606180906,-0.0036766519770026207,-0.003237966215237975,0.0006503687473013997,0.004177468363195658,0.004369203466922045,0.005575871095061302,-0.0048178015276789665,0.0007234988734126091,0.004229273647069931,0.0015443980228155851,0.0044037518091499805,0.0015123579651117325,0.0025095553137362003,0.000890503404662013,-0.003196577774360776,-0.0016074079321697354,0.0008269916288554668,0.0011486674193292856,-0.004437637515366077,0.0014796031173318624,0.0042261239141225815,-0.0063729844987392426,0.0020244335755705833,0.0015751119935885072,0.0013662920100614429,0.0032744009513407946,0.0035200524143874645,0.001499564852565527,-0.004609080497175455,-0.004174600820988417,0.0016140365041792393,0.0022599028889089823,-0.0015284291002899408,0.004823742434382439,0.0015311816241592169,-0.0038137156516313553,-0.006241451017558575,-0.003837865311652422,-0.000458215014077723,0.0059388927184045315,0.002935467753559351,0.003806687891483307,0.000664963445160538,0.004082651808857918,-0.0002888637827709317,-0.006039908155798912,0.0005029347958043218,0.002267831237986684,-0.006457081995904446,0.0026289389934390783,0.002200476126745343,-0.0014422014355659485,-0.001873592147603631,0.0022404626943171024,0.0006877002888359129,0.003076262539252639,0.0031417408026754856
算命先生,-0.0020979640539735556,0.002497420646250248,0.0011320655466988683,-0.0009063162142410874,-0.0007676906534470618,-0.00028749165358021855,-0.0005419584340415895,0.0018327697180211544,1.1615412404353265e-05,0.0003972068661823869,0.0020786880049854517,-0.000602012500166893,0.0004551284946501255,0.0015442307339981198,0.00044013408478349447,-0.002042503096163273,0.0014911071630194783,-0.0005061951233074069,0.0006255506887100637,-0.005252523347735405,0.0014547649770975113,-0.002194577595219016,0.0018142343033105135,5.737407263950445e-05,-0.0021012951619923115,-0.00180613505654037,-0.001366671989671886,-0.002840194618329406,-0.0036646726075559855,-0.0002135179820470512,-0.001019926741719246,0.0025202154647558928,0.0021371154580265284,-0.002709178254008293,0.0017706159269437194,-0.0012942570028826594,0.0002760788192972541,-0.0002929329057224095,-0.0022970824502408504,-0.0018476095283403993,0.0010622809641063213,0.0015725574921816587,-0.003424454713240266,-0.0018189960392192006,0.0012757317163050175,-0.00045515046804212034,-0.00012660633365157992,0.0006616859463974833,-0.0016050235135480762,-0.0015656909672543406,-0.0002234639978269115,-0.0034390382934361696,-4.6295495849335566e-05,-0.0026068352162837982,-0.0012516892747953534,3.5574576031649485e-05,-0.0004035535384900868,0.0012213528389111161,-0.0022228627931326628,0.0034172707237303257,0.0009024392929859459,-0.0005415167543105781,0.0007504253298975527,0.0006733161280862987,0.0003175516612827778,0.0008435510681010783,0.002107019070535898,0.0005481334519572556,-0.0029665122274309397,-0.0018059368012472987,-0.0007549949223175645,-0.001597810536623001,0.0016884454526007175,0.0016518861521035433,-0.001778147416189313,0.001650286721996963,0.0004056976467836648,-0.001940133166499436,-0.0007693406078033149,0.004885819274932146,0.0007089445716701448,-0.0019935136660933495,0.0004024714871775359,0.002142665907740593,6.601684435736388e-05,-0.0005125849856995046,-0.000874613004270941,-0.0025300132110714912,0.0007678293040953577,-0.000491505314130336,-0.0009002441656775773,-0.002781546674668789,-0.004096061922609806,0.0024845192674547434,0.0008204331970773637,-0.0004446500970516354,0.000441173993749544,2.4551409296691418e-05,-0.002541975351050496,0.00016288552433252335
