word,0,1,2,3,4,5,6,7,8,9,10,11,12,13,14,15,16,17,18,19,20,21,22,23,24,25,26,27,28,29,30,31,32,33,34,35,36,37,38,39,40,41,42,43,44,45,46,47,48,49,50,51,52,53,54,55,56,57,58,59,60,61,62,63,64,65,66,67,68,69,70,71,72,73,74,75,76,77,78,79,80,81,82,83,84,85,86,87,88,89,90,91,92,93,94,95,96,97,98,99
点击,-0.007185306400060654,0.005785044748336077,0.005202207714319229,0.006428644992411137,0.005483189597725868,-0.004169297404587269,0.0014208536595106125,0.0005799839273095131,-0.004302854184061289,0.0017501113470643759,0.002439993666484952,-0.008939949795603752,-0.0031765743624418974,-0.0014319214969873428,-0.0010773376561701298,-0.006593157071620226,0.0021886639297008514,0.0045083919540047646,-0.0044832113198935986,-0.0017169220373034477,0.005506141111254692,0.0030911127105355263,-0.0012657578336074948,-0.0034959809854626656,-0.001226102584041655,0.0033161339815706015,-0.006792069412767887,0.004218583926558495,-0.0037217740900814533,0.005870171822607517,0.006103867199271917,-0.004771580919623375,0.003389868186786771,0.0009014937095344067,-0.0037275475915521383,0.004104885272681713,-0.0041573792695999146,-0.005377911031246185,-0.0001802973565645516,-0.001375091727823019,-0.000481785973533988,-0.001884713303297758,-0.006287284195423126,0.00028434325940907,-0.0011772047728300095,0.00450334744527936,-0.004579248838126659,0.003693126840516925,0.0022067923564463854,0.008256306871771812,0.003268652129918337,-0.005211591720581055,-0.0018075916450470686,0.0009048249921761453,0.0006738326046615839,-0.00147923338226974,0.002373090013861656,-0.0010790785308927298,0.0003892197855748236,0.0014461360406130552,0.003602466778829694,0.0006664932006970048,-0.0010910467244684696,-0.0011696282308548689,-0.006640718784183264,8.333234291058034e-05,0.0007651859195902944,-0.0012850414495915174,-0.006412029266357422,0.003061414696276188,0.0014570755884051323,-0.006249732803553343,0.00035868026316165924,-0.0022803512401878834,0.002537031192332506,-0.00045007499284110963,-0.0006900103180669248,-0.0002101364079862833,0.0023376704193651676,0.0012607310200110078,0.0016175442142412066,0.0005169370560906827,0.0008472007466480136,0.005239032208919525,0.0008956314995884895,-0.0008256412111222744,-0.0022810602094978094,0.00026023469399660826,0.00043988943798467517,-0.0009084696648642421,0.0007176861399784684,-0.0009756837971508503,0.001438345992937684,-0.00092307198792696,0.002986468141898513,0.000420156866312027,0.0028986497782170773,0.004468717146664858,-0.00893881730735302,0.0017034062184393406
跳跃,-0.0011149672791361809,-0.00017969775944948196,0.0046927244402468204,-0.0006405927706509829,0.002128730295225978,0.000296218553557992,0.0025884646456688643,0.0012270092265680432,-0.0020768006797879934,-0.0037890973035246134,-0.00042372156167402864,-0.002413530368357897,-0.0014009661972522736,-0.003839145414531231,-0.004602791741490364,-0.0011080922558903694,0.0020265765488147736,-0.0036399816162884235,0.0018248897977173328,0.002316910307854414,0.002386659849435091,0.0004920440260320902,0.005316146183758974,-0.005168375559151173,-0.0027954187244176865,-0.0015004775486886501,-0.005367728881537914,-0.0010168796870857477,0.0006747213774360716,0.0006432933732867241,-0.0027100318111479282,-0.0012202218640595675,-0.0023056527134031057,0.0004938406636938453,0.0009071632521227002,0.000984887476079166,0.0038082180544734,-0.0017001477535814047,-0.003191404277458787,-0.000735068810172379,0.0044473097659647465,-0.0008029184537008405,0.0029596162494271994,0.0014532932545989752,0.006052482407540083,0.0031852375250309706,-0.00165603868663311,0.0007526261615566909,0.0006056370912119746,0.0005324153462424874,-0.0011767380638048053,-0.004534420091658831,0.001980207860469818,0.001061999355442822,-0.005602709483355284,0.005055282264947891,-0.0009565823711454868,-0.004715884104371071,-0.0012497538700699806,0.0022513465955853462,-0.002236910630017519,-0.0016533196903765202,-0.0003247197309974581,0.0012734736083075404,-0.0014909316087141633,0.0007211547344923019,0.004694365430623293,-0.004439801909029484,-0.0022005136124789715,0.002725540194660425,0.0032112644985318184,-0.0035520344972610474,0.0014141767751425505,-0.0028349184431135654,0.000552502810023725,-0.0016627785516902804,0.001950782840140164,-0.004792843014001846,-0.0005394447362050414,-0.0004185102880001068,0.005843296647071838,-0.00020128791220486164,-0.0011936393566429615,0.002576525555923581,-0.0029737011063843966,0.003310257103294134,0.0006282529211603105,0.0010715315584093332,0.0019303455483168364,0.005104562267661095,0.00040398258715867996,-0.007032753899693489,7.335771806538105e-05,0.0012280989903956652,-0.0018703528912737966,0.0015346028376370668,-0.005078344605863094,-0.0014166372129693627,-0.0017613170202821493,0.003843109356239438
是,-0.028076954185962677,0.016615670174360275,0.021980127319693565,0.02950151637196541,-0.012534169480204582,-0.0193827822804451,0.010964772664010525,0.02570955641567707,-0.005864021833986044,-0.012884932570159435,-0.004538504872471094,-0.038418322801589966,-0.01333694439381361,0.013074319809675217,-0.005113207269459963,-0.03511958569288254,-0.001720010070130229,-0.0004513000603765249,0.00024387333542108536,-0.056703824549913406,0.01380644179880619,0.004651338793337345,-0.005816437769681215,-0.001388854463584721,0.007736104540526867,0.003960461355745792,-0.021943092346191406,-0.010115544311702251,-0.00816083699464798,0.0023794653825461864,0.005417048931121826,-0.01398606225848198,-0.0028436831198632717,-0.003724911715835333,-0.007295824587345123,0.022474009543657303,0.016265656799077988,-0.017041059210896492,-0.027899693697690964,-0.03791835159063339,0.004974894691258669,-0.018176717683672905,-0.0223425030708313,-0.015817206352949142,-0.00683585274964571,0.0009950606618076563,-0.024634424597024918,0.030312538146972656,0.00700187124311924,0.01973893865942955,-0.009019818156957626,0.007613222114741802,-0.005968712270259857,0.015380465425550938,0.008798042312264442,0.005034524481743574,0.013793285936117172,-0.016428012400865555,-0.024561595171689987,0.01596706360578537,-0.00414288742467761,0.005121844355016947,-0.00836152397096157,-0.0007362202741205692,-0.0014131079660728574,-0.006654780823737383,0.009861789643764496,-0.014022601768374443,-0.022719379514455795,0.02707333117723465,-0.0032473367173224688,-0.0023224353790283203,-0.0023954398930072784,-0.015209725126624107,0.018751420080661774,0.0128676388412714,0.01680687628686428,-0.003122814930975437,-0.009422519244253635,-0.010476144030690193,0.0045979637652635574,-0.0015005753375589848,-0.004872691351920366,0.012046998366713524,-0.008206990547478199,-0.003967131953686476,0.004001247696578503,0.0074628666043281555,0.015880566090345383,0.012536093592643738,-0.007939169183373451,-0.003740077605471015,0.001500566373579204,0.019109167158603668,0.024292461574077606,0.012993212789297104,0.00028810068033635616,-0.01905503123998642,-0.010045601055026054,-0.00037196482298895717
邪者,-0.006752838380634785,0.001301618292927742,0.0012147306697443128,0.003662657458335161,-0.0003899539588019252,0.001705171074718237,0.0007389011443592608,-0.004170321859419346,0.0016260510310530663,0.0027779664378613234,-0.004412299953401089,-0.0022485258523374796,-0.0014026868157088757,-0.003028266131877899,-0.00037783849984407425,-0.0031324021983891726,0.004253237042576075,-0.008067835122346878,-0.001054642372764647,-0.0017972267232835293,-0.0038616519887000322,0.0025046197697520256,-0.0020820656791329384,-0.00232780072838068,-0.002098331693559885,-0.004075097385793924,-0.0016539591597393155,-0.0006044501205906272,-0.0012160580372437835,0.0020442334935069084,-0.0010423194617033005,0.0009701194940134883,0.00025287317112088203,-0.000706489197909832,-0.00038528305594809353,-0.004296929109841585,-0.0009632916189730167,0.004253939259797335,-0.004006026312708855,-0.0017399861244484782,0.0002600910374894738,0.0013291328214108944,-0.005012420006096363,0.004777626600116491,-0.004643227905035019,0.0036393532063812017,-0.00018540560267865658,0.0007695344393141568,0.0009104249766096473,-0.0057328324764966965,0.005015191156417131,-0.00207286374643445,-0.003212012117728591,0.00010099954670295119,0.00018077529966831207,-0.002464008517563343,0.0013932223664596677,-0.001520861522294581,-0.00515068881213665,0.0035119238309562206,-0.005730119999498129,0.0003926281351596117,0.004867523908615112,0.001542045152746141,0.004436000715941191,-0.004033986013382673,5.1468035962898284e-05,0.004441410768777132,-0.001316737849265337,0.001978099811822176,-0.004037867300212383,-0.006927744951099157,0.001443855231627822,-0.0035853355657309294,-0.002815459854900837,0.0004911606665700674,0.0019447787199169397,-0.0016231617191806436,-0.003048674901947379,-0.0037567089311778545,0.00216732919216156,0.001335317618213594,-0.000409250205848366,0.0024349535815417767,0.0007612689514644444,-0.0004008123651146889,0.0036352903116494417,0.0006285433191806078,-0.006888099946081638,0.0003299539675936103,9.063305333256721e-05,0.00010461010970175266,0.003407609649002552,0.004142260178923607,-0.0016483522485941648,-0.0019259547116234899,0.0028026604559272528,0.0038794749416410923,-0.004915163852274418,-0.0003650457365438342
仙女,-0.0011012934846803546,-0.0013889471301808953,-0.005000985227525234,-0.0018836016533896327,0.0061821225099265575,0.005003371741622686,0.000739962444640696,0.0007698033004999161,0.0025767390616238117,0.0015104147605597973,-0.0017098160460591316,-0.001718152780085802,0.000443620840087533,-0.002717286115512252,-0.0009691558079794049,-0.0046061803586781025,0.0014010407030582428,-0.0012294282205402851,0.005802878178656101,-0.0018697184277698398,0.0023893036413937807,-0.0037025436758995056,0.003357340581715107,-7.203198038041592e-05,-0.005300744436681271,0.003821267979219556,-0.0026512076146900654,-0.0051250336691737175,0.004127727821469307,-0.001564406557008624,0.00355469505302608,-0.0016866008518263698,-0.0014377289917320013,-0.001359863905236125,0.0012294305488467216,-0.0035038948990404606,0.00016135000623762608,0.005590939894318581,-0.0020398576743900776,0.000929599511437118,0.000911944080144167,-0.0020829779095947742,-0.00039225208456628025,-0.001763759646564722,-0.0037624086253345013,-0.0020744299981743097,0.004429677035659552,-0.0036373750772327185,0.0021949419751763344,-0.0026252735406160355,0.002840623492375016,0.0003088111989200115,0.005809658206999302,0.005444847047328949,0.003093498293310404,-0.0017422153614461422,0.004063175059854984,-0.0017167365876957774,-0.006146225146949291,-0.0008600419387221336,-0.0017165773315355182,0.0011946160811930895,0.002375010633841157,0.0013443101197481155,0.0003578218165785074,0.00037374155363067985,0.006398760713636875,0.000927970337215811,0.0010013007558882236,-0.001654664520174265,-0.003947405610233545,-0.0007764874608255923,-0.0028394050896167755,0.00014496478252112865,0.0006203759694471955,0.001027069054543972,-0.0015812530182301998,-0.0007642227574251592,0.002154003828763962,0.0017900136299431324,-0.002131970366463065,-0.007046719081699848,-5.872943438589573e-05,-0.004209831822663546,-0.00017689255764707923,0.003121392335742712,-0.0025710451882332563,0.003379820380359888,0.0012577143497765064,-0.003407201962545514,0.00010190706234425306,0.004841476678848267,0.00156956329010427,0.001371982740238309,0.001821204088628292,0.0022796113044023514,0.0008320308988913894,-0.002878495492041111,0.003665725002065301,-0.0018603388452902436
编,-0.006997763179242611,0.004888576455414295,0.0013995564077049494,-0.007066412828862667,0.003025671001523733,-0.004170105792582035,-0.0041399453766644,-4.557124339044094e-05,-0.000995031325146556,-0.00613011047244072,-0.0064622401259839535,0.005336610134691,0.004085197113454342,-0.00305264163762331,-0.0011050337925553322,0.00788324698805809,-0.0005236114375293255,0.0015892586670815945,-0.001982392743229866,-0.0008172820089384913,0.001050224294885993,-0.00010845763608813286,-0.006909243296831846,-0.0027409065514802933,0.0006405441090464592,0.001033317414112389,0.003320195246487856,-0.002054584678262472,0.0036206678487360477,-6.336963269859552e-05,-0.0017891351599246264,0.0012596225133165717,0.0009372917120344937,-0.004846333991736174,-0.0024434581864625216,-0.006539260968565941,-0.00020414323080331087,0.0017998431576415896,-0.0018607262754812837,-0.006466382648795843,0.000579712213948369,-0.002181360498070717,-0.001185080735012889,-0.002846131334081292,-0.0017426025588065386,-0.002456098096445203,0.004225745331496,0.0057862563990056515,-0.007196533493697643,-0.007035070564597845,0.0036496249958872795,0.0025524082593619823,-0.0066544245928525925,0.005120027810335159,-0.0008475116919726133,-0.007150176912546158,-9.593740105628967e-05,-0.004378544632345438,-0.0002933694049715996,5.195685662329197e-05,0.0009296208154410124,-0.00519014336168766,-0.005771295167505741,0.009452994912862778,0.002462062519043684,0.0015701777301728725,-0.0014528022147715092,-0.0014770168345421553,-0.0007477123290300369,-0.0033801081590354443,-0.00024255947209894657,-0.005952567793428898,-0.0036677545867860317,-0.004590946715325117,-0.0008843756513670087,-0.0030714417807757854,0.008973116055130959,0.001244422048330307,-0.0036885084118694067,0.0004695525858551264,0.0010882345959544182,0.0006096945144236088,0.0033959830179810524,-0.0054945629090070724,0.0015911315567791462,0.0036273205187171698,-0.0024701952934265137,0.0037912335246801376,0.00012197857722640038,-0.005429825745522976,-0.0001926845870912075,-0.003020484233275056,-0.0006685176631435752,-0.00039006886072456837,0.002032400108873844,0.0005238096928223968,-0.0003697723150253296,8.351495489478111e-05,-0.0027669654227793217,-0.0006873449310660362
相同,-0.006342143751680851,0.0013555893674492836,-0.0015183506766334176,0.0015806396258994937,-0.005404602736234665,-0.002662287326529622,0.002709240885451436,0.00481587927788496,-0.0026488907169550657,-0.00446311617270112,0.004461029544472694,-0.006394519936293364,-0.002028329763561487,-0.005903502926230431,0.0011708535021170974,-0.002136960858479142,0.002210866194218397,0.0029847375117242336,0.0026915245689451694,-0.0010220061521977186,0.000670828390866518,0.0015671971486881375,-0.0016435664147138596,0.0005786471301689744,0.00380142405629158,0.0035961975809186697,-0.003943750634789467,0.00023452460300177336,0.001676404383033514,-0.0029123779386281967,-0.0019814821425825357,-0.00934542901813984,-0.0031724642030894756,0.0017737317830324173,-0.002993072848767042,0.00661575049161911,0.0041009970009326935,-0.0019639641977846622,0.005469451658427715,-0.0026219261344522238,0.00379688898101449,-0.0036577419377863407,-0.0064012836664915085,-0.0009636753820814192,0.004035077523440123,-0.0005935124354436994,-0.0007022949866950512,-0.0014862138777971268,0.0003347722813487053,-0.001988373463973403,-0.0008616160484962165,0.0027419417165219784,0.002533764811232686,0.004815191030502319,0.0016896965680643916,-0.0036257277242839336,0.00179000454954803,0.0009148474200628698,-0.005735608283430338,0.007029845379292965,-0.0025650712195783854,0.0031748651526868343,0.0014341202331706882,0.0008946724701672792,0.0052481405436992645,-0.0002016767393797636,-0.004277919419109821,-0.00012996874283999205,0.001565405516885221,0.0017055615317076445,-0.0015103223267942667,0.000386127270758152,-0.004666326567530632,-0.0002102794824168086,0.006847835145890713,0.0020589481573551893,0.004620889201760292,0.0026718047447502613,0.0017401082441210747,-0.002320581581443548,0.0022477065213024616,-0.000759055488742888,0.002354708965867758,0.005406340584158897,0.004766734782606363,0.000625339278485626,0.002536667510867119,0.0006507133366540074,0.0017925784923136234,0.0030331178568303585,0.007024988532066345,-0.0027580822352319956,-0.00486780097708106,-4.331069067120552e-05,0.004694030620157719,-0.0009965240024030209,0.002060620579868555,-0.002989401575177908,0.0026965399738401175,0.0010556862689554691
人,-0.021739047020673752,0.015781722962856293,0.017567243427038193,0.027677198871970177,-0.00502339331433177,-0.01009102538228035,0.00029304041527211666,0.016204437240958214,-0.006142089143395424,-0.0005647552316077054,-0.007883885875344276,-0.026707574725151062,-0.013985387980937958,0.0015675730537623167,-0.01298050582408905,-0.031479015946388245,-0.00048120797146111727,0.007349765859544277,0.008912126533687115,-0.041938744485378265,0.010941974818706512,-0.0026735265273600817,-0.002402662532404065,0.007669634185731411,0.0049162679351866245,0.009623304009437561,-0.016909031197428703,-0.0070090144872665405,-0.015042542479932308,0.0014994123484939337,0.005589656066149473,-0.01506357453763485,-0.008845949545502663,-0.0054753306321799755,-3.5378896427573636e-05,0.01659109815955162,0.007231452967971563,-0.016103073954582214,-0.0177057683467865,-0.020588450133800507,0.004356257151812315,-0.013425441458821297,-0.020994411781430244,-0.012091891840100288,0.0037476466968655586,0.002964745042845607,-0.01399699505418539,0.02007601223886013,0.009936410933732986,0.01079551875591278,-0.00740888761356473,0.006021303124725819,0.009344324469566345,0.005455201957374811,0.004408028908073902,-0.005001978017389774,0.004674067720770836,-0.015983179211616516,-0.01801297813653946,0.00896788015961647,-0.0044793663546442986,0.00657698605209589,0.0009508707444183528,-0.006103051360696554,0.0023551478516310453,-0.009257741272449493,0.007410605903714895,-0.00887045357376337,-0.020122673362493515,0.0267961323261261,-0.003669413737952709,-0.0027197047602385283,-0.006596026010811329,-0.0018779684323817492,0.016549235209822655,0.005382084287703037,0.004646567162126303,0.008494044654071331,-0.010364578105509281,-0.01011483371257782,0.0020126579329371452,-0.007965926080942154,-0.0021371571347117424,0.010826561599969864,-0.003996116109192371,-0.004211414605379105,0.005110342986881733,0.012910676188766956,0.014873436652123928,0.00011320988414809108,-0.0044355266727507114,-0.007139444351196289,0.0029802490025758743,0.011565141379833221,0.01913769170641899,0.0029353140853345394,0.00899942871183157,-0.008516471832990646,-0.00801609642803669,-0.005177411250770092
有,-0.03088180348277092,0.01402230467647314,0.02299429103732109,0.034090545028448105,-0.008125204592943192,-0.01830397918820381,0.003720223670825362,0.022442005574703217,-0.00988696701824665,-0.010572252795100212,-0.007512420415878296,-0.033600304275751114,-0.014352181926369667,0.011380443349480629,-0.008024410344660282,-0.03027544915676117,0.00027938629500567913,0.0009993952699005604,0.006578847765922546,-0.0470324382185936,0.015430789440870285,-0.003920419607311487,-0.005405190400779247,-0.0010228315368294716,0.0002694004215300083,0.0027771724853664637,-0.022334828972816467,-0.014111677184700966,-0.004503021948039532,0.009368890896439552,0.015252008102834225,-0.019822563976049423,-0.009297505021095276,-0.00806304533034563,-0.007753032259643078,0.01752316951751709,0.014516172930598259,-0.011382000520825386,-0.01966850273311138,-0.0259290412068367,0.008803525008261204,-0.01805581897497177,-0.017268862575292587,-0.01413276419043541,-0.0008508604951202869,0.0037734187208116055,-0.018503304570913315,0.02253088355064392,0.012308490462601185,0.015070189721882343,-0.008661129511892796,-0.0022659453097730875,-0.004070066846907139,0.011143090203404427,0.004109199624508619,0.010110128670930862,0.013824008405208588,-0.0036234732251614332,-0.022279582917690277,0.008953152224421501,-0.005908972583711147,0.006054752040654421,-0.001469254377298057,-0.005337859038263559,-0.00019761431030929089,-0.012986291199922562,0.006743698380887508,-0.018154185265302658,-0.012959029525518417,0.03402223438024521,-0.004753810819238424,-0.010902549140155315,-0.00303225452080369,-0.002116429852321744,0.014346428215503693,0.0032504438422620296,0.008150222711265087,0.003890434978529811,-0.007334611844271421,-0.0015872372314333916,0.006033776793628931,0.0013692401116713881,0.0005958721740171313,0.007291697431355715,-0.007761400192975998,-0.004130816552788019,0.003608046332374215,0.009429211728274822,0.02137637697160244,0.005066996905952692,-0.007755361497402191,-0.005386284552514553,0.00526275672018528,0.015162614174187183,0.011651738546788692,0.010668924078345299,0.010685588233172894,-0.01190266665071249,-0.013942272402346134,-0.004241043236106634
让,-0.01434481143951416,0.01132163591682911,0.019407089799642563,0.014710728079080582,-0.005047542043030262,-0.009172839112579823,-0.0024570331443101168,0.020342135801911354,3.863847814500332e-05,-0.011107346042990685,-0.009941942989826202,-0.022899242118000984,-0.010208376683294773,0.0024745732080191374,-0.003950927872210741,-0.029782619327306747,-0.0009015995892696083,0.003527912776917219,0.0050108348950743675,-0.03801022097468376,0.010131306946277618,-0.0008025659481063485,-0.007439229637384415,0.0015461859293282032,0.0002797400811687112,0.009781016036868095,-0.020459581166505814,-0.006125724408775568,-0.010938541032373905,0.007396644912660122,0.0016070649726316333,-0.011346632614731789,-0.0027707554399967194,-0.003041545394808054,-0.006300074048340321,0.004652561619877815,0.002493208507075906,-0.013738047331571579,-0.01879597082734108,-0.019282076507806778,0.0035356255248188972,-0.005546135362237692,-0.012807359918951988,-0.010420652106404305,-0.002514745108783245,0.00029738573357462883,-0.006539852358400822,0.009620442986488342,0.0030720550566911697,0.01054676529020071,-0.0017212192760780454,-0.0043585048988461494,0.0016391504323109984,0.006082287523895502,-0.0011977290268987417,0.004268796183168888,0.011605408042669296,-0.004453732632100582,-0.010699214413762093,0.005938335321843624,-0.01078003365546465,0.005875837057828903,0.007040919736027718,0.003355329856276512,-1.8512830138206482e-05,-0.0036707641556859016,0.012130921706557274,-0.007979256100952625,-0.022120123729109764,0.015717841684818268,0.0025863044429570436,0.001560203731060028,-0.0009461196605116129,-0.012963260523974895,0.011822428554296494,0.00865027867257595,0.00603183638304472,-0.00045848917216062546,-0.016021911054849625,0.0030053076334297657,-0.0031095631420612335,-0.0007495377212762833,-0.009000828489661217,0.01491278875619173,-0.00791673269122839,-0.0002229700330644846,0.0005453797057271004,0.008498141542077065,0.009728280827403069,0.004556797444820404,-0.004647654015570879,-0.002939776983112097,0.004635627847164869,0.011928455904126167,0.01531290728598833,0.010135154239833355,0.012385350652039051,-0.0031130744609981775,-0.000284847104921937,-0.002680764999240637
继承,-0.001043784781359136,-0.0014362703077495098,-0.004615171812474728,0.004945235792547464,0.001765296095982194,7.994868792593479e-05,-0.004130466375499964,0.0013487291289493442,-0.003154017496854067,0.004349571652710438,-0.0017413812456652522,-0.0017772424034774303,0.0012057527201250196,-0.00201563467271626,0.0020545576699078083,0.002775939181447029,0.0016127773560583591,-0.0017603434389457107,0.0017497577937319875,-0.0014874464832246304,-0.0014573626685887575,0.0026969383470714092,-0.007022067904472351,-0.0010457279859110713,-0.0031128230039030313,0.0014248569495975971,-0.005585003644227982,-0.00025337410625070333,0.0009498756262473762,-0.0006978230085223913,-0.0004517995985224843,-0.0010351416422054172,-0.0037107537500560284,-0.004548484925180674,0.005556405521929264,-0.0011838837526738644,0.002899276092648506,0.00023536360822618008,0.0063261110335588455,2.4431079509668052e-05,0.0014572448562830687,0.0003207173431292176,0.0006930932868272066,0.002684197388589382,-0.001824506209231913,-0.00031778961420059204,0.0006808849284425378,0.0014685930218547583,-0.00032754126004874706,0.003453970653936267,-0.0009285900741815567,0.0003963486524298787,0.000425391539465636,0.0010063417721539736,0.004089025780558586,-0.001254657981917262,0.004380197264254093,0.004546566866338253,-0.0010524080134928226,0.0018107956275343895,-0.004506715107709169,0.0012544495984911919,0.0044436389580369,8.730316767469049e-05,-0.00014610739890486002,0.0007625138387084007,0.0018377022352069616,0.0006137685268186033,0.0026141961570829153,0.0021037645637989044,-0.0005510587943717837,-0.0010218372335657477,-0.007634623441845179,-0.002131385961547494,-0.001162649248726666,0.0003441857115831226,0.004776604473590851,-0.0008540216367691755,-0.0014528273604810238,-0.0027168113738298416,0.0033670393750071526,-0.003192485775798559,-0.005921912379562855,0.0021281472872942686,0.001217744778841734,-0.0031795850954949856,-0.0009126423392444849,3.4269760362803936e-05,0.0037703372072428465,0.0022346291225403547,0.00041408854303881526,-0.004549319390207529,0.0036399138625711203,-0.0026842609513550997,0.00012344855349510908,0.0005534884985536337,-0.001245482242666185,0.0034660191740840673,-0.0008857995853759348,-9.782344568520784e-05
试图,-0.006189772859215736,0.0038869203999638557,0.004334236960858107,0.004717957694083452,-0.0031964299269020557,-0.00047475885367020965,-0.0007167636649683118,0.007937822490930557,0.0025656120851635933,-0.005259223282337189,-0.003940148279070854,-0.009589125402271748,0.002440003678202629,-0.0028294355142861605,-0.000401877798140049,-0.005959036760032177,-0.0028104865923523903,0.0014818606432527304,0.0017382558435201645,-0.009793535806238651,0.0035519874654710293,-0.0015611976850777864,-0.0006875839317217469,0.003993107005953789,0.005159519612789154,-0.00010168497101403773,0.0016251876950263977,-0.00036832113983109593,-0.0022706426680088043,0.005476188845932484,0.0034304922446608543,-0.004093620460480452,-0.0008134213276207447,0.0021833451464772224,-0.0018082326278090477,0.010390528477728367,0.004417885560542345,0.0002917689853347838,-0.004034588113427162,-0.002888761693611741,-0.002633212134242058,-0.003013346344232559,-0.006674612872302532,-0.004211654886603355,-0.0008789909770712256,-0.002310644369572401,-0.00540082436054945,0.00829104334115982,0.0017352059949189425,-0.0006634484743699431,-0.0033841407857835293,0.002605258021503687,-0.005271353293210268,0.007464683149009943,-0.003380231559276581,-0.002585810609161854,0.006221937946975231,-0.006012209691107273,-0.006642737425863743,0.0020145978778600693,-0.0035092404577881098,0.0032991119660437107,-0.005726241040974855,0.00011165859177708626,-0.00026820809580385685,0.0010703412117436528,-0.0030775368213653564,-0.00448412261903286,-0.007144111208617687,0.005475874524563551,0.0025080766063183546,0.0034541364293545485,-0.00012897260603494942,-0.003821620484814048,0.0031821499578654766,0.004884899593889713,-0.0005372199229896069,0.0030680871568620205,-0.0033813822083175182,-0.0052135903388261795,0.002296359743922949,0.001768123940564692,0.0014700290048494935,0.003215736709535122,-0.0002847819123417139,-0.0017896539065986872,-0.00010827451478689909,-0.0010788652580231428,0.005761254578828812,0.0033621396869421005,0.0011963807046413422,0.0008352554868906736,-0.0029500778764486313,0.0011991991195827723,0.005826778244227171,0.004945602733641863,1.7657526768743992e-05,-0.00257482985034585,-0.0013547490816563368,-0.0037785754539072514
电影版,-0.003325345693156123,0.0011070905020460486,0.0016185430577024817,0.0038368082605302334,0.0018984972266480327,-0.0001590346364537254,-0.0009507426293566823,0.0018044465687125921,4.68716025352478e-05,-0.0046335249207913876,-0.0022084596566855907,-0.0017290239920839667,0.001038295216858387,0.0005667856894433498,0.001866342849098146,0.001142016495577991,-0.0009887844789773226,0.0005317433387972414,0.00015462968440260738,0.000996922142803669,-0.0017803478986024857,0.0025654395576566458,-0.0005998548003844917,-0.003045080928131938,0.002657621633261442,0.00196099653840065,0.001135207829065621,-0.003096221247687936,0.0016347471391782165,-0.004007055424153805,0.0018136452417820692,0.00029720706515945494,0.003937970381230116,0.0020962185226380825,-0.0015338705852627754,0.0025213242042809725,0.0003997745516244322,-0.0014154387172311544,-0.0016183021944016218,-0.0017290081596001983,-0.0003036127600353211,0.0018020663410425186,0.0053254286758601665,-2.1815765649080276e-05,0.0007069984567351639,-0.001766658271662891,-0.004926453344523907,0.0036794531624764204,0.0013136101188138127,0.0003587671380955726,-0.0030044077429920435,-0.0021863789297640324,0.003950026351958513,0.001998767489567399,0.0015718037029728293,0.0018122150795534253,-0.005333312321454287,-0.0018925387412309647,-0.004859699867665768,-0.002524936804547906,-0.0007207602029666305,-0.0011466244468465447,-0.0037680533714592457,0.0023710376117378473,-7.678505426156335e-06,0.0012876316905021667,-0.0034655225463211536,0.0010495686437934637,0.0006330871256068349,0.0015469678910449147,-0.0009852021466940641,0.0017372984439134598,0.0016156669007614255,-0.0005034797941334546,-0.002827988937497139,0.002243093680590391,-1.1572415132832248e-05,0.0020343081559985876,-0.0037447356153279543,-0.0013474954757839441,0.0015600844053551555,0.0018811196787282825,-0.0025305934250354767,-0.0005401478265412152,-0.0005968494224362075,-0.0024737895000725985,0.0014399627689272165,-0.00014722227933816612,0.0029098147060722113,-0.001940474845468998,0.00037498422898352146,0.002744759898632765,-3.0998831789474934e-05,0.0018007049802690744,0.004582060966640711,0.0027991458773612976,-0.0005687483353540301,-0.0015441799769178033,0.0005556714022532105,0.0020978800021111965
特色,0.0003917262074537575,0.0022369027137756348,-0.0006269304431043565,0.0018398873507976532,0.002802221104502678,0.0026314174756407738,-0.004618267994374037,0.002971600741147995,0.0012674357276409864,-0.00032099441159516573,0.0020031528547406197,0.00163561524823308,-0.00360728707164526,0.001092422753572464,0.0003559311153367162,0.001089002937078476,0.0011151140788570046,0.00017133558867499232,0.0016992974560707808,-0.0013971342705190182,-0.0028003505431115627,-0.0021328453440219164,-0.004993387497961521,-0.0005291474517434835,-0.003561202669516206,-0.00291708717122674,-0.0013237236998975277,0.0017687911167740822,-0.0021312986500561237,-0.0003132784040644765,0.0012237124610692263,0.0006645501125603914,0.0019541699439287186,-0.002500339411199093,0.00555889867246151,0.002448728308081627,0.0012655341997742653,0.002622646978124976,0.0003412752121221274,-0.0022287380415946245,-0.0008155684918165207,-0.0008679826278239489,-0.0016841570613905787,0.00042414874769747257,0.0005314595182426274,0.002405862556770444,-0.0010966541012749076,0.0007755313999950886,0.0009888913482427597,-0.002489721868187189,-0.0033899019472301006,0.0059089516289532185,0.004381067119538784,-0.0019665095023810863,0.00392842898145318,0.002089389367029071,0.00014666258357465267,0.000857400824315846,-0.001166364992968738,0.0015585818327963352,-0.0005398564971983433,0.0002105232561007142,0.00013370142551138997,0.005397668108344078,0.0002737843315117061,0.0014981591375544667,-0.00036394991911947727,-0.0026238439604640007,0.004839296452701092,-0.003412188496440649,-0.0027379384264349937,-0.002959214383736253,-0.005118273664265871,-0.004555385094136,0.0017878618091344833,0.0010869804536923766,-0.0002907808229792863,0.001745332032442093,-0.004679401870816946,0.003403602633625269,0.0035230834037065506,0.004342502914369106,-0.0030989153310656548,0.004630801267921925,-0.0002087191678583622,0.003955603111535311,-0.0066330768167972565,-0.0011365653481334448,-0.0007175863720476627,0.0048542930744588375,-0.0008703026687726378,-0.001186262583360076,0.00015833601355552673,0.0051254210993647575,0.003077348228543997,0.003568295855075121,0.003932955674827099,0.0017118263058364391,-0.005264377221465111,0.002474378328770399
拉伸,3.3494201488792896e-05,0.0004357508150860667,0.002554122358560562,0.00018223735969513655,0.005742411594837904,0.004131607711315155,0.0004433222347870469,-0.0031507257372140884,-0.0016321333823725581,0.0024497967679053545,0.0024885600432753563,-0.0025573759339749813,-0.0013240538537502289,7.708027260378003e-05,0.00072268838994205,0.002392864553257823,0.002577337436378002,-0.005595027934759855,-0.007073988206684589,0.001089428085833788,-0.003711618483066559,0.0021070893853902817,0.0015665257815271616,-0.0026786040980368853,-0.0039351936429739,0.0036229551769793034,0.0001453504664823413,-0.0003375682281330228,-0.0009320096578449011,-0.0020046127028763294,0.0013017243472859263,0.002803737297654152,-0.0038450495339930058,-0.0019938303157687187,-0.0002454813802614808,0.0012148350942879915,0.005841587670147419,-0.0059923999942839146,0.00028426601784303784,0.002083594212308526,-0.00576970586553216,-0.0022583864629268646,0.0008387826383113861,0.001836828188970685,0.00029946479480713606,-0.003790974849835038,0.004717889707535505,0.000995264039374888,0.0011545177549123764,0.0005632750689983368,0.0011576964752748609,0.0024393615312874317,-0.002709677442908287,-0.001231820904649794,-0.0009909530635923147,0.0004986156709492207,0.001223133411258459,0.0033462471328675747,-0.0019585001282393932,-0.004742425866425037,0.0035805345978587866,0.00200506835244596,-0.0002771303988993168,-0.0004840270848944783,-0.003720418084412813,-0.0005167230265215039,0.001927501754835248,-0.004785364493727684,-0.0023337104357779026,0.0017790329875424504,-0.0015077637508511543,0.002127625048160553,0.0020140332635492086,0.003756206016987562,-0.0012308639707043767,-0.0009401547722518444,0.000768904690630734,0.0007030632114037871,-0.0026255811098963022,-0.0014171469956636429,-0.0006511429673992097,0.00447080098092556,0.005017627030611038,-0.002794506959617138,0.0006621790817007422,0.0010025473311543465,0.0030323436949402094,0.00041730006341822445,-0.006389169953763485,-0.002433322137221694,-0.00047540516243316233,0.000626535969786346,-0.0032818724866956472,-0.0012784688733518124,-0.005101058632135391,-0.003276729490607977,0.00012538093142211437,0.00483584962785244,0.003122346941381693,-0.0017357075121253729
真的,-0.005187773145735264,0.0069349417462944984,0.005462069064378738,0.008183227851986885,-0.002814012346789241,-0.00550848850980401,0.00493848230689764,0.007759778760373592,0.0009307260625064373,5.15494029968977e-05,-0.006103625521063805,-0.017731068655848503,-0.00875888392329216,0.0017944100545719266,-0.003605341073125601,-0.02051560953259468,0.002661498263478279,-0.00019443227211013436,0.0014808101113885641,-0.020171022042632103,0.0061324769631028175,0.00142662541475147,0.00425828667357564,0.0009579439647495747,0.0016844741767272353,-0.004397834651172161,-0.01006776187568903,-0.00534067815169692,-0.0028805399779230356,0.00024449321790598333,0.0025177602656185627,-0.008305119350552559,0.0010972023010253906,-0.0018291710875928402,-0.0019029552349820733,0.013280189596116543,0.004682404920458794,-0.007714522536844015,-0.007067195605486631,-0.010347234085202217,0.006052365526556969,-0.005647715181112289,-0.006700758356601,-0.007020079996436834,-0.005903668235987425,0.0004735311958938837,-0.01040678471326828,0.012392174452543259,0.004501239396631718,0.007280812598764896,-0.0012895433465018868,-0.00278435368090868,-0.0037966519594192505,0.007451868616044521,0.003489039372652769,-0.0011975581292062998,0.004695441108196974,-0.004030865617096424,-0.016894716769456863,0.007195876911282539,-0.0022184327244758606,0.0002847782743629068,-0.0042828526347875595,-0.0006374662043526769,0.0036916928365826607,-0.006499316543340683,0.0039902301505208015,-0.005681587848812342,-0.01564394123852253,0.012392058037221432,-0.0008933187928050756,-0.00039712339639663696,0.0017342311330139637,-0.004532777704298496,0.003196407575160265,0.0008516112575307488,0.006942396983504295,0.0009538620361126959,-0.006110025569796562,0.0010091775329783559,0.006741463206708431,0.0015534271951764822,-0.005323157180100679,0.005526537075638771,-0.0006000736029818654,-0.0034025199711322784,-0.00016543257515877485,0.011003421619534492,0.00886312872171402,0.002052895724773407,0.003404502524062991,0.004137302283197641,-0.0038562859408557415,0.0005264718201942742,0.00773963425308466,0.0021025666501373053,0.0014113244833424687,-0.0055391364730894566,-0.00431010453030467,-0.004101157188415527
零售,-0.0029473011381924152,-0.0029924630653113127,0.00034247792791575193,0.0007192873163148761,-0.0077228788286447525,-0.00250265677459538,0.0005015397327952087,0.003367760218679905,0.0028021768666803837,-0.0040431697852909565,0.0038785096257925034,-0.002323392080143094,0.005557001568377018,0.0023743552155792713,-0.0037008433137089014,-0.003808846464380622,0.005104038864374161,0.003124821465462446,0.004027551971375942,-0.0030947152990847826,-0.0008549243211746216,-0.0033447647001594305,0.0017086504958570004,-0.0022523291409015656,0.0002769468119367957,0.0018044556491076946,7.513933815062046e-05,0.005718179978430271,0.0012905413750559092,-0.0021914769895374775,0.001647698925808072,-0.0015731255989521742,0.0024424507282674313,-0.00015111081302165985,-0.0038583697751164436,-0.0010229904437437654,0.004149510525166988,-0.000619631027802825,-0.0019768918864428997,-0.0030424431897699833,0.0002489839680492878,0.002580049680545926,0.0009183997171930969,-0.0033016977831721306,-0.0026216411497443914,-0.001118185231462121,-0.0015234751626849174,-4.042510408908129e-05,-4.9438909627497196e-05,0.0035956772044301033,0.005393370985984802,0.0030571767129004,0.0004855423467233777,0.001940536079928279,0.0033318535424768925,-0.001585623249411583,0.0018118766602128744,0.0006620096974074841,0.0005744186928495765,0.0015813999343663454,-0.0007590146269649267,-0.0016582258976995945,-0.0024463601876050234,-0.00017580576241016388,-0.0033219363540410995,0.003000147407874465,-0.002544582821428776,-0.001019775401800871,-0.0022940910421311855,-0.0013307725312188268,-0.0023864556569606066,-0.004245436750352383,0.0010995098855346441,0.0013785511255264282,0.002022228203713894,0.0009315698407590389,0.0032609128393232822,0.002875977661460638,-0.0033211742993444204,-0.0032861698418855667,0.0042772297747433186,-0.00545260077342391,-0.0017783318180590868,-0.0013872628333047032,-0.002152847358956933,0.0023517156951129436,0.0024428260512650013,-0.0015591152478009462,-0.00462718028575182,0.0025956372264772654,0.002463356591761112,-0.0005994184175506234,-0.0027660205960273743,-0.004967307671904564,0.0027204907964915037,-0.0006102692568674684,-0.0032586234156042337,-0.0018937994027510285,-0.00012252316810190678,0.0002992774825543165
挑战,0.0011859792284667492,0.0031003400217741728,0.007271117065101862,0.008836221881210804,-0.0031101414933800697,0.004929048009216785,0.0021646316163241863,0.003343029646202922,-0.0023294887505471706,0.00015831964265089482,-0.0013012337731197476,-0.0028236564248800278,-0.0030167715158313513,0.0005502842832356691,0.003452015109360218,-0.004081072751432657,0.002931352239102125,-0.006900860462337732,0.00503166951239109,-0.010853453539311886,0.00454757921397686,-0.001827053027227521,0.0036933596711605787,0.00525952922180295,-0.0012897425331175327,0.000679506454616785,-0.007653434760868549,-0.00276611908338964,-2.1377927623689175e-05,0.0018690869910642505,0.000892072101123631,-0.005826491862535477,0.0010102970991283655,-8.37037805467844e-05,-0.0024423508439213037,0.004692256450653076,-0.0004425826482474804,-0.006254999898374081,-0.004468020983040333,-0.006612064316868782,0.00398331880569458,-0.005682803690433502,-0.00039144069887697697,-0.007341690361499786,-0.0005567544139921665,-0.0058405110612511635,-0.00058621761854738,0.008528033271431923,-0.0021274567116051912,0.008032280020415783,-0.005210449453443289,0.0021884816233068705,-0.00024806533474475145,0.006298550870269537,0.002167079132050276,-0.0021355245262384415,0.0008331288117915392,-0.0021562455222010612,-0.008615745231509209,0.0052527314983308315,0.006022461224347353,0.004372067749500275,0.0034258312080055475,0.0024024867452681065,-0.0024153459817171097,-0.0044577717781066895,0.0029155260417610407,-0.0013267194153741002,0.0005941120907664299,0.004078053869307041,-0.0033123926259577274,0.0005367035046219826,0.003056952264159918,-0.0007287794724106789,0.0012315064668655396,-0.0038948622532188892,0.003264832077547908,0.0037368484772741795,-0.0046913037076592445,0.0013941529905423522,-0.0006388170295394957,0.0016375873237848282,-0.001872341614216566,0.0012271027080714703,-0.001096061198040843,0.004389950539916754,0.0003938291920349002,0.00690842792391777,0.005714649800211191,0.0034613129682838917,-0.0050118546932935715,0.0012340571265667677,0.0013259672559797764,0.0014740233309566975,0.006402481347322464,0.00020507117733359337,-0.0025748764164745808,-0.0038435636088252068,0.002028802875429392,-0.0013277196558192372
条路,-0.0004284860333427787,-0.002050883835181594,-0.0013271498028188944,0.0033129393123090267,0.00044566113501787186,0.0006077514262869954,-0.0029724137857556343,0.0009524614433757961,0.00449777115136385,0.0027844395954161882,0.0010745159815996885,0.001415987848304212,0.003916765097528696,0.0008494784124195576,-0.0019652475602924824,0.0008071329211816192,0.003808084409683943,-0.006887281779199839,0.0006988978129811585,0.004402470774948597,-0.0008972777286544442,0.000878817168995738,-0.0011708865640684962,-0.00046597537584602833,-0.0021656278986483812,-0.002511813770979643,-0.002008487470448017,-0.0021479325369000435,-0.0004858112661167979,0.003706452203914523,0.002525094896554947,0.005268917419016361,0.005087452009320259,0.0016192977782338858,-0.0017106377054005861,0.0008844102849252522,0.0008970748167484999,0.0014869350707158446,-0.0017865517875179648,-0.0004275547107681632,0.0039250198751688,-0.0042329709976911545,-0.00033229051041416824,0.004200397524982691,-0.0022035252768546343,0.0012079904554411769,0.0005023246631026268,-0.003746251342818141,-8.112669456750154e-05,-0.00266772392205894,-0.0043390411883592606,0.0051095495000481606,0.005167955532670021,0.00199747527949512,-0.001976406667381525,0.0040578520856797695,-0.0003990114782936871,-0.0005693825660273433,0.0020355512388050556,0.003625634592026472,-0.00011519272811710835,-0.000948259374126792,-0.0019342012237757444,-0.0008440761594101787,-0.0029957748483866453,0.006048328243196011,-6.656977348029613e-05,-0.0029783835634589195,-0.000216458342038095,-0.0002454662462696433,-0.0022354174870997667,0.0022899387404322624,0.0006032527890056372,0.000847053830511868,-0.0016296650283038616,-0.003812215058133006,-0.0002444647252559662,-0.00037225260166451335,0.0026357255410403013,0.0002991728251799941,0.0037685921415686607,-0.006800555624067783,0.004311256110668182,-0.003923898097127676,-0.0030030240304768085,0.0014112070202827454,-0.00417107529938221,0.004633482079952955,-0.0019503145013004541,-0.0022688587196171284,-0.002905054483562708,-0.0005419430090114474,0.0038709663785994053,-0.0027807680889964104,0.00029177137184888124,0.0017544152215123177,-0.003493908327072859,-0.003600676078349352,0.004274578765034676,-0.0029114261269569397
记录,0.0006821078713983297,0.004024219233542681,0.0022538392804563046,0.0011885524727404118,-0.007470961660146713,-0.001128783100284636,0.003203204134479165,0.003288315376266837,0.003608765546232462,-0.0034990012645721436,-0.00264449673704803,-0.00372032611630857,0.0036171027459204197,0.002311567310243845,-0.004306186456233263,-0.00873362272977829,0.001475471188314259,-0.0007844821084290743,-0.00030660827178508043,-0.0010058910120278597,0.0009046205086633563,-0.0008231891551986337,0.005270559340715408,0.00041614321526139975,0.001486822497099638,0.0031199483200907707,-0.005018724128603935,0.002382541075348854,0.0009073536493815482,0.002163257449865341,0.0007604010170325637,-0.003323744051158428,-0.0007821793551556766,0.00044767814688384533,-0.006148970685899258,0.006647392176091671,0.0012605366064235568,-0.0017745483200997114,-0.0011051081819459796,-0.004482675343751907,0.003345052246004343,0.002453677821904421,-0.008800966665148735,-0.003510944079607725,-6.213434971868992e-06,-0.0018923854222521186,-0.0022434936836361885,0.0017634828109294176,0.0004451617132872343,-0.002522926079109311,0.0011410588631406426,0.0035129054449498653,0.0007249723421409726,0.0008090646006166935,-0.0028434921987354755,-0.003590571926906705,0.0017041615210473537,0.00043674407061189413,0.004139102064073086,-0.0030249119736254215,-0.0033199444878846407,-0.0006336556980386376,0.004423170816153288,-0.00562277203425765,-0.0012750716414302588,-0.00022518215700984,0.0034251478500664234,0.0005343528464436531,-0.005659312475472689,0.002086253836750984,0.00264412141405046,-0.004154063295572996,-0.0025758773554116488,-0.0010593741899356246,0.0013919755583629012,-0.003654821775853634,-0.0036377371288836002,0.00769313657656312,-0.0009812995558604598,0.0030038179829716682,-0.0016270071500912309,-0.004783065989613533,0.0019382707541808486,0.00015989085659384727,0.000935203512199223,-0.00231150072067976,-0.0016236556693911552,0.0011001754319295287,0.0023036706261336803,-0.001316495705395937,-0.001954224891960621,-0.0064852978102862835,0.005280998069792986,0.00422443263232708,0.002971258480101824,0.002305552363395691,-0.000928924884647131,-0.0014076728839427233,0.0002739601186476648,0.005238172598183155
儿子,-0.0013113179011270404,-0.00024474915699101985,0.002546609379351139,0.0037014286499470472,0.0010852294508367777,-0.0022904309444129467,-0.0019270222401246428,0.0029909005388617516,0.0020809355191886425,-0.005644446238875389,-0.001027198857627809,-0.0012984040658921003,-0.007210414856672287,-0.003527894848957658,-0.00036553258541971445,-0.0072096046060323715,0.001237649703398347,0.0049666413106024265,0.001284331432543695,-0.0026206052862107754,-0.00019801966845989227,-0.0029154629446566105,-0.0020646711345762014,0.0014160822611302137,0.001779286889359355,-0.0038187848404049873,6.979971658438444e-05,-0.0012785138096660376,-0.003732789773494005,-0.000505938776768744,-0.00044271722435951233,-0.005603502504527569,-0.0013639726676046848,0.0014935529325157404,-0.0005375788896344602,0.0011028401786461473,-0.00357495853677392,-0.003070819890126586,-0.0052833566442132,-0.00635096151381731,0.0004364941269159317,0.00038738339208066463,-0.009117688052356243,-0.004655914381146431,-0.0004113934701308608,-0.002760625444352627,-0.0006387652829289436,0.005518765654414892,0.0004503572126850486,-0.0003550902474671602,-0.0031195904593914747,0.0019102049991488457,-0.0012015332467854023,-0.0017511043697595596,0.0008022676920518279,-0.0007604827405884862,0.0067696706391870975,-0.001727547263726592,0.0033607538789510727,-2.6402994990348816e-07,-0.0019247852033004165,-0.0002475200453773141,-0.004569836426526308,0.0014303972711786628,0.005690986290574074,-0.004335744306445122,-0.002185217570513487,-0.0011550961062312126,-0.001712239347398281,0.004894985351711512,-0.002993679139763117,0.0009622329380363226,-0.0006850037025287747,-0.001401482499204576,0.0003254010225646198,0.0015796798979863524,-0.002234071958810091,0.00018685730174183846,0.002613754477351904,0.0004071530420333147,-0.0009182840003632009,0.002666968386620283,-0.0030629171524196863,0.0011086963349953294,0.0007441048510372639,0.0006257080822251737,0.0052198246121406555,-0.003426430281251669,0.007666745223104954,-0.002384064719080925,-0.0022170960437506437,-0.0015543666668236256,-0.0010990833397954702,0.0036999299190938473,0.0014517257222905755,0.00017546559683978558,0.0010298952693119645,-0.006052891258150339,-0.0046717026270926,0.004531145095825195
跳,-0.0037068487145006657,0.005240354686975479,0.0009555944707244635,0.007805991917848587,0.004312852397561073,0.0037514916621148586,0.0008465085411444306,0.005198958795517683,0.0020943612325936556,0.006927120499312878,-0.004737704526633024,-0.010056868195533752,0.0046453336253762245,0.004057847894728184,-0.005431703757494688,0.004251101054251194,-0.002686290070414543,0.0009678096976131201,0.0034646792337298393,-0.008899414911866188,-0.0017792045837268233,-0.004862125031650066,-0.002209021942690015,-0.004801283124834299,-0.00014166953042149544,0.004444055259227753,0.0023086529690772295,-0.004110070876777172,-0.0017948709428310394,-0.006848844699561596,-0.00391286751255393,-0.0065751527436077595,-0.002126697450876236,-0.002474240493029356,-0.0019739423878490925,-0.004940980579704046,0.0006902876775711775,0.003861217526718974,-0.003769599599763751,0.003739964682608843,0.004061971791088581,-0.004632793366909027,-0.004776270128786564,0.0054086134769022465,0.006111358292400837,-0.007878335192799568,0.0004145689308643341,0.0038728073704987764,-0.00645633228123188,-0.0036006998270750046,0.005523009691387415,0.003717348910868168,-0.006777443923056126,0.003277665004134178,0.0031270268373191357,0.005553654860705137,-0.0007818853482604027,-0.0035693440586328506,-0.0038606582675129175,0.004342053085565567,-0.003910863306373358,-0.006768169812858105,0.0004342242609709501,-0.0025653711054474115,0.0021026330068707466,0.003977869171649218,0.0019349829526618123,-0.006714958697557449,-0.006526080891489983,-0.0025147779379040003,0.004348685033619404,0.0012692282907664776,0.0035144444555044174,0.004097367636859417,-0.004558282904326916,0.0012614724691957235,-0.000566546805202961,-0.008349457755684853,-0.006208104081451893,-0.002626594388857484,-0.0011456289794296026,0.0046295588836073875,-0.0006903351750224829,0.002300392370671034,0.002533396240323782,0.007295821327716112,0.002112258691340685,-0.0005313786678016186,0.007365768775343895,-0.0023546370211988688,0.0038441158831119537,0.0002305486996192485,-0.004805927164852619,-0.006863385904580355,-0.002089436398819089,0.006285135634243488,0.006551077123731375,0.0003270863089710474,0.003171751741319895,-0.0013598348014056683
鬼鬼,-0.001011781394481659,0.002001252956688404,-0.001476940931752324,-0.00020731240510940552,0.0002666899235919118,-0.00659937271848321,0.001319799106568098,-0.0002545200986787677,-0.0002305366942891851,-0.0022089206613600254,0.002438502386212349,0.0019399038283154368,-0.004692249931395054,0.0030499929562211037,0.0031452318653464317,-0.0009200440254062414,-0.0015926500782370567,-0.003937278408557177,0.0032547293230891228,-0.002370411530137062,-0.0014589126221835613,-0.0017574389930814505,0.0013582594692707062,0.002174545545130968,0.0012991806725040078,-0.00014103134162724018,-1.119496300816536e-05,0.0005513904616236687,0.0006495870766229928,-0.00018014595843851566,-0.00018769943562801927,-0.002422220539301634,0.0004139284719713032,0.0020731370896101,-0.0012461186852306128,-0.0016152036841958761,-0.0002816923370119184,-0.0012652354780584574,-0.0014680129243060946,0.004950449801981449,-0.0008212433895096183,-0.0012194220907986164,-0.002413528971374035,0.006820255890488625,0.0023277648724615574,0.0033720952924340963,0.003859496209770441,-0.00011016137432307005,0.0009588948450982571,-0.0034360638819634914,2.4898676201701164e-05,0.0038968962617218494,0.0022414755076169968,0.0018355118809267879,0.001502223894931376,4.8198155127465725e-05,-0.006305183749645948,-0.002504431176930666,-0.0011598478304222226,0.001977667212486267,0.001064734417013824,-0.003738585626706481,-0.0028825942426919937,-0.0014258433366194367,-0.001248629647307098,-0.0035384814254939556,-0.0017196949338540435,-0.0023694890551269054,0.0016900331247597933,0.0016934019513428211,0.0035907500423491,0.002407098887488246,-0.0038895756006240845,-0.0005818704375997186,-0.0007010141853243113,0.0034194716718047857,-0.0033940854482352734,0.004621946252882481,-0.0007036589668132365,-0.002909647533670068,2.2762687876820564e-06,-0.00028467446099966764,-0.004084264859557152,0.0055394419468939304,-0.0022627958096563816,0.002681163838133216,-9.215495083481073e-05,-0.003887064754962921,-0.0028208233416080475,-0.0030427249148488045,0.006414924282580614,0.0009522507898509502,0.00560886412858963,-0.0020752898417413235,0.004445245489478111,-0.005603416357189417,0.0014618902932852507,-0.0008390978327952325,0.0006763208657503128,0.00042883766582235694
做到,0.0006780569674447179,0.005977095104753971,0.002057041972875595,0.006619852501899004,-0.004928501322865486,-0.004150037653744221,-0.0034934179857373238,0.007671551313251257,-0.005371099337935448,-0.0034110958222299814,-0.0032444270327687263,-0.009869681671261787,-0.0014664590125903487,0.007296668365597725,-0.006037401035428047,-0.0030762883834540844,0.004816924687474966,-0.0030928836204111576,-0.0008326995884999633,-0.004802266601473093,0.006182623561471701,-0.0006783012067899108,-0.0005198295693844557,2.0374369341880083e-05,0.002658406039699912,0.001024940749630332,-0.005860719829797745,-0.0012921425513923168,0.0016652485355734825,-0.0012907292693853378,9.79122705757618e-05,-0.0014842324890196323,-0.005562640726566315,0.00646544061601162,-0.008891050703823566,0.004254798870533705,0.002896734047681093,-0.0011814445024356246,-0.0032207220792770386,-0.0056853643618524075,0.0032294909469783306,0.0009477471467107534,-0.003876060713082552,-0.0031341793946921825,-0.0005860708188265562,0.0003126814845018089,-0.0013303374871611595,0.005189236719161272,0.006108114030212164,-0.0035188193432986736,-0.0013659390388056636,0.004006808623671532,-0.003537815995514393,0.0013597188517451286,-0.0027847092133015394,-0.0003667963610496372,0.00653113704174757,-0.004245261196047068,-0.005885070189833641,0.0017420054646208882,0.0036414163187146187,0.0005286505329422653,-0.0002182114403694868,-0.00028782099252566695,0.0014262697659432888,-0.002053036354482174,0.0016793598188087344,-0.0014173607341945171,-0.0013335936237126589,0.00639659957960248,-0.005738658364862204,0.0006855911342427135,-0.004238700494170189,-0.0019950487185269594,0.0017145853489637375,0.00024135014973580837,-0.005154321435838938,0.0013501381035894156,0.0018675520550459623,-0.0009250578004866838,-4.234444350004196e-05,0.0032622264698147774,0.0009694243781268597,0.004872195888310671,0.0018981217872351408,0.0009057951392605901,0.0018283933168277144,-0.0006263999966904521,0.002254414837807417,-0.002702548401430249,0.0020498845260590315,-0.0035156935919076204,-0.0007614643545821309,-0.004958266392350197,0.0032751071266829967,0.004101612139493227,0.0014588995836675167,-0.0006724710110574961,-0.0005876763025298715,0.001985452603548765
地方,-0.005624196492135525,0.007973618805408478,0.009393563494086266,0.008131025359034538,-0.008974998258054256,-0.0045862141996622086,0.00207287329249084,0.0014497942756861448,-0.0017330804839730263,-0.003490702249109745,-0.005486569833010435,-0.017648857086896896,-0.011609073728322983,-0.0019178522052243352,-0.003152790479362011,-0.008384736254811287,-0.0019330087816342711,-0.0009987023659050465,-0.001360979862511158,-0.01848001219332218,0.006357548758387566,0.00045308307744562626,-0.0027861674316227436,0.0038211361970752478,-0.00030484527815133333,0.002455132082104683,-0.006903060711920261,-0.0010265843011438847,-0.0036980113945901394,0.0015636759344488382,0.003306710859760642,-0.004838442429900169,0.0023452816531062126,-0.003704987931996584,-0.0007885729428380728,0.009929005987942219,0.004960144869983196,-0.010247600264847279,-0.0023518502712249756,-0.011279926635324955,0.006758443079888821,-0.01018575206398964,-0.0025760899297893047,-0.009638708084821701,-0.003836702322587371,0.0037978130858391523,-0.007578174117952585,0.01017252542078495,0.0011362541699782014,0.0034924508072435856,-0.004684269893914461,-0.00017454009503126144,0.003289280692115426,4.686752799898386e-05,-0.005258460529148579,0.003692292608320713,0.004060017876327038,0.00014070753240957856,-0.005448712036013603,0.0025921876076608896,-0.005390609614551067,0.0005339363124221563,-0.0006945732748135924,-0.004213725682348013,0.002674378454685211,-0.008700071834027767,0.00017447001300752163,-0.006668328307569027,-0.0046464670449495316,0.016454966738820076,-0.006584580987691879,-0.0023321486078202724,0.0026279371231794357,-0.002294751349836588,0.0025749709457159042,0.008771494962275028,0.00303275091573596,-0.0016000387258827686,-0.0019213927444070578,-0.00166941131465137,0.001863436191342771,-0.003503641113638878,-0.0036276131868362427,0.008268643170595169,-7.999478839337826e-06,-0.0006358050741255283,-0.0005916344234719872,0.004345519468188286,0.00544909480959177,0.006389211397618055,0.003333132015541196,-0.0003904541372321546,0.0018643252551555634,0.003123518778011203,0.003321712836623192,0.0064251315779984,0.0024465061724185944,-0.004557497799396515,-0.0036980456206947565,-0.006859371438622475
发布,-0.01010296680033207,0.008887222968041897,0.010246537625789642,0.01530721876770258,0.002090513240545988,-0.016723351553082466,0.005880909506231546,0.012627921998500824,0.0007578041404485703,-0.012694498524069786,0.0036412873305380344,-0.012495603412389755,-0.007080567069351673,-0.006333462428301573,-0.00318242353387177,-0.013634713366627693,-0.003858014475554228,-0.005503556691110134,0.007895371876657009,-0.022602226585149765,0.013236701488494873,0.00023658270947635174,-0.008003373630344868,-0.008700547739863396,0.0005241589969955385,0.005773728713393211,-0.012882038950920105,-0.0014272622065618634,-0.005271462723612785,0.008798620663583279,0.007451063487678766,-0.009789425879716873,-0.001320798066444695,-0.00023801525821909308,-0.010566307231783867,0.01047635730355978,-0.0035098190419375896,-0.00601277407258749,-0.006729339715093374,-0.013179970905184746,0.002205073367804289,-0.011477932333946228,-0.0074586886912584305,-0.011867806315422058,-0.0019994366448372602,0.00530393049120903,-0.007891182787716389,0.003926930017769337,0.0002371102455072105,0.0012977739097550511,-0.0024589691311120987,-0.004687362816184759,0.003471875563263893,0.012566253542900085,0.005208202637732029,-0.00512589979916811,0.006102043204009533,-0.007537191733717918,-0.01646588183939457,0.003957712557166815,-0.006268460303544998,-0.0013080467469990253,0.005123088601976633,-0.0004350158851593733,0.007266637869179249,0.0009282835526391864,0.006381582003086805,-0.008589103817939758,-0.012356525287032127,0.017748016864061356,-0.0021374861244112253,-0.009207363240420818,-0.0034376350231468678,-0.0007636874215677381,0.011835017241537571,0.0023704213090240955,0.0008136910619214177,-0.0003717042272910476,-0.00763070909306407,-0.0003049264196306467,0.007036125753074884,0.002822939306497574,-0.007653767708688974,0.011107189580798149,-0.004278786946088076,-0.003521604696288705,0.001791680115275085,0.01084016915410757,0.006948027294129133,-0.00122332654427737,-0.010255496948957443,0.006915127858519554,-0.0016654198989272118,0.01186079066246748,0.004455115180462599,0.004447302781045437,0.0036443702410906553,-0.0025147951673716307,-0.004000059328973293,-0.0026836509350687265
投票,-0.0022705351002514362,0.0013413474662229419,0.002026088535785675,0.00010778952855616808,-0.0005301575874909759,-0.0064797233790159225,0.000926795182749629,0.00157217588275671,-0.0036631235852837563,0.0007668938487768173,-0.004231533966958523,-0.006065252237021923,-0.0018913792446255684,0.00046575674787163734,0.0020432069431990385,-0.0091879703104496,-0.0018310756422579288,-0.004169733263552189,0.00909538846462965,-0.013232583180069923,0.003279329277575016,0.0016076404135674238,0.0014743433566763997,-0.0014303267234936357,-0.00815441645681858,0.001559991156682372,-0.003116119187325239,-0.0017335808370262384,0.001226506195962429,0.0030618782620877028,0.00345049356110394,-0.0038662729784846306,-0.002622786909341812,0.0035999431274831295,-0.00016786705236881971,0.0023922277614474297,5.634268745779991e-05,-0.003084310796111822,-0.002659707795828581,-0.004080907441675663,0.002666755812242627,-0.006682827137410641,-0.003213888965547085,-0.0006716614007018507,-0.0016340836882591248,0.0015672474401071668,-0.009697533212602139,0.005230219103395939,0.002423782367259264,-0.0007361735915765166,-0.000637527322396636,0.0005270654219202697,-0.002959047444164753,0.00027628347743302584,-0.0023550575133413076,0.0015524125192314386,0.0025523602962493896,-0.005062941461801529,-0.0034854914993047714,0.0016078453045338392,0.000697828596457839,0.002513509476557374,-0.007976464927196503,0.0022633089683949947,0.007255892269313335,-0.0028532296419143677,0.0026427386328577995,-0.0022005941718816757,-0.0070135146379470825,0.0052057309076189995,-0.0038269078359007835,-0.0006703387480229139,-0.00030554377008229494,-3.668316639959812e-05,0.0055061280727386475,0.000825648894533515,0.004781923722475767,-0.0018325337441638112,-0.006234037224203348,0.00012087356299161911,-0.0011349220294505358,-9.145587682723999e-05,-0.0006496738642454147,0.000965564395301044,2.9940390959382057e-05,-0.00664096511900425,0.0013376654824241996,0.005366051569581032,0.005041261203587055,0.0015924872132018209,-0.0002777205081656575,0.001644560950808227,-0.001010791165754199,0.0044486746191978455,0.0021255826577544212,-0.00011886679567396641,0.0018822833662852645,-0.000977449119091034,-0.007927029393613338,-0.004809904377907515
选择,-0.000777269946411252,0.004866764880716801,0.002460623625665903,0.009016746655106544,-0.004527326673269272,-0.005715309642255306,0.002936967182904482,0.006686870474368334,-0.003406472271308303,0.0018882218282669783,-0.0015944881597533822,-0.01313465554267168,-0.007457150146365166,0.0017375366296619177,0.0022774781100451946,-0.005252842325717211,0.005538587458431721,-0.003876933827996254,0.004045893903821707,-0.013252951204776764,0.006718693301081657,-0.0020843795500695705,-0.001676103100180626,0.0003345688455738127,-0.002473098924383521,0.00044392928248271346,-0.003794620046392083,-0.006616328377276659,-0.0027636748272925615,-0.006176783703267574,0.0010402277112007141,-0.010114465840160847,3.4085242077708244e-05,0.003030539955943823,-0.004137163516134024,0.007363687269389629,0.001942062983289361,-0.00553370313718915,-0.002418642397969961,-0.010069827549159527,0.0014037516666576266,8.542976866010576e-05,-0.008251681923866272,-0.004223468713462353,-0.0033396275248378515,0.005802115425467491,-0.003141278401017189,0.007091893348842859,0.007046685554087162,0.005373881198465824,-0.00026197341503575444,-0.0008688379311934114,-0.0021514513064175844,0.006195794325321913,-0.0006388050969690084,0.006222810596227646,0.0020302743650972843,-0.008197654038667679,-0.0042753880843520164,0.0023576184175908566,0.0037916365545243025,0.0021519947331398726,-0.004850995261222124,0.002748858416453004,-0.00025858660228550434,-0.0029686973430216312,0.005351421423256397,-0.002348946174606681,-0.004388969391584396,0.004647435154765844,-0.00038082472747191787,-0.0026812050491571426,-0.004653271287679672,-0.002489857142791152,0.002035571029409766,0.001880395459011197,0.0014666577335447073,0.003436771919950843,-0.006460040807723999,0.003631012048572302,0.004758459981530905,-0.002043526154011488,-0.0028052423149347305,0.007152937352657318,-0.00046264403499662876,-0.000707198865711689,0.0012258575297892094,0.0013913048896938562,0.0001707716437522322,-0.0010841251350939274,-0.00485524395480752,0.002196394605562091,-0.0036675226874649525,-0.00018342450493946671,0.0018130454700440168,0.0029131679330021143,0.0025929627008736134,-0.003509579226374626,0.001970423851162195,-0.0037798259872943163
时间,-0.011623240076005459,0.005493502132594585,0.01053718663752079,0.010359808802604675,-0.00802704133093357,-0.012411914765834808,0.0025301584973931313,0.0076621053740382195,-0.006941444706171751,-0.006916113197803497,-0.0063528516329824924,-0.02014434151351452,-0.009390540421009064,0.00082191958790645,-0.0036503782030194998,-0.017833620309829712,-0.0043017128482460976,0.007365433499217033,0.0022641343530267477,-0.026094654574990273,0.005504677537828684,-0.0032727860379964113,-0.0024527302011847496,-0.002179847564548254,-0.00038113471237011254,0.0077215321362018585,-0.015361204743385315,-0.007731728255748749,-0.0066070109605789185,0.0012431161012500525,0.0015885832253843546,-0.01237524300813675,0.00014370022108778358,-0.0021202273201197386,-0.00923801027238369,0.012735909782350063,0.0013605027925223112,-0.013104233890771866,-0.012168888933956623,-0.020997464656829834,0.0009187432588078082,-0.010417917743325233,-0.011600167490541935,-0.012716889381408691,0.003351036459207535,0.003366684541106224,-0.009471090510487556,0.009895499795675278,0.006429810076951981,0.009142961353063583,-0.00656467117369175,-0.004971297457814217,-0.0012079745065420866,0.002447717124596238,0.0012273568427190185,0.0038352026604115963,0.009083529934287071,-0.005751478485763073,-0.014288341626524925,0.007186831906437874,-0.0003715612692758441,0.00193782988935709,0.0026170562487095594,-0.00392101239413023,-0.0011352049186825752,-0.006285113748162985,0.0006539991591125727,-0.008099433965981007,-0.017336584627628326,0.01891910471022129,-0.0053022089414298534,-0.005572649650275707,0.002097383141517639,-0.004745353478938341,0.007410953287035227,0.009767832234501839,0.006761791184544563,-0.00014891906175762415,-0.006612766534090042,0.0028217437211424112,0.007662310265004635,-0.004654527176171541,-0.004509011283516884,0.009074782952666283,-0.0064941467717289925,-0.004498335067182779,0.005518951453268528,0.005727379582822323,0.007410982623696327,0.002480833325535059,0.0010975039331242442,0.0015944256447255611,0.002000006614252925,0.008679422549903393,0.01504863053560257,0.010196350514888763,0.004428236745297909,-0.007360067218542099,-0.002069146139547229,-0.006263283081352711
票,0.0033374554477632046,-0.0014289133250713348,0.0038773948326706886,-0.005090954713523388,-0.0016665125731378794,0.0006297121290117502,0.006954853422939777,0.0019238539971411228,0.002496847417205572,-0.0016818596050143242,-0.0015211993595585227,0.0032626537140458822,-0.00233509112149477,0.00673263194039464,0.0018186168745160103,0.00018236192408949137,-0.006624337285757065,0.005214355885982513,-2.9517337679862976e-05,-0.0019866949878633022,-0.0028158617205917835,-0.00441803690046072,0.005459563806653023,-0.001123449532315135,0.00571788102388382,0.0033076931722462177,-0.003780693281441927,0.0037399772554636,0.008270672522485256,-0.00416302727535367,0.0009209467680193484,0.0015849716728553176,-0.006198497489094734,0.002626413945108652,-0.005012890323996544,0.0025398903526365757,0.008112957701086998,0.006329217925667763,-0.00510771106928587,-0.004131235647946596,-0.0006247737910598516,-0.0028586601838469505,0.0026763002388179302,-0.0035644283052533865,-0.0012362098786979914,0.0010102973319590092,0.0004276174586266279,0.003494909731671214,0.005391103681176901,0.003661357332020998,0.002514293882995844,-0.007495037280023098,0.0038221911527216434,-0.008742730133235455,0.006010454148054123,0.0040100496262311935,0.00687213521450758,0.004805211443454027,-0.007947519421577454,0.006013888865709305,-0.0006333542987704277,-0.0006847303593531251,-0.0019517777254804969,0.004607058130204678,0.004001358523964882,0.00308174267411232,0.0034538826439529657,-0.006405517924576998,-0.004258627071976662,-0.00438170600682497,0.0016123976092785597,-0.00027099507860839367,-0.0004800597671419382,0.0018899687565863132,-0.00500559201464057,-0.0005861059762537479,-0.004280546214431524,5.522044375538826e-06,0.004529296420514584,0.00039596017450094223,0.005335317924618721,0.0010948814451694489,-0.006289595738053322,0.0009701305534690619,0.0047481064684689045,-0.0033107770141214132,0.00642949715256691,0.003278061980381608,-0.004018779844045639,0.002173177432268858,0.003944514784961939,-0.004502263851463795,-0.002302873181179166,-0.004061197396367788,0.008606373332440853,-0.0014697005972266197,0.0031017670407891273,-0.003894432447850704,-0.0022666468285024166,0.001102560549043119
跳转,2.3502856492996216e-05,-0.002016331534832716,-0.0005690673133358359,-0.0007385375793091953,-5.0888105761259794e-05,0.005784912500530481,-0.0006080759922042489,0.000660579651594162,-4.827295197173953e-05,0.002023921115323901,-0.004013647325336933,0.00028598727658391,-0.004097933415323496,-6.054784171283245e-05,-0.0025121315848082304,0.0020668020006269217,-0.00043209572322666645,-0.003370816120877862,-0.001411502598784864,-0.003464971436187625,-0.0019057905301451683,-0.002636032411828637,-0.00027511606458574533,-0.001524348626844585,-0.003090245183557272,0.0008871200843714178,-0.001181886182166636,-0.0015997245209291577,0.00039860792458057404,-0.0013804915361106396,0.0005663284100592136,0.0025223474949598312,-0.00010370137169957161,-0.002492085099220276,0.00404897378757596,0.005591287277638912,0.0010518073104321957,-0.00567884836345911,-0.00310017098672688,-0.0023132723290473223,0.0007339791627600789,1.2801305274479091e-05,-0.004974024370312691,-0.0018215569434687495,0.0025635622441768646,0.000472856976557523,0.004215620923787355,0.0038218277040868998,0.0004270840436220169,-0.0021480813156813383,0.002511124825105071,-0.0010550667066127062,0.004709100350737572,-0.0018654527375474572,-0.004446924664080143,-0.0015407042810693383,-0.0011232501128688455,-0.006344943307340145,-0.0005280629266053438,0.00022539409110322595,0.0033615599386394024,-0.0014313871506601572,-0.00805386807769537,0.0007068211562000215,0.00266446964815259,-0.0072301942855119705,8.400855585932732e-05,-0.003984150476753712,0.00110706128180027,0.005371837876737118,-8.436889038421214e-05,0.00145964534021914,0.0003713807964231819,-0.0015917421551421285,6.005575414747e-06,-0.000366872176527977,-0.0012086763745173812,-8.67901835590601e-05,-0.0033728047274053097,-0.002457532100379467,0.0023560812696814537,0.0018852228531613946,0.0017213908722624183,0.001062622293829918,-0.0012412983924150467,-0.0030209750402718782,0.0030120215378701687,0.0019446585793048143,0.0027197180315852165,0.0024429699406027794,0.0032945694401860237,0.0035034322645515203,0.004126599058508873,-0.0018852839712053537,-0.002583328867331147,-0.0005842323880642653,0.0002757667098194361,1.245585735887289e-05,0.005366572178900242,-0.0004757221322506666
坑,-6.28642737865448e-05,-0.007537354249507189,0.007778332103043795,0.0010830059181898832,0.0051836371421813965,-0.004064185079187155,-0.004983097314834595,0.007245493587106466,0.0018106873612850904,0.0028811420779675245,-0.0018642533104866743,-0.0013911109417676926,-0.002042082604020834,0.0030683758668601513,-0.000794590450823307,0.004987349733710289,0.005422945600003004,0.0041517578065395355,-0.002007873961701989,0.0010641939006745815,0.002200792543590069,-0.00618113623932004,-0.0010506833204999566,0.0009399952250532806,-0.0004272250225767493,-9.78703610599041e-05,-0.004477145150303841,-0.0042799850925803185,0.002418922958895564,-0.0016698213294148445,0.007111832033842802,0.00022243661805987358,-0.003980796318501234,0.002834493760019541,-0.0009547006338834763,0.0017777597531676292,0.002640580991283059,0.003105140756815672,-0.0013646672014147043,-0.0035986751317977905,-0.004663713276386261,-0.0027294980827718973,0.0005772484000772238,0.0024165052454918623,0.0036247577518224716,-0.00040460401214659214,-0.000964472652412951,-0.004145985469222069,0.0029689285438507795,0.0006873591337352991,0.006044358946382999,0.00681669358164072,0.0034077116288244724,-0.0005904047284275293,-0.002014162950217724,0.0014340535271912813,0.003389463061466813,-0.0030182485934346914,-0.0003544008359313011,0.004529316443949938,0.0028960222844034433,0.0012497452553361654,0.003394258674234152,0.007153341546654701,3.424333408474922e-05,-0.0016265580197796226,-0.005012965761125088,0.0018661177018657327,-0.0005876529030501842,0.0005374252796173096,-0.00021778640802949667,-0.00017623079475015402,0.0007618791423738003,0.0042993780225515366,0.005458568222820759,0.00027433293871581554,0.0008301222696900368,0.004181262571364641,0.0007755339611321688,-0.00053368229418993,-0.0020560792181640863,-0.002833115868270397,0.0071960752829909325,0.004846878349781036,0.005974636413156986,-0.004047505557537079,-0.004667237866669893,0.004218225367367268,-0.0026249997317790985,0.007321907207369804,-0.000933350995182991,-0.004280132707208395,0.00028287898749113083,-0.0029454282484948635,0.00017178594134747982,0.005602420307695866,0.0008058990351855755,0.0072814603336155415,-0.00013894238509237766,-0.0007561882957816124
方案,0.001530577428638935,-0.0006281040841713548,-0.00029388489201664925,0.005321758799254894,-0.0016764923930168152,-0.004400824196636677,-0.00027324643451720476,-0.006717848591506481,0.0033214983996003866,-0.004354056436568499,0.00540503254160285,-1.637730747461319e-05,0.0021960672456771135,0.0022464063949882984,-0.004285786300897598,-0.006067957263439894,-0.0005191189702600241,0.003520439611747861,4.6076864236965775e-05,-0.0014226636849343777,0.0023427687119692564,0.00020232470706105232,0.005178152583539486,0.0003167932154610753,-0.0006642600055783987,2.149771898984909e-05,-0.0003474818659015,-0.001716046710498631,0.002054446842521429,-0.001649160054512322,0.0007393036503344774,-0.0009120655013248324,-0.003092503175139427,0.0008417286444455385,-0.0018742684042081237,-0.0035612834617495537,0.0019815857522189617,0.0005141478031873703,-0.00176351354457438,0.0011055243667215109,-0.0016774276737123728,0.0003324568970128894,-0.0018809243338182569,-0.004006726201623678,0.0012461846927180886,0.0007221532287076116,0.002739248564466834,-0.0006731260800734162,0.001204395666718483,0.000599802122451365,-0.005018715746700764,-0.002639405196532607,-0.0012708520516753197,0.0010063620284199715,-0.0014555524103343487,0.0038483880925923586,-0.002402142621576786,-0.004541562870144844,-0.002146258018910885,0.002142982091754675,0.004000377841293812,-0.002979110460728407,0.005671587772667408,-0.004113553091883659,-0.00027678802143782377,-0.0036127243656665087,0.0003634524764493108,-0.00011631345842033625,-0.0004065316170454025,0.0032993461936712265,0.0009707171702757478,-0.00016441894695162773,-1.7532729543745518e-05,-0.000268475036136806,-0.006890870630741119,-0.0026116352528333664,0.00336738140322268,-0.0020720260217785835,-0.00230538472533226,-0.002639414044097066,0.005878852214664221,0.001711430144496262,0.0015188241377472878,0.0016154216136783361,0.001635376363992691,-0.00538299884647131,0.0032536149956285954,-0.001174860168248415,0.0005008733714930713,0.007734251208603382,-0.0029022502712905407,-0.0021901887375861406,-0.00043258932419121265,0.0028484687209129333,0.0022561214864253998,0.006545973010361195,0.004414217546582222,-0.0009703190298750997,-0.0004706309409812093,0.003089034929871559
排名,-0.008412078954279423,0.002113989321514964,0.0017813582671806216,0.001171893090941012,-0.0016767678316682577,0.0058354283683001995,0.0014098811661824584,-0.0016386560164391994,-0.0034894347190856934,-0.004432342015206814,0.0033390235621482134,-0.005854085087776184,-0.0012346247676759958,-0.0021616702433675528,-0.001682258676737547,-0.002009410411119461,0.00483599491417408,0.0033017676323652267,-0.004340283572673798,-9.474577382206917e-06,0.00017762865172699094,-0.0036731332074850798,-0.0020564512815326452,-0.00314696179702878,0.004932134412229061,-0.0027731750160455704,-0.002655153162777424,-0.0030263951048254967,-0.0027461075223982334,-0.0010186100844293833,-0.003414762206375599,-0.0014865623088553548,0.0004281657747924328,0.0007165581919252872,-2.5337620172649622e-05,-0.0012912822421640158,0.0017661089077591896,-0.003332174150273204,0.003713854355737567,0.002275432227179408,-0.004241499118506908,-0.004068442620337009,0.0003864617319777608,-0.0014015069464221597,-0.003951283171772957,-0.0058088162913918495,-0.005101453512907028,0.0068383668549358845,0.0002754449378699064,-0.0009296737844124436,0.0054774503223598,-0.001958992099389434,0.0001545635750517249,-0.005136365536600351,0.0035763485357165337,-0.0035522724501788616,-0.002504834672436118,-0.0035394765436649323,0.0007324484176933765,0.0007750072982162237,-0.004598259460180998,-0.003989475779235363,-0.0025433909613639116,0.0010634108912199736,-0.0010063601657748222,0.006342385895550251,0.005696067586541176,0.0009212287841364741,0.0033893766812980175,-0.004147982224822044,0.0039290618151426315,0.001999273430556059,0.0005680560134351254,-0.006681170780211687,0.0017173219239339232,-0.0012427996844053268,0.005188046954572201,-0.001029702601954341,-0.0008672740077599883,-0.0007421707268804312,0.004749968182295561,0.001612466643564403,0.0021331829484552145,-0.00132336700335145,-0.0022041804622858763,0.0027160204481333494,-0.003032159758731723,0.0034401563461869955,-0.0024352758191525936,-0.002444557147100568,0.0007869158871471882,0.00010314304381608963,-0.001584004843607545,-0.0006759138777852058,-0.003023830009624362,0.0013402445474639535,0.0006582059431821108,-0.002321479143574834,-0.0010493217268958688,-0.004662832245230675
看到,-0.012709524482488632,0.006147345993667841,0.011909580789506435,0.020314574241638184,-0.005362372845411301,-0.013018907979130745,0.009641904383897781,0.011715180240571499,-0.004154967609792948,-0.004830207210034132,-0.0029882139060646296,-0.022037556394934654,-0.00746999541297555,0.007472577504813671,-0.004086872562766075,-0.02493901364505291,0.0022567687556147575,0.0035579106770455837,0.00780691672116518,-0.034739527851343155,0.011027572676539421,-0.009276080876588821,-0.009694810025393963,-0.0015098036965355277,0.004156001843512058,0.001350698177702725,-0.015205505304038525,-0.010972017422318459,-0.0024659878108650446,0.0042509357444942,0.009782906621694565,-0.009038660675287247,-0.002223948948085308,0.0012540544848889112,-0.00815612357109785,0.014079414308071136,0.0048749130219221115,-0.013973250985145569,-0.01600123941898346,-0.020439187064766884,0.0023785829544067383,-0.011804383248090744,-0.008866280317306519,-0.011548612266778946,-0.0075264740735292435,0.0019393421243876219,-0.01445191539824009,0.011277136392891407,0.008321911096572876,0.010759428143501282,-0.0083384457975626,-0.00500825047492981,-0.0024152230471372604,0.00670317467302084,0.0064823320135474205,0.004130322486162186,0.0045300633646547794,-0.007022509351372719,-0.011976417154073715,0.006642248015850782,-2.4911831133067608e-05,0.009671226143836975,0.00023173855151981115,0.002831378486007452,-0.0007599274977110326,-0.0052616652101278305,0.007143694441765547,-0.009925050660967827,-0.015422264114022255,0.022045714780688286,-0.0011537994723767042,-0.006054598838090897,-0.0008176038973033428,-0.004993380047380924,0.014193328097462654,0.0011014987248927355,0.006723534315824509,0.0014554730150848627,-0.012944196350872517,-0.004652796313166618,0.003536171978339553,0.0031594105530530214,-0.005706333089619875,0.006193633656948805,-0.003558962605893612,-0.005618280731141567,0.004225638695061207,0.010907378979027271,0.01702466979622841,-0.0009335902868770063,-0.0023399817291647196,0.004123049788177013,-7.631303742527962e-05,0.011012930423021317,0.017055373638868332,0.011714117601513863,0.002506231889128685,-0.0095477644354105,-0.005277307704091072,-0.002508418867364526
好,-0.02515845000743866,0.011395471170544624,0.017303969711065292,0.0220927856862545,0.000364387349691242,-0.003870553569868207,0.006761508993804455,0.010765047743916512,-0.0037923678755760193,-0.007792898919433355,-0.003947049379348755,-0.02440405637025833,-0.0044952514581382275,0.00041418918408453465,0.0016775266267359257,-0.018762733787298203,3.629922866821289e-05,-0.00012058086576871574,-0.004530596546828747,-0.038426440209150314,0.005803165957331657,0.0012398676481097937,-0.004932606592774391,-0.0026753894053399563,0.002968361135572195,0.008076720871031284,-0.011279438622295856,-0.014708565548062325,9.051419328898191e-05,0.002683012280613184,0.007882899604737759,-0.014016363769769669,-0.0021700302604585886,0.003612654749304056,-0.003930994309484959,0.020173827186226845,0.005711432546377182,-0.01065286248922348,-0.01549552008509636,-0.022963732481002808,-0.0016313102096319199,-0.013594564981758595,-0.01633455418050289,-0.011500753462314606,-0.008048390038311481,0.0017040121601894498,-0.017512448132038116,0.012858870439231396,0.003047510050237179,0.008304637856781483,-0.007510713301599026,-0.0004071693983860314,0.0008350549032911658,0.011659475974738598,0.008000009693205357,0.0014530136249959469,0.006126318592578173,-0.006989200133830309,-0.010576020926237106,0.004284531809389591,-0.008861847221851349,0.005300038959830999,0.0025665340945124626,-0.004689074587076902,-0.005809578113257885,-0.004301587585359812,0.004344914108514786,-0.004621368832886219,-0.017232997342944145,0.021827762946486473,-0.007293959613889456,-0.00978325679898262,-0.001259729266166687,-0.0017073825001716614,0.0034930924884974957,0.0068865385837852955,2.3366959794657305e-05,-0.0033956742845475674,-0.011615986004471779,-0.006559595465660095,0.0016516339965164661,-0.004355678800493479,0.0033691939897835255,0.0027257667388767004,-0.0056231217458844185,-0.0070304954424500465,0.006016082130372524,0.0006729507585987449,0.012225709855556488,0.0031230140011757612,-0.009701304137706757,0.0032345878425985575,-0.0013450745027512312,0.012283163145184517,0.02200121246278286,0.006800101138651371,0.004185241647064686,-0.006651169620454311,-0.006854131817817688,-0.0027845799922943115
邪,0.0032628332264721394,-0.007114535663276911,0.0008945325389504433,-0.00511647155508399,-0.0018102526664733887,-0.004309760872274637,-0.0027817438822239637,0.00269936490803957,0.006985180079936981,0.0010831812396645546,0.0059475768357515335,-0.003999203909188509,0.0034312698990106583,0.003368806792423129,0.003949848935008049,-0.0020187566988170147,-0.005455939099192619,-0.0012018963461741805,0.0056734406389296055,0.004404169507324696,0.0027926957700401545,0.0063850730657577515,-0.0003509695525281131,-0.001948632299900055,0.0042512319050729275,0.0018105409108102322,0.004695484414696693,-0.003897793358191848,0.0007074145833030343,-0.003087942721322179,-0.005231247283518314,-0.004127933643758297,-0.0008693044073879719,0.0019873054698109627,0.005508060101419687,0.005369135178625584,0.006928067654371262,-0.000406277715228498,0.004720758181065321,-0.001072619343176484,-0.005626833997666836,0.0015479645226150751,-0.00034176046028733253,0.0058625550009310246,0.008311057463288307,0.0010509481653571129,-0.002665471751242876,0.0036249286495149136,-0.0042342450469732285,-0.0013291488867253065,0.0004255154635757208,-0.0007235478842630982,0.0030420045368373394,-0.005956066772341728,0.007978399284183979,-0.0011745968367904425,0.003635672153905034,0.0044401222839951515,0.0016834803391247988,0.005126405041664839,0.0001420134212821722,0.0066919587552547455,-0.0042481920681893826,-0.003064736258238554,0.0020957619417458773,-0.003524887841194868,-0.0019719386473298073,-0.00428138580173254,0.0017417188500985503,-0.0005848284345120192,-0.0013454874278977513,-0.0010347759816795588,0.002715757116675377,-0.000488760182633996,-0.004461313132196665,-0.0010203591082245111,-0.007533655967563391,9.541073814034462e-05,0.004576424602419138,-0.002758381888270378,0.0007634824141860008,0.004602879751473665,-0.0017667668871581554,0.004881698172539473,0.0019101351499557495,-0.001739150146022439,-0.0007684598676860332,-0.0002306241076439619,-0.00453923037275672,0.00770728662610054,-0.0015418417751789093,0.004092823714017868,-0.004645434208214283,-0.0035693771205842495,0.0016958555206656456,0.00351088959723711,-0.003966670949012041,-0.006801086477935314,-0.0009728712029755116,0.003517918288707733
纪念,-0.0007123277755454183,-0.0021655154414474964,-0.0013440249022096395,0.0014823372475802898,0.00040701718535274267,0.0007200576364994049,0.0003562462516129017,0.0026271087117493153,-0.003388012759387493,-0.00013515923637896776,0.0031033544801175594,-0.003450714284554124,0.0021992232650518417,-0.003913638181984425,-0.0018615431617945433,-0.005634159781038761,0.0010699185077100992,-0.0023360783234238625,0.00013905949890613556,-0.0041914465837180614,0.002841440262272954,0.0018900618888437748,0.005902738776057959,0.004629352129995823,0.002569739241153002,-0.0034534975420683622,0.0018020847346633673,0.001870947191491723,-0.005380557384341955,-0.0029348796233534813,0.001645213458687067,-0.0013866128865629435,-0.0008004740811884403,0.0010451197158545256,-0.0021236154716461897,0.005444703157991171,-0.001869461964815855,-0.004980006255209446,0.0002596635604277253,-0.0041351234540343285,0.0010952402371913195,-0.0019750772044062614,-0.0013523410307243466,-0.0001547610154375434,0.0021803113631904125,0.003357833484187722,-0.002233597682788968,0.0036199470050632954,0.00262429378926754,0.004929492250084877,-0.0016732759540900588,-0.0020493308547884226,-0.0012577895540744066,0.0014970459742471576,-0.004343004897236824,-0.0022723174188286066,0.0034868079237639904,0.0006304262205958366,-0.0026598162949085236,-0.00226784311234951,-0.0005121221765875816,0.0013947633560746908,0.002629164606332779,-0.0009587439708411694,0.0014646927593275905,-0.005786384455859661,-0.0003233100287616253,0.0013785648625344038,-0.006903665140271187,0.003949352074414492,0.000814939325209707,0.001952529652044177,-0.0006570840487256646,0.0013705338351428509,0.003186695510521531,0.005713635589927435,0.0033795172348618507,0.0016132118180394173,1.3684621080756187e-06,0.0045191883109509945,0.0013260022969916463,0.003992300480604172,-0.0015193672152236104,-0.001748345559462905,-0.0010352510726079345,-0.00019901571795344353,0.003986399620771408,0.004811930004507303,-0.0008015503408387303,0.0017102262936532497,-0.0008349819690920413,0.006291847676038742,0.0028364798054099083,0.0051083872094750404,0.0026346491649746895,0.002309653675183654,-0.003279292955994606,0.00018093350809067488,-0.0023511317558586597,-0.006119979545474052
能,-0.0032434165477752686,0.005178159102797508,0.007964828982949257,0.009337898343801498,0.002091712085530162,-0.0030781663954257965,0.008657122030854225,0.0004952405579388142,-0.005593717563897371,-0.003812490962445736,0.005537013523280621,-0.014446171000599861,-0.009289887733757496,-0.0013452768325805664,-0.0023671267554163933,-0.005737288389354944,0.00014880442176945508,-0.0014030389720574021,-0.0011657139984890819,-0.022354405373334885,-0.002084003994241357,0.005841733887791634,-0.012141825631260872,-0.0027614515274763107,-0.004122249782085419,0.0022574039176106453,-0.006078433245420456,-0.0100320503115654,-0.002593366429209709,0.0033754364121705294,0.0025158985517919064,-0.009197059087455273,-0.002794870175421238,0.0012423086445778608,0.0010916097089648247,0.011660457588732243,0.0038348555099219084,-0.002263373928144574,-0.011448867619037628,-0.017309628427028656,0.004802879877388477,-0.012827322818338871,-0.007133929058909416,0.002122297650203109,-0.005120115354657173,0.005380359943956137,-0.007444871589541435,0.008140160702168941,0.0062678055837750435,0.003399069420993328,-0.000638235011138022,-0.0016672010533511639,0.0031431089155375957,0.013123702257871628,-0.006106158718466759,0.005930383689701557,0.005294125061482191,-0.0012425497407093644,-0.00871947780251503,-0.003771852469071746,-0.01033090054988861,0.007252255920320749,-0.0040763672441244125,0.003054741770029068,0.0011377224000170827,0.00014660926535725594,0.0022610239684581757,-0.009668158367276192,-0.002048841677606106,0.016914743930101395,-0.005103427451103926,-0.008534464985132217,-0.004219219088554382,0.0040361941792070866,0.005534110125154257,0.0011744929943233728,0.008242307230830193,0.005318792071193457,-0.00301556009799242,0.0048233866691589355,0.0012674948666244745,0.0019015063298866153,-0.0009055818663910031,0.004686260130256414,-0.010724230669438839,-0.007013056427240372,0.0010464423103258014,0.003961216192692518,0.013045262545347214,0.008332486264407635,-0.00655296491459012,0.00012175273150205612,0.003109542652964592,0.0022445805370807648,0.007894248701632023,0.0054268185049295425,0.005418450105935335,-0.008211566135287285,0.006175708957016468,-0.0042180586606264114
