word,0,1,2,3,4,5,6,7,8,9,10,11,12,13,14,15,16,17,18,19,20,21,22,23,24,25,26,27,28,29,30,31,32,33,34,35,36,37,38,39,40,41,42,43,44,45,46,47,48,49,50,51,52,53,54,55,56,57,58,59,60,61,62,63,64,65,66,67,68,69,70,71,72,73,74,75,76,77,78,79,80,81,82,83,84,85,86,87,88,89,90,91,92,93,94,95,96,97,98,99
仍,0.004882287699729204,0.005426662042737007,0.006089116912335157,0.008013810962438583,0.004195592366158962,0.000506082084029913,-0.008051645942032337,0.000984962098300457,0.006264906842261553,0.000606548972427845,0.0010540597140789032,0.004503964446485043,0.0047452449798583984,0.0008489973261021078,-0.0035587847232818604,-0.0042590489611029625,-0.004618447739630938,-0.001724260626360774,-0.00439505884423852,-0.007964648306369781,-0.003949131816625595,-0.003972705453634262,-0.0016882102936506271,-0.0018080453155562282,-9.481655433773994e-05,-7.018446922302246e-06,-0.002300696214661002,0.005927050486207008,-0.0009254300966858864,0.004702883306890726,-0.005753153935074806,-0.006457045208662748,0.0019742795266211033,-0.0007653255015611649,-0.007438513450324535,0.006618662737309933,-0.0021160191390663385,0.002442298224195838,-0.009197227656841278,-0.0022409274242818356,-0.004418357741087675,0.003412963356822729,0.004338071681559086,-0.0016467651585116982,-0.0030862605199217796,-0.00837111845612526,0.00019589676230680197,-0.0014460012316703796,-0.004987554624676704,-0.006325046066194773,-0.0031376746483147144,-0.004801406525075436,-1.6317484551109374e-05,-0.006806112360209227,0.004600932821631432,-0.00041482667438685894,0.00031165627297014,-0.0011848431313410401,-0.0025975119788199663,-0.008298806846141815,-0.006555660627782345,0.006579205393791199,0.0027937772683799267,0.0017836199840530753,-0.0014637636486440897,0.0007896895986050367,-0.00012573041021823883,-0.004941203165799379,-0.00504479231312871,-0.003640251699835062,-0.002418951131403446,-0.005760835018008947,-0.0010229998733848333,0.0012578198220580816,-0.0070894076488912106,0.00024281902005895972,0.004619617946445942,-0.0017923121340572834,0.002621576189994812,0.006490438710898161,-0.007428320124745369,0.003265964100137353,-0.0007132455939427018,-0.0016741303261369467,0.003979464527219534,-0.001978505402803421,-0.00042459997348487377,-0.0010760562727227807,0.004233440384268761,-0.0026488553266972303,0.003556301584467292,0.005692864302545786,-0.0006241644732654095,0.0059290193021297455,-0.0068632373586297035,0.003803213592618704,0.0003626304678618908,-0.006169989239424467,0.001315335277467966,-0.0077610500156879425
推,-0.013088449835777283,0.014039857313036919,0.003481081919744611,0.01132999174296856,-0.002821131143718958,-0.009042377583682537,0.0014201077865436673,0.002308097667992115,-0.009494551457464695,5.702953785657883e-06,0.002175064291805029,-0.008073186501860619,-0.0053380876779556274,0.006551243364810944,0.004315950442105532,-0.018399562686681747,0.0012059484142810106,-0.0022686703596264124,0.004504898563027382,-0.006334403064101934,0.0030886514578014612,-0.006610620766878128,-0.0019119770731776953,-0.0028761504217982292,-0.0009826614987105131,0.01029438991099596,-0.00564311258494854,-0.006535857450217009,-0.0077524990774691105,0.0018461504951119423,-0.003879051422700286,-0.004969628993421793,-0.0014347175601869822,0.0029745791107416153,0.0007594394264742732,-0.00021317414939403534,0.004415177274495363,-0.0017310504335910082,-0.009598946198821068,-0.015021931380033493,0.009482664056122303,0.00433695875108242,0.004129138309508562,-0.0004499003989621997,-0.01090247929096222,0.0028739478439092636,-0.002314126817509532,0.005370493978261948,0.011968778446316719,0.003481026506051421,-0.011504264548420906,-0.005240367725491524,-0.00035291980020701885,0.005329873878508806,0.010446892119944096,-0.0027778279036283493,0.004439591430127621,-0.0018187155947089195,-0.007534725591540337,0.004427292384207249,-0.0006493960972875357,-0.003238784149289131,0.004276161082088947,0.0013005458749830723,-0.0031258733943104744,0.006959143094718456,0.002032465999945998,-0.01402188092470169,-0.003583761863410473,0.010045119561254978,-0.009261084720492363,-0.004441794473677874,4.395307041704655e-05,-0.006205686368048191,0.007200680673122406,0.0005677435547113419,0.002071467461064458,-0.0028365785256028175,0.0030883224681019783,-0.006133701652288437,0.003304683603346348,0.00880926102399826,0.0010840343311429024,0.0013441811315715313,-0.007093758787959814,-0.002394260372966528,0.007134556770324707,0.011631114408373833,0.009394485503435135,-0.004032118711620569,-0.0007395112770609558,0.0026108091697096825,-0.006313064135611057,0.0032802012283354998,0.004383916035294533,-0.0034624580293893814,-0.001154441968537867,-0.0102760661393404,-0.004021041095256805,-0.004296530969440937
继续,-0.007909038104116917,0.00778636010363698,0.005096059292554855,0.012296522967517376,-0.006737713702023029,-0.00139087182469666,0.0026895173359662294,0.004377707373350859,0.001942258095368743,-0.008449716493487358,0.002497364766895771,-0.01220687199383974,-0.005488382652401924,0.0020297567825764418,-0.002951802685856819,-0.011825961992144585,0.0018402647692710161,0.0006832975195720792,0.0055129649117589,-0.02001071721315384,0.00463090417906642,-0.0021222499199211597,-0.003001792822033167,-0.0021678609773516655,-0.0018617695895954967,0.005993145518004894,-0.003207024186849594,-0.00862675067037344,-0.0051072402857244015,-0.0024977228604257107,6.333563942462206e-05,-0.007162072230130434,-0.0018547005020081997,-0.002944309264421463,-0.0024949631188064814,0.006716663483530283,0.006491595879197121,-0.010510784573853016,-0.0070626153610646725,-0.005426918156445026,0.003926217555999756,-0.0030852584168314934,-0.00534063158556819,-0.007052145432680845,0.0011692452244460583,0.004867156036198139,-0.004603777080774307,0.01172107644379139,0.007898527197539806,0.001660334412008524,-0.0013270708732306957,0.0008289124816656113,-0.0002819907385855913,0.0069112712517380714,-0.003565590362995863,-9.08123329281807e-05,0.006159783340990543,-0.0031289670150727034,-0.00706524308770895,0.004593087360262871,-0.001735768048092723,0.0022556916810572147,0.0014399016508832574,-0.004982410930097103,-0.003947431221604347,-0.006296209990978241,0.008755067363381386,-0.007683904841542244,-0.00988277979195118,0.013461165130138397,-0.0010754254180938005,-0.005600014701485634,-0.0009215124882757664,-0.0027643016073852777,0.004513371270149946,0.0067943669855594635,0.004114726558327675,-0.0010864879004657269,-0.008478038012981415,-0.002379446988925338,0.008333789184689522,0.0007326800841838121,-0.002856744220480323,0.0032621247228235006,0.00034062276245094836,0.007268812973052263,0.0014797316398471594,4.37631388194859e-05,0.007737323176115751,0.0023012282326817513,-0.0042845821008086205,0.004319143481552601,-0.0011997915571555495,0.008302630856633186,0.0023428963031619787,0.00438256049528718,0.00026280066231265664,-0.009598974138498306,0.0033274474553763866,-0.0014297689776867628
生活,-0.007293097209185362,0.016017233952879906,0.008475651033222675,0.011184733361005783,-0.004213718697428703,-0.007119618356227875,0.00868353433907032,0.010224660858511925,-0.0022385898046195507,0.00013500306522473693,-0.0011119814589619637,-0.018987806513905525,-0.005994771607220173,0.002097179414704442,-0.0019654780626296997,-0.01984606310725212,-0.0020322557538747787,0.004788105376064777,0.0023371786810457706,-0.027977393940091133,0.0036608916707336903,-0.004104642663151026,-0.00586882047355175,-0.0009728086879476905,-0.0042688436806201935,0.006517414469271898,-0.008511459454894066,-0.003092931117862463,-0.0017390738939866424,-0.004907608963549137,-0.0023472600150853395,-0.009289992041885853,-0.006754828616976738,-0.0019190486054867506,-0.011342923156917095,0.011789285577833652,0.00723893940448761,-0.004868483170866966,-0.019202087074518204,-0.013900659047067165,0.00011550902854651213,-0.00407638493925333,-0.006055261008441448,-0.012151441536843777,0.0023350915871560574,0.002656544791534543,-0.01210067979991436,0.012787331826984882,0.007077817339450121,0.011644499376416206,-0.005092909559607506,0.0015860042767599225,0.002021560212597251,0.005680167581886053,0.0040177227929234505,-0.00388158718124032,0.005712792277336121,-0.004314062185585499,-0.0071388306096196175,0.004625840112566948,0.00024169158132281154,0.005961092188954353,-0.006262599490582943,0.0008484490681439638,0.00011058978270739317,-0.0068192435428500175,0.002252549398690462,-0.004753298591822386,-0.013698406517505646,0.012207388877868652,0.003480644663795829,-0.0038002384826540947,-0.0008378531783819199,-0.0030489005148410797,0.008848407305777073,0.007636976428329945,0.004846961237490177,-0.0008962096180766821,-0.002002646215260029,0.0033456250093877316,0.005339186638593674,-0.006944743916392326,-0.00043262471444904804,0.0047227563336491585,0.000482231262139976,-0.0037904311902821064,0.0013981328811496496,0.0077949706465005875,0.013247028924524784,0.009050442837178707,-0.0014665743801742792,0.0003182921791449189,0.0018035646062344313,0.009257564321160316,0.012717612087726593,0.0035503224935382605,0.00628888513892889,-0.0026004004757851362,-0.007761626038700342,-0.0014361499343067408
好事,-0.0029905391857028008,-0.0002811051672324538,-0.0009278417564928532,0.0023494455963373184,-0.0002532589714974165,-0.0037373146042227745,0.0004877877654507756,-0.0040090568363666534,0.0012830777559429407,0.0015705371042713523,0.0016867745434865355,3.620248753577471e-05,-0.001126171089708805,-0.0038955749478191137,0.00016485201194882393,-0.0005307483952492476,0.004661310464143753,0.0029009138233959675,0.003081036265939474,0.002677978714928031,0.0036166715435683727,-0.0012009164784103632,0.0019661840051412582,-0.0006697452627122402,0.002575112273916602,-0.002785745309665799,0.0015001962892711163,0.0005926345475018024,-0.002929970622062683,-0.004765431396663189,0.00737041374668479,0.004161369055509567,0.0007827439112588763,-0.0014639260480180383,0.006564410403370857,-0.004130357876420021,0.0002945004962384701,0.0011609357316046953,-0.0015527392970398068,-0.0063601164147257805,-0.0019432847620919347,0.0015184804797172546,-0.0023546998854726553,-0.0057126665487885475,-0.0001159575767815113,-0.0012452071532607079,0.0003205707762390375,0.00039823894621804357,0.001949374913237989,0.0013051407877355814,0.0008313441067002714,-0.0034980722703039646,-0.0035634697414934635,-0.0020069237798452377,-0.004455186426639557,-0.0003818289842456579,0.0037102065980434418,0.0028619307558983564,-0.0023738350719213486,0.004111389629542828,0.0022349897772073746,0.0026057579088956118,0.0017750661354511976,0.00030539114959537983,-0.0015907558845356107,-0.0026917182840406895,0.0011225879425182939,-0.0051513658836483955,-3.326917067170143e-06,0.003495678771287203,0.0030986142810434103,0.003333374857902527,0.002777454908937216,0.001728623523376882,0.004926490131765604,0.00031840032897889614,-0.003150172531604767,0.002480539958924055,0.00040226447163149714,-0.0002950072521343827,-0.001146131195127964,0.0062149870209395885,-1.4435790944844484e-05,0.0076614245772361755,0.004773362074047327,0.0010726465843617916,-0.0019378694705665112,0.0004137299256399274,0.0009835080709308386,0.0006003488088026643,-0.00351764727383852,-0.0014322421047836542,0.007674210239201784,-0.0010684853186830878,0.0036561705637723207,0.003740874584764242,0.0016613847110420465,0.0003552107373252511,0.00011518644168972969,0.0015894068637862802
特是,-0.00018167623784393072,-0.0033569876104593277,0.0016801164019852877,0.0036022886633872986,-0.0014930411707609892,-0.0047060418874025345,0.0021087289787828922,0.0013847874943166971,0.003812722861766815,-0.003975629806518555,-0.0013923353981226683,0.0019806616473942995,0.0007176287472248077,-0.0007315765251405537,-0.0007108068093657494,-0.0006529974634759128,-0.00025706226006150246,-0.0011299805482849479,-0.000472571118734777,0.0008111029164865613,-0.0012416563695296645,0.0005950997583568096,0.00405270978808403,0.0019443784840404987,-0.00029412476578727365,0.003098722081631422,0.0004891332937404513,3.2122363336384296e-05,-0.0006801097770221531,-0.004779141861945391,-0.000891866278834641,0.0008537266403436661,-0.0018334637861698866,-0.0018504380714148283,0.0007046917453408241,-0.0019058705074712634,-0.0012724980479106307,-0.000772485975176096,-0.00410634046420455,0.0015402939170598984,0.0010907131945714355,-0.0017402160447090864,0.00032918353099375963,-0.0013692465145140886,0.0009255820186808705,0.0005645595956593752,-0.0011353087611496449,0.002833552425727248,0.0036713285371661186,-0.00015368987806141376,0.0029895142652094364,-0.0028726307209581137,0.0010542433010414243,-0.003179616294801235,0.0011644724290817976,-0.0008586904732510448,-0.0023635844700038433,-0.00027766916900873184,-0.000996131799183786,0.0003410936624277383,-0.004307860508561134,-0.0015475561376661062,-0.0005168698262423277,0.0037110033445060253,-0.0010498033370822668,-0.0033930717036128044,0.0011366098187863827,-0.0010089136194437742,-0.004251290112733841,0.003123501781374216,-0.0026307653170078993,-0.0014145111199468374,0.0006215085741132498,0.0018619282636791468,-9.810109622776508e-05,0.002124585909768939,-0.004174490459263325,0.000678874203003943,-0.002460744697600603,-0.0018006887985393405,-0.00046896690037101507,-0.0009117949521169066,-0.0024419836699962616,-0.0026729758828878403,0.0019191937753930688,0.002772799227386713,-0.0005455365171656013,-0.0025594972539693117,0.003252211958169937,0.003378299530595541,0.00179499841760844,-0.0037441933527588844,0.0042295074090361595,-0.00044115493074059486,-0.004488417413085699,-0.003846977837383747,4.3742009438574314e-05,6.167450919747353e-05,-0.004751977510750294,0.004338258411735296
