word,0,1,2,3,4,5,6,7,8,9,10,11,12,13,14,15,16,17,18,19,20,21,22,23,24,25,26,27,28,29,30,31,32,33,34,35,36,37,38,39,40,41,42,43,44,45,46,47,48,49,50,51,52,53,54,55,56,57,58,59
人,-0.0101463058963418,0.004598437342792749,0.018561135977506638,0.0017733871936798096,-0.0029677324928343296,-0.010536689311265945,0.00374459195882082,-0.005430322140455246,-0.004615682177245617,-0.0136062391102314,-0.0033737709745764732,-0.006145566701889038,0.02102573588490486,-0.018877364695072174,-0.00039976323023438454,0.00898177269846201,-6.071198731660843e-05,-0.0006878859712742269,-0.0014991951175034046,-0.009654125198721886,-0.003216545330360532,-0.007819700054824352,-0.01050514541566372,-0.003662541974335909,0.012253900989890099,-0.004006441216915846,-0.00010560662485659122,0.008824488148093224,-0.005933020263910294,0.0019435393624007702,0.003702373942360282,0.00048273010179400444,0.0005853376351296902,-0.008737660944461823,0.0055633774027228355,-0.0005354683380573988,0.0031520205084234476,0.005937577225267887,-0.013901341706514359,0.0002487415913492441,0.002606648486107588,-0.002334358636289835,-0.011959109455347061,0.0019885506480932236,-9.091757237911224e-05,-0.010221878066658974,-0.0028204075060784817,-0.0001135505735874176,-0.004330862313508987,0.013498739339411259,0.019873371347784996,-0.0019109873101115227,-0.010277019813656807,0.007804051972925663,0.0030861927662044764,0.006706442683935165,-0.009943493641912937,-0.010913492180407047,0.005235779564827681,-0.009288309141993523
更,0.006893410347402096,0.010489226318895817,0.004786436911672354,0.007664804812520742,-0.0010991431772708893,0.007175041828304529,-0.005844827275723219,-0.010838781483471394,0.0028353887610137463,8.429470472037792e-05,-0.0020934930071234703,0.011685864999890327,0.00822780467569828,-0.006755567155778408,0.010234198532998562,-0.0005497129168361425,-0.004345993977040052,0.005455676466226578,-0.005240056663751602,-0.00848877988755703,0.00976645853370428,-0.015726815909147263,0.004259736277163029,0.009793751873075962,0.009318348951637745,-0.008081321604549885,0.0052317166700959206,0.0034397575072944164,0.00374095537699759,-0.008448847569525242,0.0027076334226876497,-0.0008145651081576943,-0.0120064252987504,0.004738869145512581,-0.0007574355695396662,0.007856512442231178,0.003390262834727764,-0.011248905211687088,0.0002934481017291546,0.015524329617619514,0.0008415728807449341,0.01479827519506216,-0.0032443946693092585,0.007876317016780376,-0.007100214250385761,-0.006165217608213425,-0.001473742537200451,0.012372724711894989,0.0014734789729118347,0.0057777343317866325,0.008156110532581806,-0.011202065274119377,-0.00405680388212204,-0.0030681504867970943,0.017737897112965584,0.008452067151665688,-0.010863455012440681,0.001989739015698433,0.010286092758178711,-0.018670130521059036
水手,-0.0017910822061821818,5.0291186198592186e-05,-0.0041100396774709225,-0.0005613564280793071,-0.004259442910552025,0.00368432211689651,-0.0021602024789899588,0.001147843082435429,0.0015736980130895972,-0.008562368340790272,-0.004850134253501892,-0.007645460776984692,-0.0036594553384929895,0.00045044487342238426,0.009277398698031902,0.006525132805109024,0.004278827458620071,0.014481130987405777,0.006354223005473614,0.0013524674577638507,-0.002773914486169815,0.003425504779443145,0.0007843886269256473,0.004969688598066568,-0.005332456901669502,-0.009509214200079441,-0.014123326167464256,0.0035968117881566286,-0.002208285266533494,0.0023912175092846155,-0.0033112550154328346,-0.001945004565641284,-0.0030254595912992954,0.0018301629461348057,-0.009103101678192616,0.0017114276997745037,0.006653370801359415,-0.003948970697820187,0.0013935763854533434,0.007535107433795929,0.0071644047275185585,-0.004809947684407234,-0.0023423165548592806,0.009738150984048843,-0.004842352122068405,-0.010198211297392845,0.0010388917289674282,0.0026251112576574087,-0.003881701733916998,-0.008649449795484543,0.000794700812548399,0.004829957615584135,-0.007364104967564344,0.0035189769696444273,0.0036110759247094393,-0.00220297509804368,0.00046414020471274853,0.007649490609765053,0.006357035133987665,0.009022464044392109
合作,-0.004142904654145241,0.006668378598988056,0.0037529049441218376,-0.003989988472312689,0.007281821221113205,-0.004891019314527512,-0.0020068204030394554,-0.0018764340784400702,-0.005859941244125366,-0.00795728899538517,1.4237593859434128e-07,0.0015559614403173327,-0.001339445123448968,-0.0008860176894813776,0.0005129086202941835,-0.0008178220596164465,-0.001751163275912404,-0.0033193344715982676,0.002470453269779682,-0.0013811197131872177,-0.0035580426920205355,0.008967189118266106,0.005635166075080633,0.002107724780216813,0.010354612953960896,-0.009707753546535969,0.0005111235659569502,-0.007357618771493435,-0.005217557307332754,0.005075348541140556,-0.0018611603882163763,0.005387122742831707,-0.0027854216750711203,-0.007564424071460962,0.006284189410507679,-0.003806802211329341,-0.005191424861550331,0.0008911622571758926,-0.011111299507319927,-0.013053791597485542,0.0016019530594348907,-0.006363416090607643,-0.006096776109188795,0.007182264234870672,-0.003281685756519437,0.00020445568952709436,-0.0041293068788945675,-0.0015079675940796733,-0.006378059275448322,0.004855494946241379,0.0016037115128710866,0.004624460823833942,-0.0004584395792335272,-0.0059770215302705765,0.00672944076359272,-0.00023549317847937346,0.0015019041020423174,-0.012045813724398613,-0.00100178481079638,0.0020545218139886856
电视,-0.0018147120717912912,0.008391592651605606,-0.004995542578399181,-0.005229238886386156,-0.0017945792060345411,-0.003787462366744876,0.001324092736467719,-0.0064698681235313416,-0.005331534892320633,0.0024989324156194925,0.004515150096267462,0.002386197680607438,0.004281907808035612,0.008184242993593216,-0.0037453249096870422,-0.002101076766848564,-0.0007018091855570674,0.004055600147694349,0.0070402552373707294,-0.0018291370943188667,0.005601112265139818,0.0026658298447728157,0.004984285216778517,-0.0063690124079585075,0.005428158212453127,-0.004100990016013384,0.0031755222007632256,0.0027679218910634518,0.0038971123285591602,-0.0026667355559766293,-0.001986219547688961,-0.005073311273008585,-0.0042710453271865845,-0.01028596144169569,-0.010009683668613434,-0.003974392078816891,0.0036896085366606712,0.000563641544431448,-0.002256829757243395,0.006200234405696392,0.0002739826450124383,0.003259355667978525,0.00425427220761776,0.001139977015554905,-0.008068619295954704,-0.0019193531479686499,0.0009512715041637421,-0.003146983217447996,-0.001375885447487235,0.007447555661201477,0.006153795402497053,-0.006093117408454418,-0.003682587528601289,-0.0030793510377407074,0.009710569866001606,-0.0003468673094175756,-0.005339121446013451,-0.009916525334119797,0.0035211301874369383,-0.0018326046410948038
红色,-0.0010150743182748556,-0.007123424671590328,-0.008369915187358856,-0.002142104785889387,0.0058515435084700584,-0.0035665808245539665,0.002988390624523163,0.004651596304029226,-0.0017932127229869366,5.464348942041397e-05,-0.004046676214784384,-0.0012112751137465239,-0.0021947911009192467,-0.004594908095896244,-0.010539759881794453,-0.0033193393610417843,-0.0008300149347633123,-0.0025361813604831696,-0.0007444508373737335,-4.991190508008003e-05,0.0039061696734279394,-0.0019136269111186266,-0.0005495353834703565,-0.008820931427180767,0.002887833397835493,0.007126731798052788,-0.006321019493043423,-0.0026710182428359985,0.0028044404461979866,-0.006106271408498287,0.002378527307882905,-0.006750883534550667,0.0017538063693791628,0.0035528605803847313,0.008699832484126091,0.0050372169353067875,0.003013479756191373,-0.007407761178910732,-0.0007100165821611881,-0.0016281446442008018,-0.00364140747115016,-0.007859017699956894,-0.0012492554960772395,-0.0009488773066550493,-0.0007335942354984581,0.004897058475762606,0.0012308189179748297,-0.012230250984430313,-0.0019419557647779584,-0.003772115334868431,-0.0038148462772369385,-0.0053537567146122456,-0.0015610610134899616,-0.0017558288527652621,-0.002555537736043334,0.0030182863119989634,0.0002892366610467434,-0.001537699019536376,-0.0003313695779070258,-0.007176426239311695
高,0.006738254800438881,-0.002590058371424675,-0.00998014584183693,0.0031131969299167395,0.007941652089357376,2.410757588222623e-06,-0.00836970191448927,0.006753555499017239,-0.005321756936609745,0.0031717121601104736,0.013663770630955696,0.012234658002853394,0.011601736769080162,0.0014896094799041748,-0.0038832640275359154,0.00603099912405014,0.006648255977779627,-0.00489185331389308,0.0007901039207354188,-0.0015832162462174892,0.015908315777778625,0.001214505173265934,0.0006126817315816879,0.011991777457296848,0.008499710820615292,-0.005606107413768768,0.009489761665463448,-0.0029311126563698053,-0.0034202078823000193,-0.003452521748840809,0.0025900835171341896,-0.005860321223735809,0.001422269269824028,0.00031775946263223886,-0.005902940407395363,0.0012853709049522877,0.016486458480358124,-0.009968170896172523,-0.0002924907021224499,0.007513785734772682,0.0014129276387393475,-0.00490520941093564,0.011103790253400803,7.36163929104805e-05,-0.004535875283181667,-0.007327180355787277,-0.0009428113698959351,0.011516917496919632,-0.004723835736513138,-0.005661536008119583,-0.011196549981832504,-0.012208431959152222,-0.007760538253933191,-0.013835694640874863,-0.00976363942027092,-0.0012721429811790586,0.003322055796161294,-0.00022944016382098198,0.00037735060323029757,-0.011845894157886505
倒计时,0.00614697253331542,0.003999502398073673,0.004896373953670263,0.001547140651382506,-0.0039018243551254272,-0.010519763454794884,0.003418142441660166,-0.0012750488240271807,0.004291177727282047,-0.001967160264030099,-0.0033446841407567263,-0.004482573829591274,-0.00029747109510935843,-0.006626580376178026,0.005787255708128214,-0.0021063939202576876,0.003263325896114111,0.003702480811625719,-0.002436840906739235,-0.000152112654177472,-0.0048829796724021435,-0.0006171316490508616,0.0026509538292884827,0.0006658333586528897,-0.00042798888171091676,0.0010744839673861861,0.0026105972938239574,0.004097015131264925,-0.0017848158022388816,-0.004474082496017218,0.0021466428879648447,-0.0011398174101486802,0.001113574719056487,0.0005765933310613036,0.0005235864082351327,-9.151907761406619e-06,0.0034844542387872934,0.0031585642136633396,-0.003769886214286089,-0.0031771245412528515,-0.00543419923633337,0.0026748147793114185,0.0009976818691939116,0.0004947187262587249,-0.005506027955561876,-0.0017999450210481882,0.0036841731052845716,0.002999149728566408,0.004409297835081816,0.0012509030057117343,-0.0008003345574252307,-0.0016830143285915256,0.004206753335893154,0.0004829085955861956,0.007182477507740259,-0.0011396327754482627,-0.0009937463328242302,0.0031040688045322895,0.0057334452867507935,-0.0005482636042870581
转账,-0.0014291673433035612,-0.0027395514771342278,-0.012251400388777256,0.001700516906566918,-0.005196279846131802,-0.001062268391251564,0.001643036724999547,0.005139512941241264,-0.004105782136321068,0.0037835834082216024,-0.004032600205391645,-0.0021367932204157114,0.001491779345087707,-0.006573211867362261,-0.005433013197034597,-0.0005456260405480862,0.00540529889985919,-0.0027256906032562256,-0.0025857998989522457,-0.0011570657370612025,0.0003940851893275976,-0.002283967100083828,-0.0030916943214833736,0.007052574306726456,-0.0016094064339995384,0.009130874648690224,-0.003561346558853984,-0.0064305709674954414,0.0018145586363971233,-0.0005969667108729482,-0.0022125067189335823,-0.0067670634016394615,-0.0007695691892877221,-0.006991873495280743,-0.0061658103950321674,0.0022261468693614006,-0.0015367257874459028,-0.0027886948082596064,0.006577647291123867,0.0017924918793141842,0.0009297612123191357,0.0015254656318575144,-0.006368011236190796,0.008972939103841782,-0.0031850149389356375,-0.002114296657964587,0.0021416465751826763,0.0035633540246635675,-0.0007463883375748992,0.0022168790455907583,-0.00793641246855259,-0.0008810078725218773,-0.003777570091187954,0.003794020274654031,0.0075720129534602165,-0.0005968086188659072,0.005015315022319555,-0.0016698280815035105,-0.005171672906726599,0.010032654739916325
使用,-0.0013813679106533527,0.0034502886701375246,0.0024920112919062376,0.0025566823314875364,-0.0051841107197105885,-0.010131407529115677,0.005190299358218908,-0.000988393439911306,-0.007688624784350395,-0.009465929120779037,0.0022239580284804106,-0.003512254450470209,0.003389127319678664,-0.0037930274847894907,0.0023450395092368126,-0.003479293780401349,-0.0005156854167580605,-0.0034907329827547073,0.0011600536527112126,0.0009181314380839467,-0.0006534261628985405,-0.010502444580197334,-0.002235822146758437,-0.002114717150107026,0.016827840358018875,-0.00328508741222322,0.001950843259692192,-0.0014005175326019526,-0.0038959835655987263,0.005912192165851593,0.007809098809957504,-0.006287291180342436,0.0022822513710707426,0.010582421906292439,-0.0006980737671256065,0.004382657818496227,0.0016021572519093752,-0.004725113045424223,-0.007731953635811806,-0.003890141611918807,-0.00023153936490416527,0.010827361606061459,-0.00020852452144026756,-0.0029318283777683973,-0.004909882787615061,-0.0020405719988048077,0.0007517696358263493,0.006925925612449646,-0.00037515442818403244,-0.006139122880995274,0.002909658709540963,0.004550810903310776,0.002423154190182686,-7.83279538154602e-05,0.01636982336640358,0.0018028047634288669,0.0020889779552817345,-0.011767830699682236,0.002487344201654196,-0.003666334319859743
比赛,-0.0014654165133833885,0.00671501737087965,0.0013634642818942666,-0.0029882253147661686,0.0030756171327084303,-0.007687005214393139,-0.0057456642389297485,-0.0035925249103456736,-0.002682742662727833,-0.009905497543513775,0.0003419206477701664,-0.0022433162666857243,-0.0029244921170175076,-0.0036115008406341076,0.002834003884345293,-0.0002382555976510048,0.0004962158855050802,-0.0031628513243049383,-0.006150504108518362,-0.0035425859969109297,0.004541864152997732,0.007189927157014608,0.0014599754940718412,-0.009323586709797382,-0.006587428040802479,0.005942240357398987,0.0011114217340946198,-0.002810498233884573,-0.002814024919643998,-0.003359041176736355,0.0006028630305081606,6.108437082730234e-05,0.008192566223442554,0.0027665840461850166,-0.00029810494743287563,0.0016656226944178343,-0.003951543010771275,-0.00038622214924544096,0.0016458998434245586,0.00040495023131370544,0.007491417694836855,0.002255052560940385,-0.005257794633507729,-0.0025215609930455685,-0.004012158140540123,0.0013428371166810393,-0.00016823667101562023,0.004151609726250172,0.003205146174877882,0.0007755749393254519,-0.0006685254629701376,-0.0008632269455119967,-0.009318361058831215,-0.00011419726070016623,-0.0010569435544312,-0.005504407454282045,-0.0035100991372019053,0.004133237525820732,0.0035740092862397432,-0.006483528763055801
让,-0.0016339421272277832,0.013583501800894737,-0.00011549191549420357,-0.006623322609812021,0.0013951010769233108,-0.006812419276684523,-0.0024980048183351755,0.010157694108784199,-0.012934420257806778,-0.013610031455755234,0.0005481623229570687,-0.00038277253042906523,0.01503562182188034,-0.0010735979303717613,0.001446771901100874,-0.003528222441673279,0.006025364622473717,0.006886684335768223,0.011981687508523464,-0.014446988701820374,0.0021438051480799913,-0.0031212209723889828,0.0023956247605383396,0.005994848906993866,-0.003732226090505719,0.0014435164630413055,-0.0031112637370824814,0.01607554219663143,0.000775184016674757,-0.0010601342655718327,0.0021507847122848034,-0.0009753718040883541,-0.003922158386558294,0.00162237579934299,-0.0036234469152987003,0.0011006928980350494,0.002246030606329441,-0.016112640500068665,-0.017825206741690636,-0.006164449732750654,0.00867773499339819,-0.0026590442284941673,0.006027784198522568,-0.004603440407663584,-0.01129184104502201,-0.00037557078758254647,-0.008081799373030663,-0.0029613159131258726,-0.009601879864931107,0.00879913941025734,0.002136746421456337,0.005327076651155949,0.001053241896443069,0.007123386953026056,0.009724345058202744,0.014129755087196827,-0.005762338638305664,0.004607689566910267,0.01059025153517723,-0.01613403856754303
设置,-0.0007932849694043398,0.0007624830468557775,0.006069415248930454,-0.004709470085799694,0.0040781693533062935,-0.004362058825790882,-0.00390212656930089,-0.010219218209385872,-0.0028960141353309155,-0.0022942826617509127,-0.0015590590192005038,0.004277477972209454,-0.001084572752006352,-0.004471972584724426,-0.0024965479969978333,-0.009316591545939445,0.004207418765872717,-0.007589224725961685,-0.007351615000516176,-0.004688353277742863,-0.006744258105754852,-0.0022708610631525517,0.0014221405144780874,-0.0016476301243528724,0.0019000807078555226,0.000565782655030489,-0.008509653620421886,-0.00016045058146119118,0.006752675399184227,0.003883065190166235,0.006547670345753431,0.006746580358594656,-0.0014229214284569025,0.0008122085127979517,0.004713843110948801,-0.0016596021596342325,0.003225860185921192,0.0040472690016031265,0.0004512290470302105,-0.0014839107170701027,-0.0021184016950428486,0.009193992242217064,0.0017303109634667635,0.0019908943213522434,-0.004603528417646885,0.001289217732846737,-0.006043648347258568,-0.004272561054676771,0.013067946769297123,-0.004135517869144678,-0.0038634659722447395,0.002389328321442008,0.004573907237499952,0.0012820698320865631,-0.008183334954082966,0.008940545842051506,0.0034041362814605236,0.0007188001181930304,0.005910211708396673,-0.006461294833570719
出现,0.005117114633321762,0.0020086709409952164,-0.0005664180498570204,-0.003606039099395275,-6.351014599204063e-05,0.007619646843522787,-7.42314150556922e-05,-0.0020693596452474594,0.0027251935098320246,0.0022930079139769077,-0.005899081937968731,-0.005672227591276169,-0.0021203989163041115,0.0010842084884643555,0.007544797845184803,-0.0033961432054638863,0.002515183761715889,0.0042859651148319244,-0.010683711618185043,-0.007869209162890911,-3.6726356483995914e-05,-0.009522358886897564,-0.00018095877021551132,0.01203837152570486,-0.005974944680929184,-0.00039007895975373685,0.0020096711814403534,-0.006902050692588091,0.002013422315940261,-0.0017666132189333439,-0.0008229976519942284,-0.0032142275013029575,-0.00593917490914464,0.00016676774248480797,-0.003140653483569622,-0.0020402928348630667,0.011449097655713558,-0.0029191519133746624,0.0043380288407206535,0.0003197408514097333,-0.0012026450131088495,0.008427493274211884,-0.009392688050866127,0.005538516212254763,-0.00942329689860344,-0.004210690967738628,0.000517985608894378,0.0010151949245482683,0.0036468147300183773,-0.004807611927390099,0.00233441567979753,-0.0034236677456647158,0.003996525891125202,0.004301113076508045,-0.005205458030104637,0.0015390306944027543,-0.0036865794099867344,0.0010273689404129982,-0.0008617680286988616,0.0019936789758503437
轨道,0.007049852982163429,-0.005246119573712349,0.0006525262142531574,0.0029624307062476873,-0.010326605290174484,0.0009822507854551077,-0.0018552783876657486,-0.004042888060212135,-0.0007978352950885892,-0.005354146007448435,-0.0019046778324991465,0.0011271813418716192,-0.009050690568983555,0.00783553533256054,-0.0007272915099747479,-0.0067656198516488075,-0.00392590556293726,-0.006682992447167635,0.007409463636577129,0.005276744719594717,0.009015033021569252,0.002000486245378852,-0.0013211342738941312,0.0009459855500608683,0.0017942802514880896,-0.0038370476104319096,0.0045255450531840324,0.004939181264489889,0.00454226927831769,-0.008475400507450104,-0.0013521782821044326,0.0006501576863229275,0.0012729617301374674,0.0002622627653181553,0.0023693204857409,0.00528817530721426,0.0002410653978586197,-0.002276764251291752,0.00524893868714571,0.0076347291469573975,-0.005199020262807608,0.004005569964647293,0.005027350038290024,0.0018572206608951092,0.0009551126277074218,0.002220781520009041,0.00039250217378139496,0.003143510315567255,-0.002223412971943617,0.001822595251724124,0.004095524083822966,0.000618938822299242,0.006394246593117714,0.006693041883409023,0.0011440655216574669,0.003556218696758151,-7.140554953366518e-05,0.0010470582637935877,0.004299562890082598,0.0009995426516979933
号码,-0.0006786285666748881,-0.006878332234919071,0.0013955465983599424,0.0013560252264142036,0.0020713149569928646,-0.003272704780101776,0.002295654732733965,0.00906793586909771,0.0037801607977598906,-0.00036399904638528824,-0.0022227149456739426,-0.004666895139962435,-0.0037785933818668127,0.006243407726287842,0.0023991758935153484,0.00147776841185987,-0.003505291882902384,3.922032192349434e-06,-0.002233059611171484,-0.004151018802076578,0.0040254490450024605,0.004410003311932087,-0.006004539784044027,-0.0008861538954079151,0.002127743326127529,-0.005520007107406855,0.0016269010957330465,-0.0031851911917328835,-0.005918324925005436,-0.0034386971965432167,0.004413536749780178,0.0013292187359184027,0.010675203055143356,0.0008774546440690756,-0.0017884518019855022,-0.007415196392685175,-0.0006789485923945904,-0.002340993843972683,-0.0005924522411078215,0.008188779465854168,0.0053891390562057495,-0.0076988330110907555,0.00034397689159959555,0.0021223865915089846,0.002265902701765299,0.00269417860545218,0.0023317013401538134,-0.005506063345819712,0.0007912513101473451,-0.008039360865950584,-0.004615413025021553,0.0008195939008146524,-0.0005704651121050119,-0.0034472064580768347,-0.0032387063838541508,-0.007338562980294228,0.0001611750922165811,-0.0011419090442359447,-0.003989186137914658,-0.002696100389584899
周年纪念,-0.007716067135334015,-0.004485324956476688,-0.0018162672640755773,0.003569108434021473,0.0031151322182267904,-0.002220223657786846,-0.0001388314994983375,-0.0021353093907237053,0.0032036430202424526,-0.002411159686744213,0.002505956683307886,-0.003529526060447097,0.0009949327213689685,0.001301829470321536,0.0016826883656904101,-0.002567735966295004,0.0012526470236480236,-0.0004879539192188531,-0.004654219374060631,8.212633110815659e-05,0.00044200598495081067,0.0008905231370590627,0.004051800351589918,0.000627123168669641,0.004999135155230761,-0.0042990390211343765,0.000924925145227462,0.004199807066470385,0.0017023069085553288,0.005907796788960695,0.004083211533725262,0.0009548838716000319,-0.0018538235453888774,0.0013231884222477674,-0.004326585680246353,-0.0014564989833161235,0.003753113793209195,-0.000520229572430253,0.002009789692237973,0.00402776338160038,0.005151453893631697,0.0041038524359464645,-0.001693584374152124,0.0030601343605667353,-0.002379784593358636,0.0020657340064644814,-0.0029738217126578093,0.0022817591670900583,-0.0013510428834706545,0.0021669359412044287,0.004430433269590139,0.0024308273568749428,0.004499850329011679,0.0016815533163025975,-0.0022576353512704372,0.007514117285609245,-0.003733231220394373,-0.0002426344290142879,0.005046406295150518,0.002979195909574628
竞选,0.0004136336501687765,-0.0023507429286837578,0.005295223090797663,0.0024993917904794216,-0.0028821947053074837,0.00016458844766020775,0.005559349432587624,0.003529129084199667,0.003492992604151368,-0.0018962426111102104,-0.005082365591078997,0.0006936504505574703,0.007493000011891127,-0.0015303457621484995,-0.0017856620252132416,0.00017201690934598446,0.00012518302537500858,-0.0013870312832295895,0.006636887323111296,-0.001878174371086061,0.001225172309204936,-0.0025191118475049734,0.009657775983214378,-0.002282070694491267,-0.004493905697017908,0.005901653319597244,-0.003063993761315942,6.4248451963067055e-06,0.010976829566061497,-0.005142944399267435,0.0034397244453430176,0.003395414911210537,6.748945452272892e-05,-0.003804879728704691,0.0002497017849236727,0.0020228205248713493,0.0054607093334198,-0.008260893635451794,-0.002895715879276395,-0.0005410906160250306,0.0020128702744841576,-0.00041688105557113886,0.0014381865039467812,-0.004432363901287317,-0.003944315481930971,-0.0009328082669526339,-5.853286711499095e-05,-0.003011781722307205,-0.0027259429916739464,-0.008253988809883595,-0.0031998283229768276,-0.0008056311635300517,-0.004202915355563164,-0.003022229764610529,0.0019075573654845357,0.005410986021161079,0.0005582531448453665,-0.0023922324180603027,0.005591665860265493,0.0003851410001516342
观看,-0.005869668908417225,0.0001230246853083372,-0.00529759656637907,-0.007937771268188953,0.00017177453264594078,-0.010649595409631729,0.002807406010106206,-0.0017524416325613856,-0.010578114539384842,-0.005001789890229702,0.002707209438085556,-0.0015435939421877265,0.0073272716253995895,0.0006729899905622005,0.0017892085015773773,0.002713057678192854,-0.005213262513279915,9.425729513168335e-05,0.00028934935107827187,-0.004614309407770634,0.009088980965316296,0.0008247215300798416,0.006984886713325977,0.002704679500311613,-0.0021233386360108852,0.010664434172213078,0.003260269295424223,0.004555003251880407,0.0011374254245311022,-0.006894220132380724,-0.00324458465911448,-0.009475896134972572,-0.004930609837174416,0.002220488851889968,-0.0009304450359195471,0.005983434151858091,0.002018407452851534,0.005089412443339825,-0.006561687216162682,0.006329052150249481,0.0022407863289117813,0.004647169262170792,-0.0001906142570078373,-1.7499318346381187e-05,-0.0012304673437029123,0.004053480923175812,0.0015593180432915688,-0.00794704258441925,-0.00035442819353193045,0.0013294864911586046,0.00795377790927887,-0.0005152537487447262,0.0027071035001426935,-0.0016497350297868252,0.008560665883123875,-0.001990826800465584,5.001458339393139e-05,0.0033321972005069256,-0.0002736620372161269,7.692724466323853e-05
想要,0.0033150233794003725,-0.0016793926479294896,0.008343908935785294,-0.0020946005824953318,0.001722675166092813,0.0015363546553999186,-0.006586332805454731,0.0014095688238739967,-0.0015865655150264502,-0.005518320482224226,-0.0008080198895186186,0.0016435198485851288,0.017713848501443863,0.0021781481336802244,-0.0056122117675840855,0.0001975607592612505,-0.004057036712765694,0.008940273895859718,0.008787151426076889,-0.004674689844250679,0.005130623932927847,-0.001132654258981347,0.006013668142259121,0.012647584080696106,0.008314636535942554,0.005425475537776947,0.005455285310745239,0.000466933473944664,0.0036303047090768814,0.0026139598339796066,0.008580249734222889,-0.005086520221084356,-0.010613922029733658,-0.003109685378149152,0.004767227917909622,-0.00874833483248949,0.008835315704345703,-0.011415897868573666,-0.004936492070555687,0.00012955469719599932,0.006568004377186298,0.00471779890358448,0.00262575875967741,-0.002597040729597211,-0.0067001162096858025,-0.005016002804040909,-0.011322960257530212,-0.0023653386160731316,-0.001449552713893354,0.006446768529713154,-0.0008637297432869673,-0.004913445562124252,0.002288409508764744,0.005658729001879692,-0.0009996816515922546,-0.001301532262004912,0.0008170804940164089,-0.004111899062991142,0.0043706693686544895,-0.007579918950796127
活动,0.0013751715887337923,0.0026116957888007164,0.0027802842669188976,0.0018084958428516984,0.0029514627531170845,0.0014965396840125322,-0.006611344404518604,-0.0004503539530560374,-0.004687928128987551,0.0007618379313498735,-6.696861237287521e-05,0.00949995405972004,0.011605475097894669,-0.010325804352760315,-0.00552563089877367,-4.8531132051721215e-05,-0.0009046736522577703,-0.0035170759074389935,5.2206218242645264e-05,-0.005092645529657602,0.011341198347508907,-0.00478304922580719,0.003742809407413006,0.0025401292368769646,0.0066468785516917706,-0.0001073107123374939,0.008192095905542374,0.010198251344263554,-0.000156153691932559,-0.0029238522984087467,0.0030670654959976673,0.0003182161890435964,0.005077704321593046,0.004235330503433943,0.0034865005873143673,0.002073627430945635,-0.0025441546458750963,-0.00966429803520441,-0.0107826953753829,0.00592570286244154,-0.001871344051323831,0.0036107953637838364,-0.0069473665207624435,-0.0023684201296418905,0.001939650741405785,-0.007949881255626678,0.009548820555210114,-0.0028242527041584253,-0.003562986385077238,-0.0004468413535505533,0.006840928457677364,-0.005176612176001072,0.003868085565045476,0.0010472715366631746,0.011328637599945068,0.0043233041651546955,0.006836901884526014,-0.004445724654942751,0.004649836104363203,-0.0032626392785459757
检查,0.0018203930230811238,0.0002537844702601433,-0.00215863692574203,0.002529432298615575,-0.002273291116580367,0.008443722501397133,7.80806876718998e-05,-0.0017033428885042667,0.005262112710624933,0.0003550262190401554,0.0022092973813414574,0.007861602120101452,0.0028296224772930145,-0.0019861715845763683,0.000897861085832119,-0.0058377329260110855,0.0046400208957493305,0.0036912753712385893,-0.0011474727652966976,-0.0043929507955908775,0.0002822482492774725,0.003136702347546816,0.0008268370293080807,0.0070640756748616695,0.003543142694979906,0.005541627295315266,-0.0030346086714416742,-0.0006541030015796423,0.0068443710915744305,-0.007233846932649612,0.0009794498328119516,-0.0027694771997630596,-0.001613118452951312,-0.004011517856270075,-0.00043131489655934274,-0.00046787585597485304,0.00027413188945502043,4.370720125734806e-05,-1.2246920960024e-05,0.002463290933519602,0.0019501200877130032,0.0021539703011512756,0.002413912210613489,-0.0016225527506321669,-0.0052611129358410835,0.001667385920882225,0.000618022633716464,-0.0028711215127259493,0.015479149296879768,0.00020438176579773426,0.005973863881081343,-0.0005798605270683765,0.006334788631647825,-0.0011011206079274416,-0.006915245205163956,0.008264579810202122,0.0022413209080696106,-0.009617947041988373,0.004143001511693001,-0.011364649049937725
奢华,0.0036177588626742363,0.008100489154458046,-0.002442952012643218,0.0014395223697647452,0.005142131354659796,-0.0038405247032642365,0.0014810371212661266,-0.006922188680619001,-0.004164628218859434,0.001832978567108512,0.007977234199643135,-0.001089585479348898,0.004801482427865267,-0.00543838320299983,-0.002909331815317273,0.007417983375489712,0.0008413721807301044,0.005562962032854557,0.002510503400117159,-0.008422687649726868,-0.007845843210816383,0.007977780885994434,0.0048923855647444725,0.004592828452587128,0.005242376588284969,0.005508110858500004,-0.0010131243616342545,0.004483122378587723,0.003687759395688772,0.0030140262097120285,-0.004455281421542168,0.004188173450529575,-0.002273449907079339,-0.0018553078407421708,0.0032537642400711775,-0.0016492868307977915,-0.006572171114385128,0.0030894912779331207,0.005867506843060255,0.0011896829819306731,0.004779843147844076,0.003959291614592075,0.005790592171251774,-0.0082468306645751,0.00558829540386796,-0.004661549814045429,0.002002825727686286,0.0014942348934710026,0.000734684057533741,0.006304554641246796,0.004004471004009247,-0.0072565264999866486,-0.0005032527260482311,-0.0023799119517207146,-0.00018214434385299683,0.003782516811043024,0.004123226273804903,-0.0050751264207065105,-0.0044356659054756165,-0.0030619059689342976
苹果,-0.009278805926442146,0.004784880205988884,-0.0022987178526818752,-0.00039320881478488445,0.0022378466092050076,-0.005022323690354824,-0.0019143717363476753,-0.003720739856362343,-0.00047607626765966415,0.0022561256773769855,-0.006912772078067064,0.004618759732693434,0.008787818253040314,-0.0022635264322161674,-0.0011838898062705994,-0.004263514652848244,0.0037964987568557262,0.004894350189715624,-0.001740846550092101,0.0011396317277103662,-0.0036241202615201473,3.187451511621475e-07,-0.000826437259092927,-0.005680140573531389,0.002333633601665497,0.0066519444808363914,0.004483628552407026,0.003118200460448861,0.008123517036437988,-0.005857069045305252,-0.0039058267138898373,-0.0021505625918507576,-0.005411776714026928,0.007838991470634937,0.0045463209971785545,-0.006226119119673967,0.0036343936808407307,-0.002686751075088978,0.005247947294265032,0.0015387816820293665,-0.00312812183983624,0.00022895634174346924,0.006673382595181465,-0.0011499556712806225,-0.0014966826420277357,0.0045315856114029884,0.010066642425954342,0.0012289418373256922,-0.0012709622969850898,0.0028153154999017715,-0.0020386562682688236,0.005315898451954126,0.00197195028886199,-0.004966068081557751,-0.0007616993971168995,0.0066709257662296295,0.0032284590415656567,0.002309557283297181,-0.0018622002098709345,-0.0017270075622946024
买,-0.0023213750682771206,0.004382007289677858,-0.0015370132168754935,0.0036650369875133038,0.0022027096711099148,-0.006563442759215832,0.0006401906721293926,-0.00165160046890378,-0.006592355668544769,0.006256188731640577,-0.0122331902384758,0.01614803448319435,0.007219578605145216,0.005663587246090174,-0.0011106906458735466,0.007074663881212473,0.004003722220659256,0.002270118333399296,-0.0012674587778747082,-0.0071324799209833145,-1.9759871065616608e-05,-0.007737614680081606,-0.0013065147213637829,0.005155456252396107,0.0006063086912035942,0.010119207203388214,0.010058429092168808,0.000635798554867506,-0.015206199139356613,-0.0005230656825006008,-0.004080408252775669,-0.009431455284357071,0.008952807635068893,0.010115847922861576,-0.015207100659608841,-0.0024985261261463165,0.0011256691068410873,-0.012408106587827206,-0.0016900313785299659,0.004213732201606035,0.009794122539460659,0.001046962570399046,-0.007761051878333092,-0.0030574663542211056,-0.0022892230190336704,-0.004687767010182142,-0.005161128006875515,-0.0045808530412614346,0.00036183930933475494,-0.009124399162828922,0.005713288672268391,0.0071841455064713955,-0.001802024431526661,0.005970880389213562,0.002626849804073572,-0.005095361731946468,0.004189917352050543,-0.0002514217048883438,0.0022371173836290836,0.002947417553514242
战士,-0.005193261429667473,0.005049353931099176,0.006325788330286741,0.004839105531573296,0.0003027713391929865,0.0007961769588291645,0.008281202986836433,0.0076703946106135845,-0.0028625819832086563,-0.0009983221534639597,-0.008743725717067719,-0.00417111162096262,-0.0015029297210276127,0.0013485196977853775,0.0027207823004573584,-0.0027307921554893255,-0.005499072372913361,0.0037547906395047903,0.004488044418394566,0.0021233430597931147,-0.011500612832605839,-0.0016649765893816948,0.0022837063297629356,0.0032155634835362434,-0.0037240339443087578,0.004431067034602165,0.00031916124862618744,-0.004592109005898237,0.0016356913838535547,-0.004959133453667164,-0.009307376109063625,0.003586278762668371,-0.004690590780228376,0.007990971207618713,0.0017927144654095173,-0.004027355462312698,0.0030459121335297823,0.004863684065639973,-0.0008710592519491911,0.004008806776255369,-0.0034537212923169136,0.0010987623827531934,-0.005892275832593441,0.00249170302413404,0.004515939857810736,-0.0007942296797409654,-0.002535212319344282,-0.005114235449582338,0.0018736564088612795,-0.005034429952502251,0.0019421214237809181,0.00572150619700551,-0.002918010111898184,0.00026521633844822645,-0.006997831165790558,0.006981967482715845,-0.0027838547248393297,-0.0022222688421607018,0.0013485070085152984,0.0010025494266301394
也,0.0038627530448138714,-0.0025330802891403437,0.00591203011572361,-0.0019779964350163937,-0.0013113640015944839,-0.015578042715787888,-0.004221073817461729,0.0006904867477715015,-0.013187838718295097,-0.0018945126794278622,0.008885156363248825,-0.013984310440719128,0.023410595953464508,-0.0031162677332758904,-0.011779329739511013,-0.005440392531454563,0.015387123450636864,-0.0026681185699999332,-0.011556275188922882,-0.020111151039600372,0.008431834168732166,-0.0002647289074957371,0.010656236670911312,0.0011956612579524517,0.014674884267151356,-0.01021028496325016,-0.002104868646711111,0.007198006846010685,-0.005804145243018866,-0.004166198894381523,0.008115626871585846,-0.005781329236924648,0.008899686858057976,0.004341929219663143,0.0028865309432148933,0.01292563695460558,-0.011916844174265862,-0.0069658090360462666,-0.011932244524359703,0.00924421101808548,0.0017069550231099129,0.004335914738476276,-0.001561604905873537,-0.008972791023552418,-0.012354286387562752,-0.01719730906188488,-0.008722417056560516,0.0006147674284875393,-0.004569163545966148,0.011216188780963421,0.016401048749685287,0.013850033283233643,-0.015232967212796211,-0.005025058053433895,0.021135395392775536,0.004224808886647224,0.0015525314956903458,-0.009795879013836384,0.0001397356390953064,-0.014134321361780167
转移,0.0014195365365594625,-0.0009349373867735267,-0.0021773017942905426,0.0008731312118470669,0.0037482096813619137,0.0004233947256579995,-0.0007811919786036015,0.0055868132039904594,-0.0034012626856565475,0.012172652408480644,-0.008006300777196884,0.003156188875436783,-0.004114409442991018,-0.005735931918025017,0.0019400652963668108,0.0008078606333583593,0.0003474075347185135,0.0043549444526433945,-0.002403473714366555,-0.0017171462532132864,0.006284515373408794,0.010197090916335583,0.004856314044445753,-0.0009728241129778326,-0.007185698952525854,-0.002585025504231453,-0.005958683788776398,0.0006068251095712185,0.00021521898452192545,0.0018124604830518365,0.007910888642072678,0.0015120096504688263,0.00047697359696030617,-0.003765854751691222,0.004363626707345247,-0.0012303622206673026,0.0013270559720695019,0.010073579847812653,-0.00043604482198134065,-0.004601320717483759,0.009367447346448898,0.0032118260860443115,0.004371894057840109,-0.0022859845776110888,-0.001998090883716941,0.0029729031957685947,0.005169302690774202,-0.0024266934487968683,0.008920982480049133,-0.007642514072358608,0.005428948439657688,0.0004135288472753018,0.0031208547297865152,0.004676747601479292,0.004122184123843908,0.0005707602831535041,-0.00030961702577769756,0.0062966435216367245,-0.00647157384082675,0.00036045152228325605
分布,-0.0042083533480763435,0.010188383981585503,0.002279364736750722,-0.005320904776453972,-1.8075457774102688e-05,0.0006892119999974966,0.005289699416607618,-0.0013564338441938162,0.006489249411970377,-0.008978080004453659,6.255204789340496e-05,0.001646665157750249,0.00767140369862318,-0.006839647423475981,-0.006816927809268236,0.00010027410462498665,0.0007879305630922318,-0.004738439805805683,-0.0005732134450227022,0.0011174638057127595,0.004202673677355051,0.004402346909046173,0.003672222374007106,0.005138145759701729,-0.004104273393750191,-0.002506138291209936,0.00905816350132227,0.0014196753036230803,0.0021427723113447428,0.0016703149303793907,-0.000325854925904423,-0.002067185938358307,0.0029449157882481813,-0.010011100210249424,-0.00204465351998806,-0.0013739446876570582,-0.002929591340944171,0.005972785875201225,0.0042448630556464195,0.0026265569031238556,-0.0034843115136027336,0.007652628235518932,-0.004607660695910454,-0.002735123736783862,0.004224997945129871,0.0063830274157226086,-0.0031409747898578644,-0.004470824729651213,-0.00325442710891366,-0.0010632616467773914,0.003212475450709462,0.004881440661847591,0.0045202067121863365,-0.010560784488916397,0.00427794735878706,0.0060905758291482925,0.008738336153328419,0.0015584679786115885,0.005991343408823013,0.00851261243224144
球体,0.0019753146916627884,-0.005841932259500027,0.0013573323376476765,-0.005910919513553381,-0.001305570243857801,-0.0044576311483979225,-0.0009837886318564415,0.0003593508154153824,-0.0011286839144304395,-0.00119849294424057,-0.005398497451096773,0.00015376508235931396,-0.0007923273369669914,-0.0006701189558953047,-0.0010245649609714746,0.0003115638392046094,-0.005691109225153923,0.0013245242880657315,0.004237142391502857,0.00696406839415431,0.0008236197754740715,-0.005468730814754963,-0.0034637334756553173,-0.002550647361204028,-0.006421659141778946,0.005316449794918299,0.011229992844164371,-0.010254685766994953,-0.0004625841975212097,0.002393642906099558,0.001443415996618569,0.0015451937215402722,0.0023091821931302547,0.004513067658990622,-0.0030406159348785877,0.008108528330922127,-0.0009766756556928158,0.0021993520203977823,-0.010261764749884605,0.004389988258481026,-0.003636125707998872,0.0039009153842926025,0.0017606408800929785,-0.010896744206547737,0.0015190994599834085,5.1246024668216705e-05,-0.0012821643613278866,-0.005565382540225983,-0.001208729692734778,-0.009051978588104248,-0.0021655140444636345,-0.007479803171008825,0.0043287016451358795,-0.0019059813348576427,-0.0014491332694888115,-0.006400632672011852,0.0004608340095728636,-0.0023929220624268055,0.00010323314927518368,-0.004470442421734333
房间,0.003688825760036707,-0.0018888917984440923,0.004331537988036871,0.0031437650322914124,0.010359941981732845,0.0006401780992746353,-0.003094007959589362,-0.006549116689711809,-0.00440750177949667,-0.0025181188248097897,0.004452012479305267,0.00258813938125968,0.002861626911908388,-0.004610930569469929,0.00025887275114655495,0.0025059047620743513,-0.002294204430654645,0.00027543329633772373,-0.0003692321479320526,-0.00150661775842309,-0.003592028748244047,-0.008115390315651894,-0.00400928221642971,-0.008575819432735443,0.0007940656505525112,0.003434053622186184,0.007655661553144455,-0.0009287939174100757,-0.0010623959824442863,-0.0034938757307827473,-0.004317747429013252,-0.004689360037446022,-0.0019207466393709183,-0.001789499307051301,-0.0043969047255814075,-0.0031276473309844732,0.0015873287338763475,-0.0033201836049556732,-0.0003297592047601938,-0.0007653180509805679,0.002298010280355811,0.00436712522059679,-0.0016219790559262037,-0.001791740651242435,-0.0032901554368436337,-0.006990024819970131,0.0014456396456807852,0.0041618444956839085,0.006944225635379553,0.0017294688150286674,0.0016919723711907864,-0.00563482940196991,-0.0032398200128227472,-0.00016611791215837002,-0.003287997329607606,-0.007069019600749016,0.007452855817973614,-0.0008721027988940477,-0.001822873018682003,0.0006185171660035849
有望,0.0012503877514973283,0.00233627506531775,-0.0031409955117851496,-0.0019195787608623505,-0.005647514946758747,-0.009301191195845604,-0.007682678289711475,-0.003590654581785202,0.003762706182897091,-0.007723333314061165,0.0047805956564843655,0.0036563605535775423,0.005209917668253183,0.0070417495444417,-0.0010451357811689377,-7.199007086455822e-05,-0.0016361539019271731,-0.009206286631524563,0.007433280348777771,0.0005593039095401764,0.0020471494644880295,0.006501708645373583,-0.0007948980201035738,0.006838980130851269,-0.002245590090751648,0.0008048942545428872,-0.011211165226995945,-0.005245150066912174,0.004124178551137447,-0.009839450940489769,-0.0018465877510607243,-0.0040106927044689655,0.007724286522716284,0.0033611347898840904,-0.0021805609576404095,0.004678666591644287,0.006771788466721773,0.0009424223098903894,-0.0035853907465934753,-0.004874570295214653,-0.0033312151208519936,-0.00370320794172585,-0.0018554264679551125,0.00047462410293519497,-0.0013215863145887852,-0.0021349836606532335,-0.0012856542598456144,0.004722023382782936,-0.0014113587094470859,0.007471401710063219,-0.0018878793343901634,0.0002703944919630885,0.0030300223734229803,-0.005141082219779491,-0.00043162889778614044,0.009343487210571766,-0.0005150812212377787,0.004513812717050314,0.005315691698342562,0.009849428199231625
开展,0.0018938460852950811,0.0056974319741129875,0.007180783897638321,0.002998166251927614,-0.0030052654910832644,-0.007634471636265516,-0.004640442784875631,-0.0018876588437706232,-0.005866521038115025,0.0018444459419697523,0.0030405265279114246,-0.0017476838547736406,0.004236317239701748,-0.005219676531851292,-0.003331920597702265,-0.001745052170008421,0.000351267633959651,-0.004099475219845772,0.006780520547181368,0.00016747578047215939,-0.0036119420547038317,0.005655999295413494,0.001007142593152821,-0.003416313324123621,-0.005735751241445541,0.0017545233713462949,-0.00649417657405138,-0.003184849862009287,-0.0023472621105611324,-0.001970692304894328,-0.0016517115291208029,-0.012751657515764236,0.0050904955714941025,0.00804482027888298,0.002464527264237404,-5.5560143664479256e-05,0.004182792268693447,-0.00456580612808466,-0.00031196768395602703,-0.011967107653617859,0.008641984313726425,0.004608569201081991,0.002372447866946459,0.010497070848941803,0.004048289731144905,-0.002956570126116276,-0.00010335276601836085,-0.0017774146981537342,0.003073210595175624,-0.0007275359239429235,-0.0016406977083534002,0.004593515768647194,0.004681477788835764,-4.142988473176956e-06,-0.004146900959312916,0.005238980054855347,-0.008211529813706875,-0.008315701968967915,-0.004904641769826412,0.003060676157474518
请,-0.011265546083450317,0.007296138443052769,-0.007704619318246841,0.014065229333937168,-0.007200291845947504,0.001865028403699398,0.015246110036969185,0.007815973833203316,-0.009977174922823906,-0.0008973487420007586,0.004526125267148018,0.005408676341176033,0.01221737451851368,-0.013831930235028267,-0.0030039448756724596,-0.012307832017540932,0.005673620849847794,0.007699598558247089,0.012349268421530724,-0.0026704263873398304,0.0038737012073397636,-0.010940534062683582,0.009078817442059517,-0.0006096693687140942,0.007624255493283272,-0.00951768085360527,-0.004480078350752592,0.009583128616213799,-0.006743170786648989,0.005573525559157133,0.01304826233536005,-0.01050232071429491,0.0016127224080264568,-0.0110938660800457,-0.014538821764290333,0.006930391304194927,-0.009117326699197292,-0.0068583860993385315,-0.006616645958274603,0.005463510751724243,0.005339586175978184,0.0063068377785384655,-0.004015038255602121,0.011538667604327202,0.0006233961321413517,-0.013328163884580135,-0.007675692904740572,0.010404692031443119,-0.008257931098341942,0.003424998838454485,-0.0034113565925508738,-0.00388731830753386,-0.0023196013644337654,-0.002849259413778782,0.007599357515573502,0.01201176829636097,-0.013961476273834705,-0.01233377680182457,0.005783144384622574,-0.009066754020750523
手表,-0.010498917661607265,0.0050712693482637405,0.001373357605189085,0.011355295777320862,0.007274031639099121,-0.014435429126024246,0.002694865223020315,0.0027535525150597095,-0.008977185934782028,0.001743005239404738,0.006994845811277628,-0.004105981905013323,0.006002690643072128,-0.0072223530150949955,-0.0052536651492118835,-0.0037179943174123764,-2.8331938665360212e-05,0.0008791343425400555,0.0006934754201211035,-0.0003702933609019965,-0.0032237726263701916,0.00024140463210642338,-0.009626361541450024,0.00695777079090476,0.004303353372961283,0.005864867940545082,0.002380231861025095,0.0029208692722022533,-0.002957440447062254,0.0006248734425753355,0.0028338793199509382,-0.0012472325470298529,0.0033195929136127234,0.003945544827729464,0.010783188045024872,0.0013426188379526138,-0.0075262561440467834,-0.0011422670213505626,0.00018394505605101585,-0.0018213087460026145,-0.0020760828629136086,0.001169061055406928,-0.00796322338283062,0.0004339899169281125,-0.004224356263875961,-0.003158549079671502,-0.004548454191535711,0.005904040299355984,-0.0036196771543473005,0.00011805840767920017,-0.0026510204188525677,-0.0016114464960992336,0.0037934184074401855,0.00294486153870821,-0.0033629753161221743,0.0032287081703543663,-0.0021178531460464,0.010181625373661518,0.004866338334977627,-0.0020697633735835552
开始,-0.0031196519266813993,-0.0055318186059594154,0.017512956634163857,-0.0010556646157056093,-0.007645714562386274,-0.007399063557386398,-0.001829974353313446,0.004212658852338791,-0.006529433652758598,0.004821207839995623,-0.0035740912426263094,0.014016075059771538,0.014683909714221954,-0.009499851614236832,-0.007015148177742958,-0.010713350959122181,-0.0003697426291182637,-0.001110459677875042,0.0071939267218112946,-0.0019634661730378866,0.0020949647296220064,-0.005908322986215353,-0.003657184774056077,0.00961434654891491,0.013372190296649933,-0.005963361356407404,0.007700419053435326,0.00142610352486372,0.008348651230335236,0.0008599909488111734,0.0008050375618040562,-0.003924488089978695,-0.004487807862460613,-0.0006503753829747438,0.0003554634749889374,0.0020355554297566414,0.0022878001909703016,-0.00546065391972661,-0.0014492077752947807,0.004958280362188816,-0.0011927774176001549,0.0069586848840117455,0.008021892979741096,0.007470620330423117,-0.00459356140345335,-0.0009980006143450737,0.0029526560101658106,0.001887164544314146,0.011360455304384232,0.0022861422039568424,0.016728706657886505,0.007314077578485012,-0.0012175273150205612,0.0009271958842873573,0.009887351654469967,0.008596381172537804,0.0015352563932538033,-0.015597743913531303,-0.0005291171837598085,-0.0027928759809583426
挑战,-0.0028042737394571304,0.011069990694522858,-0.0022812141105532646,0.009815721772611141,0.0004031702410429716,0.0011509564938023686,0.001646771444939077,0.003927431534975767,-0.009864440187811852,0.0030708019621670246,-0.006527001969516277,-0.007927372120320797,-0.0020115855149924755,-0.0028210219461470842,0.002006642520427704,-0.006738288328051567,-0.0005859296070411801,0.0054069701582193375,-0.005751756485551596,-0.0019785044714808464,0.0009450571378692985,-0.007819865830242634,-0.000258429441601038,0.000366011168807745,0.00992521271109581,-0.0034373009111732244,0.008707607164978981,0.0029711201786994934,0.004254583269357681,0.00716441310942173,0.007468189112842083,-0.007589635439217091,-0.002198232337832451,0.0026479223743081093,-0.0026809514965862036,0.009604664519429207,0.007351723965257406,-0.002748847706243396,0.0005202603060752153,0.0019398019649088383,-0.009432261809706688,-0.00625140406191349,-0.0018262049416080117,-0.0014507248997688293,-0.0020716856233775616,-0.0005703256465494633,-0.0026513980701565742,-0.0044269743375480175,-0.0028797267004847527,-8.480658289045095e-05,0.00327395205385983,0.0002608512295410037,0.003552795387804508,0.005456809885799885,-0.004506598226726055,0.0004987305728718638,-0.00021985021885484457,-0.0034760991111397743,0.002222617156803608,-0.006640182808041573
应该,-0.0016513982554897666,-0.006504722870886326,0.0043540047481656075,0.0023656217381358147,-0.002458044793456793,-0.009439649991691113,0.002082342281937599,0.006810374557971954,5.5360374972224236e-05,-0.0023057349026203156,0.005344904959201813,-0.0026724832132458687,0.013327233493328094,-0.006126393564045429,0.0015237517654895782,0.005745531525462866,-0.0003544570645317435,-0.004283023998141289,-0.001841789809986949,-0.006499014794826508,0.003387134987860918,0.0001540837693028152,-0.0076423343271017075,-0.0056038182228803635,0.006641953252255917,-0.007494508288800716,-0.009680340997874737,-0.0016272172797471285,-0.00243575731292367,0.0020171168725937605,-0.008747573010623455,-0.003867225954309106,-0.0010683067375794053,-0.008092524483799934,0.004343966022133827,-0.00012282741954550147,0.0034691281616687775,-0.0017580147832632065,-0.00871219951659441,-0.002462513279169798,0.010049130767583847,0.004894562531262636,0.004723742138594389,0.0014108303003013134,-0.0100622046738863,-0.0048401546664536,0.0009521835017949343,0.003481349442154169,-0.006739352829754353,0.0015278297942131758,0.00625000661239028,-0.004514468368142843,-0.006947517395019531,0.005313856992870569,0.004734891466796398,0.0005711253033950925,0.006429990287870169,0.0018222073558717966,-0.0009822851279750466,-0.00822790153324604
特殊,-0.0015367674641311169,0.0002164138713851571,-0.005368085578083992,-0.004523277282714844,-0.004845091141760349,-0.015297865495085716,-0.005422559101134539,7.85409938544035e-05,-0.01190180703997612,0.001402102061547339,-0.002175757195800543,-0.007382947951555252,0.003086659824475646,-0.0026078345254063606,-0.005845537409186363,0.008379626087844372,-0.01322840340435505,0.00021469220519065857,0.0008313029538840055,0.002420629607513547,-0.01009075716137886,0.001630387268960476,-0.002946499502286315,0.0009960673050954938,0.005291708279401064,-0.003103880677372217,0.004015525337308645,-0.003287046682089567,-0.0009947560029104352,-0.006297631189227104,8.480262476950884e-05,-0.007808561436831951,0.004226713441312313,0.006060907617211342,-0.007172530051320791,-0.003854024689644575,-0.010323550552129745,-0.004781671799719334,0.007575580850243568,-0.005767404567450285,-0.0021366197615861893,-0.004357814323157072,0.0039681862108409405,-0.0076107122004032135,0.0024332553148269653,-0.001061165239661932,-0.003911962267011404,-0.0005977323744446039,0.001707281917333603,0.00022597750648856163,0.004314533434808254,0.0028460007160902023,-0.002900702878832817,0.005677010864019394,-0.0029925808776170015,0.007075645960867405,-0.0016479103360325098,-0.008984294719994068,0.0072373878210783005,-0.00038964132545515895
如,-0.0015505541814491153,0.010603547096252441,0.00041038915514945984,0.005878550466150045,-0.006163021549582481,-0.013682199642062187,0.005803548265248537,-0.00999159924685955,-0.0021739022340625525,-0.005290518514811993,-0.0030918270349502563,-0.008821902796626091,0.004642869811505079,-0.005778717342764139,-0.00769293075427413,0.008876201696693897,-0.009563659317791462,-0.010483354330062866,-0.007045077625662088,-0.005006296560168266,0.006321846041828394,-0.0003199060447514057,0.0030095758847892284,-0.008300282061100006,0.0056700315326452255,-0.003039094153791666,-0.004935809876769781,-0.0026826290413737297,-0.00035623740404844284,-0.005579029209911823,0.008840023539960384,-0.0011689949315041304,-0.0019501063507050276,-0.006921309512108564,-0.0077143642120063305,-0.008062213659286499,-0.005013884510844946,0.0061821783892810345,0.0020872787572443485,-0.014338521286845207,-0.009127313271164894,-0.0008383132517337799,-0.005827931687235832,-0.00587831623852253,-0.00031676609069108963,0.002343457890674472,-0.00757198641076684,0.008453930728137493,-0.004579901695251465,0.012755641713738441,0.009023181162774563,0.003224948886781931,-0.0035158598329871893,0.009409129619598389,0.008311638608574867,-0.006622356362640858,0.002491421764716506,-0.002234712243080139,0.012598480097949505,-0.010632876306772232
将,0.002224196679890156,0.010780198499560356,0.02354440651834011,0.0012815332738682628,0.011440458707511425,-0.01016913540661335,-0.00623196130618453,0.015179319307208061,-0.003368161851540208,-0.007208392024040222,0.0010446666274219751,0.0003275300841778517,0.02061150223016739,0.001350501086562872,-0.0038863103836774826,-0.0012130951508879662,-0.0063180578872561455,0.0007433285936713219,0.00019619613885879517,0.0007266160100698471,0.004545151721686125,0.0018439267296344042,0.00428803451359272,0.00621279701590538,-0.00031342217698693275,-0.0045677050948143005,0.0015989020466804504,0.013580722734332085,0.004482726566493511,-0.004609636962413788,0.0026392550207674503,0.003726754104718566,-0.00984580535441637,-0.002982029225677252,0.004489772487431765,-0.002258787862956524,0.005439606960862875,-0.02163708209991455,-0.004722124896943569,-0.007093463093042374,0.002797040157020092,-0.0014566110912710428,-0.015921615064144135,-0.006220149341970682,-0.005938954651355743,0.002381353173404932,-0.002467656973749399,0.0011595136020332575,-0.0025864720810204744,0.00397660443559289,0.004929905291646719,-0.001578624127432704,-0.01376163586974144,0.005326262209564447,0.003728638170287013,-0.0021340842358767986,-0.004863469861447811,-0.010367796756327152,0.002194911241531372,-0.01999763399362564
是,-0.010105499997735023,0.0052971974946558475,0.01857609860599041,0.009566794149577618,-0.0007928274571895599,-0.007495516911149025,0.005970830097794533,0.004688674584031105,-0.004285694565623999,-0.018310312181711197,0.0032617945689707994,-0.0071648801676929,0.01923822984099388,0.006646316964179277,-0.01763465255498886,0.004606042522937059,0.007420470472425222,0.009289384819567204,-0.009980369359254837,-0.015311776660382748,0.015296502970159054,-0.006950647570192814,-0.0019774725660681725,0.005545338615775108,0.0193340964615345,-0.003419708926230669,0.002383081242442131,0.0034300689585506916,0.003383159637451172,-0.006085334811359644,0.0020119312684983015,-0.0012603007489815354,-0.0005369405262172222,-0.0074148899875581264,-0.003919057082384825,-0.003640443319454789,0.001924377866089344,-0.021851517260074615,-0.0069025252014398575,-0.006349883507937193,-0.012393973767757416,0.0031770095229148865,-0.009602999314665794,-0.0075430069118738174,-0.013675549067556858,0.004598315805196762,-0.004915216006338596,0.0034224307164549828,0.0007551547605544329,0.023193880915641785,0.00423856545239687,0.005450812634080648,0.0018403655849397182,0.00960514321923256,0.017267629504203796,0.0025289030745625496,0.005777194630354643,-0.0260224137455225,0.0007624274585396051,-0.00022905925288796425
赢得,0.0017208788776770234,0.006766919046640396,0.0051757884211838245,0.0029593342915177345,-0.008404997177422047,0.0036793642211705446,0.006039844360202551,0.0010663114953786135,-0.010032329708337784,0.005687091499567032,0.0007501482032239437,-0.010593410581350327,0.010347330011427402,0.0005940638948231936,0.0003729784511961043,0.0013000497128814459,-0.006049404852092266,0.0008781244978308678,0.0020262538455426693,-0.008158836513757706,-0.003567309118807316,0.0014137523248791695,-0.0017246785573661327,0.0040841856971383095,-0.0005527684697881341,0.010113850235939026,-0.002282967558130622,0.007065995596349239,0.0003949362726416439,-0.005780578125268221,0.0076956981793046,0.0006323361303657293,0.003361866343766451,-0.012084156274795532,0.009241844527423382,-0.0005045324796810746,-0.009024455212056637,-0.0015524900518357754,-0.002036272082477808,-0.002463873941451311,0.0018715059850364923,0.004705657251179218,-0.002645565662533045,0.005614304915070534,0.0013599020894616842,-0.00021421711426228285,0.007149736396968365,-0.006267359014600515,-0.0001330338418483734,0.008260282687842846,0.00015769549645483494,-0.00280196825042367,0.007118763867765665,-0.0024539080914109945,-0.001022597891278565,0.00501604937016964,-0.004531795158982277,-0.004790332168340683,0.00883141066879034,-0.006632133852690458
页面,-0.0027224887162446976,-0.0010458366014063358,0.006450111977756023,0.003215762786567211,-0.008337940089404583,-5.51778357475996e-05,0.0007291565416380763,0.000310434028506279,-0.008655372075736523,0.0009606784442439675,0.0032781134359538555,0.0072009507566690445,0.00522864842787385,-0.002015824429690838,-0.005097853019833565,0.005002808757126331,-0.0021117657888680696,0.0014706224901601672,0.00110897037666291,-0.0013891624985262752,0.004842214751988649,-0.006635764613747597,-0.006147419568151236,0.004597616381943226,0.0005253483541309834,0.0025193612091243267,0.0029603992588818073,0.0016777454875409603,-0.002886340022087097,0.005820347461849451,0.00630077812820673,0.006806132383644581,0.0017272676341235638,-0.003614202607423067,-0.004204023629426956,0.007800686173141003,-0.003534594550728798,0.0029654158279299736,-0.003898033406585455,-0.00048703025095164776,-0.000504042487591505,0.005284873768687248,0.0035139694809913635,-0.00016898009926080704,-0.010096441954374313,0.002268817275762558,0.0012968622613698244,0.008979282341897488,0.004171093460172415,0.005922645330429077,-0.0038974154740571976,0.0006179627380333841,0.00017885712441056967,0.008562145754694939,0.005754064302891493,0.004852538462728262,-0.0043819360435009,-0.00546294404193759,0.004461838398128748,-0.010142041370272636
详细信息,-0.0012296043569222093,0.004877835046499968,0.0016508932458236814,-0.002053995383903384,-0.002234123647212982,0.00487549789249897,0.0004570467281155288,-0.0014333552680909634,-0.0020311176776885986,-3.231697701266967e-05,0.0009115405846387148,-0.0017426226986572146,-8.297584281535819e-05,-0.0027607937809079885,0.0020501818507909775,0.003045623190701008,0.003065943019464612,-0.005566023755818605,0.0010814218549057841,-5.972576036583632e-05,0.0016978647327050567,0.002172410022467375,-0.0012483876198530197,-0.0009604565566405654,0.0021611612755805254,0.004915124271064997,2.6170333512709476e-05,0.0013790647499263287,-0.004870318342000246,-0.0005527355242520571,0.0002456863585393876,0.005917990114539862,-0.00382025889120996,-0.0017233822727575898,-0.00019233132479712367,-0.0001790146779967472,-0.0015808249590918422,-0.0001777176803443581,0.001642337185330689,0.0006821178249083459,0.002365235472097993,0.0016631727339699864,-0.0038665682077407837,-0.001046444638632238,0.002903572516515851,0.0016226149164140224,-0.0015080906450748444,-0.002233820501714945,0.005720694083720446,0.0023770295083522797,0.0007672060746699572,-0.0046013472601771355,6.1002050642855465e-05,0.003884552512317896,-0.0011272109113633633,-0.0010150669841095805,-0.0047690849751234055,-0.0026415896136313677,-0.002817248459905386,-0.002723362762480974
动漫,0.0028773569501936436,-0.001716348808258772,0.0009814358782023191,0.005611589178442955,0.0015695777256041765,-0.010589491575956345,0.003508293069899082,0.0013314241077750921,-0.0028887090738862753,-0.008002412505447865,0.013269493356347084,0.00016118574421852827,0.006117834709584713,-0.002221517963334918,0.004144967999309301,-0.007113494910299778,-0.0064070019870996475,-0.002439441392198205,-0.0005019546952098608,0.004936034791171551,0.0026996855158358812,-0.004181756172329187,-0.0010823489865288138,-0.005638204049319029,-0.006189369130879641,-0.0022290851920843124,-0.0009410111233592033,-0.0005083603318780661,-0.0001839076867327094,-0.0037685770075768232,0.005457356572151184,0.001042952062562108,-0.0013737122062593699,0.0009397261310368776,0.005547902546823025,-0.0036302655935287476,0.0009689979488030076,0.004909793380647898,-0.0061605689115822315,-0.008284075185656548,0.009740110486745834,0.006593395955860615,0.0019664529245346785,-0.0012744276318699121,-0.005314831156283617,-0.00208232831209898,-0.00015224394155666232,0.003102316055446863,-0.008370478637516499,-0.0026833959855139256,0.011965305544435978,-0.005899560172110796,0.0011071105254814029,0.0020211085211485624,-0.0030788364820182323,0.0018925786716863513,-0.0006902603199705482,-0.00625496543943882,0.0040532061830163,-0.007010692730545998
礼物,0.0043200040236115456,0.006384427659213543,0.005715399049222469,0.003195930039510131,0.006414942443370819,0.00013704923912882805,-0.006471547298133373,-0.00616114167496562,0.00904033426195383,-0.0069600557908415794,0.0023108995519578457,0.0028199858497828245,0.0031702255364507437,-0.008441116660833359,-0.008887624368071556,-0.004129001405090094,0.003908810205757618,0.0011615388793870807,0.003382883733138442,-0.0021183285862207413,0.003285507671535015,0.003342853393405676,-0.008532595820724964,-0.0016657356172800064,0.003749879775568843,0.007063139230012894,-0.004834843799471855,0.0026211796794086695,-0.0042581623420119286,0.002422331366688013,0.0017086351290345192,-0.0009238660568371415,0.007747233845293522,0.0032740184105932713,-0.002391102258116007,-0.002726516919210553,-0.0028488668613135815,-0.0076418654061853886,0.0035961484536528587,0.0034286840818822384,0.004716088064014912,0.007853511720895767,0.003495140466839075,0.0004978555953130126,-0.001600519404746592,0.001161989290267229,-0.006775803864002228,0.005957072600722313,-0.0040095592848956585,-0.00013303779996931553,0.0023172462824732065,0.0011655092239379883,-0.005078908056020737,0.001255288254469633,-0.005689023993909359,-0.004228013567626476,-0.002959108678624034,-0.0014386269031092525,-0.007013433612883091,0.002396205672994256
收到,-0.00157259707339108,-0.0028896480798721313,0.0018949308432638645,-0.006010891404002905,0.006014424376189709,0.0013762912712991238,0.003287085797637701,0.006289410404860973,-0.0047447108663618565,-0.007117189466953278,-0.008399120531976223,-0.004374417010694742,0.00835538562387228,0.003635641187429428,-0.010843965224921703,-0.0028368737548589706,0.005319137126207352,0.003783557331189513,0.004365112632513046,-0.0038082492537796497,0.0027261008508503437,-0.005213468335568905,-0.002586674178019166,0.007147500291466713,0.0005180644802749157,0.0019498177571222186,0.0010181176476180553,0.0008606071351096034,0.002009402494877577,-0.008849533274769783,-0.008810542523860931,0.010299996472895145,-0.0032629501074552536,0.0034516702871769667,0.002299749990925193,-0.0015157531015574932,-0.007246661931276321,0.004307773895561695,0.0005574042443186045,0.0044980160892009735,0.008649383671581745,-0.003164206864312291,-0.005391632206737995,-0.0049429647624492645,-0.0063115693628787994,-0.0023267646320164204,0.006193835753947496,0.005041786003857851,0.00565708801150322,0.0028659054078161716,-0.002878804225474596,-0.005591408349573612,0.002758946968242526,0.004027757328003645,0.008803287521004677,0.008118380792438984,-0.005484643392264843,-0.0003287512809038162,0.005606626160442829,-0.0019471575506031513
心脏,-0.004252357874065638,-0.0031726951710879803,0.008014964871108532,-0.0005576849216595292,0.00998549722135067,0.00014982582069933414,-0.0034385144244879484,-0.003298346418887377,-0.0017513837665319443,-0.002160364529117942,0.0023219380527734756,-0.0103556327521801,0.005913816392421722,-0.0051698870956897736,0.0004029739648103714,0.003930394072085619,-0.0043057845905423164,0.008356807753443718,0.003439004300162196,0.003999774344265461,0.0012590179685503244,0.0003203754313290119,-0.004369829315692186,-0.0039791930466890335,-0.002804565941914916,0.0037688661832362413,0.0028019535820931196,-0.007328084670007229,0.0006399153498932719,0.009565277956426144,0.0018971118843182921,-0.0016858924645930529,0.004524140618741512,-0.0002426170976832509,-0.0013253538636490703,0.00111811188980937,0.0023527571465820074,0.003344489959999919,0.004672481678426266,0.003415432758629322,-0.0020417277701199055,-0.004117247182875872,0.0012148490641266108,-0.0011369265848770738,0.0010769488289952278,-0.0015541163738816977,0.002921011298894882,-0.003005228005349636,0.0034361383877694607,0.011734362691640854,-0.0044615622609853745,-0.008677958510816097,-0.003339403076097369,-0.0023700138553977013,0.004515272099524736,0.004571039695292711,-0.0033375995699316263,-0.0002747847174759954,0.005803117528557777,-0.010813643224537373
应用程序,-0.0017087560845538974,0.0016954400343820453,0.0037951746489852667,-0.0024871695786714554,0.000914320582523942,-0.007630613166838884,0.003933766856789589,0.005269729532301426,0.00013390564708970487,-0.0011922684498131275,0.002510077552869916,0.0025598362553864717,0.0056221564300358295,-0.0006992128910496831,0.0019262102432549,0.00024217409372795373,0.0013684500008821487,-0.0052204555831849575,-0.0011852126335725188,-0.0007414782303385437,0.0015584579668939114,-0.0014153211377561092,0.002692268928512931,-0.006213532295078039,0.0018983706831932068,0.0004890381824225187,3.723783083842136e-05,-0.0028771748766303062,-0.001652438542805612,-0.0002901880070567131,0.004532317630946636,-0.0047563426196575165,-0.003438800573348999,-0.00881884340196848,0.0007875937735661864,-0.0022461984772235155,-0.006055272649973631,-0.002945241518318653,-0.006428645458072424,-0.004889843985438347,-0.002156866481527686,-0.00014750998525414616,0.0022365034092217684,0.0024227285757660866,0.000572205288335681,-0.0011478910455480218,-0.0028242887929081917,-0.0009172523277811706,-0.001880862982943654,-0.0019230390898883343,0.0010881019989028573,0.00132082961499691,0.0008774755406193435,-0.002856421284377575,0.00036669743712991476,0.005740735214203596,-0.002166913589462638,-0.0020130868069827557,-0.00026000451180152595,0.004455286078155041
直到,-0.001666284166276455,0.01366135012358427,0.02138398215174675,0.01109642069786787,0.0029955520294606686,0.000484224408864975,-0.0006705019623041153,0.0021544969640672207,0.0008499320829287171,-0.0011143733281642199,-0.0018713523168116808,-1.8694205209612846e-05,0.017935700714588165,-0.005696708336472511,0.0002988413907587528,-0.012977231293916702,0.0013935207389295101,0.011604157276451588,0.00022019000607542694,-0.007082365453243256,0.004486199002712965,0.005990755278617144,-0.005901798605918884,0.016332203522324562,-0.001647314289584756,0.002956328447908163,-0.002859374973922968,0.0024475413374602795,0.005963099654763937,-0.015492722392082214,0.009828425943851471,0.0032323384657502174,0.00407215254381299,0.0021266876719892025,-0.0015457969857379794,-0.008237098343670368,-0.00600052997469902,-0.00285995751619339,0.0021383236162364483,-0.0012696986086666584,0.01933508738875389,-0.0021073813550174236,0.006503819487988949,0.0009756949730217457,-0.018283795565366745,0.010181793011724949,-0.004953812807798386,-0.013082110323011875,-0.001260597724467516,-0.0023469771258533,0.004414993803948164,0.003002549521625042,0.012163519859313965,-0.008915542624890804,0.011022962629795074,0.010441949591040611,0.0011420634109526873,-0.011323104612529278,0.007016154006123543,-0.008667130023241043
纪念,-0.0006717189680784941,0.0007123609539121389,0.0007690191268920898,0.006351204589009285,0.003216611221432686,0.000411110813729465,0.0019873646087944508,0.0024150745011866093,-0.00305160996504128,0.0010894553270190954,-0.007388330064713955,-0.00644898135215044,0.0029423926025629044,-0.006206733640283346,0.0022009171079844236,-9.97842289507389e-06,0.004280190449208021,-0.004822193644940853,0.0015877261757850647,0.001326464582234621,0.003222995437681675,-0.0010298932902514935,0.006939982529729605,0.0030216830782592297,-0.006637777201831341,-0.0044929347932338715,0.001707696821540594,-0.008337462320923805,-0.002383834682404995,0.0023445747792720795,0.002677371259778738,-0.006174195557832718,-0.005588760133832693,-0.00442950613796711,-0.00840759463608265,-0.005689131561666727,0.00891221035271883,0.0023227804340422153,0.004928703419864178,0.00608151825144887,-0.0063201324082911015,-0.0006745982682332397,0.004526389297097921,0.0065470109693706036,-0.00582008995115757,0.0048268940299749374,-0.0028930644039064646,0.006918827071785927,-0.007225279696285725,-0.003467537695541978,0.007492171600461006,-0.0058535318821668625,-0.0018974707927554846,0.003311337437480688,-0.005406778305768967,0.0077459318563342094,-0.008173629641532898,0.001182908657938242,0.0036114321555942297,-0.00030188681557774544
面膜,-0.0013984304387122393,0.0026873350143432617,-0.0018279284704476595,-0.003648784477263689,0.00359434075653553,-0.0027528356295078993,0.0010338760912418365,-0.004682127386331558,-0.0021517693530768156,0.002120016608387232,0.00562919769436121,0.0018905866891145706,-0.0035599349066615105,-0.002196658868342638,-0.004682125523686409,-0.007116062566637993,0.0031341055873781443,0.0013949366984888911,0.0002211479004472494,-0.00015407043974846601,-0.003855729941278696,-0.006510390900075436,-0.0027341945096850395,-0.00038458360359072685,-0.0020541399717330933,-0.0006992862327024341,-0.00787300243973732,0.00774405337870121,-0.004421933554112911,0.0006529554957523942,0.004509679041802883,-0.0005797749618068337,-0.0011300509795546532,-0.00015153938147705048,0.0047963447868824005,-0.0010422796476632357,0.0011085545411333442,-0.0014768524561077356,-0.003059607231989503,-0.009135939180850983,0.005395989865064621,-0.0019822954200208187,-0.002946860622614622,0.004753540735691786,-0.0032772847916930914,-0.002120640128850937,0.009966804645955563,0.0037396345287561417,-0.0020975687075406313,0.007837499491870403,-0.004488243721425533,0.004088209010660648,-0.005419906694442034,0.005968702025711536,0.0012869921047240496,0.0011245191562920809,-0.0034959199838340282,0.0020912825129926205,-0.00029633683152496815,0.0015934489201754332
长达次自,0.001975655322894454,-0.006871224846690893,-0.0015249833231791854,0.003657181514427066,-0.002141613280400634,-0.00032886912231333554,-0.0020559020340442657,-0.0015813647769391537,-0.0015041903825476766,0.001324372598901391,-0.0010579664958640933,0.003034251043573022,-0.002455674344673753,0.004284791182726622,-0.001276925322599709,0.0005395697080530226,-0.0007869168766774237,-0.0011081029660999775,0.0022477658931165934,0.0011127653997391462,0.002486823359504342,-0.003196333535015583,0.0004712621739599854,-0.0022106266114860773,-0.003260627156123519,-0.000405876780860126,0.00015359306416939944,0.0035161138512194157,0.0004496595647651702,0.003811015048995614,0.00040087048546411097,0.0039572278037667274,-0.004923210013657808,0.0031994914170354605,-0.0032923100516200066,-0.003433934412896633,-0.0035733880940824747,0.0020234165713191032,6.19519196334295e-05,0.00015186505333986133,0.002406959654763341,0.002867177128791809,0.0031947409734129906,-0.0008900872780941427,-0.0019305795431137085,-0.0007053794106468558,0.004285852890461683,3.423719681450166e-05,0.0019484166987240314,0.002488056430593133,-0.0011472926707938313,-0.0016712845535948873,-0.0010507925180718303,-0.0028372928500175476,-0.0013344991020858288,-0.00255549605935812,0.008713603019714355,0.0024530941154807806,0.0011572111397981644,-0.0009751638281159103
运动,0.0012299747904762626,-0.0023814463056623936,-0.0049699051305651665,0.002856409875676036,-0.0017254913691431284,0.005919528193771839,0.0013876722659915686,0.006786660756915808,-0.0010702140862122178,-0.00556589663028717,0.0012616480235010386,-0.0017256737919524312,0.00177462724968791,-0.006575113162398338,-0.005793016403913498,-0.006626145914196968,-0.0024972157552838326,0.0076196081936359406,0.003299932461231947,-0.004500832408666611,-0.0019790686201304197,-0.011348443105816841,-0.0006206771358847618,-8.143263403326273e-05,0.00236039562150836,0.005186446011066437,0.0012681332882493734,0.00020437402417883277,4.1432445868849754e-05,0.005008721258491278,0.0009008513297885656,-0.005312887951731682,-0.004478984512388706,-0.012000542134046555,-0.004254113882780075,-0.004917513113468885,-0.0001223806757479906,-0.0017342944629490376,-0.009941444732248783,-0.005792631767690182,0.00799731444567442,0.0009995748987421393,0.0012555827852338552,0.0068330587819218636,-0.012784352526068687,-0.0019529955461621284,-0.0044939517974853516,-0.001185181550681591,0.006500468123704195,-0.0068807052448391914,0.007655056193470955,0.0005839259829372168,-0.0009274277836084366,0.0034180826041847467,0.006251122802495956,0.009021325968205929,-0.0029893647879362106,-0.00501041067764163,-0.0065740556456148624,-0.006816166453063488
套装,0.0005564452148973942,0.010118897072970867,0.001594394794665277,-0.008090009912848473,0.001787848654203117,0.0008916818769648671,0.000220075948163867,-0.0011517946841195226,-0.00027980993036180735,0.0070736948400735855,-0.0019419512245804071,-0.0006593542639166117,-0.006948306690901518,-0.00460367277264595,0.003497785422950983,-0.005253183655440807,0.003109661629423499,0.007621863856911659,0.00170310796238482,0.0021711704321205616,-0.0010130179580301046,-0.007879280485212803,0.00586680555716157,0.00265931012108922,-0.0014286891091614962,-0.0013770177029073238,-0.004036783706396818,-0.0029335739091038704,-0.00506775826215744,-0.004162961151450872,-0.0023003979586064816,-0.0042074695229530334,-0.005385197699069977,3.29331960529089e-05,-0.01186299417167902,-0.007868996821343899,-0.008440811187028885,0.00587948365136981,0.0003555780276656151,-0.007150405552238226,-0.002543162554502487,-0.002345329150557518,0.004213707521557808,0.0034236591309309006,0.0002036773512372747,0.003573147114366293,-0.0007961070514284074,-0.00562651501968503,0.005342863500118256,-0.0016577010974287987,0.0037018097937107086,0.002735565882176161,-0.0005318745970726013,0.005639722105115652,-0.007840344682335854,0.001029627863317728,-0.00036653393181040883,-0.0007583884289488196,-0.0010290000354871154,-0.005411806516349316
白色,0.006021348759531975,0.0016515306197106838,0.005059436429291964,0.005525109823793173,0.0012609641999006271,-0.00022758403792977333,-0.0009918335126712918,0.0037284339778125286,0.001568890642374754,-0.004382975399494171,-0.007129008416086435,-0.0021469835191965103,0.007978225126862526,-0.006521982606500387,-0.010292354971170425,-0.003776641096919775,-1.6631092876195908e-05,0.010584240779280663,0.0038080334197729826,0.0037206471897661686,0.0009947577491402626,-0.009754560887813568,0.005154219456017017,0.004687197040766478,0.0014522084966301918,-0.0019422877812758088,0.001122314715757966,-0.006773671600967646,0.0032124840654432774,0.005388395860791206,0.0072299339808523655,-0.004445522092282772,0.007545027416199446,-0.0031907097436487675,-0.00046616041800007224,0.0058725373819470406,0.0025628255680203438,-0.004757050424814224,-0.005658509209752083,0.0021860175766050816,-0.0013628331944346428,-0.00016305572353303432,-0.004411078058183193,0.002947176108136773,0.0012908903881907463,0.0016117512714117765,0.002590136369690299,-0.00874695461243391,-0.010904256254434586,-0.004608233459293842,-0.0005574212409555912,-0.0044154031202197075,-0.005103058647364378,0.002624985296279192,0.00045516365207731724,0.010202876292169094,-0.0005082068964838982,-0.008299781940877438,-0.0037642670795321465,0.0039990912191569805
最新,-0.005958798341453075,-0.007464525289833546,0.0020174020901322365,0.003997772932052612,0.001471587922424078,-0.007394987158477306,0.00033695914316922426,-0.0019015849102288485,0.0049175843596458435,-0.004317796789109707,-2.451706677675247e-06,-0.0014965733280405402,-0.0006638258346356452,0.0019391379319131374,-0.0018050908111035824,-0.010768761858344078,-0.001021446194499731,0.00016626899014227092,-0.0003440692671574652,-0.0022999998182058334,0.003935257904231548,-0.01123696006834507,0.005858263932168484,0.007563536521047354,0.0046319314278662205,-0.0041722687892615795,-0.0058343661949038506,4.763374454341829e-05,0.0014542224816977978,-0.0028057552408427,0.002251754282042384,-0.006473131477832794,-0.0019801990129053593,-0.001876083668321371,0.002026933478191495,-0.0022573000751435757,0.0027899774722754955,-0.009853461757302284,0.0013201828114688396,0.006143119186162949,-0.007536409422755241,-0.006451223976910114,-0.004991465248167515,0.00419436302036047,-0.003767402144148946,-0.0015680701471865177,0.00014013145118951797,-0.004467836115509272,0.002593406243249774,0.005286676809191704,-0.0021772291511297226,-0.007220016326755285,-0.010322722606360912,0.0033725702669471502,-0.003684988711029291,-0.0005678412271663547,0.001722338143736124,-0.004977906122803688,0.004915942903608084,-0.00505116768181324
申请,8.210772648453712e-05,3.1389063224196434e-06,0.002938746241852641,-0.0018625649390742183,-0.0028051186818629503,0.0034518735483288765,0.0007622202392667532,-0.004215095192193985,0.007211598567664623,0.0030580072198063135,0.008610406890511513,0.005817485973238945,0.004929823335260153,0.0048540811985731125,-0.003651967504993081,6.551435217261314e-05,-0.0023652950767427683,-0.003916595131158829,-0.007915886119008064,-0.0017891088500618935,0.004828417673707008,0.005867469124495983,-0.008197728544473648,-3.775893128477037e-05,0.0028298855759203434,0.00311667169444263,-0.0017768786055967212,0.002092899288982153,0.008028790354728699,0.0031418423168361187,0.0032048122957348824,0.0016935142921283841,0.0004850628029089421,-0.002054771175608039,-4.511381848715246e-05,0.006361602805554867,0.007749704644083977,0.005030330270528793,-0.0013989484868943691,0.004199645482003689,-0.003822650294750929,-0.0032696176785975695,0.009992776438593864,-0.0028906851075589657,0.001756398007273674,-0.0040602488443255424,0.003426611889153719,-0.001691591925919056,-0.0065338341519236565,-0.0012049913639202714,0.0012333821505308151,0.006605368107557297,-0.006174653768539429,-0.00449939351528883,-0.013280292972922325,-0.0033247177489101887,-0.0014591621002182364,0.0031661693938076496,-0.003063209354877472,-0.009210582822561264
参加,-0.0022115895990282297,-0.008155198767781258,-0.005689483601599932,0.003943980671465397,0.0030270637944340706,0.003996245563030243,-0.00823533721268177,0.009319230914115906,-0.008175404742360115,0.0006779805989935994,-0.00043492502300068736,0.0017256038263440132,0.008370278403162956,-0.0008949586190283298,0.0049730390310287476,-0.0014757639728486538,0.006375540047883987,-0.006098325364291668,0.0037179281935095787,-0.00653495080769062,0.009198005311191082,0.005265534855425358,-0.0055573065765202045,0.0025393173564225435,0.0023228097707033157,0.006880942732095718,-0.006949986796826124,-0.0020998669788241386,0.0011700503528118134,-0.004309479147195816,-0.0007999115623533726,-0.0006842385046184063,0.002647859277203679,0.004038474056869745,-0.0006993408314883709,0.007513664197176695,0.004322609398514032,-0.00037123297806829214,-0.0033863424323499203,-0.0030263648368418217,0.0033574749249964952,0.001312261912971735,0.0013063463848084211,-0.005567844025790691,0.0007075811736285686,-0.0030315101612359285,0.00998242199420929,-0.002812876831740141,-5.893828347325325e-05,-0.001329295802861452,0.003393616294488311,-0.007278935518115759,0.0029787328094244003,-0.0006525362841784954,-0.0030815221834927797,-0.0032332544215023518,4.644511500373483e-05,-0.006467163097113371,0.004023101180791855,-0.0016628955490887165
彩票,-0.003945954609662294,-0.0038056476041674614,-0.007566639222204685,-0.003946053795516491,-0.001996851759031415,0.0021329543087631464,0.0026590910274535418,0.002253446727991104,-0.005082378629595041,0.005390305072069168,0.0017066735308617353,0.0074230399914085865,0.006569871678948402,0.004559552762657404,0.001636090106330812,-0.00518376799300313,-0.002197699621319771,-0.0034921178594231606,-0.00015438883565366268,-0.009588008746504784,0.0007323040626943111,0.005400524474680424,-0.0014590354403480887,0.0027993570547550917,-0.0039589898660779,0.0021289666183292866,-0.003836636897176504,0.0012109782546758652,0.008338290266692638,-0.00687056640163064,-0.002542344620451331,-0.007972270250320435,0.003647740464657545,-0.00984480232000351,0.000381444173399359,0.0030158809386193752,0.0011902833357453346,-0.00030535412952303886,-0.005761113949120045,-0.002433142391964793,0.0009494955884292722,-0.006190384738147259,-0.0008847534190863371,-8.686259388923645e-05,-0.005394819192588329,0.0022937003523111343,-0.0020763904321938753,-0.00243866303935647,0.0018915587570518255,0.003360861213877797,-0.00010433327406644821,0.0045685674995183945,-0.005633458495140076,-0.00325361592695117,-0.0024308764841407537,-0.007282542064785957,0.007054956164211035,-0.0037112580612301826,0.0028520505875349045,0.0008651991956867278
出来,0.0009837355464696884,0.007206943817436695,-0.0070862011052668095,0.0032193923834711313,0.004252441227436066,0.001224519219249487,0.003518518293276429,-0.0006011218065395951,0.0010238345712423325,-0.008560983464121819,0.002364665037021041,0.0049070436507463455,-0.0003180137719027698,-0.004614035598933697,-0.001088327495381236,-0.0020281458273530006,-0.005444618407636881,0.005364061798900366,-0.010048845782876015,0.01106753945350647,-0.005536142736673355,0.0021513772662729025,0.0009972818661481142,0.001581212505698204,0.007719793822616339,-0.0034828928764909506,0.0010719320271164179,0.0051033878698945045,-0.008871875703334808,-0.0016362417954951525,0.0005685471696779132,0.0008279383182525635,-0.009654736146330833,-0.006939901039004326,0.0040690284222364426,0.0089347455650568,-0.005034931004047394,0.0029372263234108686,-0.002899803686887026,0.00015995115973055363,0.004217986017465591,0.001916155801154673,-0.005600504577159882,-0.0033312044106423855,-0.005942698568105698,-0.00201794458553195,0.0030276617035269737,0.01101131085306406,-0.00634810421615839,0.001713010249659419,0.0069204517640173435,2.3990520276129246e-05,-0.0061081452295184135,0.0004647565074265003,0.0005944854929111898,0.005978171247988939,-0.0003268416039645672,-0.0031579211354255676,0.005185483954846859,0.004464291501790285
超过,-0.0013973452150821686,0.002243045484647155,0.00020339968614280224,-0.005978045053780079,0.0007405808428302407,-0.007485560607165098,-0.011522908695042133,0.0012039912398904562,-0.007816733792424202,-0.011382108554244041,-0.004812723025679588,-0.003806124906986952,0.007690960541367531,0.0033629420213401318,0.00016125664114952087,0.0028769662603735924,-0.002284341026097536,0.0019817303400486708,-0.00023418152704834938,0.000500975176692009,0.00029479549266397953,0.003957717679440975,-0.008808170445263386,0.004611310549080372,-0.0012076919665560126,0.007785782217979431,-0.007417228072881699,0.002351137576624751,-0.00654185563325882,0.006151022855192423,0.000914738280698657,-0.010168076492846012,-0.0029635641258209944,-0.0014882652321830392,0.006607254967093468,-0.003363444237038493,-0.0012043893802911043,0.006149048916995525,-0.0038007681723684072,0.012768504209816456,0.002785584656521678,0.006896658800542355,-0.008022630587220192,-0.0021546781063079834,0.003943940624594688,-0.0009779236279428005,-0.003254734445363283,-0.0017304469365626574,0.002961209276691079,0.004443299025297165,0.005652822554111481,0.002962517784908414,-0.007721330039203167,0.0017110772896558046,0.00197100592777133,0.005211642012000084,-0.010849077254533768,-0.0058478377759456635,0.005310447886586189,-0.0059236567467451096
月亮,0.0007756189443171024,0.0045769973658025265,0.0014117355458438396,0.00023104739375412464,-0.003739173524081707,0.002281768247485161,-0.002178817056119442,0.0029854713939130306,0.006207780912518501,-0.009529059752821922,-0.004339978098869324,-0.000821343157440424,0.0031208032742142677,-0.0032967280130833387,0.0037897098809480667,-0.011571607552468777,-0.004543819930404425,0.004209510982036591,0.005428561475127935,0.0022330342326313257,0.002082732506096363,0.007256686687469482,0.0016596567584201694,0.0019922773353755474,-4.984147381037474e-05,0.0039503187872469425,0.0027053263038396835,-0.003924150485545397,0.007989423349499702,0.004091484937816858,0.00032381201162934303,-0.001145584974437952,-0.009451569058001041,0.002620976883918047,-0.010061612352728844,-0.00149927893653512,-0.0031315430533140898,-0.0033674663864076138,0.003694940824061632,-0.00240519386716187,-0.0028978236950933933,-0.003776725847274065,0.0048627047799527645,0.0032338870223611593,-0.0036046146415174007,-0.007911942899227142,0.0005807733396068215,0.005434034857898951,0.009168555960059166,-0.0029714202973991632,0.00823306292295456,-0.005412022117525339,-0.007048404775559902,0.002526148222386837,-0.00441233953461051,0.005013550166040659,-0.0016146500129252672,-0.0003716356586664915,-0.0009228255366906524,-0.0018764054402709007
获胜,0.003688595723360777,-0.007865029387176037,-0.008863883092999458,-0.011731750331819057,-0.004739230033010244,0.001416093553416431,0.0014910311438143253,0.011356599628925323,0.0069638751447200775,-0.0026161654386669397,-0.0022457134909927845,0.001763889566063881,0.009771788492798805,-0.006836390122771263,-0.007414327003061771,0.004113365896046162,-0.004688598215579987,-0.001510857604444027,-0.00941970944404602,-0.0016335209365934134,-0.0011927238665521145,-0.0026035357732325792,0.011746492236852646,-0.0074934279546141624,0.0056655979715287685,-0.006622985005378723,-0.00526422169059515,0.004703233018517494,-0.007300440687686205,-0.003043371718376875,0.0012052045203745365,0.0021706908009946346,-0.005330547224730253,0.001746862893924117,0.0033215030562132597,-0.0027121976017951965,0.004084249492734671,-0.0003190311836078763,-4.703644663095474e-05,-0.0009561381302773952,-0.0025659073144197464,0.0033057276159524918,0.0003636993933469057,0.0013784836046397686,-0.008518543094396591,0.00702549796551466,-0.002081128302961588,-0.00036564189940690994,0.005740011110901833,0.00017801043577492237,0.005048804916441441,-0.000644844607450068,0.004963882267475128,0.0016121277585625648,0.005753741599619389,0.00601346418261528,0.004349150694906712,0.0011257987935096025,-0.0064433421939611435,0.008137288503348827
共享,0.0056014638394117355,0.00026920257369056344,0.004074557218700647,0.008163537830114365,0.0022218157537281513,-0.002378488890826702,-0.009042956866323948,-0.004569577053189278,-0.0011760222259908915,0.002242419868707657,0.0016741567524150014,0.0005665489006787539,-0.0007643532007932663,-0.00325512932613492,-0.0009958111913874745,-0.01107252761721611,-0.000887436734046787,0.0021967764478176832,-0.006215921603143215,0.00301598128862679,0.0015647243708372116,-0.004774820990860462,-0.0008274294668808579,0.00122927431948483,-0.0011637541465461254,0.0004349537193775177,-0.0011572509538382292,-0.00268003111705184,-0.0005551017820835114,-0.00022601918317377567,-0.005382834002375603,0.005384193733334541,-0.0013384380144998431,-0.007075355388224125,-0.0003367774188518524,-0.011309726163744926,-0.004031987860798836,-0.004249346908181906,0.0045999339781701565,-0.0004572039470076561,0.005051668733358383,-0.0009479227010160685,-0.0017055947100743651,-0.005078379064798355,-0.0033946374896913767,-0.001708225579932332,-0.008835408836603165,-0.0015589639078825712,0.00719819962978363,0.0017577038379386067,-0.003316008485853672,-0.0011228114599362016,0.004192987456917763,0.0004955693148076534,0.006742018274962902,-0.004951081238687038,0.010905987583100796,-0.006439294200390577,0.011312521994113922,0.006713253445923328
交付,-0.001791241462342441,0.0016829357482492924,0.0036267340183258057,0.0016993382014334202,-0.0020585707388818264,-0.006837756372988224,-0.006233108229935169,-0.0050790151581168175,-0.005716997664421797,0.004534085281193256,0.0012106811627745628,-0.006296718493103981,-0.007210236508399248,-0.0013557430356740952,0.0004086848348379135,-0.0005500761326402426,0.00042118062265217304,-0.0034931828267872334,3.072037361562252e-05,0.0006958853919059038,-0.01136102620512247,-0.00041639944538474083,0.0013901650672778487,0.0018773269839584827,-0.008291500620543957,0.011881327256560326,-0.0010737923439592123,-0.003820620011538267,-0.00572684220969677,-0.00046971836127340794,0.006092570722103119,0.009810728952288628,-0.000236452033277601,-0.01013480219990015,-0.007800896652042866,-0.003023866331204772,0.0031283628195524216,-0.007813898846507072,0.003271032590419054,-0.001961728325113654,-0.005413198843598366,0.0035331358667463064,-0.005881095305085182,-0.004965254571288824,-0.0021485828328877687,0.0036206701770424843,0.00850225705653429,0.010237975977361202,-0.005917767994105816,0.005762603133916855,-0.00042215577559545636,0.003787979483604431,0.00933934934437275,0.0037739048711955547,-0.0022529643028974533,-0.007350096013396978,-0.0035446074325591326,0.0020979889668524265,-0.0072251539677381516,-0.0017841047374531627
都,0.0029612407088279724,0.014857625588774681,0.016035031527280807,-0.009291429072618484,-0.011613798327744007,-0.006093896925449371,-0.007417141459882259,0.0006411215290427208,-0.009314045310020447,-0.0029081804677844048,-0.007410128600895405,0.009941820055246353,0.009978847578167915,-0.004512372426688671,-0.010472393594682217,-0.003107585944235325,-0.008823508396744728,-0.006959377322345972,0.0012767692096531391,0.0019292341312393546,0.015402909368276596,-0.007352035492658615,0.0020095109939575195,0.013524075970053673,0.016017237678170204,-0.0062957522459328175,-0.0023161587305366993,0.0020390423014760017,0.00560651533305645,-0.004782787058502436,-0.0026824907399713993,-0.00044303154572844505,0.004122219979763031,-0.008194484747946262,-0.005779257044196129,0.013192391023039818,-0.0139706339687109,-0.010074939578771591,-0.011910103261470795,0.014706644229590893,0.006980615667998791,0.0013864547945559025,-0.007123714312911034,0.011910242959856987,-0.012825802899897099,0.005917807575315237,-0.007054316811263561,0.00684976764023304,-0.006317386403679848,-0.0051178294233977795,0.015976186841726303,-0.0032848792616277933,0.0037646391429007053,0.0008721009362488985,0.008597534149885178,0.0042444560676813126,0.008331209421157837,-0.019246984273195267,0.013318372890353203,-0.017722470685839653
奖励,-0.010120786726474762,-0.006104821339249611,0.014412667602300644,0.006038390565663576,-0.004500591196119785,0.000906569417566061,-0.007356652989983559,-0.0018597927410155535,0.01114465668797493,-0.004919927567243576,0.0032243828754872084,0.0027750572189688683,0.0069604311138391495,-0.0009980073664337397,-0.006201258394867182,-0.0054433923214674,-0.00796044897288084,0.00414649210870266,-0.006371317431330681,0.0032556653022766113,-0.0005234276177361608,-0.005053454544395208,-0.0041304053738713264,-0.002930760383605957,0.0016196868382394314,0.0018883284647017717,0.0010757530108094215,-0.0017310644034296274,-0.001840752549469471,-0.011974455788731575,-0.0014280944596976042,-0.00726674497127533,4.9350084736943245e-05,-0.0019635185599327087,0.002016587881371379,-0.0020065621938556433,-0.005208129994571209,-0.005752121098339558,-0.013440863229334354,-0.0035357677843421698,0.0034591278526932,-0.006272250786423683,-2.568424679338932e-05,0.004432453773915768,8.743093349039555e-05,0.0008600282017141581,-0.008447987027466297,0.004683556966483593,0.0012691261945292354,-0.0009420352289453149,-0.003797810059040785,0.00017383997328579426,-0.005236026365309954,-0.000587723683565855,0.0073683494701981544,0.003153841011226177,0.008272049948573112,-0.004392947070300579,-0.0038149780593812466,0.0051543074660003185
真的,-0.002605610527098179,-0.0007972643943503499,0.004915626719594002,0.002297773025929928,-0.0028736726380884647,0.005684452131390572,0.0008676822762936354,-0.0017985691083595157,-0.0009491343516856432,-0.012503733858466148,0.001085057039745152,-0.0025626278948038816,0.002768475329503417,0.0026534879580140114,-0.012225029058754444,-7.650232873857021e-05,-0.0005323700606822968,0.00449239369481802,-5.921255797147751e-05,0.00040867808274924755,0.0017236509593203664,-0.012402462773025036,-0.003632132662460208,0.00194483099039644,0.010974609293043613,-0.013450415804982185,0.0007176036015152931,0.008454378694295883,-0.007798109669238329,0.004327957518398762,0.0015669316053390503,0.005427828989923,0.002621525665745139,-0.008713806048035622,-0.002559700980782509,-0.0006681517697870731,-0.0022435432765632868,-0.0002622408792376518,-0.004488720558583736,0.004977369215339422,-0.010536710731685162,-0.000701253127772361,-0.00730483140796423,0.0029469293076545,-0.01179807074368,-0.008255047723650932,-0.004195266868919134,0.0034329083282500505,-0.003139902139082551,0.00038341782055795193,-0.0045497724786400795,-0.0013123046373948455,-0.0012727282010018826,3.3346936106681824e-05,0.002172759035602212,0.00034148365375585854,0.002073108684271574,-0.008714721538126469,0.002027425915002823,-0.011136271059513092
旅行,0.0048412056639790535,-0.0019595136400312185,-0.0016616556094959378,-0.01113138347864151,0.0012849920894950628,0.0034584738314151764,0.0006668195128440857,0.0020351444836705923,0.004300867207348347,-0.0009300192468799651,-0.0001585648860782385,0.0029725972563028336,-0.003581509692594409,-0.002313613658770919,0.007317700888961554,0.010365154594182968,-0.009939572773873806,-0.0003397124819457531,0.0003164829686284065,0.0012713606702163815,0.0014840757939964533,-0.0011470080353319645,-0.0020067025907337666,-0.006489428225904703,-0.0015002364525571465,-0.0033202474005520344,0.0044708275236189365,0.005242556799203157,-0.0029174326919019222,0.009128960780799389,-0.0044628288596868515,0.0006458521820604801,-0.003967339172959328,-0.0016972699668258429,-0.006281653884798288,0.004928805865347385,-0.0013940553180873394,-0.004151549190282822,-0.004712027031928301,0.004774010274559259,0.0015717007918283343,-0.006041381508111954,-0.0026455912739038467,0.008555457927286625,0.004439283162355423,-0.00030591501854360104,-0.004991773981601,-1.903169322758913e-05,0.0017462484538555145,0.0058469814248383045,0.0003366814344190061,0.0018558811862021685,-0.00499002356082201,0.002838301472365856,0.0028799702413380146,0.0018834619550034404,0.007644448429346085,0.0009696086053736508,-0.004249955527484417,0.0034051667898893356
想,-0.008546017110347748,0.00030233850702643394,0.002631701296195388,0.012108827009797096,-0.006691702641546726,-0.0020991796627640724,-0.003353295847773552,0.014534898102283478,-0.006525758653879166,-0.001867516664788127,-0.003584277117624879,0.0011146652977913618,0.016741804778575897,-0.009938202798366547,-0.006756533868610859,0.010305643081665039,0.009987782686948776,-0.006123996339738369,0.003809504210948944,-0.012120564468204975,0.0031113799195736647,-0.008148323744535446,0.00431312620639801,0.003275715047493577,0.021277619525790215,-0.014002176001667976,-0.0074882106855511665,0.013737708330154419,-0.008379173465073109,0.003986563067883253,0.01626421883702278,0.006613206118345261,-0.002453172579407692,0.0016811550594866276,-0.01259332150220871,0.0034013523254543543,-0.002288870746269822,-0.012204061262309551,-0.009375088848173618,0.013972800225019455,-0.0018523088656365871,0.002878766041249037,-0.009757952764630318,-0.00981720257550478,-0.0022655068896710873,0.000990450382232666,-0.0058651939034461975,0.005347865168005228,0.007559845224022865,0.012984182685613632,0.01250386331230402,0.0050703389570117,0.002953791059553623,0.005611664615571499,0.016857558861374855,-0.0003949780948460102,-0.0021326253190636635,-0.014488110318779945,0.008395656943321228,-0.009068053215742111
立即,0.005467317532747984,0.0009614848531782627,0.009105129167437553,-0.00021527288481593132,-0.010041756555438042,0.001051208470016718,-0.003366869641467929,-0.003953574690967798,-0.008827030658721924,-0.0006635682657361031,-0.0035230563953518867,0.0009231017902493477,-0.0006551941623911262,9.712530300021172e-05,-0.006374355871230364,0.0018935686675831676,0.00580343883484602,0.003732480341568589,0.0062395911663770676,-0.007387873250991106,-0.0015041641891002655,-0.0023799603804945946,-0.005074395798146725,-0.005905847996473312,-0.0010468701366335154,-0.0018429679330438375,0.0008478384697809815,-0.0029883082024753094,0.0023014196194708347,-0.003293799003586173,0.004125724080950022,-0.0004564740229398012,-0.003143862122669816,-0.0006598514155484736,0.00361047126352787,0.0010192431509494781,-0.004340703133493662,-0.008107583038508892,-0.002924874424934387,-0.0005303367506712675,-0.002128163119778037,0.0015547394286841154,0.0042466712184250355,0.005449983756989241,-0.004889029543846846,0.009014257229864597,-0.0015940637094900012,0.0022777384147047997,0.004441109951585531,-0.0007056570611894131,-0.0008119351696223021,0.0012432769872248173,-0.004701011814177036,0.005903059616684914,-0.0007638116367161274,-0.0013007349334657192,-0.0015335737261921167,0.00682143634185195,-0.003854193491861224,-0.0031261644326150417
达,0.006742539815604687,-0.010123549029231071,-0.010593990795314312,0.008543189615011215,-0.009144974872469902,3.1287781894207e-06,0.0008052075281739235,0.008581927046179771,-0.003991158213466406,-0.0020252023823559284,0.00029285403434187174,-0.0010790158994495869,-0.0015038794372230768,0.0073699746280908585,0.005499751307070255,-0.0030359607189893723,0.013115085661411285,0.00010939151979982853,0.001203794963657856,0.00046932278200984,-0.007595895789563656,0.014826151542365551,0.00032326532527804375,0.00017668167129158974,0.0022829468362033367,0.007590948138386011,-0.0011743521317839622,-0.002603385830298066,-0.0017122892895713449,0.004885618109256029,0.009270474314689636,-0.0024455334059894085,-0.010594394989311695,-0.010433156974613667,-0.00677219033241272,-0.0031902692280709743,0.00027019577100872993,0.005110015161335468,0.003797768149524927,0.006307207979261875,-0.0006585437804460526,0.011651309207081795,0.004531961865723133,0.005051581189036369,-0.0038161263801157475,0.006614885292947292,-0.00611419603228569,-0.005382462404668331,-0.00873453076928854,-0.0028964912053197622,0.001980455592274666,0.008309858851134777,0.008294742554426193,-0.0007532212184742093,0.00844743475317955,6.337370723485947e-05,-0.0015317073557525873,0.002579031977802515,0.007644994184374809,-0.005573146045207977
斗争,0.011407563462853432,0.0050770896486938,0.004483440890908241,0.0010655340738594532,-0.0016272926004603505,0.00337592582218349,0.003439654130488634,0.0029258080758154392,0.0015571434050798416,0.012483254075050354,0.004466628655791283,-0.00026946188881993294,-0.007038545329123735,-0.0006966053042560816,-0.010980411432683468,-0.004803664982318878,7.496180478483438e-05,-0.008576883934438229,-0.0016759043792262673,-0.00286694779060781,0.0038991232868283987,-0.009029322303831577,-0.007183309644460678,-0.0023556340020149946,0.008302398025989532,-0.007870012894272804,0.00397131871432066,-0.007663404103368521,0.0010716954711824656,0.0033313948661088943,-0.004084431566298008,-0.003343846881762147,-0.00543166371062398,-0.008271533064544201,-0.0035363754723221064,-0.003285632934421301,-0.00866597518324852,0.005596340633928776,0.0007418262539431453,-0.008739547803997993,0.002420139266178012,0.0006665964028798044,0.00498734088614583,0.0019820386078208685,0.0013971023727208376,0.00924442894756794,-0.00017080199904739857,0.0034848577342927456,0.0030466895550489426,0.01117655448615551,-0.004199236165732145,0.003219325328245759,-0.0021919459104537964,-0.012421161867678165,-0.0036753753665834665,-0.004437874536961317,-0.003044666489586234,0.0024231956340372562,-0.0008646741043776274,-0.0026730033569037914
