word,0,1,2,3,4,5,6,7,8,9,10,11,12,13,14,15,16,17,18,19,20,21,22,23,24,25,26,27,28,29,30,31,32,33,34,35,36,37,38,39,40,41,42,43,44,45,46,47,48,49,50,51,52,53,54,55,56,57,58,59,60,61,62,63,64,65,66,67,68,69,70,71,72,73,74,75,76,77,78,79,80,81,82,83,84,85,86,87,88,89,90,91,92,93,94,95,96,97,98,99
无聊,-0.0027387593872845173,-0.0012583862990140915,0.0022944791708141565,0.010499485768377781,-0.005743528250604868,-0.0039419978857040405,0.00227298098616302,0.005014118272811174,-0.004354082979261875,-0.0017669815570116043,0.0004537713248282671,-0.004199624992907047,-0.0011774677550420165,0.0036344125401228666,-0.002127312356606126,-0.003167754039168358,-0.001168438931927085,-0.003135548671707511,0.003427466843277216,-0.0010617505759000778,0.0031100038904696703,0.0005889071617275476,0.0011038812808692455,0.005337902344763279,-0.0011741589987650514,-0.002026885747909546,0.0024277749471366405,-0.001495796605013311,-0.0030146795324981213,0.002084799576550722,0.0019622906111180782,-0.0024163213092833757,-0.001722531160339713,-0.003421965753659606,0.0011534040095284581,0.00758372712880373,8.869660086929798e-05,-0.0027602810878306627,-0.0006344715948216617,-0.0069663552567362785,-0.0028131743893027306,-0.0036846897564828396,0.0002794221509248018,0.0026713931001722813,-0.0023477114737033844,0.0007362264441326261,-0.004883083514869213,-0.0005323749501258135,0.0015411344356834888,0.0011580283753573895,-0.001604424905963242,-0.002887486480176449,-0.0007713601225987077,-0.0018590530380606651,-0.0049158064648509026,0.0014819579664617777,0.0037176618352532387,-0.0013113543391227722,-0.001339339418336749,0.004816127475351095,-0.0021793823689222336,0.0022542804945260286,0.0013413596898317337,-0.001689836964942515,-0.000414349720813334,0.0005813115276396275,0.0025141623336821795,-0.002156617119908333,-0.0002694324357435107,0.0025875046849250793,0.0019377126591280103,0.001854822738096118,0.007090523838996887,-0.00013940842472948134,-0.0005070632905699313,0.0021860282868146896,0.002783631905913353,-0.004099971614778042,-0.000566215836443007,-0.002982485806569457,-0.0003131107660010457,0.001193915493786335,0.0016192183829843998,-0.0008013432379812002,0.0041860556229949,-0.0028796903789043427,-0.0007146153366193175,0.006726180203258991,0.0035111908800899982,-0.001912394305691123,0.003846593201160431,0.004760902840644121,0.004700914956629276,0.002856331877410412,0.0048755137249827385,-0.0035133741330355406,0.0013139760121703148,-0.0011194682447239757,-0.0006210675346665084,0.00045572465751320124
关键,-0.003601337317377329,-0.002282310277223587,-0.0016573930624872446,0.002523306291550398,-0.005532987881451845,-0.0035563090350478888,-0.0038060664664953947,-0.0010551938321441412,-0.0020198896527290344,-0.005367469973862171,-0.004595025442540646,-0.0017322239000350237,-0.0052586994133889675,-0.003290921915322542,-0.005341954063624144,-0.00851317960768938,0.004293914884328842,0.000990281580016017,-0.0001229031477123499,-2.901922562159598e-05,0.00016048597171902657,0.00481435377150774,0.004039847292006016,0.0005663613555952907,0.0025603221729397774,8.622067980468273e-05,-0.0018309918232262135,0.0012463463936001062,-0.00044014345621690154,0.0020277374424040318,0.0003279640804976225,0.004899082239717245,0.0009013707749545574,0.0013329519424587488,-0.003026289865374565,0.002882914850488305,0.004511427599936724,-0.003856521099805832,0.001015476998873055,-0.00041325349593535066,0.0017506289295852184,0.004131358116865158,-0.0004389866953715682,-0.003517331089824438,-0.004159991629421711,-0.001545956707559526,0.0012192917056381702,0.006582525093108416,0.004821581766009331,0.002859931904822588,0.002246373100206256,0.0018790056928992271,0.002789932768791914,-0.0024918171111494303,1.8524995539337397e-05,-0.002265510382130742,0.0012641025241464376,-0.003410401986911893,-0.0006793016218580306,0.0021988532971590757,0.00027126906206831336,-0.0034218793734908104,0.005023731850087643,0.005926948972046375,-0.0007564863190054893,-0.0015301649691537023,0.0016020898474380374,0.00021339044906198978,-0.0005402872338891029,-0.0005721909692510962,-0.0052443258464336395,0.0002514761872589588,-0.0005609072977676988,-0.0018482747254893184,8.663715561851859e-05,0.0058526452630758286,-0.0012941216118633747,0.003944639582186937,-0.0034882761538028717,-0.002126877661794424,-0.0017174319364130497,0.003999385051429272,0.0025299121625721455,0.0037943848874419928,0.0005002018297091126,-0.0012929746881127357,-0.00018679013010114431,-0.000696237082593143,0.0005753033328801394,-0.0018783464329317212,-0.0017292725387960672,-0.0007980598602443933,-0.0013907153625041246,0.00010305399337084964,0.0038715421687811613,0.0030353940092027187,0.0002424200065433979,-0.0046948157250881195,-0.0015315563650801778,-0.006055642385035753
很,-0.02164263278245926,0.009983804076910019,0.011455563828349113,0.025926537811756134,-0.011135097593069077,-0.01229817420244217,0.004388852044939995,0.01304570958018303,-0.008368197828531265,-0.010511212050914764,-0.001204484375193715,-0.026386654004454613,-0.007845754735171795,0.00724964402616024,-0.00783033762127161,-0.013287341222167015,0.0031051896512508392,-0.007923469878733158,0.0015579098835587502,-0.032095566391944885,0.0034144038800150156,0.00046888977522030473,-0.0122773926705122,0.0013307646149769425,0.009565634652972221,0.004454260226339102,-0.014862000942230225,-0.006327654235064983,-0.009379232302308083,-0.0029013934545218945,0.011397365480661392,-0.00747307576239109,-0.0021845921874046326,0.004742774646729231,-0.015514406375586987,0.01811031997203827,0.007319638505578041,-0.003471858100965619,-0.016029128804802895,-0.020374029874801636,0.0053002359345555305,-0.003924252465367317,-0.010359816253185272,-0.011969538405537605,-0.003370797261595726,0.003952215891331434,-0.014589237980544567,0.013480977155268192,0.002835739403963089,0.018955042585730553,-0.005453622434288263,0.004034942016005516,-0.003868949133902788,0.0099636884406209,0.00473393127322197,-0.0014181603910401464,0.006104639731347561,-0.0025011193938553333,-0.013426043093204498,0.005308611784130335,-0.008195417001843452,0.008440391160547733,0.007113407365977764,0.0005524547304958105,-0.00460252957418561,-0.010978778824210167,0.0036867125891149044,-0.01201783586293459,-0.013770680874586105,0.019880492240190506,-0.0001488447596784681,0.0016968623967841268,-0.0049978927709162235,-0.013092338107526302,0.011941369622945786,-0.001957830972969532,0.009833361953496933,0.0020123773720115423,0.0006785617442801595,-0.005643908865749836,0.005501910112798214,-0.003164469264447689,-0.0034927576780319214,0.014086274430155754,-0.0011734702857211232,-0.006214114837348461,-0.00015110056847333908,0.010300194844603539,0.02033281698822975,0.0055188871920108795,-0.004364489112049341,0.0064076511189341545,0.004783943761140108,0.018268700689077377,0.01783444732427597,0.006010974291712046,0.0030467018950730562,-0.00950139295309782,0.0004238144028931856,-0.0012391558848321438
爱,-0.011214310303330421,0.005021701101213694,0.018201500177383423,0.01513944286853075,-0.004665412940084934,-0.014400403946638107,-0.003969297744333744,-0.000856039288919419,0.0033726971596479416,-0.009411451406776905,0.003130184253677726,-0.01796971634030342,-0.0044926912523806095,0.005314789246767759,0.000568066374398768,-0.021923450753092766,0.0006976851727813482,-0.003522843588143587,0.0057927081361413,-0.018363963812589645,0.008172333240509033,0.0028685093857347965,-0.0019907262176275253,-0.00461242813616991,0.006100296042859554,0.0040335869416594505,-0.014341907575726509,-0.004339052364230156,-0.008850080892443657,0.0010161292739212513,-0.001321971183642745,-0.004391782451421022,-0.002109335968270898,0.0005998145788908005,-0.01083390973508358,0.010510149411857128,0.008339482359588146,-0.00782047025859356,-0.012768947519361973,-0.017006563022732735,-0.0007080745417624712,-0.00960670318454504,-0.0037240437231957912,-0.005889575928449631,-0.002177173038944602,0.006065616384148598,-0.017635466530919075,0.016279149800539017,0.0046730064786970615,-0.0007934363093227148,-0.004795266315340996,0.004995620809495449,0.009680959396064281,0.008644426241517067,0.0004026307724416256,0.002602956723421812,0.0034478462766855955,-0.0014265177305787802,-0.014641819521784782,0.007168406620621681,0.0027011691126972437,0.0006998928729444742,-0.00047178228851407766,0.0003560283803381026,0.002141620498150587,-0.009759047068655491,0.0024680125061422586,-0.013345235958695412,-0.005129000172019005,0.01611918956041336,-0.0030582083854824305,-0.0013676881790161133,-0.0006237011402845383,-0.0040517584420740604,0.013362845405936241,0.003937462344765663,0.0035674194805324078,-0.0029835528694093227,-0.005185257643461227,3.855675458908081e-05,0.009816940873861313,0.0023183971643447876,-0.008201353251934052,-0.0003239350044168532,-0.0006537451408803463,0.0019027929520234466,-0.0015598753234371543,0.0062143742106854916,0.010191641747951508,0.003452704520896077,-0.0018473684322088957,0.0031333398073911667,-0.008957752026617527,0.0017839616630226374,0.015945440158247948,0.001052499283105135,-0.0006334158824756742,-0.002629809081554413,-0.008468997664749622,-0.005984549876302481
男孩,-0.003574761562049389,0.0013950868742540479,0.0062325699254870415,0.00253880163654685,-0.0005402399692684412,-0.003145897528156638,0.0021897281985729933,-0.002606568392366171,-0.00046577630564570427,-0.0024246720131486654,-0.0023504921700805426,-0.009396441280841827,-0.0005102793220430613,-0.0008733535651117563,0.0018294209148734808,-0.009324068203568459,-0.0007072794251143932,-0.0021335589699447155,-0.0031131335999816656,-0.0058455257676541805,0.0022494755685329437,0.002100936137139797,-0.003168438095599413,-0.005158428102731705,0.002478872425854206,-0.0010905315866693854,-0.003384605050086975,-0.004235350526869297,-0.006682663224637508,-0.002449525985866785,0.0008149167988449335,0.0009463070891797543,0.002312034135684371,-0.002720498014241457,-0.002521483227610588,0.0009293907787650824,-9.412923827767372e-05,-0.00596757885068655,0.0002210061065852642,0.0023431198205798864,-0.00048087534378282726,0.0020721161272376776,-0.0021326495334506035,-0.005399635527282953,-1.4540273696184158e-05,-0.0032828606199473143,0.004922905936837196,0.005162668880075216,0.007456792518496513,0.004204150754958391,0.0012293669860810041,0.0010553891770541668,-0.005740996450185776,0.0042677586898207664,-0.00416665431112051,-0.0013544221874326468,-0.00011290749534964561,0.004595473874360323,-0.002734064357355237,0.0015578886959701777,0.0005934359505772591,-0.0008370758732780814,-0.0014709276147186756,0.0008417273638769984,-0.0026911916211247444,0.00026623846497386694,0.0009528273367322981,-0.008317607454955578,-0.0009278443176299334,0.0018602234777063131,0.0044736722484230995,-0.00279376283288002,0.0028234184719622135,-0.006635457277297974,0.0008713988354429603,-0.0018235136521980166,0.002168382750824094,0.00018961427849717438,-0.002998136915266514,0.004926891997456551,0.0038991128094494343,-0.005600573029369116,0.004473679233342409,0.001948879100382328,-0.003391857026144862,-0.0019216322107240558,-0.0005658589070662856,0.003149124328047037,0.001471955212764442,-0.0009331583278253675,0.000930751150008291,-0.00037276779767125845,-0.0043311091139912605,0.0011254161363467574,0.0018485846230760217,-0.004574841819703579,-0.002103236736729741,-0.0037416736595332623,-0.0018032975494861603,-0.007591476198285818
有,-0.031231677159667015,0.013514311984181404,0.022833120077848434,0.03376154974102974,-0.008413891308009624,-0.01761813648045063,0.0037779209669679403,0.02248440496623516,-0.009705053642392159,-0.010238579474389553,-0.007668026722967625,-0.03352833539247513,-0.01422705128788948,0.011676552705466747,-0.007751804776489735,-0.03021397814154625,0.00012825895100831985,0.001435641199350357,0.006509300321340561,-0.04709894210100174,0.015065044164657593,-0.004216942936182022,-0.00533819617703557,-0.0011011827737092972,-5.8199744671583176e-05,0.002275790786370635,-0.022408735007047653,-0.013780088163912296,-0.0046192342415452,0.009531287476420403,0.015238788910210133,-0.019764326512813568,-0.00963097158819437,-0.00848475657403469,-0.007721259258687496,0.017845764756202698,0.014857721514999866,-0.011741751804947853,-0.01963154599070549,-0.025961508974432945,0.008694744668900967,-0.018083222210407257,-0.01755443401634693,-0.013888069428503513,-0.0005594585090875626,0.003635578555986285,-0.018537675961852074,0.02259533293545246,0.012399093247950077,0.01522053312510252,-0.00904086697846651,-0.0020912315230816603,-0.00352288200519979,0.010892434045672417,0.003790769726037979,0.010152800008654594,0.013935018330812454,-0.0036072121001780033,-0.022611090913414955,0.009015108458697796,-0.005853767041116953,0.0062432922422885895,-0.0015209275297820568,-0.004804057069122791,-0.000536707928404212,-0.013064601458609104,0.006402707193046808,-0.018101891502738,-0.01283055730164051,0.03386547416448593,-0.004913829732686281,-0.01097134593874216,-0.0029926765710115433,-0.0018366503063589334,0.01341215893626213,0.00324863288551569,0.008215711452066898,0.004235115367919207,-0.007515992969274521,-0.001777098746970296,0.005685006268322468,0.0005349348648451269,0.0004110043519176543,0.007383923977613449,-0.007474711164832115,-0.004627517890185118,0.003283354453742504,0.009664364159107208,0.021172406151890755,0.005573359318077564,-0.007569778710603714,-0.005547528155148029,0.005628591403365135,0.015201900154352188,0.01154207531362772,0.010770909488201141,0.010760118253529072,-0.012073548510670662,-0.014303949661552906,-0.0047521451488137245
吃,-0.013641186989843845,-0.003942661918699741,0.004437859170138836,0.00781930610537529,0.003245040774345398,-0.0004074478056281805,0.005890083499252796,0.009210987947881222,0.0026676917914301157,-0.0054916320368647575,-0.005447829142212868,-0.005402133334428072,-0.004488741513341665,0.007698527537286282,-0.0011894439812749624,-0.006429542787373066,0.0010270306374877691,0.0023055351339280605,0.00024685775861144066,-0.01057636458426714,-0.004507923498749733,-0.0007733097299933434,0.003528621979057789,0.0040592532604932785,0.0040178666822612286,0.0010497020557522774,-0.011013912968337536,0.0007819852326065302,0.004338616505265236,0.005316024646162987,0.006280082743614912,-0.002012127311900258,0.006295167841017246,0.004933089017868042,-0.004958584904670715,0.011475810781121254,0.004960957914590836,-0.0028548259288072586,-0.011357316747307777,-0.005610583815723658,0.0014667853247374296,-0.008968155831098557,-0.004977455362677574,-0.004906635731458664,-0.00443114060908556,-0.0005783902015537024,-0.0018526535714045167,0.003655809909105301,0.0029905105475336313,-0.004601008258759975,-0.002617997583001852,-0.006334502249956131,-0.00018178659956902266,-0.0049065230414271355,0.003576299175620079,0.0014766438398510218,0.010651282966136932,-0.005959713831543922,-0.004243393894284964,0.009181142784655094,0.007695045322179794,0.003959899768233299,-0.005421091802418232,-0.0038460888899862766,-0.0020975517109036446,-0.0013738397974520922,0.007752036675810814,-0.008803127333521843,-0.007563112769275904,0.0003409322816878557,0.007628848776221275,-0.006564703769981861,0.0024466027971357107,0.0028543397784233093,-0.0027456299867480993,0.004671997390687466,-0.0027413959614932537,0.005463452078402042,-0.004690208006650209,-0.003269131761044264,0.0007170111639425159,0.006065720692276955,0.003034134628251195,0.00498192710801959,0.0017960378900170326,-0.00013790978118777275,-0.0027535990811884403,-0.006523296236991882,-0.0032370341941714287,-0.005545103456825018,0.006897666957229376,0.0026728613302111626,-0.0002069104230031371,0.0008272421546280384,0.00620228098705411,-0.003965889103710651,-0.0006547318771481514,0.0005902387201786041,-0.0005497669335454702,-0.0016817983705550432
知道,-0.017324840649962425,0.012255078181624413,0.01120714657008648,0.015822410583496094,-0.011567549780011177,-0.014706600457429886,0.006528920028358698,0.0149624552577734,-0.0022680219262838364,-0.010105585679411888,-0.004409962333738804,-0.02834160625934601,-0.003291859058663249,0.0005331867141649127,-0.006519273854792118,-0.02256999909877777,0.002688944572582841,-0.002984076738357544,0.001538177253678441,-0.03793808072805405,0.006121518090367317,-0.006224902346730232,-0.006101782433688641,0.0012851750943809748,-0.002237017033621669,0.0048186457715928555,-0.012900982052087784,-0.01528349332511425,0.00028192452737130225,0.003023735946044326,0.003613509936258197,-0.008557274006307125,-0.002094712806865573,-0.00016690150368958712,-0.007414798252284527,0.014778850600123405,0.008266447111964226,-0.010545112192630768,-0.01499611884355545,-0.02140194922685623,0.0019410409731790423,-0.015185436233878136,-0.015684114769101143,-0.007742534391582012,-0.00597769021987915,0.00022789200011175126,-0.009711716324090958,0.01245304848998785,0.0032793390564620495,0.01325918734073639,-0.007834005169570446,-0.005871252156794071,-0.003762474050745368,0.012860911898314953,0.0032035931944847107,0.0034677856601774693,0.010673179291188717,-0.00687432149425149,-0.009197411127388477,0.006122720893472433,-0.0021957377903163433,0.002388116903603077,-0.005526737309992313,-0.0019305006135255098,-0.002648343099281192,-0.008093775250017643,0.00044502271339297295,-0.011618722230196,-0.012267641723155975,0.021327437832951546,-0.0016262817662209272,-0.009512322023510933,-0.001100639346987009,-0.0032908208668231964,0.010081801563501358,0.006729845888912678,0.012754278257489204,-0.0014722502091899514,-0.007818066515028477,-0.0018155653961002827,0.011375149711966515,0.00013568811118602753,-0.009331585839390755,0.010779451578855515,-0.009591076523065567,-0.005354075692594051,-0.0035063098184764385,0.006695304531604052,0.016502179205417633,0.005712773185223341,-0.003296141978353262,-0.0012317827204242349,-0.002317067701369524,0.019245456904172897,0.0122797517105937,0.006495348643511534,0.003910203464329243,-0.014567338861525059,-0.004209175705909729,-0.005038363393396139
跟着,-0.00020744929497595876,0.008158339187502861,0.002522731199860573,0.004396891221404076,-0.0017135664820671082,-0.002318571787327528,0.0016907595563679934,0.00705994525924325,0.00013087387196719646,0.0011652841931208968,-0.003693533595651388,-0.0077879177406430244,0.0014964500442147255,0.0019634775817394257,-0.0010769064538180828,-0.0035070430021733046,0.001147952862083912,0.0001869292464107275,-4.815362626686692e-05,-0.006323725916445255,0.000911203445866704,0.00013534771278500557,-0.000803845003247261,0.004772352986037731,0.000575371494051069,-0.0006078182486817241,0.00046923989430069923,-0.002583922818303108,0.0017011044546961784,5.839181540068239e-05,0.004738119430840015,0.0025513884611427784,-0.0004424253711476922,0.002234229352325201,-0.0068391961976885796,0.002919587306678295,0.0003560927580110729,-0.002600983949378133,-0.0048476336523890495,-0.005622877739369869,-0.003195804310962558,-0.0018495554104447365,0.001970901619642973,-0.009589528664946556,-0.0015975584974512458,0.0013242801651358604,-0.0012997058220207691,0.008774536661803722,-0.0001800471218302846,0.006221821531653404,-0.0008601901354268193,-0.0025820620357990265,-0.004377184901386499,0.0010474822483956814,0.004594769328832626,-0.0011655526468530297,0.0045103151351213455,0.0020967181771993637,-0.00686945766210556,0.0060977209359407425,0.0006711635505780578,0.006566841155290604,0.00041959481313824654,0.001840804936364293,-0.002597844460979104,-0.00046842306619510055,-0.004546856973320246,-0.0052653043530881405,-0.0016560377553105354,0.009960884228348732,-0.00409297738224268,-0.0028801579028367996,0.0004893343430012465,-0.0037650694139301777,0.006750996690243483,0.003374063642695546,0.001732606440782547,0.004348745569586754,0.0007937949849292636,0.00012887362390756607,0.003217987483367324,-0.00013352022506296635,-0.002870691940188408,-0.0008946837624534965,-0.0034538698382675648,-0.0014516250230371952,-0.00035602098796516657,0.0071097370237112045,0.0067506697960197926,-0.005162016488611698,-0.004740356933325529,0.0014711926924064755,-0.0010535689070820808,0.0019080473575741053,0.003385671880096197,0.004406295716762543,0.0006732861511409283,-0.0019488189136609435,-0.0024096674751490355,0.0008969180635176599
没有,-0.020680610090494156,0.02129407227039337,0.01689848303794861,0.024204961955547333,-0.011232297867536545,-0.007609741296619177,-0.002128934022039175,0.019434306770563126,-0.003887863364070654,-0.00792521983385086,-0.007589900866150856,-0.026951126754283905,-0.011856653727591038,0.009596715681254864,-0.0018522408790886402,-0.03257180377840996,-0.0007728386553935707,0.003510738257318735,0.008188001811504364,-0.04504355043172836,0.012132921256124973,-0.006072596646845341,-0.011993602849543095,-0.0024588098749518394,0.003291935659945011,0.004339267499744892,-0.01389832142740488,-0.009597756899893284,-0.009062717668712139,0.007564852014183998,0.0036042812280356884,-0.014767833054065704,-0.011456375010311604,-0.001265818951651454,-0.0069802990183234215,0.013497095555067062,0.010316701605916023,-0.013570592738687992,-0.01967228204011917,-0.027117466554045677,0.008022749796509743,-0.012798791751265526,-0.017060773447155952,-0.008544404059648514,-0.004334599711000919,0.0012833562213927507,-0.019795715808868408,0.02180176042020321,0.005468079354614019,0.014521465636789799,-0.00839924719184637,0.003256644355133176,-0.0042172386310994625,0.0099813062697649,0.004887205082923174,0.0003212906885892153,0.017151761800050735,-0.01284264400601387,-0.017943477258086205,0.012612249702215195,-0.00029037497006356716,0.003472195705398917,0.0001971987949218601,-0.0016134902834892273,-0.0022316386457532644,-0.010743701830506325,0.007634298410266638,-0.011722800321877003,-0.020867595449090004,0.026300199329853058,-0.006434431299567223,-0.008127985522150993,-0.004059559665620327,-0.008349456824362278,0.01061769388616085,0.011140435934066772,0.012338638305664062,0.0018741542007774115,-0.012188316322863102,-0.004809999372810125,0.003387507051229477,-0.0036724365781992674,-0.005871475208550692,0.010917745530605316,-0.0020916990470141172,-0.010972756892442703,-0.00046781834680587053,0.007931703701615334,0.021968668326735497,0.006719446741044521,-0.0036785085685551167,-0.0024090996012091637,5.0200498662889004e-05,0.011975092813372612,0.017156008630990982,0.01608157902956009,0.006178989075124264,-0.0088657820597291,-0.0015970803797245026,-0.005906467325985432
看着,0.0010679904371500015,0.005430861376225948,-0.0006727869622409344,-0.0003601222997531295,0.004014466889202595,-8.292120764963329e-05,0.0027938049752265215,0.007081875577569008,-0.004460854455828667,-0.0014947298914194107,-0.005652417428791523,-0.006130009423941374,-0.005569733679294586,0.0016408325172960758,0.0010661449050530791,-0.005833085160702467,-0.00010629073949530721,-0.0009723531547933817,-0.003209963208064437,-0.008190441876649857,0.004042757675051689,-0.00241829757578671,0.0017880199011415243,0.0021756747737526894,0.0012551198014989495,0.0009625078528188169,-0.0015253092860803008,-0.0023847923148423433,-0.0026477896608412266,0.0009371753549203277,-0.0018254282185807824,-0.0027768348809331656,-0.00255707954056561,-0.0037462017498910427,0.0006734693888574839,0.002307166811078787,0.006654269527643919,-0.0019409670494496822,-0.004605255089700222,-0.008048824965953827,0.0034921772312372923,-0.004234999418258667,-0.001855941372923553,-0.006925213150680065,0.002221663249656558,0.00013945437967777252,-0.005025428719818592,0.0038863099180161953,0.0025680596008896828,0.0019571143202483654,0.001794497948139906,-0.0020948995370417833,0.004912383854389191,0.002259432105347514,0.003298281691968441,0.0028101697098463774,0.00549422949552536,-0.0031679607927799225,-0.0029025410767644644,-0.00036177458241581917,0.00234705931507051,-0.0024972427636384964,-0.0004462905344553292,5.83156943321228e-05,0.003955820109695196,-0.0008112362120300531,-2.7140355086885393e-05,-0.003108799457550049,-0.00606537563726306,0.007510458119213581,-0.0032416742760688066,-9.156763553619385e-06,-0.0023114928044378757,-0.0036495723761618137,0.007356057874858379,0.0005591780645772815,0.00010449020192027092,0.0016969372518360615,0.00016395468264818192,-0.0018391257617622614,0.0021758333314210176,-0.0008122231811285019,-0.003495330922305584,0.00416274880990386,0.003331146202981472,-0.0033905277960002422,0.0016755459364503622,-0.0016944524832069874,0.006098844110965729,0.0007733950624242425,0.003781239502131939,-0.0011457178043201566,0.0002943513391073793,-0.0015620570629835129,0.004496224690228701,0.006967069581151009,0.0040331510826945305,-0.00089525047224015,0.0003267214051447809,-0.00457058846950531
姐妹,0.004169402178376913,-0.0026171691715717316,-0.0027104103937745094,-0.002039940096437931,0.0001763439504429698,-0.0015082410536706448,-0.0047242543660104275,9.977060835808516e-05,-0.003924403339624405,-0.002155669964849949,0.000491179758682847,0.003088872181251645,0.0034758858382701874,-0.00522018875926733,-0.004007844254374504,-0.004892188124358654,-0.0018353078048676252,-5.9923448134213686e-05,-0.005219253711402416,0.0015232667792588472,0.001514417352154851,-0.0005825900007039309,0.0008937824168242514,-5.507119931280613e-05,0.005021191202104092,0.004513596184551716,0.0038927802816033363,0.005380643531680107,-0.004562570713460445,0.001242611207999289,0.002295363461598754,-0.0019029828254133463,-0.0007451372221112251,-0.002274083439260721,0.00414161616936326,2.74142948910594e-05,0.0026047206483781338,-0.0050881532952189445,-0.0031810279469937086,0.004374980460852385,-0.0015769090969115496,0.0001942020608112216,-0.00034803536254912615,-0.007622948382049799,0.004174516536295414,0.0020894664339721203,-0.0031659759115427732,-0.004167499486356974,0.0009379687253385782,0.0004895871388725936,-0.0014630539808422327,0.0007297853007912636,0.0028549903072416782,0.0026497275102883577,-0.0026725514326244593,0.003381762420758605,0.0013663788558915257,-0.0006592724239453673,-0.0002817879430949688,0.0027786928694695234,-0.0010401709005236626,-0.0012483480386435986,-0.0014455665368586779,-0.0010917105246335268,-0.0012134150601923466,-0.00020609050989151,-0.0015136862639337778,0.0025412924587726593,-0.002913312055170536,0.001227410277351737,0.00289108045399189,0.0017079473473131657,-0.0010086968541145325,-0.002617582678794861,0.0016104651149362326,0.0030888663604855537,-0.002693074755370617,0.0031488616950809956,-0.0002522848662920296,-0.00307897524908185,0.0013084171805530787,0.002162735676392913,0.0017061205580830574,-0.0005371863953769207,-0.0005874696653336287,-0.0036020700354129076,0.005975363776087761,0.0037596800830215216,0.0033411795739084482,0.0011983541771769524,0.002886344911530614,-0.0014010271988809109,0.00014547922182828188,-0.0035116877406835556,0.005081836134195328,-0.0014821350341662765,-0.0002987833577208221,0.0010739827994257212,0.003679692978039384,-0.00014803826343268156
甜铁,0.002472412306815386,-0.004062280058860779,0.0004445086233317852,-0.0009186850511468947,0.0035596271045506,0.00121492228936404,0.004600812681019306,-0.0015709968283772469,-0.0005502365529537201,0.002888220362365246,-0.0026984666474163532,0.00043616280891001225,-0.0030062971636652946,-0.0035253402311354876,-0.005099054425954819,-0.0014247318031266332,0.0018417580286040902,0.0030881213024258614,0.0003741623368114233,0.0034235676284879446,-0.0005967647884972394,-0.00013405922800302505,-0.0030761826783418655,0.004184710327535868,0.0032883824314922094,0.004257773049175739,0.0002492489293217659,0.00094762904336676,-0.002244995441287756,-0.0016845145728439093,-0.0019943364895880222,0.0016214849893003702,-0.0024256673641502857,-0.00317488145083189,-0.0055996812880039215,0.00013784912880510092,0.0015993984416127205,0.002845127135515213,0.004751357715576887,0.0012581388000398874,0.0033539151772856712,0.0014164936728775501,0.0029761227779090405,-0.0005032886983826756,0.006672638468444347,-0.0008750115521252155,-0.003604078898206353,-0.001671306323260069,0.006294303573668003,0.003447153838351369,-0.001504966989159584,-0.005571877118200064,0.0037980282213538885,0.003092146711423993,-0.001905825105495751,-0.003424372524023056,-0.005124397575855255,-0.0026802276261150837,-0.004302647430449724,0.0024206959642469883,-0.002166156191378832,0.001975507475435734,-0.0031396951526403427,-0.0013779738219454885,0.0006491129752248526,-0.004557252861559391,0.001407754491083324,0.0024221993517130613,-1.330769737251103e-05,0.006479890551418066,-0.004274084698408842,-0.0007911338470876217,0.005072611849755049,-0.004611989017575979,-0.0037757367826998234,0.0020812407601624727,-0.0013405020581558347,-0.0061037191189825535,-0.00170396757312119,0.003372740466147661,0.0018967335345223546,0.0028157364577054977,0.0008667102083563805,-0.0026846202090382576,-0.0016964473761618137,0.0033357571810483932,-0.0004720673896372318,-0.002445861231535673,0.0006659813807345927,-0.003962553106248379,-0.0005596840055659413,-0.0006600746419280767,0.0026746257208287716,-0.0024291491135954857,0.004901908338069916,-0.003978529013693333,0.004900611937046051,-0.0014652623794972897,0.0031725959852337837,0.006118883844465017
找到,-0.0013822026085108519,0.003962796181440353,0.0074206991121172905,0.00456519378349185,-0.0012296508066356182,-0.00743825314566493,-0.00043882304453291,0.003296530805528164,-0.0018308635335415602,-0.0014787714462727308,-0.0011621414450928569,-0.0072990828193724155,-0.00882278848439455,0.003105737268924713,0.0008079591789282858,-0.00893476977944374,-0.0033033296931535006,-0.0005799679784104228,-0.00021847739117220044,-0.016921328380703926,0.0007521478109993041,0.004538471810519695,0.0017742989584803581,-0.0030312510207295418,0.0008459368254989386,0.003103055525571108,8.951989002525806e-05,-0.0035148807801306248,-0.0015305045526474714,0.0032465129625052214,0.00679256534203887,-0.004661776125431061,-0.001329490914940834,-0.0028857693541795015,-0.006040017586201429,0.007813522592186928,0.001426422968506813,-0.0007949070422910154,-0.009392882697284222,-0.00914444588124752,-0.0043853032402694225,0.0010497472248971462,-0.002634888282045722,-0.0038275662809610367,-0.0020744171924889088,-0.003083305200561881,-0.010194623842835426,0.0030207389499992132,0.0073007079772651196,0.007036074064671993,-0.003917962312698364,-0.0010353815741837025,-0.005376447457820177,0.005915460176765919,3.2538315281271935e-05,0.001968472497537732,0.008076484315097332,-0.0017138825496658683,-0.008405984379351139,0.003083129646256566,-0.0035353493876755238,0.0032992102205753326,0.0048881154507398605,-0.00028344779275357723,-0.0004150392487645149,-0.001616235706023872,0.0038687651976943016,-0.0029264376498758793,-0.007608984597027302,0.003521533450111747,-0.005552913062274456,-0.004720260389149189,-0.000769338512327522,0.0005878067458979785,-0.0009537307778373361,0.0006823189905844629,0.003923165611922741,-0.001726633752696216,-0.005510750692337751,0.0007756127743050456,0.003455761354416609,-0.0022028281819075346,-0.0010995314223691821,-0.00035685813054442406,0.002458677627146244,-0.004660982172936201,-0.0026970943436026573,0.003961488604545593,0.002009030431509018,-0.000534108723513782,-0.006257145665585995,0.002770894207060337,-0.003535815514624119,0.00621829554438591,0.0052998121827840805,0.003064107382670045,0.004064294043928385,-0.005249357782304287,-0.006285227835178375,-0.002172564622014761
喜欢,-0.015431278385221958,0.009302865713834763,0.012666599825024605,0.01715030148625374,-0.0002729700645431876,-0.010966217145323753,0.0003574283327907324,0.01194164901971817,-0.0007180636748671532,-0.009582160040736198,-0.009213823825120926,-0.024579070508480072,-0.005264715291559696,0.0025865649804472923,-0.0008005311829037964,-0.021918270736932755,0.001805430743843317,0.0006417048280127347,0.006686395965516567,-0.030638381838798523,0.006922358646988869,-0.0021722062956541777,-0.00764073058962822,-0.0033613075502216816,-0.001988586038351059,0.0043448456563055515,-0.009003431536257267,-0.009638615883886814,-0.0073957741260528564,7.497798651456833e-05,0.008071204647421837,-0.00783605594187975,-0.005180428735911846,0.00020680518355220556,-0.0026771819684654474,0.01355743408203125,0.0010983311804011464,-0.009051231667399406,-0.014066265895962715,-0.017372407019138336,0.009573616087436676,-0.011247259564697742,-0.014263101853430271,-0.010194816626608372,-0.00023966439766809344,0.0016951537691056728,-0.008737183175981045,0.01424597017467022,0.005698665976524353,0.012108968570828438,0.0016760522266849875,-0.0010673762299120426,0.0029045362025499344,0.00947561301290989,0.004663180094212294,-0.0008284803479909897,0.010344401001930237,-0.0037291047628968954,-0.010944336652755737,0.006424531806260347,0.0017415543552488089,0.00442734407261014,-0.003208448179066181,1.5958561562001705e-05,0.00021497515263035893,-0.006149650551378727,0.008665444329380989,-0.004022008273750544,-0.010733587667346,0.01701078936457634,-0.004204663913697004,-0.007023244630545378,-0.005530540365725756,-0.0037764357402920723,0.011466950178146362,0.008908577263355255,0.007913140580058098,0.0010377010330557823,-0.010900539346039295,0.004342334810644388,0.004185874480754137,-0.002191041363403201,-8.613977115601301e-05,0.002665693638846278,0.0017062113620340824,-0.0019326107576489449,-0.000352007569745183,0.004743048455566168,0.018768100067973137,0.004088300280272961,-0.002390295034274459,0.001250710804015398,0.0015301392413675785,0.013464922085404396,0.015235341154038906,0.011463817209005356,0.004083661828190088,-0.014589954167604446,-0.009399235248565674,-0.0014284249627962708
战斗,-0.000750621547922492,0.005989842116832733,-0.0009813177166506648,0.0029818459879606962,-0.0011081640841439366,0.0006617028266191483,0.0006463284371420741,0.001242029364220798,0.0054829963482916355,-0.0005824090912938118,0.0015139395836740732,-0.000468504149466753,-0.0013257003156468272,-0.00045385060366243124,0.0012646570103242993,-0.0041567012667655945,-0.0034709349274635315,-0.003182071726769209,-0.0013716863468289375,-0.006505211349576712,-0.0005158777348697186,0.0003379525151103735,-0.00042882992420345545,0.0027692150324583054,-0.0008291876874864101,-0.005067055579274893,-0.00432259775698185,0.003925357945263386,-0.003270174376666546,-0.0014176062541082501,-0.0033557373099029064,-0.0011981885181739926,-0.0015195017913356423,0.000525027047842741,-0.007944725453853607,0.001427929848432541,0.0018871317151933908,1.9653743947856128e-05,-0.000987777253612876,-0.0056203934364020824,-0.00032556039514020085,-0.0016417643055319786,-0.0022988689597696066,0.0030840930994600058,-0.004859867971390486,-0.003080334048718214,0.001681148656643927,0.0028991210274398327,0.0011056328658014536,-0.00011681619798764586,0.0013936946634203196,9.143975330516696e-05,-0.0012008815538138151,-0.001222155406139791,0.0005840536905452609,0.005803629290312529,0.002918156562373042,-0.0016561069060117006,-0.0027016163803637028,0.004502285737544298,-0.0057307276874780655,-1.3662400306202471e-05,-0.00443352572619915,-0.0022264120634645224,-0.001819757279008627,-0.001295494381338358,0.004345354158431292,0.001425555208697915,-0.0018849789630621672,0.0016998803475871682,-0.0017951291520148516,0.0005255020223557949,0.004639412276446819,0.001242651604115963,0.0007044849917292595,-0.0034594007302075624,0.001440419931896031,0.0037173631135374308,-0.006811380852013826,0.004362297710031271,-0.003125032177194953,0.003951369319111109,-0.0031566021498292685,-0.0034032913390547037,-0.0008972012437880039,0.0017401316436007619,5.20702451467514e-06,-0.00014939984248485416,0.003690337296575308,0.003999904729425907,-0.0038151987828314304,0.002183171920478344,0.0075933486223220825,-0.00031826828490011394,-0.0002310398267582059,0.0028199676889926195,-0.0018649513367563486,-0.005414182785898447,-0.00014620053116232157,0.0006109464447945356
思考,-0.006278032902628183,-8.504651486873627e-05,0.005876586772501469,0.0009316810173913836,-0.0010153327602893114,0.0011867980938404799,0.0027773675974458456,0.002028949558734894,-0.0014387124683707952,0.0007413852727040648,-0.0018465250032022595,-0.013696911744773388,-0.00463863043114543,-0.0004991921596229076,-0.0044786361977458,-0.006411274895071983,0.00495244562625885,-0.005035977344959974,-8.96514393389225e-07,-0.006032752338796854,0.0003852226072922349,-0.003316352842375636,0.0011813906021416187,-0.00161873793695122,0.001884329249151051,0.0018082507885992527,-0.00875089317560196,-0.0013549611903727055,0.0006651112344115973,0.004119723103940487,0.0023509974125772715,-0.007324132137000561,-0.0014001419767737389,0.006617615930736065,-0.0018539425218477845,0.006542455404996872,0.005188937298953533,0.0016866045771166682,0.0007524229004047811,-0.008776822127401829,0.0006695311167277396,0.00242295628413558,-0.003212912706658244,-0.0040839072316884995,0.004418106749653816,-0.000312958552967757,-0.00641696248203516,-1.2436241377145052e-05,0.004815370310097933,0.0037336796522140503,-0.003906659781932831,-0.0012746753636747599,0.002088739536702633,-0.00162336858920753,0.0005761120119132102,0.002486570505425334,-0.00040455267298966646,-0.004194383509457111,-0.006610087584704161,0.0018948117503896356,-0.0017089634202420712,0.000998078379780054,0.001972525380551815,0.0031170318834483624,-0.0013270584167912602,-0.004355264827609062,0.0012200690107420087,0.0031081046909093857,-0.001484462758526206,0.01067282259464264,-0.006663544103503227,-0.0022695078514516354,0.0051662251353263855,0.001470112125389278,0.004943585954606533,0.00019826588686555624,0.004007832147181034,0.004075365606695414,-0.0017888789298012853,0.0034842723980545998,-0.002376892603933811,-0.005940393544733524,-0.0037174681201577187,0.0009662764496169984,-0.004956419579684734,-0.00288053578697145,-0.002873807679861784,-0.000733792781829834,0.001701329369097948,0.0014288417296484113,-9.106122888624668e-05,-0.002533786231651902,-0.0021068104542791843,0.004404593724757433,0.005901926197111607,0.0040734256617724895,-0.0008583037415519357,-0.007787944748997688,-0.002086570020765066,-0.002875046106055379
新,-0.00819536205381155,0.013855703175067902,0.0043968986719846725,0.025493182241916656,-0.004945655819028616,-0.00873816292732954,0.007123591378331184,0.007455344311892986,-0.002871296601369977,-0.0006468337378464639,-0.00459032179787755,-0.019323891028761864,-0.002058841520920396,0.010275237262248993,-0.007265289779752493,-0.019750826060771942,0.0021876541431993246,0.002512857550755143,0.009634952992200851,-0.02910080924630165,0.01315340120345354,-0.005182383116334677,-0.003376578912138939,0.008606739342212677,-0.0016191457398235798,0.0008873111801221967,-0.0093874242156744,-0.012813626788556576,-0.0006422892911359668,-0.00013663689605891705,0.009075401350855827,-0.0049031502567231655,0.0008337225299328566,-0.001834341324865818,-0.008624519221484661,0.011112119071185589,0.007681682240217924,-0.008877098560333252,-0.02205614373087883,-0.023053307086229324,-0.0031624198891222477,-0.009820002131164074,-0.008171929977834225,-0.017895180732011795,-0.0012449715286493301,0.007591095753014088,-0.012485996820032597,0.00884681474417448,0.0053058769553899765,0.012999555096030235,-0.007666069082915783,0.003935941029340029,-0.0038212169893085957,0.008397952653467655,0.005722313188016415,-0.003371189348399639,0.011652471497654915,-0.0037215547636151314,-0.01479833759367466,0.0115580465644598,-0.0033203759230673313,-0.0012508294312283397,0.0022317497059702873,0.003805682994425297,-0.007462451234459877,-0.006455800961703062,-0.0016563748940825462,-0.013262282125651836,-0.004030205309391022,0.019961601123213768,0.002506218384951353,-0.012688973918557167,-0.001135893166065216,-0.003530170302838087,0.006727236323058605,0.0008714022114872932,0.0025404049083590508,0.005110139958560467,-0.013138921931385994,0.0023412653245031834,0.0018134377896785736,8.947215974330902e-05,-0.007559407968074083,0.011590996757149696,-0.003508560126647353,-0.0021603249479085207,0.0007954300381243229,0.007133336737751961,0.009337970055639744,0.0044843461364507675,-0.006105878856033087,0.0061816321685910225,-0.006943999789655209,0.01143279206007719,0.01254318282008171,0.0015887313056737185,-0.0014559177216142416,-0.009655558504164219,-0.006850523874163628,-0.004029461182653904
挥手,-0.0021875740494579077,0.004459242336452007,0.001970876008272171,0.00020358897745609283,0.0023934002965688705,0.0012104539200663567,0.0014335965970531106,0.0034330985508859158,-0.004206623882055283,-0.0006706885760650039,0.001886220765300095,0.0015827850438654423,-0.0006862406153231859,0.0018318442162126303,0.00045780857908539474,-0.0018077015411108732,0.0049241152592003345,0.0019333846867084503,-0.001070021535269916,-0.002132243011146784,-5.440408131107688e-05,-0.0026737204752862453,-0.002236494794487953,-0.0013566177804023027,-0.0025873836129903793,-0.0007065730169415474,0.0027244326192885637,-0.0025802438613027334,0.00197028205730021,-0.0026691616512835026,-0.004292577039450407,4.383292980492115e-05,0.0019666035659611225,0.004842122085392475,-0.0009710343438200653,-0.0023650494404137135,0.0014595652464777231,-0.002252616686746478,-0.0024417571257799864,0.00016220606630668044,0.0011587832123041153,-0.002109913621097803,-0.004524688236415386,-0.0010672563221305609,0.0003744875139091164,-0.0020222447346895933,0.003672454273328185,-0.0028924220241606236,0.003759350860491395,0.0002773992018774152,-0.0006761864060536027,0.0017014220356941223,-0.0014677310828119516,-0.0042744772508740425,-0.0023871008306741714,0.0014425738481804729,-0.001404440961778164,-0.002638591919094324,-0.0006375815719366074,-0.0014353798469528556,0.000353881623595953,0.0030436385422945023,-0.0006639044731855392,-0.0041242605075240135,0.0018933936953544617,0.0033521316945552826,-0.001521353260613978,-0.002506677992641926,-0.0008549654157832265,-0.006425474304705858,0.0016319432761520147,-0.0014502434059977531,-0.0050956555642187595,0.002876626793295145,0.0037865363992750645,-0.0006321221590042114,0.002278800355270505,-0.0015350037720054388,-0.004667478613555431,-0.000292591517791152,-0.0013590522576123476,0.001732278848066926,-0.002347253728657961,0.0013537934282794595,0.004341708496212959,0.001455410267226398,-0.00016676017548888922,-0.0016658430686220527,-0.0009896457195281982,0.0017936774529516697,-0.00038372469134628773,0.001251495094038546,0.0022695823572576046,-0.00017410481814295053,-0.005058265291154385,0.0004716083640232682,0.0013746519107371569,0.002468106336891651,0.0015869324561208487,-0.0029670922085642815
使用,-0.019685443490743637,0.01191527396440506,0.0064393519423902035,0.011127633042633533,-0.006108137313276529,-0.0075212512165308,0.003277277573943138,0.011484128423035145,-0.0019874493591487408,-0.007567710243165493,-0.0019535846076905727,-0.021361008286476135,-0.0012211750727146864,0.006119720637798309,0.0014902122784405947,-0.01974242553114891,-0.004777298308908939,0.0007901953649707139,0.004281818866729736,-0.024053798988461494,0.006725376006215811,0.0016726537141948938,-0.009404925629496574,-0.00710253743454814,0.008098062127828598,0.0003315969370305538,-0.0046027228236198425,-0.004601677414029837,-0.006635033059865236,-0.0037165044341236353,0.0027122830506414175,-0.006708559114485979,-0.005299870390444994,0.0017393799498677254,-0.005487456917762756,0.006861919071525335,0.00403954042121768,-0.004247455392032862,-0.009679439477622509,-0.016246501356363297,-0.00016230822075158358,-0.007004040293395519,-0.008329409174621105,-0.015114685520529747,-0.007048649713397026,-0.0021928511559963226,-0.0028831041418015957,0.00935362372547388,0.007530315313488245,0.013044006191194057,-0.004301820881664753,0.0031717121601104736,-0.0004948840942233801,0.009946949779987335,-0.0006013072561472654,6.36059558019042e-05,0.015899475663900375,-0.0038282100576907396,-0.014521054923534393,0.005576958879828453,0.0030358335934579372,0.003393472172319889,-0.00046152190770953894,0.0027263909578323364,-0.0044581531547009945,-0.009141730144619942,0.002806268632411957,-0.00825538206845522,-0.009905435144901276,0.018045077100396156,-0.0003378776600584388,-0.003662120085209608,-0.0002336413599550724,-0.003565921215340495,0.007775663863867521,0.004124874249100685,0.00565381208434701,0.002917305566370487,-0.003796425648033619,-0.003213857999071479,0.0026421211659908295,0.0009539650054648519,-0.002970087109133601,0.006488688290119171,-0.006279191933572292,-0.00048476620577275753,-0.0026095195207744837,0.006878762040287256,0.005873007234185934,0.0019108265405520797,0.0032839151099324226,0.0014809248968958855,0.0019896419253200293,0.008764046244323254,0.008532023057341576,0.00980758760124445,-0.001497228047810495,-0.008166290819644928,-0.004950192291289568,-0.002066750079393387
挤压,0.00220199441537261,-0.0057095978409051895,-0.0008629206568002701,-0.003818569704890251,-0.007177333347499371,-0.00015830423217266798,0.0024157327134162188,0.0025555137544870377,0.00021873833611607552,0.0022455453872680664,-0.00011052051559090614,0.00022633152548223734,-0.003919108770787716,-0.0021793749183416367,-0.003915274515748024,-0.001670708297751844,0.0006493623368442059,-0.0008191622328013182,-0.0045292433351278305,-0.004836390260607004,-9.061835589818656e-05,0.004562664777040482,-7.151343743316829e-05,9.69675020314753e-05,0.003913307562470436,0.002616206416860223,0.0019419274758547544,0.0035657247062772512,-0.00022957823239266872,0.0019473903812468052,-0.00031671469332650304,-0.0030423710122704506,-0.0012743795523419976,0.000907945679500699,-0.0041224295273423195,-0.004271458834409714,-0.0006686086999252439,-0.0009795380756258965,0.00019972631707787514,-0.005678768269717693,-0.0004879487678408623,0.0018653805600479245,-0.003078495617955923,0.0008603254100307822,-0.001971694640815258,0.004736803937703371,0.0020938951056450605,-0.00016770290676504374,-0.00011651392560452223,-0.006773973815143108,0.00496585201472044,0.002394260372966528,-4.434608854353428e-06,0.0030583676416426897,-0.0028960618656128645,0.0013901921920478344,-0.0009670316940173507,-0.0003969770623371005,0.0008964509470388293,-0.005855968222022057,6.272026803344488e-05,-0.0001581772230565548,-0.006781495176255703,-0.00010782328899949789,0.0022012279368937016,0.0014934027567505836,-0.0012972899712622166,-0.0004768656799569726,0.005200099665671587,0.0024548135697841644,-0.004069656599313021,-0.00296935997903347,-0.001263913232833147,-0.0001867623650468886,-0.003270471002906561,-0.0012582921190187335,-0.0014960061525925994,0.0007242559222504497,0.004500191658735275,0.0019977930933237076,-0.0006819517584517598,-0.002821585163474083,-0.004381541162729263,0.002991671208292246,-0.0007474134908989072,-0.0013688611797988415,-0.004499814473092556,0.0005364978569559753,0.004419666714966297,-0.0018336707726120949,0.0029328959062695503,0.0032255297992378473,0.0004890298005193472,-0.005994642619043589,6.386724999174476e-05,0.0019258065149188042,0.0015680062351748347,0.0008582693408243358,-0.0016378163127228618,0.00013779662549495697
是,-0.028507748618721962,0.016082074493169785,0.02188597247004509,0.029113881289958954,-0.01288406178355217,-0.01866353303194046,0.01101551204919815,0.02573571540415287,-0.005697335582226515,-0.012504218146204948,-0.004785018507391214,-0.03829636424779892,-0.01322566345334053,0.013428845442831516,-0.004825424402952194,-0.035036735236644745,-0.001867462182417512,5.317525938153267e-05,0.00014587142504751682,-0.05674142763018608,0.013346102088689804,0.004288968630135059,-0.005701093003153801,-0.0014979823026806116,0.0074141379445791245,0.0034061677288264036,-0.022030245512723923,-0.009726010262966156,-0.008323575370013714,0.0025755406823009253,0.005308050662279129,-0.013908496126532555,-0.0032081641256809235,-0.004200018476694822,-0.007247671484947205,0.022822367027401924,0.016678882762789726,-0.017398081719875336,-0.02789321541786194,-0.03797169774770737,0.0048841689713299274,-0.018188338726758957,-0.02267204411327839,-0.015591460280120373,-0.006486666388809681,0.0007971571176312864,-0.024657614529132843,0.03037695214152336,0.0071070147678256035,0.019875137135386467,-0.00942781288176775,0.007756862789392471,-0.005389850120991468,0.015141690149903297,0.008459231816232204,0.0051179565489292145,0.013943076133728027,-0.016387373208999634,-0.024880804121494293,0.016047444194555283,-0.004068614915013313,0.005335896275937557,-0.008395525626838207,-0.00014031678438186646,-0.0018963796319440007,-0.0067243147641420364,0.009484319016337395,-0.013953050598502159,-0.02258329652249813,0.02688710205256939,-0.0033724852837622166,-0.002341837389394641,-0.002318216022104025,-0.014904126524925232,0.01776006445288658,0.01289876364171505,0.016849106177687645,-0.0027405698783695698,-0.009583926759660244,-0.010687336325645447,0.004146016202867031,-0.0024999643210321665,-0.005088183097541332,0.012154820375144482,-0.007909911684691906,-0.004479542840272188,0.003658285364508629,0.007816796191036701,0.015652092173695564,0.013117446564137936,-0.007745000533759594,-0.003965343814343214,0.0019322591833770275,0.019083628430962563,0.024148236960172653,0.013178294524550438,0.0003885056357830763,-0.01922321319580078,-0.010443508625030518,-0.0009572323760949075
不,-0.01867864467203617,0.021489877253770828,0.021079126745462418,0.01953146979212761,-0.008075657300651073,-0.013355955481529236,0.010288015007972717,0.023002220317721367,-0.0012476335978135467,-0.012771125882863998,-0.0007935247849673033,-0.025817032903432846,-0.003331074258312583,7.890199776738882e-05,0.0036111213266849518,-0.026737499982118607,0.003043358214199543,0.0013707298785448074,0.004110072739422321,-0.03254219889640808,0.013854511082172394,-0.0015628887340426445,-0.005191221833229065,0.008719082921743393,0.0006016618572175503,0.010700982995331287,-0.006755664944648743,-0.004753725603222847,-0.00900461245328188,0.00024031440261751413,0.0017717578448355198,-0.015864569693803787,-0.013947239145636559,0.0016864895587787032,-0.0037987586110830307,0.025496941059827805,0.013784907758235931,-0.018644891679286957,-0.02066618576645851,-0.023268885910511017,0.005417168140411377,-0.008101094514131546,-0.006984062027186155,-0.008460800163447857,0.0028945135418325663,0.0029593573417514563,-0.01881854049861431,0.017565930262207985,0.007413904648274183,0.011069415137171745,-0.008963996544480324,0.001232371898368001,0.0002695559523999691,0.007727005518972874,0.001562293153256178,0.002590902615338564,0.018015485256910324,-0.002723739482462406,-0.01586531661450863,0.00459744967520237,-0.003712850157171488,0.0028739755507558584,0.003601819509640336,-0.0030717693734914064,-0.001184960943646729,-0.00970414187759161,0.008392613381147385,-0.009553724899888039,-0.020385699346661568,0.02329828403890133,0.001645202748477459,-0.010416574776172638,0.0008499895920976996,0.003725942689925432,0.006018219515681267,0.0033973741810768843,0.004838902503252029,0.002998577430844307,-0.013239693827927113,0.0016600729431957006,0.005350479856133461,0.001512057613581419,-0.002255087485536933,0.005068767350167036,-0.008619917556643486,-0.00963971670717001,0.00850856862962246,0.012529795989394188,0.015995066612958908,8.584000170230865e-06,-0.002786697819828987,0.0016395717393606901,0.0029703988693654537,0.014794164337217808,0.016604606062173843,0.003879401832818985,0.0022187535651028156,-0.014791993424296379,-0.012210014276206493,-0.011018088087439537
龙骨,-0.001046626246534288,0.000761442119255662,-0.0036160522140562534,-0.002531992271542549,0.002107983222231269,-0.0008629920776002109,-0.0025794662069529295,-0.0035153785720467567,0.0014990100171416998,0.0006979118916206062,0.006042618304491043,-0.004967889282852411,0.0023681591264903545,3.9340462535619736e-05,0.0006229624850675464,-0.0003490230592433363,-0.0008819253416731954,0.002813402796164155,-0.005068856291472912,0.0063889590092003345,0.0007278531556949019,0.0016520483186468482,0.0027358410879969597,0.003112012054771185,0.0036242224741727114,-0.00016321480507031083,0.0022049343679100275,0.0006659118225798011,0.001990372082218528,0.0009025653125718236,-0.007260808255523443,-0.004685490392148495,0.0006372183561325073,0.003228242974728346,-0.003564446233212948,0.0025622646789997816,0.00016253720968961716,-0.002694816794246435,0.0036906322930008173,-0.000965169514529407,-0.0008445715066045523,-0.0035966713912785053,-0.003787536174058914,0.00429574865847826,-1.572398468852043e-05,-0.003099678549915552,-0.0010556159541010857,0.002288131508976221,-0.0007058519404381514,-0.0014806886902078986,0.00037040861207060516,-0.0006622046930715442,0.006625622510910034,0.0021785313729196787,-0.0002555655955802649,-0.002057375619187951,0.0016737396363168955,-0.004282935988157988,-0.0009527185466140509,-0.00041025434620678425,0.002910229843109846,-0.0007029948756098747,0.0014314923901110888,-0.0011926614679396152,-0.00021388634922914207,-0.002670096233487129,-0.0013693154323846102,2.6407185941934586e-05,0.0009308935841545463,0.0021389583125710487,0.0002229709643870592,-0.004227918107062578,0.0026442501693964005,-0.0021719862706959248,0.002540451940149069,0.0015346433501690626,0.003884613746777177,-0.00514059467241168,0.0011855734046548605,0.00253924704156816,0.001765066059306264,0.0021009654738008976,-0.004116496071219444,0.004594268277287483,0.0007065189420245588,0.0010622309055179358,0.0006723726401105523,0.00396999716758728,0.0042576114647090435,-0.0010184652637690306,0.001328122103586793,-0.0038376478478312492,-0.0021476263646036386,-0.003335405606776476,0.001664194162003696,-0.0012426115572452545,-0.002084217267110944,0.00167550565674901,-0.004270277917385101,0.002765629906207323
