word,0,1,2,3,4,5,6,7,8,9,10,11,12,13,14,15,16,17,18,19,20,21,22,23,24,25,26,27,28,29,30,31,32,33,34,35,36,37,38,39,40,41,42,43,44,45,46,47,48,49,50,51,52,53,54,55,56,57,58,59
议员,-0.005499351769685745,-0.0017268424853682518,-0.00694310525432229,0.004436138551682234,-0.002622119849547744,-0.0037896395660936832,0.0036636237055063248,-0.002823087852448225,0.005476569291204214,-0.0052351881749928,0.0056532640010118484,0.007493419572710991,0.011402091942727566,-0.004116441123187542,-0.003604409983381629,0.00763844745233655,0.004193037748336792,0.0005743722431361675,0.003918043803423643,0.003171375719830394,-0.0005277580348774791,0.004419885575771332,0.0060515799559652805,-0.0021751984022557735,0.002269783988595009,-0.008134311065077782,-0.004684184677898884,0.008423177525401115,-0.0038292547687888145,-0.006099577993154526,0.0014108375180512667,0.003284140955656767,-0.0014148179907351732,-0.004194295033812523,-0.0005474025383591652,-0.005319880321621895,0.00592041015625,-0.001868411316536367,0.003724463516846299,-0.007441867608577013,-0.0016981891822069883,0.0034874742850661278,0.0007285639876499772,0.007442123256623745,-0.0016248964238911867,0.005244237370789051,0.002384017687290907,0.0029826369136571884,0.0010116926860064268,-0.0032861847430467606,0.008174978196620941,0.001671643927693367,0.0013120830990374088,0.0028559258207678795,0.0013020287733525038,0.002679562894627452,0.004414775874465704,0.004752694629132748,0.009068753570318222,0.006059226579964161
旧,0.010353350080549717,-0.0023724818602204323,0.0032358518801629543,0.004139815457165241,-0.011911184526979923,-5.604868056252599e-05,-0.009030349552631378,0.004631747025996447,-0.01146822702139616,-0.0010634972713887691,0.0045958030968904495,0.0014505235012620687,-0.005327649414539337,0.0037302926648408175,0.008225499652326107,0.004525620490312576,-0.0005823220126330853,0.002734784735366702,0.0010522408410906792,-0.006547647528350353,-0.0009705014526844025,-0.005213765427470207,-0.0028337095864117146,0.0037534052971750498,9.724043775349855e-05,0.012429971247911453,0.00275621609762311,0.0028581530787050724,0.0029998812824487686,-0.0008992189541459084,0.008318357169628143,-0.0033980989828705788,-0.0018713423050940037,0.0083640580996871,0.014271900989115238,-0.0027788099832832813,-0.012592818588018417,0.001704046269878745,0.00899127870798111,0.0056550512090325356,0.010236317291855812,0.0015511452220380306,-0.0009323609992861748,-0.0030346461571753025,-0.009010689333081245,-0.0008995668031275272,-0.0016853134147822857,0.006274803075939417,-0.00260063330642879,0.002448195591568947,-0.000696255243383348,-0.007763584144413471,0.011615912429988384,-0.013795624487102032,0.004943876061588526,0.0009606136009097099,0.009228728711605072,0.009259017184376717,0.00489966943860054,-0.009840895421802998
可能,-0.001340906834229827,0.011440073139965534,0.02154291421175003,0.004757189657539129,-0.017706947401165962,-0.01138265896588564,0.005161758046597242,0.00830934289842844,-0.012270435690879822,-0.017103206366300583,-0.004749525338411331,-0.0015540483873337507,0.04024569317698479,-0.009684416465461254,-0.004286771174520254,-0.007502298336476088,0.012943769805133343,-0.0007435621228069067,-0.001559476600959897,-0.01674945093691349,0.008691051974892616,-0.014626028947532177,-0.0009609468979761004,0.01870477758347988,0.023928355425596237,-0.007401736918836832,0.009169192053377628,0.010826988145709038,0.013717081397771835,-0.008197672665119171,0.01763208769261837,-0.007769270800054073,-0.004167176783084869,-0.0040463777258992195,-0.003126951167359948,-0.005387750454246998,0.00453890161588788,-0.024046780541539192,-0.025843719020485878,0.012307969853281975,0.0032254387624561787,0.010622579604387283,-0.002786466386169195,0.0013731940416619182,-0.02889428287744522,-0.013723574578762054,-0.0011477156076580286,0.0010549218859523535,-0.0041483622044324875,0.021551169455051422,0.021703392267227173,0.006465897895395756,-0.0016909923870116472,0.011276345700025558,0.010559638030827045,-0.0025984630919992924,-0.002199962269514799,-0.021409576758742332,0.008306672796607018,-0.020831402391195297
离开,0.0014684528578072786,0.008926410228013992,0.02186483144760132,-0.007099691778421402,-9.694707114249468e-05,-0.006176012102514505,0.008902406319975853,0.011942794546484947,-0.014115933328866959,0.0015571560943499207,-0.012595020234584808,0.001705317641608417,0.021683882921934128,-0.0028571276925504208,0.004820642992854118,0.0029426906257867813,-9.709817823022604e-05,0.0014008316211402416,-0.006973445415496826,0.0006406198954209685,0.006582063157111406,-0.00903657078742981,-0.0017341009806841612,0.010464563965797424,0.011756489053368568,-0.007986962795257568,-0.0015225369716063142,0.001503771636635065,0.007606871426105499,0.003611738095059991,0.003840000368654728,-0.007594405673444271,0.0021048986818641424,-0.007810133509337902,0.008606364950537682,0.0026956251822412014,-0.0007725204341113567,-0.006477109622210264,-0.015897054225206375,0.009350281208753586,0.00410233810544014,0.008257498033344746,-0.006061241030693054,-0.009363872930407524,-0.012568430043756962,-0.004864119924604893,-0.004548184107989073,-0.005599470343440771,0.003962781745940447,0.01063500065356493,0.0199064239859581,-0.005232177674770355,-0.0014929254539310932,0.00030861562117934227,0.010531408712267876,0.011075105518102646,-0.012774467468261719,-0.016164451837539673,0.004297550767660141,-0.011323381215333939
值得,-0.0017384991515427828,0.0024238175246864557,0.00768945412710309,0.003529970534145832,0.009919503703713417,-0.0077254194766283035,-0.0022976191248744726,0.0003800346748903394,-0.007166584953665733,-0.0010195283684879541,0.002179738599807024,-0.0029922747053205967,-0.0021972768008708954,0.006168941035866737,-0.006571201141923666,-0.00041755707934498787,-0.007430004887282848,0.0008014331106096506,0.00261911703273654,-0.00043981755152344704,-0.00933409109711647,0.00024078832939267159,-0.0023226335179060698,-0.00020627840422093868,0.006611507851630449,-0.006884829606860876,-0.002426517428830266,-0.0034312251955270767,-7.35684297978878e-05,-8.70581716299057e-05,0.005515688098967075,-0.002857556566596031,-0.0068167392164468765,9.828759357333183e-05,0.005298832897096872,0.0016724710585549474,-0.006685853004455566,-0.011956289410591125,-0.0006603530491702259,0.004845330026000738,-0.004671349190175533,0.0025798629503697157,-0.004834742750972509,0.0053260535933077335,-0.003322439268231392,0.004087772220373154,0.005413471255451441,0.00016604620032012463,-0.005410144571214914,0.0007360333111137152,0.006469213403761387,-0.002529307035729289,0.007643869612365961,-0.002600997220724821,0.015164457261562347,-0.009005054831504822,-0.0054373834282159805,-0.008135618641972542,0.0028342045843601227,-0.007410853635519743
锁定,-0.003537906100973487,-0.0023810970596969128,-0.0042862668633461,-0.001363221905194223,0.004896437283605337,-0.002448897808790207,-0.0010480426717549562,-0.004977036267518997,-0.00590708339586854,-0.0005620004958473146,0.008244508877396584,-0.0019929413683712482,0.004493337124586105,-0.0053011588752269745,0.0007978472858667374,-0.001574938534758985,0.0021342001855373383,0.003323639277368784,0.001958634238690138,-0.0019046897068619728,0.002281660446897149,0.002656076569110155,0.006951015442609787,-0.00905309896916151,0.0007403322961181402,-0.002715753624215722,0.0022845626808702946,-0.0023121170233935118,0.002892326097935438,-0.0033279876224696636,0.003094238229095936,0.006602101493626833,-0.0025655622594058514,0.0033706643152981997,0.00023981829872354865,0.004639982245862484,-0.0089027164503932,-0.009361786767840385,-0.0026353599969297647,0.002256884006783366,0.0004187298472970724,0.0017934587085619569,0.002730909502133727,-0.003607731079682708,0.00742235966026783,-0.002806415082886815,-0.002544430550187826,0.004401891492307186,0.0038357898592948914,0.010679520666599274,0.0029180049896240234,0.0015100558521226048,-0.0020471729803830385,-0.0051747532561421394,-0.007004186976701021,0.0030557289719581604,0.0012185878586024046,0.009553568437695503,-0.00824483297765255,0.0038355833385139704
抱歉,-0.002316584810614586,0.004930316470563412,0.008434566669166088,0.0017203767783939838,-0.010208118706941605,-0.007681151386350393,0.006217068526893854,0.008806800469756126,0.004939527250826359,-0.011758944019675255,0.005310309585183859,0.0021807574667036533,0.014223448932170868,-0.00347918551415205,-0.007325595244765282,-0.009159164503216743,0.0013426485238596797,0.0007401852053590119,0.0049614496529102325,-0.011263558641076088,0.008264790289103985,0.0002877464285120368,-0.0006984586943872273,0.00019027548842132092,0.009309175424277782,-0.0070690978318452835,-0.0004801846807822585,0.004644175060093403,0.00903044268488884,0.008798830211162567,-0.0009113297564908862,-0.014681847766041756,-0.002517261076718569,0.0005399101064540446,0.005863171070814133,-0.005338424351066351,0.00044365040957927704,-0.003057851456105709,0.0011984091252088547,0.0020769103430211544,0.00019385549239814281,0.0056034112349152565,-0.002149092499166727,-0.002017027698457241,0.0017361609498038888,0.0029775474686175585,0.0003696992062032223,-0.007668051403015852,-0.001849031075835228,0.0071961721405386925,0.010653643868863583,-0.0029619731940329075,-7.664831355214119e-05,0.007168281823396683,0.014201008714735508,-0.004091124981641769,-0.004166311118751764,-0.008064337074756622,-0.0057237115688622,-0.014860336668789387
全国,0.005429443903267384,0.0039924015291035175,-0.0028460270259529352,0.00031131599098443985,3.805436426773667e-05,-0.0027831257320940495,-0.002654816024005413,0.001065683551132679,-0.005351033061742783,-0.0007572290487587452,-0.0027753557078540325,-0.0007135688792914152,0.0049205319955945015,-0.0029576208908110857,-0.008523376658558846,0.0038784663192927837,0.008229321800172329,0.0006782335694879293,-0.0007737698033452034,-0.0064008841291069984,0.005540119018405676,-0.001658097142353654,-0.0023558870889246464,0.0033204976934939623,-0.004968650173395872,-0.004858411382883787,0.004958959296345711,0.005149628035724163,0.012605554424226284,-0.0060467952862381935,0.001975117949768901,-0.000512442784383893,-0.00042113661766052246,-0.0008636051788926125,-0.0016900787595659494,0.006423582322895527,-0.0016833767294883728,-0.0048227375373244286,-0.006473790854215622,0.0030103158205747604,-0.003011138178408146,-0.004078088328242302,-0.007557208649814129,-0.006030568387359381,0.00027834472712129354,-0.002726546488702297,0.004396776668727398,-0.0012032226659357548,-0.00017251598183065653,0.006473434157669544,0.00770443445071578,0.003111734054982662,0.005351075436919928,0.003713238285854459,0.006859978660941124,0.006526553072035313,0.0026120515540242195,-0.00825292058289051,0.006858727429062128,-0.005774557590484619
掉下来,-0.0016130786389112473,0.0011504472931846976,-0.0002851106983143836,-0.0011294109281152487,-0.002703318139538169,0.005524779669940472,0.0011646986240521073,0.0037984394002705812,0.0024602841585874557,0.00592088745906949,0.0027699244674295187,-0.006774128880351782,-1.4230010492610745e-05,-0.0012882404262199998,4.15389149566181e-05,0.0016016231384128332,-0.004040239844471216,0.002734788227826357,-0.0016821350436657667,-0.002894191537052393,0.005341628100723028,-0.0015270182630047202,0.002076746430248022,-0.007382132578641176,0.003483372274786234,0.003238419769331813,-0.0012371856719255447,-0.0009157988824881613,0.00014901960093993694,-0.006998059339821339,0.004491407424211502,0.00388618977740407,7.378868758678436e-06,-0.00349105685018003,0.000464330572867766,-0.000891868956387043,0.0031675153877586126,-0.005290805362164974,0.00738481292501092,0.003327085403725505,-0.004075573291629553,0.0003187484689988196,-0.0061679258942604065,-8.372363663511351e-05,0.0006304549751803279,0.006273273378610611,0.0025154927279800177,0.002145738573744893,-0.0023664713371545076,0.00364502752199769,-0.004775474779307842,0.0009724742849357426,-0.00281597301363945,-0.0020318871829658747,-0.00012909481301903725,-0.006828433834016323,-0.004152982495725155,-0.0011389992432668805,-0.007321686949580908,0.0035418819170445204
打开,-0.00511134834960103,0.005994281731545925,0.005888308864086866,-0.001380388275720179,0.006055945996195078,-0.0036411029286682606,0.009356883354485035,-0.002654067939147353,0.005598647519946098,0.005452614277601242,-0.002414766699075699,0.003999738022685051,0.011311288923025131,-0.0016723556909710169,-0.002227271907031536,0.000532815174665302,0.004997663665562868,0.00055658322526142,0.005859336815774441,-0.0054695941507816315,-0.004107266664505005,-0.0005380150396376848,0.0018715558107942343,0.005296111572533846,0.0028731804341077805,-0.0062768589705228806,-0.008482552133500576,0.005431413650512695,0.004223245196044445,0.0074097574688494205,0.0012425290187820792,0.0003567107778508216,-0.009425192140042782,-0.0031662413384765387,-0.00843130610883236,0.004881913773715496,0.003966301679611206,-0.006390520837157965,-0.009404213167726994,0.005090545862913132,-0.0047086672857403755,0.002496671862900257,0.003326769219711423,-0.0033128345385193825,0.002493590582162142,-0.01221184991300106,-0.0033863189164549112,0.001556893577799201,0.013497740961611271,0.005952066741883755,0.005440053530037403,0.008296131156384945,-0.006739786826074123,0.001920146751217544,0.008540005423128605,0.007160728797316551,-0.005237916484475136,-0.005078393500298262,0.006585793569684029,-0.003416066989302635
直到,-0.0016181627288460732,0.016393251717090607,0.025329403579235077,0.0078111449256539345,0.00036823656409978867,-0.01330895721912384,-0.0004652654752135277,-0.0010997799690812826,-0.0034930387046188116,-0.011702723801136017,-0.005759047344326973,0.004834515508264303,0.03842589259147644,-0.015647869557142258,-0.008208146318793297,-0.012813251465559006,0.009770039469003677,0.010245135053992271,-0.002116401679813862,-0.024014320224523544,0.011374704539775848,-0.0009755489882081747,-0.008268587291240692,0.019221916794776917,0.0009247377165593207,-0.0015017095720395446,0.0013106251135468483,0.003342647338286042,0.013939744792878628,-0.008580004796385765,0.006654262077063322,-0.007998783141374588,-0.004636062309145927,-0.010685084387660027,-0.006377364043146372,-0.015005783177912235,-0.007063849363476038,-0.009486818686127663,-0.007232278119772673,0.011636152863502502,0.018552491441369057,0.007088931277394295,0.0018374919891357422,0.0031310515478253365,-0.020862994715571404,-0.0012217364273965359,-0.01801975630223751,-0.007880319841206074,-0.003577303607016802,0.010664425790309906,0.02325264923274517,-0.0013742842711508274,0.011456836946308613,-0.005359516479074955,0.016814962029457092,0.007443203125149012,-0.004788325168192387,-0.013308266177773476,0.02303629368543625,-0.014635736122727394
粮食,-0.010356683284044266,0.0007462449138984084,-0.0053606415167450905,0.002638975391164422,0.002330825664103031,0.003683821763843298,-0.005250738002359867,-0.006019424181431532,0.0055874912068247795,-0.006822511553764343,-0.00475498428568244,0.002611530013382435,-0.003262933809310198,-0.0033700137864798307,4.471425199881196e-05,0.0063120536506175995,-0.0032815069425851107,-0.0031994800083339214,-0.0010979718063026667,-0.0006937254802323878,0.00028775190003216267,-0.0012702106032520533,0.002597477985545993,-0.004216721747070551,0.001632168423384428,-0.0025182657409459352,-0.005369927734136581,-0.007402870338410139,0.0030703614465892315,-0.0038888156414031982,9.961589239537716e-05,-0.006934637203812599,-0.006498078349977732,-0.007932691834867,-0.0024481082800775766,-0.0050366586074233055,0.001460017403587699,0.001313743181526661,-0.0012659553904086351,0.004939580801874399,0.001445145346224308,-0.009579379111528397,-0.0017616983968764544,-0.0009301393874920905,-0.0008293741848319769,0.0058889309875667095,-0.0014117623213678598,-0.003894088789820671,0.0007314305985346437,-0.007978308945894241,-0.003419929649680853,0.006009478587657213,-0.007638693321496248,0.002147350460290909,0.005080905742943287,-0.0025768140330910683,-0.0026472199242562056,-0.005071851424872875,-0.00022761267609894276,-0.002875190693885088
充分准备,0.00410822918638587,0.005794756580144167,-0.00273806881159544,0.004880873486399651,-0.0012855755630880594,-0.001563091529533267,-0.0012197449104860425,0.0006643005181103945,-0.0024660958442837,-0.002144852187484503,-0.0006113540730439126,0.0034082273487001657,0.006015297956764698,-0.00034843108733184636,0.00019815632549580187,0.002317654900252819,-0.001401976915076375,-0.005409551784396172,0.0012699277140200138,-0.00306601170450449,-0.0010422886116430163,0.005538603290915489,0.0002877840888686478,-0.0007639245595782995,-0.0023856244515627623,0.0014811268774792552,-0.0014444582629948854,0.0025586748961359262,-0.0009944291086867452,-0.00019563954265322536,-0.0003590099513530731,-0.003687491873279214,0.004723494406789541,0.000850047217682004,0.001658265246078372,-0.0008513906504958868,-0.0049978699535131454,0.000350306392647326,-0.003967727534472942,0.004088202957063913,-0.0017644475447013974,0.005146085750311613,-0.0035462393425405025,0.0003579662006814033,0.002035390818491578,0.0010930210119113326,0.001981196692213416,0.001088026794604957,-0.004061257001012564,0.00837197806686163,-0.000879240280482918,-0.009243683889508247,0.0002885667490772903,0.007135902065783739,0.003531195456162095,0.0006462292512878776,0.0026056377682834864,0.0009459026623517275,-0.005636878311634064,-0.0034137608017772436
人们,-0.0006553297862410545,0.004000318236649036,0.005014987662434578,0.00226566637866199,-0.0008321173954755068,-0.00781278870999813,-0.0017369241686537862,0.015427556820213795,-0.008541405200958252,-0.007303217891603708,-0.0033581512980163097,0.006106950342655182,0.020418481901288033,0.001609494211152196,-0.008301621302962303,0.0033318691421300173,-0.0024849497713148594,0.0027874289080500603,0.0010819274466484785,-0.013851484283804893,0.00595055753365159,-0.005535509437322617,0.004381139762699604,0.011504004709422588,0.012350989505648613,0.0010000395122915506,0.003939760848879814,-2.8838403522968292e-06,0.0029078687075525522,-0.000951334135606885,0.00485024880617857,-0.006965178996324539,-0.004103709012269974,0.004343570210039616,-0.0017981890123337507,0.00253520580008626,0.011418200097978115,-0.012730085290968418,-0.005848792381584644,-0.0019424373749643564,0.006586087867617607,0.0023560384288430214,0.00010974030010402203,0.003477271180599928,-0.008655352517962456,0.000225750234676525,-0.00836932472884655,0.00981986615806818,0.0015641313511878252,0.003775424789637327,0.005020912270992994,0.0009668769780546427,0.001095268176868558,0.013768719509243965,0.010586928576231003,0.0004673885414376855,-0.01121127512305975,-0.006724925711750984,0.006594425067305565,-0.010323426686227322
做出,0.002435248112305999,0.010146440006792545,0.001081230933777988,-0.007083089090883732,-0.012262275442481041,0.0005139765562489629,-0.0011516016675159335,0.005737266503274441,0.0027176481671631336,0.0010595875792205334,-0.0011951870983466506,-0.001051945029757917,-0.003965556621551514,0.0014144608285278082,0.003751451149582863,0.0019816404674202204,0.0005430055316537619,-0.0031340084969997406,0.007400984410196543,-0.003433761652559042,0.0016403538174927235,0.00037158571649342775,0.003660569665953517,-0.012127098627388477,-2.745259553194046e-05,0.009869156405329704,0.008971198461949825,0.005576862022280693,0.001928251818753779,-0.0034447188954800367,-0.005568184424191713,-0.0028537334874272346,-0.0021454375237226486,0.002912414725869894,-0.00036418018862605095,-0.002849418669939041,0.012502823956310749,-0.00700178649276495,0.0005331202410161495,0.006760607473552227,-0.0036262464709579945,0.00161599344573915,0.006262145936489105,-0.0007089272839948535,-0.002265766728669405,-0.0039475760422647,0.00039692013524472713,0.005341123789548874,-0.010048271156847477,0.010674004442989826,0.0035059580113738775,-0.0031780777499079704,-0.007203252054750919,0.010675299912691116,-0.0008384373504668474,0.0019896430894732475,0.0064233881421387196,0.0014284136705100536,0.003692525438964367,-0.001017558271996677
没有,-0.010815850459039211,0.004976233001798391,0.042536720633506775,-0.0013322532176971436,0.0007208451861515641,-0.018674537539482117,-0.006369976792484522,0.020955383777618408,-0.020565707236528397,-0.02284269779920578,0.006532457657158375,0.00517352344468236,0.06257544457912445,-0.024278536438941956,-0.008941787295043468,-0.011819933541119099,0.0072188349440693855,0.015402117744088173,-0.00043453520629554987,-0.02903197519481182,0.02162979356944561,-0.024686463177204132,0.0013176294742152095,0.01896537095308304,0.02813771180808544,-0.02110438048839569,0.008073518052697182,0.02138427644968033,0.01616731844842434,0.005395920481532812,0.028341295197606087,-0.01790871098637581,-0.004912844393402338,-0.014252668246626854,-0.006329991389065981,0.006739821285009384,0.015555595979094505,-0.0327053926885128,-0.026623088866472244,0.014057127758860588,-0.004472493659704924,0.025402259081602097,-0.012503762729465961,-0.006118295714259148,-0.03394641354680061,-0.012718728743493557,-0.00467562023550272,0.0032364949584007263,0.00042052031494677067,0.03382012993097305,0.02757299318909645,-0.006951672025024891,-0.004999207332730293,0.015601150691509247,0.02316194400191307,0.00222269119694829,-0.020438993349671364,-0.038463693112134933,0.019788555800914764,-0.03012804687023163
谈到,-0.0020956057123839855,-0.0038420832715928555,0.006390071939677,-0.00184185104444623,0.00588682247325778,-0.005749049596488476,-0.004822032060474157,0.01005632895976305,-0.005363350734114647,-0.0009151289705187082,-0.007199457846581936,-0.0014930584002286196,-0.00038952066097408533,0.0006427592597901821,-0.0019199654925614595,-0.0037571501452475786,-0.00023268582299351692,0.003811477217823267,8.85925255715847e-05,0.0015026114415377378,0.004480031784623861,-0.006485834717750549,0.0013763450551778078,0.007030473556369543,-0.00013437820598483086,-0.006341374479234219,-0.004935627803206444,-0.0012726811692118645,-0.0019700871780514717,0.004154522903263569,0.005882734432816505,0.0025062940549105406,-0.00675582978874445,0.0007265939493663609,-0.001379041583277285,0.0007310060318559408,-0.005863700993359089,-0.004147414118051529,-0.000798473134636879,0.007842463441193104,0.0021489837672561407,-0.005707688629627228,-0.0009361631236970425,0.006418806500732899,-0.0006044601323083043,-0.006177753675729036,-0.0029308150988072157,-0.009902465157210827,-0.0036742505617439747,0.003263778518885374,0.0017594275996088982,-0.0003115402068942785,0.0019317003898322582,0.005183406639844179,0.006497091613709927,0.004896291997283697,-0.008559273555874825,-0.0010581457754597068,0.006444701924920082,-0.005403681192547083
主席,-0.006206616759300232,0.0006786324083805084,0.004416950978338718,0.001552130444906652,0.00014143786393105984,0.005110860802233219,-0.0003965378273278475,-0.0017908761510625482,0.0006639865459874272,-0.008426499553024769,0.0054367342963814735,-0.004282902926206589,-0.007438848726451397,0.009659243747591972,-0.0005338401533663273,0.004646932240575552,-0.0075463708490133286,-0.004763566888868809,0.0011412408202886581,0.0026219396386295557,-0.004112671595066786,0.004230007063597441,0.0026966677978634834,-0.0005939266993664205,0.000532162724994123,-0.003153123427182436,-0.0042270757257938385,-0.00014640111476182938,0.0003419659333303571,-0.0021214194130152464,0.0018217326141893864,-0.0024971263483166695,-0.0015941751189529896,0.0006048863288015127,0.0068759070709347725,0.0016843986231833696,-0.003189726499840617,-0.004313971847295761,0.0021972686517983675,-0.001816873555071652,0.0020180235151201487,-0.008569600060582161,-0.005819075275212526,0.0011443207040429115,0.0023680294398218393,0.0022431386169046164,-0.0010320889996364713,-0.005067162215709686,-0.0012300219386816025,-0.002613743534311652,-0.004739467054605484,0.004621016327291727,-0.003075305838137865,-0.010285616852343082,0.0024364208802580833,-0.0021568918600678444,-0.0007993022445589304,-0.007016895338892937,-0.0075884852558374405,-0.0027942240703850985
发言,0.00253074849024415,-0.007460429333150387,0.005176014266908169,-0.0009233993478119373,-0.00534808449447155,0.002683658618479967,0.003850015578791499,0.003592713037505746,0.0007738062413409352,-0.005218978971242905,0.0033438208047300577,0.00024475716054439545,-0.00031849415972828865,-0.0036007044836878777,-0.004824148491024971,0.0031011535320430994,-0.004838088992983103,-0.002508668228983879,-0.0053508467972278595,-0.0033420990221202374,0.004634462762624025,0.00699722720310092,0.0007830992108210921,-0.0009133841376751661,0.006464407779276371,0.0030803524423390627,0.004556184634566307,-0.0062199183739721775,0.0026841466315090656,-0.0019153128378093243,-0.004228984471410513,-0.00888652354478836,-0.0050425115041434765,-0.002923239255324006,0.007378159090876579,-0.0010575037449598312,-0.007125630043447018,0.005362575873732567,0.004582683090120554,-0.0018430245108902454,-7.489044219255447e-05,-0.004098297096788883,0.0021040616557002068,-0.00037963123759254813,0.006923182867467403,-0.006297759711742401,0.006203475408256054,-0.007685882970690727,-0.0024339023511856794,0.0012917554704472423,-0.011101169511675835,-0.0026543973945081234,-0.0010558193316683173,-0.0008382000960409641,0.006394336931407452,0.0064066750928759575,-0.0013721854193136096,0.007482774090021849,0.002098814584314823,-0.003986438270658255
会员,0.0005757186445407569,0.007855542935431004,-0.0026114527136087418,0.000347561901435256,-0.004826913587749004,0.00320450053550303,-0.0054025547578930855,-0.005584989674389362,0.0028066907543689013,0.003917369060218334,-0.005879207048565149,-0.0037020700983703136,-0.005787127185612917,-0.00362612446770072,0.0008193368557840586,-0.0017429939471185207,-0.0051092482171952724,0.004382290877401829,-0.0057500493712723255,-0.0017949864268302917,0.002580572385340929,-0.003160017542541027,-0.005195916630327702,0.008057774044573307,-0.0009329485474154353,-0.004676301963627338,-0.006982941180467606,-0.004681979306042194,0.006913007237017155,-0.0011194951366633177,-0.0016216749791055918,-0.002033917000517249,-0.0007365616620518267,-0.005136784631758928,0.0062969764694571495,0.0028340392746031284,-0.00303068570792675,0.005339990369975567,0.003948704339563847,-0.0023222428280860186,-0.006370445713400841,0.0021461823489516973,-0.01142661552876234,-0.007647148333489895,0.0006778465467505157,-0.0017217369750142097,0.009370127692818642,0.001980921719223261,-0.0009484384208917618,0.004480963107198477,-0.003653339110314846,0.005806131288409233,0.00039028096944093704,-0.008675146847963333,-0.004421775694936514,-0.008615550585091114,0.0015798364765942097,-0.0028801606968045235,0.0024427752941846848,-0.0020196132827550173
部长,-0.005552941933274269,0.002734563546255231,0.0025800676085054874,0.007770746015012264,-0.002849467331543565,-0.0011114135850220919,-0.007508755661547184,0.001644676085561514,-0.0016875623259693384,-0.00610539223998785,0.00334099680185318,0.005234919022768736,0.01058103609830141,-0.006207571364939213,0.0008783875964581966,0.006363693159073591,-0.00767045933753252,0.004207803402096033,-0.000535555649548769,-0.008412957191467285,0.010301822796463966,0.003802645718678832,0.00023993989452719688,0.004775127395987511,0.005036894232034683,-0.0026417311746627092,0.000735793961212039,-0.004565480165183544,-0.007182000670582056,-0.009147231467068195,0.00032489391742274165,-0.0013978742063045502,-0.004039741586893797,-0.004162410274147987,0.004070281982421875,0.0019661644473671913,0.0002458370290696621,0.004160845186561346,-0.007375877350568771,-0.005151541903614998,0.00455273874104023,0.00024324143305420876,-0.006270731799304485,-0.002424650127068162,0.001849480322562158,-0.0028613493777811527,0.007226902060210705,0.005505498498678207,0.005294232629239559,0.005509341135621071,0.004220041446387768,-0.004242029506713152,-0.004530051723122597,0.0061011589132249355,-0.00040988263208419085,0.002380009973421693,-0.0024443184956908226,0.0004226291785016656,-0.004482933320105076,-0.0016513746231794357
造成,-0.0007708884077146649,-0.01017665769904852,0.0017794203013181686,-0.003470546565949917,0.0013530692085623741,-0.004042493645101786,0.0037251149769872427,0.003062338102608919,0.004402084741741419,0.0011955498484894633,0.0031183294486254454,0.00614216597750783,0.0015531126409769058,-0.0063705844804644585,-0.004660503473132849,0.001250751200132072,-0.008736860007047653,0.011920016258955002,-0.005135151091963053,-0.002311869291588664,0.002712537068873644,0.006649472285062075,-0.006480623502284288,-0.0032667391933500767,0.0011645571794360876,-0.002747973194345832,-0.0012460865546017885,0.0034388690255582333,0.005504661239683628,-0.0003808035980910063,-0.0015663568628951907,0.0021752265747636557,0.00257858051918447,0.004533485043793917,-0.00535981822758913,-0.003163062036037445,0.0025325212627649307,-0.0071724276058375835,-0.010318899527192116,0.003552339505404234,0.005375203210860491,-0.0027178097516298294,-0.00021753378678113222,0.008508945815265179,0.0035990714095532894,-0.000772832368966192,0.0038884817622601986,0.000463558011688292,0.0036137443967163563,-0.0029418813064694405,0.0004420515615493059,0.002845903392881155,0.008761895820498466,-0.009857386350631714,0.005173892248421907,0.0003271508030593395,0.005082312971353531,0.0073406994342803955,-0.0014788717962801456,-0.007644235156476498
委员会,0.005097112152725458,-0.00052729866001755,0.004936943296343088,0.00010070896678371355,0.0028589756693691015,-0.001135209808126092,-0.002155133755877614,-0.0014051123289391398,0.005386048462241888,0.0013801228487864137,-0.006121078040450811,0.0003223919775336981,-0.0017837893683463335,0.0027830004692077637,0.0031886398792266846,-0.002161201322451234,-0.0003287545405328274,0.0064596631564199924,-0.0012640274362638593,-0.000818429805804044,-0.006033531855791807,-0.00010333516547689214,-0.003231434617191553,-0.004808648955076933,0.004606775473803282,-0.002693293383345008,-0.005037335213273764,0.006034876685589552,-0.0011647653300315142,0.0016887697856873274,-0.005759575869888067,-0.006415727082639933,-0.0061589512042701244,0.0035216647665947676,0.006695601623505354,0.0031950860284268856,-0.00017957495583686978,-0.005807801149785519,-0.0013420110335573554,0.0005078366957604885,0.0027910531498491764,0.0020217024721205235,-0.004973818082362413,-0.0014380983775481582,-0.0030313783790916204,0.0010340532753616571,0.0001895024615805596,0.0017294230638071895,-0.002862268825992942,0.006828057114034891,-0.004171568900346756,0.004054724704474211,-0.004573558922857046,-0.0011201557936146855,-0.0017032647738233209,-0.0002461928525008261,-0.000527930969838053,-0.003279143711552024,0.00525232870131731,0.0006362986750900745
敢于,0.007534882053732872,0.004296053666621447,0.0009620522614568472,0.0050417277961969376,-0.001647033030167222,0.002844369038939476,0.0008236414869315922,0.008206314407289028,-0.00033198492019437253,0.00036177795846015215,0.005372031591832638,-0.0024522708263248205,0.00421479856595397,0.007310481742024422,-0.00395632442086935,0.009283301420509815,0.0018334807828068733,0.0036424659192562103,0.0001711081713438034,-0.0027809683233499527,-0.0024880736600607634,0.0006784030701965094,-0.003075036918744445,0.0013863416388630867,-0.0005008070729672909,0.0023496528156101704,-0.0023261243477463722,0.0001908640842884779,0.007324066013097763,-0.0012497585266828537,0.009599165990948677,-0.001810715883038938,0.00012579828035086393,-0.005129203200340271,-3.540376201272011e-05,0.004362244624644518,-0.002973094116896391,-0.006133969873189926,0.008131069131195545,0.0013463738141581416,-0.0048773400485515594,0.0015314763877540827,0.002372484188526869,-8.004601113498211e-05,0.00515071302652359,0.0003325364086776972,0.0008000456728041172,0.003193555399775505,-0.010295593179762363,0.011714051477611065,0.00762567576020956,0.0029729281086474657,0.011587747372686863,0.0053953491151332855,0.0068260496482253075,-0.00017826049588620663,0.00036295910831540823,-0.009203838184475899,0.0043068150989711285,0.002628621645271778
喜欢,-0.006175813730806112,-0.0009170781122520566,0.023515190929174423,0.00135085079818964,-0.010775485076010227,-0.0106943529099226,-0.00253856903873384,0.008184036239981651,-0.011032482609152794,-0.016305383294820786,-0.0073744310066103935,-0.001004523248411715,0.0469883531332016,-0.004415525123476982,0.003818071447312832,0.00035380927147343755,0.010483281686902046,0.007162727415561676,-0.007555777207016945,-0.02276153489947319,0.011801004409790039,-0.010160080157220364,-0.0004653953365050256,0.01858990266919136,0.022179363295435905,-0.009827448055148125,0.0066992854699492455,0.010191172361373901,0.010602906346321106,-0.006522778887301683,0.017045876011252403,-0.003044953104108572,-0.009427495300769806,-0.005314035341143608,-0.0019057235913351178,-0.0029213898815214634,0.0001392074627801776,-0.028732268139719963,-0.014984323643147945,0.003025934100151062,-0.0003539780154824257,0.014213603921234608,-0.00538919772952795,0.004503951873630285,-0.024133315309882164,-0.010951864533126354,-0.014807848259806633,0.0019320091232657433,-0.010581769049167633,0.02578449435532093,0.03269723057746887,-0.00010822620242834091,-0.01054384745657444,0.0035495811607688665,0.023682374507188797,0.014302564784884453,-0.0006934723351150751,-0.030325228348374367,0.01584269478917122,-0.027058446779847145
竞选,-0.0014432817697525024,0.0004297560080885887,0.006688488181680441,0.005495249293744564,-2.2565596736967564e-05,-0.0013566436246037483,6.973324343562126e-05,0.00483333133161068,0.006462340708822012,-0.004979095421731472,-0.00232497975230217,0.0027201103512197733,0.007200909778475761,-0.007092478685081005,-0.004124626517295837,0.001725528622046113,0.0011619946453720331,0.0017461690586060286,0.004726353567093611,-0.0029019757639616728,0.0007094127358868718,-0.0025213344488292933,0.010002769529819489,-0.00039929524064064026,-0.00431794160977006,0.004090332426130772,0.003845335217192769,-0.0010214406065642834,0.009734116494655609,-0.0038490253500640392,0.005163868423551321,0.008835718035697937,-0.005799643695354462,-0.0006433362723328173,0.003614833578467369,-0.0038551129400730133,0.005607164464890957,-0.004005750175565481,-0.003396792570129037,-0.0032002439256757498,0.00139285484328866,0.00021647149696946144,0.0038128881715238094,-0.007433180231601,-0.0038047335110604763,-0.0015732268802821636,-0.0049278452061116695,-0.006285807583481073,0.0004789087688550353,-0.0028143352828919888,-0.0052126026712358,0.006071302108466625,0.002167833037674427,-0.004306182265281677,-0.0020646965131163597,0.0034968426916748285,-0.006999925244599581,-0.0028568096458911896,0.0062880986370146275,0.0017027975991368294
房间,0.003143829293549061,0.005801772233098745,0.005658595822751522,0.00021289801225066185,0.0033339050132781267,-0.001445335103198886,-0.005839638411998749,0.0033664179500192404,-0.0049807061441242695,-0.003370830090716481,0.004892764613032341,0.0007745536277070642,0.015104218386113644,-0.004505406133830547,-0.00166180485393852,-0.0009676931658759713,0.002902053762227297,5.5156415328383446e-05,-0.0015081868041306734,-0.010495597496628761,0.0015188695397228003,-0.009756432846188545,-0.0008681292529217899,-0.005961088929325342,0.008529390208423138,-0.002968615386635065,0.008613547310233116,0.0005192014505155385,0.0002879041712731123,0.0009001013822853565,0.00039051566272974014,-0.0076983533799648285,-0.008656719699501991,0.003262405516579747,-0.001979600638151169,-0.007054363377392292,0.00044502969831228256,-0.0068533411249518394,-0.00584117416292429,-0.003032880602404475,-0.0015070004155859351,0.004946506582200527,-0.0037724797148257494,0.0005227867513895035,-0.012164080515503883,-0.007793009281158447,-0.005510949529707432,0.0015090338420122862,0.007330826483666897,0.008908454328775406,0.0075437650084495544,-0.0013259162660688162,0.0012436211109161377,-0.0011949046747758985,0.002728917170315981,-0.003804474603384733,0.00612601637840271,-0.010683692991733551,0.0027377265505492687,-0.006361587438732386
对抗,-0.002311822958290577,-0.0035337149165570736,-0.00802708137780428,0.007779228966683149,0.003505004569888115,-0.0017241111490875483,-0.00583631731569767,0.004256661981344223,-0.006686318200081587,-0.007086855359375477,0.00845575425773859,0.0029331911355257034,-0.003042086958885193,0.00013762479647994041,0.0019510688725858927,0.0020057305227965117,0.0012908484786748886,0.003575734794139862,-0.004279484041035175,0.0060398997738957405,-0.007798917591571808,-0.0028207094874233007,0.003516796277835965,0.004149683751165867,0.006448124535381794,-0.0007084752433001995,-0.00949329324066639,0.004696906544268131,-0.003178178798407316,-0.0035363100469112396,0.007507142145186663,-0.006223782896995544,0.0057031624019145966,-0.001231996575370431,0.0057547553442418575,-0.006069032475352287,0.001055127358995378,-0.009256784804165363,-0.0012333376798778772,0.01052941381931305,0.003755640471354127,-0.0010741628939285874,0.0076820142567157745,0.0033876397646963596,-0.005793542601168156,-0.004764215555042028,-0.00586724141612649,-0.002793374005705118,-0.0010503563098609447,-0.004854516126215458,-0.0013006356311962008,-0.004766720347106457,-0.005405276082456112,-0.006426206324249506,-0.006508015561848879,-0.002612845506519079,0.003817262127995491,-0.0010702514555305243,0.0027753119356930256,0.0010477047180756927
做好,0.004165311343967915,0.0032887780107557774,0.006760824471712112,0.009980108588933945,0.006473161280155182,-0.0026846507098525763,-0.007680346257984638,0.010484525933861732,-0.0007638991810381413,-0.001111419522203505,-0.00434951763600111,0.005338418297469616,0.0037060328759253025,-0.0056403945200145245,0.0019534961320459843,-0.0019123362144455314,0.009780960157513618,-0.0017759153852239251,0.005418254993855953,-0.005834880284965038,-0.0049385554157197475,-0.012192884460091591,-0.005661301780492067,-0.001457973150536418,0.0035326918587088585,0.0048158662393689156,0.0036686272360384464,-0.002398915821686387,0.004863394424319267,-0.006803145166486502,-0.0055850837379693985,-0.0050112297758460045,0.0041587455198168755,0.005678853485733271,0.00295858271420002,-0.00460429023951292,0.005231971852481365,0.0026763388887047768,0.007744519971311092,0.0018887324258685112,-0.0032519130036234856,-0.0029808643739670515,-0.0032548485323786736,0.0010138036450371146,0.003719449508935213,-0.000872971024364233,-0.012427225708961487,-0.0016416495200246572,-0.007993887178599834,-0.002966885920614004,0.00011991581413894892,-0.005428310949355364,-0.0006466499762609601,-0.0032318574376404285,0.0038172563072293997,-0.0059354668483138084,-0.0010862762574106455,0.002821663860231638,-0.0034213813487440348,-0.009206105023622513
经济学,-0.004204773344099522,-0.002644392428919673,0.003167538670822978,0.0010891662677749991,0.010155870579183102,0.005871277302503586,0.005109752994030714,0.0010128922294825315,0.0009638749761506915,-0.002319407882168889,0.00010558909707469866,0.007650032639503479,-0.0015476737171411514,0.003725225804373622,-0.007042702287435532,0.0023649989161640406,0.0008939765393733978,0.004985954612493515,0.0008347905823029578,-0.002403993159532547,0.0007134506595321,-0.0006227088742889464,0.00297358026728034,0.0011868777219206095,-0.006580331362783909,0.004235006403177977,0.002429831773042679,-0.0007639123941771686,0.006687733344733715,0.0003055907436646521,0.006655953358858824,0.0038499017246067524,-0.00868867989629507,0.0023374457377940416,-0.001848652958869934,0.00010093035234604031,-0.001222781604155898,0.002611087867990136,-0.0056050969287753105,-0.004749223589897156,0.004805130418390036,-0.0016156788915395737,-0.0026732501573860645,-0.002933960407972336,-0.0022777121048420668,0.0022584327962249517,-0.002145521342754364,0.0016483876388520002,-0.00030530276126228273,0.004024186171591282,-0.0011554221855476499,-0.003438325133174658,-0.005914540495723486,-0.0011699431343004107,0.0016477273311465979,0.002688799286261201,-0.0009057671413756907,-0.0013116970658302307,0.0023755228612571955,-0.006951711140573025
危机,0.005052000284194946,0.006040504202246666,0.01133764162659645,-0.00033896579407155514,-0.0037957755848765373,0.002338484860956669,0.007676968816667795,-0.004786583594977856,-0.008331414312124252,3.232923336327076e-05,0.0056302412413060665,-0.0020202151499688625,0.006399921141564846,-0.0004822688642889261,0.0009594421135261655,-0.0005227464716881514,-0.001171978423371911,-2.4218112230300903e-05,-0.0006764037534594536,0.00012877103290520608,-0.0016819275915622711,0.0017316915327683091,-0.003998925909399986,-0.00039334665052592754,-0.0003012781962752342,-0.0019549960270524025,-0.00952282827347517,0.0007253545918501914,-0.0027653956785798073,0.009294680319726467,-0.0033146587666124105,0.000503819901496172,0.0012664441019296646,-0.008265531621873379,0.0021366323344409466,-0.010997477918863297,-0.0016474039293825626,-0.00356980599462986,-0.004675230942666531,-0.0007163999252952635,0.0015004441374912858,0.00945081003010273,-0.0024016655515879393,-0.002269008196890354,0.0015941825695335865,0.001161187537945807,-0.00030932185472920537,0.002056649886071682,-0.0033964281901717186,-0.00036535621620714664,0.010886875912547112,-0.007939201779663563,0.003626088844612241,0.0059813144616782665,-0.004706472158432007,-0.0013167554279789329,0.0009974368149414659,-0.009866788052022457,0.007758503779768944,0.0013642295962199569
很快,0.007997052744030952,0.0017805323004722595,-0.0010824404889717698,0.0002895996440201998,-0.003178849583491683,-0.005233439151197672,0.0059699127450585365,-0.0014845996629446745,-0.00475817546248436,-0.005218185018748045,0.004202445037662983,0.005022481083869934,0.015573007054626942,-0.012651709839701653,-0.005125592928379774,0.0006084528286010027,-0.0005251169204711914,0.007512385491281748,-0.002113870345056057,-0.0013776090927422047,0.008250643499195576,0.006802302319556475,0.00606713630259037,0.007735497318208218,0.014726897701621056,-0.0009655538015067577,0.005209405906498432,0.00012231990694999695,-0.00697227381169796,-0.008758400566875935,0.0019301490392535925,0.0030381244141608477,0.004415890201926231,-0.01281440444290638,0.0055836960673332214,0.00588357076048851,0.005440092645585537,-0.013218898326158524,-0.00915912538766861,0.008415734395384789,0.008384873159229755,0.003885153913870454,-0.009648028761148453,0.001123784575611353,-0.0075139980763196945,0.002128348220139742,0.0016809427179396152,0.003969678655266762,-0.008508194237947464,0.01274373009800911,0.00917551014572382,-0.0037905238568782806,-0.006851197220385075,-1.2696487829089165e-05,0.010282610543072224,0.008229635655879974,-0.011023536324501038,-0.008921284228563309,0.0058280392549932,-0.012327142059803009
看,-0.0031666122376918793,0.005784428678452969,0.01610959693789482,0.0019115786999464035,-0.016274694353342056,-0.006517114117741585,-0.008634793572127819,0.0053729102946817875,-0.019337773323059082,-0.009963138028979301,-0.0064159720204770565,0.003109332639724016,0.015239160507917404,-0.006683394778519869,0.0036801141686737537,-0.011012209579348564,0.0006852922961115837,0.0003176610916852951,-0.010784273967146873,-0.02409425377845764,-0.0006589667755179107,-0.01574110984802246,0.012234026566147804,0.02066265046596527,0.01907322369515896,-0.017091168090701103,0.007525552995502949,0.01781715825200081,0.016662972047924995,-0.011245163157582283,0.0054978374391794205,-0.004411274567246437,-0.010699759237468243,-8.579663699492812e-06,0.002348134759813547,-0.00071677565574646,0.0013303724117577076,-0.018174409866333008,-0.015100676566362381,0.02000380866229534,-0.0036012204363942146,0.010130256414413452,-0.010277945548295975,-0.004357642028480768,0.0006036611739546061,0.003028606530278921,-0.005304258316755295,0.004750691819936037,0.005833671893924475,-0.0012538401642814279,0.020842254161834717,0.006550490856170654,0.013828406110405922,0.0023258402943611145,0.005642101168632507,0.009369376115500927,-0.0033688570838421583,-0.006044895388185978,0.013204704970121384,-0.013037527911365032
跨,0.0016602512914687395,0.008196777664124966,0.005209863651543856,-0.0011078459210693836,-0.0051016476936638355,0.00358166778460145,0.0007414983119815588,0.0070129879750311375,0.01236068457365036,-0.005236003082245588,0.003170954529196024,-0.011487819254398346,0.0013528132112696767,-0.013088712468743324,-0.0059423125348985195,-0.0065702954307198524,0.008661850355565548,-0.00397514458745718,-0.009145978838205338,-0.0045706345699727535,0.011742073111236095,0.002338334219530225,-0.006072336807847023,-0.006090736016631126,0.0020581060089170933,-0.005186723545193672,0.00033929734490811825,0.001607300597243011,0.013706287369132042,-0.008520599454641342,0.0006265426054596901,-0.005733154714107513,-0.012352381832897663,0.0019372687675058842,0.010224462486803532,-7.510022260248661e-05,0.008332747034728527,0.006065792869776487,0.00995372049510479,0.010044892318546772,0.0008462409023195505,0.008651696145534515,-0.0009201723150908947,0.011146510019898415,0.01357756182551384,0.001202032552100718,-0.006799397990107536,-0.0016628953162580729,-0.004637777805328369,0.00938845332711935,-0.0007487987168133259,-0.009879807010293007,-0.008665858767926693,-0.00047017866745591164,-0.004110192414373159,0.006009063683450222,0.0057447077706456184,0.009975146502256393,-0.004777334630489349,-0.0026942528784275055
大使,0.007116617634892464,-0.006277892738580704,0.0011091018095612526,0.0015135331777855754,-0.00815742276608944,-0.0005885071586817503,-0.00016991375014185905,0.0017398580675944686,0.008382344618439674,-0.0018250509165227413,-0.0020482861436903477,0.007263508625328541,0.004044075030833483,-0.006496892776340246,0.008812133222818375,0.002123472513630986,-0.003928753547370434,-0.005169600248336792,-0.010717455297708511,-0.002046600915491581,-0.0037177184130996466,-0.004830295220017433,0.011792052537202835,-0.0021703061647713184,0.01100059412419796,0.008056783117353916,0.0033549568615853786,-0.0034518036991357803,0.005983284674584866,-0.006608867086470127,0.0008626749040558934,-0.008991917595267296,0.0067925965413451195,-0.0022972975857555866,0.0037851941306144,-0.0007759893778711557,-0.00623698066920042,0.0039392802864313126,-0.00490063801407814,-0.0068184202536940575,-0.005333343055099249,0.005564822815358639,0.0041877636685967445,0.0038679265417158604,-0.00462412741035223,-0.004516975954174995,-0.006937460042536259,-0.0024347237776964903,-0.005811282899230719,0.00600142776966095,-0.0053521450608968735,0.0027337432838976383,0.009078000672161579,0.0024824170395731926,0.006108229048550129,0.0065963477827608585,0.004115641582757235,-0.005102648865431547,-0.0048628612421453,-0.0028015647549182177
都,-0.003136866493150592,0.015953868627548218,0.02422943152487278,0.0023398580960929394,-0.01137940026819706,-0.023963451385498047,0.0021865563467144966,0.013919418677687645,-0.006856291554868221,-0.02802109718322754,-0.0034021909814327955,0.002415102906525135,0.036910586059093475,-0.002078148303553462,-0.013439054600894451,-0.005819651298224926,0.004000223707407713,-0.007092315703630447,0.010402718558907509,-0.023337319493293762,0.004826284479349852,-0.0039982981979846954,0.005494802258908749,0.029872601851820946,0.03296416997909546,-0.009888356551527977,0.016202110797166824,0.0100117651745677,0.003166438080370426,-0.0013961135409772396,0.021911965683102608,-0.009701550006866455,-0.0008948142640292645,-0.007862674072384834,0.0030693828593939543,0.003972542472183704,-0.00746195949614048,-0.03635649010539055,-0.036098867654800415,0.014745417051017284,0.00020364858210086823,0.024647079408168793,-0.0017283614724874496,-0.005038507282733917,-0.025862937793135643,-0.004807338584214449,-0.004359446465969086,-0.007079971954226494,-0.008040049113333225,0.012739568948745728,0.0404110811650753,-0.009027271531522274,0.002363814041018486,0.015620559453964233,0.02735074609518051,0.011560380458831787,-0.006504842545837164,-0.02923605963587761,0.022708997130393982,-0.037576932460069656
外交官,-0.0001700712164165452,-0.0022133723832666874,-0.0026741251349449158,0.0008408085559494793,0.0019084021914750338,-0.003846764098852873,-0.0004304836329538375,-0.0017686606151983142,-0.0008750917040742934,-0.0002248835371574387,-0.005166082642972469,-0.0006146850646473467,0.0013055214658379555,0.0007599762757308781,-0.0005319477641023695,0.0006621343200094998,0.006419873796403408,-0.0036262343637645245,-0.006029523443430662,0.0022224395070225,0.004490578081458807,-0.005079854279756546,0.001580962329171598,-0.0008152820519171655,-0.004219365306198597,-0.0024956483393907547,-0.0056735859252512455,0.0037883264012634754,0.0012411028146743774,0.006407434586435556,0.0027064105961471796,-0.0021684204693883657,-0.004281815607100725,0.0070018223486840725,-0.0005378565983846784,-0.0025463681668043137,0.00604114169254899,-0.0005552064976654947,0.0004362663603387773,0.0014615902910009027,-0.0014570270432159305,-0.0012860589195042849,0.0002852057514246553,-0.0034552651923149824,-0.005932952277362347,0.005792688578367233,0.006003465037792921,0.0008148713386617601,0.00026488149887882173,-0.00012086849164916202,0.0005500460392795503,-0.005258877296000719,-0.003067805664613843,-0.0005921358242630959,0.0012126090005040169,0.0042251357808709145,0.006588269025087357,-0.005659508053213358,-0.0014191819354891777,-0.0019208010053262115
和和,-0.002118808915838599,0.00028412602841854095,0.004432698246091604,-0.006651747971773148,0.00028836866840720177,0.000815065810456872,-0.003042170312255621,-0.004627465736120939,-0.0024052676744759083,0.007517900783568621,-0.001905754441395402,-0.0023674694821238518,0.00013833941193297505,-0.008849823847413063,0.006398012395948172,0.0031848594080656767,-2.0799459889531136e-05,0.008832280524075031,-0.006196986418217421,-0.0010823984630405903,-0.000605661072768271,-0.00034844473702833056,0.00014538486720994115,-0.0024910923093557358,-0.004086995963007212,-0.002311605727300048,0.0004517374618444592,-0.0011901373509317636,0.0004758211434818804,-0.005506905727088451,0.0015318556688725948,0.003932691179215908,-0.005390303209424019,-0.00043630634900182486,-0.00388235691934824,-0.0079281534999609,-0.007758854888379574,-0.010273666121065617,0.0029561787378042936,0.0040136342868208885,-0.008953922428190708,0.0034015143755823374,-0.002725759521126747,-0.0010536116315051913,-0.0005833008326590061,-0.004668717738240957,-0.007570433896034956,0.004196622408926487,-0.003248549997806549,0.0015284717082977295,0.0014671062817797065,-0.007906102575361729,0.003302057273685932,0.0019881147891283035,-0.00576365739107132,0.0013000777689740062,0.0006139732431620359,-0.005042314529418945,0.009223660454154015,0.004540111869573593
投票站,0.003938262350857258,-0.00033888715552166104,0.00784547533839941,-0.005372306797653437,-0.0024664581287652254,-0.004019615706056356,0.005423546303063631,0.0009014683892019093,-0.0019279023399576545,-0.00015747813449706882,0.003395556937903166,0.004889930598437786,-8.923963832785375e-06,-0.008296163752675056,-0.0037294502835720778,-0.0006048613577149808,-0.0013275241944938898,0.0038465249817818403,0.004854714032262564,-0.0024333964101970196,0.0020061288960278034,-0.007653974462300539,-0.0038160481490194798,0.003011836903169751,-0.005715187638998032,-0.002110943431034684,0.004236242733895779,0.0038159340620040894,0.003015279769897461,-0.0011479443637654185,-0.002281368477270007,-8.449290908174589e-05,-0.00041146084549836814,-0.004508188925683498,0.00028515513986349106,-0.007535487879067659,-0.0029391846619546413,-0.00022880533651914448,-0.007039180491119623,0.004712090827524662,0.002655649557709694,0.002999486867338419,0.000796862062998116,0.00038140028482303023,-0.00042110640788450837,-0.002564091235399246,-0.0007385631906799972,-0.0018427419709041715,-0.004541389178484678,0.003395206993445754,0.0027431584894657135,0.0007097730413079262,-6.073297481634654e-05,-0.00026740305474959314,0.0026444841641932726,0.0010448318207636476,0.005160982254892588,0.0010830214014276862,-0.003464699489995837,-0.005218066740781069
成员,-0.00024572451366111636,0.008902429603040218,0.0033980226144194603,0.001464302185922861,-0.0007928325794637203,0.002635881770402193,0.004044416360557079,0.005515172146260738,-0.0048628682270646095,0.002694386290386319,-0.0006265874835662544,-0.0002953780349344015,0.0010152251925319433,-0.005088943988084793,-0.0019278023391962051,0.011033425107598305,0.010463501326739788,0.004849585704505444,0.010630370117723942,-0.008835718967020512,-0.003912476822733879,0.004883999936282635,-4.929816350340843e-05,-0.012183059006929398,0.007259183097630739,-0.003606895450502634,0.0004606044094543904,0.0011842281091958284,-0.0015938016586005688,-0.0042325216345489025,0.004326079972088337,-0.003004496917128563,-0.0009936668211594224,0.0016512610018253326,-0.000139836804009974,-0.002120009157806635,-0.0021911910735070705,-0.0064869653433561325,-0.004947164095938206,0.00635767076164484,0.0039754947647452354,-0.0012979703024029732,-0.002794502768665552,0.006495989393442869,0.0011149231577292085,0.003257553558796644,0.00045101530849933624,-0.0007656838279217482,0.0015899804420769215,0.004878545179963112,0.00801460724323988,0.002726231701672077,-0.0012947480427101254,0.0008978287223726511,-0.0003018606803379953,0.011120789684355259,-0.00457799294963479,-0.01066422089934349,0.000479608541354537,-0.007329008542001247
公司,-0.0026866935659199953,0.0037468106020241976,0.02042423188686371,0.0006733534391969442,-0.003648154204711318,-0.0021243542432785034,0.0016812446992844343,0.0015138168819248676,-0.00793211255222559,-0.008565174415707588,-0.006067724898457527,0.002926925430074334,0.024308348074555397,-0.0018519740551710129,-0.0067214746959507465,-0.004221533425152302,0.00464231800287962,0.004142594523727894,-0.0015020201681181788,-0.01409426424652338,0.008220426738262177,-0.003248312510550022,0.0017041428945958614,-0.0009345625876449049,0.016506189480423927,-0.005234407261013985,0.00792099628597498,0.008787908591330051,0.0030221999622881413,0.0023260365705937147,0.00753106689080596,-0.0023068382870405912,0.0017016881611198187,-0.010545749217271805,0.004794605076313019,2.1456158719956875e-05,0.0030644189100712538,-0.010781765915453434,-0.0084147984161973,0.005732025019824505,-0.0015627224929630756,0.00955002661794424,-0.009234437718987465,-0.00450754351913929,-0.017405126243829727,-0.005655580200254917,0.0010350750526413321,-0.0022125181276351213,-0.008165353909134865,0.01086595468223095,0.0057633137330412865,0.004338464699685574,0.0075017428025603294,0.0005325850797817111,0.012501371093094349,0.0027460665442049503,-0.010185221210122108,-0.003989994991570711,0.0032972886692732573,-0.0135289765894413
气候,-0.001857793191447854,0.0024843548890203238,0.00568817462772131,-0.0032752295956015587,-0.007411496713757515,-0.003201452549546957,0.0016729417257010937,0.004463871940970421,-0.0056917411275208,0.0033294230233877897,-0.004455577582120895,0.003287939354777336,-0.005806715227663517,-0.009309081360697746,-0.0033355483319610357,-0.005758755374699831,0.008355925790965557,0.0013944355305284262,-0.005239867139607668,-0.0007959725335240364,0.004968673922121525,0.004074634984135628,0.002309078350663185,0.009109938517212868,0.006235659122467041,0.004554372746497393,0.011084936559200287,0.0064161731861531734,-0.004614633042365313,0.005444074980914593,0.0014171598013490438,-0.004617359954863787,-0.004631492309272289,-0.011422107927501202,-0.00378414592705667,-0.005713265389204025,-0.009593636728823185,-0.0032030704896897078,-0.0005413779290392995,0.0022412012331187725,-0.007249605376273394,0.0014833994209766388,0.0029129721224308014,-0.00034474924905225635,-0.0003349136095494032,0.004330126103013754,-0.002038524951785803,0.0016546029364690185,-0.0011772424913942814,0.002764476928859949,0.010826922953128815,0.010829444974660873,-0.004807109013199806,-0.006895892322063446,-0.002378768753260374,0.000949045002926141,-0.0002705063670873642,0.0018033585511147976,0.0017347184475511312,-0.0004125309642404318
树,-0.008764403872191906,0.011145053431391716,0.005428655073046684,0.0023285080678761005,-0.004019390791654587,6.146845407783985e-06,-0.005509414244443178,0.004323172848671675,-0.00966197531670332,0.0005927523598074913,0.007020622491836548,0.0027021034620702267,0.0019737808033823967,0.0064257108606398106,0.003960622474551201,-0.003454077523201704,0.0015159412287175655,0.0010833225678652525,0.01370624266564846,-0.004347934387624264,0.011931628920137882,-0.0077732279896736145,-0.003256558906286955,0.013679562136530876,-0.006585071329027414,0.014093566685914993,-0.0023019416257739067,0.0003521684557199478,0.0006809250917285681,0.010081051848828793,0.0019241911359131336,-0.012688854709267616,0.007844163104891777,-0.008763547986745834,-0.002238770015537739,-0.015138220973312855,0.0006514843553304672,-0.004105128347873688,-0.0013853381387889385,-0.002093237591907382,0.0033774562180042267,0.0030519049614667892,-0.002851329743862152,-0.002924898872151971,-0.00030154897831380367,0.0022984235547482967,-0.004279373213648796,0.00154391722753644,0.006023460999131203,-0.007241855375468731,0.010511713102459908,-0.0011562779545783997,0.0003084735944867134,0.008763819932937622,0.002579664345830679,0.014499835669994354,-0.0015737952198833227,-0.010733618400990963,-0.0059582749381661415,0.005766509100794792
做恶,0.008326834067702293,-0.009162715636193752,-0.0016273553483188152,0.004894718062132597,0.006900855340063572,0.0001262575387954712,-0.0032780522014945745,-0.007076038047671318,-0.005363159812986851,-0.0031910028774291277,0.005440951324999332,0.004671521484851837,-0.009447227232158184,-0.0009684148244559765,0.0004915264435112476,-0.004221746232360601,0.0014123539440333843,-0.010036103427410126,-0.003231524024158716,0.004984838422387838,0.007448344491422176,0.005180214531719685,-0.0024451804347336292,-0.0004171640903223306,0.001188286580145359,-0.008655068464577198,0.004168601240962744,0.0019514479208737612,-0.008579778485000134,0.0028223670087754726,0.0054139140993356705,0.0011806818656623363,-0.0051827868446707726,0.0004120131488889456,0.0019549019634723663,-0.00014031640603207052,0.00168523914180696,0.0028749348130077124,0.0012284519616514444,0.00442967563867569,-0.006278714630752802,0.009638477116823196,-0.007061683107167482,-0.0032729371450841427,0.001429494470357895,-0.003766256384551525,-0.002783551812171936,0.0008789254352450371,-0.0013446430675685406,-0.0012452502269297838,0.0028229691088199615,0.010315840132534504,0.0027895986568182707,-0.0020801757927984,-0.006070428993552923,0.00222441041842103,-0.0013860506005585194,0.008517795242369175,0.008704724721610546,0.009130152873694897
法律,0.00407280120998621,-0.002229429082944989,0.008876418694853783,0.0013966888654977083,0.004018386825919151,-0.0017529986798763275,0.001109606702812016,0.0007333614048548043,-0.007997751235961914,-0.00852212030440569,0.0032033065799623728,0.005414540879428387,0.011032174341380596,-0.005498113110661507,-0.006513458676636219,0.0013314996613189578,0.009041648358106613,-0.00760231027379632,0.0015753263141959906,1.73286534845829e-05,-0.0012712632305920124,-0.004119755234569311,0.005347841419279575,0.0008701112819835544,0.004711487330496311,-0.006144643295556307,0.0017457886133342981,0.005684434901922941,-0.0003992565907537937,0.005934190936386585,-0.0056673698127269745,-0.0014857897767797112,0.004864304326474667,0.0018495605327188969,0.004969156812876463,-0.0014497899683192372,-0.0032028548885136843,-0.00834027212113142,0.00028144847601652145,0.002130150329321623,-0.004634023644030094,-8.880556561052799e-05,-0.01388702541589737,0.0012873872183263302,0.003003450809046626,-0.0038443077355623245,-0.0013207759475335479,-0.0015695306938141584,-0.0038277453277260065,-0.0015190830454230309,0.0025253500789403915,-0.0024678015615791082,-0.008056702092289925,0.003222599159926176,0.008595608174800873,-0.009770626202225685,0.0024212924763560295,-0.012406866066157818,0.001638338202610612,-0.0011770809069275856
议程,0.0065980227664113045,-0.0008519511320628226,-0.004284737631678581,-0.004807488061487675,-0.0014952754136174917,-0.0041258675046265125,0.002076011383906007,0.00351025746203959,-0.0015090180095285177,0.0014190059155225754,-0.001221219077706337,-0.0021890655625611544,0.001719732885248959,-0.00233630184084177,0.007485003210604191,0.005493907257914543,0.0010702726431190968,-0.007040262222290039,-0.0011110103223472834,-0.0063145896419882774,0.0036340439692139626,0.00046024800394661725,0.0070088207721710205,-0.0036530878860503435,-0.0032836361788213253,-0.012349152937531471,0.0014528569299727678,0.0015910230576992035,-0.007404361851513386,0.005705677904188633,0.005215802229940891,0.006845392286777496,0.0007659366820007563,-0.002447092207148671,0.001931499456986785,0.005769037641584873,0.001424295362085104,0.008587080985307693,-0.004448755644261837,0.009344322606921196,-0.0012602235656231642,-0.004026330076158047,0.003081228584051132,-0.003467703703790903,-0.003784284694120288,0.004733920097351074,-0.0021121278405189514,0.0026184716261923313,0.00036815786734223366,-0.0005900332471355796,-0.003974955528974533,-0.003130653640255332,0.004534010775387287,-0.003413247410207987,0.0062008933164179325,0.0019877576269209385,-0.009053396061062813,0.00593048520386219,0.006669091060757637,-0.0018036834662780166
参加,-0.0006461551529355347,-0.0015684976242482662,0.002509156707674265,0.00928085669875145,0.003680580295622349,0.006552879698574543,-0.005779530853033066,0.009965765289962292,-0.006815700326114893,-0.003966102842241526,-0.004308153875172138,0.003293559653684497,0.015301108360290527,-0.0036135525442659855,0.009062767028808594,-0.0010736689437180758,0.014863360673189163,-0.0015288612339645624,0.002053591888397932,-0.001279041520319879,0.0040502361953258514,0.0008506089216098189,-0.007506405934691429,0.0018769048620015383,0.0064488546922802925,0.007993009872734547,-0.0033825747668743134,-0.00047472305595874786,0.005245043430477381,-3.5975128412246704e-05,0.00048710894770920277,-0.004839718341827393,-0.004596896003931761,-0.0012673947494477034,-0.004068863578140736,0.0010674772784113884,0.0014905756106600165,-0.0068961093202233315,-0.008410499431192875,0.004017207771539688,0.0002253553830087185,0.0015273916069418192,0.0038711780216544867,-0.006875952705740929,0.0060106744058430195,-0.005921080708503723,0.0077573866583406925,-0.0005940827541053295,-0.005339447408914566,0.005193718709051609,-0.0017141264397650957,-0.008834423497319221,-0.004492652136832476,0.00202831719070673,-0.00779549079015851,-0.00462347362190485,-0.0009613321162760258,-0.013626269064843655,0.0035916538909077644,-0.0047324360348284245
压力,0.006612158380448818,1.39651820063591e-06,0.00695048738270998,-0.0044947657734155655,-0.002598893130198121,-0.002064930507913232,0.008798970840871334,0.002040378749370575,0.002830303506925702,-0.0017626566113904119,-0.0003921245224773884,-0.006282519549131393,-0.0037372864317148924,-0.004239566624164581,0.0036474873777478933,-0.004806743003427982,0.0031701065599918365,0.004680152051150799,0.0011437245411798358,-0.010336363688111305,-0.006279475521296263,0.008901338092982769,-0.00100962002761662,0.004126338288187981,-0.0015757856890559196,-0.0007692037615925074,-0.004221694078296423,0.008102430030703545,-0.010294178500771523,0.0006265030242502689,0.004670305177569389,-0.003318763105198741,0.003596507478505373,0.0022781682200729847,-0.007499437313526869,-0.007898478768765926,0.006173195317387581,0.007213636301457882,-0.001184239867143333,-0.004069389309734106,-0.007876712828874588,-0.004614767152816057,-0.003173843491822481,0.0008307581301778555,-0.0009277890203520656,0.003936879336833954,-0.004674863535910845,0.013111239299178123,-0.006253353785723448,-0.008369848132133484,0.0037746455054730177,-0.005126085132360458,0.0070188515819609165,0.005974064115434885,0.0022913566790521145,-0.002573704579845071,0.007045153994113207,-0.0015989132225513458,-0.0020503008272498846,0.005444994196295738
桥接,-0.0008118735859170556,0.0035977112129330635,0.0018873312510550022,0.0018785562133416533,0.005020870361477137,-0.0013895921874791384,0.0014728917740285397,-0.00040373357478529215,0.004847271367907524,-0.006761656608432531,0.00848315842449665,0.00865236483514309,0.0010678463149815798,-0.0013708060141652822,0.003395209088921547,-0.001947519602254033,-0.00306327105499804,-0.0026414613239467144,-0.0013418667949736118,-0.004338261671364307,-0.010560346767306328,0.006217345595359802,0.007773805409669876,0.0014458000659942627,0.0016411121468991041,-0.0023916764184832573,0.00994666013866663,-0.00044438301119953394,-0.00920451432466507,-0.0016257199458777905,-0.001938548288308084,-0.005170752294361591,-0.0022437316365540028,0.0012653196463361382,0.0013757082633674145,0.0016085286624729633,-0.008578258566558361,0.008856408298015594,-0.004573434125632048,-0.0024273351300507784,0.0029235000256448984,-0.0063653141260147095,0.0012741733808070421,0.00662868982180953,-0.0030253687873482704,0.0033103758469223976,0.0022180392406880856,0.002321326406672597,-0.0009673128370195627,0.00991613045334816,0.0017243733163923025,-0.003749452531337738,-0.0022065688390284777,0.007344490848481655,0.0001782086765160784,0.0028274604119360447,-0.0006405864842236042,0.0005852674366906285,-0.00890420563519001,-0.0042801848612725735
对此,-0.002665473148226738,0.0028637482319027185,0.005350210703909397,-0.0020849124994128942,-0.004540910944342613,-0.008177539333701134,0.009831661358475685,-0.008041219785809517,0.005539441481232643,-0.008645372465252876,0.0030094028916209936,-0.0031763878650963306,0.004330390132963657,0.0030459139961749315,0.0005906141013838351,0.009104523807764053,-0.006971957627683878,0.0010795111302286386,0.0002882961416617036,-0.003926468081772327,0.0007784769986756146,0.002443130360916257,0.009437539614737034,-0.0003706086426973343,0.008963930420577526,-0.010998484678566456,0.0015004542656242847,0.004426281433552504,-3.870809450745583e-06,-0.0007235065568238497,-0.0008097223471850157,0.004607618320733309,-0.0055880253203213215,-0.004275713115930557,-0.0020269055385142565,0.008055943064391613,-0.0003017634153366089,-0.01244373805820942,-0.003031972562894225,-0.005929658189415932,-0.00025658911908976734,-0.0021967641077935696,-0.00774538516998291,0.010291093029081821,0.004966717679053545,0.0034885131753981113,-0.000761308881919831,0.007775872480124235,-0.0023427598644047976,0.00730946846306324,0.0017119050025939941,0.004839563742280006,0.00712911831215024,0.0033777838107198477,0.0019963253289461136,0.0025525034870952368,-0.006819849833846092,0.0032626783940941095,0.0001740164589136839,0.000983687350526452
负责,0.0030118096619844437,0.003147355280816555,0.005037439055740833,0.0022034691646695137,0.0018546672072261572,0.007062547840178013,-0.002488901372998953,-0.004790014587342739,0.007705803494900465,0.0019335178658366203,0.004242647904902697,0.006250365637242794,0.006776671856641769,-0.0035848862025886774,0.008078551851212978,-0.0019462199416011572,-0.006550977937877178,0.0036487914621829987,0.001227519940584898,-0.004890396259725094,-0.004406904336065054,0.005181659013032913,-0.0008621898014098406,0.0034577299375087023,0.0027921535074710846,-0.007297949865460396,0.0001976039493456483,0.010808078572154045,0.004058194812387228,0.0032966677099466324,0.0016631593462079763,-0.002985084895044565,-0.006348170340061188,-0.007536586839705706,0.00015288940630853176,-0.004127936437726021,-0.004497286397963762,-0.0014388056006282568,-0.00036265235394239426,0.005177122540771961,0.007346713915467262,-0.0008857895736582577,-0.0011845456901937723,0.007031197659671307,0.005505653563886881,-0.008481232449412346,-0.0015664806123822927,0.0008843970135785639,-6.0727878008037806e-05,0.004354966338723898,-0.0071196043863892555,0.005126207135617733,-0.00038803962524980307,0.004168273881077766,0.003234391799196601,0.0018816409865394235,0.003380308160558343,-0.006653693970292807,0.007332603447139263,-0.000629425747320056
收割,-0.0032474794425070286,0.0026613918598741293,0.007867002859711647,-0.0006431543733924627,0.009351130574941635,-0.0026512127369642258,0.0008552178042009473,0.0012742772232741117,-0.007611915003508329,0.0025885740760713816,0.0012220425996929407,-0.0026227307971566916,-0.001488657551817596,-0.001951563754118979,-0.0033204329665750265,-0.001454098615795374,-0.003728431649506092,-0.0042492118664085865,0.002516187261790037,0.003953221254050732,0.010124067775905132,-0.002483374672010541,-0.0006814226508140564,0.004885219503194094,-0.008484628982841969,0.006422227714210749,-0.008165865205228329,-0.003918821923434734,0.001148073235526681,-0.0038573078345507383,-0.009068893268704414,-0.006897777318954468,0.005538374651223421,-0.0009441012516617775,-0.00199119932949543,-0.0024893188383430243,-0.005641460418701172,0.0037428131327033043,-0.008738350123167038,-0.010915776714682579,0.007894251495599747,-0.0018832872156053782,0.002386127132922411,-0.004413418471813202,-0.006765380967408419,0.005922875367105007,-0.0026472867466509342,0.006966643966734409,-0.005217414349317551,0.004281952045857906,-0.0082402927801013,0.005122666712850332,-0.005368129350244999,-0.010194667614996433,-0.0016263213474303484,-0.0013620916288346052,0.0019614838529378176,-0.004094259813427925,-0.0029190515633672476,0.002138453768566251
提示,0.006259739398956299,0.008880618959665298,0.011583827435970306,0.006564728915691376,0.0012170742265880108,-0.0005702389171347022,-0.0064176712185144424,-0.005797933787107468,-0.0035246596671640873,-0.0011883184779435396,-0.006649726070463657,0.0020110472105443478,0.0040505146607756615,0.0013792833779007196,-0.013052982278168201,-0.00273702060803771,0.00822918675839901,0.0017968281172215939,0.005663510411977768,0.0009116949513554573,0.0036426337901502848,0.0010721448343247175,-0.009106876328587532,0.0042168451473116875,0.010391855612397194,-0.00353972427546978,0.00026833685114979744,-0.0031610236037522554,-0.00301358406431973,-0.0047322968021035194,0.0024051787331700325,-0.008321131579577923,0.0025850192178040743,-0.0049156141467392445,-0.005104781128466129,9.469548240303993e-05,-0.000944637693464756,-0.005126382224261761,-0.0063581219874322414,0.0008672515396028757,0.0046117352321743965,0.0006609112024307251,0.003096104133874178,-0.0027275141328573227,-0.0033901333808898926,-0.005270188674330711,-0.00329753290861845,-0.0023491689935326576,0.0006660702056251466,0.0020509385503828526,-0.0025924169458448887,-0.007150057703256607,-0.0022942807991057634,-0.006753427442163229,0.005446002818644047,0.004636131227016449,0.0026810774579644203,-0.005396491847932339,0.007815815508365631,-0.000204835319891572
杂志,-0.005846613552421331,-0.0019996953196823597,-0.0006539523601531982,0.0005228067748248577,-0.00041994417551904917,0.004553512670099735,0.006008210591971874,-0.0002183225005865097,0.0018801927799358964,0.004325300455093384,-0.0011132510844618082,-0.0022201603278517723,0.002479433547705412,-0.005518331192433834,0.0026804772205650806,-0.0071316128596663475,-0.004896263591945171,-0.0023306733928620815,0.0005728193209506571,-0.008387971669435501,-0.0007816602010279894,-0.00714782252907753,0.003958041779696941,0.0029100715182721615,-0.003536038566380739,0.006841878406703472,-0.0006873289821669459,0.0010786228813230991,0.002697254763916135,0.001392696751281619,0.004000066313892603,0.00021254923194646835,-0.0023207557387650013,0.006379213184118271,0.003464106936007738,-0.002006499096751213,0.0021071855444461107,-0.0013559369836002588,-0.0029387499671429396,-0.006717563606798649,0.0018427780596539378,0.009233314543962479,-0.0040603806264698505,-0.007675494067370892,-0.005005147773772478,-0.010377563536167145,-0.009630830958485603,0.0023131119087338448,-0.0035507027059793472,0.004577654413878918,0.0012068459764122963,-0.000807061092928052,0.004109601024538279,0.007295229472219944,0.001539305318146944,0.002333414973691106,0.0009030395303852856,-0.0037042356561869383,-0.0020392241422086954,-0.00818062387406826
政治家,0.0034081744961440563,-0.00134999118745327,0.0009441985166631639,-0.0012957010185346007,-0.0012688805582001805,-0.006592110265046358,0.0042633553966879845,0.0036931310314685106,0.0015607357490807772,0.001327889272943139,-0.011449551209807396,-0.0028876697178930044,0.004053646232932806,3.272361573181115e-05,0.0014192789094522595,-0.0005702203488908708,0.005274507217109203,-0.0006489117513410747,0.0014106443850323558,-0.00833878107368946,0.0015752225881442428,-0.0009066175553016365,-0.0010757704731076956,0.003672365564852953,0.006065414287149906,-0.003213148796930909,-0.0007596933282911777,-0.005381119903177023,-0.0017486753640696406,-0.005983299110084772,0.0005548923509195447,0.0007736710831522942,0.002606445224955678,-0.0031997987534850836,-0.0027001185808330774,-0.006173464935272932,0.005728605203330517,-0.004798050969839096,-0.0005659306771121919,0.0023052538745105267,0.0014386071125045419,0.003351898631080985,0.005032505374401808,0.0002236652362626046,0.00024226613459177315,-0.0033213943243026733,0.00013602152466773987,0.0016332746017724276,0.0031209320295602083,0.004883339162915945,0.0030124045442789793,0.0001458779734093696,-0.0007487469119951129,0.0008243946358561516,-0.0042114551179111,0.007072082720696926,0.002772690961137414,0.00214692042209208,0.005426905583590269,-0.0014344908995553851
新,0.00244129728525877,0.002139176707714796,0.017951684072613716,-0.007131594233214855,-0.019009914249181747,-0.00710259098559618,-0.008859643712639809,-0.0005217777797952294,-0.010899440385401249,-0.020363884046673775,0.006203765980899334,0.0024875295348465443,0.05513416603207588,-0.010688597336411476,-0.015825163573026657,-0.00019102869555354118,0.006225575692951679,0.004924453794956207,-0.01371602900326252,-0.013712435029447079,0.012826051563024521,0.002200004644691944,-0.004909686278551817,0.009428663179278374,0.03484978526830673,-0.021008146926760674,0.01675243116915226,0.018636517226696014,0.010103562846779823,-0.010090315714478493,0.02069738507270813,-0.016790200024843216,0.0017786070238798857,-0.011482619680464268,0.003164080437272787,-0.006539228372275829,0.008162138052284718,-0.025395458564162254,-0.0177613478153944,-0.0011782232904806733,0.011204740963876247,0.008657274767756462,-0.012206368148326874,-0.012622924521565437,-0.022021371871232986,-0.0040740822441875935,-0.002169505227357149,-0.008839497342705727,-0.00345387845300138,0.027253219857811928,0.026462364941835403,-0.002000032924115658,-0.0025778310373425484,0.0014003231190145016,0.02619834430515766,0.019187837839126587,-0.023050641641020775,-0.021845344454050064,0.019501641392707825,-0.032783567905426025
亲人,0.0074768755584955215,-0.0003061441530007869,0.0018810199107974768,0.009334251284599304,0.005920641589909792,0.005724692717194557,-0.010518438182771206,-0.003725531278178096,0.005000495817512274,-0.004788503982126713,-0.001738517195917666,0.0020924843847751617,-0.0014705031644552946,-0.004086953122168779,0.004481447860598564,-0.004340473562479019,-0.0010275758104398847,-0.005817246623337269,0.007518209517002106,0.002799356821924448,0.001613861182704568,0.0038234905805438757,0.004281853325664997,0.002076973207294941,0.0010290356585755944,-0.004112635739147663,0.006598469335585833,0.0029608369804918766,-0.0021306858398020267,-0.003254798473790288,-0.00563634280115366,-0.002023544628173113,0.002499416470527649,-0.001337741152383387,-0.003392317797988653,0.0029167518950998783,-0.0035951153840869665,-0.003919028211385012,0.0022082598879933357,-0.005981180816888809,0.0026806641835719347,0.00517232296988368,-0.0057149287313222885,-0.008759219199419022,-0.00328585272654891,-0.002098803874105215,-0.00281436275690794,0.0020775776356458664,0.004571057390421629,0.002802281640470028,0.007678180001676083,-0.0009490968659520149,0.0032627377659082413,-0.006064506713300943,-0.004138709511607885,0.005893730092793703,0.001508369343355298,-0.003313884139060974,-0.003303759964182973,-0.0032746349461376667
跨国,0.007491790223866701,0.006966575980186462,0.004854788072407246,0.0026855943724513054,-5.8816513046622276e-05,-0.0012309289304539561,-0.0030836001969873905,-0.0030018379911780357,-0.004898858722299337,-0.0008442213293164968,-0.011727549135684967,0.007805631961673498,0.0032483870163559914,-0.0009255835320800543,0.003602240001782775,-0.007622972130775452,0.006283356808125973,0.0052347746677696705,-0.007808687165379524,0.004552420228719711,-0.002992554334923625,0.0020164025481790304,-0.004219084046781063,0.008508546277880669,-0.0018776184879243374,0.0032481348607689142,-0.003729218617081642,-0.004067256115376949,-0.002269977703690529,-0.008867972530424595,0.005067367106676102,-0.0028900448232889175,-0.003147184383124113,0.0010401392355561256,-0.0029178480617702007,-0.007296587340533733,-0.00012901402078568935,0.004147030878812075,-0.004748254548758268,0.008968597277998924,0.0017202622257173061,0.0013728763442486525,0.003514255629852414,-0.0009525339701212943,0.0020464349072426558,-0.0048218946903944016,-0.0020129645708948374,0.001926930621266365,0.0021773187909275293,0.006116713397204876,0.007205623667687178,0.001349227735772729,-0.0012905099429190159,0.000725502846762538,0.0026699805166572332,-0.0025429215747863054,-0.00045534432865679264,-0.0014646230265498161,0.0009000992286019027,0.0036952209193259478
很,0.013396204449236393,0.0035634550731629133,0.014806123450398445,-0.002269716700538993,-0.011267274618148804,-0.010957126505672932,-0.006395141594111919,0.023549944162368774,-0.021106159314513206,-0.013666514307260513,-7.196114165708423e-05,-0.008372964337468147,0.049205973744392395,0.0024845791049301624,-0.00974420178681612,-0.00040575480670668185,0.026874912902712822,0.003343422431498766,0.0009604720398783684,-0.023835208266973495,0.012717241421341896,-0.006356413476169109,0.006865324452519417,0.00026114669162780046,0.02009253390133381,-0.018812008202075958,0.002660451689735055,0.009140610694885254,0.00035394623409956694,0.000434857327491045,0.023357175290584564,-0.009017614647746086,0.0071641672402620316,0.0030359404627233744,-0.010441823862493038,0.01415416318923235,-0.0034279944375157356,-0.032827142626047134,-0.019506223499774933,0.010080193169414997,0.013663891702890396,0.00551600381731987,-0.0024437778629362583,-0.009022110141813755,-0.02168859913945198,-0.009532651863992214,-0.0043661026284098625,0.0018922598101198673,-0.013173781335353851,0.027642114087939262,0.028798095881938934,0.007557446137070656,-0.01581878587603569,-0.002085593994706869,0.027979236096143723,0.003452649340033531,-0.01358570996671915,-0.03288770467042923,0.019391532987356186,-0.028255442157387733
手,0.00425508338958025,0.011357712559401989,0.01633087918162346,0.0018742817919701338,0.0022703998256474733,-0.00042868382297456264,-0.011025679297745228,-0.0033051150385290384,-0.010425351560115814,-0.011312713846564293,-0.002631504787132144,0.007031395565718412,0.010121723636984825,-0.0017654024995863438,-0.0012616124004125595,0.0011346900137141347,-0.011927222833037376,0.0068907723762094975,0.0029006428085267544,-0.013678189367055893,-0.008332284167408943,0.008274422027170658,0.007393163628876209,0.001398709136992693,0.00552394287660718,-0.007459411863237619,-0.0017795111052691936,0.0020338203758001328,0.001051812432706356,0.003967280499637127,-0.0034461342729628086,-0.006235997658222914,-0.006882469169795513,-0.013206135481595993,-0.0035665309987962246,-0.0026961667463183403,-0.0017060845857486129,-0.002532548736780882,-0.005180141888558865,-0.012489957734942436,-0.004281698726117611,0.004003405105322599,-0.008799660950899124,-0.0057719312608242035,0.009153459221124649,-0.0064716823399066925,-0.008941753767430782,-0.008452319540083408,-6.689759902656078e-05,0.001384358387440443,0.003335746005177498,0.009933833964169025,0.003492244053632021,0.005714561324566603,0.014051752164959908,-0.001992354402318597,0.004341393709182739,-0.006328682880848646,0.010523833334445953,0.00498326076194644
内,0.014271346852183342,0.006246798671782017,0.015316708013415337,-0.0033032377250492573,-0.006275807972997427,-0.0012536977883428335,0.005694395396858454,0.003829107154160738,-0.007208496332168579,-0.0072968038730323315,0.00249664718285203,0.00252928608097136,0.007142494432628155,0.005490518175065517,0.007407571189105511,0.001604514429345727,0.010094639845192432,-0.005388597026467323,-0.0014754929579794407,-0.005050675477832556,0.0012086976785212755,-0.003152199788019061,-0.009674307890236378,-0.004762514028698206,0.017725955694913864,-0.016565421596169472,0.011587811633944511,-0.005755635444074869,0.0016856864094734192,0.004243423230946064,-0.006086091045290232,0.0007020387565717101,-0.014428247697651386,-0.003918273840099573,0.011955497786402702,0.0023922959808260202,-0.00022760964930057526,-0.014701243489980698,-0.007716658525168896,-0.00786803849041462,-0.004085967782884836,0.011962798424065113,-0.006069781258702278,-0.000689768057782203,-0.01994898170232773,0.006834828294813633,-0.00042403629049658775,0.006880408152937889,0.0013518193736672401,-0.0038959768135100603,0.006486576050519943,-0.0092829130589962,-0.012888651341199875,-0.0018007135950028896,0.008220533840358257,0.009309043176472187,0.00974003504961729,-0.009637066163122654,0.005429049022495747,0.002397261094301939
界面,0.00044435542076826096,-0.0003717998042702675,0.008135746233165264,-0.0018995736027136445,-0.0017788494005799294,-0.00340020633302629,-0.009211106225848198,0.004507929086685181,0.003845870727673173,0.0033651788253337145,-0.010504932142794132,-0.004201748874038458,0.004607179202139378,-0.008078180253505707,0.008288677781820297,-0.0021976062562316656,0.005519638769328594,-0.0036772722378373146,0.008879419416189194,0.0015548819210380316,-0.003068824065849185,-0.0018889872590079904,-0.001170384930446744,0.002571729477494955,0.003019121242687106,0.004960932303220034,-0.003049113554880023,0.010097808204591274,-0.005860715173184872,-0.006936851888895035,0.008846979588270187,-0.0009673798340372741,0.001975469058379531,-0.00520438002422452,0.004785262513905764,0.012137831188738346,-6.045680493116379e-05,9.102909825742245e-05,-0.0068167708814144135,0.0023133959621191025,0.001143186935223639,-0.00016602571122348309,0.0019537303596735,0.0022765398025512695,-0.002357190940529108,-0.0011439116206020117,-0.005503316875547171,-0.006279929541051388,-0.0036142985336482525,-0.005076993722468615,0.005840731784701347,0.00230392930097878,-0.0032724300399422646,-0.009713426232337952,0.0067176176235079765,0.0049859704449772835,-0.004990940447896719,-0.004990908317267895,-0.007093421183526516,0.001191006856970489
将,0.001829148968681693,0.007625045254826546,0.04372137412428856,0.012168319895863533,-0.0038766576908528805,-0.016154468059539795,-0.002275537233799696,0.025424456223845482,-0.020683620125055313,-0.015758421272039413,-0.0015024130698293447,0.0036352090537548065,0.061484187841415405,-0.025307491421699524,0.0008409779984503984,-0.006256623659282923,0.00666393805295229,0.0011938815005123615,0.0037813247181475163,-0.02377517707645893,0.017483767122030258,-0.015593763440847397,-0.010264246724545956,0.025703895837068558,0.028552431613206863,-0.021632537245750427,0.0017527416348457336,0.0203130841255188,0.024435166269540787,-0.002396016614511609,0.02861182764172554,0.000606540241278708,-0.005936167668551207,-0.008106384426355362,-0.00950906053185463,-0.011683622375130653,-0.0024894888047128916,-0.04865752160549164,-0.023678887635469437,0.002061111619696021,0.012900506146252155,0.006876013241708279,-0.014824450016021729,-0.007946483790874481,-0.028598487377166748,-0.011872497387230396,0.000651827547699213,0.009662036783993244,-0.0063370331190526485,0.029256410896778107,0.03035631775856018,-0.0012320969253778458,-0.012516659684479237,0.013176205568015575,0.029319003224372864,0.01265088003128767,-0.012217550538480282,-0.031694959849119186,0.012991106137633324,-0.046185802668333054
留下,-0.002728378865867853,0.004018441773951054,0.006646336521953344,0.0005546226166188717,-0.000878987368196249,-0.0047376262955367565,-0.0004390348040033132,0.012489724904298782,-0.002896735444664955,-0.00770157715305686,-0.009276807308197021,0.0032702512107789516,0.022087855264544487,-0.0024404621217399836,-0.0035998558159917593,-0.004196048714220524,0.005018227733671665,-0.0004479787312448025,0.0042340680956840515,-0.0017137654358521104,-0.004325313959270716,0.003212761366739869,0.004364038817584515,0.010810786858201027,0.004810813348740339,-0.011631162837147713,-0.002576034050434828,0.008083735592663288,0.006104514002799988,0.00631724065169692,0.009135302156209946,-0.004853430204093456,-0.0014545205049216747,0.000572193181142211,-0.004406294319778681,-0.0015910340007394552,0.005348019767552614,-0.018835600465536118,-0.002743676071986556,0.0033494774252176285,-0.0007065571844577789,0.007627872750163078,-0.0056711528450250626,0.007896078750491142,-0.01026952639222145,-0.0013160529779270291,0.0019547254778444767,-0.005791842937469482,0.002071860944852233,0.00013052183203399181,0.006710764020681381,-0.005120719783008099,-0.0021930879447609186,0.008010379038751125,0.003878707066178322,0.0017922441475093365,-0.002834237879142165,-0.00999261811375618,0.0026828176341950893,-0.010969811119139194
陆地,-0.0033083264715969563,0.007151121273636818,-0.0005831774324178696,-0.00608131242915988,9.595556184649467e-05,0.0015995558351278305,-0.0009442257578484714,0.0028379661962389946,0.00023264146875590086,-0.0026556027587503195,-0.005883675999939442,-0.0005598284769803286,-0.0008508324390277267,-0.005035061854869127,0.010036102496087551,0.005437758751213551,0.0012260128278285265,-0.0009006480686366558,-0.004475818946957588,-0.009394736029207706,0.003047588746994734,0.0004320885054767132,-0.003945135045796633,-0.002289009280502796,0.003409327007830143,0.003056246554479003,-0.0011997341644018888,-0.004359543323516846,0.0029976211953908205,0.005590538028627634,0.003159055719152093,0.0010345038026571274,-0.00010101054795086384,-0.0099486717954278,-0.005755002610385418,-0.004557082429528236,-0.004413260146975517,-0.004040581174194813,-0.0008237356087192893,-0.002374136820435524,-0.0069920760579407215,0.0009038196876645088,-0.0020019086077809334,-0.006740494631230831,-0.006296909414231777,-0.001080622780136764,0.004080470651388168,-0.003814757103100419,0.002134419744834304,0.008686276152729988,0.0013123869430273771,-0.010280674323439598,-0.005204053595662117,-0.0002880797255784273,-0.00017285160720348358,0.0008083402644842863,0.0026077113579958677,-0.007204800844192505,-0.003511702409014106,-0.006435276009142399
家人,-0.0027574896812438965,0.00525988545268774,0.0077389818616211414,-0.004528961144387722,-0.0070765637792646885,-0.007165731396526098,-0.008212615735828876,0.0024656597524881363,0.0023432420566678047,-0.0117836594581604,0.0032776421867311,-0.006946580484509468,0.007797121535986662,-0.009682719595730305,-0.003996618557721376,0.0020509501919150352,0.0015094003174453974,0.0027974664699286222,-0.006918034981936216,-0.00583590567111969,0.012254416942596436,-0.0030622559133917093,-0.0013447355013340712,0.0027435929514467716,-0.004715586546808481,-0.014718189835548401,0.004700828343629837,0.00789735559374094,0.005596607457846403,0.004626753274351358,0.008835775777697563,0.001262366073206067,0.005444066599011421,0.000584086577873677,-0.004796748980879784,-0.0017245432827621698,0.0013096854090690613,-0.007626452017575502,-0.008691048249602318,0.004083006642758846,0.00034062471240758896,0.004681714344769716,0.0019017052836716175,0.007975415326654911,-0.013438993133604527,0.0013681668788194656,-0.006025586277246475,0.007218030281364918,-0.008954355493187904,0.008665535598993301,0.01281830482184887,0.003038971684873104,-0.01115978043526411,0.00022626901045441628,0.003999985288828611,-0.0017065436113625765,-0.0010989129077643156,-0.01644035428762436,0.005556222051382065,-0.005706315860152245
厢式,-0.0008494043722748756,-0.004208622500300407,0.005835497751832008,0.0010058297775685787,-0.0002618099097162485,0.005501116625964642,-0.0019406971987336874,-0.004127069842070341,-0.0017354947049170732,0.001149034476839006,-0.007061741780489683,0.003833817085251212,0.010840958915650845,-0.007356082089245319,0.0036842827685177326,0.004425964318215847,-0.001662279712036252,-0.0037534008733928204,-0.0033672135323286057,-0.0048724692314863205,0.005730637814849615,-0.004593048244714737,0.011303134262561798,0.0014292954001575708,0.001847714651376009,-0.0016251541674137115,0.006886530201882124,0.0032407385297119617,0.0018601471092551947,-0.0026780811604112387,-0.007936045527458191,0.002086931373924017,-0.0028635291382670403,-0.0052761598490178585,0.000505310483276844,0.005486518610268831,-0.006863905116915703,-0.001135116908699274,0.001284525147639215,0.0014326001983135939,0.0023124609142541885,-0.0037326617166399956,0.001367271295748651,-0.0021492268424481153,-0.0025470289401710033,-0.004143063444644213,-0.005128007382154465,0.006510584149509668,0.0026206187903881073,0.007642053999006748,0.005884480196982622,-0.0004138450603932142,0.0035773138515651226,0.0004729118663817644,0.006848440505564213,0.0021345249842852354,0.002991646761074662,-0.0046644932590425014,0.005793567281216383,0.006319573149085045
市议会,0.0006694802432321012,-0.002659289864823222,-0.0018906944897025824,0.0005134817329235375,0.00024224098888225853,0.0016244346043094993,0.0027956936974078417,3.406405448913574e-05,0.0021465420722961426,-0.0053602769039571285,-0.0008362618391402066,-0.0006871895166113973,0.0015188625548034906,0.0013451005797833204,-0.0015432091895490885,-0.006566715892404318,0.0036794994957745075,0.002167114056646824,0.0013434125576168299,-0.004807908553630114,0.0035623249132186174,0.007394119631499052,-0.0014279825845733285,-0.004193263594061136,0.00043558169272728264,0.004594810307025909,-0.0029107348527759314,-0.006033346056938171,0.005679052323102951,0.006539161782711744,-0.000440507719758898,-0.000779702328145504,-0.0018978052539750934,-0.000983587116934359,-0.010156235657632351,0.0030064505990594625,-0.00042232131818309426,-0.000245176866883412,-0.0026863429229706526,0.006686544511467218,0.0027218058239668608,0.000413323228713125,-0.0007154167396947742,-0.00022246981097850949,0.0016443338245153427,0.0015645466046407819,-0.0019298187689855695,-0.0038390655536204576,-8.457772491965443e-05,0.0052376738749444485,-0.0034950156696140766,-0.0006515120039694011,-0.005153990816324949,0.00382014038041234,0.0009764021961018443,0.0036954230163246393,-0.0012960659805685282,-0.0005666899378411472,0.002519573550671339,-0.003403645008802414
加入,-0.0034785468596965075,0.011934601701796055,0.014205742627382278,0.0008215554989874363,-0.003102574497461319,-0.01605306565761566,0.012093443423509598,-0.006425810512155294,-0.0017734415596351027,-0.011990723200142384,0.0002658977173268795,-0.005438860040158033,0.01145761739462614,-0.0012928459327667952,-0.003186257090419531,-0.009146496653556824,0.0030891888309270144,0.0035700013395398855,-0.0018519421573728323,-0.007866926491260529,0.0033435693476349115,-0.003293906571343541,0.003462567925453186,0.007601842284202576,0.015446261502802372,-0.0036400873214006424,0.008444931358098984,0.00680167879909277,0.0145490113645792,-0.007801296189427376,0.009196706116199493,-0.0063890921883285046,-0.0007759006693959236,0.0018320202361792326,0.006641685031354427,0.0011513582430779934,0.012021135538816452,-0.019988663494586945,-0.0048323157243430614,0.0016881341580301523,0.001643959665670991,0.013187801465392113,-0.003510621376335621,0.005914220120757818,-0.008875152096152306,-0.013992438092827797,0.000857843435369432,0.0019938070327043533,0.0014950348995625973,0.014627816155552864,0.010239878669381142,-0.009876653552055359,-0.002137619536370039,0.0010763376485556364,0.014417152851819992,0.004979713819921017,-0.004733973182737827,-0.006197051610797644,0.0065146698616445065,-0.01830350048840046
人民,0.00364540028385818,-0.0037276390939950943,0.008462130092084408,0.008777350187301636,-0.008070763200521469,-0.0011129294289276004,-0.004229781683534384,-0.0023138972464948893,-0.005564302671700716,-0.009966674260795116,-0.004525350406765938,0.000913366093300283,0.009517916478216648,-0.005651184357702732,-0.0038530072197318077,-0.008330966345965862,0.0005226914072409272,-0.0031389929354190826,-0.0008103311411105096,-0.013562122359871864,0.0007880912162363529,0.004481659270823002,-0.004613526631146669,-0.0006154222646728158,0.00517149455845356,-0.0038873949088156223,-0.002771470695734024,-0.001734088989906013,0.002211859216913581,-0.00901892688125372,0.0045767975971102715,0.0010290313512086868,0.008196891285479069,-0.0053926436230540276,-0.002270421013236046,-0.0038630040362477303,-0.000880564795807004,-0.009078369475901127,-0.006404032930731773,0.007525741588324308,0.0017976830713450909,-0.0025055520236492157,0.005665291100740433,0.005086795426905155,-0.014508247375488281,-0.004269929137080908,-0.000737668655347079,-0.0020309286192059517,-0.0067834556102752686,0.007784106768667698,0.008183054625988007,-0.0013515930622816086,0.0011906013824045658,0.004463214427232742,0.0032314308919012547,0.002104980405420065,-0.0035309945233166218,-0.0033643569331616163,0.0060742818750441074,-0.010427214205265045
农业,0.0002157867420464754,-0.005093581974506378,0.002028737450018525,0.0001485354732722044,-0.005223521497100592,0.0018015732057392597,-0.002571378368884325,-0.0015932326205074787,0.0027965123299509287,0.007598870433866978,0.001691715675406158,-0.001624925760552287,-0.000545113580301404,-0.00899236649274826,-0.0057526552118361,0.0031942680943757296,0.003877402050420642,-0.0033681096974760294,0.003595837391912937,0.005843315273523331,0.011035460978746414,-0.007335597649216652,0.0004755808040499687,0.003496132791042328,0.006154158152639866,-4.7258741687983274e-05,0.0019326917827129364,0.002494107699021697,0.00991832185536623,0.00503050722181797,-0.0030151759274303913,0.0029431527946144342,-0.005376966670155525,0.004739399999380112,0.007151670288294554,0.0009009672794491053,0.0033582067117094994,0.001419703010469675,0.0013098292984068394,-0.0019326223991811275,0.003434073878452182,0.0007536250632256269,0.004192708060145378,-0.002135471673682332,-0.003163868561387062,-0.0076629784889519215,0.0011088903993368149,0.003830425441265106,-0.004779833368957043,0.004688620567321777,-0.0040822504088282585,0.0031724770087748766,-0.011309446766972542,-0.0014679478481411934,0.007357940077781677,-0.0027278882917016745,-0.0016726781614124775,-0.005618422757834196,-0.0028538615442812443,0.0038173827342689037
死亡,-0.004173167049884796,-0.00018930615624412894,0.012601053342223167,0.008481503464281559,-0.004727911204099655,-0.005827154498547316,0.005948234349489212,0.0015705717960372567,-0.005176047794520855,-0.002971635665744543,0.00690103555098176,-0.0011038666125386953,0.009733901359140873,-0.0010255416855216026,-0.007829127833247185,-0.006983079016208649,0.006537016946822405,-0.004293136298656464,-0.005255579017102718,-0.001424109097570181,0.008952912874519825,0.0021392079070210457,-0.004350098315626383,0.009724268689751625,0.0031925304792821407,-0.0042569320648908615,-0.0011939627584069967,0.008196905255317688,0.0073752636089921,-0.0038543138653039932,0.012166979722678661,5.717106978408992e-05,0.0020599497947841883,-0.0065677533857524395,0.003052166197448969,-0.010589072480797768,0.0026497328653931618,-0.002470383420586586,-0.005148082971572876,0.0026762732304632664,0.0050492603331804276,-3.2603275030851364e-05,-0.002316969446837902,-0.00033881631679832935,-0.00904013216495514,0.003878231393173337,-0.006964830216020346,0.002529651392251253,-0.0059831938706338406,0.01273222267627716,0.0066132135689258575,0.008590579964220524,0.0030673451256006956,0.011454164981842041,0.0023731025867164135,0.010694030672311783,-0.007607016712427139,-0.010479778982698917,0.0005005981656722724,-0.012014873325824738
约,-0.0005567260086536407,-0.004599893465638161,0.0016777515411376953,0.005510757211595774,0.0023145326413214207,0.0010706130415201187,0.006850250996649265,0.002869614167138934,0.000719365430995822,-0.0008116704411804676,0.0015522907488048077,0.008828267455101013,0.005143594928085804,-0.0010594241321086884,0.0024725040420889854,-0.00030506792245432734,-0.0077547961845994,-0.0005777882179245353,-0.002436243463307619,-0.0027912852820008993,-0.007094569969922304,-0.005662386305630207,-0.00813409686088562,0.013654462993144989,0.013692200183868408,-0.008964693173766136,-0.0008716154843568802,-0.004526117350906134,0.005732289515435696,0.0040205130353569984,0.005926718935370445,0.0022749891504645348,-0.013278866186738014,-0.0006975859869271517,-0.0016238372772932053,0.0004324287874624133,0.00038413284346461296,0.0033635988365858793,-0.01772843860089779,-0.005749835632741451,0.0068580578081309795,0.008385168388485909,0.00287883379496634,0.0022321585565805435,-0.00201481394469738,0.00032644812017679214,-0.011281179264187813,-0.009181231260299683,0.0009199276100844145,-0.009006954729557037,-0.010349327698349953,-0.0023122867569327354,0.01429305411875248,0.0038081523962318897,0.006633584387600422,-0.009841210208833218,0.006219628266990185,0.005504212807863951,-0.000140500720590353,0.0030331751331686974
倾听,-0.004663984756916761,-0.0007646746234968305,0.001755167730152607,0.0015535434940829873,-0.0023017036728560925,0.005737810395658016,-0.007684527896344662,-0.001952141523361206,-0.005012325942516327,-0.0033793996553868055,0.0034964964725077152,-0.0030251280404627323,0.002637940924614668,0.0020684185437858105,0.0013465123483911157,-0.002492978237569332,0.0037795931566506624,0.008537493646144867,0.0007815754506736994,0.0029905701521784067,0.003550327615812421,0.0033220630139112473,0.0033189996611326933,-0.001713593490421772,-0.004738377407193184,-0.0054395804181694984,-0.008117182180285454,0.012406205758452415,-0.003865377278998494,-0.002400255762040615,0.004120337776839733,-0.0034348531626164913,-0.005727177485823631,-0.0019678762182593346,-0.010579734109342098,0.002670052694156766,-0.005058668088167906,-0.0070818569511175156,-0.0033342591486871243,0.0021927333436906338,-0.0034742325078696012,0.009459554217755795,0.0036941799335181713,-6.712621689075604e-05,0.006492608226835728,0.006400495767593384,0.000767327263019979,0.0032168312463909388,-0.0010963687673211098,0.0009001062717288733,0.00588229950517416,-0.0027760956436395645,-0.002786923898383975,-0.0036803409457206726,0.008555957116186619,0.0015222823712974787,0.009238660335540771,-0.0014841624069958925,0.0034094559960067272,0.0013165201526135206
例如,0.0024666455574333668,0.0016821781173348427,-6.212200969457626e-05,-0.003916637040674686,-0.004125564359128475,0.0028802575543522835,-0.004268275573849678,-0.0038873960729688406,-0.004989112727344036,-0.0032639321871101856,0.002701005432754755,-0.001967097632586956,0.010420488193631172,0.004252293612807989,-0.006406095810234547,-0.0006862494628876448,-0.0009250829461961985,-0.0028155006002634764,-0.004825008101761341,-0.006021049339324236,0.0026995493099093437,0.005938933230936527,0.0014845366822555661,0.004662088584154844,0.0020828426349908113,-0.007292202673852444,-0.0005998886190354824,0.005334913730621338,0.009246223606169224,-0.0035218182019889355,0.005658316891640425,-0.00271975202485919,-0.0034367756452411413,-0.003527822205796838,0.001370870741084218,-0.008093169890344143,0.0050403582863509655,-0.004214092623442411,-0.00394701212644577,0.002361748833209276,0.0038898426573723555,-0.0031313300132751465,-0.004764707293361425,-0.0005730146076530218,-0.009081359952688217,-0.008237859234213829,-0.0033051930367946625,-0.0022495961748063564,0.0008922149427235126,-0.005414266604930162,-0.0006554400315508246,0.00017189793288707733,-0.0035887903068214655,-0.005181966349482536,0.004314206540584564,-0.0052993809804320335,0.009676705114543438,-0.007663767784833908,0.0055850716307759285,-0.0014194068498909473
更,0.0064535122364759445,0.016795536503195763,0.02033749595284462,0.009390642866492271,-0.008608237840235233,-0.0017603031592443585,-0.0034149817656725645,-0.001748209004290402,-0.006219325587153435,-0.012795118615031242,-0.004159767646342516,0.010026216506958008,0.038363903760910034,-0.01441974937915802,0.006946910172700882,-0.003121946007013321,0.004033001139760017,0.007818014360964298,-0.006152211222797632,-0.026402117684483528,0.014502301812171936,-0.02054240182042122,0.0027441515121608973,0.019375696778297424,0.025756746530532837,-0.017714323475956917,0.009303450584411621,0.011971643194556236,0.01427664328366518,-0.008077438920736313,0.015322184190154076,-0.006940721999853849,-0.01635018363595009,0.0021268357522785664,-0.0038280526641756296,0.005323356948792934,0.006358509883284569,-0.030971620231866837,-0.014768395572900772,0.02337471954524517,0.0008910517208278179,0.026160065084695816,-0.008127464912831783,0.004557047504931688,-0.019672304391860962,-0.012942609377205372,-0.004762742202728987,0.014409182593226433,-0.000741105992347002,0.024266527965664864,0.026735838502645493,-0.011591371148824692,-0.006730555556714535,0.001148759387433529,0.03195705637335777,0.012516161426901817,-0.017076868563890457,-0.017571819946169853,0.017671842128038406,-0.035834625363349915
