word,0,1,2,3,4,5,6,7,8,9,10,11,12,13,14,15,16,17,18,19,20,21,22,23,24,25,26,27,28,29,30,31,32,33,34,35,36,37,38,39,40,41,42,43,44,45,46,47,48,49,50,51,52,53,54,55,56,57,58,59,60,61,62,63,64,65,66,67,68,69,70,71,72,73,74,75,76,77,78,79,80,81,82,83,84,85,86,87,88,89,90,91,92,93,94,95,96,97,98,99
跟随,-0.004530536010861397,0.004527927841991186,0.0016411935212090611,-0.0017726360820233822,-0.002289014868438244,-0.006608311552554369,0.001994506223127246,0.000893270829692483,-0.0005312182474881411,-0.003723079338669777,0.001796798431314528,-0.0065145064145326614,-0.0006517184665426612,0.0012067846255376935,-0.0019543233793228865,-0.0058049666695296764,-0.0006042574532330036,-0.0010623275302350521,0.0009914054535329342,-0.011620628647506237,6.739981472492218e-05,0.005979379639029503,-0.0010989538859575987,-0.0002096972893923521,-0.0002919988182839006,0.003261550096794963,-0.0036832040641456842,-0.001658826251514256,-0.0002107898471876979,0.0010054324520751834,-0.0031035132706165314,-0.004511632490903139,-0.00353622087277472,-0.000916782533749938,-0.0031224254053086042,0.004004158079624176,-0.0007793719414621592,-0.0017125224694609642,-0.006785405334085226,-0.003663000650703907,0.002664354629814625,-0.002259019063785672,0.0006470922380685806,-0.00702488562092185,-0.003576367162168026,-0.0037481733597815037,-0.00221649301238358,0.0038444222882390022,-0.0031738700345158577,-0.0001891996944323182,-0.0030582095496356487,-0.004946958273649216,-0.0022389234509319067,0.0018780655227601528,0.0031762844882905483,0.0037928703241050243,0.004116063937544823,0.0022975492756813765,-0.006140715442597866,-0.001772555522620678,0.0021925142500549555,-0.0004736414412036538,0.0015936060808598995,-0.0013405949575826526,-0.0017690651584416628,-0.0007465833332389593,0.005520236678421497,-0.003662101225927472,-0.004107262473553419,0.0023543010465800762,0.0006820927374064922,0.0023884987458586693,-0.0003271286259405315,-0.005652488209307194,-5.003961268812418e-05,0.0028276166412979364,0.005895654670894146,-0.000402035191655159,-0.005544703453779221,-0.0057181851007044315,0.0012287519639357924,-0.0024142132606357336,-0.00247408589348197,-0.000753697648178786,0.0049674613401293755,-0.0003363888245075941,0.0012528011575341225,0.0009103945922106504,0.002161792479455471,-0.003413064870983362,0.0019037325400859118,-0.00023408664856106043,0.0038434676826000214,0.007971679791808128,0.0054432302713394165,0.004643280059099197,0.004121334757655859,0.0008029893506318331,0.0027166749350726604,-0.0010429034009575844
退出,-0.002595186233520508,-0.00042298028711229563,0.001737325801514089,0.001613039057701826,-0.0027303805109113455,-0.007544097490608692,0.0009641029755584896,0.005915137007832527,-0.006171697285026312,-0.0008711149566806853,-0.004435100592672825,-0.004137308336794376,0.0020663293544203043,0.0026372475549578667,-0.0006183633813634515,-0.0016718610422685742,0.0024147657677531242,0.0004119311925023794,0.0023461899254471064,-0.001134522375650704,0.0030460506677627563,-0.007079797796905041,-1.9935425370931625e-05,-0.0017584809102118015,0.003983591683208942,-0.0017310574185103178,-0.0009389813058078289,0.0004290739307180047,0.005161143373697996,-0.005264336243271828,0.00035150282201357186,0.0047842590138316154,-0.00027865509036928415,-0.0003060541348531842,-0.002350062131881714,0.003947997000068426,0.0022448624949902296,-0.0048454804345965385,-0.00032132345950230956,-0.004303451627492905,0.0007329564541578293,-0.004593941383063793,0.0015755180502310395,0.0010827518999576569,-0.0011085716541856527,-0.0040915850549936295,-0.0022436953149735928,0.00018600316252559423,-0.0033029771875590086,0.002126058330759406,0.0044865417294204235,0.0010009821271523833,0.0018548178486526012,0.0018823283025994897,0.000277920626103878,0.00020713114645332098,0.0017097699455916882,0.0019750792998820543,-0.0005007490981370211,-0.00013298483099788427,-0.004344582557678223,-0.0047919838689267635,-0.005457352846860886,-0.003006116719916463,0.003591898363083601,-0.0036672065034508705,0.0017782384529709816,-0.0009849390480667353,-0.0021314076147973537,0.0010094776516780257,0.0018175591249018908,0.003357955254614353,0.0017248045187443495,-0.002042195526883006,-0.0007861055200919509,0.0008916754741221666,0.0020049740560352802,-0.0020671230740845203,-0.004129800479859114,-1.7849088180810213e-05,-0.002572827273979783,-0.0001474821474403143,-0.006285529118031263,0.008286848664283752,0.0010269933845847845,0.0014200747245922685,0.004152572713792324,-0.0007158077787607908,0.004430369008332491,-0.004410570953041315,-7.240457489388064e-05,-0.0025514152366667986,0.001815105671994388,0.002230987185612321,0.003983853384852409,0.002154839690774679,-0.0023388133849948645,0.000997999683022499,-0.0009174084407277405,-0.0009891167283058167
