word,0,1,2,3,4,5,6,7,8,9,10,11,12,13,14,15,16,17,18,19,20,21,22,23,24,25,26,27,28,29,30,31,32,33,34,35,36,37,38,39,40,41,42,43,44,45,46,47,48,49,50,51,52,53,54,55,56,57,58,59
更,0.006893410347402096,0.010489226318895817,0.004786436911672354,0.007664804812520742,-0.0010991431772708893,0.007175041828304529,-0.005844827275723219,-0.010838781483471394,0.0028353887610137463,8.429470472037792e-05,-0.0020934930071234703,0.011685864999890327,0.00822780467569828,-0.006755567155778408,0.010234198532998562,-0.0005497129168361425,-0.004345993977040052,0.005455676466226578,-0.005240056663751602,-0.00848877988755703,0.00976645853370428,-0.015726815909147263,0.004259736277163029,0.009793751873075962,0.009318348951637745,-0.008081321604549885,0.0052317166700959206,0.0034397575072944164,0.00374095537699759,-0.008448847569525242,0.0027076334226876497,-0.0008145651081576943,-0.0120064252987504,0.004738869145512581,-0.0007574355695396662,0.007856512442231178,0.003390262834727764,-0.011248905211687088,0.0002934481017291546,0.015524329617619514,0.0008415728807449341,0.01479827519506216,-0.0032443946693092585,0.007876317016780376,-0.007100214250385761,-0.006165217608213425,-0.001473742537200451,0.012372724711894989,0.0014734789729118347,0.0057777343317866325,0.008156110532581806,-0.011202065274119377,-0.00405680388212204,-0.0030681504867970943,0.017737897112965584,0.008452067151665688,-0.010863455012440681,0.001989739015698433,0.010286092758178711,-0.018670130521059036
社区,-0.002020987682044506,-0.0045509012416005135,-0.0100029855966568,-0.003383920295163989,0.009168495424091816,-0.003592791734263301,-0.00062533188611269,0.0007598174270242453,0.0059230816550552845,-0.005352029111236334,-0.0009436856489628553,0.007842711172997952,-0.001870607491582632,0.0049656149931252,-0.004748204723000526,0.008825786411762238,-0.0037744208239018917,-0.0016865795478224754,-0.002345910994336009,-0.007274642586708069,-0.00041261507431045175,0.0015296677593141794,0.002116716466844082,-0.0017206198535859585,0.001412946148775518,0.00215333909727633,0.007145135663449764,0.0006030991207808256,-0.00047303573228418827,0.009826735593378544,0.0022131132427603006,0.0021736922208219767,0.001012312714010477,0.005560815334320068,-0.005337211303412914,-0.006424490828067064,0.007067560218274593,-0.004155734553933144,-0.010266009718179703,0.0029920998495072126,-0.005892020650207996,0.0035707487259060144,-0.003058577887713909,0.0025784559547901154,-0.01067324634641409,-0.002640542108565569,0.002710060216486454,0.002971949987113476,0.00403911666944623,0.0025149118155241013,0.0033175775315612555,0.0007694356609135866,-0.006879706867039204,0.0010483614169061184,0.005303457845002413,0.008448522537946701,-0.004671908915042877,-0.0035987859591841698,-0.005560455843806267,-0.0027687842957675457
认为,-0.00035506999120116234,-0.0038036140613257885,0.007502532564103603,-0.0008883199188858271,0.0025460324250161648,-0.008368836715817451,0.005423442460596561,0.0017521125264465809,-0.004301163367927074,-0.005825608503073454,-0.0063226111233234406,0.0029292621184140444,0.005646886304020882,-0.003672948107123375,0.002935598138719797,0.003400885732844472,0.002734706038609147,-0.0026711332611739635,-0.0009163427166640759,-0.003180637490004301,0.00019335094839334488,-0.0023464320693165064,-0.005407879129052162,-0.002596256323158741,0.0042878128588199615,-0.00629400322213769,0.00795711949467659,0.005295647773891687,-0.0029331366531550884,0.009903527796268463,0.0048920763656497,-0.005036045331507921,-0.00034257560037076473,9.322701953351498e-05,-0.0006933690747246146,0.002538505010306835,0.008645018562674522,-0.0017807191470637918,-0.007175792008638382,-0.005809972994029522,-0.005956396460533142,-0.003428956028074026,0.0018182252533733845,0.00762976985424757,-0.005364931188523769,-0.005099138244986534,-0.002008114941418171,-0.004062469117343426,-0.0036873805802315474,-0.0018601896008476615,0.005197013728320599,0.004889543168246746,-0.004830092191696167,-0.003343057818710804,0.006484153680503368,-0.0034438506700098515,-0.008153282105922699,-0.005518991965800524,0.0007772353710606694,-0.0014430256560444832
经常,0.00442030793055892,-0.005972824525088072,-0.004776081070303917,0.00550597719848156,-0.0007046828977763653,-0.0031239313539117575,-0.003752966644242406,-0.0058568622916936874,0.0041156369261443615,0.010185249149799347,-0.003023033495992422,0.0002529905177652836,-0.005796459503471851,-0.006017194129526615,-0.0039050360210239887,-0.0010808940278366208,0.005951970349997282,0.00695739546790719,0.006687047425657511,-0.0055154068395495415,0.00047291466034948826,-0.0005558500997722149,0.0037119542248547077,0.0008441924583166838,0.005303632467985153,0.0010637713130563498,0.0007554227486252785,-0.006714667193591595,0.004728460684418678,0.007790505886077881,-0.007530692964792252,-0.0014622583985328674,0.0028484431095421314,-0.0028568156994879246,-0.012658732011914253,0.0030138944275677204,-0.00023559649707749486,0.0013115209294483066,-0.004760045558214188,0.0025769020430743694,-2.429611049592495e-05,-0.00841574463993311,0.004463682882487774,0.006841025315225124,-0.0016562053933739662,-0.0051907505840063095,0.0017402730882167816,0.0072035579942166805,-0.006576408166438341,0.0031038776505738497,0.002092466689646244,-0.0075407312251627445,0.0012911109952256083,0.003596229013055563,0.007005232386291027,-0.005350710824131966,-0.0029456727206707,-0.0009128034580498934,0.00906671304255724,0.0019091158173978329
屋顶,0.005421144887804985,-0.00013496028259396553,0.0005587129853665829,-0.007712709251791239,-0.0009317163494415581,0.0038228987250477076,0.002669003326445818,-0.004941719584167004,-0.0031804644968360662,-0.0023589616175740957,0.004558184649795294,-0.006317055784165859,-0.00045245670480653644,9.224796667695045e-05,-0.004142592661082745,0.0025442049372941256,0.0022203316912055016,-0.0008863890543580055,0.007685868069529533,-0.006481768563389778,0.004555285908281803,0.00043641767115332186,-0.009399117901921272,-0.0004036044701933861,-0.004229081328958273,0.0010025773663073778,8.923839777708054e-05,0.002797630149871111,-0.0011125336168333888,-0.0011370012070983648,-0.0038193631917238235,0.0031932080164551735,-0.008610734716057777,-0.0027796467766165733,-0.0015655318275094032,-0.0010734356474131346,-0.00693728681653738,0.0005378983914852142,-0.002092421520501375,-0.005825303494930267,-0.006798656657338142,0.003923493437469006,-0.0033234984148293734,-0.003258089069277048,0.009468507021665573,0.003596806898713112,0.0011021399404853582,-0.0005152396624907851,0.007757364306598902,-0.007053358014672995,0.005186946131289005,0.0011382554657757282,0.001012273132801056,0.002652272582054138,-0.0007167283329181373,-0.0019648948218673468,0.005103182513266802,-0.0031064795330166817,-0.004365076310932636,0.0021011242642998695
数量,-3.81093705072999e-05,0.0031551343854516745,-6.934942211955786e-05,0.0019278863910585642,-0.0027213345747441053,-0.0013382185716181993,-0.0005760124768130481,-0.00179242470767349,0.0031062031630426645,-0.009061380289494991,-0.007139720022678375,-0.0005176255945116282,0.005732646211981773,0.0009493029210716486,-0.003731601405888796,-0.0010067129041999578,-0.012813040055334568,0.0029112824704498053,-0.0031741680577397346,1.7194077372550964e-05,0.0009464970789849758,-0.0007884916849434376,-0.004163408651947975,-0.0014856980415061116,-0.0022578248754143715,0.002940356731414795,-0.001289683859795332,0.0001814282441046089,-0.0029473304748535156,-0.0014278811868280172,0.004962895531207323,-0.0005152719095349312,0.0015216770116239786,0.006985526531934738,-0.002725026337429881,0.004490185063332319,-0.008452270179986954,-0.002560209482908249,-0.002847034018486738,0.0006424635648727417,-0.006439674645662308,-0.005392869934439659,0.00278727849945426,0.002284795045852661,0.011611435562372208,0.001603611744940281,0.010979356244206429,0.007802479434758425,0.004120799712836742,0.0065063899382948875,0.0017807695548981428,0.0030444355215877295,0.0008518747636117041,-0.0010143262334167957,0.0019820304587483406,-0.005925517529249191,-0.007980307564139366,0.0011326710227876902,0.0019649143796414137,-0.0005445943679660559
游戏,0.002449477557092905,0.004294847138226032,0.0047790249809622765,0.004190787207335234,-0.0035300340969115496,-0.013006184250116348,-0.005625803954899311,0.003853273345157504,-0.00327680679038167,0.0013182961847633123,0.007875880226492882,-0.0035537921357899904,0.0032398628536611795,0.002941323909908533,0.0008090311894193292,-0.0005748881958425045,-0.003594243200495839,-0.0005633831606246531,0.002980981022119522,-0.0058544958010315895,0.0017801679205149412,-0.0009827313479036093,-0.0003962556947953999,0.000431009684689343,-0.0004871418932452798,0.00509725883603096,0.011253369972109795,0.002778693102300167,-0.00046025263145565987,0.007879280485212803,0.014902656897902489,-0.0007875985465943813,0.0036435541696846485,0.002057891571894288,-0.001714044250547886,-0.002025033812969923,-0.004928917158395052,-0.0019960475619882345,-0.0008034076308831573,-0.00017477816436439753,0.010676826350390911,-0.005018552299588919,0.006068845745176077,7.784180343151093e-05,-0.0016657072119414806,0.002195344539359212,0.00036670395638793707,0.002968674525618553,-0.0060817464254796505,0.007544219493865967,0.005534667056053877,0.006028469651937485,-0.009651217609643936,0.001688253367319703,-0.0014967051101848483,0.0011696168221533298,0.011351188644766808,-0.007371922489255667,-0.0077611468732357025,-0.001018487149849534
使用,-0.0013813679106533527,0.0034502886701375246,0.0024920112919062376,0.0025566823314875364,-0.0051841107197105885,-0.010131407529115677,0.005190299358218908,-0.000988393439911306,-0.007688624784350395,-0.009465929120779037,0.0022239580284804106,-0.003512254450470209,0.003389127319678664,-0.0037930274847894907,0.0023450395092368126,-0.003479293780401349,-0.0005156854167580605,-0.0034907329827547073,0.0011600536527112126,0.0009181314380839467,-0.0006534261628985405,-0.010502444580197334,-0.002235822146758437,-0.002114717150107026,0.016827840358018875,-0.00328508741222322,0.001950843259692192,-0.0014005175326019526,-0.0038959835655987263,0.005912192165851593,0.007809098809957504,-0.006287291180342436,0.0022822513710707426,0.010582421906292439,-0.0006980737671256065,0.004382657818496227,0.0016021572519093752,-0.004725113045424223,-0.007731953635811806,-0.003890141611918807,-0.00023153936490416527,0.010827361606061459,-0.00020852452144026756,-0.0029318283777683973,-0.004909882787615061,-0.0020405719988048077,0.0007517696358263493,0.006925925612449646,-0.00037515442818403244,-0.006139122880995274,0.002909658709540963,0.004550810903310776,0.002423154190182686,-7.83279538154602e-05,0.01636982336640358,0.0018028047634288669,0.0020889779552817345,-0.011767830699682236,0.002487344201654196,-0.003666334319859743
启动,-0.010981524363160133,0.003920943941920996,0.005194962956011295,-0.011480157263576984,0.0026595694944262505,-0.0008132752263918519,-0.007067753467708826,-0.0003740079700946808,-0.0035008660051971674,0.006280939094722271,-0.0023397014010697603,-0.001056503038853407,0.0026614833623170853,0.005947506055235863,0.009432753548026085,-0.004795914050191641,-0.002753997454419732,-0.00654913205653429,0.01013378519564867,-0.0014993739314377308,-0.005941199138760567,-0.006295389030128717,-0.004129837267100811,0.0028322646394371986,-0.005998027510941029,-0.00048782583326101303,-0.002606015419587493,-0.004553227685391903,0.004924909211695194,-0.000977701274678111,-0.005811960436403751,0.005822162143886089,-0.007081037387251854,-0.0007088967831805348,-0.004205593839287758,0.0025940160267055035,0.005424958653748035,-0.014724994078278542,-0.0025003328919410706,-0.001964573748409748,0.0018526947824284434,0.0005307363462634385,-0.0008420298690907657,0.005805967375636101,0.0025505688972771168,-0.007742840796709061,0.001451769843697548,0.0018004255834966898,-0.0009711377788335085,0.0013812733814120293,0.0009792211931198835,-0.002514950931072235,-0.005070962011814117,-5.804700776934624e-05,0.0012793620117008686,-0.0009693218162283301,0.0003816781099885702,-0.011753950268030167,-0.010021104477345943,-0.0023850644938647747
营销,-0.002655506832525134,-0.004324086010456085,-0.0005315972957760096,-0.005683921277523041,0.001333916443400085,-0.0063086338341236115,0.00868250336498022,-0.003466543974354863,0.007376938126981258,0.005778199061751366,0.0005379670765250921,0.0021180459298193455,0.002215310465544462,-0.005230373702943325,0.001317000132985413,-0.0043062181212008,0.007515749894082546,0.005246943328529596,0.004320906475186348,-0.006853519938886166,0.005497653502970934,-0.002698413096368313,0.004012164659798145,-0.0018304588738828897,-0.0022648279555141926,-0.0023197652772068977,0.0018383834976702929,0.0005696172593161464,-0.0012472509406507015,0.003493156284093857,-0.0018973207334056497,-0.00026372959837317467,0.005886983126401901,-0.007456488441675901,0.004062908701598644,-0.0030757500790059566,0.0014540704432874918,-0.00476578064262867,-0.00013880908954888582,0.0012305984273552895,-0.004605240188539028,-0.008231688290834427,-0.0047157867811620235,0.005686656571924686,-0.0036373669281601906,0.008191395550966263,0.011921629309654236,-0.003472604090347886,0.0005732036661356688,-0.005877915769815445,-0.002636566059663892,-0.011627977713942528,0.002198286820203066,0.001989728771150112,0.0036137797869741917,-0.0006188619881868362,0.006852338090538979,0.0031173103488981724,0.0002843043766915798,-0.002991813002154231
交易,-0.0015390249900519848,0.00033894984517246485,0.006077439524233341,-0.007736902683973312,-0.004696516320109367,0.008166119456291199,0.0020146453753113747,0.0013726339675486088,-0.0066170054487884045,0.00023783906362950802,0.00325320684351027,0.003983037080615759,-0.0013863090425729752,0.012718177400529385,-0.006031617056578398,-0.008328515104949474,-0.0003215298056602478,0.009215425699949265,0.003916723188012838,-0.0004418915486894548,-0.0057446034625172615,0.0030390387400984764,0.00900100078433752,-0.007267579436302185,0.008325116708874702,0.0025326479226350784,0.00640686322003603,-0.001612799009308219,0.0028442111797630787,0.0020059188827872276,-0.002076993230730295,0.003027370199561119,-0.006409824825823307,-0.008183950558304787,0.006990637630224228,0.002789972350001335,-0.001761491410434246,0.006817026995122433,-0.0065056984312832355,0.0001840619370341301,0.0005114094819873571,0.003808636451140046,-0.005195654928684235,-0.003301427699625492,0.006781918928027153,-0.012477976270020008,0.0032656309194862843,0.0036408877931535244,0.006178370211273432,0.0020852249581366777,0.002053176984190941,0.0053939600475132465,-0.0013715501409024,-0.003159088082611561,-0.0063283913768827915,-0.0026052892208099365,0.008419619873166084,0.00020214938558638096,2.865015994757414e-05,0.0017960579134523869
看看,0.011787338182330132,0.0036360009107738733,0.0024922683369368315,0.006913971155881882,-0.009072412736713886,-0.0051079364493489265,0.003676044987514615,-0.0016373225953429937,0.0012616042513400316,-0.002444817451760173,-0.004924075677990913,-0.008160624653100967,0.010680153034627438,-0.0014097196981310844,0.013227123767137527,0.002408291446045041,-0.00038341013714671135,0.004151866305619478,0.0011219735024496913,0.005640034563839436,0.0046754805371165276,-0.003214647062122822,0.008145592175424099,-0.0021758556831628084,-0.0014124424196779728,-0.0033582665491849184,0.00408096332103014,0.0009753387421369553,-0.0028527555987238884,-0.0008999840938486159,0.0012171755079180002,0.0006820596754550934,-0.008421718142926693,0.008005233481526375,0.0015713134780526161,0.00022186036221683025,0.0021496950648725033,-0.008617604151368141,-0.011058542877435684,0.0023509496822953224,0.009038603864610195,0.004292922094464302,-0.006460042670369148,-0.006978013552725315,0.0001524440012872219,-0.0033278553746640682,-0.0001014106092043221,-0.003275446128100157,0.003666214644908905,0.006716983392834663,0.011376921087503433,-0.005706601310521364,0.005967202130705118,0.005422421731054783,-0.002986027393490076,0.005525992251932621,0.0037690522149205208,0.004326086491346359,0.011952489614486694,-0.008142512291669846
让,-0.0016339421272277832,0.013583501800894737,-0.00011549191549420357,-0.006623322609812021,0.0013951010769233108,-0.006812419276684523,-0.0024980048183351755,0.010157694108784199,-0.012934420257806778,-0.013610031455755234,0.0005481623229570687,-0.00038277253042906523,0.01503562182188034,-0.0010735979303717613,0.001446771901100874,-0.003528222441673279,0.006025364622473717,0.006886684335768223,0.011981687508523464,-0.014446988701820374,0.0021438051480799913,-0.0031212209723889828,0.0023956247605383396,0.005994848906993866,-0.003732226090505719,0.0014435164630413055,-0.0031112637370824814,0.01607554219663143,0.000775184016674757,-0.0010601342655718327,0.0021507847122848034,-0.0009753718040883541,-0.003922158386558294,0.00162237579934299,-0.0036234469152987003,0.0011006928980350494,0.002246030606329441,-0.016112640500068665,-0.017825206741690636,-0.006164449732750654,0.00867773499339819,-0.0026590442284941673,0.006027784198522568,-0.004603440407663584,-0.01129184104502201,-0.00037557078758254647,-0.008081799373030663,-0.0029613159131258726,-0.009601879864931107,0.00879913941025734,0.002136746421456337,0.005327076651155949,0.001053241896443069,0.007123386953026056,0.009724345058202744,0.014129755087196827,-0.005762338638305664,0.004607689566910267,0.01059025153517723,-0.01613403856754303
快乐,-1.2957490980625153e-05,-0.0012340949615463614,0.0014620991423726082,0.001052256440743804,0.0009212321601808071,-0.0029672952368855476,0.002531430684030056,0.00256329239346087,-0.0005291522247716784,0.0017992490902543068,0.00010114861652255058,0.006631725002080202,0.002681965008378029,-0.0043456354178488255,0.005672427825629711,-0.007764951791614294,-0.0023038943763822317,0.0033828276209533215,-0.002558564767241478,0.0037088310346007347,0.0031775906682014465,-0.0005446011200547218,0.005876497365534306,0.006273295264691114,-0.0013829253148287535,0.0032122088596224785,-0.0015552261611446738,4.366505891084671e-05,0.008045150898396969,0.001114377868361771,0.0017150299390777946,8.101877756416798e-05,-0.007978769950568676,-3.5549746826291084e-05,0.004107031039893627,-0.0006330176256597042,0.00500409584492445,-0.007557054050266743,0.0013977941125631332,0.008723964914679527,0.0011309945257380605,-0.0029046558775007725,0.0008465886348858476,0.0018273694440722466,-0.004747158382087946,0.004305805545300245,-0.0038138842210173607,0.0005090725608170033,-0.005117068532854319,0.005128346849232912,-0.005562598817050457,-0.000601097708567977,0.008730984292924404,0.00020554428920149803,-0.0020575751550495625,-0.001690677716396749,-0.000633731484413147,-0.004883559420704842,-0.0022566625848412514,-0.004356615245342255
是否,-0.0016006347723305225,-0.005594172980636358,0.011997438967227936,0.004763607867062092,0.0065615070052444935,-0.0020839334465563297,0.0025199030060321093,0.005431782454252243,-0.0012343940325081348,0.002562467474490404,0.0015737389912828803,0.006069945637136698,0.0004035059828311205,0.003826763480901718,0.008792481385171413,0.005406342446804047,-0.0013341173762455583,-0.0023157193791121244,-0.011348907835781574,-0.0030163214541971684,0.0050328560173511505,-0.005781958810985088,-0.00413003284484148,0.003275859635323286,-0.0033943511079996824,0.002409079112112522,0.006550534628331661,0.007365060970187187,0.0010744499741122127,-0.0009998822351917624,0.005923121236264706,-0.0002736931201070547,0.0039429496973752975,-0.0035773676354438066,-0.0036138095892965794,-0.0027247280813753605,0.003615845926105976,-0.007403071969747543,0.0007944503449834883,0.0015155512373894453,-0.0025056488811969757,0.009251744486391544,-0.004552958533167839,0.005571456626057625,-0.0053985267877578735,-0.004104358144104481,-0.010065935552120209,0.001479949103668332,-0.006490462459623814,-0.000633031246252358,0.002564537338912487,-0.0021811099722981453,0.002022290602326393,0.00021773925982415676,0.001014780718833208,-0.004046788439154625,-0.004862462170422077,-0.008041863329708576,-0.001591452513821423,-0.013067234307527542
兴奋,0.009269360452890396,-0.005143118090927601,0.0035987847950309515,0.0017360090278089046,0.0010042416397482157,0.007383572869002819,-0.003692289348691702,0.0008388515561819077,0.008861551992595196,-0.008057696744799614,-0.005887405015528202,0.0007269559428095818,-0.0069449786096811295,0.009580734185874462,0.004697570577263832,-0.00038285646587610245,-0.001374074025079608,-0.001086892792955041,0.004518074914813042,-0.002977672964334488,0.0044875177554786205,-0.0048537408001720905,-0.006005030125379562,0.004139428026974201,-0.002590307965874672,0.007579432334750891,-0.00031238864175975323,0.006533007137477398,0.008297277614474297,0.007725093048065901,-0.0007555480115115643,-0.00031390832737088203,-0.0008243827032856643,0.0049913483671844006,-0.0035783546045422554,0.0032608869951218367,0.0035200531128793955,0.006144719664007425,0.006184134632349014,-0.0038377810269594193,0.0036842445842921734,0.0009031910449266434,-0.006151767447590828,-0.0005387914134189487,-7.84359872341156e-06,0.0055389548651874065,0.005708521232008934,-0.0029630984645336866,0.005874287337064743,0.0035242619924247265,-0.002620162907987833,-0.0009640661883167922,-0.0047984858974814415,-0.004807396326214075,0.0014902468537911773,-0.0009391058702021837,0.0006213246379047632,-0.006723624654114246,-0.004964721854776144,-0.0022869890090078115
器,0.00040141213685274124,-0.0045032561756670475,-0.005525591317564249,0.0028350620996207,-0.0023938394151628017,0.012599756941199303,0.00474871089681983,-6.205495446920395e-05,-0.008320906199514866,0.0007596692303195596,-0.0069623361341655254,-0.005029156804084778,0.00012969574891030788,0.009446028620004654,-0.00624814722687006,0.0027830982580780983,-0.013327057473361492,-0.012267875485122204,0.0020613474771380424,-0.003777704667299986,0.010881311260163784,7.241684943437576e-05,0.005558771546930075,-0.0007968940772116184,0.006016306113451719,-0.005895562004297972,-0.0006459541618824005,-0.006333125755190849,0.0001178947277367115,-0.0010245488956570625,-0.00014274637214839458,0.0021933307871222496,-0.007263815961778164,-0.007500494830310345,0.00326366676017642,0.01011432334780693,0.0016480181366205215,0.0023359451442956924,0.0020222608000040054,0.0008063323330134153,-0.004418231081217527,0.005864729173481464,0.004308514762669802,-0.0002779369242489338,0.011446397751569748,-0.004100868012756109,-0.0008752380963414907,-0.005678471177816391,-0.005192166194319725,0.003630428109318018,-0.0021074460819363594,-0.006714819930493832,0.0026433963794261217,0.0036981021985411644,-0.009528951719403267,0.0013296050019562244,-0.002713059540838003,-0.013684040866792202,0.003159743035212159,-0.014746936038136482
回馈,0.005921573378145695,-0.002616516314446926,-0.007285900413990021,0.0006249734433367848,0.004176388494670391,-0.001117355190217495,-0.0026785684749484062,-0.00023499596863985062,-0.004475340247154236,4.090764559805393e-05,0.0037779754493385553,-0.005911555141210556,0.004002905450761318,-0.006898192688822746,0.003167481394484639,-0.0005769730778411031,-0.0015663572121411562,0.0009738883236423135,0.0018903663149103522,0.007854978553950787,0.003174072364345193,-0.004822284448891878,-0.006923278793692589,0.004078706726431847,-0.005907903425395489,0.003651265986263752,0.005117037333548069,-0.01005392987281084,-0.010079536586999893,-0.003395071253180504,0.0014436168130487204,0.000988450599834323,0.00486630667001009,0.00368420104496181,-0.0033191435504704714,0.0023208698257803917,0.0006814898224547505,-0.0015654105227440596,-0.001455838792026043,0.008105958811938763,-0.0008582065347582102,-0.0018998014274984598,-0.003576102200895548,0.006109755486249924,-0.000859611202031374,-0.002198323607444763,0.003709327895194292,0.0047738878056406975,0.0014864869881421328,-0.0017866619164124131,-0.0035355142317712307,0.009177773259580135,-0.0027408073656260967,-0.00651346193626523,-0.0033309198915958405,0.0072649260982871056,0.0020316860172897577,0.0020462919492274523,0.004647149704396725,-0.002363631734624505
假设,0.0007030176930129528,0.0007981788367033005,0.0038697440177202225,0.0021660909987986088,-0.0021606869995594025,0.004775581881403923,-0.0028888946399092674,-0.006470065098255873,-0.003944911994040012,0.009734722785651684,-0.0026225298643112183,-0.0019126059487462044,-0.001407484756782651,0.0007777423597872257,0.001428395276889205,0.0007135552586987615,0.007926502265036106,0.0016191881150007248,-0.0014797418843954802,-0.0015834972728043795,-0.0020196018740534782,0.00029939133673906326,-0.0029724882915616035,0.0067938449792563915,-0.007836385630071163,0.004207592457532883,0.0011916537769138813,-0.0031639926601201296,-0.0036079096607863903,-0.000985278864391148,0.0001763098407536745,-0.0056859818287193775,-0.003908497281372547,-0.0013363154139369726,0.001606374396942556,0.002235282678157091,-0.005585572682321072,-0.006891988683491945,-0.00011196290142834187,0.0025657701771706343,0.001087874872609973,0.00426678080111742,0.0016607057768851519,0.0015436310786753893,-0.0076218824833631516,-0.0013293824158608913,0.002062154235318303,-0.0036282697692513466,0.001711745746433735,-0.0058933887630701065,0.0035402062349021435,-0.003990200813859701,0.002505664713680744,-0.0017665451159700751,0.002877534367144108,-0.0026590032503008842,-0.0019500144990161061,-0.005548787768930197,-0.00241578696295619,-0.010989023372530937
历史,-0.008389727212488651,-0.0038141871336847544,-0.002573918318375945,0.0011306428350508213,0.001994234509766102,0.0011658818693831563,0.0012811310589313507,-0.009823189117014408,-0.003162939799949527,-0.0015778627712279558,-0.0008466821163892746,-0.0021626476664096117,0.0015638117911294103,0.006967894732952118,0.002583627123385668,-0.007340733893215656,-0.0028372295200824738,-9.172479622066021e-05,0.0028753955848515034,0.0030791377648711205,0.0028548494447022676,0.0008339209016412497,0.0021521146409213543,-0.0007311791414394975,-0.006109723821282387,0.0033058831468224525,-0.0006937921280041337,0.0005188825889490545,0.0033944810274988413,-0.0024239923804998398,-0.013123626820743084,-0.003998739179223776,-0.0034776891116052866,-0.004708508029580116,-0.004481548443436623,0.003793219570070505,0.0018237241310998797,-0.002283884212374687,-0.00033637945307418704,-0.0022942088544368744,-0.001904376782476902,-0.003965157549828291,-0.005459376145154238,-0.007246982306241989,-0.007117109838873148,0.0024583511985838413,0.0005300268530845642,-0.002277492079883814,-0.0015453347004950047,-0.006044286303222179,0.004536936990916729,0.007430691737681627,-0.0043011559173464775,0.004468800034373999,-0.0016215195646509528,0.0009961776668205857,-0.0055554891005158424,0.005198202095925808,0.006319219712167978,0.004874807316809893
球队,0.004089638590812683,-0.0024892000947147608,-0.003939024172723293,-0.002017937134951353,-0.00742342509329319,0.0033663734793663025,-0.010362008586525917,0.002553867409005761,0.007523756008595228,0.004813918843865395,-0.006629790645092726,-0.007274745497852564,-0.0011587138287723064,-0.0021982493344694376,-0.008721920661628246,0.0030546742491424084,0.0005643093027174473,0.006326862145215273,-0.0002843781840056181,0.0011665489291772246,0.00676048593595624,-0.011887799948453903,0.0039045163430273533,0.013106836937367916,0.003782272106036544,0.004112131893634796,0.0004958120407536626,-0.0009456460829824209,-0.004973272327333689,-0.007450498174875975,0.004458563402295113,0.006711040157824755,-0.0012630322016775608,-0.0011507204035297036,-0.0014945970615372062,-0.0015275490004569292,-0.0005946769961155951,-0.00413033552467823,-0.004751953762024641,0.010735251940786839,-0.001703453017398715,0.0016827440122142434,-0.00017269657109864056,0.0011752992868423462,0.001314254361204803,-0.006906729191541672,0.0006418316625058651,0.0003151450655423105,-0.0008129716152325273,-0.009539823979139328,-0.0034851590171456337,-0.004745693877339363,0.006693240255117416,-0.0007658910471946001,-0.0008039186941459775,0.0075370194390416145,0.008777064271271229,0.0005062850541435182,-0.008378691039979458,-0.0013334767427295446
想不出,-0.0009911309462040663,0.0010470760753378272,0.0011127246543765068,0.0021841051056981087,0.0011440814705565572,4.6821376599837095e-05,-0.00018656572501640767,0.0032264566980302334,-0.00066089176107198,0.005254226271063089,-0.005420668516308069,0.00466986745595932,-0.004292096942663193,-0.002946859924122691,2.1054011085652746e-05,0.0028945442754775286,0.006951355841010809,0.005599276628345251,0.009102977812290192,-0.0010865851072594523,-0.0019118223572149873,-0.0005055488436482847,-0.0032879672944545746,0.00183350988663733,0.0030793510377407074,0.001975178485736251,-0.001887989928945899,-0.0018621805356815457,-0.001975771738216281,-0.005109268240630627,-0.0006217778427526355,0.0030817228835076094,-0.00011320704652462155,0.004838427063077688,0.007625286001712084,8.106125460471958e-05,-0.002705610590055585,-0.0040944418869912624,-0.007608258631080389,0.0031463056802749634,-0.003366392105817795,-0.0007474414887838066,-0.00022619357332587242,-0.007339172530919313,0.004857772029936314,-0.005021032877266407,0.002590832533314824,-0.0023999554105103016,-0.0019514771411195397,0.0014551555505022407,0.0018972858088091016,-0.0030740636866539717,0.004561266861855984,0.0006606363458558917,0.005004543345421553,0.006329655647277832,0.006483126897364855,0.0065134307369589806,0.002275464590638876,0.004632632713764906
等待,-0.00015424913726747036,0.0012345968279987574,-0.0004137679934501648,-0.00724098552018404,-0.008035085164010525,-0.012357581406831741,0.0045209117233753204,0.009647756814956665,-0.0029474960174411535,0.001123171066865325,-0.012517662718892097,0.012091136537492275,0.006286784075200558,-0.006958195939660072,-0.0009392356732860208,-0.0026060021482408047,0.00015908497152850032,-0.00021708861459046602,-0.010579362511634827,-0.005873103626072407,0.004472759086638689,0.002284719841554761,0.0017417487688362598,0.0036733802407979965,0.005427103489637375,-0.0014659231528639793,-0.005299581680446863,0.0007474385201931,0.0034006531350314617,0.0023225636687129736,0.00019134045578539371,-0.008209980092942715,-0.0028461585752665997,-0.0013218618696555495,-0.0047702910378575325,-0.009479706175625324,-0.0019792639650404453,-0.00760516757145524,-0.003752699587494135,-0.0021736491471529007,-0.006549891550093889,-0.0022503624204546213,-0.0004731502558570355,0.0042658355087041855,-0.005048106890171766,0.003308909945189953,-0.004654313903301954,0.005002130754292011,-0.0012457184493541718,0.0075127738527953625,-0.0012804125435650349,-0.0026993632782250643,0.007552323862910271,-0.0021262038499116898,-0.0009467079071328044,-0.0018311867024749517,0.00013923877850174904,-0.004455334506928921,-0.0015542911132797599,0.0021809893660247326
天才,0.0011163933668285608,1.1057592928409576e-05,0.0039086067117750645,-0.01067129522562027,0.0010529805440455675,0.005916651338338852,0.0009574920404702425,-0.006006342824548483,0.003043542616069317,0.0016112129669636488,0.004476538859307766,0.0008992367656901479,-0.0017825369723141193,0.0026257026474922895,0.008189594373106956,0.004532283637672663,-0.0018891667714342475,0.0023470167070627213,0.00535726360976696,-0.006489865481853485,0.002555711194872856,0.004440507851541042,-0.0008051441982388496,0.004839225206524134,-0.0037318277172744274,-0.0025100104976445436,0.010112241841852665,0.0060994187369942665,0.001610002713277936,0.008797090500593185,-9.73050482571125e-05,-0.00285456795245409,0.0023732304107397795,0.0014556359965354204,0.002639409154653549,-0.009344031102955341,-0.005126466043293476,0.0006560659967362881,-7.572607137262821e-05,0.000800164882093668,-0.008514606393873692,0.00760607747361064,-0.005469792988151312,-0.003941429778933525,0.003323232987895608,0.005935166031122208,-0.001278385752812028,-0.0032410924322903156,0.0012603605864569545,-0.00029771006666123867,0.0040193526074290276,0.005000335164368153,0.0030536034610122442,-0.0028662115801125765,-0.004595661535859108,0.002724912716075778,0.0007676538079977036,-0.009521733038127422,-0.004812226165086031,-0.011084133759140968
事情,0.0014927955344319344,-0.005255141295492649,0.006107667461037636,0.0011658570729196072,0.0009144863579422235,-0.007377678528428078,0.0024014196824282408,-0.0032507877331227064,0.003079820889979601,2.4721608497202396e-05,-0.005701275542378426,0.00472189811989665,0.014592468738555908,-0.010178117081522942,-0.007072427310049534,-0.002815644722431898,-0.0054960958659648895,0.009595640935003757,0.00020572252105921507,-0.008715977892279625,0.0027733196038752794,-0.0005495629739016294,0.00690279109403491,-0.0009731678292155266,-0.0017264154739677906,-0.010674468241631985,-0.0010259074624627829,0.0019121399382129312,-0.003137534949928522,-0.003942017909139395,-0.0020175473764538765,-0.000433792476542294,-0.0028053135611116886,0.005647406447678804,-0.0021109830122441053,0.00587486894801259,-0.003263909835368395,-0.004887601360678673,-0.0107631366699934,0.00557532487437129,0.007793971337378025,0.00012744730338454247,-0.005857527256011963,-0.006323167122900486,0.004600131884217262,-0.005404483061283827,0.005753017961978912,-0.0023387165274471045,0.0034428422804921865,-0.0009196599130518734,0.000979467760771513,-0.004382530227303505,0.0011070100590586662,0.007758340798318386,0.0004944647662341595,0.008243732154369354,-0.003786120330914855,-0.004091028589755297,0.0009028802742250264,0.0014489649329334497
再次,0.005542584229260683,0.006283740513026714,-0.002606671769171953,-0.0004029390402138233,0.00026912393514066935,6.061512976884842e-05,0.005940699949860573,0.008780454285442829,0.0002511428319849074,0.0006828997284173965,0.0045096976682543755,0.006945379544049501,0.0025898690801113844,0.0007024467922747135,-0.0012572093401104212,0.0013746821787208319,-0.00899647455662489,-0.006010089535266161,0.011191318742930889,-0.0011893687769770622,-0.0017838593339547515,0.006281989626586437,-0.002617937047034502,0.0018554175039753318,4.613213241100311e-05,0.001482745516113937,0.012350879609584808,0.0010462542995810509,0.005336849484592676,0.0014848359860479832,0.003983276430517435,0.0011394806206226349,0.0015662668738514185,-0.0037949178367853165,-0.003878326853737235,-0.007847759872674942,-0.00630614347755909,-0.0023756844457238913,-0.0002293559955433011,-0.0032566545996814966,0.004556285683065653,0.004547604359686375,-0.0046022748574614525,-0.006347545422613621,-0.006366376765072346,-0.005418873392045498,0.00703734066337347,-0.0029622726142406464,-0.0032037016935646534,-0.0035504403058439493,0.00913296826183796,-0.003898490918800235,-0.0059449272230267525,-0.008043617941439152,0.004710561130195856,-0.0016612433828413486,-0.004412679001688957,-0.00538953160867095,0.0009936403948813677,-0.006339465267956257
产品,-0.005925988312810659,0.0024544403422623873,-0.005230674985796213,-0.008270987309515476,0.007533109746873379,0.0027039768174290657,0.0027468809857964516,0.006083729676902294,-0.000855105696246028,-0.00598896574229002,0.0069625498726964,-0.005893751047551632,0.007737734355032444,-0.007892739027738571,0.006759739015251398,-0.0018260686192661524,0.00284029683098197,0.008501098491251469,-0.005000038538128138,0.007248705718666315,-0.008526334539055824,-0.009467092342674732,0.003890776075422764,0.0031232344917953014,0.004332051612436771,0.003350108163431287,0.003944972530007362,-0.0013481384376063943,0.0024699815548956394,-0.003182817017659545,0.003991448320448399,-0.008291147649288177,0.0001218623947352171,-0.0030156788416206837,-0.0039662462659180164,-0.0004110027803108096,0.007680694572627544,-0.004095146432518959,-0.00015348265878856182,0.002859768457710743,0.0017618050333112478,-0.00774066336452961,-0.002689764369279146,-0.010732496157288551,-0.0013305612374097109,-0.0034823634196072817,-0.0036306888796389103,-0.007201116532087326,0.0024223614018410444,-0.006083160638809204,-0.0009484513429924846,-0.005036599468439817,-0.004843543749302626,0.0007846526568755507,4.1821738705039024e-05,-0.0014754445292055607,-0.0011507200542837381,0.0024826659355312586,0.012606952339410782,0.0012314456980675459
平静,0.006489375606179237,0.0012516540009528399,-0.0005757631734013557,-0.00010350183583796024,0.0031193140894174576,-0.0005873702466487885,-0.0027421019040048122,0.0002527583856135607,0.001851904671639204,0.0035827963147312403,0.008076949045062065,0.003109633456915617,0.005236202850937843,0.0023193666711449623,-0.000700382748618722,-0.005899436771869659,-0.0015176711603999138,0.003963191993534565,-0.004106833133846521,-0.0015873720403760672,-0.007869217544794083,0.0005910347099415958,-0.0016068926779553294,0.002330068266019225,0.005532009527087212,-0.009315676987171173,-5.3809257224202156e-05,0.0025716926902532578,0.0009706339333206415,0.001106618670746684,-8.894054917618632e-05,-0.004019197542220354,0.0009200535714626312,0.006088713183999062,-0.0027922429144382477,0.0007497412152588367,0.0008902538102120161,-0.0036856350488960743,-0.00205881055444479,-0.013315640389919281,0.004237785004079342,0.0027374685741961002,0.0012860395945608616,0.0012694119941443205,0.0012463120510801673,0.0030012805946171284,0.0023508137091994286,-0.009133473038673401,-0.0028236482758075,-0.004479150287806988,-0.0027765461709350348,-0.000505008443724364,-0.004889674484729767,0.004536649212241173,-0.0031475932337343693,-0.006323853507637978,0.0003665455151349306,-0.00410586129873991,0.00047984602861106396,-0.01121625304222107
也,0.0038627530448138714,-0.0025330802891403437,0.00591203011572361,-0.0019779964350163937,-0.0013113640015944839,-0.015578042715787888,-0.004221073817461729,0.0006904867477715015,-0.013187838718295097,-0.0018945126794278622,0.008885156363248825,-0.013984310440719128,0.023410595953464508,-0.0031162677332758904,-0.011779329739511013,-0.005440392531454563,0.015387123450636864,-0.0026681185699999332,-0.011556275188922882,-0.020111151039600372,0.008431834168732166,-0.0002647289074957371,0.010656236670911312,0.0011956612579524517,0.014674884267151356,-0.01021028496325016,-0.002104868646711111,0.007198006846010685,-0.005804145243018866,-0.004166198894381523,0.008115626871585846,-0.005781329236924648,0.008899686858057976,0.004341929219663143,0.0028865309432148933,0.01292563695460558,-0.011916844174265862,-0.0069658090360462666,-0.011932244524359703,0.00924421101808548,0.0017069550231099129,0.004335914738476276,-0.001561604905873537,-0.008972791023552418,-0.012354286387562752,-0.01719730906188488,-0.008722417056560516,0.0006147674284875393,-0.004569163545966148,0.011216188780963421,0.016401048749685287,0.013850033283233643,-0.015232967212796211,-0.005025058053433895,0.021135395392775536,0.004224808886647224,0.0015525314956903458,-0.009795879013836384,0.0001397356390953064,-0.014134321361780167
例如,-0.0017555677331984043,-0.0018205000087618828,-0.006108884699642658,0.0017268606461584568,0.0011436091735959053,0.00654776394367218,-0.0005890000611543655,-0.003960955422371626,-0.0025770701467990875,-0.002992717083543539,0.004589153919368982,-0.0003857039846479893,0.0005163605674169958,0.0030893292278051376,-0.00788068026304245,0.0025119944475591183,-0.004974335432052612,-0.004514150321483612,-0.004335915204137564,0.0028539923951029778,0.007509877905249596,0.002496053697541356,-0.003298299852758646,0.0026391958817839622,0.0076100886799395084,-0.006713030859827995,0.005100928246974945,0.002893712604418397,0.00799779687076807,0.002245549112558365,0.0023732343688607216,-0.0014645045157521963,0.0012199834454804659,-0.006467695347964764,-0.003739242674782872,-0.0063278526067733765,0.006263624876737595,0.0021192096173763275,-0.008098110556602478,0.0004532423336058855,-0.0016768509522080421,-0.0013863161439076066,0.0006794644286856055,-0.005565676838159561,-0.010143930092453957,-0.009390413761138916,-5.123473238199949e-05,-0.002524124924093485,-0.005521626211702824,-0.002537501510232687,-0.0028884741477668285,0.0035487215500324965,-0.0037673504557460546,-0.00458900909870863,0.0036541493609547615,-0.001329408143647015,0.005790931638330221,-0.00496323686093092,0.005515070632100105,0.004198754206299782
牺牲,0.006062198430299759,0.005314983893185854,0.006301392801105976,0.011336049996316433,0.007816926576197147,-0.0032373047433793545,0.006044498644769192,-0.0011388962157070637,-0.003979946486651897,-0.004492203239351511,0.0025566695258021355,0.0028267414309084415,-0.00494571216404438,-0.004982353188097477,0.0032531721517443657,0.001366532756946981,0.00019971036817878485,-0.0034693116322159767,-0.004674538504332304,-0.0010931307915598154,-0.0033648479729890823,-0.004615559708327055,-0.0033578630536794662,0.0060905274003744125,-0.0026103281415998936,0.0019824474584311247,0.004358758218586445,0.0065056392922997475,0.0020389151759445667,0.00013818946899846196,0.0078812250867486,-0.001238446799106896,0.0027790500316768885,-0.0006149010732769966,-0.00576691422611475,0.000636970391497016,0.003638475202023983,0.0051436834037303925,0.004733867011964321,0.003038490889593959,-0.01044825091958046,0.005851093679666519,-0.0014770322013646364,-0.002817863831296563,0.001297725597396493,0.003899654373526573,-0.0014987639151513577,0.0002809101715683937,-0.006153132300823927,0.003018250223249197,-0.012145436368882656,-0.011103401891887188,0.0006639054045081139,0.0009422700386494398,-0.005763635970652103,0.0013071063440293074,-0.0021922108717262745,-0.007145265117287636,0.005963935516774654,-0.002246917923912406
开始,-0.0031196519266813993,-0.0055318186059594154,0.017512956634163857,-0.0010556646157056093,-0.007645714562386274,-0.007399063557386398,-0.001829974353313446,0.004212658852338791,-0.006529433652758598,0.004821207839995623,-0.0035740912426263094,0.014016075059771538,0.014683909714221954,-0.009499851614236832,-0.007015148177742958,-0.010713350959122181,-0.0003697426291182637,-0.001110459677875042,0.0071939267218112946,-0.0019634661730378866,0.0020949647296220064,-0.005908322986215353,-0.003657184774056077,0.00961434654891491,0.013372190296649933,-0.005963361356407404,0.007700419053435326,0.00142610352486372,0.008348651230335236,0.0008599909488111734,0.0008050375618040562,-0.003924488089978695,-0.004487807862460613,-0.0006503753829747438,0.0003554634749889374,0.0020355554297566414,0.0022878001909703016,-0.00546065391972661,-0.0014492077752947807,0.004958280362188816,-0.0011927774176001549,0.0069586848840117455,0.008021892979741096,0.007470620330423117,-0.00459356140345335,-0.0009980006143450737,0.0029526560101658106,0.001887164544314146,0.011360455304384232,0.0022861422039568424,0.016728706657886505,0.007314077578485012,-0.0012175273150205612,0.0009271958842873573,0.009887351654469967,0.008596381172537804,0.0015352563932538033,-0.015597743913531303,-0.0005291171837598085,-0.0027928759809583426
公会,-0.007226140238344669,-0.0029761705081909895,-0.008836925961077213,0.0063695721328258514,0.001814760034903884,-0.007702614180743694,-0.004293167032301426,-0.0001536174677312374,0.00017137080430984497,-0.0025590448640286922,0.0012921388261020184,-0.002567701041698456,0.0016717424150556326,-0.00197925278916955,-0.001816488802433014,0.008188633248209953,-0.0020817869808524847,-0.0009549979586154222,0.0009119599126279354,0.004575981292873621,0.001118790707550943,-0.005123080685734749,-0.002545967698097229,-0.002782088005915284,-0.0011086573358625174,0.0030132122337818146,-0.0026227047201246023,-0.0018630621489137411,0.005009228363633156,1.0048039257526398e-05,-0.0037680580280721188,0.004902212880551815,-0.010525674559175968,-0.004558664280921221,0.003851095912978053,-0.006321979220956564,-0.00297987787052989,0.0037826383486390114,-0.0009908170904964209,-0.00068194221239537,-0.0005897751543670893,0.005109837278723717,-0.004166692961007357,-0.0024905242025852203,-0.004640005994588137,-0.0003395066596567631,0.008459026925265789,-0.0060406518168747425,0.00047571887262165546,0.002234650542959571,0.00549329211935401,0.000691023888066411,0.006999424193054438,-0.004001137334853411,-0.006587774958461523,0.004948776215314865,0.001325439428910613,-0.007056041620671749,-0.0007698067929595709,0.000969157088547945
投资,-0.0012444439344108105,0.01058144774287939,0.008098901249468327,-0.005319315940141678,0.0018393781501799822,0.005033418536186218,-0.0013084462843835354,0.0003953371196985245,0.004213008563965559,-0.003470041323453188,0.0027220859192311764,0.004269606899470091,-0.000687700230628252,-0.004456862807273865,-0.0030949213542044163,1.4026183634996414e-05,0.009676609188318253,0.00905486661940813,0.0026019145734608173,0.00501791900023818,0.0004842751659452915,-0.004896821454167366,-0.006711248308420181,0.008122098632156849,0.0028594699688255787,-0.00444656191393733,0.0010359762236475945,0.004362843930721283,0.006956171244382858,-7.438374450430274e-05,-0.0017729215323925018,-0.004865295719355345,0.003920221701264381,0.005725891329348087,-0.0010432912968099117,0.008189660497009754,-0.0037727877497673035,-0.006805793382227421,0.00014933478087186813,0.004725424572825432,-0.006519084330648184,-0.004436654970049858,0.00035102025140076876,-0.004119907971471548,-0.0013202722184360027,-0.005181737709790468,-0.0011366629041731358,-0.0022263398859649897,-0.0009265858680009842,-0.0031763019505888224,-0.0040642330422997475,-0.0010605340357869864,0.0009840589482337236,-0.0023790064733475447,0.011512687429785728,-2.388784196227789e-05,0.005141912493854761,-0.0014545107260346413,0.0018601859919726849,-0.0006037859711796045
购买,-0.006801680661737919,-0.00043163145892322063,0.006231507286429405,0.0023654878605157137,0.0039012266788631678,-9.832164505496621e-05,-0.0006505821365863085,-0.00908825732767582,0.0050731236115098,1.6937614418566227e-05,0.00012677654740400612,-0.003286974038928747,0.007284852210432291,-0.001356269232928753,-0.001999651314690709,-0.00018266122788190842,0.005602376069873571,0.002444272395223379,-0.003458729712292552,-0.0051077730022370815,-0.004929542541503906,-0.00823865458369255,0.00485528539866209,-0.0007365073543041945,-0.002633945783600211,-0.0009236243204213679,0.00994586106389761,0.002329845679923892,-0.002162533113732934,0.004576599691063166,8.041015826165676e-05,-0.00343768997117877,-0.0015593140851706266,-0.0027659256011247635,-0.006339887622743845,-0.0025517907924950123,0.009345217607915401,-0.006092664320021868,0.0022205845452845097,0.0005334261804819107,0.005677627865225077,-0.006934863980859518,-0.0013949606800451875,0.011532124131917953,0.0009733961196616292,-0.003575194627046585,-0.0053710974752902985,0.0014211348025128245,-0.008633332327008247,0.013488560914993286,-0.0027932184748351574,-0.0003669745346996933,0.005218315403908491,-0.0007353380788117647,0.0035308371298015118,0.0038698932621628046,-0.002373687457293272,0.00242100958712399,-0.0035581255797296762,-0.005350490100681782
看到,0.003989056218415499,0.002271354431286454,0.006933968514204025,-0.0069098100066185,-0.006847664713859558,0.002465473022311926,0.00556245818734169,0.006044359877705574,-4.049287235829979e-05,-0.005829310044646263,0.005403858609497547,0.007219463121145964,0.01999945566058159,-0.0024790538009256124,-0.00645692041143775,0.0007220396073535085,0.004242423921823502,-0.0032004229724407196,-0.008998110890388489,0.0006677131168544292,0.004478363320231438,-0.002879821229726076,-0.000752102816477418,0.006836314685642719,0.004671858623623848,-0.0023026932030916214,0.0025997052434831858,0.002152578439563513,0.009556297212839127,0.0023963588755577803,0.009401045739650726,-0.0015187254175543785,-0.008460049517452717,-0.007293581031262875,-0.00897142942994833,0.007755490951240063,0.000525779789313674,-0.006639792118221521,-0.004878507927060127,0.004958110395818949,0.00554306898266077,0.0007980088121257722,0.006691071204841137,0.0021546767093241215,-0.016961535438895226,0.001289060222916305,-0.005793478339910507,0.006565827876329422,0.00864303857088089,0.0044627003371715546,0.004367610439658165,-0.00020701694302260876,-0.0035769694950431585,0.0023928468581289053,0.002173876855522394,0.002011953853070736,0.0003303936682641506,-0.0013266351306810975,-0.00025523995282128453,-0.009689949452877045
不会,0.0013490004930645227,0.0003341438714414835,0.009965246543288231,-0.0026388259138911963,-0.009105292148888111,-0.0033705842215567827,0.005906392820179462,0.003207409055903554,-0.008429634384810925,0.0005026115104556084,-0.007663831114768982,0.008015019819140434,0.0027224065270274878,-0.0020692406687885523,-0.00419167336076498,0.00023141712881624699,0.005405099596828222,0.006745296064764261,-0.010327355936169624,-0.007036421913653612,-0.008232835680246353,-0.008767218329012394,-0.005046903155744076,0.0068886904045939445,0.0018187090754508972,-0.008831923827528954,0.00036052160430699587,0.002968455431982875,0.0073333666659891605,-0.004420481622219086,0.010410191491246223,-0.00217874045483768,0.005179719068109989,0.006601816508919001,0.00027948094066232443,-0.000264171976596117,0.011788708157837391,-0.0119756069034338,0.004318992607295513,0.002626944100484252,-0.009239409118890762,0.0020517378579825163,0.003615789348259568,0.00016789231449365616,-0.006987028755247593,-0.004552336409687996,0.004566938616335392,0.0011853303294628859,0.0037124971859157085,0.0028516945894807577,0.015117124654352665,0.010726292617619038,0.001705819508060813,0.0014082679990679026,0.0011920174583792686,-0.005998117383569479,0.007364080287516117,-0.0031465564388781786,0.005845589097589254,-0.005123121198266745
支,-0.0037752888165414333,-0.0016104327514767647,-0.01054944097995758,0.004633449018001556,-0.00167371507268399,0.007265418767929077,-0.0019375025294721127,-0.010288980789482594,0.010566221550107002,0.012858059257268906,0.007055909838527441,0.007509706541895866,-0.007253669202327728,0.010325598530471325,0.0010792729444801807,-0.007888627238571644,-0.0004436550661921501,-0.005965035408735275,-0.006386267952620983,-0.0017978402320295572,-0.004485432989895344,0.0017944974824786186,0.0018011541105806828,-0.010569533333182335,-0.005444267764687538,-0.007448437158018351,0.0003642320225480944,0.00553858932107687,-0.009273456409573555,0.0033193337731063366,0.0018214334268122911,0.00780066754668951,0.006891850382089615,0.012234242632985115,-0.0026018510106951,0.0077757202088832855,-0.004088550806045532,0.007818386889994144,-3.484170883893967e-05,0.01113046146929264,-0.0073029836639761925,-0.003483720123767853,-0.005523708648979664,-0.002831826452165842,0.008533988147974014,0.0064901551231741905,0.014047839678823948,0.004958625417202711,0.009543491527438164,-0.009832533076405525,0.0031485543586313725,-0.012071186676621437,0.00031779822893440723,0.0008275496657006443,0.007027208339422941,-0.0035657472908496857,-0.00322372792288661,0.0008047199808061123,0.0008598831482231617,0.006480840966105461
良好,-0.0034611846785992384,-0.003185636131092906,0.002155308611690998,-0.0012025063624605536,0.005762248765677214,-6.010080687701702e-05,0.009051493369042873,-0.004917186684906483,-0.008398914709687233,0.0004930826835334301,-0.002200362039729953,-0.004689963534474373,0.009446105919778347,-0.0026291287504136562,-0.0020831951405853033,0.006278378423303366,-0.006709862034767866,0.0020143024157732725,0.0008694806601852179,-0.0028638739604502916,-0.0059488387778401375,-0.00554549740627408,0.0008832600433379412,-0.0003437481354922056,-0.0006463114405050874,-0.0025382800959050655,-0.006874520797282457,-0.0031993521843105555,0.0015184287913143635,-0.004677116870880127,-0.0030427994206547737,-0.005439434200525284,0.005299161188304424,-0.004423178732395172,0.00019560460350476205,-0.012900306843221188,0.004167609382420778,0.0011511319316923618,-0.006363179534673691,1.760246232151985e-05,0.005371087696403265,0.0032700332812964916,0.002254356164485216,0.0038200663402676582,-0.005861526355147362,-0.0006697920616716146,0.00036391138564795256,-0.0010339957661926746,-0.0020231851376593113,0.0012834486551582813,0.003333647968247533,0.008951141498982906,0.0037003671750426292,-0.00721112173050642,0.001105672214180231,0.004136575385928154,-0.004350185859948397,0.0007660624105483294,0.005775222089141607,-0.006660428363829851
再,0.007455356419086456,0.0019377479329705238,-0.0038016829639673233,-0.0009701657108962536,0.0028227497823536396,-0.010587980039417744,-0.0068727051839232445,0.0008845748379826546,-0.007178096100687981,0.006829210091382265,-0.012861660681664944,-0.007387097459286451,0.006752920337021351,0.0024386411532759666,-0.005588127765804529,-0.0018424922600388527,-0.011666618287563324,0.0012993656564503908,-0.002705204766243696,-0.01579544134438038,0.004464545287191868,0.004522227216511965,0.0003418475389480591,-0.008025450631976128,-0.0033667555544525385,-0.012985811568796635,0.0009088325314223766,0.002223683288320899,-0.00017882883548736572,-0.0029929843731224537,0.004700934514403343,-0.0003205559914931655,-0.005980546586215496,-0.00400952436029911,0.003593152156099677,-0.0013376334682106972,-0.00876624882221222,-0.008275768719613552,-0.010178639553487301,-0.004758390597999096,-0.010289765894412994,-0.009705198928713799,0.0025059813633561134,-0.005085650831460953,-0.005919255316257477,-0.016168657690286636,-0.0036185397766530514,0.006821108050644398,0.0016635139472782612,0.0044953301548957825,-0.0024570361711084843,-0.005225987173616886,1.820037141442299e-05,-0.004433651454746723,-0.007305521052330732,0.006124116014689207,-0.011151647195219994,0.0007848623208701611,-0.009004035964608192,-0.0041410899721086025
是,-0.010105499997735023,0.0052971974946558475,0.01857609860599041,0.009566794149577618,-0.0007928274571895599,-0.007495516911149025,0.005970830097794533,0.004688674584031105,-0.004285694565623999,-0.018310312181711197,0.0032617945689707994,-0.0071648801676929,0.01923822984099388,0.006646316964179277,-0.01763465255498886,0.004606042522937059,0.007420470472425222,0.009289384819567204,-0.009980369359254837,-0.015311776660382748,0.015296502970159054,-0.006950647570192814,-0.0019774725660681725,0.005545338615775108,0.0193340964615345,-0.003419708926230669,0.002383081242442131,0.0034300689585506916,0.003383159637451172,-0.006085334811359644,0.0020119312684983015,-0.0012603007489815354,-0.0005369405262172222,-0.0074148899875581264,-0.003919057082384825,-0.003640443319454789,0.001924377866089344,-0.021851517260074615,-0.0069025252014398575,-0.006349883507937193,-0.012393973767757416,0.0031770095229148865,-0.009602999314665794,-0.0075430069118738174,-0.013675549067556858,0.004598315805196762,-0.004915216006338596,0.0034224307164549828,0.0007551547605544329,0.023193880915641785,0.00423856545239687,0.005450812634080648,0.0018403655849397182,0.00960514321923256,0.017267629504203796,0.0025289030745625496,0.005777194630354643,-0.0260224137455225,0.0007624274585396051,-0.00022905925288796425
完成,-0.0011638697469606996,-0.0026033190079033375,-0.004924198612570763,0.004675308242440224,0.006458309479057789,-0.0023768343962728977,0.006704486906528473,0.012279223650693893,-0.002002687193453312,-0.006708014756441116,0.00407432159408927,-0.0002649701200425625,0.006231735460460186,-0.004929718095809221,0.0023695805575698614,0.0027040315326303244,0.0013183283153921366,0.004230288323014975,0.0077979229390621185,-0.008487985469400883,0.0027686250396072865,-0.002903318963944912,0.0005733051802963018,-0.0005825449479743838,0.0035061179660260677,-0.0009327410953119397,0.0036257447209209204,0.0022884272038936615,0.0007940782816149294,0.005088969133794308,0.0021737245842814445,0.004880647640675306,0.0014820706564933062,-0.0003802953287959099,-0.012424364686012268,0.0029945094138383865,-0.0013982225209474564,-0.01005334872752428,-0.003832584712654352,0.0009611593559384346,0.00046656234189867973,-0.0014046868309378624,-0.002474387176334858,0.010748382657766342,-0.005944934673607349,-0.00043933442793786526,0.005410844460129738,-0.004380425438284874,-0.005127863958477974,0.008096151053905487,0.004914705641567707,-0.0031865870114415884,-0.00790450256317854,-0.0055203125812113285,0.000819062115624547,0.0005213567055761814,-0.0037761551793664694,0.005053790286183357,0.008339979685842991,0.001040482777170837
继续,-7.846788503229618e-05,0.000640234793536365,0.0031503557693213224,-0.0004960123915225267,0.005566437728703022,0.001994627295061946,-0.0005948334001004696,0.0024141420144587755,-0.0041519105434417725,-0.006884275935590267,-0.0014232334215193987,-0.0021659780759364367,-0.0002202043542638421,0.0014540147967636585,-0.005497547797858715,-0.006185995880514383,-0.0019430122338235378,0.0013345754705369473,-0.0016375088598579168,-0.0023661023005843163,0.0052877007983624935,-0.0008953968062996864,-0.001071429462172091,-0.001108541153371334,-0.0022440836764872074,-0.00433726841583848,0.010302684269845486,0.006969794165343046,-0.00031905784271657467,0.005067392718046904,0.0006858771666884422,-0.009014678187668324,0.0014218069845810533,-0.006406968925148249,0.00010155083145946264,0.0052911676466465,-0.007654680870473385,-0.007960489951074123,0.00023512588813900948,0.007145232986658812,0.0005278533790260553,-0.001476745936088264,0.0043263910338282585,-0.007012257352471352,0.0025782522279769182,0.00033825961872935295,-0.0006251230370253325,-0.006593198049813509,-0.0013165234122425318,0.0027036871761083603,0.0007930472493171692,-0.008503318764269352,-0.0010625091381371021,0.0068813506513834,-0.0016972485464066267,0.0054162475280463696,-0.0004004273214377463,-0.011367268860340118,0.0009284864645451307,-0.0015897928969934583
退伍军人,-0.00010075292811961845,-0.0016301143914461136,0.0009216931066475809,0.001230455469340086,0.0014155718963593245,-0.0015504456823691726,-0.002661146456375718,0.0009729358716867864,-0.0006713868351653218,5.522895298781805e-05,0.005003413185477257,0.0009597258758731186,-0.0030894516967236996,0.0034411996603012085,-0.0033391774632036686,-0.004379104822874069,0.0038250067736953497,0.0012883087620139122,0.0008735768496990204,-0.0011000698432326317,0.0013643858255818486,-0.0017081256955862045,-0.0016706145834177732,0.0024531001690775156,-0.0007108621066436172,0.005511158611625433,-0.001124587026424706,-0.002944396575912833,-0.0011377139016985893,-0.005370127968490124,0.0037624696269631386,0.0029535770881921053,0.0013279450358822942,8.871238969732076e-05,-0.0008616630220785737,-0.0041261231526732445,0.00487667229026556,-0.0028673200868070126,-0.0007095974287949502,0.0022280944976955652,-0.0008900362881831825,-0.00369668984785676,0.0030281913932412863,-0.002211579354479909,-0.003090423997491598,-0.00038084073457866907,4.608556628227234e-05,-0.0007167590665630996,0.00367877259850502,0.001459113904275,0.005815352778881788,5.027147926739417e-05,-0.002428079955279827,-0.0007634736248292029,-0.004219651687890291,0.0038148316089063883,0.0013401827309280634,0.0008582925074733794,-0.0027655449230223894,0.0035597982350736856
受到,0.01110812183469534,0.0009174899896606803,0.004089394584298134,0.0078050317242741585,-0.00015062189777381718,0.008398842997848988,-0.00227256678044796,-0.005695517640560865,0.0009232757147401571,0.0052647218108177185,-0.00031089200638234615,0.0044228266924619675,0.0006045673508197069,-0.006890652701258659,0.002161928452551365,0.0013888131361454725,0.0011889456072822213,0.0026732049882411957,-0.0016046552918851376,-0.004908930044621229,0.003536237170919776,-0.010364511981606483,-0.0019276640377938747,-0.0007688319310545921,0.013794261030852795,-0.004109012894332409,0.002123964484781027,-0.005409331060945988,-0.008221542462706566,0.0023629507049918175,0.0027088294737040997,-0.0009366301819682121,0.0017019952647387981,0.0012883716262876987,0.001723150722682476,0.006303092930465937,-0.0029973534401506186,0.002058757469058037,-0.0011631748639047146,0.0006486410275101662,-0.009271910414099693,0.0016656483057886362,0.009497607126832008,-0.0049841213040053844,-0.0004202024429105222,-0.0008773063309490681,-0.0032283810433000326,-0.0013789718504995108,0.0012506901985034347,0.002087554894387722,-0.00796665158122778,-0.0010308867786079645,-0.004497570917010307,-0.004051647614687681,0.006201569922268391,0.0033854397479444742,-0.0003422975423745811,-0.0013688047183677554,0.0010160692036151886,-0.0043638828210532665
位置,0.003841577097773552,0.0005222848849371076,0.001970526296645403,-0.00220451015047729,0.010477314703166485,0.0023731926921755075,0.0008045828435570002,0.007543932646512985,-0.00044730701483786106,-0.007412610109895468,-0.0024165634531527758,0.00548818614333868,-0.001127114286646247,0.0084559116512537,0.004275538492947817,0.002238053595647216,-0.0005781531799584627,0.006301977671682835,-0.0036759991198778152,-0.0065438030287623405,0.006244372576475143,-0.002810397185385227,-0.0006118174642324448,0.001855918439105153,0.0029335259459912777,0.015376633033156395,-0.0014599787537008524,-0.003964895382523537,0.0016999086365103722,0.007065940648317337,-0.0025414512492716312,0.009696407243609428,-0.000709012383595109,0.007658661343157291,-0.0017626432236284018,0.0003542897757142782,0.002294805832207203,-0.00014314334839582443,-0.00562465051189065,0.006894736550748348,0.004379019141197205,-0.004281088709831238,0.0010035712039098144,-0.00016679707914590836,-0.007764490786939859,0.008467643521726131,0.0031622909009456635,0.003321564756333828,-0.0011374321766197681,0.006633407436311245,0.0017838370986282825,-0.0020159732084721327,-0.004886790178716183,0.004748837556689978,0.0021112775430083275,0.0033153488766402006,0.0027175527065992355,-0.0042235394939780235,0.006311658304184675,-0.004977877251803875
市场,-0.003980474080890417,-0.002431959379464388,0.0015562220942229033,-0.008995000272989273,0.0030699127819389105,-0.006078101694583893,0.0073043229058384895,-0.004867284558713436,0.0016955470200628042,-0.0069863032549619675,-0.0056664906442165375,0.0007402719929814339,0.00791566539555788,0.006028150208294392,0.010441988706588745,0.0023810018319636583,-0.005580004304647446,0.0027135699056088924,0.0023070997558534145,0.005588769447058439,-0.0011465874267742038,-0.0015363427810370922,0.0008038266096264124,0.0015553131233900785,-0.00660103652626276,-0.008322138339281082,-0.002931677270680666,0.004656603094190359,0.005880679935216904,-0.00833857525140047,0.0019031071569770575,-0.00012076785787940025,0.0033035092055797577,-0.003645128570497036,0.0018395842052996159,-0.003797528799623251,0.0006221132352948189,-0.0019899930339306593,0.005217069759964943,0.00856838934123516,0.0018454513046890497,0.005713887512683868,-0.010056225582957268,0.0003637438639998436,0.007849366404116154,0.0037780343554913998,-0.0010155837517231703,-0.00039281893987208605,-0.0073674581944942474,-0.006301164161413908,0.004877578467130661,-0.001497945049777627,-0.005312321707606316,0.008653508499264717,-0.0028795695398002863,-0.0037696445360779762,0.00957326591014862,-0.005932679865509272,0.000721671967767179,-0.00513873714953661
展示,0.003989621065557003,-0.0025541235227137804,0.005692582577466965,-0.0036217353772372007,-0.009216669015586376,-0.003426934825256467,0.00021418032702058554,0.0008479517418891191,-0.008130192756652832,-0.0008095935918390751,-0.011432708241045475,0.0024655666202306747,-0.0025261673144996166,0.00038998527452349663,-0.0018320240778848529,-0.00240940204821527,0.0005891532637178898,-0.007676453795284033,0.010167373344302177,0.0041552092880010605,-0.0024098462890833616,-0.0009943785844370723,0.0009188054827973247,0.0025710321497172117,0.004087118431925774,0.004953520372509956,0.007607945241034031,-0.005854968912899494,0.0023659123107790947,-0.003810625523328781,-0.007937576621770859,0.005755876190960407,-0.008251531049609184,-0.0019118236377835274,-5.0026283133774996e-05,-0.0030338852666318417,-0.004190666135400534,-0.008356522768735886,0.0040982444770634174,0.0003707798896357417,-0.005730012431740761,0.004134380724281073,-0.010233435779809952,-0.008795678615570068,0.0035500782541930676,0.0011548721231520176,-0.005382809787988663,-0.0022545752581208944,-0.0052977558225393295,-0.0016025104559957981,-0.006410045083612204,-0.00699093472212553,0.0009216686012223363,0.01155208982527256,0.0006366117158904672,0.004241738002747297,0.0003054934786632657,-0.010466387495398521,0.0016866386868059635,-0.005611139349639416
硬币,-0.000950041227042675,0.005560960620641708,-0.005814799107611179,0.007567862048745155,-0.004309022333472967,0.006824573501944542,-0.0014565438032150269,-0.0006346754962578416,0.004503215197473764,-0.0002405701670795679,-0.00030235154554247856,-0.006521408446133137,-0.009152069687843323,-0.003678006585687399,-0.007846458815038204,-0.0012554293498396873,0.008495145477354527,0.0012789573520421982,0.004625746514648199,-0.004368089139461517,-0.003782520769163966,-0.0021043517626821995,0.002700242679566145,-0.003194678807631135,0.005420476198196411,-0.004201376810669899,0.0033392938785254955,-0.009900512173771858,-0.007600885350257158,-0.007656073197722435,-0.0005787552800029516,0.004441387951374054,0.004210313316434622,-0.01294613815844059,0.0032647806219756603,-0.0047317929565906525,0.0009290756424888968,-0.0009593998547643423,-0.007522206753492355,-0.0018692300654947758,-0.006668117828667164,-0.004155784845352173,0.002257982501760125,0.0016773436218500137,-0.008149395696818829,0.00018535321578383446,-0.00029997352976351976,0.005845287349075079,-0.0018072761595249176,-0.0013173464685678482,-0.002875211648643017,0.00551960663869977,-0.0003162793582305312,0.006205489858984947,0.00250553572550416,-0.003061583498492837,0.011262000538408756,0.005602478049695492,-0.001996043138206005,0.0037600554060190916
节点,-0.0016932118451222777,0.002005351707339287,-0.007827010937035084,0.004415051080286503,-0.0035828331019729376,0.002974253613501787,0.0004376736469566822,-0.006196870934218168,-0.003732011653482914,0.012483112514019012,-0.006170040462166071,0.003727687755599618,-0.004520050249993801,0.0005152092780917883,-0.006503089796751738,0.0069989608600735664,-0.004435213282704353,-0.004354451317340136,-0.0023818558547645807,-0.012203087098896503,0.0011447668075561523,-0.0015959825832396746,0.007752280682325363,0.001998628955334425,0.00150757422670722,0.0028299891855567694,0.006949302740395069,0.004084049724042416,-0.003054762491956353,-0.005605603568255901,0.005450705531984568,0.00898151844739914,-0.0031817657873034477,0.00036746147088706493,0.004342800471931696,-0.009276890195906162,-0.003540889360010624,0.005131785292178392,0.0021334572229534388,0.005213017109781504,0.0038961463142186403,0.004833814222365618,0.006430762819945812,0.00424335990101099,-0.0019286026945337653,0.001766377710737288,0.0027028764598071575,-0.013673117384314537,0.00368344783782959,0.0002252054400742054,-0.0040152412839233875,0.007365338504314423,-0.004050034563988447,0.0014321771450340748,-0.00032395124435424805,-0.005337894894182682,-0.0008874881314113736,0.004204811993986368,-0.0030115193221718073,-0.0025913603603839874
项目,0.0030902395956218243,0.0041794925928115845,0.0029096610378473997,0.00797913409769535,0.005609098821878433,0.00033646589145064354,4.874705336987972e-05,0.006701741833239794,-0.004092629998922348,0.0026487959548830986,-0.003038065740838647,-0.004269743338227272,0.0024016480892896652,0.0009825699962675571,0.00044265517499297857,0.0030323341488838196,0.003656158223748207,0.009831616654992104,-0.0006016268162056804,0.0013041541678830981,0.008163021877408028,0.007675220258533955,-0.006108468864113092,-0.0020559567492455244,-0.000527611467987299,-0.0032347890082746744,0.003038519760593772,-0.0008300398476421833,0.0044505055993795395,0.003297030460089445,0.002929732669144869,0.004744081292301416,-0.001180803868919611,-0.011130992323160172,-0.006474324967712164,-0.008049393072724342,-0.0012268619611859322,-0.0009351121261715889,-0.011670859530568123,0.013107377104461193,0.0012475716648623347,0.0038270079530775547,-0.003128858283162117,-0.00452194781973958,0.004602305591106415,0.002541530877351761,-0.006595758255571127,0.0041517773643136024,-0.0010782401077449322,0.005772210657596588,-0.0017961240373551846,-0.0034527257084846497,0.00079314224421978,-0.008051871322095394,0.0012849338818341494,-0.003523588180541992,-0.0033954025711864233,0.006711117923259735,0.0062759690918028355,0.0026598251424729824
研究,-0.008210869506001472,0.0005589933134615421,0.0025493032298982143,-0.001195426913909614,-0.002159349387511611,-0.006922366097569466,-0.0010794755071401596,0.009048386476933956,-0.001581554301083088,0.0003865321632474661,-1.4451565220952034e-05,-0.003183507826179266,-0.005909652449190617,-0.006976103410124779,-0.0029465111438184977,0.007891923189163208,-0.004851341247558594,0.0015334925847128034,0.0008848851430229843,0.0018727872520685196,0.006434222683310509,-0.005689799319952726,-0.0017065915744751692,-3.573228605091572e-05,0.007515565026551485,0.007003074511885643,0.009313776157796383,0.0006789143662899733,0.001499128993600607,-0.0037849394138902426,-0.006571246776729822,0.002581590786576271,0.0013264850713312626,-0.0018134282436221838,0.003857242874801159,-0.002780178328976035,-0.0026335909496992826,0.006716115400195122,0.0011373088927939534,0.005863102152943611,0.004666113294661045,-0.007275452371686697,0.011411312967538834,0.010131478309631348,0.00023662892635911703,0.00803459994494915,-0.003632274456322193,-0.005636781454086304,-0.0027456823736429214,-0.0014451644383370876,-0.010304678231477737,0.0065011740662157536,0.005299813114106655,-0.008610500022768974,0.005849241279065609,0.002557725878432393,-0.002093519316986203,0.003086421638727188,-0.0033694785088300705,0.0021565998904407024
重创,-0.002667285967618227,-0.008705574087798595,-0.0005983784794807434,-0.002842281712219119,-0.001979827880859375,0.0031556326430290937,-0.002870225114747882,-9.882333688437939e-05,0.0002818134962581098,-0.0056116352789103985,-0.009332863613963127,0.0009212603908963501,-0.0029468685388565063,-0.001986406510695815,0.0014401923399418592,0.004045884590595961,0.0007814539130777121,0.0026493605691939592,-0.006546929944306612,0.0017941466066986322,0.00519396411255002,0.0018871519714593887,-0.0038419021293520927,-0.008269499987363815,0.003092742059379816,0.00034430716186761856,0.001282443176023662,-0.00883383210748434,-0.0037812581285834312,-0.0028415925335139036,0.006610141135752201,0.0034929849207401276,0.009332331828773022,0.012275926768779755,-0.0018754092743620276,0.0023501343093812466,-0.0013362293830141425,0.0004554211627691984,0.0008761577773839235,0.009342247620224953,-0.00923742726445198,-0.00538079347461462,-0.003517860546708107,-0.005172424484044313,0.002824234776198864,-0.013458572328090668,-0.0026436452753841877,0.003826616331934929,-0.0005170546937733889,-0.00014957948587834835,-0.00132545898668468,0.0031116888858377934,-0.009042828343808651,-0.00035124365240335464,0.0011124801822006702,0.0028844622429460287,-0.0031273693311959505,0.007185020484030247,0.0012430970091372728,0.0026586190797388554
空间,-0.00013794912956655025,0.0016279122792184353,0.00016005896031856537,0.0038346233777701855,-0.0052415537647902966,0.0012083982583135366,0.007866996340453625,-0.003730613738298416,-0.0006257316563278437,-0.0048066419549286366,-0.0021531370002776384,-0.0037667835131287575,0.006854022387415171,-0.002276199869811535,-0.004478825256228447,0.00968482717871666,0.007049235515296459,-0.004751154221594334,-0.004346699453890324,-0.0058570681139826775,-0.004639376886188984,0.006743518635630608,0.002762534888461232,-0.003661045804619789,0.008491503074765205,0.0021182019263505936,-0.0018081419402733445,0.0035482945386320353,0.0014194792602211237,-0.007202346809208393,-0.002060601022094488,-0.0031211180612444878,-0.004431627690792084,-0.0028355272952467203,0.002146038692444563,0.0017515707295387983,-0.0035643908195197582,-0.00986230093985796,0.0007572260219603777,0.0014539594994857907,0.002080908278003335,-0.005784683395177126,-0.0005426313728094101,0.00649587158113718,-0.004664486274123192,0.00513423141092062,-0.0006396344397217035,0.004585986025631428,-0.006502225995063782,-0.005022087134420872,-0.0021667801775038242,-0.0010379576124250889,0.006166445557028055,0.005373701453208923,-0.0034228030126541853,0.001391721423715353,0.0010564534459263086,0.0009599877521395683,-0.004906040150672197,-0.011297915130853653
意味着,0.0050914091989398,0.002809565281495452,0.004554892424494028,0.0006897603161633015,0.0025771071668714285,-0.0009443846647627652,0.0030793887563049793,0.001933825551532209,-0.006128125358372927,-0.0037662710528820753,-0.0016951035941019654,0.0002531528880354017,0.007634572219103575,0.003755623707547784,-0.0036174713168293238,-0.0011455407366156578,-0.0016560376388952136,0.0034401745069772005,-0.004377386067062616,0.0006123927305452526,0.002001271117478609,0.00561312073841691,-0.0005396358319558203,-0.002887264359742403,0.004277570638805628,0.0060866582207381725,0.005284574814140797,-0.0005156758124940097,0.0015458277193829417,0.002208191668614745,0.002277308376505971,-0.0012841739226132631,-0.006593960803002119,-0.004572006408125162,0.006495354231446981,0.001939188688993454,-0.0034937108866870403,-0.0032179108820855618,0.003227784764021635,-0.007079008966684341,0.00692997220903635,0.004925886634737253,0.0009537696605548263,-0.00277875573374331,-0.005224660038948059,0.000821200548671186,-0.0029812066350132227,0.00019030352996196598,0.0027633425779640675,0.0018062895396724343,0.003557927906513214,0.0017044799169525504,-0.0006644661771133542,0.003629945684224367,0.001078259781934321,0.0028429701924324036,-0.006333600264042616,-0.0016429072711616755,0.0006285196868702769,0.0019205415155738592
个人,0.00020517571829259396,-0.005668926052749157,-0.0007548914290964603,-0.0052287159487605095,0.001779541838914156,-0.0014573748921975493,-0.0015551417600363493,-0.003697801847010851,-0.0039097280241549015,0.0002636982826516032,-0.0007625219877809286,-0.0028034287970513105,0.002100844867527485,0.005792050622403622,-0.0029564108699560165,0.004572443664073944,0.0030769547447562218,-0.0005877460353076458,0.009516342543065548,0.00295349583029747,0.0028901698533445597,-0.005379780661314726,-0.0001965442206710577,0.0008479270036332309,0.005102161318063736,-0.0076998015865683556,0.005223862361162901,0.0017896207282319665,0.003801354207098484,-0.005804560612887144,-0.001554650254547596,-0.00791993085294962,-0.0001838458701968193,-0.008097497746348381,0.0028947475366294384,0.004695313051342964,-0.0035808547399938107,0.0007003151113167405,-0.00041614496149122715,-0.001868263236247003,-0.006048023700714111,-0.0017530261538922787,0.0009268545545637608,0.006570432800799608,0.006274532526731491,-0.002597355516627431,-0.00149354909081012,-0.003256270196288824,0.0025035759899765253,0.013255251571536064,0.0009187031537294388,0.0011339409975335002,-0.000511217163875699,0.00303086219355464,-0.004830644000321627,0.005877613555639982,0.006467265076935291,-0.008555370382964611,-0.006471272557973862,0.00021012290380895138
建立,-0.00010968302376568317,0.000674207229167223,0.008548189885914326,-0.001469093025662005,0.00707014836370945,-0.0031972103752195835,-0.0008150136563926935,0.004849060904234648,-0.00036061982973478734,0.008897160179913044,-0.0012435412500053644,0.004176685120910406,0.002831838559359312,0.0017520806286484003,-0.00225283345207572,0.0008051107288338244,-0.0007357199210673571,0.0035586899612098932,0.0030517142731696367,-0.0014791477005928755,-0.007550639100372791,0.00039563048630952835,0.0006331875920295715,-0.005005400627851486,0.005063528195023537,-0.010550717823207378,-0.005754075013101101,-0.0038700937293469906,-0.0033624032512307167,-0.006788065657019615,0.008340047672390938,-0.0008922127308323979,0.004212795756757259,0.0014492848422378302,0.007602718658745289,-0.005175259429961443,-0.001096497057005763,0.0007929652347229421,0.005431414116173983,-0.007450760807842016,0.013744771480560303,-0.002606596564874053,0.0066916802898049355,0.0034480278845876455,-0.0009217062615789473,-0.0030994419939816,0.0006572986021637917,-0.005336672533303499,0.0011539363767951727,0.010598516091704369,0.010591226629912853,0.005857514217495918,-0.006212770938873291,0.0027428169269114733,-0.004583644215017557,-0.006176457740366459,0.0016662335256114602,-0.004108943045139313,0.008870970457792282,0.004007529467344284
最,0.011371452361345291,-0.0009684839751571417,-0.003524339757859707,-0.0010293424129486084,-0.006390240974724293,-0.0027329393196851015,-0.005625240039080381,-0.0022754892706871033,0.008119301870465279,0.0039038294926285744,0.005424981005489826,-0.004846169147640467,-0.0025340579450130463,-0.0012051058001816273,0.0022476348094642162,-0.006205672398209572,-0.004797232802957296,0.008284972980618477,-0.0051350900903344154,-0.006899048108607531,0.0026314137503504753,-0.013534551486372948,-0.004291597753763199,-0.00033427440212108195,0.004016938153654337,-0.010436170734465122,-0.004480929579585791,0.000494043342769146,0.006726905237883329,-0.01218782551586628,0.00814023707062006,0.008931083604693413,-0.00914564449340105,-0.006594308651983738,0.0005214505363255739,0.006178594660013914,0.0029426072724163532,-0.011163015849888325,-0.006642086431384087,0.0012739901430904865,0.0013941079378128052,0.007520632352679968,0.011191872879862785,-0.009731444530189037,-0.007094482891261578,-0.0026905641425400972,0.001100689871236682,0.005694081075489521,0.005629821680486202,0.009527722373604774,0.0024939640425145626,0.0007136580534279346,0.011255381628870964,-0.005441213026642799,0.011946250684559345,-0.006233633495867252,-0.013581614010035992,-0.0026946295984089375,-0.0016712667420506477,0.0007497835904359818
觉得,0.005126134492456913,0.0012145239161327481,-0.0054662651382386684,-0.00690104067325592,0.001743090571835637,0.00011479295790195465,0.005204875487834215,0.00435965321958065,-0.0007790555246174335,-0.002074164105579257,0.00987615529447794,-0.0014174029929563403,0.007703851908445358,0.000729084073100239,-0.0022034826688468456,-0.010533190332353115,0.008340733125805855,-0.0019789733923971653,-0.00016138888895511627,-0.003027512226253748,-0.00453052157536149,-0.0035831707064062357,-0.0029756291769444942,-0.0031523911748081446,-0.007064749486744404,-0.00592865701764822,0.0004877387546002865,-0.00406811386346817,-0.0011346963001415133,-0.007171064615249634,0.007055920548737049,0.003914844244718552,0.002632029354572296,-0.00720813125371933,-0.0010450668632984161,-0.0033806401770561934,-0.006859956309199333,-0.011602731421589851,-0.0022523831576108932,0.0027706443797796965,-0.003637637011706829,-0.0005525727174244821,0.004550161771476269,-0.007878422737121582,-0.005088051315397024,0.006529638543725014,0.007364461664110422,-0.007166652008891106,0.00020501390099525452,-0.0022919434122741222,-0.0023005767725408077,0.00011895981151610613,-0.00981752946972847,-0.0030782981775701046,-0.0031142164953052998,0.0024840040132403374,-0.0025086160749197006,0.003776791039854288,0.008364563807845116,0.005230862181633711
过程,-0.001001032767817378,0.0006586637464351952,-0.00010877498425543308,0.001985949231311679,-0.002354168798774481,0.0007458542240783572,0.008502903394401073,0.0007565896958112717,0.001895663794130087,-0.00012554950080811977,0.0008005807176232338,0.006975861266255379,0.005651793908327818,0.0035176642704755068,0.0019514020532369614,-0.0015539884334430099,0.002817195374518633,0.005247050896286964,0.0027268158737570047,-0.004777636379003525,0.0012356622610241175,-0.0034165377728641033,-0.0016036398010328412,0.0011667622020468116,-0.0011770082637667656,-0.009007984772324562,0.0010291803628206253,0.0007030719425529242,0.0008337930776178837,-0.004832062870264053,0.007394961081445217,0.0020405245013535023,0.007819470018148422,0.004772333428263664,0.004961563274264336,0.004773193039000034,-0.0011831874726340175,0.0055560152977705,0.006170753855258226,0.000706884078681469,-0.0005322336801327765,0.005950520746409893,-0.006228046026080847,0.0027029106859117746,0.008306393399834633,0.007865468971431255,-0.0007904425729066133,0.0018425392918288708,-0.005738797597587109,0.001654619351029396,-0.0003295403439551592,0.0012748363660648465,0.0003727460280060768,-0.00021591130644083023,0.0004792488762177527,0.005947102792561054,0.008464972488582134,0.0025492124259471893,-0.0003356920788064599,-0.007518297526985407
最新,-0.005958798341453075,-0.007464525289833546,0.0020174020901322365,0.003997772932052612,0.001471587922424078,-0.007394987158477306,0.00033695914316922426,-0.0019015849102288485,0.0049175843596458435,-0.004317796789109707,-2.451706677675247e-06,-0.0014965733280405402,-0.0006638258346356452,0.0019391379319131374,-0.0018050908111035824,-0.010768761858344078,-0.001021446194499731,0.00016626899014227092,-0.0003440692671574652,-0.0022999998182058334,0.003935257904231548,-0.01123696006834507,0.005858263932168484,0.007563536521047354,0.0046319314278662205,-0.0041722687892615795,-0.0058343661949038506,4.763374454341829e-05,0.0014542224816977978,-0.0028057552408427,0.002251754282042384,-0.006473131477832794,-0.0019801990129053593,-0.001876083668321371,0.002026933478191495,-0.0022573000751435757,0.0027899774722754955,-0.009853461757302284,0.0013201828114688396,0.006143119186162949,-0.007536409422755241,-0.006451223976910114,-0.004991465248167515,0.00419436302036047,-0.003767402144148946,-0.0015680701471865177,0.00014013145118951797,-0.004467836115509272,0.002593406243249774,0.005286676809191704,-0.0021772291511297226,-0.007220016326755285,-0.010322722606360912,0.0033725702669471502,-0.003684988711029291,-0.0005678412271663547,0.001722338143736124,-0.004977906122803688,0.004915942903608084,-0.00505116768181324
扩张,0.004631310701370239,0.003832087852060795,0.0027421913109719753,0.001935124397277832,-0.0009578607277944684,-0.0016278387047350407,-0.008547002449631691,-0.0010313973762094975,-0.0003192413132637739,-0.0017379787750542164,-0.0012041062582284212,0.0012751547619700432,-0.008246934972703457,-0.005144650116562843,-0.004196323920041323,0.002991914050653577,0.008204836398363113,0.007145335897803307,-9.217089973390102e-05,0.003613696899265051,3.8970145396888256e-05,0.00204525887966156,-0.00036296111647970974,0.00704133091494441,0.0011540412670001388,-0.008781127631664276,-0.0016406376380473375,0.006404050625860691,0.003827132750302553,-0.006242142058908939,-0.006717291660606861,-0.004592489916831255,0.0033672023564577103,0.006372474133968353,-0.00871407799422741,-0.0011841499945148826,0.0036877277307212353,-0.009284229017794132,-0.007612360641360283,0.003456379985436797,-0.00565803237259388,-0.0006350209005177021,0.006807280238717794,-0.002732809167355299,-0.001864008721895516,-0.006321156397461891,-0.0036307747941464186,-0.0011452711187303066,0.007001153193414211,0.0028186230920255184,0.005657525733113289,-0.005828819237649441,0.004803432151675224,-0.006942986510694027,-0.0010980063816532493,-0.0020354348234832287,-0.005305597558617592,-0.0009381284471601248,0.005146925337612629,0.004151345696300268
预告片,-0.0046826256439089775,0.005737567786127329,-0.0023823087103664875,0.0021063140593469143,0.0008388898568227887,-0.0014003230025991797,-0.0016338592395186424,0.00809404905885458,0.0073304870165884495,-0.0020075563807040453,-0.0060263327322900295,-0.00430845795199275,-0.005239604506641626,0.0020715047139674425,-0.00023799206246621907,-0.008841769769787788,0.0008331174030900002,0.005482078529894352,0.0010711272479966283,0.003559127449989319,0.0012271963059902191,-0.0029505561105906963,-0.0013509939890354872,0.007050718646496534,0.001694864360615611,-0.00578732043504715,0.0019914109725505114,-0.006387927569448948,-0.007127514574676752,0.006394041236490011,-0.00038386922096833587,-0.002124801743775606,-0.006123035214841366,-0.003903095843270421,0.004008956719189882,0.003409869270399213,-0.0048499214462935925,0.0012016521068289876,7.964564429130405e-05,0.0005528542096726596,-0.004335405305027962,0.0022138250060379505,0.0009858451085165143,0.001208657631650567,-0.0038170532789081335,-0.0004893229925073683,0.00039309170097112656,0.00387845397926867,-0.0005772184231318533,-0.003673818428069353,0.0055923983454704285,0.003731480101123452,-0.006216888781636953,-0.0006490036612376571,0.0011330246925354004,-0.008886798284947872,-0.0002111317589879036,0.0010023274226114154,-0.002919804537668824,-7.948891288833693e-05
折扣,0.005686744581907988,-0.0025131471920758486,-0.0035262401215732098,-0.0008407675195485353,0.0002785752876661718,-0.005021268036216497,-0.0009845863096415997,-0.004518082365393639,-0.0003840313875116408,0.002303114626556635,0.006964604835957289,0.00185115123167634,-0.0010238401591777802,-0.0010233914945274591,0.008491694927215576,0.001502425642684102,-0.00071733258664608,0.001104774884879589,0.000208006938919425,-0.0033441672567278147,-0.0068855443969368935,0.0010132952593266964,0.0019115908071398735,0.00666588731110096,0.001902688411064446,0.007635381072759628,-0.001446387730538845,-0.0014090179465711117,0.003644205629825592,-0.002383831422775984,-0.00011481554247438908,0.005584002006798983,0.0006658097263425589,0.007308509666472673,0.008631542325019836,-0.004730203188955784,0.001350859645754099,0.0027821282856166363,0.0006635235040448606,0.0003846040344797075,-0.001963953487575054,0.002119961194694042,-0.00023289647651836276,0.0023685707710683346,-0.008182348683476448,0.0048152608796954155,-0.00566148804500699,0.002315221820026636,0.004503622651100159,-0.0026706126518547535,0.0030852302443236113,-0.0009167247917503119,0.006426489911973476,-0.0037341928109526634,0.003404541639611125,0.0016042316565290093,0.0009507009526714683,0.0019883220084011555,-0.005950209219008684,-0.00974802765995264
专注,0.006308292970061302,0.00357072870247066,-0.005803614854812622,-0.0011785898823291063,0.002064925152808428,0.0026874940376728773,-0.0010777699062600732,-0.002150454092770815,0.0018704475369304419,-0.006649262271821499,-0.004889840260148048,-0.01057517621666193,-7.531605660915375e-05,-0.0061813038773834705,-0.007168556563556194,0.009023144841194153,-0.004752625245600939,0.0026558605022728443,0.005313456058502197,-0.0032748994417488575,0.003580508753657341,-0.0006187553517520428,0.0013090625870972872,0.004158603958785534,-0.002243662253022194,9.288197907153517e-05,-0.0028340346179902554,-0.008452219888567924,-0.009544314816594124,-0.0032620092388242483,-0.011410055682063103,-0.004149499349296093,-0.0025316961109638214,-0.0030248176772147417,0.005860745906829834,0.009936190210282803,-0.004737255163490772,-0.0037229745648801327,0.006509711965918541,-0.0041176024824380875,-0.010295836254954338,0.0005683028139173985,-0.0037753451615571976,-0.00461922399699688,0.00031055614817887545,-0.0019619720987975597,0.002383928745985031,-0.0031705591827630997,-0.006424511782824993,-0.0021111508831381798,0.007299263961613178,-0.00803191214799881,0.0016428360249847174,0.002837482839822769,0.0011509503237903118,0.002068556845188141,-0.004765373654663563,0.003941860515624285,-0.001984404167160392,-0.002407751278951764
意见,0.004793337546288967,0.0011586761102080345,-0.0025360265281051397,-0.0027057158295065165,0.004017163533717394,0.005375408101826906,-0.003177868900820613,-0.01124868355691433,0.006673266179859638,0.010668337345123291,-0.007059941533952951,-0.003656847169622779,0.008838080801069736,-0.003908975049853325,-0.0018025776371359825,-0.0012267476413398981,0.00429762015119195,-0.004425474908202887,0.0032728835940361023,-0.004360702820122242,0.000966072897426784,-0.008827736601233482,0.006096577271819115,0.0014053679769858718,0.0004040021449327469,0.007526649162173271,-0.0031881937757134438,-0.0027896002866327763,0.004440811462700367,0.0038274514954537153,0.004826064687222242,0.006870310753583908,0.005492356605827808,0.007599535398185253,0.004078438505530357,0.004500169772654772,0.005495457444339991,-0.004458149895071983,-0.004359210841357708,-0.00021990668028593063,0.0038758290465921164,0.0010442652273923159,-0.0026769263204187155,0.0024412600323557854,0.0008659921586513519,-0.0018772666808217764,0.004779842682182789,0.002781709423288703,0.00639110803604126,0.0006479178555309772,0.011027676984667778,0.0024806763976812363,-0.0003016532864421606,-0.0035533399786800146,-0.012582605704665184,0.0009868491906672716,-0.0034403298050165176,-0.00014554162044078112,-0.008590195327997208,-0.005055965390056372
仍然,-0.00662611797451973,0.0015352085465565324,0.0037221673410385847,0.0075156185775995255,0.0015149316750466824,0.0002717974130064249,0.003591925138607621,-0.003294789232313633,-0.000824343878775835,-0.00042623834451660514,0.0034760162234306335,-0.0020117780659347773,0.0029306805226951838,-0.0025178033392876387,-0.006245036609470844,-0.005224808119237423,0.0020228931680321693,0.0008551767095923424,0.0064880987629294395,0.008166933432221413,-0.0012315015774220228,-0.00668010488152504,-0.003774339333176613,0.012742605060338974,0.0008908435120247304,-0.006809784099459648,-0.0028832056559622288,0.002283171284943819,-0.005903689190745354,0.0009326254948973656,0.003665868192911148,-0.0010833838023245335,-0.00963489431887865,-0.0057690804824233055,-7.36721558496356e-05,-0.0016668831231072545,0.0015542119508609176,-0.006748977582901716,0.00533346738666296,0.004683611448854208,-0.002784992568194866,-0.0016791918314993382,-0.0006733271293342113,0.0010125639382749796,0.0008010959718376398,-0.003610993968322873,-0.0013597154757007957,0.000583272660151124,0.0004993391921743751,0.015440604649484158,0.004564309027045965,-0.008312532678246498,-0.0024621032644063234,0.00508989067748189,0.010581666603684425,0.0048118047416210175,0.0011160594876855612,-0.010787189938127995,0.005769981537014246,-0.0032433047890663147
合理,-0.0034919404424726963,0.005980338901281357,0.0047013359144330025,-0.005705947056412697,0.003595324233174324,0.004034015350043774,0.00484326621517539,-0.0018885207828134298,-0.006294166669249535,0.003751731477677822,0.007207566872239113,-0.0015595913864672184,0.0033418918028473854,0.002145070116966963,-0.005669888108968735,-0.004763043485581875,0.0004919623024761677,0.002467617392539978,-0.0030684310477226973,-0.009544526226818562,0.006346812006086111,-0.0077836462296545506,0.004290686454623938,-0.0076248012483119965,-0.003580740885809064,-7.266225293278694e-05,0.005943272728472948,-0.0028827544301748276,-0.0003658425994217396,-0.000651133363135159,-0.003169592469930649,9.92028508335352e-05,-0.005513399373739958,0.009730769321322441,0.0027737626805901527,0.002283285139128566,0.0020261912140995264,0.0016928425757214427,0.001043430296704173,0.005400786176323891,-0.001604293705895543,0.003142788540571928,-0.0047159637324512005,-0.003592685330659151,0.003969486802816391,0.004052462987601757,-0.007296204101294279,-0.0024456602986902,-0.003961327951401472,-0.0037514863070100546,0.005153483711183071,-0.005603959783911705,-0.008952022530138493,0.0035286960192024708,0.007735442835837603,-0.0010199479293078184,-0.0036734614986926317,-0.004769842140376568,-0.0027068881317973137,-0.004140537232160568
完美,0.002573910867795348,-0.002535812323912978,0.010197455063462257,-0.0020819613710045815,0.0005386120174080133,-0.004420679062604904,0.004725784994661808,-0.0012874550884589553,-0.006003413815051317,0.0006814171792939305,-0.004993387497961521,-0.0057027144357562065,-0.007247605361044407,0.006504601798951626,-0.0051676928997039795,-0.0020079289097338915,-0.0017652546521276236,-0.004297047853469849,0.0039007822051644325,-0.005389397498220205,0.0024980632588267326,0.007197409402579069,0.0005815515760332346,-0.0024687503464519978,-0.002776613924652338,-0.01029451284557581,0.003975640516728163,0.009965823963284492,-0.005452092736959457,0.00022196071222424507,0.0015637846663594246,-7.233000360429287e-05,-0.0002621141029521823,-0.002185320947319269,-0.0005925910081714392,0.009969986043870449,-0.0016792186070233583,-0.01161479577422142,0.0013712684158235788,0.00930007640272379,0.010190419852733612,0.0042009674943983555,-0.00515357032418251,0.001686703646555543,0.008239902555942535,0.001322406344115734,0.004502508323639631,-0.004890064243227243,0.009463764727115631,0.005457352846860886,-0.003002353012561798,0.004148303531110287,0.0009149130200967193,0.006450830493122339,0.007001776248216629,-0.004614897072315216,-0.002541686873883009,-0.0021917931735515594,-0.0037391153164207935,0.003326301695778966
相同,-0.006587806157767773,0.0036873463541269302,8.558249101042747e-05,0.011281328275799751,0.002704390324652195,0.002388575579971075,-0.003720776177942753,0.006838844157755375,-0.003006715327501297,-0.00651177205145359,0.004543283488601446,0.006881894543766975,0.001831520814448595,0.002043444663286209,0.0020402129739522934,-0.00433316919952631,-0.001345330267213285,0.004714252892881632,0.0007593361660838127,-0.0032996744848787785,0.012094940058887005,0.0007815659046173096,-0.00014258944429457188,-0.0017958306707441807,0.001898273010738194,0.008477437309920788,-2.2305244783638045e-05,0.0017817271873354912,0.002178800757974386,2.8008827939629555e-05,0.0020331176929175854,-0.0021364514250308275,0.00768673000857234,-0.0036453783977776766,0.008832601830363274,0.00479372451081872,0.0014585175085812807,0.002124952618032694,0.0010132536990568042,0.0022222865372896194,-0.0023398292250931263,-0.005056163761764765,-0.005166057031601667,0.006699183024466038,-0.006086645647883415,-0.000998933333903551,-0.0033981837332248688,0.006614258512854576,-0.005584173835813999,-0.002383867744356394,0.004758863709867001,0.007695420645177364,0.0026482248213142157,0.0038659381680190563,0.00014351611025631428,0.008493239060044289,0.001354187959805131,-0.0077000632882118225,0.0009642300428822637,0.0019902267958968878
奖励,-0.010120786726474762,-0.006104821339249611,0.014412667602300644,0.006038390565663576,-0.004500591196119785,0.000906569417566061,-0.007356652989983559,-0.0018597927410155535,0.01114465668797493,-0.004919927567243576,0.0032243828754872084,0.0027750572189688683,0.0069604311138391495,-0.0009980073664337397,-0.006201258394867182,-0.0054433923214674,-0.00796044897288084,0.00414649210870266,-0.006371317431330681,0.0032556653022766113,-0.0005234276177361608,-0.005053454544395208,-0.0041304053738713264,-0.002930760383605957,0.0016196868382394314,0.0018883284647017717,0.0010757530108094215,-0.0017310644034296274,-0.001840752549469471,-0.011974455788731575,-0.0014280944596976042,-0.00726674497127533,4.9350084736943245e-05,-0.0019635185599327087,0.002016587881371379,-0.0020065621938556433,-0.005208129994571209,-0.005752121098339558,-0.013440863229334354,-0.0035357677843421698,0.0034591278526932,-0.006272250786423683,-2.568424679338932e-05,0.004432453773915768,8.743093349039555e-05,0.0008600282017141581,-0.008447987027466297,0.004683556966483593,0.0012691261945292354,-0.0009420352289453149,-0.003797810059040785,0.00017383997328579426,-0.005236026365309954,-0.000587723683565855,0.0073683494701981544,0.003153841011226177,0.008272049948573112,-0.004392947070300579,-0.0038149780593812466,0.0051543074660003185
渊源,-0.000916786608286202,0.0032675976399332285,-0.003027074970304966,0.004090716131031513,0.0011223985347896814,-0.004053997341543436,-0.002377422759309411,0.0015411186031997204,0.0036515090614557266,0.00017331005074083805,0.0008915464859455824,-0.00019622848776634783,-0.0027935896068811417,0.01166542712599039,-0.004282680340111256,-0.003458060324192047,0.004402635153383017,0.0034931006375700235,-0.0005872887559235096,-0.00942173134535551,0.0035474016331136227,-0.0010713193332776427,-0.0020538403186947107,0.002924291417002678,-0.004502558149397373,0.0031893737614154816,-0.006436646915972233,0.00030794949270784855,0.0009404034935869277,-0.004666781052947044,0.0018876707181334496,-0.00828013475984335,-0.0030447563622146845,0.0040617152117192745,-0.0006760972319170833,-0.0033990873489528894,-0.00040495535358786583,-0.00019306130707263947,-0.005447746254503727,0.001907719299197197,-0.007471983786672354,-0.004489171784371138,0.0003170249401591718,-0.0031075123697519302,0.004377634264528751,-0.003977461718022823,-0.005264277569949627,-0.00347144459374249,-0.004445897415280342,0.0021095536649227142,-0.00573571864515543,0.0009957789443433285,0.010437851771712303,-0.0004505806718952954,0.006302270106971264,-0.0009910017251968384,-0.009432529099285603,0.009453513659536839,0.0014832874294370413,-0.006945161148905754
巨大,0.003208587411791086,-0.0012142776977270842,-0.002885643392801285,0.001578217139467597,-0.0021935950499027967,0.009776875376701355,0.004165632650256157,0.0020002895034849644,-0.005439594853669405,0.0014221473829820752,-0.007102636620402336,0.0009168111719191074,0.003007670631632209,-0.002658911282196641,0.006139698904007673,-0.003250552574172616,0.002021543215960264,0.005694067571312189,-0.011092865839600563,-0.011324647814035416,-0.005609581246972084,-0.007812118157744408,0.0035458295606076717,0.002312922850251198,-0.007344087585806847,-0.0029297680594027042,-0.00026181479915976524,0.004059789702296257,0.0004125983687117696,0.0002660073805600405,0.0062342435121536255,-0.008761275559663773,0.0016502421349287033,-0.0002537339460104704,-0.0018167368834838271,0.0054436419159173965,-0.007196752820163965,-0.0035390183329582214,0.0025828592479228973,0.00015940063167363405,-0.002644422696903348,-0.0007035743910819292,-0.0025893838610500097,-0.006072008982300758,0.003750747302547097,-0.006171957589685917,-0.002770861843600869,0.0010355901904404163,-0.0010028136894106865,0.005557313561439514,0.002762223593890667,0.006890428252518177,0.0019592265598475933,0.0011815917678177357,-0.00570509722456336,-0.0051144869066774845,-0.010775330476462841,0.002257735002785921,0.0002853255718946457,-0.004541041329503059
基础设施,0.004088117275387049,-0.004546978045254946,-0.0007158167427405715,-0.0017526107840240002,-0.002604458713904023,0.00015817052917554975,0.0008914702921174467,-0.00016248394967988133,-8.634435653220862e-05,-0.0004215097287669778,0.005115904845297337,0.001113399863243103,0.006189896259456873,0.0012443829327821732,-0.0011751820566132665,0.002389031695201993,0.003894299501553178,-0.00018060649745166302,0.0026551331393420696,-7.350423402385786e-05,0.0026326703373342752,-0.002386965323239565,0.001973636681213975,0.0029180184938013554,-0.001515258802101016,0.0020435203332453966,0.00422712741419673,0.004150589928030968,0.006688789930194616,-0.0003512016555760056,0.0008482155972160399,-0.0033581277821213007,-0.003098462475463748,-0.0026773037388920784,0.0004982638056389987,0.0012381039559841156,0.002775161527097225,0.0020873446483165026,-0.001373298349790275,-0.0025605077389627695,-0.0007528196438215673,0.00491754524409771,0.000555377162527293,-0.004628511145710945,-0.004508631303906441,0.005098283756524324,0.0004293470410630107,0.0017561129061505198,0.0005628293147310615,-0.0006066454225219786,-0.003867813153192401,-0.002742862096056342,0.0007780609303154051,-0.003494360949844122,0.0018123523332178593,0.0010950794676318765,-0.000764012336730957,0.0004087968554813415,0.004931915085762739,-3.490952440188266e-05
一直,-0.002229509875178337,-0.00170840322971344,1.391465775668621e-05,-0.006000068970024586,-0.0038569443859159946,-0.0032968136947602034,0.0007616145303472877,0.006736166309565306,0.003511811140924692,-0.003336900845170021,-0.010652519762516022,0.007661028765141964,0.006457469426095486,-0.0011846194975078106,-0.006519773975014687,-0.006280020345002413,0.004762084223330021,-0.0021069881040602922,0.006449035368859768,-0.003192220814526081,-0.00015587278176099062,-0.004706073086708784,0.0028705347795039415,0.0008645592024549842,0.014319213107228279,0.00014458387158811092,0.0020240345038473606,0.0011782515794038773,-0.003242621198296547,0.0013473753351718187,0.004175174981355667,-0.003009938634932041,0.005955314729362726,-0.004124215804040432,-0.001814109506085515,-0.0050935265608131886,-0.003950710874050856,-0.009663727134466171,-0.010092778131365776,-0.00045568589121103287,0.01081488374620676,-0.004539023619145155,-0.0027550312224775553,-0.002700652927160263,-0.004875045735388994,-0.006793744396418333,-0.0016374294646084309,0.0031661854591220617,-0.0029994642827659845,0.007047764025628567,0.004904063418507576,-0.010631193406879902,-0.0035782172344624996,0.0059250276535749435,0.007758635096251965,0.007628772407770157,-0.0005261769983917475,0.0008493729401379824,0.011198434978723526,0.0007091851439327002
