word,0,1,2,3,4,5,6,7,8,9,10,11,12,13,14,15,16,17,18,19,20,21,22,23,24,25,26,27,28,29,30,31,32,33,34,35,36,37,38,39,40,41,42,43,44,45,46,47,48,49,50,51,52,53,54,55,56,57,58,59,60,61,62,63,64,65,66,67,68,69,70,71,72,73,74,75,76,77,78,79,80,81,82,83,84,85,86,87,88,89,90,91,92,93,94,95,96,97,98,99
码头,-8.034915663301945e-05,-0.00018308614380657673,0.0053656394593417645,0.005421441048383713,-0.0026061139069497585,0.0015900781145319343,0.0015609841793775558,0.003180539235472679,-0.003005047095939517,-0.0037885145284235477,-0.0005679575842805207,-0.00411678571254015,0.0004187726881355047,0.0040608542039990425,-0.0028907540254294872,-0.0003245279658585787,0.0008763816440477967,-0.0008330412092618644,0.006037238985300064,-0.002569704782217741,0.0017449622973799706,-0.002031337935477495,-0.0017940838588401675,0.0017842571251094341,-0.0031465881038457155,0.004041382111608982,-0.002908955095335841,-0.002223594579845667,0.000452705891802907,-0.002512900624424219,-0.003007883206009865,-0.003084777854382992,0.004979965277016163,0.0013525313697755337,0.0022621622774749994,-0.0007654526270925999,-0.004468713887035847,0.003556998912245035,0.0032572683412581682,0.0037234793417155743,-0.0014146255562081933,-0.0025429208762943745,-0.0018207243410870433,-0.004228404723107815,-0.0005075938533991575,-0.001821756362915039,-0.00349677843041718,0.00016259764379356056,0.002908488968387246,0.0009454981773160398,-0.003026074729859829,-0.0012219552882015705,0.003176132682710886,0.003070080652832985,-0.0012985601788386703,-0.001691310666501522,9.262326057069004e-05,-0.0020434707403182983,-0.006357415579259396,9.405985474586487e-05,-0.0013638330856338143,-0.000692048342898488,0.005532118957489729,0.0020716567523777485,0.0014803024241700768,-0.0031718071550130844,0.003837471827864647,-0.0008636456914246082,-0.003924997989088297,-0.0037101299967616796,0.0018546304199844599,-0.0028707697056233883,0.0005656142020598054,-0.001856767339631915,-0.001087976386770606,0.0015909989597275853,-0.004198293201625347,-0.0037045320495963097,-0.0038056443445384502,0.001283660065382719,1.894135493785143e-05,0.007096697576344013,-0.002188607584685087,-0.003789524082094431,0.0014725469518452883,7.773592369630933e-05,0.0019844628404825926,-0.0009600762277841568,-0.0010552589083090425,0.0006064956542104483,0.0017806586110964417,-0.0017414457397535443,8.836196502670646e-05,-0.001860389020293951,0.0010045655071735382,0.0015890720533207059,0.004126610234379768,0.004922439344227314,0.0031820754520595074,0.0019081494538113475
提示,0.00161242566537112,0.004566291347146034,0.0024680616334080696,-0.004851624369621277,0.00020020315423607826,0.00014069094322621822,-0.003214283613488078,0.00015785032883286476,0.003005744656547904,-0.0006579180480912328,-0.0003948017838411033,-0.0015488635981455445,0.004059862345457077,0.0014378849882632494,0.000896071782335639,-0.0005262932390905917,0.002660040743649006,0.002147096209228039,-0.0027404266875237226,-0.004785590339452028,-0.0014247106155380607,-0.0012677726335823536,-0.003684809897094965,-0.0016492900904268026,-0.0001491345465183258,-0.0042544263415038586,0.001337161986157298,-0.00012241059448570013,0.002262533875182271,0.007559693418443203,0.003675508312880993,-0.007511609233915806,-0.006248952820897102,0.0005665785865858197,-0.001691218581981957,0.008336996659636497,0.00318027357570827,-0.00730401836335659,0.0014422873500734568,-0.004615730606019497,-0.00028276449302211404,0.002295307582244277,-0.005559754092246294,-0.0004593300400301814,0.0021792426705360413,-0.005375182721763849,-0.0020401575602591038,-0.001761463237926364,-0.0012626302195712924,0.001967003336176276,0.0021083711180835962,5.975947715342045e-06,0.0011989513877779245,0.003450029529631138,0.00016113178571686149,-0.0027507320046424866,-0.0006653086747974157,0.001072983955964446,-0.00443506333976984,0.002070408081635833,0.001976067665964365,-0.0036566131748259068,-0.003987057600170374,0.002652890747413039,-0.004042173735797405,-0.0011313041904941201,-8.587725460529327e-05,-0.0019345858599990606,0.003196131670847535,0.00401174183934927,-0.0023698867298662663,-0.0032820235937833786,-0.002318114973604679,-0.0017372270813211799,-0.00048797810450196266,-0.004447861574590206,0.0008867873111739755,-0.006027247291058302,0.0022592395544052124,0.0007938140770420432,-0.0013967588311061263,-0.0024896564427763224,0.0003020020085386932,-0.0007757734274491668,-0.0007789817173033953,0.005231616552919149,-0.0022421046160161495,-0.004058956168591976,-8.342089131474495e-06,0.0012679530773311853,0.004564068280160427,-0.004809146281331778,0.004793833941221237,-0.0004855315783061087,-0.0012942709727212787,0.007212499156594276,0.00018830550834536552,0.0013145344564691186,0.00133440550416708,-0.0016624884447082877
