word,0,1,2,3,4,5,6,7,8,9,10,11,12,13,14,15,16,17,18,19,20,21,22,23,24,25,26,27,28,29,30,31,32,33,34,35,36,37,38,39,40,41,42,43,44,45,46,47,48,49,50,51,52,53,54,55,56,57,58,59,60,61,62,63,64,65,66,67,68,69,70,71,72,73,74,75,76,77,78,79,80,81,82,83,84,85,86,87,88,89,90,91,92,93,94,95,96,97,98,99
冒险,0.00029244052711874247,9.740260429680347e-05,-0.0010641409317031503,0.0005497636157087982,-0.00416921591386199,0.00206355401314795,0.001148920156992972,-0.001095071667805314,-0.004752587992697954,-0.0002967489417642355,-0.0024628126993775368,-0.0010803480399772525,0.006205840967595577,0.0015820045955479145,-0.0012905022595077753,0.0018088958458974957,-0.004400366451591253,0.00500092376023531,-0.002443823264911771,0.003070307895541191,0.001403541537001729,0.0029184743762016296,0.0018452024087309837,0.0002998164272867143,-0.0028030909597873688,0.005357791669666767,-0.002975594950839877,-0.002121579833328724,0.0010004183277487755,-0.0016321999719366431,5.2554067224264145e-05,-0.001356290653347969,0.001694490434601903,0.0001798119628801942,0.0018532156245782971,0.0014926429139450192,0.00010166887659579515,0.002101990394294262,0.0032822703942656517,0.00010493723675608635,-0.004780040588229895,-0.0018143466440960765,0.0018552246037870646,-0.0013140593655407429,-0.0018510243389755487,-0.0012094179401174188,-0.004653407260775566,-0.0041859871707856655,-0.0009320038370788097,-0.0014992698561400175,0.0002701695775613189,0.001895118155516684,-0.0009801042033359408,-0.00028095737798139453,-0.0022211528848856688,0.0015653074951842427,-0.00042911898344755173,0.0034684077836573124,-0.004806957207620144,-0.0017977171810343862,0.0029162769205868244,0.0003250869922339916,-0.00025605992414057255,0.0019410414388403296,0.0011765820672735572,0.0005303170764818788,-0.0034415144473314285,0.0036795949563384056,-6.270990706980228e-05,-0.0047657969407737255,-0.003306341590359807,0.0008907071314752102,-0.0015321220271289349,0.005468625575304031,-0.00017868215218186378,-0.0008159311255440116,-0.003803221508860588,-0.001255568815395236,-0.0011593446834012866,0.0007551817689090967,-0.003731442615389824,0.0011778041953220963,-0.002560945227742195,0.0022972607985138893,0.003938151523470879,-0.0008635211270302534,0.00394242350012064,-0.00605411222204566,0.003534442512318492,-0.002156053902581334,0.007428367622196674,0.004712000023573637,-0.0027382266707718372,-0.0012195799499750137,-0.004742330405861139,-0.0020435163751244545,-0.0014575074892491102,0.0025790641084313393,-0.004492765758186579,0.004871655721217394
最好,-0.013518648222088814,0.010985428467392921,0.009193298406898975,0.011137640103697777,-0.0012354101054370403,-0.008051427081227303,0.0017561007989570498,0.00894270557910204,-0.000860942411236465,-0.002656343160197139,-0.0033435013610869646,-0.010410048067569733,-0.004598526284098625,0.006039770320057869,0.0031932012643665075,-0.01325569674372673,-0.0007246509194374084,0.0006952750263735652,-0.0012467076303437352,-0.026054665446281433,0.008390099741518497,-0.006860369350761175,-0.006919849198311567,-0.0010977931087836623,0.0008653303375467658,-0.004809353034943342,-0.008897746913135052,-0.001234925352036953,-0.005583456717431545,-0.0024177173618227243,0.004981030710041523,-0.0024713461752980947,-0.0009843753650784492,-0.0005203295731917024,-0.006734441965818405,0.00910632498562336,0.0027855581138283014,-0.0028149602003395557,-0.014562971889972687,-0.01758488453924656,0.0015810440527275205,-0.0022287829779088497,-0.0055768718011677265,-0.006052822340279818,-0.003906955011188984,0.004716103430837393,-0.008090869523584843,0.012044565752148628,0.0006413646624423563,0.009400703012943268,-0.008718856610357761,4.119108780287206e-06,-0.004544124472886324,0.009086999110877514,0.006660284008830786,0.00045010086614638567,0.006474897265434265,-0.0051339673809707165,-0.009326656349003315,0.001944413990713656,-0.002769426442682743,0.0020775748416781425,0.0013803724432364106,-0.0006205684039741755,-0.002266291528940201,-0.006010228767991066,0.004282580688595772,-0.005546456202864647,-0.006234508473426104,0.014727165922522545,-0.004942474886775017,-0.005622311495244503,0.0016867080703377724,-0.0006863778689876199,0.005901823751628399,0.010089905932545662,0.003543830243870616,-0.0030443123541772366,-0.00319978641346097,-0.0015672685112804174,0.006246095057576895,0.003737941151484847,-0.0024786614812910557,0.004899048246443272,-0.005757715553045273,-0.00037229969166219234,-0.002551116980612278,-0.0013934692833572626,0.003614750225096941,0.0026779386680573225,0.001990118995308876,-0.0026463274843990803,0.0031961232889443636,0.007940750569105148,0.010276641696691513,0.004426838830113411,0.001284101977944374,-0.0031576724722981453,8.731242269277573e-05,-0.0011747212847694755
乐队,0.0036450226325541735,-0.002451266162097454,0.004262343980371952,0.0068349894136190414,-0.00315121840685606,-5.7170167565345764e-05,-0.003655492328107357,-0.0017005837289616466,-0.00259736948646605,0.0015012475196272135,-0.005015661008656025,-0.0021187516395002604,-0.0034153247252106667,0.0009758953237906098,0.0013999693328514695,-0.0033355955965816975,-0.0038991225883364677,0.0008181147277355194,0.002839883789420128,-0.006378090009093285,0.0009377887472510338,5.1515031373128295e-05,0.002954459050670266,-0.0030423938296735287,-0.0005806903354823589,-0.0005521177663467824,-1.8518796423450112e-05,0.0002904413267970085,-0.0023848447017371655,0.0024355673231184483,-0.0030975942499935627,-0.0013016792945563793,-0.003285155165940523,-0.0015364536084234715,-0.00012354878708720207,0.0025560404174029827,0.004847551696002483,-0.0028441352769732475,-0.004726122599095106,-0.0007130519952625036,0.004442942328751087,-0.0032971554901450872,-0.0020500291138887405,-0.001389923389069736,0.0010732043301686645,0.00483502633869648,-0.007530542090535164,-0.0020855488255620003,0.0025382644962519407,0.007195756305009127,-0.002430700697004795,-0.00260505685582757,0.001771716633811593,0.001293410430662334,0.00015994987916201353,0.0032604129519313574,0.004323470406234264,-0.002966753439977765,-0.0001103526446968317,0.0012652231380343437,0.0050657219253480434,-0.004890576936304569,-0.0020089203026145697,0.004368104971945286,0.00014339142944663763,-0.006708323489874601,-0.0022380086593329906,0.0003264579572714865,-0.005999589338898659,0.006918470375239849,0.0005338391056284308,0.0012524808989837766,-0.001985909417271614,-0.0017513814382255077,-0.004066838882863522,0.006920287851244211,-0.0005332037690095603,-0.0024008224718272686,-0.002201203955337405,-0.0017294881399720907,0.0006335066282190382,-0.00045787604176439345,0.0011418703943490982,-0.0021573284175246954,0.0023156790994107723,0.002936163917183876,-0.001505951164290309,0.002708414802327752,0.0024906834587454796,0.0004742226446978748,0.0023914589546620846,-0.002547010313719511,-0.001003508223220706,0.0030393849592655897,0.0003418666310608387,-0.0011170274810865521,0.000288433424429968,-0.0010889065451920033,0.000551676144823432,0.003946279175579548
圣地,0.0030325620900839567,0.0031409647781401873,-0.0032001505605876446,-0.002327763708308339,0.0031919842585921288,0.0002661996113602072,-0.0036048367619514465,-0.002810749923810363,-0.004531356506049633,0.002115418203175068,0.000825018621981144,0.0027427554596215487,-0.0005226556677371264,0.0013823016779497266,0.001778829493559897,-6.0791149735450745e-05,6.0653663240373135e-05,0.0029478776268661022,0.005182797554880381,0.0008877571672201157,0.002688091713935137,0.0002601384767331183,0.004051930271089077,-0.0036138908471912146,0.003706886898726225,-0.0010933233425021172,0.004681297577917576,-0.001651210244745016,-0.0017245853086933494,0.0021304551046341658,0.0017138703260570765,0.0025402717292308807,-0.005406772717833519,-0.0004325765185058117,-0.0019253399223089218,0.000501590664498508,0.000940425437875092,-0.0005086224991828203,-0.00375028932467103,-0.003922348376363516,0.003167073242366314,5.3458032198250294e-05,-0.0007665448356419802,-0.002044043270871043,0.000692077970597893,-4.3660751543939114e-05,0.0015254048630595207,0.0016212135087698698,-0.0014190172078087926,-0.004051391966640949,-0.001017662463709712,0.006256267428398132,-0.0036386922001838684,0.003213633317500353,0.0004412013804540038,-0.000820996705442667,0.001730841351673007,0.0012956307036802173,0.00366244837641716,0.0019752003718167543,0.0026096331421285868,0.0016075605526566505,-0.000671203772071749,0.0007762538734823465,0.0031253155320882797,-0.000579844054300338,-0.0012655737809836864,0.000563410168979317,-0.0014404101530089974,0.00283893384039402,-0.005808352027088404,0.0006013602251186967,0.0006335519137792289,-0.0025105904787778854,-0.0013640550896525383,0.0024696665350347757,-0.0013974941102787852,-0.0036733157467097044,0.0014137884136289358,0.00047097890637815,0.0027927234768867493,0.0048755984753370285,-0.003733291057869792,-0.0016768365167081356,-0.00207244954071939,-0.0029273692052811384,0.0021295673213899136,-0.00526988971978426,0.0005390984006226063,-0.0005661946488544345,0.001325804740190506,0.0005698421155102551,-0.005175312515348196,-0.0006186275277286768,1.6830861568450928e-05,0.005034727975726128,0.0004154753405600786,-0.0008746139938011765,0.005211184732615948,-0.001107573974877596
安息,-0.00037032843101769686,0.0032451734878122807,0.0022716259118169546,0.003448538016527891,-0.004168715327978134,-0.0031937388703227043,-0.004039624705910683,0.002629754599183798,0.002045402303338051,-0.0017741662450134754,0.002768916077911854,0.00304243597202003,0.0020859059877693653,0.003262303303927183,-0.004904866684228182,-0.006679081823676825,0.0014254951383918524,-0.0018651689169928432,0.002280702581629157,-0.006145238410681486,0.000860523316077888,-0.0023072403855621815,-0.0034849178045988083,0.0004012651043012738,-6.545439828187227e-05,-0.001230316935107112,0.004879023879766464,0.0009209088166244328,-0.0011210874654352665,-0.007368197664618492,0.0028016017749905586,0.0037041152827441692,0.0008012604084797204,-0.0011578169651329517,-0.001498687663115561,0.004259566310793161,0.0011607551714405417,0.002326620975509286,-0.0018806797452270985,-0.003584593068808317,-0.0025033815763890743,-0.0013239332474768162,0.0015041828155517578,-0.0038518228102475405,-0.001174799632281065,-0.0018722275272011757,-0.0013887151144444942,0.0028541346546262503,0.0025622607208788395,-0.0022502541542053223,0.002842644229531288,0.0001683610607869923,0.00139800610486418,-0.0015308187576010823,-0.0015695060137659311,-0.00280505302362144,-0.0003467169008217752,-0.007207789923995733,-0.004136924631893635,-0.003613353008404374,0.0009763917187228799,0.0029807898681610823,-0.0010472738649696112,-0.0054056597873568535,0.0013871474657207727,-0.005670287646353245,-0.0015053257811814547,-0.004644251428544521,0.00015592994168400764,-0.0036159283481538296,-0.00312328664585948,0.003368778619915247,0.0012120151659473777,0.001772282412275672,0.0026507701259106398,0.0051492974162101746,-0.0005345761310309172,0.0035077768843621016,-0.0009214546880684793,-0.0009576537413522601,-0.005536701064556837,0.0066308556124567986,0.005341680720448494,-0.0056319693103432655,-0.0007261756109073758,0.003452600911259651,-0.0001691519282758236,2.533593215048313e-05,0.000686943531036377,-0.0017585300374776125,-0.002678140765056014,0.0019373985705897212,0.0011621421435847878,-0.001576282549649477,0.00338450213894248,-0.0019261121051385999,0.0012696112971752882,0.0002502491697669029,0.0013884853105992079,-0.0038126399740576744
是,-0.028507748618721962,0.016082074493169785,0.02188597247004509,0.029113881289958954,-0.01288406178355217,-0.01866353303194046,0.01101551204919815,0.02573571540415287,-0.005697335582226515,-0.012504218146204948,-0.004785018507391214,-0.03829636424779892,-0.01322566345334053,0.013428845442831516,-0.004825424402952194,-0.035036735236644745,-0.001867462182417512,5.317525938153267e-05,0.00014587142504751682,-0.05674142763018608,0.013346102088689804,0.004288968630135059,-0.005701093003153801,-0.0014979823026806116,0.0074141379445791245,0.0034061677288264036,-0.022030245512723923,-0.009726010262966156,-0.008323575370013714,0.0025755406823009253,0.005308050662279129,-0.013908496126532555,-0.0032081641256809235,-0.004200018476694822,-0.007247671484947205,0.022822367027401924,0.016678882762789726,-0.017398081719875336,-0.02789321541786194,-0.03797169774770737,0.0048841689713299274,-0.018188338726758957,-0.02267204411327839,-0.015591460280120373,-0.006486666388809681,0.0007971571176312864,-0.024657614529132843,0.03037695214152336,0.0071070147678256035,0.019875137135386467,-0.00942781288176775,0.007756862789392471,-0.005389850120991468,0.015141690149903297,0.008459231816232204,0.0051179565489292145,0.013943076133728027,-0.016387373208999634,-0.024880804121494293,0.016047444194555283,-0.004068614915013313,0.005335896275937557,-0.008395525626838207,-0.00014031678438186646,-0.0018963796319440007,-0.0067243147641420364,0.009484319016337395,-0.013953050598502159,-0.02258329652249813,0.02688710205256939,-0.0033724852837622166,-0.002341837389394641,-0.002318216022104025,-0.014904126524925232,0.01776006445288658,0.01289876364171505,0.016849106177687645,-0.0027405698783695698,-0.009583926759660244,-0.010687336325645447,0.004146016202867031,-0.0024999643210321665,-0.005088183097541332,0.012154820375144482,-0.007909911684691906,-0.004479542840272188,0.003658285364508629,0.007816796191036701,0.015652092173695564,0.013117446564137936,-0.007745000533759594,-0.003965343814343214,0.0019322591833770275,0.019083628430962563,0.024148236960172653,0.013178294524550438,0.0003885056357830763,-0.01922321319580078,-0.010443508625030518,-0.0009572323760949075
