word,0,1,2,3,4,5,6,7,8,9,10,11,12,13,14,15,16,17,18,19,20,21,22,23,24,25,26,27,28,29,30,31,32,33,34,35,36,37,38,39,40,41,42,43,44,45,46,47,48,49,50,51,52,53,54,55,56,57,58,59
人,-0.0101463058963418,0.004598437342792749,0.018561135977506638,0.0017733871936798096,-0.0029677324928343296,-0.010536689311265945,0.00374459195882082,-0.005430322140455246,-0.004615682177245617,-0.0136062391102314,-0.0033737709745764732,-0.006145566701889038,0.02102573588490486,-0.018877364695072174,-0.00039976323023438454,0.00898177269846201,-6.071198731660843e-05,-0.0006878859712742269,-0.0014991951175034046,-0.009654125198721886,-0.003216545330360532,-0.007819700054824352,-0.01050514541566372,-0.003662541974335909,0.012253900989890099,-0.004006441216915846,-0.00010560662485659122,0.008824488148093224,-0.005933020263910294,0.0019435393624007702,0.003702373942360282,0.00048273010179400444,0.0005853376351296902,-0.008737660944461823,0.0055633774027228355,-0.0005354683380573988,0.0031520205084234476,0.005937577225267887,-0.013901341706514359,0.0002487415913492441,0.002606648486107588,-0.002334358636289835,-0.011959109455347061,0.0019885506480932236,-9.091757237911224e-05,-0.010221878066658974,-0.0028204075060784817,-0.0001135505735874176,-0.004330862313508987,0.013498739339411259,0.019873371347784996,-0.0019109873101115227,-0.010277019813656807,0.007804051972925663,0.0030861927662044764,0.006706442683935165,-0.009943493641912937,-0.010913492180407047,0.005235779564827681,-0.009288309141993523
死,-0.013725913129746914,-0.009513910859823227,0.010594366118311882,0.00789687316864729,0.003234628587961197,0.004814517218619585,-0.006978547666221857,-0.0014677201397717,-0.0062535665929317474,-0.003903317265212536,0.004152821376919746,-0.008568909019231796,-0.007275998126715422,-0.011051874607801437,-0.007547381334006786,0.0034720783587545156,-0.009587885811924934,0.0060916622169315815,-0.0005061579868197441,-0.011816500686109066,-0.011013220064342022,-0.0031325463205575943,-0.00014454778283834457,-0.00479520671069622,0.0017082467675209045,-0.0018085041083395481,-0.006291500758379698,-0.0037321611307561398,0.008938340470194817,-0.0013628839515149593,0.001667022705078125,-0.013000698760151863,-0.006323174573481083,-0.0026000505313277245,-0.003630763152614236,-0.008849598467350006,-0.0014013568870723248,-0.013923059217631817,-0.007391129620373249,0.011010833084583282,0.008034166879951954,0.0005707507953047752,-0.009129980579018593,-0.00548894377425313,0.00664973258972168,-0.012136997655034065,-0.008594457060098648,0.0009910743683576584,0.004239683039486408,0.009557036682963371,0.007812211290001869,0.009587207809090614,0.003122495487332344,-0.0020645959302783012,-0.013683218508958817,-0.012271484360098839,-0.001635181368328631,-0.00402829609811306,0.004264524672180414,-0.00774763897061348
拿,-0.0047447276301681995,0.008978095836937428,0.009048222564160824,0.009538767859339714,-0.002633316209539771,-0.006369805429130793,-0.007590553257614374,0.00665819039568305,0.0012854589149355888,-0.0005682599730789661,-0.008783168159425259,-0.005312472581863403,0.0033801598474383354,0.007927309721708298,0.00336302793584764,0.012924541719257832,-0.0017703634221106768,-0.003224933985620737,0.0005752590950578451,-0.007329206448048353,0.010536451824009418,0.003503296058624983,-0.008050952106714249,0.004652889911085367,-0.0006615719757974148,-0.0010257093235850334,0.0015583114000037313,-0.004598479717969894,9.187543764710426e-05,-0.0005653925472870469,0.0030766965355724096,0.0095147006213665,0.008213679306209087,0.006355594843626022,-0.008467232808470726,0.012569598853588104,-0.001080795656889677,-0.0027764015831053257,-0.01357460767030716,-0.0009828873444348574,-0.0005724378861486912,-0.008791035041213036,0.007674775086343288,-0.0017606168985366821,-0.0018068699864670634,-0.0013430146500468254,-0.0032548094168305397,0.0006387755274772644,0.01407565362751484,0.01007074024528265,-0.009636329486966133,0.007523545995354652,0.005191534757614136,-0.009342590346932411,0.004248159937560558,-0.0007313038222491741,-0.007708382792770863,-0.007762675639241934,0.0013709721388295293,0.0015045851469039917
破碎,-0.001599299954250455,0.0002600273583084345,0.00014619715511798859,0.004238312132656574,-0.007931622676551342,-0.003058969508856535,-0.005505595821887255,-0.007865091785788536,-0.00580092566087842,-0.008398802950978279,-0.0023709386587142944,0.002731615211814642,-0.0008197519928216934,-0.004992102272808552,0.0030287951231002808,0.006764547433704138,-0.004871385172009468,-0.0017466489225625992,-0.001282386016100645,-0.006945460103452206,0.0019156313501298428,-0.004947900306433439,0.003355064895004034,0.002399369375780225,0.0023498961236327887,-0.0033586248755455017,0.0022000884637236595,-0.003922485746443272,-0.003132830373942852,-0.0035837001632899046,0.0023978252429515123,-0.0012422651052474976,-0.0009280883241444826,-0.00467319879680872,0.0012013479135930538,-0.0062626940198242664,0.0008562947041355073,-0.0008803054224699736,-0.00163549417629838,-0.003862416837364435,-0.004270574077963829,0.0033342239912599325,-0.00286079035140574,-0.00016952049918472767,0.004099054727703333,-0.0024926140904426575,0.010384796187281609,-0.003959599416702986,-0.009809700772166252,-0.005510708782821894,0.0047288197092711926,0.003221860621124506,0.0031590377911925316,-0.00032146996818482876,-0.005012457258999348,-0.005935142748057842,-0.002549424534663558,0.002109867986291647,0.0021914406679570675,0.0003453386598266661
卖家,0.0061865863390266895,0.0021249414421617985,-9.174225851893425e-06,0.0018665092065930367,0.005077472422271967,0.000611601397395134,-0.0023999172262847424,-0.0021804419811815023,0.002230557147413492,0.0021988616790622473,0.006815354339778423,-0.00562640093266964,0.0024542927276343107,0.002457556314766407,-0.005103757604956627,0.00022464321227744222,0.0011304793879389763,-0.0014853363391011953,-0.0017935694195330143,0.0039034232031553984,0.002717556431889534,-0.002155901165679097,-0.002305189613252878,0.010309776291251183,-0.000767281511798501,-0.0009334578644484282,0.004987029358744621,0.0048300158232450485,-0.002341039013117552,-0.0033428759779781103,-0.0005433149635791779,0.0038421861827373505,0.0008395209442824125,-0.007463120389729738,0.0012071533128619194,0.0007429313845932484,-0.008343411609530449,-0.000699829775840044,-0.0018558588344603777,-0.00625263899564743,-0.006564044859260321,-0.0018265683902427554,0.0007500520441681147,-0.01154866348952055,-0.008663564920425415,-0.001837148331105709,0.0038508079014718533,-0.006664065178483725,0.0022706426680088043,0.011924367398023605,0.0010657112579792738,-0.006940359249711037,-0.0011685891076922417,0.006337743252515793,-0.0007617397932335734,-0.004891809541732073,-0.0018396363593637943,0.0031230594031512737,0.014641365967690945,0.004191332496702671
询问,8.473964408040047e-05,0.002309069037437439,-0.006775124929845333,-0.00016982248052954674,0.006038603372871876,-0.00019844429334625602,-0.006726568564772606,0.007638443727046251,0.005308311432600021,-1.7262063920497894e-06,-0.007142147049307823,-0.000532314705196768,0.0032050255686044693,-0.001456271973438561,0.003450363874435425,-0.004041082225739956,0.00815710611641407,-0.0024826338049024343,-0.007932045497000217,0.005470265634357929,0.005794502794742584,-0.00493399053812027,0.002957660239189863,-0.003907943144440651,-0.003909723367542028,-0.0034414217807352543,0.0012046119663864374,0.0011149843921884894,-0.004141143523156643,-0.00291997566819191,-0.0051549868658185005,-0.0033596446737647057,0.0043915994465351105,-0.0036219079047441483,-0.0005544028826989233,0.0012671496951952577,0.0020697410218417645,0.004435940645635128,0.0020332580897957087,-0.0017112321220338345,-0.0018787389853969216,-0.004785907454788685,0.0011799819767475128,0.0037618810310959816,-0.0016992901219055057,-0.010792877525091171,-0.008962691761553288,-0.0018118353327736259,0.0009871316142380238,0.002032562857493758,-0.003412622958421707,0.006076475139707327,-0.0002895509824156761,-0.0003287659492343664,0.0034530670382082462,0.005962331313639879,-0.0044267247430980206,-0.0036380235105752945,0.0017746967496350408,0.0030870679765939713
担忧,0.007662457413971424,-0.0010911165736615658,0.007485997397452593,-0.010803194716572762,-0.0027725640684366226,-0.0005190188530832529,0.0042360927909612656,0.0013989468570798635,0.0024120009038597345,-0.0038099889643490314,-0.0031921553891152143,0.0011088004102930427,0.00023457990027964115,0.005235789343714714,0.003542607882991433,0.006383389234542847,-0.001352983177639544,0.004978954792022705,-0.0033410561736673117,0.001988030970096588,0.0036492259241640568,0.0032185998279601336,-0.0071640703827142715,-0.00030680245254188776,0.0017564967274665833,-0.0013225376605987549,-0.005133613012731075,1.89982820302248e-05,-0.0020869711879640818,0.00047241663560271263,-0.003055799985304475,-0.006850657984614372,-0.00152176758274436,-0.005795310251414776,0.0030240893829613924,-0.003675611689686775,-0.00012111838441342115,0.0030977975111454725,-0.00277139525860548,-0.010674252174794674,-0.0024033195804804564,0.0027009695768356323,0.001819142373278737,-0.003315310226753354,0.004103915765881538,-0.0026573813520371914,0.005451106932014227,0.0019765326287597418,0.001978677697479725,0.0005620406591333449,-0.005166470538824797,-0.0014241905882954597,-0.001522906357422471,0.0020844729151576757,-0.009135501459240913,-0.0036520978901535273,0.005857482086867094,-0.011977668851613998,-0.003650312079116702,-0.0027171261608600616
已经,0.005407631862908602,0.0038120243698358536,0.00708388164639473,-0.003114720806479454,0.0022661141119897366,-0.0018323218682780862,0.004290614277124405,0.006340289954096079,-0.003829598193988204,-0.004210888408124447,-0.007699739187955856,0.008458791300654411,0.017900586128234863,-0.008702391758561134,0.0008580919820815325,0.005296437069773674,0.0031814316753298044,0.004918353632092476,-0.011985503137111664,-0.01183355413377285,0.006120920181274414,-0.00911977794021368,0.0034318803809583187,0.0068296510726213455,0.012279490940272808,-0.0091825220733881,0.0015867084730416536,0.00905935000628233,0.007341865915805101,-0.003120054490864277,0.0017246592324227095,-0.014151436276733875,0.003548949956893921,-0.006807568483054638,-0.006198802962899208,0.0033215025905519724,0.0019369981018826365,-0.01429204735904932,-0.006933936383575201,-0.004466167651116848,-0.006522005889564753,0.009725355543196201,-0.006826744880527258,0.006965814623981714,-0.008713077753782272,-0.0050560105592012405,-0.005736037157475948,0.0044362545013427734,-0.0021911044605076313,0.009524375200271606,0.011606132611632347,0.0006531316321343184,5.453475750982761e-06,-0.0008887220174074173,0.010852587409317493,-0.0037109542172402143,-0.0006716758944094181,-0.008059108629822731,0.006164515390992165,-0.00408899737522006
粉,-0.004063879605382681,-0.0013068430125713348,0.004069580230861902,-0.004492152016609907,0.0041057998314499855,-0.009420260787010193,0.000578748993575573,0.006274384446442127,-0.0014969243202358484,-0.005890197120606899,0.0028115492314100266,0.007083997596055269,0.011920037679374218,-0.009918968193233013,-0.005138642154633999,-0.0008362932130694389,0.010032961145043373,0.010664055123925209,0.0008561601862311363,-0.005213927011936903,0.013260839506983757,8.382345549762249e-05,-0.0027826952282339334,-0.0036213479470461607,-0.004869289696216583,0.008638430386781693,0.010603444650769234,0.003045909572392702,-0.00716523639857769,6.713042967021465e-05,-0.005891166161745787,-0.0020104649011045694,0.0008495841175317764,0.013450676575303078,0.004377072677016258,-0.0007040308555588126,-0.0033180234022438526,-0.0033191735856235027,-0.00806957483291626,0.014216102659702301,-0.013895183801651001,-0.012322953902184963,0.011619605123996735,0.0008331090211868286,-0.006452847737818956,0.0059866150841116905,0.011728689074516296,-0.012930415570735931,-0.0008423060644418001,0.010208984836935997,-0.013958172872662544,-0.01009276695549488,0.006757176481187344,0.006648834329098463,0.0079624829813838,0.0023856889456510544,-0.015906626358628273,0.00788207072764635,-0.009570339694619179,0.0020274226553738117
起来,-0.005668800324201584,0.005292330868542194,0.005454331170767546,-0.002904121996834874,-0.007003316655755043,-0.0020174244418740273,-0.0012040826259180903,-0.0019709679763764143,0.006904873065650463,-0.0035744542255997658,-0.001940735848620534,-0.0017897842917591333,0.008727570064365864,-0.0033163195475935936,-0.0073545221239328384,0.001315844478085637,-0.00032456335611641407,0.009990472346544266,0.003771562594920397,-0.011663248762488365,0.0046945358626544476,0.002204021904617548,-0.0002560897555667907,-0.00844644382596016,0.00789567455649376,0.0029795970767736435,-0.0009694464970380068,0.009109456092119217,0.0017596345860511065,-0.002524907235056162,0.000584248686209321,0.00050038390327245,-0.0038613146170973778,0.00700558302924037,-0.0023922754917293787,0.003947521094232798,0.006733894348144531,-0.012252036482095718,-0.0003503879997879267,0.008456435054540634,-0.002817758359014988,-0.003123633563518524,0.0015957809519022703,0.0005716052837669849,-0.004075998440384865,0.002964924555271864,-0.0020162290893495083,-0.0035037240013480186,0.009776771068572998,-0.00011355988681316376,0.006480011157691479,-0.0012941169552505016,-0.0014119244879111648,0.0025137714110314846,-0.0011858521029353142,-0.0033947089686989784,0.008048747666180134,-0.0068599507212638855,0.005992339923977852,-0.0015048685017973185
黑手党,-0.0017063628183677793,0.005498234182596207,0.002144614001736045,0.0013924443628638983,0.0021210212726145983,0.0005142521113157272,-0.001851742505095899,0.0007193567580543458,-0.0002223106857854873,-0.00012614035222213715,-0.0009216779144480824,-0.0034701041877269745,0.005222395993769169,-0.001060875947587192,-0.005813200026750565,-0.0033567845821380615,0.004952524788677692,-0.0023568812757730484,-0.0038286757189780474,-0.002148902043700218,-0.0023475883062928915,-0.0038959872908890247,0.0016469389665871859,0.004582636523991823,9.365140431327745e-05,-0.000577532802708447,-0.000963989004958421,-0.0029800289776176214,0.0002595446421764791,0.002334719058126211,0.002930802758783102,0.0018161105690523982,-0.00698095140978694,-0.0027529853396117687,-0.002041003666818142,-0.0017131324857473373,-0.0070923371240496635,-0.003265115199610591,0.0014170650392770767,0.00619888911023736,0.005047258920967579,0.00013450799451675266,0.00019763536693062633,-0.002537352265790105,0.0037940815091133118,0.003541475161910057,-0.001885565696284175,0.003571051638573408,0.0001234450755873695,0.0029569375328719616,0.005814933218061924,-0.004982475657016039,-0.002703985432162881,0.004575973842293024,-0.001495210686698556,-0.0006826253375038505,-0.0030015117954462767,0.0025967678520828485,0.0042110332287848,-9.531500836601481e-05
带来,0.002282109810039401,0.0003397415275685489,0.0029017124325037003,0.00741187110543251,0.001228088978677988,-0.00434552738443017,-0.007726480718702078,0.0032084838021546602,0.004045696929097176,-0.0033308903221040964,0.0021116090938448906,0.004525855183601379,-0.002504469361156225,4.135019116802141e-05,-0.004967961460351944,0.0011990340426564217,0.0004938580095767975,0.006065306253731251,-0.003015663241967559,0.001424153451807797,0.004410506691783667,-0.003940105903893709,0.0004058948252350092,0.00252273166552186,-0.0006246513221412897,0.0019006538204848766,0.0010389236267656088,-0.0007239641854539514,0.012252435088157654,-0.0028807627968490124,-0.0057271854020655155,0.0047501758672297,-0.0063898866064846516,0.0007895617745816708,0.004260638263076544,-0.005256635136902332,-0.0022811968810856342,-0.001187729649245739,0.006421038415282965,0.004417887423187494,-0.0012560924515128136,5.648517981171608e-05,-0.010368566028773785,0.006864684633910656,-0.007149750832468271,-0.006593872793018818,0.0001660650596022606,-0.001484773587435484,-0.003944136202335358,0.007226758636534214,-0.000120911980047822,-0.0011004323605448008,-0.002640356542542577,0.005163948051631451,-0.004767341073602438,0.006314128637313843,0.00461175013333559,0.002174115739762783,-0.0024966392666101456,0.0037587080150842667
事物,0.0032886750996112823,-4.819687455892563e-05,-0.0014201989397406578,-0.003970601130276918,-0.0038340846076607704,0.004877026658505201,-0.002239594701677561,0.002866126596927643,-0.002218795707449317,-0.005415697582066059,-0.0014726400841027498,-0.004383443854749203,-0.0063310484401881695,0.004490910097956657,-0.00026739726308733225,-0.005125371739268303,0.008746705949306488,-0.00926619116216898,0.004772326909005642,-0.0020957491360604763,-0.01100924052298069,0.006876716390252113,-0.0013651917688548565,-0.0013826328795403242,-0.011310598812997341,-0.005238648969680071,0.004794846288859844,0.006585812196135521,0.002823739778250456,-0.006059613078832626,0.009720777161419392,0.006452335976064205,0.0025329990312457085,-5.133915692567825e-07,-0.010446781292557716,0.0013116761110723019,-0.00055161421187222,0.001430341275408864,-0.00349408364854753,-0.006126496475189924,-0.0006952807307243347,0.0038322373293340206,0.0017723070923238993,-0.000631116796284914,0.001427448820322752,-0.0029269836377352476,-0.0014277473092079163,0.00969436950981617,-0.0009127941448241472,0.008221444673836231,0.005017586052417755,-0.011488582007586956,-0.0022426776122301817,0.0016011298866942525,0.0026763537898659706,0.0022702249698340893,0.0014376642648130655,0.005374561995267868,-0.0042703100480139256,-0.00018492224626243114
世界,-0.0028097534086555243,-0.004545818082988262,0.012593913823366165,0.006510699167847633,0.005127089098095894,-0.001997249433770776,-0.008258730173110962,0.0024067210033535957,-0.005825463682413101,-0.0015093557303771377,-0.0051639266312122345,0.0029291182290762663,0.016906829550862312,-0.006343714892864227,-0.001430366886779666,-0.0014465407002717257,-0.0006172949215397239,-0.0036777332425117493,-9.21846367418766e-06,-0.004114773124456406,-0.007347860839217901,0.001129395212046802,-0.003121036570519209,0.002710133558139205,0.00265102693811059,0.00288063264451921,0.002965478226542473,-0.00036872923374176025,-0.0036456617526710033,0.001131393015384674,-0.005155104212462902,0.00026556546799838543,-0.000893346150405705,-0.005319668911397457,-0.0066358488984405994,0.002658658195286989,0.0014747313689440489,-0.006094352342188358,-0.006711191963404417,0.003992743790149689,-6.204890087246895e-05,-0.008298996835947037,-0.013393500819802284,0.004713301081210375,-0.007923664525151253,-9.42545011639595e-06,-0.004229182377457619,0.00470323208719492,0.006296047940850258,-0.000669713772367686,0.0014448598958551884,0.0007976291235536337,0.010599985718727112,0.007877065800130367,-0.0006748656742274761,0.0007579957600682974,0.00625181058421731,-0.006723824888467789,-0.0027074171230196953,-0.002704804530367255
成功,-0.004959792364388704,0.013908136636018753,0.007383953779935837,0.002700710901990533,-0.004593025427311659,-0.007732382044196129,0.006075587589293718,0.0032577854581177235,-0.006507152691483498,-0.007986683398485184,0.00720781646668911,0.004599286708980799,0.00734130060300231,-0.0021435150410979986,-0.00993598997592926,-0.009145047515630722,0.002005024580284953,0.00042643037158995867,-0.006434557028114796,-0.0038852491416037083,-0.005858317017555237,0.0012657672632485628,-0.004010038450360298,-0.007547460496425629,0.006588727235794067,0.002213102765381336,-0.0003310643951408565,0.0037259485106915236,-0.006405476946383715,-0.006916490383446217,-0.0009115461725741625,-0.001781454891897738,0.007688142824918032,0.004134896211326122,0.00021009257761761546,0.005980575457215309,0.005632655695080757,0.0022519228514283895,-0.007652643136680126,-0.0026233606040477753,-0.0011356596369296312,-0.005908467341214418,0.002008137758821249,0.0032299193553626537,-0.005176536738872528,0.00013194920029491186,-0.0018367174779996276,-0.0008868859731592238,0.009242217987775803,0.004339711740612984,0.003561027580872178,-0.002173515735194087,0.0025774934329092503,0.0004822281189262867,-0.004693523049354553,0.0010480808559805155,-0.0028969310224056244,-0.002118932781741023,-0.0060833836905658245,0.0028205919079482555
错过,0.006060373038053513,-0.0030797880608588457,-0.0007718208362348378,-0.0022958670742809772,0.00021834811195731163,0.0060114869847893715,0.006458141375333071,0.005557185970246792,0.0038204859010875225,0.00638592429459095,0.0004555247724056244,-0.00041425228118896484,-0.002408621134236455,-0.007355715613812208,0.008249746635556221,-0.0036480934359133244,0.0032550652977079153,-0.0011685811914503574,-0.0048764729872345924,0.0018379141110926867,-0.00423684436827898,0.004263237118721008,0.0015281075611710548,0.0036055827513337135,0.004435763694345951,-0.0006414842791855335,0.0036071371287107468,-0.010761971585452557,0.00654083676636219,-0.0039157019928097725,-0.0017302134074270725,-0.002669399371370673,0.0009050205117091537,0.0009656500769779086,0.010491548106074333,0.008304777555167675,-0.01197709422558546,-0.001868593506515026,0.0036007892340421677,-0.007194820791482925,-0.00029560900293290615,0.006109691224992275,0.005737028084695339,0.00039420643588528037,-0.002791342092677951,-0.002058384707197547,0.0016938692424446344,0.0014490785542875528,0.005816996097564697,0.0018818697426468134,0.001872536726295948,-0.0026485477574169636,0.009854729287326336,-0.00785871222615242,-0.012639082036912441,-0.004018253181129694,-0.00039129506330937147,0.00449706707149744,0.0008539294358342886,0.00812835805118084
最好,0.0022901175543665886,-0.004533873870968819,0.002903684275224805,0.002517947694286704,0.0021609326358884573,-0.0005223271436989307,-0.005818971432745457,-0.005276588723063469,-0.008631357923150063,-0.004412590526044369,0.00382409431040287,0.006321617867797613,0.0016882030759006739,6.530270911753178e-05,-0.0084098931401968,0.0013307955814525485,-0.003340855473652482,-0.010061956942081451,0.006977340672165155,-0.005522000137716532,0.012151757255196571,-0.006074974313378334,-0.00517025962471962,-0.002834868850186467,0.009160568006336689,0.009995754808187485,-0.000951827154494822,0.0017989444313570857,0.013672132976353168,0.003689991310238838,0.004412613343447447,-0.004613298922777176,0.0005449195741675794,-0.01112731546163559,-0.0004481300711631775,-0.001277899369597435,-0.0014157104305922985,-0.013082168996334076,0.0003294695634394884,0.0005391525337472558,0.0008161724545061588,-0.008924715220928192,0.0018514515832066536,-0.004064077977091074,-0.0029905163682997227,-0.0055108750239014626,-0.004100307356566191,0.008192879147827625,-0.0003676092019304633,0.000809097196906805,0.008419515565037727,-0.009027808904647827,0.007316232193261385,0.0003958632005378604,-0.001735077821649611,-0.007167412433773279,-0.0020818570628762245,-0.003975677769631147,0.0023615332320332527,-0.008406748995184898
到处,-0.01189650222659111,0.0006333270575851202,0.007098739501088858,0.003800788428634405,-0.0029845903627574444,0.003656356828287244,-0.0005521636921912432,0.0028082183562219143,-0.0012290698941797018,-0.0007451213896274567,0.009281820617616177,0.0069797346368432045,0.004051518626511097,0.002521630609408021,0.003933996427804232,-0.000863976776599884,0.004088645335286856,-0.003858718788251281,0.003866194048896432,-0.005176881793886423,0.0016339162830263376,-0.0011739179026335478,-0.002698686672374606,0.0021458833944052458,0.007672861218452454,-9.778211824595928e-05,-0.0025185553822666407,-0.0017665234627202153,-0.004387150518596172,0.0020128851756453514,-0.003452953649684787,-0.003267342923209071,0.0069428193382918835,-0.0030298475176095963,0.00561706256121397,-4.20439027948305e-05,0.0011035611387342215,0.004574511665850878,-0.0005885398713871837,-0.00036694854497909546,-0.00823298655450344,-0.006814928725361824,-0.0031163266394287348,-0.0032804380171000957,0.00900822039693594,-0.0021388588938862085,-0.005915455054491758,-0.007769286632537842,-0.001145986607298255,0.006006282288581133,0.006893556099385023,-0.00037983537185937166,0.0004977341741323471,0.0009923521429300308,0.00234522414393723,-0.0071210358291864395,0.008203262463212013,-0.0028767422772943974,-0.00021430198103189468,-0.0008796656620688736
是,-0.010105499997735023,0.0052971974946558475,0.01857609860599041,0.009566794149577618,-0.0007928274571895599,-0.007495516911149025,0.005970830097794533,0.004688674584031105,-0.004285694565623999,-0.018310312181711197,0.0032617945689707994,-0.0071648801676929,0.01923822984099388,0.006646316964179277,-0.01763465255498886,0.004606042522937059,0.007420470472425222,0.009289384819567204,-0.009980369359254837,-0.015311776660382748,0.015296502970159054,-0.006950647570192814,-0.0019774725660681725,0.005545338615775108,0.0193340964615345,-0.003419708926230669,0.002383081242442131,0.0034300689585506916,0.003383159637451172,-0.006085334811359644,0.0020119312684983015,-0.0012603007489815354,-0.0005369405262172222,-0.0074148899875581264,-0.003919057082384825,-0.003640443319454789,0.001924377866089344,-0.021851517260074615,-0.0069025252014398575,-0.006349883507937193,-0.012393973767757416,0.0031770095229148865,-0.009602999314665794,-0.0075430069118738174,-0.013675549067556858,0.004598315805196762,-0.004915216006338596,0.0034224307164549828,0.0007551547605544329,0.023193880915641785,0.00423856545239687,0.005450812634080648,0.0018403655849397182,0.00960514321923256,0.017267629504203796,0.0025289030745625496,0.005777194630354643,-0.0260224137455225,0.0007624274585396051,-0.00022905925288796425
上帝,0.0026720957830548286,0.004849466495215893,0.008486809208989143,0.010948617942631245,0.001069777412340045,0.0018158041639253497,0.001105026574805379,-0.0004606641596183181,0.0002781099174171686,-0.004271561745554209,-0.003742809407413006,0.006516123190522194,0.006050942465662956,-0.003770119044929743,-0.010128808207809925,0.0007723963353782892,0.010090876370668411,-0.0004894121084362268,0.0003463919274508953,-0.0001900403294712305,-0.0010803849436342716,0.0011766182724386454,-0.001605296041816473,0.0027619246393442154,0.01568146049976349,-0.0013907847460359335,-0.0020141550339758396,-0.00021046931215096265,0.0010154095944017172,0.0007873205468058586,-0.004665993619710207,0.001501779304817319,0.00034839333966374397,-0.00843729916960001,-0.00604768143966794,-0.0015916568227112293,0.0066026984713971615,-0.013511733151972294,-0.0016258939867839217,0.00910783652216196,-0.0023176667746156454,0.007238444872200489,0.005522382911294699,-0.0006217341870069504,-0.0013378188014030457,0.004542055074125528,0.003383833449333906,0.006706645712256432,-0.004045338835567236,-0.006126235704869032,0.007019712124019861,0.007128120865672827,0.0010767066851258278,-0.0001510500442236662,0.007017819210886955,-0.003940687980502844,0.00046917516738176346,0.0013207587180659175,0.0008104420267045498,0.0007500096689909697
献上,0.008827155455946922,-5.114049417898059e-05,0.004068288952112198,0.006715432740747929,0.0037475444842129946,0.006123875733464956,-0.001381447073072195,-0.011877764947712421,0.009300963021814823,-0.0008355472236871719,0.0011436096392571926,-0.008292865939438343,0.001196766970679164,-0.0008416549535468221,-0.0028397906571626663,-0.005282941274344921,0.003666836768388748,0.000429626670666039,-0.004010495729744434,0.005788139533251524,0.00028171297162771225,-0.005604259669780731,-0.00039333151653409004,0.0026412871666252613,0.0028032390400767326,0.004228478297591209,0.007685710210353136,-0.002040217397734523,0.008055523037910461,0.00525674968957901,-0.0012687729904428124,0.0003374998923391104,0.0005181105807423592,-0.002509568352252245,-0.0020701063331216574,0.005976649466902018,0.007490025833249092,0.0016005863435566425,0.0032742551993578672,-0.009100840426981449,0.0008250188548117876,-0.005234813783317804,0.003107879776507616,0.0052546169608831406,0.0033736196346580982,0.005346120335161686,-0.006227489095181227,-0.006772367283701897,-0.00044067692942917347,0.004859712906181812,0.002519855974242091,0.0014580445131286979,-1.1844560503959656e-05,-0.004568335600197315,-0.010935880243778229,0.005581649020314217,-0.01000272948294878,0.006067017093300819,0.0005670464597642422,-0.0027227415703237057
继续,-7.846788503229618e-05,0.000640234793536365,0.0031503557693213224,-0.0004960123915225267,0.005566437728703022,0.001994627295061946,-0.0005948334001004696,0.0024141420144587755,-0.0041519105434417725,-0.006884275935590267,-0.0014232334215193987,-0.0021659780759364367,-0.0002202043542638421,0.0014540147967636585,-0.005497547797858715,-0.006185995880514383,-0.0019430122338235378,0.0013345754705369473,-0.0016375088598579168,-0.0023661023005843163,0.0052877007983624935,-0.0008953968062996864,-0.001071429462172091,-0.001108541153371334,-0.0022440836764872074,-0.00433726841583848,0.010302684269845486,0.006969794165343046,-0.00031905784271657467,0.005067392718046904,0.0006858771666884422,-0.009014678187668324,0.0014218069845810533,-0.006406968925148249,0.00010155083145946264,0.0052911676466465,-0.007654680870473385,-0.007960489951074123,0.00023512588813900948,0.007145232986658812,0.0005278533790260553,-0.001476745936088264,0.0043263910338282585,-0.007012257352471352,0.0025782522279769182,0.00033825961872935295,-0.0006251230370253325,-0.006593198049813509,-0.0013165234122425318,0.0027036871761083603,0.0007930472493171692,-0.008503318764269352,-0.0010625091381371021,0.0068813506513834,-0.0016972485464066267,0.0054162475280463696,-0.0004004273214377463,-0.011367268860340118,0.0009284864645451307,-0.0015897928969934583
纯粹,-0.00313589908182621,-0.005337531678378582,0.0057780807837843895,0.002369286958128214,-0.00686305807903409,-0.006949133705347776,-0.005457394756376743,-0.0010063619120046496,0.0011226923670619726,-0.002696356037631631,0.004937559366226196,0.0009054827969521284,0.0042983232997357845,0.0032375275623053312,-5.2471295930445194e-06,-0.005625121295452118,-0.005225998815149069,0.0013644711580127478,-0.0005046662408858538,0.0010461428901180625,0.00026075332425534725,-0.006902902387082577,-0.006600822322070599,-0.008072069846093655,-0.0012514390982687473,0.0007902990328148007,-0.001427170354872942,-0.0014486892614513636,-0.010300685651600361,-0.009987274184823036,-0.0017378039192408323,-0.0056099421344697475,-0.003427465446293354,-0.002936015138402581,0.005231290124356747,-1.2469885405153036e-05,0.0040367366746068,-0.0045664506033062935,-0.0012886482290923595,0.010168919339776039,-0.009363844059407711,-0.003041713498532772,-0.004077668767422438,-0.0038416224997490644,0.003916572313755751,-0.0004947113338857889,-0.0031458931043744087,0.004072172567248344,-0.0015332476468756795,0.005577960051596165,-0.001598042668774724,0.0031642215326428413,-0.006979877594858408,-0.0015703995013609529,-0.004012803081423044,0.0017982558347284794,0.009186246432363987,-0.010798510164022446,-0.0032131047919392586,7.73541396483779e-05
只能,0.0004282458685338497,-0.0025788070634007454,0.003869535867124796,-0.002373615512624383,0.001984545961022377,-0.005273386370390654,0.006203893572092056,-0.002665402600541711,-0.0016594575718045235,-0.0017617287812754512,-0.007810946088284254,-0.004375956021249294,-0.0032833439763635397,-0.004753263667225838,0.0007668156176805496,-0.0035075736232101917,0.002520778914913535,0.009327483363449574,0.00766285415738821,-0.005848059430718422,-0.0013166312128305435,-0.003330463310703635,-0.005276549607515335,0.004928835667669773,-0.004606346599757671,0.002647395245730877,-0.009996071457862854,-0.0003199772909283638,-0.006259918678551912,0.0032521605025976896,-0.0020662208553403616,-0.007533951662480831,0.006727958098053932,0.009218854829668999,0.006695964839309454,0.0031154868192970753,0.006814458407461643,-0.008924688212573528,-0.002500609029084444,0.005076222587376833,-0.0014800690114498138,0.007989617064595222,-0.008836562745273113,0.010108900256454945,-0.0031681833788752556,-0.005136147141456604,0.005002922378480434,-0.004909321200102568,-0.0027174290735274553,-0.00391680933535099,0.006724318023771048,-0.0040819463320076466,-0.006305383518338203,-0.0019901860505342484,-0.003881308948621154,-0.004373788367956877,0.006231486331671476,-2.8558712074300274e-05,-0.005073347128927708,0.002009256510064006
享受,0.010879341512918472,0.005831787828356028,0.00646178750321269,-0.0024267476983368397,0.007849877700209618,-0.0007500972133129835,0.001083341077901423,-0.0012684138491749763,0.004346643574535847,0.0019809009972959757,0.005082664079964161,0.004326210357248783,0.01205886248499155,0.0026309743989259005,-0.001762906787917018,0.005759470164775848,0.0021818913519382477,0.00536268949508667,-0.007294036448001862,0.00266876257956028,-0.006154563743621111,0.00110702496021986,0.0023546917364001274,0.0028130521532148123,0.007047437597066164,-0.0015366232255473733,0.008927194401621819,-0.0012025380274280906,0.008619547821581364,-0.004573839250952005,0.0055586183443665504,-0.001988823991268873,0.0027123307809233665,-0.0005921483971178532,0.0010297787375748158,0.006063761655241251,0.002859379630535841,-0.008638005703687668,0.00015579606406390667,0.006536259315907955,0.005959964822977781,0.004052756819874048,0.004298832267522812,0.001975773833692074,-0.001172465505078435,-0.008790714666247368,0.0057686264626681805,-0.0004704248858615756,-0.0035564815625548363,0.0007146036950871348,0.006969341076910496,0.0053823478519916534,-8.984655141830444e-05,-0.0024273947346955538,0.005459885578602552,0.000313551165163517,-0.0002615461708046496,-0.009553581476211548,0.005935859400779009,0.00584776047617197
促进,0.004149919375777245,-0.007580004632472992,0.0049666366539895535,-0.00026792893186211586,-0.000918705016374588,0.0016016359440982342,-0.005216244142502546,0.008977060206234455,-0.012007134966552258,-0.005372415762394667,-0.00012132362462580204,-0.0039381724782288074,0.0008224379853345454,-0.0003626763354986906,-0.005802471190690994,0.008914868347346783,0.00010703760199248791,-0.009247777052223682,0.0006182804354466498,0.005429497919976711,0.005259656812995672,-0.006096445489674807,0.0033392286859452724,-0.0013331647496670485,0.002535515930503607,-0.0010592569597065449,0.0028014734853059053,-0.0006276830099523067,-0.003878561779856682,-0.003146175295114517,0.008126091212034225,-0.0013370121596381068,0.0026891338638961315,0.0032301011960953474,0.010021936148405075,0.0052912612445652485,0.005602598190307617,-0.003719232976436615,0.0059313601814210415,0.009714199230074883,0.004990451503545046,0.008509758859872818,0.0034175117034465075,0.004647648893296719,-0.007151191122829914,0.001682344009168446,-0.008416755124926567,0.0032185774762183428,0.011408615857362747,-0.0015344885177910328,0.011533886194229126,-0.0008818955393508077,-0.005497974343597889,0.0004405997460708022,0.006730467081069946,0.0051215835846960545,-0.0009337202645838261,-0.0077049266546964645,-0.006962758954614401,-0.006904964335262775
带给,0.003979402594268322,-0.0022222355473786592,0.0013951380969956517,0.0045081027783453465,0.0075918324291706085,-0.005512851290404797,0.002955729141831398,0.0037455095443874598,0.0031517473980784416,0.0015598195604979992,0.0036235004663467407,-0.0035548361483961344,-0.006584823597222567,0.000935024581849575,-0.010659909807145596,0.0018233919981867075,0.005593480076640844,0.006122463382780552,-0.003990924917161465,-0.007649991661310196,0.0008926796726882458,0.00040385453030467033,-0.004365463741123676,0.001772092655301094,-6.084947381168604e-05,0.002161781769245863,0.00119174481369555,0.008063127286732197,-0.005375441163778305,-0.0015190120320767164,-0.0022507118992507458,-0.0038535273633897305,-9.952671825885773e-05,-0.005388980265706778,-0.0061478326097130775,-0.001900016563013196,-0.002598298480734229,0.0026729214005172253,-0.005495164543390274,0.002406761981546879,0.009092161431908607,0.0011133244261145592,-0.00024056299298536032,0.0022410955280065536,-0.0022610798478126526,0.0012902442831546068,0.0001602431875653565,-0.005279459059238434,0.0012347332667559385,-0.008286241441965103,-0.001695738174021244,-1.8845632439479232e-05,-0.005649233236908913,0.0008103323634713888,0.010053139179944992,0.001969271106645465,0.002193266060203314,0.0004572683828882873,-0.0007508569397032261,-0.005052841734141111
释放,0.0016784761101007462,-0.0033734000753611326,0.0003689348232001066,-0.0018779152305796742,0.004271704703569412,0.0019279090920463204,0.003898258786648512,-0.0045639993622899055,-0.003218631260097027,0.0024637996684759855,-0.0019035281147807837,-0.005706120282411575,0.005628763232380152,-0.0018863684963434935,-0.002006890717893839,0.0009459061548113823,-0.004668601788580418,0.0022196476347744465,-0.0014235982671380043,0.00477147800847888,-0.002749372972175479,-0.004448794759809971,0.011588637717068195,0.0028537889011204243,-0.008248897269368172,0.007430835627019405,-0.004808668978512287,-0.003253315109759569,0.0036465716548264027,-0.004955756943672895,0.0023484346456825733,-0.0012846835888922215,0.0017443725373595953,0.002580250147730112,-0.0014631843660026789,-0.004503071308135986,-0.001198117621243,-0.006157207302749157,0.0005531786591745913,-0.006100917235016823,0.0009704635012894869,0.005644647404551506,0.006135988514870405,-0.004496811889111996,-0.0037846246268600225,0.0021996565628796816,-0.006381671875715256,-0.00024131202371791005,-0.004975253250449896,0.002912672935053706,0.004388948902487755,0.0016918987967073917,-0.00579025549814105,0.0005335661116987467,-0.0017078090459108353,-0.0031649265438318253,-0.0030121037270873785,-0.009367730468511581,0.005402879789471626,0.008636153303086758
忘记,0.005118966102600098,0.0010875536827370524,0.00012077402789145708,-0.0030334857292473316,-0.004837260581552982,0.0018044866155833006,0.009809598326683044,0.006362516433000565,-0.00334902573376894,0.003619004739448428,0.004541327711194754,-0.0019345481414347887,-0.004768764600157738,-0.0010044053196907043,0.0016254037618637085,-0.00757958646863699,-0.0018096913117915392,0.003617248497903347,-0.0025741502176970243,0.002015069592744112,0.0050612278282642365,-0.009181566536426544,-0.007936923764646053,-0.0036701764911413193,0.013441011309623718,-0.003303427482023835,0.0019305564928799868,-0.0008839264046400785,0.005847597494721413,0.007681543938815594,-0.004082291387021542,-0.005733749829232693,-0.0021909417118877172,0.0018012516666203737,-0.002140901517122984,0.006539124995470047,-0.007570989429950714,0.0005497315432876348,-0.007708600722253323,-0.008737041614949703,-0.00014058011583983898,0.010359270498156548,-0.0038671190850436687,-0.0020926296710968018,-0.003487046342343092,0.007654260843992233,0.005449704825878143,0.0048278747126460075,0.001768296817317605,0.0031107349786907434,0.006193818990141153,0.0015938434517011046,-0.0023029570002108812,0.005581487901508808,0.004577566869556904,0.0001407971139997244,0.0027650846168398857,-0.003021875862032175,-0.006524903699755669,0.00624469481408596
插头,-0.005834919400513172,-0.0010376431746408343,-0.005956041626632214,-0.005901339463889599,2.1491985535249114e-05,-0.0009389686165377498,0.004989873617887497,-0.0018643196672201157,0.008552607148885727,0.010021579451858997,-0.008926605805754662,0.0011825794354081154,0.00011548749171197414,0.005567825399339199,0.002019694074988365,-0.009447244927287102,-0.002988392487168312,-0.0028701804112643003,-0.00213936367072165,-0.0011380340438336134,0.0007079171482473612,-0.0053256237879395485,0.0095440112054348,0.014586202800273895,-0.0017395081231370568,-0.0024988441728055477,-0.0006959894672036171,0.0024403678253293037,0.0025239665992558002,0.004212798550724983,-0.0007318280404433608,0.004254789091646671,0.0005082804127596319,-0.007279038429260254,-0.0009878836572170258,0.004649789538234472,-0.008422480896115303,0.0005525555461645126,-0.003589788917452097,0.006107557564973831,0.00320588075555861,-0.0033182399347424507,0.0001690469216555357,-0.0033327159471809864,-0.0032558836974203587,-0.010203305631875992,-0.0022412328980863094,-0.005590698681771755,-0.0035987712908536196,0.002214470412582159,0.0034226628486067057,0.0018699867650866508,-0.0019823159091174603,0.00023571285419166088,-0.001068866578862071,0.003662513103336096,0.00636634137481451,-0.0016386571805924177,0.005771356634795666,0.004595145583152771
