word,0,1,2,3,4,5,6,7,8,9,10,11,12,13,14,15,16,17,18,19,20,21,22,23,24,25,26,27,28,29,30,31,32,33,34,35,36,37,38,39,40,41,42,43,44,45,46,47,48,49,50,51,52,53,54,55,56,57,58,59
人,-0.0101463058963418,0.004598437342792749,0.018561135977506638,0.0017733871936798096,-0.0029677324928343296,-0.010536689311265945,0.00374459195882082,-0.005430322140455246,-0.004615682177245617,-0.0136062391102314,-0.0033737709745764732,-0.006145566701889038,0.02102573588490486,-0.018877364695072174,-0.00039976323023438454,0.00898177269846201,-6.071198731660843e-05,-0.0006878859712742269,-0.0014991951175034046,-0.009654125198721886,-0.003216545330360532,-0.007819700054824352,-0.01050514541566372,-0.003662541974335909,0.012253900989890099,-0.004006441216915846,-0.00010560662485659122,0.008824488148093224,-0.005933020263910294,0.0019435393624007702,0.003702373942360282,0.00048273010179400444,0.0005853376351296902,-0.008737660944461823,0.0055633774027228355,-0.0005354683380573988,0.0031520205084234476,0.005937577225267887,-0.013901341706514359,0.0002487415913492441,0.002606648486107588,-0.002334358636289835,-0.011959109455347061,0.0019885506480932236,-9.091757237911224e-05,-0.010221878066658974,-0.0028204075060784817,-0.0001135505735874176,-0.004330862313508987,0.013498739339411259,0.019873371347784996,-0.0019109873101115227,-0.010277019813656807,0.007804051972925663,0.0030861927662044764,0.006706442683935165,-0.009943493641912937,-0.010913492180407047,0.005235779564827681,-0.009288309141993523
做,-0.012857535853981972,-0.004471655935049057,0.0007838672026991844,0.005234966520220041,-0.001149931107647717,-0.009631011635065079,-0.0005543902516365051,0.009851877577602863,-0.0024826396256685257,-0.010747592896223068,0.003301795804873109,0.0021105248015373945,-0.0063009788282215595,0.0010751839727163315,0.003459507366642356,-0.006726710591465235,0.005938555579632521,-0.009816683828830719,0.008399657905101776,-0.01365678571164608,0.0031494726426899433,0.007409647107124329,-0.0037347469478845596,0.014129720628261566,0.01421613059937954,-0.0014066682197153568,0.01622023433446884,-0.00915846973657608,0.00237838551402092,0.0011115430388599634,0.008295368403196335,-0.014009322039783001,0.008087165653705597,-0.012610260397195816,0.0067943669855594635,-0.005942237563431263,-0.002991050947457552,-0.002648836700245738,-0.0024490519426763058,0.004010168369859457,-0.006381667219102383,0.013135991059243679,0.014013366773724556,-0.012331764213740826,0.00203858595341444,-0.006892535835504532,0.0002626674249768257,-0.007865299470722675,0.006730359513312578,0.0037166313268244267,0.002446417696774006,-0.009693526662886143,0.003934989683330059,0.005107168573886156,0.00024354946799576283,0.004788018297404051,0.0036456373054534197,-0.0028776894323527813,0.011178781278431416,-0.013146360404789448
岗,0.0072023095563054085,0.003136596642434597,-0.009895827621221542,-0.0015226895920932293,-0.008494433015584946,-0.002045471454039216,0.0015693996101617813,-0.011361408978700638,-0.0007803165353834629,0.013983695767819881,0.00467869034036994,0.01384022831916809,0.012843525037169456,0.01060950756072998,0.008851033635437489,-0.0052520278841257095,-0.0015547613147646189,0.006793919485062361,0.0010206238366663456,0.0013631656765937805,0.011201659217476845,0.0005464870482683182,-0.010363271459937096,-0.0014570888597518206,0.009657356888055801,-0.004932946525514126,-0.005679633468389511,0.0012901267036795616,0.00037642475217580795,0.006519228219985962,-0.008714272640645504,-0.0013623647391796112,0.0024424984585493803,-0.008358489722013474,-0.0009763417765498161,-0.009897856041789055,0.0023149726912379265,-0.0018005585297942162,-0.009644247591495514,0.010110834613442421,-0.003163691144436598,-0.005743620917201042,-0.00652967719361186,-0.0025404333136975765,0.0018797451630234718,0.0024162058252841234,-0.0031324028968811035,0.0015257084742188454,-0.0017852679593488574,0.0026876211632043123,-0.001845270162448287,0.005905642174184322,0.0024623405188322067,0.0014305412769317627,-0.011618568561971188,0.003423157148063183,0.00620544096454978,0.0018619695911183953,0.010862518101930618,0.00551648112013936
树脂,0.0017594206146895885,-0.0013787588104605675,0.0027883804868906736,0.006535965949296951,-0.002830655314028263,-0.004055069759488106,0.007912740111351013,0.00014779134653508663,0.004678825847804546,0.0013558887876570225,-0.003371765837073326,-0.0007808723021298647,-0.005203031934797764,-0.0024174805730581284,-0.0004393947310745716,0.004465939477086067,0.0030236479360610247,-0.010980411432683468,0.002177645917981863,0.005815679673105478,-0.00373640563338995,-0.0003227775450795889,-0.0035390506964176893,-0.0021377303637564182,-6.195902824401855e-05,-0.003955257125198841,0.0018010642379522324,-0.001741477521136403,-4.020528285764158e-05,0.005298282951116562,0.006379285361617804,0.007146993186324835,0.003196446457877755,-0.0038807180244475603,-0.0033420806284993887,0.00792508851736784,0.00790238194167614,-0.0022277780808508396,0.004066056571900845,6.406311877071857e-05,0.00711666326969862,-0.00043968227691948414,-0.007727846968919039,0.004258445464074612,0.005750210490077734,0.008247237652540207,0.0057336571626365185,-0.001374743995256722,-0.000974057475104928,0.00495567824691534,0.003234830452129245,-0.005988942924886942,-0.0021448079496622086,0.001092638005502522,0.01046404242515564,0.0010807560756802559,-0.006186324171721935,-0.00820568110793829,0.002700135577470064,0.0017372147412970662
性格,-0.003140868851915002,-0.005349831189960241,-0.000684525934047997,-0.0019341399893164635,0.0069409944117069244,0.007122743874788284,0.005581965669989586,-0.003323601558804512,-0.0005608310457319021,-0.005176831036806107,-0.0007928354316391051,0.006664240267127752,0.0006624343805015087,-0.0038565900176763535,0.0034141610376536846,-0.003622336545959115,0.002889019437134266,0.006030675023794174,-0.005830889102071524,0.0034211366437375546,0.00992688536643982,0.007029701955616474,-0.004158715717494488,-0.005223044194281101,0.0020034401677548885,-0.001475027995184064,-0.006961115635931492,0.00776054710149765,-0.001399206230416894,-0.002217237139120698,-0.006245265249162912,-0.005096975713968277,0.00338068138808012,-0.0031965086236596107,0.008362812921404839,-0.0091038653627038,-0.0040832627564668655,-0.0022475039586424828,0.008252325467765331,-0.005129138473421335,-0.009797941893339157,0.009228358045220375,0.0024402097333222628,0.003734221216291189,-0.0022683432325720787,0.003942843992263079,-0.006054585799574852,0.00019305432215332985,3.2635522074997425e-05,0.002174556255340576,-0.001964540220797062,0.002214135369285941,-0.0011446800781413913,6.404472514986992e-06,0.0016258480027318,0.0005747220711782575,0.004319208674132824,0.00093448581174016,-0.004162672907114029,-0.0009528646478429437
平庸,-0.006877737119793892,0.005834899377077818,0.01259618066251278,-5.6280288845300674e-05,0.003021727316081524,0.0030568623915314674,0.003504146821796894,0.0018005978781729937,0.0018075938569381833,-0.004209292121231556,-7.689138874411583e-05,-0.00482176523655653,0.00031533301807940006,-0.001043535303324461,0.00013807520736008883,4.307366907596588e-06,0.005827423185110092,0.0006184527883306146,-0.010700813494622707,-0.009580125100910664,0.0009779005777090788,0.0004362680483609438,-0.007002308964729309,0.0045796651393175125,0.0023712175898253918,0.0026008905842900276,0.004469434730708599,-0.002487595658749342,-0.005876731127500534,-0.0038889318238943815,-0.006397576536983252,0.0037662333343178034,0.00016181718092411757,-0.007707763463258743,-0.006324383895844221,-0.007239778526127338,0.001023614197038114,-0.0017827239353209734,0.00036484445445239544,0.0016666220035403967,0.00035304389894008636,0.002422131597995758,0.010896856896579266,0.003999985288828611,0.0001528130378574133,-0.004581587389111519,-0.0018573759589344263,-0.005379459820687771,-0.0068651530891656876,0.007478121668100357,-0.009199022315442562,0.006889115087687969,-0.0025786671321839094,0.008200078271329403,-0.0007809374947100878,-0.007598354481160641,-0.0023306156508624554,-0.005059819668531418,-0.00591981690376997,0.008579921908676624
事件,-0.0035463892854750156,-0.005249197594821453,0.0009052492678165436,0.004992944188416004,0.00023765629157423973,0.0036828238517045975,-0.00735083082690835,0.009541613981127739,-0.0038679689168930054,-0.004012456163764,0.0017827401170507073,-0.0038280170410871506,0.0014843958197161555,-0.00389795727096498,-0.006286956835538149,0.0015785172581672668,0.0037231144960969687,0.003245465224608779,0.004200400318950415,-0.003198264166712761,0.008616470731794834,0.0018832327332347631,0.000243525137193501,0.002050369745120406,-0.004965301603078842,-4.251510836184025e-05,-0.007396530359983444,0.0013055282179266214,0.00412420928478241,-0.006702645681798458,5.6845834478735924e-05,-0.003085609059780836,0.0082975123077631,-0.004708508029580116,0.0022468294482678175,-0.0030028740875422955,-0.002409885870292783,-0.0005793545860797167,-0.002557318890467286,-0.0029602088034152985,0.0023100469261407852,-0.0036073506344109774,-0.003205923829227686,-0.0034855413250625134,-0.003137749619781971,-0.005881248973309994,-0.006561995483934879,0.009991215541958809,-0.0074563962407410145,0.005091674625873566,-0.0041989837773144245,0.003477229969576001,0.00930389016866684,-0.0017626038752496243,-0.008012203499674797,0.0049398960545659065,0.0018053483217954636,0.0021372465416789055,-0.0021747061982750893,0.001530915149487555
用户,0.00230093440040946,0.004475719295442104,0.00496256910264492,-0.0046376376412808895,-0.0029660705476999283,0.0025532743893563747,-0.008662802167236805,-0.005020605865865946,0.0048138853162527084,0.008040466345846653,0.003516403492540121,-0.0007713459199294448,0.006464557722210884,0.006539422553032637,-0.0067163798958063126,0.006295362953096628,-0.005178958177566528,-0.0003545437939465046,0.0002834360348060727,-0.004581504501402378,-6.812578067183495e-05,0.005398671608418226,-0.006932267919182777,-0.005842062644660473,0.0054395198822021484,0.00046453741379082203,0.006409838330000639,0.0024799262173473835,-0.0005956086097285151,0.005173836834728718,0.0028060460463166237,0.004720999859273434,0.008019013330340385,-0.0014580172719433904,0.00679034274071455,0.0021192501299083233,-0.0010821090545505285,0.005764542613178492,0.007866280153393745,0.0021731655579060316,0.00020504090934991837,-0.006129615940153599,-0.009100805968046188,0.005649485159665346,0.0003973660059273243,0.0031159352511167526,0.004318037535995245,-0.00036968733184039593,0.00039123278111219406,0.0005709432880394161,0.0005897142691537738,-0.0016057377215474844,0.006389278452843428,-0.0036056358367204666,-0.002314450452104211,-0.0013560336083173752,-0.005736998748034239,0.002837229985743761,-0.0008020417299121618,0.00446336530148983
主题,-0.0029919103253632784,0.0003139245673082769,-0.006771744694560766,0.0052394988015294075,-0.00580899603664875,-0.004636459052562714,-0.007565222214907408,0.007279121782630682,0.004184398800134659,-0.006939099170267582,0.003651819657534361,-0.0027055395767092705,0.004779542796313763,0.005177231505513191,-0.003698447486385703,-0.0038219557609409094,-0.002944306004792452,0.013049175962805748,-0.000924977008253336,-0.005127015523612499,-0.001601116033270955,0.0005762733053416014,-0.011949906125664711,-0.00019692769274115562,0.005390580743551254,-0.004281181842088699,-0.0012281248345971107,-0.0008420986123383045,-0.008085586130619049,-0.006176128517836332,-0.0056131151504814625,0.0076020220294594765,0.002006856258958578,0.0019082925282418728,-0.0020203087478876114,-0.004630735144019127,-0.009395820088684559,0.00561582762748003,0.011108264327049255,0.0014924010029062629,-0.006889763288199902,-0.002236203756183386,-0.007589413784444332,0.0003714592312462628,-0.000766142038628459,0.0018127901712432504,-0.00033636853913776577,0.0018788469024002552,-0.0016269271727651358,-0.00624419841915369,0.0001852336572483182,-0.0032841854263097048,0.003920656628906727,-0.0036070351488888264,-0.010805552825331688,0.003237606957554817,-0.0024023083969950676,0.0017415322363376617,-0.003929522819817066,0.0012785056605935097
参与,-0.0003253065515309572,-0.002532661659643054,-0.004646179266273975,-0.0035428376868367195,-3.456883132457733e-05,0.0018972735852003098,0.007302618119865656,-0.004992920905351639,0.002526698401197791,-0.002223880961537361,0.0020136707462370396,-0.003054681234061718,0.00013207978918217123,0.00040273205377161503,-0.00217282772064209,0.005606523249298334,-0.007753364741802216,0.0031025412026792765,-0.002448118757456541,-0.003423556685447693,-0.004122995771467686,-0.0018365184077993035,0.0003046074416488409,0.00398621242493391,-0.004662372171878815,-0.000669626984745264,0.004042026586830616,-0.001362266018986702,0.006515586748719215,0.0011638527503237128,-0.007848817855119705,-0.0041638645343482494,7.13628251105547e-05,-0.0008068440365605056,-0.004100420977920294,-0.0019022354390472174,0.0032772342674434185,-0.006412016227841377,-0.004281552508473396,0.0010667276801541448,0.0020408155396580696,-0.007294590584933758,0.0021737138740718365,-0.0012931651435792446,-0.008300152607262135,0.0010990791488438845,0.0070015136152505875,0.0003926509525626898,0.001913608517497778,-0.006631908006966114,0.004540296271443367,0.00122945592738688,-0.0025400943122804165,2.6984140276908875e-05,0.004417638760060072,-0.00032510911114513874,0.00899558700621128,-0.003574294736608863,0.0016350282821804285,-0.002867263974621892
开发,-0.008012080565094948,0.004682566504925489,-0.0036083143204450607,-0.0049765463918447495,0.0015800207620486617,0.006799789611250162,-0.0027004252187907696,-0.004718679469078779,-0.0019327516201883554,0.007483486086130142,-0.005255776457488537,0.002156386384740472,0.0008526595775038004,-0.005837487056851387,-0.005522890482097864,0.0004978885408490896,-0.00673926854506135,0.006589938886463642,0.0027838810347020626,-0.003071070881560445,-0.003952018450945616,0.005301639903336763,-0.0013138398062437773,0.0026981213595718145,0.007139899767935276,0.00026364612858742476,-0.001081189140677452,-0.004462923854589462,0.004735024645924568,0.005709242075681686,-0.0039921593852341175,0.0007698294939473271,0.008874491788446903,-0.004099295940250158,0.0020243050530552864,0.006139540113508701,-0.0049887849017977715,-0.01027743611484766,0.004158335737884045,0.0037703239358961582,0.006105307023972273,9.815138764679432e-05,0.0047841547057032585,0.0007025256054475904,0.0024386607110500336,0.001995538827031851,0.007994937710464,-0.002094560768455267,0.0054452684707939625,0.006533349864184856,0.004987074062228203,-0.007473984733223915,0.0066487956792116165,0.010616032406687737,0.006071371957659721,0.007280023768544197,-0.0033461018465459347,0.00407218374311924,0.0019355155527591705,-0.009960826486349106
行星,-0.005173926241695881,-0.003154207719489932,-0.0010780761949717999,-0.0009846962057054043,0.004535935819149017,-0.0032950188033282757,0.0016655568033456802,0.004701303318142891,-0.0013481813948601484,-0.003805683460086584,0.004842650145292282,-0.0029242627788335085,0.007668360136449337,0.0018758840160444379,-0.0008976003155112267,0.002997487783432007,0.007780670654028654,0.0017707813531160355,-0.00301300804130733,0.0008768693078309298,-0.005269861314445734,0.0005477319355122745,0.0034712355118244886,0.0008565105381421745,-0.004932329524308443,-0.0021721352823078632,0.005795841570943594,-0.002010419499129057,0.009865306317806244,-0.0023446264676749706,-0.0017864645924419165,-0.007515783421695232,-0.008980672806501389,-0.0005870864260941744,-0.0047718677669763565,0.000905359978787601,-0.008527877740561962,0.001981788780540228,-0.005485870875418186,-0.0016697472892701626,-0.010060427710413933,-0.006412195973098278,-0.0032442028168588877,0.00015727640129625797,0.006358018144965172,-0.001456314348615706,0.0038031076546758413,-0.0044096107594668865,0.00192990992218256,-0.0006764051504433155,-0.00026775954756885767,0.005076167173683643,0.0008699500467628241,-2.2556865587830544e-05,0.0009215472964569926,0.0016452660784125328,-0.006382293533533812,0.008405033499002457,0.003109890269115567,0.00020999403204768896
海军,-0.004163238685578108,-0.008316799998283386,-0.006229808554053307,0.0026579336263239384,0.004711338318884373,0.0044359625317156315,0.002297776285558939,-0.006919423583894968,-0.002176600508391857,0.0030908738262951374,0.003657164052128792,0.006361464038491249,0.008152905851602554,0.00290683307684958,0.0113694341853261,0.001880396855995059,0.004974267445504665,-0.002428150735795498,-0.0003826734609901905,-0.0036892015486955643,-0.0014980537816882133,-0.0005208547227084637,0.007383743766695261,-0.0013908694963902235,-0.00311094056814909,-0.005767262075096369,-0.0005103712901473045,0.0033842301927506924,-0.001761609804816544,-0.0018339913804084063,0.0021423508878797293,-0.000655046314932406,-0.013375177048146725,0.00016670709010213614,-0.002428047126159072,0.0036883223801851273,-0.002281658351421356,-0.0017734130378812551,-0.004149844869971275,0.0014334730803966522,0.0008287320961244404,0.006194479763507843,-0.002733962144702673,0.002921412931755185,0.004980297759175301,-0.00470406748354435,0.0004992596805095673,-0.006780586205422878,-0.001717512495815754,-0.008765704929828644,0.0042014094069600105,-0.006416392978280783,-0.0030331278685480356,0.0021471253130584955,-0.0025845649652183056,0.0002855857601389289,-0.010680034756660461,-0.0004771731037180871,-0.0034731398336589336,0.000246523879468441
害怕,-0.005860583856701851,0.007501274347305298,0.005219853483140469,-0.007186644710600376,0.003093629376962781,0.0004479833587538451,-0.004953361582010984,0.006121798884123564,0.007168367505073547,0.002515146043151617,-0.008103759959340096,-0.004192693158984184,0.003374252235516906,-0.0003242047969251871,-0.005303850397467613,0.005926632788032293,0.002139318734407425,0.001886939164251089,-0.0023131719790399075,0.0027379810344427824,-0.002608769340440631,0.007651932537555695,-0.00085090147331357,0.00044557740329764783,0.0029624302405864,-0.006176487077027559,-0.0028681817930191755,0.003050614846870303,-0.00021154465503059328,0.0017149222549051046,-0.0005200617015361786,0.004302742891013622,-0.00292173377238214,0.013785045593976974,-0.00472987350076437,0.0024637258611619473,-0.004826090298593044,0.0023608850315213203,-0.0038892687298357487,0.003351672552525997,0.008046194911003113,-0.0022990615107119083,-0.0007821129402145743,0.007020128890872002,0.0021033301018178463,-0.0030920780263841152,0.00812220573425293,0.002118658507242799,0.006554981227964163,0.007429872173815966,-0.002013065153732896,0.004310925956815481,-0.00422825338318944,0.007115762215107679,0.004001915920525789,-0.002478917594999075,0.007325704675167799,0.009060299955308437,-0.010272420942783356,-0.0028003049083054066
精华,0.001981098670512438,0.0021292236633598804,-0.0051748258993029594,0.009514991194009781,0.0006994558498263359,-0.003850014414638281,-0.002854375634342432,-0.005352174863219261,-0.003213112009689212,0.0036207425873726606,-0.002130829729139805,0.001384584465995431,-0.0013098148629069328,-0.0023382992949336767,-0.0019198250956833363,-0.001711177872493863,0.007679203990846872,-0.005857489071786404,0.0007395007414743304,0.0009584412910044193,0.00623613316565752,0.0037582002114504576,-0.0049704257398843765,-0.004876424092799425,0.0031533169094473124,-0.002100586425513029,-0.00111854774877429,-0.005442035384476185,-0.006349136121571064,0.0006944286869838834,-0.00027978047728538513,0.0023746956139802933,-0.002965343650430441,-0.0025730058550834656,0.0013181325048208237,-0.009033732116222382,-0.006351099815219641,-0.0005073971697129309,0.002284842077642679,0.00097798858769238,0.0003987317904829979,0.005911923013627529,-0.003789026290178299,0.009462185204029083,0.0020565520972013474,0.00612456351518631,0.0022312221117317677,-0.008645446039736271,-0.0020867595449090004,0.005632385611534119,0.00014093262143433094,0.002266423311084509,0.005084928125143051,-0.005264763720333576,0.0012420127168297768,-0.0016911043785512447,0.004197295755147934,0.0018534304108470678,0.00029782275669276714,0.0004270999052096158
故事,-0.0012582098133862019,0.008843686431646347,-0.000941965205129236,-0.0014894448686391115,0.0033955774269998074,-0.0020113696809858084,-0.0011806904803961515,0.004691507201641798,-0.002841722220182419,-0.0001848654355853796,0.001605001394636929,-0.0003582288045436144,0.0016804917249828577,0.0007586494321003556,9.234575554728508e-05,-0.0017346360255032778,-0.004246230237185955,0.0027621311601251364,-0.0049054743722081184,-0.005916363559663296,0.0010354726109653711,0.002775798551738262,0.00043866399209946394,0.0016546243568882346,-0.0009574389550834894,-0.008617689833045006,0.004840458743274212,-0.0003123453352600336,-0.003509482368826866,-0.003396622370928526,-0.008300784043967724,0.004931832198053598,-0.004087280947715044,0.003547481494024396,0.0019493107683956623,-0.0008745461236685514,-0.001455181511119008,-0.01101810485124588,0.0018529887311160564,0.0048423223197460175,-0.002734183333814144,0.0055232360027730465,-0.002693360671401024,-0.00025473558343946934,0.0025193693581968546,0.00010268273763358593,0.0011704941280186176,-0.004307544324547052,-0.001032058848068118,0.00473322719335556,-0.007223943714052439,-0.006437995005398989,-0.0024623314384371042,0.0051428512670099735,0.0005465671420097351,-0.0046514468267560005,0.007573430892080069,-0.0037450517993420362,0.004241961054503918,9.135506115853786e-05
星球,0.004017876461148262,-0.008974937722086906,0.002186852041631937,0.001161973224952817,-0.0073400745168328285,0.00540826003998518,0.004558265209197998,0.011603591963648796,0.003179514314979315,0.0027858864050358534,-0.00035611470229923725,-0.0014944199938327074,0.011537875980138779,0.004460969474166632,0.00728795537725091,-0.0012964480556547642,0.001086743432097137,0.004020226188004017,-0.0031541483476758003,-0.0005593383684754372,0.009942898526787758,-0.002057645469903946,-0.003604111960157752,-0.0048903110437095165,0.006937564350664616,-0.010748136788606644,-0.008130507543683052,0.0013824686175212264,-0.002813533181324601,-0.002939934842288494,0.000780775211751461,-0.005837057717144489,-0.004193106200546026,-0.004306861665099859,-0.0006970623508095741,0.0011853487230837345,0.006240996066480875,0.0015625418163836002,-0.008243178017437458,0.004836391657590866,-0.00033512478694319725,-0.005216845311224461,0.0067176371812820435,-0.0007545890985056758,0.006435769144445658,0.0003922113683074713,-0.004803618416190147,-0.0002667501103132963,0.000803185161203146,0.003002852201461792,-0.004932130686938763,-0.0023051335010677576,-0.009132995270192623,0.003006442217156291,0.0037673870101571083,0.0036169879604130983,0.0007698736153542995,-0.0028766083996742964,0.004504483193159103,0.0012773778289556503
成长,-0.0013420752948150039,-0.0006020675646141171,0.007879704236984253,-0.003783364314585924,0.0017541074194014072,-0.008703511208295822,-0.000192924402654171,0.009189939126372337,-0.0028837965801358223,0.0005009417654946446,-0.00536738708615303,0.0031775208190083504,0.0022942472714930773,-0.001976569416001439,0.00190259818919003,-0.0035193420480936766,0.0006507206708192825,-0.0020291698165237904,0.006832697428762913,-0.0013705696910619736,0.007537951227277517,-0.004797220230102539,-0.007248690351843834,0.0005850053858011961,0.012775568291544914,-0.009501702152192593,0.0007279994897544384,-0.00356715964153409,5.7551776990294456e-05,-0.0001841218036133796,-0.0035068653523921967,-0.003256408730521798,-0.00036334904143586755,0.007444816175848246,-0.004952378571033478,-0.004463844001293182,-0.002483311342075467,0.0035681314766407013,0.0025627475697547197,-0.003058958798646927,0.004700131714344025,-0.010370127856731415,-0.001862779725342989,-0.003576888469979167,-0.0033601406030356884,-0.0011331194546073675,-0.002684126142412424,-0.0014572376385331154,0.0013849013485014439,-0.000603785621933639,-0.0021664323285222054,0.003936574794352055,-0.0005243583582341671,-0.00705799600109458,-0.001492203096859157,0.011564569547772408,-0.00042245403164997697,-0.0010114230681210756,0.00048742257058620453,-0.00184928928501904
萝卜,0.00699613057076931,0.0025033920537680387,0.01189782377332449,-0.006207255646586418,-0.0019056822638958693,0.0006345621077343822,0.003515243995934725,-0.0008933380013331771,0.0021052982192486525,0.002709972206503153,-8.350610733032227e-05,0.0003528997767716646,0.007221488747745752,0.001574059366248548,0.0004648946924135089,-0.0022239466197788715,-0.0002901405969168991,0.0020025502890348434,-0.003566931700333953,0.00018958770669996738,0.0001450825948268175,0.0007562192622572184,0.004799100570380688,0.003087761579081416,-0.0075615448877215385,0.0033542104065418243,0.0014492359478026628,0.0016749039059504867,0.004958183504641056,-0.005653141997754574,2.4416949599981308e-05,0.0006148639367893338,0.004293486475944519,-0.002073159907013178,-0.0006655980832874775,0.006905414164066315,-0.0001564263366162777,-0.003390157362446189,0.006877689156681299,0.004609399940818548,-0.003531944239512086,-0.0019446563674136996,0.0008628050563856959,0.006259090267121792,-0.009403180330991745,0.00020733392739202827,-0.010772217996418476,-0.00034771463833749294,0.002470471430569887,-0.004334657918661833,0.005128747783601284,-0.004313455428928137,0.006191540509462357,0.01034517027437687,-0.0045415619388222694,0.0011638951255008578,0.013072818517684937,0.004876593127846718,-0.007049583364278078,0.0024707168340682983
请,-0.011265546083450317,0.007296138443052769,-0.007704619318246841,0.014065229333937168,-0.007200291845947504,0.001865028403699398,0.015246110036969185,0.007815973833203316,-0.009977174922823906,-0.0008973487420007586,0.004526125267148018,0.005408676341176033,0.01221737451851368,-0.013831930235028267,-0.0030039448756724596,-0.012307832017540932,0.005673620849847794,0.007699598558247089,0.012349268421530724,-0.0026704263873398304,0.0038737012073397636,-0.010940534062683582,0.009078817442059517,-0.0006096693687140942,0.007624255493283272,-0.00951768085360527,-0.004480078350752592,0.009583128616213799,-0.006743170786648989,0.005573525559157133,0.01304826233536005,-0.01050232071429491,0.0016127224080264568,-0.0110938660800457,-0.014538821764290333,0.006930391304194927,-0.009117326699197292,-0.0068583860993385315,-0.006616645958274603,0.005463510751724243,0.005339586175978184,0.0063068377785384655,-0.004015038255602121,0.011538667604327202,0.0006233961321413517,-0.013328163884580135,-0.007675692904740572,0.010404692031443119,-0.008257931098341942,0.003424998838454485,-0.0034113565925508738,-0.00388731830753386,-0.0023196013644337654,-0.002849259413778782,0.007599357515573502,0.01201176829636097,-0.013961476273834705,-0.01233377680182457,0.005783144384622574,-0.009066754020750523
艺术,-0.0011852462776005268,0.006906760390847921,0.003311985870823264,0.0051569631323218346,0.0010653348872438073,-0.0017523329006507993,0.005107889883220196,-0.001627063495106995,0.0010396610014140606,0.00447254441678524,-0.001483874162659049,0.002477565547451377,0.003010794520378113,-0.004603941924870014,-0.004400115460157394,-0.0029660691507160664,0.007762748748064041,0.0026235999539494514,0.00016426155343651772,-0.0007164627313613892,0.006160421296954155,-0.002593453275039792,0.0007286584004759789,-0.0022696161177009344,0.0006493404507637024,-0.0037888085935264826,0.001995887141674757,-0.00030001229606568813,0.0013916885945945978,0.0028932520654052496,0.00021642097271978855,0.003029218874871731,-0.005500665865838528,0.009460285305976868,-0.004840582609176636,-0.0026175298262387514,-0.0075667062774300575,0.006158341653645039,0.0029509516898542643,-0.0025315782986581326,-0.007752344477921724,-0.005362316034734249,-0.006734495051205158,0.0029388656839728355,0.003231019014492631,0.00015912530943751335,-0.0031985652167350054,-0.006128219421952963,-0.005463254172354937,0.009096257388591766,0.006915238220244646,-0.005762422922998667,0.004706943407654762,-0.0037705018185079098,0.009532678872346878,0.005112651735544205,0.00193587108515203,-0.005157866049557924,0.009290660731494427,-0.005109170917421579
可爱,-0.009678350761532784,0.0020634180400520563,-0.0030515678226947784,-0.0023201818112283945,0.01096305251121521,0.0041178553365170956,-0.0005507570458576083,0.0018307066056877375,-0.00536287110298872,0.0022229263558983803,0.0003293293702881783,0.004405413754284382,0.007835435681045055,-0.0036502748262137175,-0.006529556587338448,-0.0009703543037176132,0.008417289704084396,-0.006250114180147648,-0.00256901397369802,-0.0063286470249295235,8.695307769812644e-05,-0.007279971614480019,-0.001045292243361473,-0.004920285660773516,-0.0012225710088387132,0.004998215474188328,-0.007902623154222965,0.0018340423703193665,-0.004561872687190771,0.006825452670454979,0.005830713547766209,-0.005885281600058079,0.008220257237553596,0.009952804073691368,0.0013522072695195675,0.008005496114492416,-0.0069936104118824005,-0.0004673553630709648,-0.0020149967167526484,0.002468912396579981,-0.0017308029346168041,0.0017523582791909575,0.0011312239803373814,0.0007358492584899068,-0.006758670788258314,-0.01264362782239914,-0.0030548428185284138,0.0038729996886104345,-0.002733080880716443,-0.004608828108757734,-0.003848494729027152,-0.005412925034761429,-0.0020336213055998087,-0.0010321519803255796,0.007877335883677006,-0.006850144360214472,-0.0008481097174808383,0.000787107739597559,-0.00046846509212628007,0.0013377954019233584
有,-0.004645987879484892,0.00751178152859211,0.014249274507164955,0.0027205082587897778,0.003638812806457281,-0.0001967382268048823,0.005332778673619032,0.006706393323838711,-0.016366951167583466,-0.012035089544951916,-0.0016916373278945684,0.010889608412981033,0.013855591416358948,-0.015200380235910416,-0.00600089319050312,-0.0038682331796735525,0.0007730512879788876,-0.00719425268471241,0.00422793161123991,-0.01657789945602417,0.0030497154220938683,-0.004074563272297382,-0.001641478855162859,0.01081643346697092,0.0022601184900850058,-0.008914625272154808,0.00998376403003931,0.007056712172925472,-0.0023099074605852365,-0.0031388644129037857,0.01519880723208189,-0.008729011751711369,-0.003123861039057374,-0.0035277027636766434,0.005300979129970074,0.013853879645466805,-0.008567734621465206,-0.01913529261946678,-0.011493528261780739,0.0009437482804059982,-0.010673398151993752,0.012050224468111992,0.0027075132820755243,0.013194652274250984,0.001024508150294423,0.00038197729736566544,0.00450789462774992,0.004931861534714699,-0.004990497604012489,0.0008818074129521847,0.009946099482476711,-0.013839077204465866,-0.012175248004496098,0.00872036162763834,0.011431848630309105,0.018122054636478424,-0.0035384944640100002,-0.010368207469582558,-0.005187629722058773,-0.019777707755565643
开始,-0.0031196519266813993,-0.0055318186059594154,0.017512956634163857,-0.0010556646157056093,-0.007645714562386274,-0.007399063557386398,-0.001829974353313446,0.004212658852338791,-0.006529433652758598,0.004821207839995623,-0.0035740912426263094,0.014016075059771538,0.014683909714221954,-0.009499851614236832,-0.007015148177742958,-0.010713350959122181,-0.0003697426291182637,-0.001110459677875042,0.0071939267218112946,-0.0019634661730378866,0.0020949647296220064,-0.005908322986215353,-0.003657184774056077,0.00961434654891491,0.013372190296649933,-0.005963361356407404,0.007700419053435326,0.00142610352486372,0.008348651230335236,0.0008599909488111734,0.0008050375618040562,-0.003924488089978695,-0.004487807862460613,-0.0006503753829747438,0.0003554634749889374,0.0020355554297566414,0.0022878001909703016,-0.00546065391972661,-0.0014492077752947807,0.004958280362188816,-0.0011927774176001549,0.0069586848840117455,0.008021892979741096,0.007470620330423117,-0.00459356140345335,-0.0009980006143450737,0.0029526560101658106,0.001887164544314146,0.011360455304384232,0.0022861422039568424,0.016728706657886505,0.007314077578485012,-0.0012175273150205612,0.0009271958842873573,0.009887351654469967,0.008596381172537804,0.0015352563932538033,-0.015597743913531303,-0.0005291171837598085,-0.0027928759809583426
帖子,0.002314719371497631,0.0008195728296414018,0.010200735181570053,3.604870289564133e-05,-0.004317336715757847,-0.004451168701052666,-0.004075794015079737,-0.00042358413338661194,0.0007151088211685419,-0.0007250066846609116,0.0008814563043415546,0.0011478353990241885,-0.005120132118463516,0.0036702933721244335,0.0012360909022390842,0.0050271302461624146,-0.003187584225088358,0.005770291201770306,0.0022765290923416615,0.004897400736808777,0.0017296100268140435,-0.0062706503085792065,0.002503208816051483,0.0031670762691646814,0.004069558344781399,-0.0008163447491824627,0.003525389824062586,-0.005567491985857487,0.004865296650677919,-0.0010988956782966852,-0.0040108636021614075,-0.004069391638040543,0.003988452255725861,0.0005965896416455507,0.0005151074728928506,-0.00040538597386330366,5.345628596842289e-05,0.0028554294258356094,-0.007421599701046944,0.006585726514458656,-0.008516784757375717,-0.005044996738433838,0.0015764519339427352,0.001851812470704317,2.39347864408046e-05,-0.0023137982934713364,0.003465962130576372,-0.0018864594167098403,-0.0027538444846868515,0.0033009322360157967,0.000931058544665575,0.0006807550089433789,0.006840037181973457,-0.0032439325004816055,-0.0018720431253314018,0.003655927488580346,-0.00017261458560824394,-0.0038407042156904936,0.005112926475703716,-0.005647573620080948
小,-0.006808083038777113,-0.0026871650479733944,0.0038978802040219307,-0.012644736096262932,-0.007125720847398043,0.0005432623438537121,0.0005966704338788986,-0.008372221142053604,-4.035886377096176e-06,-0.0011459467932581902,-0.0032720500603318214,-0.004292636644095182,0.004483765922486782,0.002848391653969884,0.0012856130488216877,0.004921833984553814,-0.008852520026266575,0.0031503112986683846,-0.008446358144283295,0.010084270499646664,-0.00341099058277905,0.004971649497747421,0.012370563112199306,0.003259139833971858,0.007096071727573872,-0.004603588487952948,-0.012245726771652699,-0.01070132851600647,0.007388688623905182,0.002601354382932186,-0.004172815941274166,-0.0026391632854938507,0.009370402432978153,0.008460164070129395,-0.001533943461254239,-0.011164011433720589,-0.0066968216560781,-0.01712953671813011,-0.010108193382620811,0.011652151122689247,0.004312208388000727,0.011236374266445637,0.011388935148715973,-0.006804151926189661,0.004498214926570654,0.008195607922971249,0.0012164514046162367,0.0010557728819549084,-0.0006865737959742546,-0.0020818656776100397,0.014883558265864849,-0.000878781545907259,-0.004018836189061403,0.005616477690637112,0.005312359891831875,0.010227745398879051,-0.0019551937002688646,0.005296777002513409,-0.00030897418037056923,-0.002225635340437293
魔法,0.002666570944711566,0.0005442912224680185,-0.0020371798891574144,0.005422141402959824,-0.0016732033109292388,-0.0013996458146721125,-6.192360888235271e-05,0.0034743312280625105,-0.003998329397290945,-0.007361992262303829,0.005141250789165497,-0.0014318466419354081,0.003568381303921342,0.0019080346683040261,-0.0030105223413556814,-0.00803349819034338,0.007349387742578983,-0.0007817856967449188,-0.0004279323620721698,0.001235396834090352,0.006376152392476797,0.005317762028425932,-0.00036822352558374405,-0.005790649447590113,-0.0006840690039098263,-0.010702822357416153,-0.0010074286255985498,-0.0002471980988048017,-0.0024503939785063267,-8.747447282075882e-07,0.0017080388497561216,0.0025960193015635014,-0.004273807629942894,0.003057627473026514,-0.004001001827418804,0.0023865385446697474,0.004892654251307249,0.004442413803189993,0.0027531899977475405,0.0035675005055963993,-0.003849962493404746,0.003764162305742502,-0.008271941915154457,-0.00012495764531195164,0.002843905007466674,0.0034290733747184277,-5.8563658967614174e-05,0.0030592638067901134,0.006452585570514202,0.005684899166226387,0.008871802128851414,0.006965747103095055,-0.0034993768204003572,0.0006122481427155435,-9.025726467370987e-05,0.0009958746377378702,0.003319778945297003,0.0017228105571120977,-0.0006242164527066052,-0.003045895369723439
回顾,-0.009907141327857971,-0.00010527332779020071,-0.0011800344800576568,0.000595595221966505,-0.0039825476706027985,0.0007051141001284122,0.0029558436945080757,0.009085077792406082,-0.0060052876360714436,0.0040065529756248,0.002538645174354315,-0.009436272084712982,0.007291506975889206,0.0034463852643966675,0.0024738633073866367,-0.0028482561465352774,0.0023900214582681656,-0.000771764200180769,-0.0016658729873597622,-0.00768281938508153,-0.0013640036340802908,-0.008995408192276955,0.0032299445010721684,-0.0020665423944592476,0.00013597391080111265,0.00668050441890955,0.004424397833645344,-0.001068266574293375,0.010504644364118576,-0.0021168598905205727,-0.004210100043565035,0.00036931061185896397,-0.00894471351057291,-0.006904211360961199,0.010800383053719997,-0.0032609421759843826,-0.002510088961571455,0.0021108691580593586,-0.00510312058031559,0.0064699891954660416,-0.011785353533923626,-0.0043883733451366425,0.002001469722017646,-0.0007554464973509312,-0.0026435176841914654,-0.002724215853959322,0.0023559853434562683,0.00024262024089694023,-0.004390076268464327,0.00036199798341840506,0.007538094185292721,-0.002389434725046158,0.0031133913435041904,-0.0025742934085428715,0.005590975284576416,-0.00411822646856308,0.0016024734359234571,-0.005080076865851879,-0.0031649996526539326,0.0014644120819866657
公园,0.00618324987590313,0.006165813654661179,-3.895792178809643e-05,-0.004107251763343811,0.005545927677303553,0.003042937722057104,0.0026640554424375296,0.0019653509370982647,7.491069845855236e-05,-0.00549278361722827,0.0016537418123334646,0.010619375854730606,-0.005967165809124708,0.005310014821588993,0.0008066447917371988,0.0012639164924621582,-0.006662762723863125,-0.0013379906304180622,-0.0014018849469721317,0.0033708137925714254,-0.004818649496883154,0.005149223376065493,0.00032004714012145996,0.002942723222076893,0.0023396944161504507,0.003304738085716963,0.00671162037178874,0.0017671898240223527,-0.0014321592170745134,0.002653429750353098,-8.606282062828541e-05,0.008349046111106873,0.006616844329982996,-0.007832291536033154,0.0013392921537160873,0.005470900796353817,0.006186367943882942,-0.0035016683395951986,0.004959966987371445,0.01111751887947321,-0.0030601362232118845,0.008010953664779663,-0.009549930691719055,-0.0020257453434169292,0.0029074810445308685,0.005541898775845766,-0.003431975143030286,0.007070201449096203,-0.004231441766023636,-0.0007500627543777227,-0.0036848080344498158,-0.0021954583935439587,0.0007028577383607626,0.002055763266980648,0.01235254481434822,0.00010121660307049751,0.007493107579648495,-0.003352763829752803,-0.007259109988808632,0.002861476968973875
忙于,0.001451087766326964,0.0011694837594404817,-0.008336876519024372,0.0020151115022599697,-0.0015207544201985002,0.004711546003818512,0.005776708945631981,-0.007397728972136974,-0.004978742450475693,0.005224701017141342,0.004166355822235346,-0.0004560975357890129,0.009788790717720985,-0.012756296433508396,0.010809790343046188,0.004761243239045143,0.003870842745527625,0.002502602059394121,-0.0023999237455427647,-0.0013420297764241695,-0.008212323300540447,-0.007224175147712231,-0.008849827572703362,0.0003822112921625376,0.004509890452027321,0.0019406601786613464,-0.009874391369521618,-0.003548838198184967,-0.0026246127672493458,0.007780294865369797,-0.0014294928405433893,-0.0012102274922654033,0.002239807043224573,-0.0011136287357658148,-0.0032141772098839283,-0.008552604354918003,0.004328470211476088,0.007178071420639753,-0.005059876944869757,0.007948621176183224,0.011442732065916061,0.0002892707707360387,-0.00349607365205884,-0.005162596702575684,-0.002659779042005539,0.002109917812049389,0.0021421024575829506,0.00385885126888752,0.0010187153238803148,0.00018972420366480947,-0.006604532711207867,-0.0006004057941026986,-0.000955157564021647,-0.0011380806099623442,0.0027184602804481983,0.003672439604997635,0.005514384247362614,0.000692310044541955,0.002074659802019596,-0.0067758988589048386
我会,0.006676885765045881,0.000781297916546464,-0.00019293936202302575,0.004859759472310543,0.003576379269361496,0.0036446740850806236,-0.006626803427934647,0.007587656378746033,-0.003842940554022789,-0.003686955664306879,-0.008563376031816006,-0.000917784171178937,0.0059508527629077435,-0.0028565707616508007,-0.012171784415841103,-0.0011980775743722916,0.005838779266923666,0.006767811253666878,-0.003762361593544483,0.002076301723718643,0.009637981653213501,-0.010497447103261948,0.0036292581353336573,0.002066934946924448,8.910777978599072e-05,-0.0013604677515104413,0.004848778247833252,0.0018850771011784673,0.004397439770400524,-0.012719541788101196,0.004352649208158255,-0.004746988881379366,-0.005324154160916805,-0.005114493891596794,-0.0014699490275233984,0.0003321877447888255,-0.006391913630068302,-0.013706470839679241,-0.010218095034360886,0.003953195177018642,-0.0015800620894879103,0.006805500015616417,-0.0023343784268945456,0.0005508827161975205,-0.00741069670766592,-0.0024889938067644835,5.070131737738848e-05,0.0032242536544799805,-0.0006682531093247235,0.006554516032338142,-0.00423377426341176,-0.00166457355953753,0.007458304986357689,0.0003315908834338188,0.003773866919800639,0.0008573582163080573,-0.005700572393834591,-0.007743652444332838,-0.0012298247311264277,-0.008403218351304531
漫游,0.011806557886302471,-0.010571002960205078,0.004661925137042999,0.002196062123402953,-0.004077607300132513,-0.009968549013137817,0.003153386525809765,-0.003922487609088421,-0.001276021939702332,0.008074256591498852,-0.006659878417849541,0.008539495058357716,-0.005676711443811655,-0.004188286140561104,-0.002006340306252241,-2.705911174416542e-05,-0.006642659194767475,-0.00851131696254015,-0.0028958620969206095,-0.0003360792761668563,-0.0019060422200709581,-0.0025120999198406935,0.00156980543397367,-0.008610179647803307,0.00027619930915534496,-0.0006000043358653784,-0.008471906185150146,-0.00019916589371860027,-0.004429315682500601,-0.0038196290843188763,0.004646336659789085,0.009523477405309677,-0.001253911410458386,-0.0016030124388635159,0.004072863608598709,0.0002395807532593608,0.005284191574901342,0.007503150962293148,0.0019015205325558782,-0.001574170310050249,-0.004993849899619818,0.0029225023463368416,0.00408077472820878,0.005994268227368593,0.005425135139375925,0.003943231888115406,0.0038659335114061832,0.00866271834820509,-0.006868788506835699,-0.008406081236898899,-0.0058728596195578575,0.003475998993963003,0.00792664010077715,-0.0025190056767314672,0.005743699613958597,-0.004708375781774521,-0.004808242432773113,-0.004631417337805033,0.004673204384744167,0.000343398074619472
很,0.012255159206688404,0.00021292362362146378,0.004498563706874847,-0.0006648304406553507,-0.0030201703775674105,0.0023649912327528,-0.0023428979329764843,0.008143389597535133,-0.013143973425030708,0.000169278122484684,0.004607243929058313,0.0018457876285538077,0.010282793082296848,0.01139373891055584,-0.002260370645672083,-3.137718886137009e-05,0.016940344125032425,0.01276590209454298,0.0088534876704216,-0.005719293840229511,0.0016409374075010419,-0.0035234636161476374,0.008703188970685005,-0.0012735198251903057,0.0007012870628386736,-0.009052176959812641,-0.0028576632030308247,-0.005954744294285774,-0.004007378127425909,0.006458276882767677,0.013733994215726852,-0.0005691256374120712,0.003743639914318919,0.003994726110249758,-0.011540509760379791,0.011221669614315033,-0.003965794108808041,-0.023356497287750244,-0.009621568024158478,-0.008841855451464653,0.013572045601904392,-0.00514449505135417,0.0054265279322862625,-0.0027532889507710934,-0.0053115952759981155,0.01258797012269497,-0.0031694024801254272,-0.01653444580733776,-0.012088704854249954,0.00299145863391459,0.0009569940157234669,-0.006177813746035099,-0.013525511138141155,-0.0017021989915519953,-0.001461209962144494,-0.012559784576296806,-0.007677656598389149,-0.0133947329595685,0.0031128302216529846,-0.01194239966571331
看到,0.003989056218415499,0.002271354431286454,0.006933968514204025,-0.0069098100066185,-0.006847664713859558,0.002465473022311926,0.00556245818734169,0.006044359877705574,-4.049287235829979e-05,-0.005829310044646263,0.005403858609497547,0.007219463121145964,0.01999945566058159,-0.0024790538009256124,-0.00645692041143775,0.0007220396073535085,0.004242423921823502,-0.0032004229724407196,-0.008998110890388489,0.0006677131168544292,0.004478363320231438,-0.002879821229726076,-0.000752102816477418,0.006836314685642719,0.004671858623623848,-0.0023026932030916214,0.0025997052434831858,0.002152578439563513,0.009556297212839127,0.0023963588755577803,0.009401045739650726,-0.0015187254175543785,-0.008460049517452717,-0.007293581031262875,-0.00897142942994833,0.007755490951240063,0.000525779789313674,-0.006639792118221521,-0.004878507927060127,0.004958110395818949,0.00554306898266077,0.0007980088121257722,0.006691071204841137,0.0021546767093241215,-0.016961535438895226,0.001289060222916305,-0.005793478339910507,0.006565827876329422,0.00864303857088089,0.0044627003371715546,0.004367610439658165,-0.00020701694302260876,-0.0035769694950431585,0.0023928468581289053,0.002173876855522394,0.002011953853070736,0.0003303936682641506,-0.0013266351306810975,-0.00025523995282128453,-0.009689949452877045
好,-0.006826314609497786,-0.008878959342837334,0.0019409931264817715,0.0006161928176879883,-0.005723051261156797,-0.0075773391872644424,0.009970963932573795,0.003223421750590205,-0.011004754342138767,-0.006804974749684334,0.0023830970749258995,-0.010526398196816444,0.01135033369064331,-0.01233342569321394,-0.001758452970534563,-0.011227874085307121,0.0019551487639546394,-0.001653936691582203,0.0034382299054414034,0.004076559562236071,-0.00495713809505105,0.002598594641312957,0.00538884149864316,-0.0022293436340987682,-0.009344905614852905,-0.013192250393331051,0.004986714106053114,0.007383550517261028,-0.002160917269065976,-0.011122893542051315,-0.004797759465873241,-0.013138425536453724,-0.0030395665671676397,-0.012450624257326126,-0.011747263371944427,-0.013584993779659271,-0.008947819471359253,-0.009369494393467903,-0.012306973338127136,-0.0015252846060320735,-0.011299164965748787,0.008765479549765587,0.004756058566272259,0.014106569811701775,-0.00701147923246026,-0.007279885932803154,-0.004920084960758686,-0.014741338789463043,0.0037327203899621964,0.002094483934342861,0.01168825849890709,-0.0026001534424722195,0.0019292151555418968,-0.013135014101862907,0.0006274278275668621,0.006794626824557781,0.005206773057579994,-0.005692532751709223,0.014771737158298492,-0.003918508067727089
看着,-0.004119687248021364,-0.002422669669613242,0.005430810619145632,0.00028747390024363995,-0.006600278429687023,0.004363173618912697,-0.0004997785435989499,-0.008114960044622421,0.000542319961823523,-0.004725660663098097,0.003361873095855117,0.005689716897904873,0.003703144146129489,-0.001436768565326929,-0.0005483196582645178,-0.005196466110646725,-0.0004685672465711832,-0.0024692784063518047,0.0012929225340485573,0.00020573788788169622,0.006571735721081495,-0.0029445355758070946,0.006430097855627537,-0.008665761910378933,-0.0020310459658503532,-0.0049398853443562984,0.0024099270813167095,-0.0019961660727858543,0.0004075558390468359,0.0020461748354136944,-5.160889122635126e-05,0.001645054668188095,0.0022780681028962135,0.0053295292891561985,0.007859165780246258,-0.0046881940215826035,0.00776735320687294,-0.0032008904963731766,-0.0018135509453713894,0.0012073860270902514,0.006932795979082584,0.0020257020369172096,0.004302890505641699,-0.008295368403196335,-0.008729870431125164,0.007963886484503746,0.010921427048742771,0.006099820137023926,0.0051422412507236,0.007817702367901802,0.012213710695505142,-0.004997114185243845,0.005428966600447893,-0.0013529316056519747,-0.0006189106497913599,0.002760770730674267,-0.007807848043739796,-0.010465789586305618,0.002502334536984563,-0.0006205499521456659
时候,-0.00025239866226911545,0.004617944825440645,0.008218133822083473,0.0068499855697155,-0.0026312246918678284,0.005892332177609205,-0.004916805308312178,-0.004073400050401688,-0.0032072258181869984,-0.006139633245766163,-0.003347475081682205,0.006195019464939833,0.015308747999370098,-0.011469458229839802,-0.008307388052344322,0.008330988697707653,0.0022993083111941814,-0.005611399654299021,0.0002770263236016035,-0.0036101811565458775,0.0010679892729967833,-0.003642840078100562,-0.005662393290549517,0.011932514607906342,0.012575472705066204,0.0004034311859868467,0.008347872644662857,0.001399572822265327,-0.005638374015688896,0.005955860484391451,-0.0013728468911722302,0.001442712265998125,0.005632293876260519,0.006542924325913191,0.0016454774886369705,-1.2812204658985138e-05,-0.008175861090421677,-0.010992035269737244,0.002481581410393119,-0.0005474957870319486,0.0029738645534962416,0.005566448904573917,-0.005923460237681866,0.006018705666065216,-0.00039394234772771597,-0.002346886321902275,-0.0011847190326079726,-0.005975840613245964,0.0032434132881462574,0.0008984173182398081,0.005473812110722065,0.0017741029150784016,0.00520452531054616,-0.0012687516864389181,0.0006670329021289945,0.005709633696824312,-0.012876037508249283,-0.00021401242702268064,0.0068089766427874565,0.0037332559004426003
是,-0.010105499997735023,0.0052971974946558475,0.01857609860599041,0.009566794149577618,-0.0007928274571895599,-0.007495516911149025,0.005970830097794533,0.004688674584031105,-0.004285694565623999,-0.018310312181711197,0.0032617945689707994,-0.0071648801676929,0.01923822984099388,0.006646316964179277,-0.01763465255498886,0.004606042522937059,0.007420470472425222,0.009289384819567204,-0.009980369359254837,-0.015311776660382748,0.015296502970159054,-0.006950647570192814,-0.0019774725660681725,0.005545338615775108,0.0193340964615345,-0.003419708926230669,0.002383081242442131,0.0034300689585506916,0.003383159637451172,-0.006085334811359644,0.0020119312684983015,-0.0012603007489815354,-0.0005369405262172222,-0.0074148899875581264,-0.003919057082384825,-0.003640443319454789,0.001924377866089344,-0.021851517260074615,-0.0069025252014398575,-0.006349883507937193,-0.012393973767757416,0.0031770095229148865,-0.009602999314665794,-0.0075430069118738174,-0.013675549067556858,0.004598315805196762,-0.004915216006338596,0.0034224307164549828,0.0007551547605544329,0.023193880915641785,0.00423856545239687,0.005450812634080648,0.0018403655849397182,0.00960514321923256,0.017267629504203796,0.0025289030745625496,0.005777194630354643,-0.0260224137455225,0.0007624274585396051,-0.00022905925288796425
播放,0.0007628633175045252,0.006537799723446369,-0.004426414147019386,0.003377150744199753,0.009785249829292297,-0.0007710678037256002,0.0028235092759132385,0.006266729906201363,0.0054950593039393425,-0.006136189214885235,-0.003121966263279319,-0.0070246863178908825,0.005083362106233835,-0.0008352297591045499,0.00414980249479413,0.002848896663635969,-0.0031634573824703693,-0.0010223167482763529,0.0039085280150175095,-0.002388197463005781,-0.009119951166212559,-0.006857002153992653,-0.007700158283114433,0.001114132348448038,0.003863238962367177,-0.0070069339126348495,0.010913267731666565,0.009717202745378017,0.009453878737986088,0.00501966243609786,0.00011941418051719666,0.003660674439743161,-0.010986686684191227,-0.004189867526292801,0.0004365575732663274,-0.002679371042177081,-0.0015802278649061918,0.0004055206663906574,-0.002891292329877615,-0.005012462381273508,0.009704641997814178,7.962633389979601e-05,-0.0026951434556394815,-0.005807822570204735,0.0015593655407428741,0.009053507819771767,0.005749823991209269,0.007469676900655031,0.00022355234250426292,0.004630242474377155,0.010681619867682457,0.009833762422204018,0.003967356868088245,0.0068893106654286385,0.004110374022275209,-0.00437741307541728,0.004773052409291267,0.008509896695613861,0.002768240636214614,-0.0016166826244443655
视频,-0.004941483959555626,-0.002205977216362953,-0.000554713187739253,-0.0006455130642279983,0.0015120611060410738,0.0021301312372088432,0.012129189446568489,0.006008339114487171,-0.00039904090226627886,0.00964285247027874,0.0063439179211854935,8.276838343590498e-05,0.012516440823674202,0.006715342402458191,0.007581925950944424,-0.0012619678163900971,0.0027891441714018583,-0.005091718398034573,-0.005557447671890259,-0.008673615753650665,-7.60804396122694e-05,-0.0021309303119778633,0.005811069160699844,0.008816665969789028,0.007923499681055546,-0.0065127210691571236,0.006353463977575302,-0.005271241068840027,0.0027426169253885746,0.003251986810937524,-0.0012906313640996814,-0.004522871691733599,0.003923431504517794,-0.0066260602325201035,0.005656983703374863,-0.007183589041233063,0.0003419136628508568,-0.001192442374303937,0.0018088247161358595,-0.007288656663149595,0.0016999852377921343,0.004476126283407211,-0.0031301830895245075,-0.0030014915391802788,-0.008680276572704315,-0.0036664411891251802,-0.0027204612269997597,-0.006514569744467735,-0.001920220791362226,0.0005400725640356541,-0.00017574033699929714,-0.0025234511122107506,-0.003195720026269555,0.0016729084309190512,0.006903083994984627,0.006587214767932892,0.0011149656493216753,0.0005495939403772354,0.00908532366156578,-0.00867926049977541
胜利者,0.0007623773417435586,-0.002847441239282489,-0.0029521784745156765,-0.004111140035092831,-0.0024117077700793743,0.0003479488950688392,-0.0037442906759679317,-0.00188964803237468,0.0024978050496429205,-0.0019394768169149756,-0.0014944346621632576,-0.00037111141136847436,-0.0008407343411818147,-0.006105788983404636,0.0060718166641891,0.004286643583327532,-0.0038242542650550604,-0.006648038048297167,0.0013181556714698672,-0.0019018432358279824,-0.0011849811999127269,-0.001032566768117249,-0.0025132144801318645,-0.00013072203728370368,0.0008742278441786766,0.0006860748981125653,-0.0013728553894907236,-0.0009701277012936771,0.001726442133076489,-0.004031474236398935,0.0004672884533647448,-0.0021142202895134687,0.00442282622680068,-0.00231845467351377,0.001195708871819079,0.003237247932702303,-0.007495860103517771,0.006791056599467993,0.003454794641584158,6.656581535935402e-05,0.006832890212535858,0.0022837205324321985,0.000906150380615145,0.0032658546697348356,-0.0028757865075021982,-0.003072087885811925,0.002343785250559449,-0.0018945634365081787,-0.0028427138458937407,0.001588474027812481,0.003459675470367074,-0.003058791859075427,0.0040662712417542934,-0.001256217248737812,0.0009652198641560972,0.00501168891787529,-0.0031652990728616714,-0.0026694820262491703,0.0070358444936573505,0.00452314643189311
继续,-7.846788503229618e-05,0.000640234793536365,0.0031503557693213224,-0.0004960123915225267,0.005566437728703022,0.001994627295061946,-0.0005948334001004696,0.0024141420144587755,-0.0041519105434417725,-0.006884275935590267,-0.0014232334215193987,-0.0021659780759364367,-0.0002202043542638421,0.0014540147967636585,-0.005497547797858715,-0.006185995880514383,-0.0019430122338235378,0.0013345754705369473,-0.0016375088598579168,-0.0023661023005843163,0.0052877007983624935,-0.0008953968062996864,-0.001071429462172091,-0.001108541153371334,-0.0022440836764872074,-0.00433726841583848,0.010302684269845486,0.006969794165343046,-0.00031905784271657467,0.005067392718046904,0.0006858771666884422,-0.009014678187668324,0.0014218069845810533,-0.006406968925148249,0.00010155083145946264,0.0052911676466465,-0.007654680870473385,-0.007960489951074123,0.00023512588813900948,0.007145232986658812,0.0005278533790260553,-0.001476745936088264,0.0043263910338282585,-0.007012257352471352,0.0025782522279769182,0.00033825961872935295,-0.0006251230370253325,-0.006593198049813509,-0.0013165234122425318,0.0027036871761083603,0.0007930472493171692,-0.008503318764269352,-0.0010625091381371021,0.0068813506513834,-0.0016972485464066267,0.0054162475280463696,-0.0004004273214377463,-0.011367268860340118,0.0009284864645451307,-0.0015897928969934583
获胜,0.003688595723360777,-0.007865029387176037,-0.008863883092999458,-0.011731750331819057,-0.004739230033010244,0.001416093553416431,0.0014910311438143253,0.011356599628925323,0.0069638751447200775,-0.0026161654386669397,-0.0022457134909927845,0.001763889566063881,0.009771788492798805,-0.006836390122771263,-0.007414327003061771,0.004113365896046162,-0.004688598215579987,-0.001510857604444027,-0.00941970944404602,-0.0016335209365934134,-0.0011927238665521145,-0.0026035357732325792,0.011746492236852646,-0.0074934279546141624,0.0056655979715287685,-0.006622985005378723,-0.00526422169059515,0.004703233018517494,-0.007300440687686205,-0.003043371718376875,0.0012052045203745365,0.0021706908009946346,-0.005330547224730253,0.001746862893924117,0.0033215030562132597,-0.0027121976017951965,0.004084249492734671,-0.0003190311836078763,-4.703644663095474e-05,-0.0009561381302773952,-0.0025659073144197464,0.0033057276159524918,0.0003636993933469057,0.0013784836046397686,-0.008518543094396591,0.00702549796551466,-0.002081128302961588,-0.00036564189940690994,0.005740011110901833,0.00017801043577492237,0.005048804916441441,-0.000644844607450068,0.004963882267475128,0.0016121277585625648,0.005753741599619389,0.00601346418261528,0.004349150694906712,0.0011257987935096025,-0.0064433421939611435,0.008137288503348827
重新,-0.01025256048887968,0.00685357628390193,0.005065178032964468,-0.0021965380292385817,0.005831671413034201,0.0024469566997140646,0.004721616394817829,0.005083105526864529,-0.006628534756600857,-0.0017745780060067773,0.0035333915147930384,0.010507476516067982,0.00402758177369833,-0.004115434363484383,-0.0030579613521695137,-0.0032805674709379673,0.0041772183030843735,-0.003015252761542797,0.0011330265551805496,-0.008996798656880856,0.006728291045874357,-0.004213550128042698,0.003224613144993782,0.0034686250146478415,0.009657374583184719,-0.0011562039144337177,0.002621612511575222,0.00020014098845422268,-0.011911719106137753,-0.001186200650408864,0.0007170037715695798,-0.002310376148670912,-0.00442633219063282,0.0023457633797079325,-0.0017553147627040744,2.870289608836174e-05,0.0020211413502693176,-0.012363388203084469,-0.011391015723347664,0.0003646805416792631,2.9837479814887047e-05,0.004664938896894455,0.005634223110973835,0.0019588409923017025,0.001381411449983716,-0.004236837383359671,-0.00651951739564538,0.005331689491868019,0.00814168993383646,0.0012746471911668777,0.0006504508201032877,-0.004067647270858288,-0.0031532272696495056,0.0022029350511729717,0.007203652523458004,0.002344118896871805,0.004190654493868351,-0.007196616847068071,-0.00010886345990002155,0.0010407230583950877
新闻,-0.004362151026725769,-0.004287690855562687,-0.003492155112326145,0.0031743417493999004,0.00045503146247938275,0.0023104369174689054,-0.00476311519742012,-0.0003811486531049013,0.005404369905591011,-0.0019268824253231287,-0.0003464680630713701,-0.001717321458272636,0.006081124767661095,-0.0066298265010118484,-0.007928706705570221,-8.107651956379414e-05,0.000951118883676827,-0.0008374616736546159,0.0034666985739022493,-0.0018445621244609356,0.003740898799151182,-0.0029493900947272778,-0.009359680116176605,0.0028158461209386587,0.005947064608335495,0.0016592181054875255,-0.004201565403491259,-0.005233771167695522,0.00012864195741713047,-0.000297688995487988,0.003815007396042347,0.000883706146851182,-0.00047646788880228996,-0.0008462562691420317,0.004980827681720257,-0.0004693318624049425,0.0012340203393250704,-0.007772334851324558,-0.004179302603006363,0.003195191966369748,-0.002674803137779236,0.002696340437978506,0.006218361668288708,0.005720756482332945,-0.006643974222242832,0.001799573190510273,0.004783951677381992,-0.006062761414796114,-0.0033573778346180916,0.008211870677769184,0.009189760312438011,0.00834698136895895,0.010492699220776558,0.005455047823488712,-0.0018687937408685684,-0.00014853058382868767,-0.010108735412359238,-0.0022161859087646008,-0.002882137196138501,0.0007077488116919994
去,-0.010794652625918388,-0.0029229798819869757,0.019810941070318222,0.006143615581095219,-0.0023318827152252197,-0.008511906489729881,0.0035996423102915287,0.002251773839816451,-0.01741892658174038,-0.006093017756938934,0.0059081148356199265,0.01155826821923256,0.0177837572991848,-0.014430848881602287,0.00343458098359406,0.0004357592260930687,0.012844677083194256,-0.0002121301367878914,-0.0030159279704093933,0.0025844676420092583,-0.008690997026860714,-0.005995177663862705,0.006121470592916012,0.009136902168393135,0.006971608381718397,0.004644758068025112,0.007442119996994734,-0.004935952834784985,0.0007776310667395592,-0.006653117947280407,0.012759635224938393,-0.0004485771059989929,0.011554744094610214,-0.006121787242591381,0.008658802136778831,0.009888582862913609,0.0076059866696596146,0.0007207502494566143,0.0030785673297941685,0.013567967340350151,-0.009763697162270546,0.017787115648388863,-0.011544514447450638,0.003474960569292307,-0.011150475591421127,-0.01322850026190281,-0.004188697785139084,-0.014481455087661743,-0.011741768568754196,0.007403544615954161,0.0068898918107151985,0.0045598335564136505,-0.007581476587802172,-0.001972468802705407,0.015872515738010406,0.00756108807399869,0.011026491411030293,-0.004548833705484867,0.007294041104614735,-0.018078874796628952
都,0.0029612407088279724,0.014857625588774681,0.016035031527280807,-0.009291429072618484,-0.011613798327744007,-0.006093896925449371,-0.007417141459882259,0.0006411215290427208,-0.009314045310020447,-0.0029081804677844048,-0.007410128600895405,0.009941820055246353,0.009978847578167915,-0.004512372426688671,-0.010472393594682217,-0.003107585944235325,-0.008823508396744728,-0.006959377322345972,0.0012767692096531391,0.0019292341312393546,0.015402909368276596,-0.007352035492658615,0.0020095109939575195,0.013524075970053673,0.016017237678170204,-0.0062957522459328175,-0.0023161587305366993,0.0020390423014760017,0.00560651533305645,-0.004782787058502436,-0.0026824907399713993,-0.00044303154572844505,0.004122219979763031,-0.008194484747946262,-0.005779257044196129,0.013192391023039818,-0.0139706339687109,-0.010074939578771591,-0.011910103261470795,0.014706644229590893,0.006980615667998791,0.0013864547945559025,-0.007123714312911034,0.011910242959856987,-0.012825802899897099,0.005917807575315237,-0.007054316811263561,0.00684976764023304,-0.006317386403679848,-0.0051178294233977795,0.015976186841726303,-0.0032848792616277933,0.0037646391429007053,0.0008721009362488985,0.008597534149885178,0.0042444560676813126,0.008331209421157837,-0.019246984273195267,0.013318372890353203,-0.017722470685839653
正,-0.0035679840948432684,-0.00133961858227849,0.0074465274810791016,0.009284263476729393,0.01267614308744669,0.0032202163711190224,-0.004079566337168217,0.01321652252227068,0.013545120134949684,-0.007185322232544422,-0.009454640559852123,-0.009719992987811565,0.012558618560433388,0.01048935204744339,-0.010790667496621609,-0.007035397458821535,0.01463686116039753,0.005890904925763607,0.011078539304435253,0.001658734166994691,0.00952159520238638,0.0014469746965914965,0.004452880937606096,-0.005598046351224184,0.01138291321694851,0.005667508114129305,-0.002189148683100939,-0.010128801688551903,-0.006215741857886314,0.004714562091976404,0.004208209924399853,0.0026526176370680332,0.0007746410556137562,0.002394989598542452,0.00452608335763216,0.006735467351973057,-0.004431643523275852,0.0006121178157627583,-0.0005264217033982277,0.003983450587838888,-0.006596946157515049,-0.00656852638348937,0.015752598643302917,0.007557119242846966,-0.0048547000624239445,0.0064927274361252785,-0.0008738301694393158,-0.00025838619330897927,0.007579947356134653,0.004032514523714781,-0.01310625858604908,-0.0022901957854628563,0.0009985771030187607,6.194447632879019e-05,0.0034043369814753532,-0.008797802962362766,-0.011776100844144821,-0.0050165653228759766,0.0017162826843559742,-0.005583488382399082
观看,-0.005869668908417225,0.0001230246853083372,-0.00529759656637907,-0.007937771268188953,0.00017177453264594078,-0.010649595409631729,0.002807406010106206,-0.0017524416325613856,-0.010578114539384842,-0.005001789890229702,0.002707209438085556,-0.0015435939421877265,0.0073272716253995895,0.0006729899905622005,0.0017892085015773773,0.002713057678192854,-0.005213262513279915,9.425729513168335e-05,0.00028934935107827187,-0.004614309407770634,0.009088980965316296,0.0008247215300798416,0.006984886713325977,0.002704679500311613,-0.0021233386360108852,0.010664434172213078,0.003260269295424223,0.004555003251880407,0.0011374254245311022,-0.006894220132380724,-0.00324458465911448,-0.009475896134972572,-0.004930609837174416,0.002220488851889968,-0.0009304450359195471,0.005983434151858091,0.002018407452851534,0.005089412443339825,-0.006561687216162682,0.006329052150249481,0.0022407863289117813,0.004647169262170792,-0.0001906142570078373,-1.7499318346381187e-05,-0.0012304673437029123,0.004053480923175812,0.0015593180432915688,-0.00794704258441925,-0.00035442819353193045,0.0013294864911586046,0.00795377790927887,-0.0005152537487447262,0.0027071035001426935,-0.0016497350297868252,0.008560665883123875,-0.001990826800465584,5.001458339393139e-05,0.0033321972005069256,-0.0002736620372161269,7.692724466323853e-05
纬度,-0.0013001970946788788,-0.006843919865787029,-0.004202702548354864,0.004895826801657677,-0.0002889937022700906,-0.008164109662175179,-0.003248218446969986,-0.008365600369870663,-0.0030451829079538584,-0.004937175661325455,0.00022133285528980196,0.0035842007491737604,0.0013949458952993155,-0.0015393841313198209,-0.001640424830839038,-0.00021060719154775143,-0.004722315352410078,0.00695390347391367,0.011696421541273594,-0.003703321795910597,-0.006441790610551834,0.0013312969822436571,0.004765171557664871,-0.00267177727073431,0.00802174024283886,-0.0023786663077771664,0.004963683895766735,0.00215779896825552,-0.0010859440080821514,0.0005889467429369688,-0.0033788038417696953,-0.0007377443835139275,0.0027098001446574926,-0.0025609303265810013,-0.0005274942377582192,-0.008069840259850025,0.01095954142510891,0.01188298687338829,0.003996857441961765,0.000888922018930316,-0.004681023769080639,0.0008467491716146469,-0.008602405898272991,-0.00024788896553218365,0.0068091172724962234,-0.0022891145199537277,0.003000701544806361,-0.002730469685047865,-0.0051291934214532375,-0.0035740723833441734,-0.00719828624278307,0.007300685625523329,0.004205712117254734,-0.00023487512953579426,-0.00994526781141758,0.0061731222085654736,-0.007529283408075571,-0.0025847649667412043,-0.0033571836538612843,-0.002055664546787739
上传,-0.0010641602566465735,-0.0031811585649847984,-0.004113810136914253,0.0015667465049773455,0.004073235206305981,0.0013764726463705301,-0.002357141114771366,-0.00015573680866509676,-0.001714003155939281,-0.005392962601035833,0.0026486965361982584,-0.002549140015617013,0.008937292732298374,0.0005555466050282121,-0.0064050061628222466,0.004813813604414463,0.000739123672246933,0.0053199296817183495,-0.005131453275680542,-0.009638424962759018,-0.0022541044745594263,0.002841436769813299,-0.0004996878560632467,6.648350972682238e-05,0.002797858091071248,0.013831674121320248,-0.002024467568844557,-0.00936911441385746,-0.004965352825820446,0.0027950028888881207,-0.0007624677382409573,-0.001022216398268938,-0.006363282445818186,-0.003095656167715788,0.006217075511813164,0.0075960922986269,-0.00048480473924428225,-0.00042212847620248795,0.005907268263399601,-0.005367588717490435,0.008982963860034943,0.0014293964486569166,-0.009649119339883327,0.0012210123240947723,0.00389808788895607,0.0002185425255447626,-0.004808521363884211,-0.0016462900675833225,-0.0012916476698592305,0.001721839071251452,0.0041531953029334545,-0.00244274758733809,-0.004502248018980026,7.265375461429358e-05,0.007634221576154232,0.001573030138388276,0.0017918481025844812,-0.009634637273848057,0.007787508890032768,-0.013414723798632622
活动,0.0013751715887337923,0.0026116957888007164,0.0027802842669188976,0.0018084958428516984,0.0029514627531170845,0.0014965396840125322,-0.006611344404518604,-0.0004503539530560374,-0.004687928128987551,0.0007618379313498735,-6.696861237287521e-05,0.00949995405972004,0.011605475097894669,-0.010325804352760315,-0.00552563089877367,-4.8531132051721215e-05,-0.0009046736522577703,-0.0035170759074389935,5.2206218242645264e-05,-0.005092645529657602,0.011341198347508907,-0.00478304922580719,0.003742809407413006,0.0025401292368769646,0.0066468785516917706,-0.0001073107123374939,0.008192095905542374,0.010198251344263554,-0.000156153691932559,-0.0029238522984087467,0.0030670654959976673,0.0003182161890435964,0.005077704321593046,0.004235330503433943,0.0034865005873143673,0.002073627430945635,-0.0025441546458750963,-0.00966429803520441,-0.0107826953753829,0.00592570286244154,-0.001871344051323831,0.0036107953637838364,-0.0069473665207624435,-0.0023684201296418905,0.001939650741405785,-0.007949881255626678,0.009548820555210114,-0.0028242527041584253,-0.003562986385077238,-0.0004468413535505533,0.006840928457677364,-0.005176612176001072,0.003868085565045476,0.0010472715366631746,0.011328637599945068,0.0043233041651546955,0.006836901884526014,-0.004445724654942751,0.004649836104363203,-0.0032626392785459757
检查,0.0018203930230811238,0.0002537844702601433,-0.00215863692574203,0.002529432298615575,-0.002273291116580367,0.008443722501397133,7.80806876718998e-05,-0.0017033428885042667,0.005262112710624933,0.0003550262190401554,0.0022092973813414574,0.007861602120101452,0.0028296224772930145,-0.0019861715845763683,0.000897861085832119,-0.0058377329260110855,0.0046400208957493305,0.0036912753712385893,-0.0011474727652966976,-0.0043929507955908775,0.0002822482492774725,0.003136702347546816,0.0008268370293080807,0.0070640756748616695,0.003543142694979906,0.005541627295315266,-0.0030346086714416742,-0.0006541030015796423,0.0068443710915744305,-0.007233846932649612,0.0009794498328119516,-0.0027694771997630596,-0.001613118452951312,-0.004011517856270075,-0.00043131489655934274,-0.00046787585597485304,0.00027413188945502043,4.370720125734806e-05,-1.2246920960024e-05,0.002463290933519602,0.0019501200877130032,0.0021539703011512756,0.002413912210613489,-0.0016225527506321669,-0.0052611129358410835,0.001667385920882225,0.000618022633716464,-0.0028711215127259493,0.015479149296879768,0.00020438176579773426,0.005973863881081343,-0.0005798605270683765,0.006334788631647825,-0.0011011206079274416,-0.006915245205163956,0.008264579810202122,0.0022413209080696106,-0.009617947041988373,0.004143001511693001,-0.011364649049937725
