word,0,1,2,3,4,5,6,7,8,9,10,11,12,13,14,15,16,17,18,19,20,21,22,23,24,25,26,27,28,29,30,31,32,33,34,35,36,37,38,39,40,41,42,43,44,45,46,47,48,49,50,51,52,53,54,55,56,57,58,59
读,0.008214164525270462,0.015263494104146957,-0.005358121823519468,0.00247067678719759,0.013334529474377632,-0.005610327236354351,-0.003518851473927498,0.0019791782833635807,0.0034842388704419136,-0.005115478299558163,-0.009101181291043758,0.005260396748781204,0.005710295867174864,0.007218937389552593,0.009503304958343506,0.00040575547609478235,0.01223896723240614,-0.0037258630618453026,0.0073417602106928825,-0.00884490367025137,0.006422143895179033,-0.003480582032352686,0.0030217389576137066,-0.009391313418745995,0.005065406672656536,0.008351225405931473,0.009339365176856518,-0.009038355201482773,0.0034257418010383844,0.008475907146930695,-0.005419881548732519,-0.00029254681430757046,-0.00563050014898181,0.0015487568452954292,0.005605617072433233,-0.009530281648039818,-0.006297900341451168,-0.0005937973037362099,0.00543217733502388,-0.008714024908840656,-0.004103237763047218,-0.0013208501040935516,-0.015090849250555038,-0.00037971517303958535,0.007030993700027466,-0.007730837445706129,0.011102084070444107,-0.0026674047112464905,-0.012768935412168503,-0.006884324364364147,0.0040483116172254086,0.0007447530515491962,-0.010061661712825298,-0.007014501374214888,0.006589533295482397,0.01226082257926464,0.00971691682934761,-0.0048357960768043995,-0.005987097509205341,0.015733346343040466
睫毛膏,-0.004907982889562845,0.005125172436237335,3.059199298149906e-05,-0.004197017755359411,-0.00436610821634531,-0.0005073021748103201,0.0008372982265427709,-0.006827718578279018,-0.001993235433474183,-0.0038783324416726828,0.0013112096348777413,0.00573637243360281,-0.007852076552808285,-0.0024441187269985676,-0.0009266373817808926,0.0005432016332633793,0.0014912296319380403,-0.00011117716348962858,-0.0032065187115222216,-0.00023715860152151436,-0.00012524852354545146,-0.0015250005526468158,-0.003298650961369276,0.004718943033367395,0.004580140579491854,0.006980252452194691,0.0039314329624176025,-0.0036404032725840807,0.003037406364455819,0.003687756834551692,-0.00019209645688533783,-0.0007877952302806079,-0.0004413135757204145,0.005667015444487333,-0.0026759731117635965,-0.0058662318624556065,0.006913940887898207,0.0049564531072974205,0.00040302478009834886,-0.0009801891865208745,0.0036263104993849993,-0.0010507205734029412,-0.0018493551760911942,-0.006101085804402828,-0.0016864807112142444,-0.004698651377111673,0.0026977129746228456,-0.004350191447883844,-0.0041607944294810295,0.00027056739781983197,-0.008245378732681274,-0.00402207812294364,-0.004008461721241474,0.0008942625718191266,-0.0038684902247041464,-0.0005569694912992418,0.0027526055928319693,-0.003937962930649519,-0.009035755880177021,-0.0035987463779747486
更,0.006893410347402096,0.010489226318895817,0.004786436911672354,0.007664804812520742,-0.0010991431772708893,0.007175041828304529,-0.005844827275723219,-0.010838781483471394,0.0028353887610137463,8.429470472037792e-05,-0.0020934930071234703,0.011685864999890327,0.00822780467569828,-0.006755567155778408,0.010234198532998562,-0.0005497129168361425,-0.004345993977040052,0.005455676466226578,-0.005240056663751602,-0.00848877988755703,0.00976645853370428,-0.015726815909147263,0.004259736277163029,0.009793751873075962,0.009318348951637745,-0.008081321604549885,0.0052317166700959206,0.0034397575072944164,0.00374095537699759,-0.008448847569525242,0.0027076334226876497,-0.0008145651081576943,-0.0120064252987504,0.004738869145512581,-0.0007574355695396662,0.007856512442231178,0.003390262834727764,-0.011248905211687088,0.0002934481017291546,0.015524329617619514,0.0008415728807449341,0.01479827519506216,-0.0032443946693092585,0.007876317016780376,-0.007100214250385761,-0.006165217608213425,-0.001473742537200451,0.012372724711894989,0.0014734789729118347,0.0057777343317866325,0.008156110532581806,-0.011202065274119377,-0.00405680388212204,-0.0030681504867970943,0.017737897112965584,0.008452067151665688,-0.010863455012440681,0.001989739015698433,0.010286092758178711,-0.018670130521059036
爱,-0.006966013927012682,0.005578178446739912,0.019693415611982346,0.009746715426445007,-0.0054505798034369946,0.000944576459005475,-0.007848351262509823,0.007950510829687119,-0.00781319011002779,0.009301815181970596,-0.002947332803159952,-0.0023170849308371544,0.015041567385196686,-0.007825200445950031,-0.009457641281187534,-0.007654832676053047,0.014379091560840607,-0.009076911956071854,0.004758669063448906,-0.0015755420317873359,0.008114397525787354,-0.0037898069713264704,0.0063782986253499985,0.0038631923962384462,0.00957163330167532,0.007126634940505028,-0.008606274612247944,0.00803564116358757,0.010060759261250496,-0.0002666134387254715,0.004680973012000322,-0.005215656012296677,-0.0031361947767436504,-0.003667559940367937,0.0029297838918864727,-0.014031190425157547,-0.0026687579229474068,-0.019543908536434174,-0.012294349260628223,-0.004592934623360634,0.006054481025785208,0.0016008350066840649,0.004161148797720671,-0.0006251211743801832,-0.017080217599868774,-0.008588281460106373,-0.008616676554083824,-0.00594447972252965,-0.015424355864524841,0.008349142037332058,0.011336671188473701,0.0009129773825407028,-0.01245826669037342,0.004521289374679327,0.0033041180577129126,-0.013159600086510181,-0.006601131986826658,-0.008988093584775925,0.0014578141272068024,-0.012456422671675682
像,-0.005609736777842045,-0.0029094303026795387,0.005488850641995668,0.004833786282688379,0.002361033111810684,-0.0020158698316663504,0.0022405143827199936,-0.003861923236399889,-0.0053980243392288685,0.004799854941666126,-0.00749692227691412,-0.012194152921438217,0.010570438578724861,-0.0005790852010250092,-0.009603912942111492,-0.012922347523272038,-0.009049483574926853,0.008438863791525364,0.008227944374084473,-0.0009670899016782641,0.006125992629677057,0.008505262434482574,-0.013415773399174213,-0.0015595792792737484,0.004563305526971817,-0.00303381378762424,0.0059463465586304665,0.01740509271621704,0.0010327193886041641,-0.004304983653128147,0.00267398520372808,-0.01465015858411789,-0.006626255344599485,-0.0021864441223442554,0.0016051488928496838,0.01031724363565445,0.010833078064024448,-0.007627461571246386,-0.0038012475706636906,0.0056572118774056435,0.015411118045449257,-0.005815858952701092,-0.012649177573621273,0.004862097091972828,-0.011653834953904152,0.009128760546445847,-0.010837306268513203,-0.011279311031103134,-0.007430994417518377,0.0006291945464909077,0.004764455370604992,-0.00838601216673851,0.011993630789220333,0.007226282265037298,0.010223262943327427,0.004339910577982664,0.006693699397146702,-0.014558840543031693,0.006234451197087765,0.006586835719645023
年龄,0.005454658064991236,-0.0034317143727093935,0.004060912411659956,0.0019946391694247723,0.00666588731110096,-0.006132098846137524,-0.005430635530501604,-0.0020508351735770702,0.0015098098665475845,-0.008661037310957909,-0.001796750002540648,0.0025927016977220774,0.007749682292342186,0.0029796957969665527,0.007654747925698757,0.0006707936991006136,-0.0011287301313132048,-0.0006908990908414125,0.0064329421147704124,0.0026160378474742174,0.005820225924253464,0.0010747341439127922,-0.004153469577431679,0.006988379638642073,-0.005238121375441551,-0.011148390360176563,-0.0071178097277879715,-0.0010231616906821728,-0.0006039411528035998,-0.0011761423666030169,-0.0031386814080178738,0.0018018134869635105,-0.004749846179038286,0.0025093713775277138,-0.00303333206102252,-0.002770226914435625,0.0008691495750099421,-0.006232064682990313,-0.00018908979836851358,0.00483433622866869,0.0007834614953026175,0.006668068468570709,0.009579676203429699,0.007770356722176075,-0.0033261217176914215,0.005527022294700146,0.0012640052009373903,-0.005683718249201775,-0.0010154079645872116,-0.0026134676299989223,-0.00013604294508695602,0.00516299856826663,-0.0008496023947373033,-0.0016277985414490104,-0.0071502309292554855,0.005353621672838926,-0.003857390023767948,0.0023040263913571835,-0.004104550462216139,-0.004783600103110075
行动,-0.003207355970516801,-0.0025668758898973465,3.063457552343607e-05,0.0005693761631846428,0.005831083282828331,0.00016122206579893827,0.0020779829937964678,-0.005346145015209913,0.002701207296922803,-0.0025102258659899235,0.00088010064791888,-0.005824602674692869,-0.00829943548887968,-0.0013773245736956596,-0.0022079849150031805,-0.0019769181963056326,7.97118991613388e-05,-0.0015051894588395953,-4.828383680433035e-05,0.007591812871396542,0.004782739095389843,0.007732569705694914,0.008527593687176704,-0.004086554516106844,0.004991712514311075,-0.0013963369419798255,-0.00112749426625669,0.006889191456139088,0.011766808107495308,-0.0009636715985834599,0.005685753189027309,-0.006539386231452227,-0.012886657379567623,-0.0007310719229280949,0.00196945876814425,-0.009649645537137985,-0.004464845173060894,0.003028147853910923,-0.006531020160764456,-0.007065806537866592,-0.00684600044041872,0.008139760233461857,-0.007325820624828339,0.002905602566897869,-0.006659214850515127,-0.008273463696241379,-0.0016423173947259784,0.0009024533210322261,0.0011949718464165926,0.003961531911045313,0.0056967949494719505,-0.003386130789294839,0.0020603896118700504,0.002857363549992442,-0.004515622742474079,-0.005300091113895178,-0.004486940801143646,-0.002675493946298957,0.0018413853831589222,0.0035603612195700407
退出,0.0022614479530602694,-0.004895349033176899,0.0011323322542011738,-0.007795868441462517,0.004354486707597971,-0.004921885672956705,0.0017354099545627832,-0.0017653554677963257,-0.003870310727506876,0.0003058548318222165,0.0010151260066777468,-0.005019207019358873,-0.0010413629934191704,-0.002468064660206437,-0.007403033785521984,-0.0013855310389772058,0.008800125680863857,-0.0025837947614490986,0.006527605000883341,0.008277018554508686,-0.004417330026626587,-0.012904457747936249,0.008502937853336334,-0.0013703458243981004,0.006473111920058727,-0.00604694988578558,-0.0014708812814205885,-0.004052126780152321,0.004278464708477259,0.0022075208835303783,-0.006408846005797386,0.004041557665914297,0.007472903002053499,0.008807793259620667,0.003239633282646537,-0.0014431370655074716,0.002247978001832962,-0.005375179462134838,0.0015623185317963362,-0.005176662467420101,0.004672996699810028,0.0016260851407423615,0.001118239713832736,0.003762268926948309,-0.003947348799556494,-0.0031926333904266357,0.011807377450168133,0.005151469260454178,0.002457116264849901,-0.005670597776770592,0.005438758991658688,0.0011398328933864832,0.0060506113804876804,0.0021431876812130213,0.005838519893586636,-0.0068244850262999535,0.00456607760861516,-0.00985692162066698,0.0031186803244054317,-0.004891130141913891
再次,0.005542584229260683,0.006283740513026714,-0.002606671769171953,-0.0004029390402138233,0.00026912393514066935,6.061512976884842e-05,0.005940699949860573,0.008780454285442829,0.0002511428319849074,0.0006828997284173965,0.0045096976682543755,0.006945379544049501,0.0025898690801113844,0.0007024467922747135,-0.0012572093401104212,0.0013746821787208319,-0.00899647455662489,-0.006010089535266161,0.011191318742930889,-0.0011893687769770622,-0.0017838593339547515,0.006281989626586437,-0.002617937047034502,0.0018554175039753318,4.613213241100311e-05,0.001482745516113937,0.012350879609584808,0.0010462542995810509,0.005336849484592676,0.0014848359860479832,0.003983276430517435,0.0011394806206226349,0.0015662668738514185,-0.0037949178367853165,-0.003878326853737235,-0.007847759872674942,-0.00630614347755909,-0.0023756844457238913,-0.0002293559955433011,-0.0032566545996814966,0.004556285683065653,0.004547604359686375,-0.0046022748574614525,-0.006347545422613621,-0.006366376765072346,-0.005418873392045498,0.00703734066337347,-0.0029622726142406464,-0.0032037016935646534,-0.0035504403058439493,0.00913296826183796,-0.003898490918800235,-0.0059449272230267525,-0.008043617941439152,0.004710561130195856,-0.0016612433828413486,-0.004412679001688957,-0.00538953160867095,0.0009936403948813677,-0.006339465267956257
就,-0.003215479664504528,0.0073843360878527164,-0.006599127314984798,-0.0034475279971957207,-0.00859916117042303,-0.005038865841925144,-0.002609423128888011,-0.0004862179048359394,0.0012870588107034564,0.0032838117331266403,-0.007694082800298929,0.002107923850417137,0.01834864541888237,0.0015522316098213196,-0.01677585020661354,0.015140131115913391,-0.0032341282349079847,-0.011086700484156609,-0.008034035563468933,-0.016417648643255234,0.001825951156206429,-0.0013771122321486473,-0.001466989517211914,0.002834630198776722,0.007331950590014458,-0.008667098358273506,0.006716951262205839,0.0010216026566922665,0.0032213921658694744,0.002968219108879566,0.0006047170609235764,-0.00351487728767097,-0.014065209776163101,-0.01292544137686491,0.006239295471459627,0.009247616864740849,0.010231235064566135,-0.005313667468726635,0.005553883034735918,0.006484000012278557,0.007904081605374813,-0.008030245080590248,-0.004289958160370588,-0.009085630066692829,-0.010889004915952682,0.001386124873533845,-0.012752320617437363,-0.0017716893926262856,-0.0014788778498768806,0.002314947312697768,0.0011690144892781973,-0.0008891543839126825,0.0002769057173281908,0.005641482770442963,-0.0018012917134910822,0.002857187297195196,-0.0020278373267501593,-0.006607701536267996,0.0009650535066612065,-0.015012010931968689
餐厅,-9.178998880088329e-05,-0.003028539475053549,-0.0021462994627654552,-0.011509244330227375,0.0030681914649903774,0.005058834329247475,-0.006343771703541279,0.007125251926481724,-0.003487402806058526,0.0010169551242142916,0.0006007365882396698,-0.0007414906867779791,-0.007239133585244417,0.0056889234110713005,-0.009324025362730026,-0.011216615326702595,0.0003939523594453931,0.0024187618400901556,0.002716533374041319,0.004382990300655365,0.0034330105409026146,0.008688678033649921,0.004097762983292341,0.004529642406851053,0.001404132111929357,-0.006524794735014439,0.003650996135547757,-0.0009302932303398848,0.0019800052978098392,0.004403560422360897,0.0008556809043511748,-0.006195764057338238,-0.0043090954422950745,0.0007032023277133703,-0.0017389116110280156,0.004590430296957493,-0.003651574021205306,-0.0019317667465656996,-0.0011275466531515121,-0.0060076117515563965,0.005182212218642235,0.0038767221849411726,0.0036199241876602173,-0.001660532085224986,0.003252540249377489,0.00548189040273428,0.002156538190320134,0.003217933000996709,-0.003784673986956477,-0.008977828547358513,0.007729897275567055,-0.00022282730787992477,-0.0005352985463105142,-0.006012912839651108,0.002673759590834379,-0.00029755267314612865,0.004491850733757019,-0.004375840537250042,-0.008269840851426125,0.00540652871131897
想要,0.0033150233794003725,-0.0016793926479294896,0.008343908935785294,-0.0020946005824953318,0.001722675166092813,0.0015363546553999186,-0.006586332805454731,0.0014095688238739967,-0.0015865655150264502,-0.005518320482224226,-0.0008080198895186186,0.0016435198485851288,0.017713848501443863,0.0021781481336802244,-0.0056122117675840855,0.0001975607592612505,-0.004057036712765694,0.008940273895859718,0.008787151426076889,-0.004674689844250679,0.005130623932927847,-0.001132654258981347,0.006013668142259121,0.012647584080696106,0.008314636535942554,0.005425475537776947,0.005455285310745239,0.000466933473944664,0.0036303047090768814,0.0026139598339796066,0.008580249734222889,-0.005086520221084356,-0.010613922029733658,-0.003109685378149152,0.004767227917909622,-0.00874833483248949,0.008835315704345703,-0.011415897868573666,-0.004936492070555687,0.00012955469719599932,0.006568004377186298,0.00471779890358448,0.00262575875967741,-0.002597040729597211,-0.0067001162096858025,-0.005016002804040909,-0.011322960257530212,-0.0023653386160731316,-0.001449552713893354,0.006446768529713154,-0.0008637297432869673,-0.004913445562124252,0.002288409508764744,0.005658729001879692,-0.0009996816515922546,-0.001301532262004912,0.0008170804940164089,-0.004111899062991142,0.0043706693686544895,-0.007579918950796127
纤维,-0.006780896335840225,0.0012341034598648548,0.007571003399789333,-0.00630879495292902,-0.0037259371019899845,-0.0032568552996963263,0.003365318290889263,0.004199494142085314,-0.0018707450944930315,-0.0019824972841888666,0.0012391617055982351,0.0006083942716941237,-0.001795994583517313,-0.0003013969399034977,-0.003276561154052615,0.006498689763247967,0.0009281181846745312,0.0003882328746840358,0.006188950501382351,-0.00020119475084356964,0.004286136478185654,-0.0016579347429797053,0.004958793520927429,0.0027895758394151926,0.010050561279058456,0.002721277065575123,-0.008566111326217651,0.001203785534016788,-0.0017816387116909027,7.16671347618103e-05,-0.0023193834349513054,0.00824067648500204,-0.00434489082545042,-0.004012359771877527,-0.009856312535703182,-0.004187938757240772,0.00205498980358243,-0.004176014102995396,0.007849384099245071,-0.004873399157077074,-0.00658197607845068,-0.005653046071529388,-0.0004726096522063017,0.004739544354379177,-0.007965980097651482,0.001365599688142538,0.009856024757027626,-0.0005548774497583508,0.0016493762377649546,0.00807190965861082,-0.004857291001826525,-0.0026123113930225372,0.006689814385026693,0.00012921448796987534,-0.0037773000076413155,0.009909853339195251,-0.0036270441487431526,0.0009501774329692125,0.0006868334021419287,-0.002229002071544528
爱情,-0.00510266050696373,0.008719331584870815,-0.0056928349658846855,0.005663668736815453,0.006278336513787508,0.00402720645070076,-0.004565993789583445,-0.004311529453843832,-0.0038716685958206654,-0.0011764264199882746,-0.002491869032382965,0.0008414814947172999,-0.0001373273553326726,0.004416808485984802,0.003610054962337017,0.0013783585745841265,0.006776295602321625,0.0007518959464505315,0.0012885789619758725,0.002824775641784072,-0.0013594477204605937,0.00818217359483242,0.0009782651904970407,-0.0030607758089900017,0.010470510460436344,-0.0008097921963781118,0.009165444411337376,0.0020933421328663826,-0.003958981949836016,0.0012984916102141142,-8.707630331628025e-05,0.003906053025275469,-0.0021962241735309362,0.0014895517379045486,0.001971076475456357,0.003415987826883793,-0.0061266603879630566,0.004725929815322161,0.005886703729629517,-0.00513401860371232,0.004784963093698025,0.0005476940423250198,0.00175546295940876,-0.003049040213227272,-0.007368938997387886,-0.005203926004469395,0.001612289808690548,0.004874864127486944,0.0020385643001645803,0.00029852474108338356,-0.003209538757801056,0.002558790845796466,0.00047728087520226836,0.00384317385032773,-0.005194743629544973,0.006044849753379822,0.004581324756145477,-0.0015568281523883343,-0.004443832207471132,0.0007913962472230196
凶悍,0.002498442307114601,0.007922787219285965,-0.00824286974966526,0.0033207484520971775,0.012378432787954807,-0.0003932868130505085,-0.007038605399429798,0.0020374825689941645,-0.0039058285765349865,0.003484210930764675,5.1070586778223515e-05,0.005134045612066984,-0.0006895271362736821,0.005762252025306225,0.007294311188161373,-0.00044094910845160484,0.0018634232692420483,-0.001183103071525693,-0.0004035682650282979,0.003324575489386916,0.009423529729247093,0.00022404288756661117,0.004175356589257717,0.0047398582100868225,0.0037142932415008545,-0.001962946727871895,0.0033160776365548372,0.0015211872523650527,0.0018681063083931804,0.002739294897764921,0.002916106954216957,-0.002238150220364332,-0.0033574732951819897,-0.004119828809052706,0.0011757396860048175,0.011180296540260315,0.001111975871026516,0.00106965028680861,-0.002508346224203706,-0.00023350596893578768,-0.0075698550790548325,-0.003134910948574543,0.002904642606154084,-0.009788546711206436,0.010776124894618988,0.0014203444588929415,-0.002123921876773238,0.002634091768413782,-0.0017718961462378502,-0.0037817396223545074,-0.004528752062469721,0.002596384147182107,0.0010303702438250184,-0.0023230016231536865,-0.0011976314708590508,-0.008241049945354462,0.0034148988779634237,-0.011258634738624096,0.00647509703412652,0.002412989269942045
无辜,0.00024291491718031466,-0.0023758357856422663,0.0012285379925742745,0.002906732028350234,-0.007315884344279766,0.009622672572731972,0.005738952662795782,-0.001741862390190363,-0.00399540551006794,0.008174343034625053,-0.005270043853670359,0.007762828841805458,0.008537361398339272,-0.005979318171739578,0.00035251351073384285,0.0009067372884601355,-0.0005140984430909157,0.0021786210127174854,0.005808960180729628,-0.006570903584361076,0.004741629119962454,0.007471909746527672,-0.00014081131666898727,0.006042527500540018,-0.0003883885219693184,0.0048337881453335285,0.0007771672680974007,0.00794877577573061,0.010179011151194572,0.0012814558576792479,-0.0007330821827054024,-0.005764222703874111,-0.0011975979432463646,-0.005580398254096508,-0.0007441421039402485,0.0069931503385305405,-0.00263041234575212,0.0004569036536850035,-0.002694073598831892,0.010088006034493446,-0.0022769959177821875,0.004139404743909836,0.005197987426072359,0.005577710922807455,0.000745813362300396,0.003283923026174307,0.001430037897080183,0.0035644639283418655,-0.0008506891317665577,0.006957199424505234,0.00010801665484905243,0.002945867134258151,-0.003621527925133705,0.003447922645136714,-0.005120987072587013,0.01065217237919569,0.0027481699362397194,-0.00934822577983141,-0.0011494782520458102,0.002034784760326147
烹饪,0.0005041360855102539,-0.008757389150559902,0.002761185634881258,-0.0025567065458744764,-0.005921243689954281,-0.007526535540819168,-0.002504588570445776,-0.0009563674684613943,-0.010259942151606083,0.002116208430379629,0.01016294863075018,-0.0041511207818984985,0.0065659526735544205,-0.004902680404484272,-0.0046883863396942616,-0.0016852498520165682,-0.004807164892554283,0.0008585907053202391,0.0011887324508279562,0.008069765754044056,-0.0018750487361103296,0.00217487127520144,-0.0010280681308358908,0.002484302269294858,0.002087855478748679,0.003435460152104497,-0.00584911834448576,-0.005622795317322016,0.0012639733031392097,-0.005142859648913145,-0.0019100361969321966,0.0013076706090942025,0.00016036676242947578,-0.0029908097349107265,-0.003760014194995165,-0.00431435089558363,-0.005891505628824234,0.006320306099951267,0.0008400017395615578,-0.000692236702889204,-0.0030991286039352417,-0.0018079885048791766,-0.004452759865671396,0.0052941953763365746,-0.00877698790282011,-0.0028682814445346594,-0.0015610975679010153,0.008968871086835861,-0.005066653713583946,-0.0006185745587572455,0.00225787959061563,0.004867961630225182,-0.002461502328515053,0.002574328565970063,-0.010408798232674599,-0.005937227979302406,-0.0017295049037784338,-0.0018620302435010672,3.822403959929943e-05,0.004100818186998367
兴奋,0.009269360452890396,-0.005143118090927601,0.0035987847950309515,0.0017360090278089046,0.0010042416397482157,0.007383572869002819,-0.003692289348691702,0.0008388515561819077,0.008861551992595196,-0.008057696744799614,-0.005887405015528202,0.0007269559428095818,-0.0069449786096811295,0.009580734185874462,0.004697570577263832,-0.00038285646587610245,-0.001374074025079608,-0.001086892792955041,0.004518074914813042,-0.002977672964334488,0.0044875177554786205,-0.0048537408001720905,-0.006005030125379562,0.004139428026974201,-0.002590307965874672,0.007579432334750891,-0.00031238864175975323,0.006533007137477398,0.008297277614474297,0.007725093048065901,-0.0007555480115115643,-0.00031390832737088203,-0.0008243827032856643,0.0049913483671844006,-0.0035783546045422554,0.0032608869951218367,0.0035200531128793955,0.006144719664007425,0.006184134632349014,-0.0038377810269594193,0.0036842445842921734,0.0009031910449266434,-0.006151767447590828,-0.0005387914134189487,-7.84359872341156e-06,0.0055389548651874065,0.005708521232008934,-0.0029630984645336866,0.005874287337064743,0.0035242619924247265,-0.002620162907987833,-0.0009640661883167922,-0.0047984858974814415,-0.004807396326214075,0.0014902468537911773,-0.0009391058702021837,0.0006213246379047632,-0.006723624654114246,-0.004964721854776144,-0.0022869890090078115
好,-0.006826314609497786,-0.008878959342837334,0.0019409931264817715,0.0006161928176879883,-0.005723051261156797,-0.0075773391872644424,0.009970963932573795,0.003223421750590205,-0.011004754342138767,-0.006804974749684334,0.0023830970749258995,-0.010526398196816444,0.01135033369064331,-0.01233342569321394,-0.001758452970534563,-0.011227874085307121,0.0019551487639546394,-0.001653936691582203,0.0034382299054414034,0.004076559562236071,-0.00495713809505105,0.002598594641312957,0.00538884149864316,-0.0022293436340987682,-0.009344905614852905,-0.013192250393331051,0.004986714106053114,0.007383550517261028,-0.002160917269065976,-0.011122893542051315,-0.004797759465873241,-0.013138425536453724,-0.0030395665671676397,-0.012450624257326126,-0.011747263371944427,-0.013584993779659271,-0.008947819471359253,-0.009369494393467903,-0.012306973338127136,-0.0015252846060320735,-0.011299164965748787,0.008765479549765587,0.004756058566272259,0.014106569811701775,-0.00701147923246026,-0.007279885932803154,-0.004920084960758686,-0.014741338789463043,0.0037327203899621964,0.002094483934342861,0.01168825849890709,-0.0026001534424722195,0.0019292151555418968,-0.013135014101862907,0.0006274278275668621,0.006794626824557781,0.005206773057579994,-0.005692532751709223,0.014771737158298492,-0.003918508067727089
怀,-0.011164389550685883,0.0011821910738945007,-0.00844047125428915,-0.0008421875536441803,0.0038980457466095686,0.002404996659606695,-0.00856454111635685,0.012471301481127739,-0.006103397812694311,0.0008036678191274405,-0.00852498784661293,0.011270598508417606,-0.0025152447633445263,0.004048834089189768,-0.0007952081505209208,0.0036391771864145994,-0.006506405770778656,0.013345968909561634,-0.008908654563128948,-0.003523807507008314,-0.00984219741076231,0.001983840484172106,0.009145541116595268,-0.005667129065841436,0.0021085827611386776,0.006692726165056229,0.002369171939790249,-0.008542526513338089,-0.0032369454856961966,0.009658539667725563,-0.008667957037687302,-0.00514604477211833,0.0032468356657773256,-0.0033501526340842247,-0.006240361370146275,-0.003045932622626424,-0.000652543269097805,-0.011481288820505142,0.00635477714240551,0.00015445251483470201,0.0011674598790705204,0.0162593312561512,-0.0020468817092478275,-0.001065618358552456,0.005782141815871,0.00024786009453237057,0.0008572284132242203,-0.008174281567335129,0.001921298447996378,0.006191574037075043,0.0028868969529867172,-0.015043945051729679,0.000822779256850481,-0.0023070902097970247,-0.006553348619490862,-0.006409085355699062,-0.0016807077918201685,-0.0037408918142318726,-0.009328140877187252,0.0020051433239132166
成为,0.005372105166316032,-0.004137064795941114,0.01002020388841629,-0.004915827885270119,-0.0022708196192979813,0.0018714850302785635,0.001586556201800704,0.011517668142914772,0.0030041662976145744,0.0006252242019400001,-0.0023065407294780016,-0.0034768865443766117,0.009489222429692745,-0.005343268625438213,6.029498763382435e-06,-0.003769352799281478,-0.0003507432993501425,0.011435192078351974,0.0013254847144708037,-0.00486909132450819,0.00038270303048193455,-0.0076995715498924255,-0.0006399307167157531,0.004569247364997864,-5.459948442876339e-05,-0.0024623617064207792,-0.004801787436008453,0.002667407039552927,0.0028698137030005455,-0.006308483891189098,0.004003253765404224,-0.002087495755404234,-8.565239113522694e-05,0.0016053037252277136,-0.0007643054705113173,-0.0021006357856094837,-0.000986394239589572,-0.00987919420003891,-0.011944801546633244,0.005338549613952637,-0.0027191988192498684,0.0005994421662762761,2.2297841496765614e-05,-0.0004894291050732136,-0.0011106868041679263,-0.003562808968126774,0.002569847274571657,0.004598727449774742,0.009317763149738312,-0.003790132701396942,0.010764354839920998,-0.0030311483424156904,0.005284477490931749,0.0038145771250128746,0.004025144502520561,-0.00472536776214838,-0.01060089748352766,-0.00904219038784504,0.006591711658984423,0.001615862362086773
方法,0.0005533935036510229,-0.0004295536782592535,-0.0019520700443536043,0.0003113262355327606,-0.004319518804550171,-0.007252393756061792,-0.0077996281906962395,0.0012321732938289642,-0.001110132085159421,-0.0014165331376716495,-0.008135457523167133,0.002583068795502186,0.0036976467818021774,0.000525616342201829,0.00019797123968601227,0.0025045229122042656,0.0020200363360345364,0.011737905442714691,0.0008551268838346004,0.006539748515933752,-0.00883752666413784,-0.006863115355372429,-0.0043810224160552025,-0.0027523362077772617,0.002232361352071166,-0.003504789900034666,-0.007547391578555107,0.0004906640388071537,0.0017000101506710052,0.0017268136143684387,0.006011320278048515,0.000869462382979691,-0.005023224279284477,0.0027927132323384285,0.009244723245501518,-0.00530001288279891,0.003549223765730858,0.004017196130007505,-0.005662599578499794,0.004865006543695927,0.0035347314551472664,-0.0033329357393085957,-0.000288579729385674,-0.007338333874940872,0.0014431561576202512,2.7856789529323578e-05,-0.004261448048055172,-0.0026272572576999664,0.008795262314379215,0.0016749505884945393,-0.0023089456371963024,0.005414292681962252,0.003283516503870487,0.005459702108055353,0.0008300109766423702,0.0008426029235124588,0.002778350142762065,-0.0039023191202431917,0.002511331345885992,-0.002384285908192396
战争,0.009507286362349987,-0.005492555443197489,-0.0023298622108995914,0.00323030399158597,0.00561627559363842,0.0048365965485572815,0.0037497757002711296,-0.008527616038918495,-0.005229529924690723,-0.0021310141310095787,0.011800412088632584,-0.003425859147682786,0.0014452541945502162,0.0017178517300635576,-0.006236415822058916,-0.005582049489021301,-0.005368893500417471,0.0014760125195607543,0.0010973321041092277,0.0003392754588276148,0.0039028015453368425,0.002231832593679428,-0.001477767014876008,-0.008304869756102562,-0.005188083276152611,0.003413293743506074,-0.0025315815582871437,0.0038857164327055216,0.008046962320804596,0.005682952702045441,0.0044852918945252895,0.003408721648156643,-0.0022328896448016167,-0.002436006674543023,0.0030762089882045984,5.744188092648983e-05,-0.006450057961046696,-0.0031331784557551146,0.004036883823573589,-0.0005509073380380869,-0.0063445083796978,-0.0030007914174348116,-0.00016720290295779705,0.004368070513010025,-0.008264657109975815,0.001125922193750739,0.006386387627571821,-0.002507369965314865,-0.00029554718639701605,-0.003551989560946822,0.0030947744380682707,0.0028046804945915937,0.00902392715215683,0.003362607443705201,0.004637069534510374,0.0062289489433169365,0.0036257319152355194,0.006028620060533285,-0.002930897055193782,-0.004792432300746441
现金,0.005906738340854645,-0.005459479987621307,-0.002832076046615839,-0.006871117278933525,0.0010617058724164963,-0.0001951900776475668,-0.005023915786296129,0.003140539862215519,-0.0011164627503603697,0.004787800367921591,0.006978514604270458,-0.00607293751090765,-0.003630058141425252,0.008365624584257603,0.002082841470837593,-0.0029543598648160696,0.004158824682235718,-0.006443803198635578,-0.004413034301251173,-0.0024044066667556763,0.005405144300311804,0.008811982348561287,0.0006113066338002682,0.006771274842321873,0.01149412989616394,0.004839515779167414,-0.0048614623956382275,-0.0016668406315147877,0.0061417268589138985,0.00728923175483942,0.0025665811263024807,-0.005798504687845707,-0.0038043735548853874,-0.0022677152883261442,-0.005425407551229,0.0019121738150715828,-0.004171385429799557,0.0003163354122079909,0.001204687519930303,0.0009870617650449276,0.00151122419629246,0.003367522731423378,-0.0007978911744430661,-0.0001662846188992262,-0.004974411800503731,0.002453665481880307,0.006108872592449188,-0.0012736273929476738,0.01031246967613697,0.003870305372402072,0.003264453262090683,-0.00510416179895401,0.0007387747755274177,0.004041438456624746,0.0020240817684680223,0.0006758679519407451,0.0020400243811309338,0.000993927475064993,-7.435656152665615e-05,-0.005625753663480282
赚取,-0.0021326967980712652,-0.004811667837202549,-0.004861715715378523,-0.007042836397886276,0.0032443120144307613,-0.006183736026287079,0.0036732133012264967,-0.0072189150378108025,-0.008498885668814182,-0.0007806227076798677,-0.002868063747882843,0.004155607894062996,-0.0003848467022180557,0.004589466378092766,-0.0008158241398632526,-0.006523622199892998,-0.0020031051244586706,0.001887714141048491,-0.0010475460439920425,-0.0005982833681628108,-0.0001876030582934618,-0.003601779229938984,0.009882837533950806,-0.006230768281966448,-0.005737152881920338,-0.008957881480455399,-0.0005851851310580969,-0.0014102226123213768,-0.00297545175999403,0.005365772172808647,-0.00025970235583372414,-0.010196980088949203,0.0019455989822745323,-0.0019616317003965378,0.0037342500872910023,0.0029439704958349466,0.00041766325011849403,-0.004704491700977087,0.0017138458788394928,0.0019214306958019733,0.0027406152803450823,-0.002237549517303705,-0.006028670351952314,0.004722691606730223,0.004653394687920809,0.006054163444787264,-0.0016840954776853323,-0.0025433418340981007,0.004636485129594803,0.0041207848116755486,0.008864743635058403,0.004184388089925051,0.009342964738607407,-0.0012381719425320625,4.878619802184403e-05,0.00730160903185606,0.006820750422775745,0.004816075786948204,0.010667864233255386,0.003103750990703702
钱,0.011571538634598255,-0.0014067930169403553,0.009337350726127625,0.0006746170111000538,-0.009347138926386833,0.004868617281317711,0.0017061647959053516,0.009960894472897053,0.0022926677484065294,-0.0031339318957179785,0.010043414309620857,0.011447267606854439,0.0022597857750952244,-0.010947486385703087,-0.00579266669228673,-0.006462454795837402,-0.009741822257637978,0.00026157707907259464,-0.005631671287119389,-0.0004181480035185814,0.005634667817503214,0.005998909007757902,0.008573459461331367,0.0011276332661509514,0.0031714611686766148,0.00839055236428976,0.0128568010404706,0.007141097914427519,-0.003469339106231928,-0.0009567374363541603,0.009685540571808815,-0.0009773654164746404,0.0037796718534082174,0.00425365474075079,-0.014350475743412971,0.005038050934672356,-0.0027923923917114735,0.0003760518738999963,0.0004892370197921991,-0.00906539149582386,0.0005303551442921162,0.003892125329002738,0.01249552983790636,-0.0025948425754904747,0.006241921801120043,-0.008379567414522171,0.004642312880605459,-0.014983328059315681,-0.006678254343569279,-0.010576455853879452,0.007635182701051235,0.008370375260710716,-0.006059838458895683,-0.006209986284375191,-0.003321821801364422,0.004040606319904327,-0.001599751878529787,-0.008062594570219517,0.014993596822023392,-0.008982851170003414
不能,-0.008669475093483925,-0.002941761165857315,-0.0004240961279720068,0.004205740988254547,0.008419494144618511,-0.002588920760899782,0.005799352191388607,-0.0002191048115491867,-0.008669867180287838,-0.0024564117193222046,-0.0034827839117497206,-0.0016828174702823162,0.0030846146401017904,-0.00033035618253052235,-0.006535398308187723,0.0029639233835041523,0.003967813681811094,0.0006346177542582154,0.00549606466665864,-0.0046269819140434265,-0.005823811516165733,-0.008612053468823433,-0.0011404589749872684,0.002145647071301937,0.004674658644944429,0.004869036376476288,-0.0028634057380259037,0.001288612256757915,-0.005298834294080734,-0.0035538310185074806,-0.008635325357317924,0.0022785586770623922,0.003126409836113453,0.00230193417519331,-0.0017070199828594923,0.002530430443584919,-0.002692427486181259,-0.006156886927783489,-0.0007471813587471843,-0.006149325519800186,0.0010607973672449589,-0.0014182236045598984,-0.003779869992285967,-0.003863808698952198,-0.013454225845634937,-0.01120727974921465,-0.0010841542389243841,-0.0027180095203220844,0.0065366365015506744,-0.0052803922444581985,0.0013903554063290358,0.007536915596574545,-0.006127114873379469,0.0009528256487101316,-0.004147821106016636,0.002059152815490961,-0.006517017260193825,-0.005023775156587362,0.007199023850262165,-0.00014799484051764011
