word,0,1,2,3,4,5,6,7,8,9,10,11,12,13,14,15,16,17,18,19,20,21,22,23,24,25,26,27,28,29,30,31,32,33,34,35,36,37,38,39,40,41,42,43,44,45,46,47,48,49,50,51,52,53,54,55,56,57,58,59
仍然,-0.005309100262820721,0.0021325189154595137,0.01974286511540413,0.007736207451671362,-0.01087149977684021,-0.008061633445322514,0.00042152119567617774,0.009708868339657784,-0.011066852137446404,-0.017157835885882378,-0.000888860085979104,-0.0006392243667505682,0.03017537295818329,-0.010557474568486214,-0.0033618330489844084,-0.004370075650513172,0.004990759771317244,0.009028353728353977,0.009353384375572205,-0.012455870397388935,0.003080392722040415,-0.015654459595680237,-0.007733925245702267,0.020748984068632126,0.012604956515133381,-0.015215594321489334,0.00582881597802043,0.009885720908641815,0.007764577399939299,0.000992606277577579,0.010921228677034378,-0.001447424991056323,-0.00821525789797306,-0.005679992027580738,0.004323747009038925,0.0017114205984398723,0.0023282712791115046,-0.027841776609420776,-0.014327715151011944,0.01059865765273571,-0.0010297964327037334,0.004378392361104488,0.0028481483459472656,0.0015392209170386195,-0.007975056767463684,-0.013145633041858673,-0.0037947469390928745,-0.0019385332707315683,0.0004146044375374913,0.027634039521217346,0.023131156340241432,-0.006753882393240929,-0.0028568743728101254,0.012588643468916416,0.021046454086899757,0.005724053829908371,-0.00689235283061862,-0.027903154492378235,0.016015661880373955,-0.01874212548136711
常规,0.0006278061773627996,-0.008654961362481117,0.005895685404539108,0.0008564211893826723,0.0024271919392049313,0.004688338376581669,0.0031026722863316536,0.0021689548157155514,-0.005086804274469614,0.00267753261141479,0.005144634749740362,-0.004770713858306408,0.00845097005367279,0.005070610903203487,0.0016298103146255016,-0.001683189533650875,0.00496311578899622,0.002345331944525242,3.962405025959015e-05,0.0012582526542246342,0.007390505634248257,0.01327663753181696,-0.0008457045769318938,0.008611002936959267,0.006357998587191105,-0.00569278746843338,-0.0026716256979852915,0.0006024253088980913,-0.000492453807964921,0.0017198816640302539,0.002591337775811553,-0.004111756570637226,-0.0009874929673969746,-0.0035129801835864782,-0.0008101977873593569,0.007999047636985779,-0.004610540345311165,-0.010134397074580193,-0.002577537903562188,0.0018981419270858169,-0.0006460464792326093,-0.0022600905504077673,0.0018525476334616542,-0.0008270388934761286,0.0009890812216326594,-0.004647431429475546,-0.007836692035198212,0.012233156710863113,0.001767460722476244,0.0012312496546655893,0.0043116603046655655,-0.0012183338403701782,2.5096815079450607e-05,0.0036640758626163006,0.0022711819037795067,-0.0036099900025874376,0.004879723768681288,-0.003852808615192771,0.002426142105832696,0.007255392614752054
可能,-0.001340906834229827,0.011440073139965534,0.02154291421175003,0.004757189657539129,-0.017706947401165962,-0.01138265896588564,0.005161758046597242,0.00830934289842844,-0.012270435690879822,-0.017103206366300583,-0.004749525338411331,-0.0015540483873337507,0.04024569317698479,-0.009684416465461254,-0.004286771174520254,-0.007502298336476088,0.012943769805133343,-0.0007435621228069067,-0.001559476600959897,-0.01674945093691349,0.008691051974892616,-0.014626028947532177,-0.0009609468979761004,0.01870477758347988,0.023928355425596237,-0.007401736918836832,0.009169192053377628,0.010826988145709038,0.013717081397771835,-0.008197672665119171,0.01763208769261837,-0.007769270800054073,-0.004167176783084869,-0.0040463777258992195,-0.003126951167359948,-0.005387750454246998,0.00453890161588788,-0.024046780541539192,-0.025843719020485878,0.012307969853281975,0.0032254387624561787,0.010622579604387283,-0.002786466386169195,0.0013731940416619182,-0.02889428287744522,-0.013723574578762054,-0.0011477156076580286,0.0010549218859523535,-0.0041483622044324875,0.021551169455051422,0.021703392267227173,0.006465897895395756,-0.0016909923870116472,0.011276345700025558,0.010559638030827045,-0.0025984630919992924,-0.002199962269514799,-0.021409576758742332,0.008306672796607018,-0.020831402391195297
政府,0.003570831846445799,0.006058038212358952,0.005800943356007338,0.004111481364816427,-0.0029530252795666456,-0.0033343639224767685,-0.0020924177952110767,0.006016809027642012,-0.0010436673182994127,-0.0032676835544407368,-0.0018335836939513683,0.0059812553226947784,0.004986386280506849,0.0006858250126242638,0.0017945962026715279,-0.0010519616771489382,0.010115598328411579,-0.008525574579834938,-0.007541919592767954,-0.016580266878008842,-0.0019187955185770988,0.0024803420528769493,-0.0008453145856037736,0.010742681100964546,0.0017945808358490467,-0.008951696567237377,0.0038764672353863716,0.00799599103629589,0.006741983350366354,0.002773707266896963,0.007817817851901054,-0.011228990741074085,-0.0005934949149377644,-0.005570137873291969,0.0015689835418015718,-0.006812002044171095,0.0014978429535403848,0.004247478675097227,-0.0022586602717638016,-0.000722245080396533,-0.0044414931908249855,0.005146251060068607,-0.004952639807015657,-0.003132025245577097,-0.004308035597205162,-0.0019750967621803284,-0.003356148721650243,-0.00324373971670866,0.0026169288903474808,0.0013675501104444265,0.00995483249425888,0.005242477171123028,-0.0003538129385560751,-0.0019985635299235582,0.0036854068748652935,0.011852337047457695,-0.003837388241663575,-1.5798257663846016e-05,-0.004871133714914322,-0.008312376216053963
基因治疗,-0.0001592341432115063,0.0003986141528002918,0.001034115324728191,0.002051286632195115,0.00030476192478090525,0.00021655828459188342,-0.0005301868077367544,0.0025966085959225893,0.0024416123051196337,-0.0030276442412286997,-0.00016153036267496645,0.0005042958655394614,0.000824722636025399,0.0052382005378603935,0.0025765274185687304,0.00120162486564368,-0.0009281493257731199,-0.0014293502317741513,0.0012366714654490352,0.0021866695024073124,0.0028583421371877193,0.002989912172779441,-0.002550028031691909,0.0023363602813333273,0.0022086596582084894,0.0030066543258726597,-0.0017394919414073229,-0.002869546180590987,-0.0005546696484088898,0.003961014561355114,0.0003143154317513108,-0.0010631645563989878,0.0031666343566030264,0.0016668186290189624,0.00012865509779658169,0.00030625847284682095,7.287074549822137e-05,-0.0052445512264966965,-0.002730123931542039,0.0006668742280453444,0.00027252818108536303,0.0020314613357186317,0.004972887225449085,0.0035326764918863773,0.0009868125198408961,0.0033840404357761145,0.002300004009157419,-0.0034689700696617365,0.0021240347996354103,-0.0019075333839282393,-0.003511945018544793,0.004024312365800142,0.0014715922297909856,-0.0025309028569608927,0.00026163822622038424,0.0018845211016014218,0.0020586964674293995,0.0023180502466857433,-0.0003580682969186455,0.0017151907086372375
事物,0.006162503734230995,0.006229868624359369,-0.0050882333889603615,0.002652006922289729,-0.006784606259316206,0.004989084787666798,0.002536727814003825,0.004993974231183529,-0.00570646021515131,-3.6750221624970436e-05,-0.0008505361620336771,-0.005046184174716473,-0.007167471572756767,-0.00029589649057015777,0.0006984082283452153,-9.098043665289879e-05,0.005132689606398344,-0.007941300049424171,0.004314301535487175,-0.0033116654958575964,-0.005586373154073954,0.007758622523397207,0.00040357932448387146,-0.0003667715936899185,-0.010550481267273426,-0.0032042465172708035,0.005591252818703651,0.003464536275714636,0.004322641529142857,-0.006944198161363602,0.009778806008398533,0.001395820640027523,0.004469725303351879,-0.004298756830394268,-0.004799288231879473,0.004825524520128965,0.005350701976567507,-0.007156206760555506,-0.004764994606375694,-0.004451927728950977,0.0007842329796403646,0.0032851358409971,-0.005139736458659172,0.0030745118856430054,0.006627142429351807,-0.0052457149140536785,0.0040368614718317986,0.005850805900990963,-0.0016761100850999355,0.0029175477102398872,0.01194988377392292,-0.0075041549280285835,5.515816155821085e-05,0.001636901288293302,0.00850706361234188,-0.003435789607465267,0.003887524362653494,0.003829878754913807,0.001182700740173459,-0.0030287078116089106
导致,0.005173704586923122,0.0006208540871739388,0.0017203527968376875,0.0009639990166760981,-0.008543911390006542,-0.002395771909505129,-0.0025979354977607727,0.001952664228156209,-6.0356222093105316e-05,-0.007090793922543526,6.759190000593662e-06,0.004324279725551605,-0.0014777501346543431,-0.008589589968323708,-0.0033276157919317484,-0.005320780444890261,-0.004000871907919645,-0.001375773223116994,-0.0012650255812332034,0.003980373498052359,0.0021932763047516346,-0.003324879100546241,-0.0008780432399362326,0.006701331585645676,-0.0002859657979570329,0.0013921211939305067,-0.00043087778612971306,0.005455085542052984,0.006797452922910452,0.0032177423126995564,0.012092780321836472,0.001577103859744966,0.003622181247919798,-0.0038222339935600758,-0.0025519784539937973,0.0025091166608035564,0.0040527451783418655,0.0027112746611237526,-0.005943456664681435,0.0008018841035664082,0.008780828677117825,0.005248896311968565,0.0025466824881732464,-0.0038879280909895897,-0.0033775900956243277,-0.0042284224182367325,0.007929541170597076,0.008530738763511181,0.007433396764099598,-0.00119765754789114,0.007981996983289719,0.0018209860427305102,0.0001898834016174078,0.0035754996351897717,0.0038605439476668835,0.010796542279422283,0.0042232912965118885,0.0011839799117296934,7.930700667202473e-05,-0.0009296854259446263
锁定,-0.003537906100973487,-0.0023810970596969128,-0.0042862668633461,-0.001363221905194223,0.004896437283605337,-0.002448897808790207,-0.0010480426717549562,-0.004977036267518997,-0.00590708339586854,-0.0005620004958473146,0.008244508877396584,-0.0019929413683712482,0.004493337124586105,-0.0053011588752269745,0.0007978472858667374,-0.001574938534758985,0.0021342001855373383,0.003323639277368784,0.001958634238690138,-0.0019046897068619728,0.002281660446897149,0.002656076569110155,0.006951015442609787,-0.00905309896916151,0.0007403322961181402,-0.002715753624215722,0.0022845626808702946,-0.0023121170233935118,0.002892326097935438,-0.0033279876224696636,0.003094238229095936,0.006602101493626833,-0.0025655622594058514,0.0033706643152981997,0.00023981829872354865,0.004639982245862484,-0.0089027164503932,-0.009361786767840385,-0.0026353599969297647,0.002256884006783366,0.0004187298472970724,0.0017934587085619569,0.002730909502133727,-0.003607731079682708,0.00742235966026783,-0.002806415082886815,-0.002544430550187826,0.004401891492307186,0.0038357898592948914,0.010679520666599274,0.0029180049896240234,0.0015100558521226048,-0.0020471729803830385,-0.0051747532561421394,-0.007004186976701021,0.0030557289719581604,0.0012185878586024046,0.009553568437695503,-0.00824483297765255,0.0038355833385139704
地球,-0.0035485883709043264,0.008588968776166439,0.009113876149058342,-0.0022329436615109444,0.0038673682138323784,-0.0029930230230093002,-0.002200676593929529,-0.006245877593755722,0.006863752845674753,0.00038448674604296684,0.007343785371631384,-0.003500182880088687,0.009634662419557571,-0.002553982427343726,-0.005304428748786449,0.006020325236022472,-0.0009503939654678106,-0.0008737127063795924,0.0015728567959740758,0.0004899464547634125,0.004569831304252148,-0.00560385687276721,0.006336575374007225,-0.005806475877761841,0.0012096780119463801,-0.010742438025772572,0.011428720317780972,-0.0016578102950006723,0.0004864425281994045,-0.0027207471430301666,0.0061416164971888065,-0.004820038564503193,0.0017329080728814006,0.00022461824119091034,-0.004927271045744419,-0.0007730194483883679,-0.001842299709096551,-0.00738557381555438,-0.004491477273404598,0.011949852108955383,0.003514650510624051,0.004934358410537243,0.008495628833770752,0.0023608417250216007,-0.003605104051530361,0.00012503989273682237,-0.003563160542398691,-0.0013902183854952455,0.0002905766014009714,0.0013535403413698077,0.004953509196639061,-0.001969011966139078,-0.0045355819165706635,0.009468652307987213,0.012135178782045841,0.005578687880188227,-0.00267203850671649,-0.006009036675095558,-0.006739220581948757,-0.008344065397977829
事实,-0.0022649553138762712,-0.00017058150842785835,0.004930418450385332,0.00881131086498499,0.005385094787925482,-0.0057681165635585785,0.003535194555297494,0.002966148778796196,0.0023969325702637434,-0.006083372049033642,0.005981267895549536,0.006547910161316395,0.0029451032169163227,-0.003043671604245901,-0.002799626672640443,0.0009400801500305533,-0.0025912467390298843,-0.007407135330140591,0.002081141108646989,0.008296182379126549,0.0052395169623196125,-0.00268294895067811,-0.0022755912505090237,0.004608351271599531,0.002999895717948675,-0.0017939379904419184,-0.004476032219827175,0.007720585912466049,-0.0040100011974573135,0.0048073772341012955,0.005561462603509426,-0.0005713074933737516,0.0012857313267886639,0.0001429482363164425,-0.003117657033726573,-0.0020912233740091324,-0.004736980888992548,-0.007435876876115799,-0.003994918428361416,0.0065202414989471436,0.004206828773021698,-0.003647421719506383,0.00228295149281621,0.005720278713852167,0.006931561976671219,-0.0030602135229855776,-0.0026512225158512592,0.0054843844845891,-0.008854057639837265,0.010530000552535057,0.00679547106847167,-0.0035405359230935574,0.0033247307874262333,0.0016744050662964582,0.009144837968051434,-0.00632835365831852,0.006110474467277527,-0.0032445434480905533,0.005469198804348707,-0.013905219733715057
奇怪,0.007047991268336773,0.007056526839733124,0.001345873810350895,0.00888943299651146,-0.0017363755032420158,0.006131684873253107,-0.0027261257637292147,-0.004992744419723749,-0.0006296262145042419,0.0045457337982952595,-0.0022447165101766586,-0.007965149357914925,0.0075319064781069756,-0.007342141587287188,0.0020282063633203506,-0.00018701679073274136,-0.0005213147960603237,-0.0022845750208944082,-0.003221025224775076,-0.0009229668648913503,-0.007516790647059679,0.002894819714128971,0.0017000575317069888,-0.001362072303891182,-0.002227663528174162,0.0020669992081820965,-0.0038592948112636805,0.012110037729144096,-0.0030906153842806816,0.007131606340408325,0.003129771677777171,0.0015292421448975801,-0.001412360928952694,-0.004956414457410574,-0.00033753179013729095,0.0014220874290913343,0.007140030153095722,-0.0038830097764730453,-0.0051050130277872086,0.004092792980372906,-0.001830519875511527,0.0033740908838808537,-0.0035947649739682674,-0.009770385921001434,0.008233735337853432,-0.010881038382649422,-0.0017136757960543036,0.002471664920449257,-0.004504069685935974,0.008224023506045341,0.004591244272887707,-0.01016245037317276,-0.0024473811499774456,-0.000442293006926775,0.007066390477120876,-0.00031098409090191126,0.006694321054965258,0.0015062326565384865,0.00471839215606451,-0.002148405648767948
来临,-0.004858449567109346,0.001662665163166821,-0.009169191122055054,0.000719473697245121,0.0009176204912364483,-0.0040547591634094715,-0.004656408913433552,0.006397916004061699,-0.010480052791535854,0.0027822195552289486,0.006418066564947367,0.008659861981868744,0.005036609247326851,0.0023916701320558786,0.005130497273057699,0.006746754050254822,-0.002601087326183915,-0.004461854230612516,-0.002923616673797369,0.0018277582712471485,-0.002992261666804552,-0.005245012231171131,-0.0033719860948622227,0.00034034380223602057,-0.0001435844460502267,-0.009121408686041832,0.0032923277467489243,0.00015314342454075813,-0.0021369936875998974,0.006369834300130606,-0.004345638677477837,-0.00477042980492115,-0.005531420931220055,0.00594258401542902,0.004816040396690369,-0.0030076615512371063,0.0020912042818963528,-0.0049420553259551525,-0.00039162070606835186,-0.0013656825758516788,0.003995245322585106,0.007647688500583172,0.0026398031041026115,-0.006318915635347366,0.002931227209046483,0.0004006547387689352,-0.0018943545874208212,-0.005557865370064974,-0.0068411799147725105,-0.005991560872644186,-0.006606278941035271,0.001121226348914206,-0.0006306825671344995,0.006510889157652855,-0.006945215631276369,-0.0031906086951494217,0.005739315412938595,-0.006901525426656008,0.007768555078655481,0.004659486003220081
人们,-0.0006553297862410545,0.004000318236649036,0.005014987662434578,0.00226566637866199,-0.0008321173954755068,-0.00781278870999813,-0.0017369241686537862,0.015427556820213795,-0.008541405200958252,-0.007303217891603708,-0.0033581512980163097,0.006106950342655182,0.020418481901288033,0.001609494211152196,-0.008301621302962303,0.0033318691421300173,-0.0024849497713148594,0.0027874289080500603,0.0010819274466484785,-0.013851484283804893,0.00595055753365159,-0.005535509437322617,0.004381139762699604,0.011504004709422588,0.012350989505648613,0.0010000395122915506,0.003939760848879814,-2.8838403522968292e-06,0.0029078687075525522,-0.000951334135606885,0.00485024880617857,-0.006965178996324539,-0.004103709012269974,0.004343570210039616,-0.0017981890123337507,0.00253520580008626,0.011418200097978115,-0.012730085290968418,-0.005848792381584644,-0.0019424373749643564,0.006586087867617607,0.0023560384288430214,0.00010974030010402203,0.003477271180599928,-0.008655352517962456,0.000225750234676525,-0.00836932472884655,0.00981986615806818,0.0015641313511878252,0.003775424789637327,0.005020912270992994,0.0009668769780546427,0.001095268176868558,0.013768719509243965,0.010586928576231003,0.0004673885414376855,-0.01121127512305975,-0.006724925711750984,0.006594425067305565,-0.010323426686227322
没有,-0.010815850459039211,0.004976233001798391,0.042536720633506775,-0.0013322532176971436,0.0007208451861515641,-0.018674537539482117,-0.006369976792484522,0.020955383777618408,-0.020565707236528397,-0.02284269779920578,0.006532457657158375,0.00517352344468236,0.06257544457912445,-0.024278536438941956,-0.008941787295043468,-0.011819933541119099,0.0072188349440693855,0.015402117744088173,-0.00043453520629554987,-0.02903197519481182,0.02162979356944561,-0.024686463177204132,0.0013176294742152095,0.01896537095308304,0.02813771180808544,-0.02110438048839569,0.008073518052697182,0.02138427644968033,0.01616731844842434,0.005395920481532812,0.028341295197606087,-0.01790871098637581,-0.004912844393402338,-0.014252668246626854,-0.006329991389065981,0.006739821285009384,0.015555595979094505,-0.0327053926885128,-0.026623088866472244,0.014057127758860588,-0.004472493659704924,0.025402259081602097,-0.012503762729465961,-0.006118295714259148,-0.03394641354680061,-0.012718728743493557,-0.00467562023550272,0.0032364949584007263,0.00042052031494677067,0.03382012993097305,0.02757299318909645,-0.006951672025024891,-0.004999207332730293,0.015601150691509247,0.02316194400191307,0.00222269119694829,-0.020438993349671364,-0.038463693112134933,0.019788555800914764,-0.03012804687023163
错,-0.006322191096842289,0.0025445963256061077,0.0016296827234327793,-0.008326157927513123,-0.011995134875178337,-0.00814769882708788,-0.0006094076670706272,-0.008948935195803642,0.004049799870699644,0.005526259541511536,0.01087922602891922,0.01099859643727541,0.010629609227180481,0.011703284457325935,0.007879168726503849,0.006256448570638895,-0.0027461762074381113,0.001800902420654893,-0.012065563350915909,-0.005944567732512951,0.0106912637129426,-0.00715631851926446,-0.00596228800714016,0.01544247753918171,0.003942962735891342,-0.012840477749705315,-0.00026870123110711575,-0.0029547279700636864,0.011834080331027508,-0.004405023530125618,-0.008987247943878174,-0.01107068546116352,-0.00348296039737761,-0.0026459251530468464,-0.005208154208958149,-0.0012520547024905682,0.0024946785997599363,0.000439230352640152,0.0012290815357118845,0.0039526126347482204,-0.001788050401955843,0.0052085984498262405,-0.008015723899006844,-0.006633073557168245,-0.017037682235240936,0.001843312056735158,-0.00772075867280364,-0.005509939976036549,0.0016218733508139849,0.010294390842318535,0.0006257509812712669,-0.0008648033253848553,0.004225702956318855,0.00033593038097023964,0.0006044390611350536,-0.008729502558708191,0.011846802197396755,-0.0013117872877046466,0.0031021852046251297,-0.0055815717205405235
看起来,-0.0008617065032012761,0.005549360066652298,0.018307099118828773,0.006253167055547237,-0.01157975010573864,-0.004373717121779919,-0.0011626554187387228,0.00759343896061182,-0.006110109854489565,-0.014107540249824524,-0.004678536672145128,-0.0006335240905173123,0.026665976271033287,-0.01698865368962288,-0.005577831529080868,0.008625952526926994,0.003464378882199526,0.004300027620047331,-0.006490397732704878,-0.012648030184209347,-0.0003428146301303059,-0.0025189633015543222,-0.005667411256581545,0.010630636475980282,0.017674285918474197,-0.008662286214530468,0.0011354152811691165,0.007734816055744886,0.002907149726524949,-0.0004911347059533,0.01677606999874115,-0.006911975331604481,-0.0011946242302656174,-0.0001273781235795468,-0.011857613921165466,-0.0014291800325736403,0.009097406640648842,-0.010695917531847954,-0.01494388747960329,0.004054516553878784,-0.001875858404673636,0.008411779068410397,-0.004834652412682772,-0.004754055757075548,-0.009270964190363884,-0.005926442798227072,0.0023777263704687357,0.002263687551021576,-0.0025945689994841814,0.016062309965491295,0.01716570369899273,0.0052456334233284,0.0030201091431081295,-0.0005192565149627626,0.008589991368353367,0.005945446435362101,-0.0005895226495340466,-0.012898259796202183,0.005006943363696337,-0.01209774799644947
传播,0.0011941916309297085,-0.009375389665365219,0.0023570270277559757,6.090366514399648e-05,-0.004281929228454828,-0.0005999528802931309,0.011125669814646244,-0.0005233902484178543,-0.0014215438859537244,0.004328695125877857,-0.010320618748664856,0.005167429335415363,0.0004816912114620209,-0.005836185067892075,-0.008624188601970673,-0.002739240415394306,0.0008015057537704706,0.003968644887208939,-0.003164673922583461,-0.0006636202451772988,-0.004117658827453852,-0.006129564717411995,0.0011393590830266476,-0.0006512714317068458,-0.0025114286690950394,-0.0001504099927842617,0.003047480247914791,-0.006287449970841408,-0.002374934498220682,-0.0032682979945093393,-0.004575848579406738,-0.0028656930662691593,-0.0026991923805326223,-0.005365908145904541,-0.0015313045587390661,0.0031324909068644047,0.0068148402497172356,-0.001105357427150011,0.009469369426369667,0.0038622035644948483,0.006506080739200115,-0.0008220713352784514,-0.007477589882910252,-0.00037935597356408834,-0.004815515596419573,-0.002118334174156189,-0.008134317584335804,0.0030884421430528164,0.008706147782504559,-0.00417993264272809,0.006541219539940357,0.0027586205396801233,-0.0014702933840453625,0.006624677684158087,0.0012394946534186602,0.0036315100733190775,-0.007389572449028492,0.0068264431320130825,0.002540106885135174,0.002994643058627844
文章,0.0038233762606978416,-0.003939248621463776,-0.00751898530870676,0.000337433535605669,-0.008352477103471756,-0.002770412713289261,0.007380981929600239,0.004342244006693363,-2.9293354600667953e-05,-0.003614127868786454,-0.006412753835320473,0.0010016411542892456,0.006503651849925518,-0.0006591372657567263,0.0033397162333130836,-0.009966351091861725,0.0007399138994514942,0.0009872433729469776,0.007633555680513382,-0.0007628593593835831,0.0017761383205652237,-0.0012046811170876026,-0.004178750794380903,0.0031598766800016165,0.0027380376122891903,5.155534017831087e-05,0.0006856706459075212,-0.0008870614692568779,0.00010298310371581465,-0.0007638504612259567,0.002297293161973357,0.007088342681527138,-0.0038343898486346006,0.00025527196703478694,-0.0015320482198148966,0.0038837012834846973,-0.003752516582608223,-0.005844632163643837,0.003341658040881157,-0.005930463317781687,-0.004200051538646221,0.009696959517896175,0.004256033804267645,0.0046479180455207825,0.0028468461241573095,-0.00622099544852972,-0.006856406107544899,-0.0027980918530374765,-0.0017595019889995456,0.003716083476319909,0.003936301451176405,0.0001809629611670971,-0.0012792519992217422,-0.0012984867207705975,-0.007504659704864025,0.0047109080478549,-0.0011448131408542395,-0.004806812386959791,0.004468323662877083,-0.0053343093022704124
代码,0.0009773049969226122,0.0027753524482250214,0.0033674242440611124,-0.0032202377915382385,-0.007612965535372496,0.0017358839977532625,0.008152377791702747,0.008964784443378448,-0.0018073946703225374,-0.006233335938304663,0.004840059205889702,0.000269430922344327,-0.0012940329033881426,0.0009063139441423118,0.00019631534814834595,-0.004427348263561726,0.0009092857362702489,0.000759190646931529,-0.0002038991078734398,-0.001038914080709219,-0.0033692708238959312,0.003305204678326845,0.003807362401857972,0.008996422402560711,0.0020665733609348536,-0.006851848680526018,0.010887094773352146,0.0025360616855323315,0.0009762925910763443,0.00265975808724761,-0.0027954885736107826,0.006772968452423811,-0.0013418577145785093,0.0019237595843151212,-0.005981034599244595,-0.004674740135669708,-0.008781712502241135,-0.00425248546525836,-0.006178220268338919,-0.0016919863410294056,-0.0036888779141008854,0.008319404907524586,-0.0005565471947193146,0.0001655728556215763,-0.008314231410622597,0.00019385700579732656,-0.0029834872111678123,0.0007968263234943151,0.000868647824972868,-0.010182062163949013,0.008764112368226051,-0.0007307461928576231,0.008978444151580334,-0.002447976963594556,-0.0036888683680444956,0.007098816335201263,0.00021946150809526443,-0.010681048035621643,0.007623272482305765,-0.009875734336674213
继续,-0.00338592566549778,0.0004834361607208848,0.009252521209418774,-0.0004251048667356372,0.003288748674094677,-0.005803723353892565,-0.0011943909339606762,0.01007079891860485,-0.009998814202845097,-0.01669883169233799,-0.0065729059278965,-0.0020529774483293295,0.017432205379009247,-0.001605825498700142,-0.005471833981573582,-0.011424848809838295,0.004196999128907919,-0.0032697031274437904,-0.0025045357178896666,-0.013189703226089478,0.00790056586265564,-0.0009192563593387604,-0.0070871165953576565,0.004822109825909138,0.009029783308506012,-0.008436085656285286,0.011542312800884247,0.012242931872606277,0.00525487307459116,0.0017939326353371143,0.0077031636610627174,-0.009378657676279545,0.0006755604408681393,-0.006229514256119728,0.003919660113751888,0.004544306546449661,-0.004401355050504208,-0.024165235459804535,-0.007474871352314949,0.011384505778551102,-0.001428141724318266,0.00527323829010129,0.0007637484231963754,-0.00330994906835258,-0.00776183744892478,-0.0014961576089262962,-0.004978699143975973,-0.0023000077344477177,-0.0012965030036866665,0.008897926658391953,0.016788838431239128,-0.009667952544987202,0.0034161999356001616,0.011959846131503582,0.008250458166003227,0.0009741079993546009,5.175975093152374e-05,-0.02142089605331421,0.0035927603021264076,-0.014194999821484089
找到,-0.0047255405224859715,0.005009529180824757,0.014103492721915245,0.0025723297148942947,-0.012903937138617039,-0.002741024363785982,0.00570644810795784,0.0029543067794293165,-0.0007880284683778882,-0.010158485732972622,0.007355375215411186,-0.004783064592629671,0.016509870067238808,-0.007040856871753931,-0.002445272170007229,0.005748820025473833,0.008933442644774914,0.005099229048937559,-0.00182221713475883,-0.01117369718849659,0.013839732855558395,-0.01431871484965086,0.003137781284749508,0.004010097123682499,0.011058103293180466,-0.002320670522749424,0.0030013101641088724,0.014594023115932941,0.007556956727057695,0.0034711058251559734,0.007754174061119556,-0.0009855669923126698,-0.0021587531082332134,-0.006613669451326132,-0.011308521032333374,0.007304435130208731,5.511404015123844e-05,-0.006230801809579134,-0.012047592550516129,-0.0008760062046349049,-1.6133999451994896e-05,0.006646177731454372,-0.0013431543484330177,0.0029163414146751165,-0.008373400196433067,-0.002767705824226141,-0.0010467686224728823,-0.008304514922201633,-0.001654546009376645,0.013047227635979652,0.01252614427357912,-0.0034275189973413944,0.004239274188876152,0.0019476013258099556,0.011227106675505638,0.004325052723288536,-0.0075521464459598064,-0.0072678206488490105,0.014378339052200317,-0.004012890160083771
尝试,0.0021972686517983675,0.0010314317187294364,0.0015310979215428233,0.0018965094350278378,-0.004309266339987516,-0.002097992692142725,-0.0024507264606654644,0.011409508995711803,-0.004195287358015776,-0.006797540932893753,0.00011861653183586895,-0.0019411062821745872,0.019207831472158432,-0.0025263926945626736,-0.003785570850595832,0.0018663308583199978,0.008912427350878716,0.006687468849122524,-0.003963002003729343,-0.008813412860035896,0.009344277903437614,-0.0012362533016130328,0.008198723196983337,0.008450563997030258,0.011006632819771767,-0.0067246961407363415,-0.004409183282405138,0.012172208167612553,-0.0029748741071671247,-0.011890895664691925,-0.0005266568041406572,-0.00861070305109024,-0.01197802647948265,0.0014374407473951578,-0.004577422048896551,0.004036073572933674,-0.0006168007384985685,-0.005311924498528242,-0.011138282716274261,0.00359440129250288,0.0017818177584558725,0.0063141388818621635,-0.0014835132751613855,-0.007640670984983444,-0.014899828471243382,-0.002421978395432234,-0.00676974281668663,-0.011200683191418648,-0.008590993471443653,0.004525723401457071,0.0020730318501591682,0.007855728268623352,0.0017575621604919434,0.010167212225496769,0.009127160534262657,-0.005924285389482975,-0.0020314110442996025,-0.012247292324900627,0.0053304946050047874,-0.0037569678388535976
不,-0.012081217020750046,0.01712656393647194,0.02992897853255272,-0.004720984026789665,-0.01431408990174532,-0.026377521455287933,0.009113586507737637,0.007124981842935085,-0.02198040671646595,-0.023650579154491425,-0.009789356030523777,0.0002888019662350416,0.06206568703055382,-0.031251952052116394,-0.011524733155965805,0.0007147706928662956,0.010240630246698856,0.009720489382743835,-0.012729492969810963,-0.022309374064207077,0.013454616069793701,-0.0024732323363423347,-0.0020684264600276947,0.026469703763723373,0.03879006952047348,-0.01758255995810032,-0.0009024432511068881,0.014768637716770172,0.016117066144943237,0.008448655717074871,0.01778336428105831,-0.023207738995552063,0.0059259794652462006,-0.015348142012953758,-0.0049941265024244785,0.0006688321009278297,0.002696789801120758,-0.03564712405204773,-0.028725575655698776,0.002646888140588999,-0.01119594369083643,0.012347160838544369,-0.017493363469839096,-0.00695303687825799,-0.028792425990104675,-0.010538237169384956,-0.001189904985949397,0.0024397671222686768,-0.0037568476982414722,0.040064506232738495,0.04061510041356087,-0.00048726238310337067,-0.006260049529373646,0.01416570134460926,0.015784258022904396,0.0007212341297417879,-0.017474129796028137,-0.02487621083855629,0.01713019236922264,-0.041092149913311005
摇头,0.009413260966539383,-0.0002562222070991993,-0.003294850466772914,0.0031656112987548113,-0.004533626139163971,0.00231061945669353,-0.003987774718552828,0.0004467625985853374,-0.001826126710511744,0.0076932720839977264,0.0035324604250490665,-0.00391434459015727,-0.00029504753183573484,-0.006429719273000956,-0.0068130698055028915,0.00014116172678768635,0.0046878233551979065,0.003927495796233416,-0.004166815429925919,0.0014305333606898785,0.0029081664979457855,-0.007605123333632946,-0.0020292350091040134,0.0018244091188535094,-0.002599644009023905,0.0020719654858112335,0.0019513963488861918,0.0025686288718134165,0.005496426485478878,-0.00871981494128704,0.008403711020946503,-0.0015679234638810158,-0.0028128398116678,0.012747140601277351,0.005794108379632235,0.007686012890189886,-0.0055855619721114635,-0.0029584753792732954,0.005313537083566189,-0.005501935258507729,0.003140474669635296,0.0007416752632707357,-0.007192432414740324,0.008943898603320122,-0.0036041773855686188,0.002308182418346405,-0.006080695427954197,-0.005496613681316376,0.003882025834172964,-0.004423151724040508,0.0024668502155691385,0.002815338782966137,0.004423892591148615,-0.004985595587641001,0.0012422621948644519,0.0068538133054971695,0.0005885185673832893,-0.01060566958039999,-0.004020719788968563,-0.00030328845605254173
澄清,-0.00356459803879261,0.0044661215506494045,-0.0034499350003898144,0.004042282234877348,-0.000837213359773159,0.007868705317378044,0.0026680645532906055,-0.009361013770103455,-0.006679106503725052,0.0001312323147431016,-0.0023483331315219402,-0.006797759793698788,0.000828414224088192,-0.0042293136939406395,0.00044136447831988335,0.006970984395593405,-0.005278932396322489,-0.0019704916048794985,0.009646189399063587,0.009492311626672745,-0.0031720849219709635,-0.0003845212049782276,-0.005384846590459347,-0.003214761149138212,-0.00016414746642112732,-0.0006379444384947419,-0.006301109213382006,0.0094526382163167,-0.005049806088209152,-0.001506149535998702,0.003331525484099984,-0.0003682445967569947,0.0025873242411762476,-0.004807690158486366,0.003170692129060626,0.00217442330904305,-0.0008117577526718378,-0.008166950196027756,0.000183099415153265,-0.0014546363381668925,0.0005981025751680136,0.0027802789118140936,0.0014309757389128208,-0.009886163286864758,0.0017803050577640533,0.006652639713138342,0.007185021415352821,-0.003165539586916566,-0.007796270772814751,0.006842831615358591,0.008402246981859207,0.00350573449395597,0.003764107823371887,0.01038526464253664,0.009012431837618351,0.0036503339651972055,0.0059749167412519455,-0.005154658108949661,0.008938584476709366,-0.0005950371269136667
病毒,-0.005930449813604355,-0.004988254047930241,0.0018032402731478214,-0.00412339624017477,-0.0043012769892811775,0.006059822626411915,0.00209016352891922,0.0036473101936280727,-0.0025051292032003403,-0.008522550575435162,0.0018439528066664934,-0.004364524502307177,-0.0013899379409849644,0.0005122695001773536,0.007618567440658808,-0.004847289528697729,0.0060550617054104805,-0.0028751096688210964,0.001624877331778407,-0.002106117084622383,0.006320849061012268,0.005944618955254555,-0.011980440467596054,0.012076538987457752,-0.0038201205898076296,0.0007276900578290224,-0.007465125527232885,0.0030190609395503998,0.004757375922054052,0.0012799901887774467,-0.009804625995457172,0.0027148332446813583,0.003563184756785631,0.003199909348040819,-0.005490262992680073,-0.009613136760890484,-0.004718688316643238,-0.004819955211132765,0.0015076427953317761,-0.0043167416006326675,-0.00359656335785985,0.00587304774671793,-0.004161029122769833,0.0065329791978001595,-0.0060915881767869,0.001118735526688397,-0.0020399540662765503,0.0025657769292593002,-0.006829193793237209,0.0028835635166615248,0.005283305887132883,0.005042675882577896,0.004530307836830616,0.0016187001019716263,0.0027301092632114887,0.002774311462417245,-0.0029182147700339556,-0.003593060653656721,0.0065263728611171246,-0.01063857227563858
比较,0.003305137623101473,-0.00179917155764997,-0.00015323050320148468,0.008685197681188583,-0.0008402473176829517,0.0012912432430312037,0.005551382899284363,0.003943862393498421,0.001239129574969411,-0.0005703456699848175,-0.0003570765256881714,-0.005165962036699057,0.005421559792011976,-0.0032409639097750187,-0.007920130155980587,-0.0033875873778015375,0.008729011751711369,0.009008020162582397,-0.00787273421883583,0.005325902719050646,-0.001897239126265049,0.005669175647199154,0.0003083646297454834,0.0031722141429781914,-0.009830597788095474,-0.006959978025406599,0.002215530490502715,-0.002939282450824976,-0.0064702508971095085,0.006487446837127209,0.002294916193932295,0.0029088857118040323,-0.004140536766499281,0.0032011305447667837,-0.00356135331094265,-0.00254552299156785,0.006337129510939121,0.005393724422901869,0.005108939483761787,-0.00027006748132407665,-0.007451900281012058,0.0024892487563192844,-0.0065111867152154446,9.407801553606987e-05,0.008615588769316673,0.0027650720439851284,-0.001333783264271915,-0.0018288956489413977,0.005617820657789707,-0.003380937036126852,0.00556948222219944,0.0062444452196359634,0.0030207782983779907,0.0010003831703215837,0.003925133030861616,0.0036338716745376587,0.005175529979169369,-0.010680679231882095,0.006504696793854237,-0.002651757560670376
朋友,0.005785689223557711,0.006342255510389805,0.006561046466231346,0.004515961743891239,-0.005473325960338116,-0.012597695924341679,-0.00276158656924963,0.017677033320069313,-0.018057797104120255,-0.0047553242184221745,0.0031087244860827923,0.004487909376621246,0.02857186645269394,-0.0028135408647358418,0.004385838750749826,-0.0020729696843773127,0.008909841999411583,0.002548092044889927,0.007574859540909529,-0.0057891132310032845,0.004032089374959469,-0.0022566390689462423,-0.003308695275336504,0.0022382636088877916,0.022605592384934425,-0.022372836247086525,0.002928185509517789,0.009775538928806782,0.0075934999622404575,0.007533472962677479,0.007750050630420446,-0.002268532756716013,0.0025336286053061485,-0.0032695112749934196,0.005201456602662802,-0.0058040861040353775,0.0026691160164773464,-0.00967503897845745,-0.015033427625894547,0.006474756170064211,-0.0004954338073730469,-0.00031908811070024967,-0.00010114815086126328,-0.0010412234114482999,-0.010672507807612419,-0.012932050973176956,0.0042905802838504314,0.0028641484677791595,-0.0043772803619503975,0.015976378694176674,0.005321715958416462,0.002469073748216033,-0.009055223315954208,0.0027593260165303946,0.019997285678982735,-0.0025056437589228153,-0.002752910368144512,-0.015156634151935577,0.010406296700239182,-0.010382719337940216
推文,0.010495975613594055,0.008782941848039627,0.01631893776357174,0.01227692048996687,-0.00686444528400898,-0.010819180868566036,0.0022229107562452555,-0.0010258810361847281,-0.002253069542348385,-0.015301333740353584,0.0042079356499016285,-0.0063234432600438595,0.018631134182214737,-0.006441476754844189,-0.004010469652712345,0.0014609587378799915,0.013947420753538609,0.0028188726864755154,-0.0070818946696817875,-0.01452666986733675,0.0072061712853610516,0.000875305850058794,-0.010583226568996906,0.003916417248547077,0.009641659446060658,-0.004694054368883371,-0.006728723645210266,0.004139570519328117,0.010132737457752228,-0.005372421815991402,0.003802504623308778,-0.004549476318061352,0.0018925670301541686,-0.0033611860126256943,-0.004183107055723667,-0.005009107757359743,0.0018034549430012703,-0.013026459142565727,-0.0029145129956305027,0.003230221103876829,0.0045956396497786045,0.010044598951935768,-0.006915595382452011,-0.007003686390817165,-0.007361372001469135,-0.007335878908634186,0.0018976490246132016,-0.008418763056397438,-0.00726430956274271,0.008033201098442078,0.013865150511264801,0.0035114826168864965,0.002111893380060792,0.003011658089235425,0.004168293438851833,0.0003381225687917322,-0.004980794619768858,-0.00981590524315834,-0.004768191836774349,-0.01599702425301075
买,0.009823433123528957,-0.00012047821655869484,-0.001131031895056367,-0.0007943464443087578,-0.0007973380852490664,0.001699640415608883,-0.007105675060302019,0.00044887932017445564,-0.0052045611664652824,0.003348099999129772,-0.01099703460931778,0.009942285716533661,0.017950206995010376,-0.005585312843322754,-0.0019900654442608356,0.00439358688890934,-0.0027494062669575214,0.002839074470102787,-0.007705993019044399,-0.007342357654124498,-0.002361308317631483,-0.008990172296762466,0.00440736161544919,0.005307074170559645,0.014579905197024345,-0.0013813348487019539,0.013209620490670204,0.0030742818489670753,0.0029334155842661858,0.008663090877234936,0.005566589534282684,-0.015537574887275696,0.007684905081987381,0.003716969396919012,-0.013956401497125626,-0.00028216559439897537,0.008522654883563519,-0.01236342266201973,-0.009519286453723907,0.005042603239417076,0.0008852062746882439,0.017248470336198807,0.0028870142996311188,0.003780133556574583,-0.015935039147734642,-0.002649510046467185,-0.0032937126234173775,-0.004731769673526287,-0.0024467436596751213,-0.0026451474986970425,0.008941954001784325,0.00024380674585700035,0.0053076352924108505,0.006026966497302055,-0.00832381658256054,-0.000987254548817873,0.0013725904282182455,0.006282103713601828,-0.003933014813810587,-0.0028702912386506796
实际上,0.0015679915668442845,0.0018484225729480386,0.006897162180393934,0.00289197382517159,0.0008585546165704727,-0.004346929956227541,0.004174372646957636,0.0066085499711334705,0.001353375962935388,-0.0045256344601511955,0.007665549870580435,-0.0028193092439323664,0.013559977523982525,-0.008185580372810364,0.0029014907777309418,-0.0017407821724191308,-0.0007608153973706067,0.0020087582524865866,0.001312557840719819,-0.0050286841578781605,0.004369803238660097,-0.0044835214503109455,0.0026603916194289923,-0.0026775854639708996,0.005549650639295578,0.00040243659168481827,-0.0034522495698183775,0.0043012285605072975,-0.008085448294878006,0.0014424659311771393,0.006085083354264498,0.0003150247794110328,0.0057692499831318855,-0.0009350218460895121,0.0032195125240832567,-0.001538524404168129,-0.0019537012558430433,-0.0020266470964998007,-0.0009284350089728832,-0.0008265209617093205,0.008013098500669003,0.004413580056279898,-0.0031251762993633747,0.0008317447500303388,-0.005811821669340134,-0.0008959168917499483,-0.00864493753761053,-0.0015552432741969824,-0.0015500365989282727,-0.00417617941275239,0.006208901759237051,0.008623967878520489,-0.004151393659412861,0.004747691098600626,0.006079948972910643,-0.003706920426338911,-0.00856554415076971,-0.001652764156460762,0.006953636649996042,-0.008350220508873463
同样,-0.004976165480911732,-0.0008770378772169352,0.0023374378215521574,-0.00038476940244436264,-0.0074324412271380424,-0.0068859257735311985,0.0022572532761842012,0.005944367498159409,0.0020206235349178314,-0.011090816929936409,-0.002963888691738248,0.005076971370726824,0.001980929169803858,-0.01290398184210062,-0.005918397102504969,-0.006684836000204086,0.0017821644432842731,-0.0017275058198720217,0.0053329928778111935,-0.007523460313677788,-0.0012234097812324762,0.0038080899976193905,0.004319175146520138,0.00758364936336875,0.006452662870287895,-0.004288347437977791,0.0038405386731028557,-0.0008556292159482837,0.005174558609724045,0.004278363659977913,0.0016290470957756042,0.0037325937300920486,-0.00010970467701554298,-0.002507674740627408,-0.0009702003444544971,-0.004309955984354019,-0.0043707964941859245,-0.006608308292925358,0.0008390867151319981,0.002981698140501976,-0.007852157577872276,0.003886816091835499,0.001070731901563704,-0.005305950529873371,0.003276388393715024,0.002867052098736167,-0.001054568332619965,0.0049818409606814384,-0.009768872521817684,0.00319613772444427,0.009403525851666927,0.006421140395104885,-0.005334577523171902,-0.00791741069406271,0.0009036191622726619,-0.004972957074642181,-0.003144138026982546,-0.013111218810081482,-0.0007780691375955939,-0.005267944186925888
员工,-0.0008052412886172533,0.006464731879532337,0.010877013206481934,0.00037335394881665707,-0.004403932485729456,0.006448723841458559,0.002336789621040225,-0.0005225284257903695,-0.005681777838617563,-0.005606790538877249,-0.002537116874009371,0.0047687869518995285,0.007294709328562021,-0.003359957365319133,-0.001804904779419303,-0.002301174448803067,-0.0035391938872635365,0.008116316050291061,0.0006366317393258214,-0.007261027116328478,0.004223911091685295,-0.001818931894376874,-0.0066152773797512054,-0.0061092074029147625,0.0024045107420533895,-0.0072219232097268105,0.009395860135555267,0.005677657201886177,0.0037259231321513653,-0.012106148526072502,0.0013409063685685396,0.0019020549952983856,-0.006440944503992796,-0.006329965777695179,0.0024950001388788223,-0.005306342151015997,0.0012613306753337383,-0.009477886371314526,-0.004575786646455526,0.004635702818632126,0.0015373870264738798,0.006177534349262714,-0.016223089769482613,0.008414717391133308,-0.00022026742226444185,0.006740204058587551,-0.003465051529929042,0.0015217381296679378,0.0020767664536833763,0.014882487244904041,0.01012936420738697,0.0011522925924509764,0.0006433473899960518,0.0030711533036082983,0.010330874472856522,-0.00025285850279033184,-0.00030436241650022566,-0.007359036244452,-0.0003028695355169475,-0.012898486107587814
弥补,0.008307041600346565,0.0012841012794524431,0.005456119775772095,-0.0005456290673464537,-0.005408851429820061,-0.00975907500833273,0.00578143959864974,-0.004092085175216198,0.003431208897382021,-0.005711067467927933,-0.002130056032910943,-0.003656929126009345,0.0029756478033959866,-3.519491292536259e-05,0.004249739460647106,0.003612612374126911,0.0006899100262671709,0.0010298439301550388,-0.0017341702478006482,-0.0019865906797349453,0.002003212459385395,-0.006887832190841436,-0.00522969663143158,0.008303619921207428,-0.004546787589788437,0.0021806543227285147,0.002939972560852766,-0.0018038942944258451,-0.004370033275336027,-0.0038410346023738384,0.0061196498572826385,-0.00011090608313679695,-0.0029929536394774914,0.0001775459386408329,-0.00438532093539834,0.0031575916800647974,0.004472092259675264,0.003461296670138836,-0.005172844044864178,2.915499499067664e-05,0.005100897513329983,0.0033967159688472748,0.010835349559783936,-5.052756750956178e-05,0.0010116207413375378,-0.004667247179895639,0.007841631770133972,-0.008557734079658985,-0.0036020013503730297,-0.0006612383294850588,-0.0029769500251859426,0.0073470608331263065,0.004590152762830257,-0.0029054752085357904,0.007134241983294487,0.003609380219131708,0.004881591536104679,0.003733524587005377,-0.004702671896666288,-0.005913428030908108
听到,0.0005693575367331505,0.012424329295754433,0.020154912024736404,-0.011571078561246395,-0.0013116310583427548,-0.0002444841666147113,0.008474248461425304,0.01020868495106697,-0.01010737195611,-0.0063329534605145454,-0.012115342542529106,-0.004219885915517807,0.017536131665110588,-0.002821750473231077,0.0011060740798711777,0.0012525980127975345,0.007942418567836285,0.0005524567095562816,-0.0070360139943659306,-0.007737583946436644,0.0032098395749926567,0.0013829295057803392,-0.0038196565583348274,0.01275413017719984,0.014196828939020634,-0.0017121373675763607,0.009935524314641953,0.005897410213947296,0.006163116544485092,0.003982219845056534,0.010231073014438152,-0.005893744062632322,-0.001333217485807836,0.005917711183428764,-0.0028284580912441015,0.006599944084882736,0.0019126171246170998,-0.016996372491121292,-0.009355291724205017,-0.002771953586488962,0.009945632889866829,-0.00103130959905684,0.005096307955682278,-0.005297396332025528,-0.013117749243974686,-0.003601713804528117,-0.002532847924157977,0.002946241060271859,0.004544488154351711,0.01705956645309925,0.00598117895424366,-0.010368689894676208,-0.0014499020762741566,0.0020125131122767925,0.01362153422087431,-0.0013665672158822417,-0.011368213221430779,-0.008659232407808304,0.009119804948568344,-0.011953828856348991
考虑,-0.002045183442533016,0.002673643408343196,0.011460993438959122,-0.00853525660932064,-0.0018530788365751505,0.0017258941661566496,0.0036415066570043564,-0.005113594233989716,-0.0019396396819502115,0.0024589169770479202,-0.0024693282321095467,0.0026480606757104397,0.0051684253849089146,0.0004255837993696332,-0.009961588308215141,-0.004534517414867878,-0.0009367611492052674,-0.008870569989085197,-0.0029564574360847473,-0.009057875722646713,0.004466326907277107,0.008807174861431122,0.002191371750086546,0.0010595849016681314,-0.0062697697430849075,-0.003657113527879119,0.0027331190649420023,0.0012593852588906884,-0.0019836195278912783,0.004639222752302885,0.0003480467712506652,-0.0048930286429822445,-0.0027516973204910755,0.0019319957355037332,-0.0012602279894053936,0.0021438905969262123,0.001786528853699565,-0.005392094142735004,-0.002274377504363656,0.005129914730787277,0.00017941987607628107,-0.0006907803472131491,-0.004122557118535042,0.004870106466114521,0.00021782855037599802,-0.007880707271397114,-0.0012858409900218248,-0.006660225801169872,0.0004329863004386425,0.0070128715597093105,-0.003562123514711857,-0.0066290562972426414,-0.0048026591539382935,-0.006122378632426262,0.006525545381009579,-0.007312336470931768,0.003096683183684945,-0.010870487429201603,0.0018581512849777937,-0.002399745862931013
无用,0.001892170635983348,0.0026490334421396255,-0.0075616249814629555,-0.000677406438626349,0.0027322613168507814,-0.005671776831150055,-0.00021154549904167652,0.007136194966733456,-0.008441354148089886,-0.0038764099590480328,0.007650838699191809,-0.002489563310518861,0.006474304478615522,-0.002664541359990835,0.00036149442894384265,0.0004374263808131218,-0.005944242235273123,0.004508685320615768,0.0070300232619047165,0.001478766556829214,-0.008665543049573898,-0.003330121748149395,0.005776866339147091,-0.005086021032184362,-0.0029879873618483543,0.005489631090313196,-0.005198073107749224,-0.004161816090345383,0.0077415043488144875,0.0044121891260147095,-0.003917751833796501,0.005761158652603626,0.006963510997593403,0.001573679968714714,-0.007220167201012373,0.001190123613923788,0.0005591276567429304,0.003948722500354052,-0.008884035982191563,-0.005046267528086901,-0.0005854787304997444,0.007804354187101126,-0.005867387633770704,0.0027285818941891193,0.003838770557194948,-0.008715860545635223,-0.006320366635918617,0.0027294750325381756,0.0020104229915887117,-0.002057170495390892,0.00595245324075222,-0.007083216682076454,0.008659676648676395,-0.004619068466126919,0.00675845704972744,0.0017321151681244373,-0.006284675095230341,0.006518842652440071,0.008940927684307098,0.005428859032690525
刺戳,0.0015458727721124887,-0.006720271892845631,-0.0004157981602475047,0.007839803583920002,0.0023530900944024324,-0.0063941581174731255,0.0016133768949657679,-0.0011653590481728315,-0.0011960233096033335,-0.002051528077572584,0.0015966924838721752,0.0023004994727671146,-0.0062862285412848,0.0033308174461126328,-0.002844512229785323,-0.0032001445069909096,-0.001969045028090477,0.005443282425403595,0.0023665674962103367,0.0006987262750044465,0.004094972275197506,0.00419587641954422,0.0013848349917680025,-0.0018146928632631898,-0.005785551853477955,-0.0018201360944658518,0.0079172533005476,-0.0015620342455804348,-0.0014578388072550297,0.004163901787251234,-0.008488018997013569,0.0006101618055254221,-0.005091953091323376,0.002848483622074127,0.0005723077338188887,0.003792863106355071,0.003430995624512434,-0.0006980854086577892,-0.0022733481600880623,0.008747458457946777,0.006472979672253132,-0.0005458812229335308,-0.0023010859731584787,-0.008262401446700096,0.0007644398137927055,-0.000831334909889847,0.00016080914065241814,0.00024370718165300786,0.0006665430264547467,-0.0022126713301986456,-0.00885455496609211,0.0008027417352423072,-0.001532798632979393,0.002168020000681281,-0.0023136730305850506,0.003057005349546671,0.0014372242148965597,0.0018556741997599602,0.003882198827341199,0.0028947137761861086
履行,0.0005785040557384491,0.006118906661868095,0.003135586390271783,0.004740989301353693,-0.0010163371916860342,-0.0025498231407254934,-0.0069989999756217,-0.007496722973883152,0.0014070618199184537,-0.008233976550400257,0.003953307867050171,0.011563383974134922,-0.009519492276012897,-6.917677819728851e-05,-0.0017004673136398196,0.002204122021794319,-0.0024895300157368183,-0.003195973113179207,0.002060866914689541,0.0012984428321942687,-0.007752678357064724,-0.0003901467425748706,0.004806776996701956,0.006683275103569031,0.0026161116547882557,-0.0008164908504113555,0.004891876131296158,-0.0008366333204321563,0.0037019788287580013,0.006181276869028807,-0.0014856033958494663,-0.004768469370901585,0.002957056276500225,0.001831170404329896,-0.005049862898886204,-0.00015470603830181062,0.0008979457779787481,-0.005888741929084063,-0.005604330450296402,0.0006091565592214465,0.003973169717937708,0.001453863107599318,-0.00471974303945899,-0.0018157658632844687,0.006287948228418827,0.0024675477761775255,-0.006677583325654268,0.01015620306134224,0.00199779006652534,-0.00310995033942163,-0.003117155749350786,0.009216036647558212,0.0040971459820866585,-0.0019647215958684683,0.005123184062540531,0.006382840685546398,-0.002311449497938156,-0.004783485550433397,0.0017629906069487333,0.00016801978927105665
优惠券,0.0033599701710045338,0.0033530662767589092,0.00934186764061451,0.004968176130205393,0.0007036022143438458,0.0013805178459733725,0.005103844217956066,-0.002203294774517417,0.0004708001797553152,-0.002646971959620714,-0.0024649861734360456,0.004001983907073736,0.005115575157105923,0.0012969457311555743,-0.004008592572063208,-0.0027485929895192385,0.004072797019034624,0.0027726958505809307,-0.0026980421971529722,-0.012115223333239555,-0.0007864918443374336,-0.00038968652370385826,0.0029047150164842606,0.0020932608749717474,-0.003333329688757658,-0.006142891943454742,0.00035727504291571677,-0.0077634877525269985,-0.006579806562513113,0.003505171975120902,0.0015986727084964514,-0.001025296514853835,-0.0029615957755595446,-0.0025393448304384947,0.0037761633284389973,0.0041787815280258656,0.007050189655274153,-0.0030610349494963884,-0.0006799101829528809,0.0012795248767361045,0.0059428708627820015,-0.002658907789736986,-0.003024853067472577,-0.0020611267536878586,0.0046854326501488686,0.0024472649674862623,0.0038502574898302555,-0.0041329264640808105,-0.008759521879255772,0.0047338963486254215,-0.0019114247988909483,0.0025486249942332506,0.001343078096397221,-0.0014934459468349814,0.0007026759558357298,0.002391253365203738,-0.0017579187406226993,-0.006635488476604223,0.0012806347804144025,-0.0026792853605002165
声称,0.000870751915499568,0.001716128084808588,0.00031590438447892666,-0.007816878147423267,0.0054433648474514484,-0.008134876377880573,0.0028031887486577034,-0.007767851930111647,-0.002955774078145623,-0.005992329679429531,0.0035030844155699015,0.0022166327107697725,0.005189967341721058,0.007719490677118301,-0.005888995714485645,-9.594508446753025e-05,0.007251202128827572,-0.0007386400830000639,-0.004878286272287369,0.002405329141765833,-0.009412423707544804,0.006530596874654293,-0.0009724809788167477,0.00016093137674033642,-0.0013692621141672134,0.004405162297189236,-0.004052358213812113,-0.004996718838810921,-0.0029138727113604546,-0.00031108688563108444,-0.0031187678687274456,0.002998541109263897,-0.0016279200790449977,-0.0034603062085807323,0.010386563837528229,-0.0031570508144795895,0.002890961477532983,0.009519136510789394,0.008659129031002522,-0.005834199488162994,0.004724702797830105,0.005164767615497112,-0.001835711533203721,0.0030411393381655216,-0.0009157495805993676,-0.001978532876819372,-0.007771224249154329,-0.002878212369978428,-0.0007610167376697063,0.0064042662270367146,0.0038595907390117645,-0.0017852630699053407,0.0025716465897858143,0.003450315212830901,-0.00494802463799715,0.00014757539611309767,-0.0005578526761382818,-0.0029643939342349768,-0.0024990856181830168,-0.008691666647791862
状态,-0.0053913770243525505,0.003613946493715048,0.012421898543834686,0.004116746596992016,-0.0071417344734072685,-0.010471316985785961,0.00020288274390622973,0.008250268176198006,-0.003380976151674986,-0.0034996967297047377,-0.006701848469674587,-0.0014621708542108536,0.015748532488942146,-0.000925824511796236,-6.837560795247555e-05,0.001370123354718089,-0.0008357864571735263,0.0016749720089137554,0.002943234983831644,5.503144348040223e-05,0.0012916519772261381,0.0003003319725394249,-0.002862063003703952,0.006254874635487795,0.00468410924077034,-0.0014613931998610497,-0.001245261519216001,0.009485398419201374,0.0042424495331943035,-0.004678334575146437,-0.0037044635973870754,-0.00498130451887846,0.0007482677465304732,0.0019239269895479083,0.004690499976277351,0.01026911474764347,-0.005270356312394142,-0.008072726428508759,-0.012401031330227852,0.001851574401371181,0.0013686134479939938,0.0022255489602684975,-0.006154543720185757,-0.003317711642012,-0.008236772380769253,-0.006193188950419426,-0.0020964869763702154,0.002537365537136793,-0.009028310887515545,-0.0001775506534613669,0.002877937164157629,-0.0016804183833301067,0.00523415207862854,-0.0008170215878635645,0.0058779651299119,0.0034843641333281994,0.008085709065198898,-0.008515269495546818,0.005510810762643814,-0.004698997363448143
免费,0.0011387340491637588,0.00771684106439352,0.004867450799793005,0.006761378608644009,0.002545681782066822,-0.0025890623219311237,0.008272274397313595,0.0142099903896451,-0.01041809655725956,-0.02254909835755825,-0.0035067216958850622,-0.0010634522186592221,0.016560956835746765,-0.005870634224265814,0.0011871957685798407,-0.0023958811070770025,0.00397590734064579,-0.00355496141128242,0.006860424764454365,-0.011831707321107388,0.008635779842734337,-0.0008489307947456837,-0.003792427945882082,0.009499074891209602,0.015595681965351105,-0.00938074104487896,0.004890287294983864,0.006117577198892832,-0.005089546088129282,-0.003801704617217183,0.004958526697009802,0.0011425078846514225,-0.006790335290133953,-0.0023302414920181036,-0.009939875453710556,0.002846416784450412,0.004496561363339424,-0.014726005494594574,-0.0012088133953511715,0.005563454702496529,-0.006225947290658951,0.010439351201057434,-0.00604277104139328,-0.0010344326728954911,-0.004182642325758934,0.0025306171737611294,-0.004330565221607685,0.0037183077074587345,-0.005566609092056751,0.0016763503663241863,0.014801142737269402,-0.0018292875029146671,0.0017101203557103872,0.004626566544175148,0.0076551130041480064,0.003312585409730673,-0.004704462829977274,-0.009075023233890533,-0.0003678925568237901,-0.015585901215672493
告诉,-0.004851614125072956,0.006214250810444355,0.015406426042318344,-0.0038863595109432936,-0.0046934098936617374,-0.013006197288632393,-0.0006904726615175605,0.0004251024220138788,0.005106747150421143,-0.010650335811078548,0.00328086712397635,0.0007272139191627502,0.0234514269977808,0.0010312061058357358,0.004192499443888664,-0.003547362983226776,0.006694922689348459,-0.0011709420941770077,0.0017681163735687733,-0.012152784503996372,-0.0006097482983022928,0.0006071814568713307,-0.0012782199773937464,0.010591525584459305,0.013144350610673428,-0.001774506294168532,0.006099910940974951,0.000839782995171845,-0.0003789234906435013,0.00475891400128603,0.019947439432144165,-0.005685764364898205,-0.006237716414034367,-0.005232708062976599,-0.0014052530750632286,0.004775853827595711,0.007469755597412586,-0.01407627947628498,-0.015881262719631195,0.00850569736212492,-0.0072546363808214664,0.004890606738626957,-0.0036571610253304243,-0.004496220964938402,-0.008786484599113464,-0.006143046543002129,-0.002969551831483841,-0.002944446634501219,-0.011298987083137035,0.006238160189241171,0.011304360814392567,0.006484084762632847,-0.006101951003074646,0.00284252455458045,0.009926876053214073,0.0058579640462994576,-0.004103319253772497,-0.01826028898358345,0.00353549188002944,-0.019984956830739975
无法,-0.0068635037168860435,0.0023813601583242416,0.00935592781752348,0.0003487453795969486,-0.008868463337421417,-0.00717792147770524,0.002767221536487341,0.0033310214057564735,-0.01181778870522976,-0.01332554966211319,-0.005396440625190735,-0.003751202952116728,0.016176458448171616,0.0008291578851640224,-0.0042656720615923405,-0.007216407917439938,0.009169775061309338,-0.002847944851964712,0.008927212096750736,-0.016540201380848885,0.013661986216902733,0.0007026445819064975,0.003056182060390711,0.000501138623803854,0.011256220750510693,-0.011934329755604267,0.0023265001364052296,0.0018206732347607613,0.006912222132086754,-0.001641099457629025,0.005188350565731525,-0.009992863051593304,-0.004763551987707615,-0.0021780068054795265,-0.002840146655216813,0.00863172858953476,-0.005983255337923765,-0.017592627555131912,-0.00706127705052495,0.006874524522572756,0.002670755609869957,0.010898013599216938,-0.007993679493665695,0.00015791412442922592,-0.010776440612971783,-0.0020635840483009815,0.004673328250646591,0.0017025531269609928,-0.011554302647709846,0.014529995620250702,0.0158696249127388,0.008927613496780396,-0.006862782873213291,0.008370128460228443,0.014288180507719517,0.006848663557320833,-0.0018126813229173422,-0.012651110999286175,0.0011886341962963343,-0.01523887924849987
误导性,-0.0032383191864937544,0.0006290480378083885,-0.0017751200357452035,-0.0017890591407194734,0.0033133369870483875,0.006732009816914797,0.0034227699507027864,0.001955860061571002,0.0034040301106870174,-0.0026734538841992617,-0.002384734805673361,-0.0030737873166799545,-8.034206985030323e-05,-0.007829542271792889,-0.008362174965441227,-0.0007877945899963379,0.000678842596244067,0.0009411480859853327,0.006333837751299143,-0.0012787965824827552,0.0008061808766797185,-0.0023609360214322805,-0.0003783959546126425,-0.0013476826716214418,-0.0006552602280862629,0.0002335171593585983,-0.002919422462582588,2.1468315026140772e-05,-0.0022667529992759228,-0.00446729501709342,-0.000583804096095264,-0.002448656130582094,0.0031761021818965673,-0.002749515464529395,0.00429862504824996,-0.0028353009838610888,0.0009203184745274484,0.0001682260335655883,-0.000897696241736412,-0.0027018911205232143,0.001956544816493988,-0.003364808391779661,0.002598509192466736,-0.0026809312403202057,0.0017165051540359855,0.00021544311312027276,-0.0012319532688707113,-0.0010442787315696478,0.0018511296948418021,0.0007847094093449414,-0.004522793926298618,0.0009418567642569542,-0.004749305080622435,-0.000535139290150255,0.0003553316346369684,0.0015085298800840974,0.0033618025481700897,-0.008654402568936348,0.0010443901410326362,0.0037116017192602158
双人床,5.064360811957158e-05,-0.0008481315453536808,0.005235533695667982,0.009292133152484894,0.00048237372539006174,-0.0007445751107297838,0.0013955036411061883,0.004927333910018206,-0.006822115741670132,0.001277499133720994,0.0005489414907060564,-0.005732315126806498,0.001960159745067358,0.000255192891927436,-0.0023577739484608173,-0.0036330444272607565,-0.006457319017499685,-0.004958597477525473,0.0025352707598358393,0.002467493759468198,0.003776500467211008,0.0002539467823226005,-0.002504542702808976,-0.0028997971676290035,0.00026098155649378896,0.0024489096831530333,-0.00484345993027091,0.00030622337362729013,-6.94396803737618e-05,-0.0024751496966928244,-0.005813260097056627,0.00048185899504460394,-0.006220460403710604,0.003977316897362471,-0.0018219362245872617,-0.0025763993617147207,0.000656004180200398,-0.0014867492718622088,0.0005390126025304198,0.0019692296627908945,0.0025720216799527407,-0.0016368903452530503,-0.010131582617759705,0.0008087792666628957,0.006706081796437502,-0.003117500338703394,0.00229995371773839,0.0006439761491492391,-0.0011557979742065072,0.0008327001705765724,-0.001286738901399076,-0.0003878884599544108,0.0011705482611432672,-0.0028749648481607437,-0.000902218627743423,0.0026590924244374037,0.0018832302885130048,-0.004252757877111435,0.004085747059434652,0.00030009780311957
设想,0.0003780082333832979,-0.004352922085672617,-0.002177043352276087,0.001009061699733138,0.0014048847369849682,0.0017300485633313656,0.010126323439180851,0.0004351233073975891,-0.005449547432363033,0.006193939596414566,-0.000299281207844615,-0.0021067273337394,0.004152827896177769,-0.01386159285902977,-0.0008255038410425186,0.0063165826722979546,7.38510861992836e-05,0.00346143776550889,-0.0008234365377575159,0.006445298437029123,-0.0017136353999376297,-0.0035545025020837784,0.0005495641380548477,-0.0002943682484328747,-0.002068891655653715,-0.0021958169527351856,-0.005579540506005287,-0.006252318155020475,0.0012025590986013412,0.006039525847882032,-0.0044924421235919,0.0069041782990098,-0.0009133588755503297,0.008198445662856102,0.008682933636009693,0.002928520552814007,-0.006279858760535717,0.0012448497582226992,-0.0014596818946301937,-0.0016514500603079796,0.0066398982889950275,0.00041330442763864994,0.0005743931978940964,-0.0018939769361168146,0.0013121983502060175,0.006851833313703537,0.0004051571013405919,-0.004336922895163298,-0.004414786119014025,-0.003680348163470626,0.004839700646698475,0.004490923136472702,-0.003369017271324992,-0.0028169434517621994,-0.0071831014938652515,0.0010889486875385046,-0.002531487727537751,0.0010315515100955963,0.00029801466735079885,-0.000677912961691618
刚刚,-0.0038897169288247824,-0.007796872407197952,-0.0018801295664161444,-0.0015655887546017766,-0.00018464215099811554,8.766187966102734e-05,-0.0006084912456572056,0.0013082356890663505,0.005148261785507202,-0.005202410276979208,0.004907891154289246,-0.0007562821265310049,0.021706227213144302,-0.018684862181544304,-0.0011961236596107483,-0.005757141392678022,0.005483371205627918,-0.0027878745459020138,0.0038898291531950235,-0.0015676210168749094,0.00541774183511734,-0.007406816352158785,0.0037461109459400177,0.0014654379338026047,0.018193146213889122,-0.0033588579390197992,0.0056036850437521935,0.0027966476045548916,0.004533850587904453,-0.002269023796543479,0.014249742962419987,-0.011729826219379902,-0.00429803179576993,-0.0022826017811894417,-0.0033755761105567217,0.002982574747875333,0.0005605530459433794,-0.016519788652658463,-0.007182752247899771,0.009454373270273209,-0.0006577015155926347,0.00692503247410059,-0.006092235445976257,-0.0049871220253407955,-0.009127821773290634,-0.010428615845739841,-0.01095917820930481,0.004692208021879196,-0.005161250941455364,0.00770742679014802,0.007147687021642923,-0.0018221130594611168,0.002467655809596181,0.00784347578883171,0.003086945042014122,0.01077620405703783,0.002076124306768179,-0.009380108676850796,0.00764965545386076,-0.01029842160642147
老化,0.007009263150393963,-0.004214959684759378,0.01219421997666359,0.0011219168081879616,-0.002312578959390521,-0.005371935665607452,0.005377671215683222,-0.0011405376717448235,0.002253214130178094,0.002331751398742199,-0.007596741430461407,-0.002328927628695965,-0.008045997470617294,-0.0001405507791787386,0.0037972950376570225,0.0032813926227390766,-0.00031011272221803665,0.0016843745252117515,-0.00030341220553964376,-0.004690832458436489,0.0042518614791333675,0.001127228606492281,0.007875669747591019,-0.002197056310251355,0.0026839387137442827,-0.00685905059799552,0.002839523833245039,0.005602025426924229,0.003250722773373127,0.0030044661834836006,0.008067759685218334,-0.0012756409123539925,-0.008664213120937347,-0.0002075370866805315,-0.0007557857315987349,0.001213134964928031,0.007400613743811846,-0.006118175107985735,-0.0038245629984885454,0.008556974120438099,-0.002893514931201935,-0.001642862567678094,-0.007855831645429134,-0.007298660464584827,-0.004341761115938425,-0.004898352548480034,0.0038360143080353737,0.0062727127224206924,-0.0037345748860388994,0.009891290217638016,0.0031740451231598854,0.00167870766017586,0.009929602034389973,-0.0049756551161408424,-0.0032347626984119415,0.010081491433084011,0.0017217129934579134,0.009468353353440762,-0.0015318435616791248,0.0019059672486037016
舒适,0.000615712022408843,-0.003355119377374649,0.00349811720661819,0.0037830343935638666,-0.0026819740887731314,0.0012746137799695134,0.0027607965748757124,0.0019483868964016438,0.004897311329841614,0.0004546138225123286,-0.0009723401162773371,-0.012991217896342278,0.0006695567863062024,-0.010226171463727951,-0.000999844865873456,0.012433536350727081,0.005940640345215797,-0.009234106168150902,-0.002924232743680477,-0.005476042162626982,-0.009855109266936779,-0.002973860362544656,-0.011105190962553024,0.0004006209783256054,-0.00021409527107607573,-0.0016153266187757254,0.005788636393845081,-0.00677558034658432,0.009954951703548431,0.008874611929059029,0.004661718383431435,-0.015380723401904106,-0.005506444722414017,0.006422889418900013,-0.003376641310751438,0.005109801888465881,-0.0054915184155106544,0.0015672014560550451,0.001028232043609023,0.0003447254130151123,0.0017444670666009188,-0.007776479236781597,0.004758516326546669,-0.0049349283799529076,0.0026224341709166765,0.008657308295369148,-0.005014779046177864,-0.002551131183281541,-0.002527778036892414,0.0034163189120590687,0.002175811678171158,-0.0017145647434517741,0.010330104269087315,-0.00020208978094160557,0.002046787180006504,-0.0077562713995575905,0.003655732609331608,0.0009867486078292131,0.005678314715623856,-0.011502951383590698
死亡,-0.004173167049884796,-0.00018930615624412894,0.012601053342223167,0.008481503464281559,-0.004727911204099655,-0.005827154498547316,0.005948234349489212,0.0015705717960372567,-0.005176047794520855,-0.002971635665744543,0.00690103555098176,-0.0011038666125386953,0.009733901359140873,-0.0010255416855216026,-0.007829127833247185,-0.006983079016208649,0.006537016946822405,-0.004293136298656464,-0.005255579017102718,-0.001424109097570181,0.008952912874519825,0.0021392079070210457,-0.004350098315626383,0.009724268689751625,0.0031925304792821407,-0.0042569320648908615,-0.0011939627584069967,0.008196905255317688,0.0073752636089921,-0.0038543138653039932,0.012166979722678661,5.717106978408992e-05,0.0020599497947841883,-0.0065677533857524395,0.003052166197448969,-0.010589072480797768,0.0026497328653931618,-0.002470383420586586,-0.005148082971572876,0.0026762732304632664,0.0050492603331804276,-3.2603275030851364e-05,-0.002316969446837902,-0.00033881631679832935,-0.00904013216495514,0.003878231393173337,-0.006964830216020346,0.002529651392251253,-0.0059831938706338406,0.01273222267627716,0.0066132135689258575,0.008590579964220524,0.0030673451256006956,0.011454164981842041,0.0023731025867164135,0.010694030672311783,-0.007607016712427139,-0.010479778982698917,0.0005005981656722724,-0.012014873325824738
扁平,-0.001058181980624795,-0.007636823691427708,0.0023023623507469893,-0.006767205893993378,-0.004946961998939514,-0.005134393461048603,-0.007197410333901644,-0.0057439738884568214,0.0010747886262834072,-0.0015928811626508832,-0.011644025333225727,-0.004928460344672203,0.00014885980635881424,0.0028411289677023888,0.010047370567917824,-0.005287007428705692,-0.010470490902662277,-0.006994626484811306,-0.00013875355944037437,-0.0022687504533678293,-0.0056465682573616505,0.007680176757276058,-0.0027849802281707525,0.0008802289376035333,-0.0005551187787204981,-0.0057039218954741955,0.002141878940165043,0.0065968818962574005,0.0024389310274273157,-0.008405051194131374,0.001622169860638678,0.0054005216807127,0.007958370260894299,-0.00553683377802372,-0.004401462152600288,-0.004708361811935902,0.010204525664448738,-5.797483026981354e-05,-0.0022911515552550554,0.0019920561462640762,0.0022286344319581985,-0.0022343217860907316,0.004802781157195568,-0.002072179690003395,0.0009536040015518665,-0.0005439396481961012,0.002900585299357772,0.0015668401028960943,-0.0006787660531699657,0.008811856620013714,0.007813150063157082,0.00424989452585578,-0.00029080663807690144,-0.00038285437040030956,-0.006266148295253515,-0.0013800552114844322,0.007250883616507053,-0.005331832449883223,0.009039935655891895,-0.011465365998446941
更,0.0064535122364759445,0.016795536503195763,0.02033749595284462,0.009390642866492271,-0.008608237840235233,-0.0017603031592443585,-0.0034149817656725645,-0.001748209004290402,-0.006219325587153435,-0.012795118615031242,-0.004159767646342516,0.010026216506958008,0.038363903760910034,-0.01441974937915802,0.006946910172700882,-0.003121946007013321,0.004033001139760017,0.007818014360964298,-0.006152211222797632,-0.026402117684483528,0.014502301812171936,-0.02054240182042122,0.0027441515121608973,0.019375696778297424,0.025756746530532837,-0.017714323475956917,0.009303450584411621,0.011971643194556236,0.01427664328366518,-0.008077438920736313,0.015322184190154076,-0.006940721999853849,-0.01635018363595009,0.0021268357522785664,-0.0038280526641756296,0.005323356948792934,0.006358509883284569,-0.030971620231866837,-0.014768395572900772,0.02337471954524517,0.0008910517208278179,0.026160065084695816,-0.008127464912831783,0.004557047504931688,-0.019672304391860962,-0.012942609377205372,-0.004762742202728987,0.014409182593226433,-0.000741105992347002,0.024266527965664864,0.026735838502645493,-0.011591371148824692,-0.006730555556714535,0.001148759387433529,0.03195705637335777,0.012516161426901817,-0.017076868563890457,-0.017571819946169853,0.017671842128038406,-0.035834625363349915
标有,-0.004149727523326874,0.002189834136515856,0.0013306571636348963,-4.51881205663085e-05,-0.00017215521074831486,-0.0031643351539969444,-0.00036666757659986615,0.0015392906498163939,-3.56034142896533e-05,-0.0029798627365380526,0.0029598744586110115,-0.007333738263696432,-0.0007125867996364832,0.0006729152519255877,-0.009066158905625343,-0.005829096771776676,0.0007468231488019228,-0.003421810222789645,0.0059065609239041805,-0.002694798167794943,0.0005166810005903244,-0.0005026825238019228,-0.0019797387067228556,-0.00409959489479661,0.005719309207051992,0.007967271842062473,0.0038931977469474077,-0.00594873633235693,-0.0019807028584182262,0.0018671283032745123,0.0017306988593190908,0.0024561993777751923,-0.002789650810882449,0.003634351771324873,-0.0006115122232586145,0.0028600990772247314,-0.0027468150947242975,-0.00904443021863699,-0.005946493707597256,-0.001375374267809093,-0.001960485242307186,-0.004099403973668814,0.0004552758764475584,-0.005116313695907593,-0.005757487379014492,0.0001972327008843422,0.004363673739135265,-0.00738501874729991,-0.0009815726662054658,-0.008219094015657902,0.005204400978982449,0.0017597363330423832,-0.004684225656092167,-0.0017295288853347301,-0.009725040756165981,-0.00886751338839531,-0.002359584905207157,-0.0053689125925302505,0.0035927086137235165,-0.0034380145370960236
是,-0.01077398844063282,0.014832168817520142,0.04447932541370392,0.012263551354408264,-0.013000283390283585,-0.02339043654501438,0.009244460612535477,0.019749661907553673,-0.019843794405460358,-0.04046841338276863,-0.0006050465162843466,-0.009900708682835102,0.06949561834335327,-0.005281548947095871,-0.023029737174510956,-0.0015180159825831652,0.021498799324035645,0.013958715833723545,-0.011367096565663815,-0.045588888227939606,0.022842466831207275,-0.01521099079400301,-0.004546188749372959,0.022329429164528847,0.04732286185026169,-0.020048659294843674,0.008438046090304852,0.017918968573212624,0.021366706117987633,-0.005097246263176203,0.023040486499667168,-0.010253344662487507,-0.007214884273707867,-0.011605819687247276,-0.008628693409264088,-0.007390981540083885,0.007618427742272615,-0.054156750440597534,-0.03197718411684036,0.005711399018764496,-0.012735867872834206,0.021869830787181854,-0.01855049468576908,-0.01405230350792408,-0.034432243555784225,-0.006897032726556063,-0.00993303395807743,0.007146517746150494,-0.004270754288882017,0.05385703966021538,0.03500448539853096,0.0036533991806209087,-0.0017806096002459526,0.01698077842593193,0.04152779281139374,0.009773601777851582,-0.004321496933698654,-0.05694228783249855,0.01279480941593647,-0.029446452856063843
意味着,0.007951770909130573,0.005494196433573961,0.008324602618813515,0.0022743658628314734,0.0030356852803379297,-0.0010310689685866237,0.005502138752490282,0.004265639465302229,-0.011249062605202198,-0.005123957525938749,0.000948565371800214,-0.000458805967355147,0.013457505963742733,0.0018228137632831931,-0.0012480401201173663,0.0022813943214714527,0.0035955023486167192,0.0036309249699115753,-0.005062438081949949,-0.00392829580232501,0.002963421633467078,0.0027981027960777283,-0.004859818611294031,-0.0007860797340981662,0.006545267999172211,0.002634602366015315,0.005931918974965811,-0.0013288159389048815,0.004107427317649126,0.00481845298781991,0.007481849752366543,-0.007103693205863237,-0.007711553480476141,-0.0016884509241208434,0.0053385719656944275,0.0019608454313129187,-0.0003048173675779253,-0.007817564532160759,-0.0005922880955040455,-0.0038075807970017195,0.00861630029976368,0.005743949208408594,-0.0009239967912435532,-0.0004355556739028543,-0.01059223897755146,-0.0010477590840309858,-0.004180366639047861,-0.0023744956124573946,0.00084697175770998,0.006401874590665102,0.006835621315985918,-0.0029527652077376842,-0.0015781570691615343,0.0027338541112840176,0.004157091025263071,0.0016840669559314847,-0.010711295530200005,-0.008632396347820759,0.0013724876334890723,-0.0032730463426560163
消息,-0.003491008887067437,0.003266063751652837,0.007626458536833525,0.010360224172472954,0.0015796031802892685,-0.007949418388307095,0.00047549372538924217,0.0006472023669630289,-0.005377991124987602,-0.01738979108631611,-0.003611318999901414,-0.00782692525535822,0.02020692452788353,-0.006224900018423796,-0.001122824614867568,-0.0035177539102733135,0.004108351655304432,-0.0055085718631744385,-0.0045220679603517056,-0.004913043696433306,0.004229418933391571,-0.0072897644713521,0.001944035291671753,0.004844898357987404,0.015192323364317417,-0.00622347928583622,-0.0009764763526618481,0.007400543428957462,-0.0015370053006336093,-0.002903776243329048,0.003040050622075796,-0.001273556612432003,0.0001575860078446567,0.00260464777238667,0.0003076574648730457,-0.011907894164323807,0.005629430525004864,-0.013868681155145168,-0.014570409432053566,-0.007191244047135115,-0.003553534159436822,-0.007207929156720638,-0.007737399078905582,0.0012065060436725616,-0.01168251596391201,0.0029749968089163303,-0.002218531910330057,0.007555818185210228,0.003852361813187599,0.006483209319412708,0.009316426701843739,-0.0023612487129867077,-0.0030548362992703915,-0.0038800586480647326,0.007015536539256573,-0.0006354879587888718,-0.00032348791137337685,-0.017585935071110725,0.0031898217275738716,-0.01206024270504713
考虑一下,0.0035695629194378853,0.0007495902245864272,0.0008219542214646935,0.00393851101398468,0.0022980822250247,-0.0041491310112178326,-0.0023284144699573517,-0.0022550709545612335,0.0014256018912419677,-0.0022690696641802788,0.0068321023136377335,0.0028095922898501158,0.006617783103138208,-0.000497718749102205,0.0047785029746592045,0.003898599650710821,0.0034946121741086245,-0.0035298659931868315,-0.0004437090829014778,-0.0004828966048080474,-0.0013109877472743392,-0.0022488355170935392,-0.0008527645259164274,-0.0013297592522576451,0.0016668267780914903,0.00033376560895703733,0.005259034689515829,0.00419542146846652,-0.001123300171457231,-0.0024527201894670725,0.0021599254105240107,0.005143079441040754,-0.000499974237754941,-0.00011453023762442172,0.0028097068425267935,0.0026634091045707464,0.0065060812048614025,0.0023593129590153694,0.0012968865921720862,0.003902157535776496,0.0006471029482781887,-0.001511097070761025,-0.0021422498393803835,-0.006264719180762768,0.003067626617848873,-9.501310159976128e-06,0.0004931724979542196,0.0001164315763162449,0.0015868861228227615,0.0012905903859063983,0.0005635606939904392,-0.0042601157911121845,0.0038366271182894707,0.0003448225324973464,0.0023984622675925493,0.006656438112258911,0.004287186544388533,-0.005523699335753918,-0.0038138083182275295,-0.0045627993531525135
流感,-0.003777440171688795,0.005059055518358946,0.004282068461179733,-0.008395856246352196,-0.00315455486997962,-0.0006880864966660738,0.004810334648936987,-0.0005939963739365339,0.0012256639311090112,0.005388541147112846,0.0006607833784073591,0.004079153295606375,-0.004086029250174761,-0.010088905692100525,0.0012828235048800707,0.0021648118272423744,-0.0030570346862077713,0.006443020422011614,0.0015830318443477154,-0.0059847235679626465,0.004782854579389095,-0.008604333736002445,-0.0028095797169953585,-0.0075380560010671616,0.0014809663407504559,-0.00392710929736495,0.000690318294800818,0.0036305163521319628,-0.004363527521491051,-0.0022471637930721045,-0.002013038843870163,0.0038671491201967,0.002070828340947628,-0.004549825564026833,-0.0070029268972575665,0.00024206400848925114,0.00530835147947073,-0.0038697971031069756,0.0028895922005176544,0.0032882955856621265,-0.00044971529860049486,0.0029573608189821243,0.008043340407311916,0.003801136277616024,0.0038108984008431435,0.00313078542239964,0.0007879878394305706,0.002447317121550441,-0.003368649398908019,-0.0027965414337813854,0.0006139233009889722,-0.008496435359120369,-0.007972171530127525,0.0017798314802348614,0.0009982433402910829,0.004740449599921703,-0.0024461334105581045,0.010866865515708923,0.004649199079722166,-0.001600472955033183
工作,0.0025947424583137035,0.013986324891448021,0.029058948159217834,-0.008516131900250912,-0.002676136791706085,-0.01904204674065113,0.008547299541532993,0.009167774580419064,-0.015624240972101688,-0.015150085091590881,-0.0031698972452431917,0.0023243017494678497,0.04976135119795799,-0.019414514303207397,-0.008231914602220058,-0.017870012670755386,0.014648664742708206,0.0038830810226500034,-0.0012623569928109646,-0.031094230711460114,0.00762487668544054,-0.009064450860023499,-0.0032665906473994255,0.0198044553399086,0.02723308838903904,-0.01968703791499138,-0.002303697168827057,0.01476738229393959,0.019686244428157806,0.011715147644281387,0.01735936664044857,-0.00040578702464699745,-0.0053557176142930984,-0.006254944484680891,-0.0024986336939036846,-0.00014196638949215412,0.00627756305038929,-0.023418691009283066,-0.01755537837743759,0.01172326598316431,0.01147352997213602,0.012922926805913448,-0.000510078330989927,-0.006138917058706284,-0.01892057992517948,-0.009125376120209694,-0.014101209118962288,0.011590501293540001,-0.010932511650025845,0.020472023636102676,0.03298419713973999,-0.005374010186642408,0.004058514721691608,0.0019310403149574995,0.02201513573527336,0.00919271633028984,-0.0010149105219170451,-0.032834336161613464,0.011783285066485405,-0.033141858875751495
到,0.004558630287647247,0.023162538185715675,0.03363772854208946,0.0027768260333687067,-0.0030546493362635374,-0.01367165893316269,0.006977851036936045,0.013404558412730694,-0.024142060428857803,-0.027189508080482483,0.007438770495355129,-0.006089814472943544,0.046624165028333664,-0.0015307668363675475,-0.004442949313670397,-0.017305685207247734,0.005959686357527971,0.019170869141817093,-0.012260283343493938,-0.03180373087525368,0.0036219023168087006,-6.50209840387106e-05,-0.0009984290227293968,0.020987987518310547,0.029406992718577385,-0.01967586576938629,0.006522866897284985,0.014524407684803009,0.018367938697338104,-0.0072327000088989735,0.003864232450723648,-0.012779290787875652,-0.007186575792729855,-0.006387866102159023,0.002880103187635541,-0.006080607883632183,0.01008908636868,-0.03242776170372963,-0.028281359001994133,0.006097919307649136,-0.005638463422656059,0.020397773012518883,-0.01139188464730978,-0.0014326042728498578,-0.022202130407094955,-0.003217953722923994,-0.0005818579811602831,0.011688855476677418,-0.006174067035317421,0.024015793576836586,0.030425461009144783,0.0007839975878596306,-0.013428442180156708,0.0015827999450266361,0.025507519021630287,0.012965139001607895,-0.0037916258443146944,-0.028186580166220665,0.02566634491086006,-0.02398938685655594
获得,-0.009479625150561333,0.005223958753049374,0.016133474186062813,0.008118747733533382,0.004712880589067936,-0.01169306319206953,0.007972801104187965,0.0013584368862211704,-0.009999963454902172,-0.007342099212110043,0.0020714951679110527,0.0052987998351454735,0.029550012201070786,-0.001848920714110136,-0.012365944683551788,-0.003376662265509367,0.008852098137140274,0.006011598743498325,0.0023637437261641026,-0.017758045345544815,0.016904903575778008,-0.006966090761125088,0.0015790938632562757,0.016086947172880173,0.017937609925866127,-0.0087084099650383,-0.006302146706730127,0.008823392912745476,0.013768484815955162,0.003787797875702381,0.01178305596113205,0.0031688527669757605,-0.005355529021471739,-0.0038510842714458704,-0.007948613725602627,-0.0024980339221656322,0.0011709651444107294,-0.01983589679002762,-0.012157869525253773,0.008846700191497803,0.004340334329754114,0.022928595542907715,-0.0015422727447003126,0.0011732245329767466,-0.01979369856417179,-0.010955097153782845,0.0004285420582164079,0.006687705870717764,-0.00021874625235795975,0.012072402983903885,0.01973121426999569,-0.0014738410245627165,-0.0015270044095814228,-0.0019116976764053106,0.01724894531071186,0.006086616776883602,-0.010904358699917793,-0.026101505383849144,0.00761859305202961,-0.019896075129508972
普通,-0.0018793451599776745,0.004598088096827269,0.015215881168842316,0.0031508239917457104,-0.0021777255460619926,-0.003265604842454195,-0.003091205842792988,-0.0020102430135011673,-0.010095905512571335,0.002571102697402239,-0.0035389652475714684,-0.005279091186821461,0.004790449049323797,-0.008745165541768074,-0.006458613555878401,0.006447018124163151,-0.005125893745571375,0.004326436668634415,0.005477657541632652,-0.010294132865965366,0.004967414308339357,-0.01251896470785141,-0.004765295423567295,0.0010157690849155188,-0.0010977622587233782,-0.00944615714251995,-6.523699266836047e-05,0.0048238132148981094,-0.0016711733769625425,0.005800602957606316,0.0049448683857917786,0.003547455184161663,-0.0023738641757518053,-0.0013709550257772207,-0.0072426991537213326,-0.0033660084009170532,-0.004644769709557295,-0.00790709350258112,-0.001413057092577219,0.004939176607877016,0.0003485878696665168,2.0464882254600525e-05,-0.0018746022833511233,-0.0019966736435890198,-0.0030012361239641905,0.001018240232951939,0.005714258179068565,0.0024363575503230095,0.0012158392928540707,0.008344689384102821,0.004896905738860369,-0.0016637765802443027,0.006835676729679108,0.004397684242576361,-0.009244604967534542,0.002599678933620453,-0.0007527723209932446,0.006595929618924856,0.0004838139284402132,0.0016574871260672808
修复,0.007290699984878302,-0.0011999215930700302,0.006994543597102165,-0.002222058828920126,0.0025395455304533243,-0.0022511319257318974,0.0023603274021297693,0.0037715996149927378,-0.005214463919401169,-0.0052961320616304874,-0.006330274511128664,0.0068647293373942375,0.004073143005371094,0.0019171733874827623,-0.003907639998942614,0.0015786240110173821,0.002659641904756427,0.003011502558365464,0.0017883619293570518,-0.005432553589344025,-0.0007578345248475671,-0.0052840677089989185,0.001448438037186861,-0.0024539479054510593,0.004775566514581442,-0.0058850557543337345,-0.00255673099309206,-0.002527714241296053,-0.004621357191354036,0.00489899842068553,-0.0019227773882448673,0.0029101502150297165,-0.004605975933372974,0.006157655268907547,-0.007108896970748901,0.009257703088223934,0.0003145423252135515,-0.0012292019091546535,-0.006259639281779528,0.0022475181613117456,-0.0018415491795167327,0.003575175069272518,0.002758696675300598,0.006230002269148827,0.009447731077671051,0.001602147240191698,0.0006339536048471928,0.0032679776195436716,0.0019118058262392879,-0.0004096690099686384,-0.007412751205265522,0.00010174709314014763,-8.783303201198578e-06,0.0061702118255198,0.0015338126104325056,-0.005894002970308065,-0.0033464517910033464,-0.004378180019557476,0.0011815542820841074,0.00416598841547966
单词,0.002354371827095747,-0.004113882780075073,0.007593334186822176,-0.004104623105376959,0.0029872851446270943,0.006413271185010672,0.0035639542620629072,0.0026509729214012623,0.006664510816335678,-0.0030666075181216,-0.003536493983119726,0.004944253712892532,0.0011388757266104221,-0.0009397614048793912,0.0065744854509830475,-0.004646873567253351,-0.006131460424512625,0.0015104621415957808,-0.008268783800303936,0.001996244303882122,0.003835708135738969,0.0023557941894978285,-0.005829525180160999,-0.0037064875941723585,0.0013740872964262962,-0.002005212940275669,-0.003156225197017193,-0.0012065747287124395,-0.005048500373959541,0.008320954628288746,0.0025355354882776737,-0.006100645288825035,-0.0018318744841963053,-0.0072313640266656876,-0.0023614035453647375,0.0008070003823377192,-0.00043562077917158604,0.0066211773082613945,-0.0002885878784582019,0.007807217072695494,0.0006942777545191348,-0.002937497105449438,-0.0006025962065905333,0.0030983458273112774,0.0028071864508092403,-0.004806320648640394,-0.0004928356502205133,0.001175937824882567,0.009537081234157085,-0.0004382734186947346,-0.003241380210965872,-0.0031639346852898598,0.0015195338055491447,-0.00758912181481719,-0.007269876077771187,-0.002260571578517556,0.006245988421142101,-0.0005003931000828743,0.0028243602719157934,-0.004738292656838894
做,-0.012169493362307549,-0.004317061044275761,0.01730608567595482,0.010965661145746708,-0.011455919593572617,-0.02222992479801178,-0.006382904946804047,0.014767933636903763,-0.021282419562339783,-0.0261060930788517,0.0005745986709371209,0.0017850284930318594,0.029039066284894943,-0.010723818093538284,-0.0009200107306241989,-0.002422354184091091,0.01956275850534439,-0.011897813528776169,0.009665784426033497,-0.03395772725343704,0.017164379358291626,-0.0012754460331052542,-0.013724531047046185,0.01485427562147379,0.03202570229768753,-0.017148956656455994,0.0054089464247226715,0.011846034787595272,0.016541849821805954,-0.005996273830533028,0.025635913014411926,-0.011224489659070969,-0.0006638392806053162,-0.005286404862999916,-0.011505227535963058,-0.004240881651639938,0.0077838595025241375,-0.01656937226653099,-0.009963328018784523,0.018019653856754303,-0.004073529038578272,0.021038172766566277,-0.0015401020646095276,-0.014229901134967804,-0.014192283153533936,-0.01337532140314579,-0.0035910597071051598,0.007086869794875383,0.00592114869505167,0.03624408692121506,0.017883632332086563,0.0016432851552963257,-0.0038476597983390093,0.008463729172945023,0.017846859991550446,-0.0009815627709031105,-0.004347650334239006,-0.029912997037172318,0.01975073479115963,-0.02356320060789585
有助于,-0.004741818178445101,0.0016346353804692626,0.0029423865489661694,-0.0007743811584077775,0.0030219124164432287,-0.0023358394391834736,0.003869774052873254,-0.002268384676426649,-0.006863241083920002,-0.00409062672406435,0.005326780024915934,-0.0028922620695084333,0.005147282965481281,-0.0008454673807136714,0.0007832079427316785,-0.006470913998782635,0.008092368021607399,-0.004800985101610422,-0.0010123003739863634,-0.005267988424748182,0.0028219998348504305,-0.0075609153136610985,-0.0030099169816821814,0.006216277834028006,-0.0012373236240819097,0.0038615495432168245,0.0041203913278877735,0.0031871814280748367,0.0019190050661563873,0.0031453657429665327,0.0034045777283608913,0.0062074242159724236,-0.00041731612873263657,-0.000871511991135776,-0.004047073423862457,-0.0007997317588888109,0.0025409862864762545,-0.0010107880225405097,0.0010683665750548244,-0.0009166509262286127,-0.010082913562655449,0.00407270435243845,0.00295345694757998,-0.0038914841134101152,0.00269722449593246,-0.0039046513848006725,-0.00024224398657679558,0.002418046584352851,0.00021083306637592614,0.006561809219419956,0.0015181491617113352,-0.006319801788777113,-0.0017513036727905273,0.004305349197238684,0.002963622333481908,0.0020496894139796495,-0.0009634171728976071,-0.004137846641242504,0.0001200863262056373,-0.0007909302948974073
自由,-0.0066679068841040134,0.0072397952899336815,0.009545927867293358,-0.0030898412223905325,0.007179040461778641,-0.0014038877561688423,-0.006037152372300625,0.00836219172924757,0.00036849721800535917,0.001952630584128201,-0.011014847084879875,-0.0007964359829202294,0.004514423198997974,-0.006654484663158655,0.00036637100856751204,-0.0014205796178430319,0.0042617470026016235,-0.002340438310056925,0.0007223014254122972,-0.01484520174562931,0.00491389399394393,-0.005179192405194044,-0.0006614465964958072,0.012811260297894478,0.0042001958936452866,-0.007709034718573093,-0.0006560082547366619,-0.001965657342225313,0.0003726641880348325,-0.0025156806223094463,0.005685571115463972,-0.0016001415206119418,-0.008428018540143967,0.0012181971687823534,0.0022965131793171167,0.006794665940105915,-0.0010679468978196383,-0.005623962730169296,-0.00912367645651102,-0.0038337907753884792,-0.00185504206456244,0.006746406201273203,-0.003597850911319256,0.0016537474002689123,-0.003794405609369278,0.008529243990778923,-0.0020169042982161045,-0.0006840100977569818,-0.007399098947644234,0.0071279932744801044,0.011785603128373623,-0.00315844570286572,-0.004613527562469244,-0.00963482353836298,0.006066150031983852,0.005988184362649918,-0.007517770864069462,-0.01714411936700344,0.0015807419549673796,-0.0027265395037829876
受伤,-0.0030500367283821106,-0.00021255575120449066,0.005509486887603998,0.004875448532402515,0.00842203013598919,-0.0049655623733997345,-0.001985257724300027,0.0005038243252784014,-0.01137561071664095,0.0035597356036305428,-0.0035308897495269775,-0.005115544889122248,-0.0008699800819158554,-0.0048714494332671165,-0.008961333893239498,-0.004841498099267483,-0.00544021837413311,0.001561975572258234,0.00521376496180892,-0.0009360435651615262,0.00018092337995767593,0.0007226406596601009,0.0029029184952378273,-0.0026179375126957893,-0.002754724584519863,-0.005985267460346222,-0.0005552696529775858,-0.003897553775459528,-0.00265299528837204,0.0008033280028030276,0.007727359421551228,-0.004377714823931456,-0.012301311828196049,0.0014637019485235214,-0.002005512360483408,0.0016364193288609385,0.0037694787606596947,0.008656312711536884,-0.006926833186298609,0.0030223929788917303,-0.007799134589731693,0.0019737044349312782,-0.004969626199454069,-0.003304166253656149,-0.0012454342795535922,-0.0007527943234890699,0.0069621773436665535,0.0028142475057393312,0.001443231012672186,0.006470335181802511,0.008497785776853561,0.011492989026010036,0.007518925704061985,-0.003163960063830018,0.005779754836112261,-0.001872653840109706,0.00535306241363287,-0.004658383317291737,-0.005871545523405075,-0.006773806177079678
生病,-0.006603629793971777,0.008931351825594902,0.0026276633143424988,-0.002562914276495576,0.0019000859465450048,-0.0017354468582198024,0.0010172491893172264,0.004845420829951763,-0.0069295489229261875,0.0019500795751810074,-0.008563145063817501,0.013125784695148468,0.021157659590244293,0.001789224217645824,0.0043874019756913185,-0.0058236755430698395,0.009876985102891922,0.005656536668539047,0.0005933417705819011,-0.01032053679227829,0.003978426568210125,-0.0025246578734368086,0.004581822082400322,0.0006131934933364391,-0.0002617783029563725,0.007929451763629913,-0.0012547920923680067,0.002475847490131855,0.006726960651576519,0.0017389636486768723,0.007656116969883442,-0.001158920698799193,-0.0010032651480287313,-0.004632448777556419,-0.0013234406942501664,0.009523944929242134,-0.0018061695154756308,-0.0018114724662154913,-0.0023961439728736877,0.00503969332203269,0.0017404865939170122,0.0030015669763088226,0.0005996091058477759,0.0016650361940264702,-0.002116462215781212,-0.0030609858222305775,0.004055100493133068,0.0050076390616595745,0.0001452334108762443,0.005013042129576206,0.008780405856668949,-0.0030332214664667845,-0.007501641288399696,0.005803888197988272,0.0042640091851353645,0.0017853814642876387,-0.00938634853810072,-0.007249930407851934,0.0032158566173166037,-0.005385155789554119
也,-0.004875394981354475,0.005963968113064766,0.03460708260536194,0.0025337659753859043,-0.011081228964030743,-0.017037292942404747,-0.00725556630641222,0.0008554214145988226,-0.029092686250805855,-0.01899554952979088,0.0026454529725015163,-0.0028205886483192444,0.04658125340938568,-0.013588206842541695,-0.0011141500435769558,-0.01709679514169693,0.02002408355474472,0.011918539181351662,-0.008750888518989086,-0.027359023690223694,0.011496927589178085,-0.010208954103291035,-0.004628981463611126,0.02088778465986252,0.028084341436624527,-0.02768505923449993,0.009318051859736443,0.00971515104174614,0.007032683584839106,0.0038009530398994684,0.017268676310777664,-0.01710188388824463,-0.005054282955825329,-0.004022663924843073,-0.00045557552948594093,0.0037045693024992943,0.006457547657191753,-0.0361049547791481,-0.029320748522877693,0.018724316731095314,0.0022234227508306503,0.018204301595687866,-0.004709823057055473,0.0025140459183603525,-0.02898724190890789,-0.01717486046254635,-0.0042569758370518684,-0.008595854043960571,-0.011135632172226906,0.023048948496580124,0.028702449053525925,0.004700637888163328,-0.007536659017205238,0.00014448398724198341,0.026951761916279793,0.006462256424129009,0.0005808789283037186,-0.022915596142411232,0.0009837272809818387,-0.03459218144416809
人,-0.008203648030757904,0.011708480305969715,0.035851918160915375,0.015065275132656097,-0.01059630885720253,-0.017310047522187233,0.007273176684975624,0.013818234205245972,-0.02310994081199169,-0.029556766152381897,-0.006611768621951342,-0.009284114465117455,0.05505351722240448,-0.029752129688858986,-0.010071862488985062,-0.0026316791772842407,0.005725479684770107,0.0015814536018297076,0.0002853693440556526,-0.04234742000699043,0.008527354337275028,-0.020402971655130386,-0.0006721904501318932,0.013121956959366798,0.023366795852780342,-0.015861324965953827,0.014056944288313389,0.023410530760884285,0.010612278245389462,0.0018444247543811798,0.02827836573123932,-0.0002893897471949458,-0.00933749508112669,-0.01271016150712967,-0.007805798202753067,0.008746366016566753,0.012363404966890812,-0.026159299537539482,-0.03055683895945549,0.015240589156746864,0.01020642090588808,0.01014842838048935,-0.02357020601630211,0.004425836727023125,-0.024457640945911407,-0.020265869796276093,-0.018421029672026634,-0.007563462480902672,0.003968165256083012,0.0357891246676445,0.03774670511484146,0.008828568272292614,0.0006483495235443115,0.013163569383323193,0.03714244067668915,0.019164692610502243,-0.012722081504762173,-0.039484910666942596,0.020971812307834625,-0.03847256302833557
了让,0.0032372563146054745,-0.002089143730700016,0.00023114285431802273,-0.0018922912422567606,0.0017163450829684734,0.001798979239538312,-0.0009947672951966524,0.005881058983504772,-0.0047093844041228294,-0.0033261568751186132,0.008199709467589855,0.010397735051810741,0.009169131517410278,0.0006226171972230077,0.004898041486740112,-0.00026051560416817665,0.007737905718386173,-0.00035196321550756693,0.0009304845589213073,-0.004709668457508087,0.004837736953049898,-0.0020902655087411404,-0.001981738954782486,0.00014151097275316715,0.009167010895907879,-0.001553101697936654,-0.003966178745031357,0.005155348684638739,-0.0019036761950701475,-0.00521750608459115,0.0011679744347929955,0.0030301325023174286,-0.000915674667339772,-0.00175428984221071,-0.002901741536334157,0.0019485859666019678,0.003961311187595129,-0.004883636720478535,-0.00881962664425373,-0.005930548533797264,0.0006091638933867216,0.0055800024420022964,-0.005110240075737238,0.0006534018320962787,0.0010772398672997952,-0.002008338226005435,3.3815333154052496e-05,0.004093172959983349,0.0036144184414297342,0.0009998742025345564,0.000787885976023972,0.006221754010766745,-0.005045726895332336,0.0001985285198315978,0.002243459690362215,0.0006882179295644164,-0.004297013394534588,0.002943081548437476,0.008871577680110931,-0.0038814437575638294
饮料,0.003464990295469761,0.0001415175065631047,-0.005227478686720133,-0.00048796646296977997,0.0029220657888799906,0.0038714436814188957,0.00043170529534108937,0.0022109821438789368,-0.0030066510662436485,0.00010518822818994522,0.00523852976039052,-0.0017699936870485544,0.005846294574439526,-0.0008052729535847902,-0.002827619668096304,0.003320513991639018,-0.004716771189123392,0.0016479294281452894,-0.005072855856269598,1.8317950889468193e-05,0.005752867553383112,0.004174466244876385,0.0029662391170859337,0.007410195656120777,-0.002784247510135174,0.00891703087836504,-0.004040354862809181,0.009596817195415497,0.0010085166431963444,0.0029423150699585676,5.112786311656237e-06,-0.0006826322060078382,0.0031739575788378716,-0.002512493636459112,0.010668620467185974,0.0011758636683225632,-0.003150345291942358,0.0008028581505641341,0.0011618012795224786,0.002094529801979661,-0.0017413836903870106,-0.001884220284409821,0.0070186797529459,-0.005813294555991888,0.001953304512426257,-0.0037461293395608664,0.0038961577229201794,-0.0020732604898512363,0.0049119144678115845,0.004223361145704985,-0.007384486962109804,0.009829656220972538,-0.0041999598033726215,-0.0019461492775008082,0.0025404803454875946,0.001585731515660882,-0.00193583604414016,-0.011848492547869682,-0.0022695334628224373,-0.010035935789346695
错误,-0.0019472356652840972,0.004629115574061871,0.009545799344778061,-0.0026142846327275038,0.00790379662066698,0.0005141845904290676,0.004345502704381943,0.00044546695426106453,-0.003211013041436672,-0.0028800182044506073,0.004492095671594143,0.005272336769849062,0.007231384981423616,-0.00035927467979490757,-0.0018246752442792058,0.002025345806032419,0.00857931561768055,0.0027689714916050434,0.002913455478847027,-0.007513241842389107,0.006531120277941227,-0.004231170751154423,-0.005129201337695122,0.002631897572427988,0.006414379924535751,-0.0013126218691468239,0.003206898458302021,0.00950794480741024,0.01645718887448311,-0.0022568306885659695,0.0014797595795243979,-0.0018435337115079165,-0.007979009300470352,-0.0012854455271735787,0.0027191471308469772,0.006806490942835808,0.003118240274488926,-0.015203790739178658,-0.0212923064827919,-0.00021935562836006284,0.004834282211959362,0.009957762435078621,-0.006709919311106205,0.007504608482122421,-0.009662119671702385,0.005474313162267208,-0.007460951339453459,0.0075715286657214165,-0.00786567572504282,0.010878334753215313,0.011067226529121399,-0.0045555392280220985,-0.0031629130244255066,0.0014681005850434303,0.011162372305989265,0.00961223803460598,-0.007679119240492582,-0.0018309548031538725,-0.003600484924390912,-0.015162086114287376
