word,0,1,2,3,4,5,6,7,8,9,10,11,12,13,14,15,16,17,18,19,20,21,22,23,24,25,26,27,28,29,30,31,32,33,34,35,36,37,38,39,40,41,42,43,44,45,46,47,48,49,50,51,52,53,54,55,56,57,58,59,60,61,62,63,64,65,66,67,68,69,70,71,72,73,74,75,76,77,78,79,80,81,82,83,84,85,86,87,88,89,90,91,92,93,94,95,96,97,98,99
方式,-0.004732940346002579,0.00021633401047438383,-0.0007963668904267251,0.006764668971300125,-0.002385601634159684,-0.0057637495920062065,-0.002394679468125105,0.00332039431668818,-0.004229673184454441,-0.00590114900842309,-0.001757164136506617,-0.006208393722772598,-0.0057255569845438,0.001316889887675643,-0.001618585200048983,-0.00817810744047165,3.278080839663744e-05,-0.0058896481059491634,-0.002994723618030548,-0.01663966104388237,0.0017138747498393059,-0.004755386151373386,9.363231947645545e-05,0.0030651174020022154,0.003108199220150709,-0.0027412986382842064,-0.00038851771387271583,-0.00449496041983366,-0.001402996713295579,0.003810928901657462,0.0036988379433751106,-0.006153245456516743,-0.0035151736810803413,0.0012582436902448535,-0.005992534104734659,0.0009961132891476154,-0.00298660178668797,-0.002532059093937278,-0.013161830604076385,-0.00484067527577281,-0.003365568583831191,-0.004304806236177683,-0.0035915907938033342,-0.009503336623311043,-0.004974670708179474,-0.0010681275743991137,-0.007619273848831654,0.006858798675239086,0.0064235227182507515,0.00344351539388299,-0.0023585702292621136,-0.0021635047160089016,0.0009158140746876597,0.004384013824164867,0.00145546137355268,0.002686898922547698,-0.0009079718729481101,-0.0022995779290795326,-0.005358237773180008,0.003758264472708106,-0.0010240364354103804,-0.004497131332755089,-0.0033807489089667797,-0.004745228681713343,0.004869402851909399,-0.0063959406688809395,0.002459615468978882,-0.0046227178536355495,-0.004973243921995163,0.010138111189007759,-0.005367139354348183,-7.497821934521198e-05,-0.0011218043509870768,0.005493303760886192,0.002325048204511404,-0.0015870456118136644,0.004247691947966814,0.0012172572314739227,-0.005463674198836088,0.000980174751020968,-0.0012101012980565429,0.004862741567194462,-0.004927091300487518,0.004399539902806282,-0.00231545208953321,-0.0030912612564861774,0.004021258093416691,0.00397359998896718,0.011490578763186932,-0.001359730726107955,0.0011672676773741841,0.0060408650897443295,0.0016671608900651336,0.006204923614859581,0.0026212790980935097,0.006975377909839153,0.003048581536859274,-0.004758968483656645,0.0043846904300153255,-0.0026084433775395155
得到,-0.01252214889973402,0.004255703650414944,0.00805828906595707,0.016453837975859642,-0.0010991939343512058,-0.009638100862503052,0.0047965580597519875,0.010848927311599255,-0.0034138020128011703,-0.009534806944429874,-0.00678299181163311,-0.0179167240858078,-0.010643497109413147,0.004075578413903713,0.0002599988365545869,-0.00910584069788456,-0.004492783918976784,0.0045355502516031265,-0.000381133402697742,-0.021392706781625748,0.0026696515269577503,0.0022558816708624363,-0.002661026082932949,-0.0014114950317889452,0.0024649810511618853,0.0027113836258649826,-0.011391658335924149,-0.008267873898148537,-0.0036909710615873337,-0.0011947568273171782,0.004196754656732082,-0.004989922977983952,0.0005723717040382326,-0.0003538474556989968,-0.009196048602461815,0.01332799717783928,0.0081372344866395,-0.005749677307903767,-0.00746579235419631,-0.010217773728072643,0.007157097104936838,-0.008808459155261517,-0.008195923641324043,-0.0061217183247208595,-0.00267559546045959,0.0037889855448156595,-0.007165977731347084,0.01053685788065195,-0.0003602476790547371,0.012981254607439041,-0.008368833921849728,0.00029482360696420074,0.0015851387288421392,0.007537561468780041,0.00030030409106984735,0.0027226689271628857,0.008637728169560432,-0.009699382819235325,-0.0037121253553777933,0.009410643018782139,-0.00040678074583411217,0.0001681511348579079,-0.0034449235536158085,-0.005193520803004503,-0.0006014072569087148,-0.003974244464188814,0.0009568123496137559,-0.007283227983862162,-0.01234458014369011,0.01151318196207285,0.001161818508990109,-0.0030414569191634655,-0.0032750314567238092,-0.001246154773980379,0.007061399053782225,0.004041348118335009,0.004534851759672165,0.0022148529533296824,-0.009229595772922039,-0.0023678825236856937,0.0035431894939392805,-0.0027882931753993034,-0.0038988268934190273,0.006342002656310797,-0.004548413213342428,-0.000917334808036685,0.0046919845044612885,0.004815955646336079,0.009107681922614574,-0.0019454378634691238,-0.004090532660484314,-0.0017535776132717729,0.0024921002332121134,0.00783708319067955,0.004272405058145523,0.009023407474160194,-0.0009847346227616072,-0.00831606611609459,-0.0008452069596387446,-0.001367142889648676
幸运,0.005625003948807716,0.0031927842646837234,-0.0025323296431452036,0.001152448239736259,0.0016243276186287403,0.001641895272769034,0.00389000098221004,0.003986449912190437,0.0033462531864643097,0.00279148668050766,0.004897331353276968,-0.0017924010753631592,0.0025192741304636,0.003649054793640971,-0.0027838610112667084,-0.003786073997616768,0.0005166800110600889,-0.0004862450296059251,-0.004671372938901186,-0.0034475645516067743,-0.004296218045055866,-0.000646144850179553,6.355089135468006e-05,0.0010087478440254927,0.002074040472507477,-0.006525569595396519,0.003723796922713518,0.0005554932868108153,0.0020758749451488256,0.0022350121289491653,0.0009662602096796036,0.0023503012489527464,-0.005516462959349155,0.0032706696074455976,0.0012115312274545431,0.0019721253775060177,0.0009694623295217752,-0.001511376933194697,-0.0023684969637542963,-0.0032166403252631426,-0.002706867642700672,-0.0018700204091146588,-0.006082575302571058,-0.003144089598208666,-0.0039001614786684513,-0.00034686503931879997,-0.00035582599230110645,-0.0008342134533450007,0.003159307176247239,-0.00343835586681962,-0.0007128310389816761,0.004521660972386599,0.004498773720115423,0.0018469973001629114,0.0027479291893541813,0.0013793713878840208,-0.0011268098605796695,0.0013033633586019278,0.000814807484857738,0.0016802228055894375,-0.00019371951930224895,0.0011913871858268976,-0.005780644714832306,0.00015691615408286452,-0.0052744438871741295,-0.0034005430061370134,-9.95175214484334e-05,0.0021854466758668423,-0.003581136232241988,0.0005161003791727126,-0.0012776647927239537,0.0012607527896761894,-0.004203020595014095,-0.0012027991469949484,0.0025559780187904835,-0.00599845452234149,0.0038256945554167032,0.0028843465261161327,-0.002354162512347102,0.0023662527091801167,-0.0015292078023776412,0.00042546389158815145,-0.00479838578030467,0.0001390920951962471,-0.000908189918845892,0.0016197459772229195,0.00046652700984850526,0.0022984640672802925,0.008161783218383789,-0.0014357182662934065,0.00040943489875644445,-0.0012206202372908592,-0.005724689457565546,0.005259765777736902,-0.0002957642718683928,0.0072477213107049465,-0.004674919880926609,0.002471765037626028,0.001591526553966105,0.001651560072787106
位于,-0.003541438840329647,0.004796402994543314,0.0016806584317237139,-0.003639402100816369,-6.068567745387554e-05,0.006024401634931564,-5.609390791505575e-05,0.005280987359583378,-0.0002537890977691859,-0.0029085283167660236,0.0002965482126455754,-0.0022955904714763165,-0.005674284417182207,-0.003179540392011404,0.003963533788919449,6.152316927909851e-05,0.000608209753409028,-0.002238857327029109,0.002654090290889144,-0.0007371905376203358,-0.003737143473699689,-0.002654427196830511,-0.0021896883845329285,0.002856206614524126,-0.0037608984857797623,0.0003240542719140649,-0.0020958902314305305,0.002024279907345772,0.0003234491450712085,0.0006511887186206877,-0.0012620550114661455,-0.0014415659243240952,-0.003118484979495406,0.00025340623687952757,-0.0034261043183505535,0.0037998766638338566,-0.00460655614733696,-0.0014502997510135174,0.00431012362241745,0.003248280379921198,0.006925014313310385,0.0007952675223350525,-0.0014174246462062001,0.0030749994330108166,0.002428126987069845,0.0038585434667766094,-0.0017193281091749668,0.00471214996650815,-0.004337716847658157,-0.003947008401155472,0.0014236215502023697,-0.002972943941131234,0.0027090413495898247,-0.0004380975151434541,0.0012605520896613598,-0.0005526937311515212,0.0003556568408384919,-6.012816447764635e-05,0.003271916415542364,0.0033250306732952595,0.003441272769123316,0.004153864458203316,0.0009067703504115343,0.0021769108716398478,-0.0018530513625591993,0.005569932051002979,-0.0009319685632362962,0.0011308983666822314,0.0005211096722632647,0.0009159045876003802,-0.001252609770745039,-0.005417232401669025,0.0007942131487652659,-0.004395843017846346,0.005109882447868586,0.0013723885640501976,0.0001842329656938091,0.0024930336512625217,-0.0061333635821938515,0.0010304873576387763,-0.0011363046942278743,0.0016888024983927608,0.004663312807679176,-0.002542071044445038,0.0008162881131283939,-0.003750327043235302,0.004219274036586285,0.0017580344574525952,-0.0017575107049196959,-0.0026458464562892914,0.0003725238493643701,-0.0038699626456946135,-0.005358710885047913,0.0026923096738755703,0.0015905648469924927,0.0021260054782032967,-0.003393096849322319,0.0009103550692088902,-0.0006623333320021629,-0.003417487256228924
线,-0.00666870828717947,0.000697846058756113,0.0033607827499508858,0.0017482208786532283,-0.0029318765737116337,-0.0020656040869653225,0.006349080242216587,0.0018942577298730612,0.0006970687536522746,-0.0038634855300188065,-0.0031448721420019865,-0.0040902551263570786,-0.003564034355804324,-0.007744200527667999,-0.000743865966796875,-0.006776534020900726,-0.005377943627536297,0.005644721444696188,-0.0008873818442225456,-0.002316093072295189,-0.0024994865525513887,0.0011863596737384796,0.0031618180219084024,-0.0007422142662107944,-0.0023473806213587523,0.004968215245753527,-0.0056882151402533054,-0.00043050688691437244,0.00026871683076024055,-0.00031273532658815384,0.002468445338308811,0.00029469304718077183,0.0019137815106660128,0.004309536423534155,-0.002809834433719516,-0.005858259741216898,-0.00394852738827467,0.0024367980659008026,-0.011361445300281048,-0.001137354876846075,0.0005136451218277216,-0.0076475562527775764,0.0046624126844108105,0.0006724655977450311,0.0007841221522539854,0.00365424738265574,0.0006258827052079141,0.00024985731579363346,-0.005722189787775278,0.006132672540843487,0.0024842536076903343,-0.005195725709199905,0.003965148236602545,0.0008722683414816856,0.0035349451936781406,0.002854105783626437,0.0017447348218411207,-0.0026119695976376534,-0.005466833710670471,0.009268337860703468,-0.006262555718421936,0.0029502061661332846,-0.005353024695068598,0.007614074274897575,-0.0001964495750144124,-0.0005822358652949333,-0.0008290726691484451,-0.0019254288636147976,-0.010153032839298248,0.003807635512202978,0.00013123545795679092,-0.004663940519094467,0.0005465913563966751,0.0011737849563360214,0.00276172929443419,-0.0012549656676128507,0.006369403563439846,-0.0029085183050483465,-0.007634290494024754,-0.0026167824398726225,0.0019613862968981266,-0.0064305504783988,0.006909120827913284,0.0008416934870183468,-0.005089584272354841,-0.0029360961634665728,-0.002761894604191184,0.008917939849197865,-0.0015186164528131485,-0.004529175348579884,0.00414938572794199,0.0017079692333936691,-0.004792230203747749,-0.0036098258569836617,7.628863386344165e-05,0.004166878759860992,-0.004895852878689766,-0.00445804325863719,0.0023998187389224768,-0.005182590801268816
